~o
<STREAMINFO> 1 39
<VECSIZE> 39<NULLD><MFCC_D_A_0><DIAGC>
~s "silst"
<NUMMIXES> 32
<MIXTURE> 1 3.458251e-02
<MEAN> 39
 -1.104636e+01 -3.731706e+00 5.355135e+00 2.386712e+00 3.282765e+00 6.232585e+00 6.241131e+00 3.952009e+00 5.077744e+00 4.805932e+00 5.761242e+00 5.481657e+00 4.995251e+01 3.665091e-02 8.219595e-02 8.446467e-02 1.563269e-01 2.097450e-01 3.389441e-01 3.827531e-01 3.966720e-01 4.466043e-01 4.452845e-01 3.960938e-01 3.109111e-01 1.871924e-02 4.418887e-02 6.637231e-02 3.787244e-02 2.140089e-02 9.401905e-02 5.545244e-03 -3.218651e-02 3.749182e-02 -2.908386e-03 2.438173e-02 -8.572280e-03 3.180173e-02 1.384459e-01
<VARIANCE> 39
 2.028262e+00 2.965924e+00 4.167204e+00 5.545012e+00 7.635668e+00 9.109517e+00 1.152223e+01 1.188691e+01 1.108526e+01 1.268008e+01 1.247977e+01 1.076588e+01 4.871345e+00 3.680809e-01 4.289087e-01 5.374693e-01 7.189439e-01 9.749340e-01 1.012070e+00 1.227015e+00 1.353698e+00 1.460556e+00 1.504728e+00 1.316923e+00 1.135616e+00 2.105257e-01 5.420699e-02 6.225532e-02 8.484338e-02 1.176379e-01 1.674361e-01 1.929750e-01 2.337200e-01 2.443396e-01 2.451711e-01 2.664897e-01 2.346822e-01 2.079151e-01 3.234322e-02
<GCONST> 6.875862e+01
<MIXTURE> 2 2.243602e-02
<MEAN> 39
 -1.088767e+01 -3.360505e+00 5.228028e+00 8.165492e-01 4.270754e+00 3.830545e+00 4.050447e+00 4.567232e+00 7.094491e-01 1.521258e+00 2.927917e+00 3.476922e+00 5.687983e+01 -2.571386e-01 -2.712104e-01 3.026713e-02 2.396607e-01 5.158185e-01 5.917653e-01 8.945885e-01 9.839778e-01 9.865910e-01 1.064368e+00 1.095326e+00 8.970609e-01 -3.264121e-01 3.804747e-01 3.405771e-02 8.131236e-02 9.727229e-02 -8.532912e-02 1.882793e-01 8.205785e-02 -4.924092e-02 3.620259e-01 2.147591e-01 2.032767e-01 1.698178e-01 -6.866083e-02
<VARIANCE> 39
 2.773616e+01 1.943681e+01 2.196326e+01 2.610357e+01 3.428001e+01 3.251632e+01 3.392186e+01 3.507903e+01 3.033633e+01 3.515038e+01 2.988354e+01 2.286783e+01 1.215788e+01 1.131961e+00 1.012019e+00 1.280795e+00 1.522794e+00 1.980758e+00 2.039486e+00 2.204765e+00 2.248545e+00 2.490569e+00 2.508608e+00 2.110699e+00 1.943410e+00 8.020996e-01 2.973679e-01 2.709747e-01 3.222856e-01 4.681504e-01 5.052912e-01 5.435501e-01 5.350361e-01 4.915411e-01 4.736553e-01 4.926568e-01 4.327715e-01 3.733578e-01 2.067797e-01
<GCONST> 1.093460e+02
<MIXTURE> 3 4.365150e-02
<MEAN> 39
 -1.085332e+01 -3.174034e+00 5.960124e+00 2.855761e+00 4.066644e+00 5.514069e+00 4.475405e+00 2.061508e+00 2.523101e+00 1.912540e+00 2.255158e+00 3.510931e+00 5.164880e+01 5.292950e-02 8.717452e-02 2.055788e-01 2.860495e-01 2.369276e-01 3.946498e-01 4.338639e-01 3.186901e-01 3.963047e-01 3.459324e-01 3.199378e-01 2.400976e-01 -6.834191e-02 6.158915e-02 -3.812351e-02 -6.481172e-02 -1.222563e-01 -4.808017e-02 1.979018e-02 9.372117e-02 2.372010e-01 3.084514e-01 3.295240e-01 3.622272e-01 2.282238e-01 1.278434e-01
<VARIANCE> 39
 4.199104e+00 5.014848e+00 6.239136e+00 7.354105e+00 1.094725e+01 1.088071e+01 1.291447e+01 1.436210e+01 1.336770e+01 1.538687e+01 1.318566e+01 1.252132e+01 4.470188e+00 3.576755e-01 4.487899e-01 5.480980e-01 7.176416e-01 9.848408e-01 1.057103e+00 1.262500e+00 1.380879e+00 1.458451e+00 1.528485e+00 1.331037e+00 1.159896e+00 1.901823e-01 8.407018e-02 9.427835e-02 1.154225e-01 1.557875e-01 2.220753e-01 2.332373e-01 2.581961e-01 2.800308e-01 2.712981e-01 2.978216e-01 2.437976e-01 2.401386e-01 4.855037e-02
<GCONST> 7.507153e+01
<MIXTURE> 4 2.133487e-02
<MEAN> 39
 -1.087061e+01 -3.918173e+00 4.310827e+00 3.378665e-01 1.832121e+00 4.153141e+00 4.370606e+00 4.330513e+00 5.014918e+00 4.723854e+00 5.189305e+00 5.193944e+00 5.408447e+01 -4.320843e-01 2.694805e-01 5.766900e-01 8.826274e-01 9.389116e-01 6.727004e-01 8.776094e-01 7.930694e-01 5.765448e-01 6.993644e-01 7.932739e-01 6.042421e-01 3.548950e-02 1.803087e-01 6.346678e-02 1.386340e-01 8.155131e-02 1.506953e-01 1.159228e-01 3.975788e-02 2.484874e-02 -1.129433e-01 -1.023691e-01 -3.513869e-02 -1.149597e-02 2.691718e-01
<VARIANCE> 39
 1.352443e+01 1.039059e+01 1.593579e+01 2.039592e+01 2.440389e+01 2.381057e+01 2.440639e+01 2.357450e+01 2.282665e+01 2.232298e+01 1.932762e+01 1.659170e+01 1.169771e+01 2.647307e+00 2.106871e+00 3.108872e+00 4.807425e+00 4.379210e+00 4.489167e+00 4.299838e+00 3.481744e+00 3.619259e+00 3.364034e+00 2.878148e+00 2.388740e+00 3.631180e+00 2.730088e-01 1.901716e-01 2.806020e-01 3.871209e-01 4.089174e-01 4.238225e-01 4.790215e-01 4.337233e-01 4.510498e-01 4.075422e-01 3.779256e-01 3.185650e-01 2.924131e-01
<GCONST> 1.118721e+02
<MIXTURE> 5 4.051335e-02
<MEAN> 39
 -1.059215e+01 -3.494548e+00 5.512916e+00 1.825621e+00 3.172700e+00 4.538729e+00 3.630479e+00 1.692189e+00 2.186890e+00 1.997846e+00 2.800974e+00 3.810452e+00 5.273352e+01 1.528749e-01 2.961572e-01 4.258097e-01 4.800463e-01 2.496250e-01 2.892386e-01 2.402939e-01 3.642097e-03 9.656426e-02 7.390733e-02 4.304491e-02 1.222280e-01 -9.605239e-02 1.504308e-02 -2.290470e-02 -1.647431e-02 -2.317765e-02 6.857109e-02 1.091110e-01 1.659107e-01 2.770629e-01 2.912840e-01 2.454398e-01 2.352968e-01 1.482602e-01 1.167958e-01
<VARIANCE> 39
 5.232416e+00 6.271997e+00 7.792372e+00 8.677578e+00 1.214564e+01 1.159694e+01 1.347182e+01 1.507417e+01 1.491613e+01 1.557511e+01 1.376043e+01 1.295631e+01 4.893861e+00 4.448398e-01 5.575939e-01 6.612998e-01 8.249142e-01 1.111283e+00 1.210957e+00 1.368035e+00 1.468487e+00 1.512801e+00 1.541273e+00 1.374040e+00 1.249768e+00 2.668746e-01 1.008593e-01 1.062433e-01 1.304898e-01 1.683754e-01 2.301813e-01 2.359019e-01 2.596279e-01 2.779978e-01 2.776787e-01 2.856739e-01 2.413528e-01 2.392583e-01 6.041028e-02
<GCONST> 7.883508e+01
<MIXTURE> 6 3.870118e-02
<MEAN> 39
 -1.111350e+01 -4.001933e+00 4.801848e+00 1.470492e+00 3.059815e+00 5.345776e+00 5.088041e+00 3.762483e+00 5.037350e+00 4.712627e+00 5.078794e+00 4.885365e+00 5.149368e+01 6.613836e-03 2.185017e-01 1.398777e-01 1.742152e-01 2.720053e-01 2.483792e-01 2.476838e-01 3.753113e-01 3.117235e-01 4.606324e-01 3.015127e-01 2.815937e-01 1.220472e-01 6.710173e-02 6.416989e-02 1.114557e-01 1.097691e-01 1.160217e-01 6.228968e-02 4.015919e-02 2.118710e-02 -4.340100e-02 -5.799779e-02 -1.844516e-02 4.991371e-02 9.726034e-02
<VARIANCE> 39
 3.000840e+00 3.731966e+00 5.302142e+00 6.051596e+00 8.963136e+00 9.366686e+00 1.205002e+01 1.344404e+01 1.266902e+01 1.362768e+01 1.202275e+01 1.088849e+01 4.152857e+00 6.064417e-01 6.609665e-01 7.321321e-01 9.836209e-01 1.271649e+00 1.281946e+00 1.465914e+00 1.666896e+00 1.731888e+00 1.725855e+00 1.435382e+00 1.237881e+00 3.786353e-01 7.133882e-02 7.723140e-02 9.681825e-02 1.298539e-01 1.851254e-01 2.011960e-01 2.447452e-01 2.563310e-01 2.578166e-01 2.686593e-01 2.304395e-01 2.150365e-01 4.323229e-02
<GCONST> 7.491487e+01
<MIXTURE> 7 3.737171e-02
<MEAN> 39
 -1.119370e+01 -5.649132e+00 3.412827e+00 -6.779022e-01 3.759748e+00 4.015635e+00 3.197529e+00 5.588904e+00 3.318485e+00 3.644124e+00 4.504781e+00 4.835363e+00 5.698291e+01 7.004015e-02 1.566426e-01 2.767195e-01 2.804140e-01 3.175541e-01 2.992963e-01 3.748935e-01 3.590203e-01 3.605468e-01 4.462416e-01 3.809736e-01 3.264082e-01 -1.024139e-01 2.244480e-01 2.039728e-01 2.870832e-01 3.124062e-01 5.234171e-02 1.865938e-01 2.352238e-01 -6.989011e-02 1.796123e-01 3.567808e-02 1.002957e-01 6.990554e-02 -1.526674e-01
<VARIANCE> 39
 1.766259e+01 2.245199e+01 2.319443e+01 2.711403e+01 3.234833e+01 3.371188e+01 3.294280e+01 3.163071e+01 3.515529e+01 3.530796e+01 3.071034e+01 2.447798e+01 1.252181e+01 5.630392e-01 7.574131e-01 9.060094e-01 1.141225e+00 1.334672e+00 1.520820e+00 1.608557e+00 1.700859e+00 1.713589e+00 1.697571e+00 1.542291e+00 1.349565e+00 5.207098e-01 1.880606e-01 2.628476e-01 2.996886e-01 4.088616e-01 4.393485e-01 4.808116e-01 5.022110e-01 4.713735e-01 5.039845e-01 4.901035e-01 4.380691e-01 3.726509e-01 1.469603e-01
<GCONST> 1.031343e+02
<MIXTURE> 8 1.611186e-02
<MEAN> 39
 -1.058662e+01 -3.960192e+00 5.009444e+00 2.162535e+00 2.837028e+00 5.757980e+00 5.137980e+00 3.203328e+00 4.744254e+00 3.839859e+00 4.407550e+00 4.556762e+00 5.143686e+01 3.521949e-02 1.888301e-01 3.561125e-01 5.055686e-01 4.814833e-01 4.551681e-01 3.782139e-01 3.413774e-01 2.304562e-01 3.446988e-01 3.344464e-01 2.459676e-01 3.162428e-01 2.828160e-01 9.032637e-02 -6.842594e-02 -4.548112e-01 -2.625618e-01 -3.252952e-01 -3.482735e-01 5.346560e-02 -1.269014e-01 -3.008537e-02 -6.526580e-02 -3.692357e-02 8.505998e-01
<VARIANCE> 39
 2.931198e+00 4.964136e+00 7.910914e+00 9.060526e+00 1.180145e+01 1.183380e+01 1.443976e+01 1.621082e+01 1.550887e+01 1.780918e+01 1.485610e+01 1.419837e+01 5.222733e+00 1.489060e+00 1.598943e+00 2.290027e+00 3.414106e+00 3.332887e+00 3.098100e+00 3.069751e+00 2.829492e+00 2.731165e+00 2.695007e+00 2.305369e+00 2.068263e+00 1.873501e+00 2.923103e-01 3.149908e-01 4.298065e-01 4.797751e-01 5.863944e-01 4.802073e-01 5.127602e-01 5.647897e-01 5.149987e-01 5.182800e-01 4.665067e-01 4.041522e-01 2.312525e-01
<GCONST> 1.023297e+02
<MIXTURE> 9 4.466104e-02
<MEAN> 39
 -1.073295e+01 -3.396063e+00 5.783963e+00 2.426460e+00 3.557664e+00 5.131384e+00 4.018228e+00 1.650232e+00 2.127067e+00 1.523135e+00 1.923672e+00 3.167263e+00 5.205148e+01 1.230653e-01 1.693355e-01 2.515126e-01 2.857172e-01 2.049124e-01 2.707402e-01 2.598381e-01 1.228521e-01 1.507890e-01 1.052038e-01 8.685486e-02 1.355942e-01 -1.960970e-02 7.057408e-02 -1.315271e-02 -4.207833e-02 -9.941485e-02 -2.913765e-02 1.444621e-02 8.161408e-02 2.159666e-01 2.735887e-01 2.881190e-01 3.125712e-01 1.986797e-01 1.391829e-01
<VARIANCE> 39
 4.156748e+00 4.901894e+00 6.632506e+00 7.577526e+00 1.095896e+01 1.080496e+01 1.272695e+01 1.430670e+01 1.402647e+01 1.528518e+01 1.297029e+01 1.240608e+01 4.875407e+00 3.652120e-01 4.597527e-01 5.442324e-01 7.104368e-01 9.886641e-01 1.080176e+00 1.255115e+00 1.389526e+00 1.456504e+00 1.502179e+00 1.301318e+00 1.166213e+00 1.941341e-01 8.274834e-02 9.423459e-02 1.174545e-01 1.600266e-01 2.225450e-01 2.342109e-01 2.565193e-01 2.824290e-01 2.716387e-01 2.945863e-01 2.410299e-01 2.396173e-01 5.189408e-02
<GCONST> 7.532581e+01
<MIXTURE> 10 3.507974e-02
<MEAN> 39
 -1.039935e+01 -3.722910e+00 5.447480e+00 1.341380e+00 2.554026e+00 4.095401e+00 3.186636e+00 1.169333e+00 1.615073e+00 1.482552e+00 2.481452e+00 3.376030e+00 5.325238e+01 2.361663e-01 3.714219e-01 4.556786e-01 4.659143e-01 1.989264e-01 1.615599e-01 5.232455e-02 -1.932405e-01 -1.345538e-01 -1.561831e-01 -1.721453e-01 3.131053e-02 -3.787250e-02 1.739978e-02 6.253269e-03 -6.562315e-03 -1.091081e-02 8.641223e-02 9.259787e-02 1.445154e-01 2.595047e-01 2.542999e-01 2.161279e-01 1.839147e-01 1.248742e-01 1.445861e-01
<VARIANCE> 39
 5.189365e+00 6.180607e+00 8.296652e+00 8.945545e+00 1.188004e+01 1.155564e+01 1.320521e+01 1.481465e+01 1.552993e+01 1.510188e+01 1.381840e+01 1.267018e+01 5.367299e+00 4.554286e-01 5.590440e-01 6.564335e-01 8.161207e-01 1.119743e+00 1.234276e+00 1.354800e+00 1.455774e+00 1.486205e+00 1.518739e+00 1.350608e+00 1.264974e+00 2.749319e-01 1.012302e-01 1.053131e-01 1.313869e-01 1.719359e-01 2.298456e-01 2.395923e-01 2.585519e-01 2.745904e-01 2.772442e-01 2.797290e-01 2.397664e-01 2.360850e-01 6.686597e-02
<GCONST> 7.901353e+01
<MIXTURE> 11 3.724178e-02
<MEAN> 39
 -1.100228e+01 -4.267315e+00 4.656593e+00 1.041092e+00 2.591035e+00 4.913878e+00 4.513610e+00 3.206408e+00 4.555289e+00 4.173237e+00 4.639977e+00 4.466047e+00 5.202600e+01 7.786373e-02 2.835176e-01 1.606767e-01 1.354139e-01 2.353322e-01 8.504663e-02 6.216569e-02 2.324410e-01 1.171498e-01 2.976226e-01 1.183173e-01 1.636034e-01 2.099046e-01 8.143543e-02 8.935255e-02 1.255453e-01 1.257049e-01 1.274905e-01 5.556348e-02 3.092667e-02 1.125653e-02 -6.144528e-02 -8.318063e-02 -5.798588e-02 2.426259e-02 1.088394e-01
<VARIANCE> 39
 2.968229e+00 3.643285e+00 5.711913e+00 6.189230e+00 8.922831e+00 9.306789e+00 1.183404e+01 1.320772e+01 1.315369e+01 1.358268e+01 1.175762e+01 1.080443e+01 4.443464e+00 6.532416e-01 6.885613e-01 7.667088e-01 1.026057e+00 1.323147e+00 1.339707e+00 1.490720e+00 1.720484e+00 1.751273e+00 1.742736e+00 1.432291e+00 1.246295e+00 4.147731e-01 7.284983e-02 7.890116e-02 9.710787e-02 1.330294e-01 1.852011e-01 2.047990e-01 2.449507e-01 2.543851e-01 2.572722e-01 2.649345e-01 2.305273e-01 2.156127e-01 4.682859e-02
<GCONST> 7.560214e+01
<MIXTURE> 12 3.896659e-02
<MEAN> 39
 -1.097373e+01 -4.046496e+00 5.130743e+00 1.840467e+00 2.870059e+00 5.751432e+00 5.601339e+00 3.554913e+00 4.927240e+00 4.284003e+00 5.087246e+00 4.919729e+00 5.070119e+01 9.332125e-02 1.396374e-01 1.167382e-01 1.416950e-01 1.895360e-01 2.399027e-01 2.465287e-01 2.553148e-01 2.754792e-01 2.813482e-01 2.098560e-01 2.015102e-01 6.321743e-02 6.598730e-02 8.282647e-02 5.741836e-02 4.545781e-02 1.058381e-01 4.518881e-03 -4.355161e-02 1.231934e-02 -4.025911e-02 -1.185068e-02 -3.645321e-02 1.704289e-02 1.379871e-01
<VARIANCE> 39
 2.107766e+00 3.023080e+00 4.664981e+00 5.541477e+00 7.800187e+00 9.022343e+00 1.164485e+01 1.213808e+01 1.154655e+01 1.277860e+01 1.227624e+01 1.071384e+01 4.812443e+00 3.837733e-01 4.548597e-01 5.642154e-01 7.603910e-01 9.930698e-01 1.046159e+00 1.244958e+00 1.393388e+00 1.480726e+00 1.525658e+00 1.306483e+00 1.140264e+00 2.195058e-01 5.559830e-02 6.491821e-02 8.644316e-02 1.203708e-01 1.691611e-01 1.935212e-01 2.355922e-01 2.390091e-01 2.438730e-01 2.593596e-01 2.328829e-01 2.103090e-01 3.400617e-02
<GCONST> 6.948146e+01
<MIXTURE> 13 3.362501e-02
<MEAN> 39
 -1.020353e+01 -6.173606e+00 3.280426e+00 -1.045829e+00 3.310852e+00 3.840336e+00 2.545791e+00 4.953990e+00 3.101184e+00 2.912323e+00 3.963622e+00 4.067539e+00 5.793229e+01 1.177500e-01 1.780570e-01 2.902176e-01 2.322249e-01 3.285022e-01 2.038021e-01 2.366507e-01 1.945401e-01 1.712532e-01 2.400087e-01 2.094239e-01 2.545690e-01 -3.737690e-02 1.692912e-01 2.248548e-01 2.547402e-01 2.749179e-01 4.814418e-02 1.339318e-01 2.097087e-01 -1.643555e-02 1.342758e-01 5.095728e-02 9.315005e-02 9.165896e-02 -9.228007e-02
<VARIANCE> 39
 1.984849e+01 2.340486e+01 2.603727e+01 2.905081e+01 3.481635e+01 3.646702e+01 3.421151e+01 3.595681e+01 3.942727e+01 3.804764e+01 3.476788e+01 2.718357e+01 1.479590e+01 6.170152e-01 8.482198e-01 1.002885e+00 1.264723e+00 1.492219e+00 1.671133e+00 1.788471e+00 1.856083e+00 1.846356e+00 1.801308e+00 1.734916e+00 1.492400e+00 5.745875e-01 1.687898e-01 2.241685e-01 2.888682e-01 3.874672e-01 4.059806e-01 4.592760e-01 4.811077e-01 4.710046e-01 4.888106e-01 4.696243e-01 4.379469e-01 3.741473e-01 1.372763e-01
<GCONST> 1.049754e+02
<MIXTURE> 14 2.493634e-02
<MEAN> 39
 -1.028605e+01 -3.651445e+00 4.883416e+00 4.493289e-01 4.301740e+00 4.276110e+00 3.801395e+00 4.463872e+00 7.430809e-01 1.452555e+00 2.394310e+00 3.025323e+00 5.699829e+01 -2.167094e-01 -2.125171e-01 6.308973e-03 1.302752e-01 4.651968e-01 4.096944e-01 6.861682e-01 7.538550e-01 7.672560e-01 8.587118e-01 8.513331e-01 7.893134e-01 -2.030778e-01 3.378367e-01 6.835984e-02 9.647962e-02 8.351281e-02 -1.368815e-01 8.124770e-02 4.167631e-02 -6.951149e-02 2.960116e-01 1.588845e-01 1.897916e-01 1.581863e-01 -1.458988e-03
<VARIANCE> 39
 2.573531e+01 1.956393e+01 2.293254e+01 2.546252e+01 3.457635e+01 3.209050e+01 3.154869e+01 3.430235e+01 3.222829e+01 3.465591e+01 2.994774e+01 2.374374e+01 1.138181e+01 1.056770e+00 1.020448e+00 1.264293e+00 1.496795e+00 1.999534e+00 2.010524e+00 2.148831e+00 2.154986e+00 2.376272e+00 2.380494e+00 2.090888e+00 1.927302e+00 7.296763e-01 2.387771e-01 2.489188e-01 3.034245e-01 4.227880e-01 4.598682e-01 4.892768e-01 4.842613e-01 4.626007e-01 4.638122e-01 4.678368e-01 4.204913e-01 3.674015e-01 1.541199e-01
<GCONST> 1.076032e+02
<MIXTURE> 15 2.173378e-02
<MEAN> 39
 -1.139441e+01 -4.072431e+00 4.354498e+00 -1.133794e-01 1.463644e+00 3.663955e+00 3.494924e+00 3.638746e+00 4.456012e+00 4.368555e+00 4.841251e+00 4.913238e+00 5.568720e+01 -2.260500e-01 2.562956e-01 4.540765e-01 4.360016e-01 6.443530e-01 2.140793e-01 3.288695e-01 6.318265e-01 1.758698e-01 3.182113e-01 3.163538e-01 2.432876e-01 7.260510e-01 2.365091e-01 7.179566e-02 1.791620e-01 1.137070e-01 1.882082e-01 1.119201e-01 1.171607e-01 1.043414e-01 -8.123353e-02 -9.100434e-02 -2.460380e-02 -8.704625e-03 2.045571e-01
<VARIANCE> 39
 1.952899e+01 1.269315e+01 1.937274e+01 2.330942e+01 2.726096e+01 2.678838e+01 2.580238e+01 2.363022e+01 2.345438e+01 2.218879e+01 1.906312e+01 1.651607e+01 1.736274e+01 2.583998e+00 2.103302e+00 2.892876e+00 4.393631e+00 3.924801e+00 4.392915e+00 3.967283e+00 3.269332e+00 3.314809e+00 3.168014e+00 2.591434e+00 2.169039e+00 3.384264e+00 3.709960e-01 2.397315e-01 3.473412e-01 4.611302e-01 4.579470e-01 4.836313e-01 5.117688e-01 4.693249e-01 4.640100e-01 4.236477e-01 3.963678e-01 3.336597e-01 4.021686e-01
<GCONST> 1.143670e+02
<MIXTURE> 16 9.013080e-03
<MEAN> 39
 -1.046223e+01 -3.833608e+00 4.634961e+00 1.310304e+00 2.056637e+00 5.185764e+00 4.406956e+00 2.884181e+00 4.563612e+00 3.627046e+00 4.074981e+00 4.178418e+00 5.217731e+01 1.201766e+00 3.260790e-01 1.226094e-01 -6.297479e-01 -2.703861e-01 -3.103552e-01 -7.472336e-01 -6.044449e-01 -6.710194e-01 -5.207608e-01 -7.127685e-01 -3.702908e-01 2.183017e+00 7.045161e-01 1.410991e-02 -1.952509e-01 -7.949948e-01 -5.030819e-01 -4.662347e-01 -5.296084e-01 -2.537381e-01 -3.717433e-01 -2.497094e-01 -4.217358e-01 -2.384632e-01 1.444356e+00
<VARIANCE> 39
 3.712315e+00 5.985242e+00 1.088148e+01 1.180310e+01 1.577880e+01 1.351048e+01 1.617975e+01 1.632527e+01 1.750339e+01 1.989016e+01 1.516623e+01 1.536262e+01 6.353485e+00 2.007209e+00 4.244979e+00 5.497911e+00 6.610635e+00 5.995250e+00 3.970865e+00 4.521755e+00 4.233575e+00 3.915601e+00 3.313189e+00 2.975754e+00 3.034207e+00 4.073801e+00 2.234932e-01 6.795192e-01 8.019041e-01 7.873113e-01 7.976624e-01 6.474299e-01 6.292880e-01 6.752040e-01 6.166358e-01 5.973785e-01 5.236802e-01 5.082214e-01 4.298309e-01
<GCONST> 1.147221e+02
<MIXTURE> 17 4.466104e-02
<MEAN> 39
 -1.154847e+01 -4.281672e+00 4.753817e+00 1.325368e+00 2.233491e+00 3.816548e+00 2.591234e+00 1.372637e-01 6.289895e-01 -4.071569e-02 4.831002e-01 1.758373e+00 5.116827e+01 -1.186658e-01 -1.018848e-01 -4.357582e-02 -5.143242e-02 -1.928140e-01 -1.449859e-01 -1.882896e-01 -3.486605e-01 -3.319539e-01 -3.850498e-01 -3.694465e-01 -2.963711e-01 -1.958523e-01 -4.448996e-02 -1.359433e-01 -1.791649e-01 -2.594281e-01 -2.178364e-01 -1.791351e-01 -1.209769e-01 3.390394e-03 6.511287e-02 7.101578e-02 1.161920e-01 2.876855e-03 4.806177e-02
<VARIANCE> 39
 4.156748e+00 4.901894e+00 6.632506e+00 7.577526e+00 1.095896e+01 1.080496e+01 1.272695e+01 1.430670e+01 1.402647e+01 1.528518e+01 1.297029e+01 1.240608e+01 4.875407e+00 3.652120e-01 4.597527e-01 5.442324e-01 7.104368e-01 9.886641e-01 1.080176e+00 1.255115e+00 1.389526e+00 1.456504e+00 1.502179e+00 1.301318e+00 1.166213e+00 1.941341e-01 8.274834e-02 9.423459e-02 1.174545e-01 1.600266e-01 2.225450e-01 2.342109e-01 2.565193e-01 2.824290e-01 2.716387e-01 2.945863e-01 2.410299e-01 2.396173e-01 5.189408e-02
<GCONST> 7.532581e+01
<MIXTURE> 18 4.365150e-02
<MEAN> 39
 -1.167298e+01 -4.069788e+00 4.960994e+00 1.771023e+00 2.743178e+00 4.194632e+00 3.037937e+00 5.456138e-01 1.060627e+00 3.434960e-01 8.026757e-01 2.095512e+00 5.080309e+01 -1.862944e-01 -1.807926e-01 -9.055578e-02 -5.280545e-02 -1.600290e-01 -1.661223e-02 -1.558025e-02 -1.513531e-01 -8.676070e-02 -1.485952e-01 -1.415446e-01 -1.906963e-01 -2.427815e-01 -5.439028e-02 -1.609426e-01 -2.007073e-01 -2.801360e-01 -2.365796e-01 -1.733884e-01 -1.095308e-01 2.552924e-02 1.001062e-01 1.112318e-01 1.647238e-01 3.220802e-02 3.970679e-02
<VARIANCE> 39
 4.199104e+00 5.014848e+00 6.239136e+00 7.354105e+00 1.094725e+01 1.088071e+01 1.291447e+01 1.436210e+01 1.336770e+01 1.538687e+01 1.318566e+01 1.252132e+01 4.470188e+00 3.576755e-01 4.487899e-01 5.480980e-01 7.176416e-01 9.848408e-01 1.057103e+00 1.262500e+00 1.380879e+00 1.458451e+00 1.528485e+00 1.331037e+00 1.159896e+00 1.901823e-01 8.407018e-02 9.427835e-02 1.154225e-01 1.557875e-01 2.220753e-01 2.332373e-01 2.581961e-01 2.800308e-01 2.712981e-01 2.978216e-01 2.437976e-01 2.401386e-01 4.855037e-02
<GCONST> 7.507153e+01
<MIXTURE> 19 4.051335e-02
<MEAN> 39
 -1.150713e+01 -4.496306e+00 4.396322e+00 6.473114e-01 1.778676e+00 3.176557e+00 2.162319e+00 1.391706e-01 6.420338e-01 4.192337e-01 1.317172e+00 2.370656e+00 5.184864e+01 -1.139103e-01 -2.531618e-03 1.005283e-01 1.167471e-01 -1.720446e-01 -1.509354e-01 -2.275582e-01 -4.810825e-01 -3.954197e-01 -4.226847e-01 -4.258329e-01 -3.249441e-01 -3.026920e-01 -1.119903e-01 -1.532846e-01 -1.609678e-01 -1.873119e-01 -1.233378e-01 -8.516792e-02 -3.790405e-02 6.616091e-02 8.050305e-02 3.164597e-02 3.878615e-02 -4.739596e-02 1.848179e-02
<VARIANCE> 39
 5.232416e+00 6.271997e+00 7.792372e+00 8.677578e+00 1.214564e+01 1.159694e+01 1.347182e+01 1.507417e+01 1.491613e+01 1.557511e+01 1.376043e+01 1.295631e+01 4.893861e+00 4.448398e-01 5.575939e-01 6.612998e-01 8.249142e-01 1.111283e+00 1.210957e+00 1.368035e+00 1.468487e+00 1.512801e+00 1.541273e+00 1.374040e+00 1.249768e+00 2.668746e-01 1.008593e-01 1.062433e-01 1.304898e-01 1.683754e-01 2.301813e-01 2.359019e-01 2.596279e-01 2.779978e-01 2.776787e-01 2.856739e-01 2.413528e-01 2.392583e-01 6.041028e-02
<GCONST> 7.883508e+01
<MIXTURE> 20 3.896659e-02
<MEAN> 39
 -1.155445e+01 -4.741976e+00 4.266799e+00 8.988532e-01 1.752907e+00 4.549944e+00 4.236357e+00 2.161323e+00 3.568032e+00 2.854117e+00 3.685748e+00 3.610449e+00 4.982369e+01 -1.544765e-01 -1.301358e-01 -1.837189e-01 -2.071066e-01 -2.090756e-01 -1.692249e-01 -1.997821e-01 -2.168526e-01 -2.112612e-01 -2.127219e-01 -2.473499e-01 -2.256224e-01 -1.241884e-01 -2.832987e-02 -1.908974e-02 -6.018652e-02 -9.332018e-02 -5.867865e-02 -1.714453e-01 -2.377030e-01 -1.832349e-01 -2.377931e-01 -2.155601e-01 -2.294850e-01 -1.663949e-01 6.422408e-02
<VARIANCE> 39
 2.107766e+00 3.023080e+00 4.664981e+00 5.541477e+00 7.800187e+00 9.022343e+00 1.164485e+01 1.213808e+01 1.154655e+01 1.277860e+01 1.227624e+01 1.071384e+01 4.812443e+00 3.837733e-01 4.548597e-01 5.642154e-01 7.603910e-01 9.930698e-01 1.046159e+00 1.244958e+00 1.393388e+00 1.480726e+00 1.525658e+00 1.306483e+00 1.140264e+00 2.195058e-01 5.559830e-02 6.491821e-02 8.644316e-02 1.203708e-01 1.691611e-01 1.935212e-01 2.355922e-01 2.390091e-01 2.438730e-01 2.593596e-01 2.328829e-01 2.103090e-01 3.400617e-02
<GCONST> 6.948146e+01
<MIXTURE> 21 3.870118e-02
<MEAN> 39
 -1.180642e+01 -4.774665e+00 3.880793e+00 4.864919e-01 1.862275e+00 4.121574e+00 3.699515e+00 2.295839e+00 3.613608e+00 3.235999e+00 3.691840e+00 3.565457e+00 5.067854e+01 -3.048837e-01 -1.066977e-01 -2.023811e-01 -2.224955e-01 -1.790644e-01 -2.045130e-01 -2.366159e-01 -1.411220e-01 -2.146814e-01 -6.485479e-02 -1.777170e-01 -1.634467e-01 -1.240862e-01 -3.973557e-02 -4.699226e-02 -1.300681e-02 -3.437188e-02 -5.608314e-02 -1.171298e-01 -1.577277e-01 -1.813295e-01 -2.465036e-01 -2.653272e-01 -2.104616e-01 -1.355744e-01 1.409084e-02
<VARIANCE> 39
 3.000840e+00 3.731966e+00 5.302142e+00 6.051596e+00 8.963136e+00 9.366686e+00 1.205002e+01 1.344404e+01 1.266902e+01 1.362768e+01 1.202275e+01 1.088849e+01 4.152857e+00 6.064417e-01 6.609665e-01 7.321321e-01 9.836209e-01 1.271649e+00 1.281946e+00 1.465914e+00 1.666896e+00 1.731888e+00 1.725855e+00 1.435382e+00 1.237881e+00 3.786353e-01 7.133882e-02 7.723140e-02 9.681825e-02 1.298539e-01 1.851254e-01 2.011960e-01 2.447452e-01 2.563310e-01 2.578166e-01 2.686593e-01 2.304395e-01 2.150365e-01 4.323229e-02
<GCONST> 7.491487e+01
<MIXTURE> 22 3.737171e-02
<MEAN> 39
 -1.287478e+01 -7.544473e+00 1.486403e+00 -2.760748e+00 1.484724e+00 1.693157e+00 9.016967e-01 3.339257e+00 9.468091e-01 1.267304e+00 2.288105e+00 2.856354e+00 5.556747e+01 -2.301036e-01 -1.914754e-01 -1.040186e-01 -1.468985e-01 -1.445579e-01 -1.939898e-01 -1.324221e-01 -1.626477e-01 -1.630697e-01 -7.492183e-02 -1.157824e-01 -1.382749e-01 -3.910549e-01 5.098419e-02 -1.101837e-03 6.810796e-02 5.663702e-02 -2.127918e-01 -9.076850e-02 -4.824357e-02 -3.445167e-01 -1.043552e-01 -2.443515e-01 -1.644515e-01 -1.742750e-01 -3.060090e-01
<VARIANCE> 39
 1.766259e+01 2.245199e+01 2.319443e+01 2.711403e+01 3.234833e+01 3.371188e+01 3.294280e+01 3.163071e+01 3.515529e+01 3.530796e+01 3.071034e+01 2.447798e+01 1.252181e+01 5.630392e-01 7.574131e-01 9.060094e-01 1.141225e+00 1.334672e+00 1.520820e+00 1.608557e+00 1.700859e+00 1.713589e+00 1.697571e+00 1.542291e+00 1.349565e+00 5.207098e-01 1.880606e-01 2.628476e-01 2.996886e-01 4.088616e-01 4.393485e-01 4.808116e-01 5.022110e-01 4.713735e-01 5.039845e-01 4.901035e-01 4.380691e-01 3.726509e-01 1.469603e-01
<GCONST> 1.031343e+02
<MIXTURE> 23 3.724178e-02
<MEAN> 39
 -1.169142e+01 -5.030811e+00 3.700609e+00 4.596522e-02 1.396191e+00 3.693597e+00 3.137584e+00 1.752710e+00 3.104569e+00 2.699049e+00 3.268401e+00 3.151243e+00 5.118282e+01 -2.454297e-01 -4.840080e-02 -1.895710e-01 -2.697639e-01 -2.247803e-01 -3.779362e-01 -4.262145e-01 -2.922279e-01 -4.121929e-01 -2.304284e-01 -3.603961e-01 -2.829469e-01 -4.770694e-02 -2.652741e-02 -2.300485e-02 8.967631e-04 -2.018788e-02 -4.464949e-02 -1.254554e-01 -1.670433e-01 -1.904899e-01 -2.643333e-01 -2.890678e-01 -2.500389e-01 -1.614739e-01 2.227976e-02
<VARIANCE> 39
 2.968229e+00 3.643285e+00 5.711913e+00 6.189230e+00 8.922831e+00 9.306789e+00 1.183404e+01 1.320772e+01 1.315369e+01 1.358268e+01 1.175762e+01 1.080443e+01 4.443464e+00 6.532416e-01 6.885613e-01 7.667088e-01 1.026057e+00 1.323147e+00 1.339707e+00 1.490720e+00 1.720484e+00 1.751273e+00 1.742736e+00 1.432291e+00 1.246295e+00 4.147731e-01 7.284983e-02 7.890116e-02 9.710787e-02 1.330294e-01 1.852011e-01 2.047990e-01 2.449507e-01 2.543851e-01 2.572722e-01 2.649345e-01 2.305273e-01 2.156127e-01 4.682859e-02
<GCONST> 7.560214e+01
<MIXTURE> 24 3.507974e-02
<MEAN> 39
 -1.131055e+01 -4.717343e+00 4.295323e+00 1.450157e-01 1.175328e+00 2.735657e+00 1.733078e+00 -3.702587e-01 3.875154e-02 -7.189393e-02 9.945278e-01 1.952222e+00 5.232568e+01 -3.377550e-02 7.234491e-02 1.315962e-01 1.045567e-01 -2.243453e-01 -2.828320e-01 -4.132590e-01 -6.758623e-01 -6.221938e-01 -6.491317e-01 -6.370080e-01 -4.185737e-01 -2.476083e-01 -1.098670e-01 -1.235546e-01 -1.515516e-01 -1.767714e-01 -1.053566e-01 -1.031948e-01 -5.887656e-02 4.989924e-02 4.368392e-02 4.570268e-03 -1.194910e-02 -6.948008e-02 4.115231e-02
<VARIANCE> 39
 5.189365e+00 6.180607e+00 8.296652e+00 8.945545e+00 1.188004e+01 1.155564e+01 1.320521e+01 1.481465e+01 1.552993e+01 1.510188e+01 1.381840e+01 1.267018e+01 5.367299e+00 4.554286e-01 5.590440e-01 6.564335e-01 8.161207e-01 1.119743e+00 1.234276e+00 1.354800e+00 1.455774e+00 1.486205e+00 1.518739e+00 1.350608e+00 1.264974e+00 2.749319e-01 1.012302e-01 1.053131e-01 1.313869e-01 1.719359e-01 2.298456e-01 2.395923e-01 2.585519e-01 2.745904e-01 2.772442e-01 2.797290e-01 2.397664e-01 2.360850e-01 6.686597e-02
<GCONST> 7.901353e+01
<MIXTURE> 25 3.458251e-02
<MEAN> 39
 -1.161602e+01 -4.420580e+00 4.538586e+00 1.444798e+00 2.177457e+00 5.025306e+00 4.883355e+00 2.572913e+00 3.745963e+00 3.381568e+00 4.348174e+00 4.169201e+00 4.906967e+01 -2.060278e-01 -1.797685e-01 -2.087845e-01 -1.828353e-01 -1.852099e-01 -6.346267e-02 -6.032972e-02 -6.872216e-02 -3.680953e-02 -4.538491e-02 -6.293523e-02 -1.153500e-01 -1.648131e-01 -4.894071e-02 -3.343175e-02 -7.863912e-02 -1.157926e-01 -6.965678e-02 -1.701704e-01 -2.255649e-01 -1.602311e-01 -2.009674e-01 -1.821088e-01 -2.023483e-01 -1.505891e-01 6.650905e-02
<VARIANCE> 39
 2.028262e+00 2.965924e+00 4.167204e+00 5.545012e+00 7.635668e+00 9.109517e+00 1.152223e+01 1.188691e+01 1.108526e+01 1.268008e+01 1.247977e+01 1.076588e+01 4.871345e+00 3.680809e-01 4.289087e-01 5.374693e-01 7.189439e-01 9.749340e-01 1.012070e+00 1.227015e+00 1.353698e+00 1.460556e+00 1.504728e+00 1.316923e+00 1.135616e+00 2.105257e-01 5.420699e-02 6.225532e-02 8.484338e-02 1.176379e-01 1.674361e-01 1.929750e-01 2.337200e-01 2.443396e-01 2.451711e-01 2.664897e-01 2.346822e-01 2.079151e-01 3.234322e-02
<GCONST> 6.875862e+01
<MIXTURE> 26 3.362501e-02
<MEAN> 39
 -1.198559e+01 -8.108748e+00 1.239357e+00 -3.201781e+00 9.506364e-01 1.424819e+00 2.061669e-01 2.555430e+00 5.895382e-01 4.450126e-01 1.605050e+00 1.982025e+00 5.639367e+01 -1.964513e-01 -1.903384e-01 -1.103590e-01 -2.176148e-01 -1.601235e-01 -3.132872e-01 -2.982842e-01 -3.504125e-01 -3.722696e-01 -2.968426e-01 -3.174410e-01 -2.340863e-01 -3.405831e-01 4.955061e-03 3.546903e-02 3.975438e-02 2.593046e-02 -2.067222e-01 -1.371478e-01 -6.773906e-02 -2.909546e-01 -1.453841e-01 -2.231593e-01 -1.715602e-01 -1.530114e-01 -2.404833e-01
<VARIANCE> 39
 1.984849e+01 2.340486e+01 2.603727e+01 2.905081e+01 3.481635e+01 3.646702e+01 3.421151e+01 3.595681e+01 3.942727e+01 3.804764e+01 3.476788e+01 2.718357e+01 1.479590e+01 6.170152e-01 8.482198e-01 1.002885e+00 1.264723e+00 1.492219e+00 1.671133e+00 1.788471e+00 1.856083e+00 1.846356e+00 1.801308e+00 1.734916e+00 1.492400e+00 5.745875e-01 1.687898e-01 2.241685e-01 2.888682e-01 3.874672e-01 4.059806e-01 4.592760e-01 4.811077e-01 4.710046e-01 4.888106e-01 4.696243e-01 4.379469e-01 3.741473e-01 1.372763e-01
<GCONST> 1.049754e+02
<MIXTURE> 27 2.493634e-02
<MEAN> 39
 -1.231525e+01 -5.420691e+00 2.967898e+00 -1.569087e+00 1.949674e+00 2.010170e+00 1.554667e+00 2.121144e+00 -1.527718e+00 -9.022161e-01 2.053283e-01 1.076221e+00 5.564881e+01 -6.279066e-01 -6.165860e-01 -4.434542e-01 -3.590991e-01 -1.004227e-01 -1.574774e-01 9.981260e-02 1.666602e-01 1.506496e-01 2.415578e-01 2.729370e-01 2.340042e-01 -5.447622e-01 1.423775e-01 -1.312072e-01 -1.238563e-01 -1.765758e-01 -4.081359e-01 -1.985456e-01 -2.366792e-01 -3.415705e-01 2.359658e-02 -1.147099e-01 -6.958959e-02 -8.426828e-02 -1.584914e-01
<VARIANCE> 39
 2.573531e+01 1.956393e+01 2.293254e+01 2.546252e+01 3.457635e+01 3.209050e+01 3.154869e+01 3.430235e+01 3.222829e+01 3.465591e+01 2.994774e+01 2.374374e+01 1.138181e+01 1.056770e+00 1.020448e+00 1.264293e+00 1.496795e+00 1.999534e+00 2.010524e+00 2.148831e+00 2.154986e+00 2.376272e+00 2.380494e+00 2.090888e+00 1.927302e+00 7.296763e-01 2.387771e-01 2.489188e-01 3.034245e-01 4.227880e-01 4.598682e-01 4.892768e-01 4.842613e-01 4.626007e-01 4.638122e-01 4.678368e-01 4.204913e-01 3.674015e-01 1.541199e-01
<GCONST> 1.076032e+02
<MIXTURE> 28 2.243602e-02
<MEAN> 39
 -1.299427e+01 -5.123993e+00 3.353429e+00 -1.227117e+00 1.928788e+00 1.549621e+00 1.720747e+00 2.198130e+00 -1.493688e+00 -8.502518e-01 7.412832e-01 1.564110e+00 5.548510e+01 -6.827132e-01 -6.736070e-01 -4.224218e-01 -2.539454e-01 -4.713912e-02 2.052307e-02 3.006504e-01 3.841718e-01 3.553296e-01 4.308241e-01 5.141966e-01 3.394359e-01 -6.846521e-01 1.623489e-01 -1.741632e-01 -1.457685e-01 -1.764138e-01 -3.696645e-01 -1.066241e-01 -2.105268e-01 -3.296809e-01 8.673535e-02 -6.599899e-02 -5.986477e-02 -7.459423e-02 -2.505530e-01
<VARIANCE> 39
 2.773616e+01 1.943681e+01 2.196326e+01 2.610357e+01 3.428001e+01 3.251632e+01 3.392186e+01 3.507903e+01 3.033633e+01 3.515038e+01 2.988354e+01 2.286783e+01 1.215788e+01 1.131961e+00 1.012019e+00 1.280795e+00 1.522794e+00 1.980758e+00 2.039486e+00 2.204765e+00 2.248545e+00 2.490569e+00 2.508608e+00 2.110699e+00 1.943410e+00 8.020996e-01 2.973679e-01 2.709747e-01 3.222856e-01 4.681504e-01 5.052912e-01 5.435501e-01 5.350361e-01 4.915411e-01 4.736553e-01 4.926568e-01 4.327715e-01 3.733578e-01 2.067797e-01
<GCONST> 1.093460e+02
<MIXTURE> 29 2.173378e-02
<MEAN> 39
 -1.316207e+01 -5.497529e+00 2.593920e+00 -2.044573e+00 -6.248376e-01 1.593655e+00 1.463082e+00 1.694309e+00 2.518824e+00 2.484355e+00 3.094798e+00 3.287639e+00 5.402045e+01 -8.690427e-01 -3.238150e-01 -2.262617e-01 -4.024380e-01 -1.480914e-01 -6.242920e-01 -4.678521e-01 -9.142527e-02 -5.523949e-01 -3.937453e-01 -3.275635e-01 -3.458188e-01 -9.803802e-03 -7.128686e-03 -1.240539e-01 -5.658063e-02 -1.579193e-01 -8.247896e-02 -1.662544e-01 -1.689914e-01 -1.696878e-01 -3.537067e-01 -3.513573e-01 -2.764348e-01 -2.397578e-01 -4.910992e-02
<VARIANCE> 39
 1.952899e+01 1.269315e+01 1.937274e+01 2.330942e+01 2.726096e+01 2.678838e+01 2.580238e+01 2.363022e+01 2.345438e+01 2.218879e+01 1.906312e+01 1.651607e+01 1.736274e+01 2.583998e+00 2.103302e+00 2.892876e+00 4.393631e+00 3.924801e+00 4.392915e+00 3.967283e+00 3.269332e+00 3.314809e+00 3.168014e+00 2.591434e+00 2.169039e+00 3.384264e+00 3.709960e-01 2.397315e-01 3.473412e-01 4.611302e-01 4.579470e-01 4.836313e-01 5.117688e-01 4.693249e-01 4.640100e-01 4.236477e-01 3.963678e-01 3.336597e-01 4.021686e-01
<GCONST> 1.143670e+02
<MIXTURE> 30 2.133487e-02
<MEAN> 39
 -1.234163e+01 -5.207551e+00 2.714041e+00 -1.468607e+00 -1.438906e-01 2.201299e+00 2.394494e+00 2.388371e+00 3.103828e+00 2.833966e+00 3.430777e+00 3.564628e+00 5.271639e+01 -1.082906e+00 -3.111221e-01 -1.285898e-01 5.593687e-03 1.018491e-01 -1.748058e-01 4.816738e-02 4.669204e-02 -1.844292e-01 -3.428766e-02 1.146697e-01 -1.397991e-02 -7.267367e-01 -2.869232e-02 -1.109679e-01 -7.325353e-02 -1.673249e-01 -1.050913e-01 -1.444839e-01 -2.370876e-01 -2.385819e-01 -3.815843e-01 -3.577253e-01 -2.810413e-01 -2.372622e-01 5.287084e-02
<VARIANCE> 39
 1.352443e+01 1.039059e+01 1.593579e+01 2.039592e+01 2.440389e+01 2.381057e+01 2.440639e+01 2.357450e+01 2.282665e+01 2.232298e+01 1.932762e+01 1.659170e+01 1.169771e+01 2.647307e+00 2.106871e+00 3.108872e+00 4.807425e+00 4.379210e+00 4.489167e+00 4.299838e+00 3.481744e+00 3.619259e+00 3.364034e+00 2.878148e+00 2.388740e+00 3.631180e+00 2.730088e-01 1.901716e-01 2.806020e-01 3.871209e-01 4.089174e-01 4.238225e-01 4.790215e-01 4.337233e-01 4.510498e-01 4.075422e-01 3.779256e-01 3.185650e-01 2.924131e-01
<GCONST> 1.118721e+02
<MIXTURE> 31 1.611186e-02
<MEAN> 39
 -1.127145e+01 -4.851406e+00 3.884390e+00 9.585068e-01 1.462898e+00 4.381968e+00 3.617993e+00 1.592822e+00 3.169002e+00 2.151822e+00 2.865806e+00 3.049533e+00 5.052272e+01 -4.528887e-01 -3.169672e-01 -2.492009e-01 -2.335234e-01 -2.487645e-01 -2.488887e-01 -3.226143e-01 -3.314664e-01 -4.305933e-01 -3.119602e-01 -2.728913e-01 -3.292907e-01 -2.312608e-01 6.655303e-02 -1.341698e-01 -3.306645e-01 -7.318743e-01 -5.688674e-01 -6.024832e-01 -6.347027e-01 -2.471444e-01 -4.139550e-01 -3.180521e-01 -3.384710e-01 -2.912154e-01 6.582448e-01
<VARIANCE> 39
 2.931198e+00 4.964136e+00 7.910914e+00 9.060526e+00 1.180145e+01 1.183380e+01 1.443976e+01 1.621082e+01 1.550887e+01 1.780918e+01 1.485610e+01 1.419837e+01 5.222733e+00 1.489060e+00 1.598943e+00 2.290027e+00 3.414106e+00 3.332887e+00 3.098100e+00 3.069751e+00 2.829492e+00 2.731165e+00 2.695007e+00 2.305369e+00 2.068263e+00 1.873501e+00 2.923103e-01 3.149908e-01 4.298065e-01 4.797751e-01 5.863944e-01 4.802073e-01 5.127602e-01 5.647897e-01 5.149987e-01 5.182800e-01 4.665067e-01 4.041522e-01 2.312525e-01
<GCONST> 1.023297e+02
<MIXTURE> 32 9.013080e-03
<MEAN> 39
 -1.123293e+01 -4.812198e+00 3.315477e+00 -6.392121e-02 4.677353e-01 3.715500e+00 2.797994e+00 1.267999e+00 2.890130e+00 1.843110e+00 2.517227e+00 2.610610e+00 5.116907e+01 6.350616e-01 -4.980548e-01 -8.152956e-01 -1.658194e+00 -1.249794e+00 -1.107436e+00 -1.597810e+00 -1.427471e+00 -1.462535e+00 -1.248847e+00 -1.402783e+00 -1.067050e+00 1.375671e+00 5.154158e-01 -3.156219e-01 -5.534473e-01 -1.149917e+00 -8.603297e-01 -7.880868e-01 -8.469191e-01 -5.824213e-01 -6.858479e-01 -5.588704e-01 -7.111988e-01 -5.236218e-01 1.182110e+00
<VARIANCE> 39
 3.712315e+00 5.985242e+00 1.088148e+01 1.180310e+01 1.577880e+01 1.351048e+01 1.617975e+01 1.632527e+01 1.750339e+01 1.989016e+01 1.516623e+01 1.536262e+01 6.353485e+00 2.007209e+00 4.244979e+00 5.497911e+00 6.610635e+00 5.995250e+00 3.970865e+00 4.521755e+00 4.233575e+00 3.915601e+00 3.313189e+00 2.975754e+00 3.034207e+00 4.073801e+00 2.234932e-01 6.795192e-01 8.019041e-01 7.873113e-01 7.976624e-01 6.474299e-01 6.292880e-01 6.752040e-01 6.166358e-01 5.973785e-01 5.236802e-01 5.082214e-01 4.298309e-01
<GCONST> 1.147221e+02
~h "b"
<BEGINHMM>
<NUMSTATES> 5
<STATE> 2
<NUMMIXES> 32
<MIXTURE> 1 1.946514e-02
<MEAN> 39
 2.892567e-01 1.843347e+00 8.993001e+00 7.805439e+00 3.551198e-01 -6.612583e-01 -3.176234e+00 -8.278129e+00 -1.014742e+01 2.138666e+00 2.783317e+00 -6.234351e+00 5.945599e+01 -9.820158e-02 9.884341e-01 7.267941e-01 -1.462541e-01 7.960133e-01 1.538267e+00 8.795248e-01 6.196835e-01 1.500071e+00 -3.529778e-01 -2.462299e-01 7.665801e-01 -9.041852e-01 -1.189112e-01 -6.681377e-02 7.154353e-02 -1.447520e-01 2.654412e-01 1.650382e-01 3.024920e-01 3.771262e-01 5.992864e-01 -6.262407e-03 -6.867865e-02 3.331360e-01 1.177034e-02
<VARIANCE> 39
 5.475176e+00 9.316294e+00 1.170931e+01 2.973409e+01 1.154627e+01 3.127179e+01 4.588843e+01 2.354224e+01 3.489342e+01 2.443552e+01 2.207974e+01 2.052072e+01 9.007338e+00 2.123699e-01 6.163982e-01 6.376104e-01 1.141739e+00 1.331543e+00 1.688892e+00 1.919187e+00 1.668596e+00 2.325203e+00 1.385997e+00 1.657032e+00 1.774504e+00 4.226220e-01 4.751630e-02 1.241175e-01 1.282419e-01 1.947827e-01 2.420437e-01 3.341273e-01 2.928766e-01 2.786016e-01 4.333948e-01 2.459029e-01 3.376763e-01 2.916943e-01 6.828988e-02
<GCONST> 8.932508e+01
<MIXTURE> 2 3.307315e-02
<MEAN> 39
 9.055961e-01 1.212995e+00 6.805937e+00 5.693346e-01 -3.559924e-01 -4.199650e-01 -4.543597e+00 -5.942461e+00 -4.003817e+00 -1.350532e+00 1.104211e-01 -1.483464e+00 5.953231e+01 -7.126018e-01 2.015565e+00 1.451788e+00 2.138799e+00 1.998412e+00 2.121644e+00 2.136829e+00 4.825207e-01 8.079673e-01 -2.767985e-01 7.635459e-02 2.696894e-01 -2.142010e+00 -2.205125e-01 -4.635009e-01 1.466217e-01 -4.348101e-01 -4.503884e-01 -2.768186e-01 9.830691e-02 6.532773e-01 2.285450e-01 2.973729e-01 6.762646e-02 6.021008e-02 8.543338e-01
<VARIANCE> 39
 5.251903e+00 1.274444e+01 1.655485e+01 2.754269e+01 1.869298e+01 3.040618e+01 2.948400e+01 3.818985e+01 3.354672e+01 2.711606e+01 2.926905e+01 1.861402e+01 7.591954e+00 1.018219e+00 1.641242e+00 2.647947e+00 4.742176e+00 3.467304e+00 3.557681e+00 3.590890e+00 4.295075e+00 4.105381e+00 2.979748e+00 4.203043e+00 3.475623e+00 1.084260e+00 1.357245e-01 2.195059e-01 4.430557e-01 4.883055e-01 3.435337e-01 4.602938e-01 5.835807e-01 4.811191e-01 5.684541e-01 4.646770e-01 3.760420e-01 4.441322e-01 1.658539e-01
<GCONST> 1.109953e+02
<MIXTURE> 3 3.119805e-02
<MEAN> 39
 1.938022e+00 2.814061e+00 7.009705e+00 3.514600e-01 -4.451039e+00 -6.254732e+00 -9.255816e+00 -7.714402e+00 -4.189785e+00 3.941389e-01 -2.284506e+00 -5.225183e+00 6.040843e+01 -4.269275e-01 1.047987e+00 8.405890e-01 8.162539e-01 1.162795e+00 1.395453e+00 8.756667e-01 -1.100636e-01 6.371492e-01 -2.875354e-01 7.639083e-01 1.090125e+00 -1.067992e+00 -2.323579e-01 -3.094345e-01 1.320725e-01 2.668150e-02 3.157082e-01 2.481611e-01 3.084032e-01 4.166903e-01 1.465737e-01 1.020926e-01 2.441844e-01 3.151062e-01 2.497996e-01
<VARIANCE> 39
 2.541120e+00 9.415672e+00 1.113659e+01 1.803053e+01 2.654131e+01 1.952409e+01 3.645352e+01 4.629905e+01 3.803140e+01 3.400214e+01 2.634663e+01 2.530562e+01 7.657584e+00 3.466578e-01 5.400624e-01 6.555685e-01 8.990787e-01 2.064184e+00 1.901509e+00 1.274525e+00 1.820298e+00 2.219672e+00 2.247586e+00 1.780274e+00 2.028369e+00 2.031655e-01 6.362187e-02 1.458563e-01 1.762977e-01 2.238061e-01 3.436198e-01 2.772227e-01 3.013279e-01 4.554977e-01 4.178528e-01 3.852206e-01 3.787394e-01 3.840418e-01 1.254673e-01
<GCONST> 9.276145e+01
<MIXTURE> 4 2.072906e-02
<MEAN> 39
 -9.149709e+00 -1.461992e+00 6.900049e+00 3.283700e+00 3.541393e+00 5.006792e+00 2.874609e+00 6.615852e-01 2.169735e+00 1.996408e+00 2.501853e+00 1.994838e+00 5.344970e+01 1.195553e+00 8.775225e-01 8.490491e-01 8.868186e-01 2.679408e-01 1.886373e-01 3.299884e-02 -4.720796e-01 -5.312293e-01 -2.795635e-01 -4.737329e-01 -4.977220e-01 8.579858e-02 4.077445e-01 3.097519e-01 8.112279e-02 -2.247208e-01 -1.769070e-01 -3.534811e-01 -2.732267e-01 -1.634396e-01 -2.369595e-01 -1.334083e-01 -1.250973e-01 -1.386393e-01 6.956056e-01
<VARIANCE> 39
 7.451411e+00 1.088203e+01 1.115568e+01 9.471285e+00 1.471453e+01 1.464331e+01 2.363078e+01 1.600509e+01 1.627354e+01 1.844786e+01 1.606341e+01 1.648691e+01 1.365094e+01 1.263524e+00 1.320612e+00 9.417220e-01 1.096415e+00 1.127465e+00 1.530670e+00 1.921651e+00 2.309756e+00 2.295976e+00 2.477108e+00 1.631985e+00 2.318593e+00 1.464044e+00 3.127913e-01 2.333830e-01 3.268345e-01 3.448663e-01 2.896396e-01 3.216855e-01 4.072725e-01 4.383731e-01 3.608599e-01 4.044646e-01 2.922517e-01 4.586320e-01 2.393303e-01
<GCONST> 9.770838e+01
<MIXTURE> 5 3.184538e-02
<MEAN> 39
 1.403578e+00 1.562838e+00 6.281825e+00 -2.047681e-01 -5.160765e+00 -7.699573e+00 -6.816987e+00 -5.230756e+00 -4.549396e+00 -1.179220e+00 -4.500918e+00 -5.146280e+00 6.272733e+01 7.723297e-02 8.105384e-01 3.236995e-01 5.138275e-01 4.824101e-01 9.479356e-01 2.720396e-01 8.012633e-02 3.451558e-01 7.136792e-02 4.483268e-01 2.894037e-01 -6.659110e-01 -8.861901e-02 -1.832937e-01 1.401658e-01 -8.175214e-02 1.848377e-01 3.725185e-01 1.610544e-01 2.283624e-01 6.923382e-02 2.661458e-01 4.079881e-01 3.041051e-01 2.230616e-01
<VARIANCE> 39
 5.066470e+00 1.121833e+01 1.729179e+01 4.029646e+01 2.946055e+01 5.532948e+01 3.935165e+01 7.932142e+01 2.966238e+01 4.332452e+01 3.853506e+01 3.613961e+01 8.814504e+00 1.863765e-01 4.283596e-01 4.773259e-01 6.793693e-01 1.002345e+00 1.925645e+00 9.538972e-01 1.543727e+00 1.435180e+00 1.415272e+00 1.358204e+00 1.267868e+00 2.408145e-01 7.265259e-02 1.901921e-01 2.228006e-01 3.586935e-01 3.674441e-01 4.334659e-01 3.158191e-01 5.108207e-01 2.736218e-01 3.819281e-01 3.472791e-01 3.428401e-01 1.879471e-01
<GCONST> 9.497106e+01
<MIXTURE> 6 4.946938e-02
<MEAN> 39
 2.813585e+00 -2.979980e+00 2.687762e+00 -4.095175e+00 -2.940253e+00 -2.091239e+00 -5.883506e+00 -6.618868e+00 -6.974687e+00 1.378413e+00 3.715932e+00 -2.091672e+00 6.566006e+01 1.598292e-01 1.495283e+00 6.106447e-01 9.856141e-01 9.324559e-01 1.093430e+00 8.832929e-01 2.798206e-02 1.543847e-01 -1.145163e-01 7.498953e-01 1.092259e+00 -1.308861e+00 -1.285440e-01 -4.397499e-01 9.828977e-03 -3.941419e-01 -2.854066e-01 -2.446343e-01 1.275061e-01 9.369834e-01 7.608489e-01 1.845110e-01 -2.538256e-01 2.713993e-02 7.859998e-01
<VARIANCE> 39
 7.821340e+00 2.974495e+01 2.661925e+01 7.789745e+01 3.232018e+01 5.376535e+01 5.117289e+01 5.284963e+01 6.071216e+01 4.505947e+01 5.128715e+01 3.712909e+01 1.307331e+01 5.996587e-01 1.606245e+00 1.709701e+00 3.157825e+00 2.502205e+00 3.599266e+00 3.194122e+00 3.785137e+00 3.760912e+00 3.033890e+00 3.086528e+00 2.567152e+00 9.635713e-01 8.826684e-02 2.450970e-01 3.911162e-01 6.939525e-01 4.818013e-01 4.052314e-01 6.612858e-01 5.172024e-01 8.397115e-01 6.417114e-01 5.922025e-01 5.961471e-01 1.612525e-01
<GCONST> 1.176413e+02
<MIXTURE> 7 3.656616e-02
<MEAN> 39
 -2.507273e+00 3.029506e+00 1.008385e+01 3.025658e+00 1.069424e+00 1.061824e+00 -1.520178e+00 -4.752744e+00 -3.426556e+00 -2.391833e+00 -1.605217e+00 -1.931433e+00 5.608320e+01 3.532775e-02 3.963971e-01 4.531473e-01 4.240561e-01 4.503309e-01 5.751586e-01 4.960427e-01 2.183046e-01 3.317564e-01 2.077709e-02 1.185819e-01 2.148264e-01 -1.835455e-01 -3.759526e-04 -1.383093e-01 -5.466568e-02 -7.955331e-02 -5.113281e-03 4.758760e-04 3.109211e-02 1.321526e-01 1.580290e-01 1.985861e-01 2.295179e-01 1.834500e-01 2.298161e-01
<VARIANCE> 39
 6.320274e+00 4.950838e+00 8.735872e+00 9.692439e+00 1.446134e+01 2.137381e+01 1.586668e+01 1.280152e+01 1.969323e+01 2.155395e+01 2.245728e+01 1.791459e+01 9.881828e+00 3.864098e-01 4.883320e-01 4.563595e-01 7.274991e-01 9.804562e-01 1.249274e+00 1.271232e+00 1.312471e+00 1.301717e+00 1.382696e+00 1.190292e+00 1.074722e+00 2.240048e-01 8.384041e-02 9.334224e-02 1.122103e-01 1.494982e-01 1.727092e-01 2.263401e-01 2.433406e-01 2.472176e-01 2.521067e-01 2.345099e-01 2.234310e-01 2.005425e-01 7.026216e-02
<GCONST> 7.864800e+01
<MIXTURE> 8 2.148465e-02
<MEAN> 39
 -1.848438e+00 3.677018e+00 8.974594e+00 2.588672e+00 -1.669336e+00 -2.428928e+00 -4.953500e+00 -8.418509e+00 -5.329848e+00 -2.177744e+00 -2.019391e+00 -3.542546e+00 5.798775e+01 1.956346e+00 8.822571e-01 6.336709e-01 3.170024e-01 -4.276671e-01 -4.788835e-01 -8.457415e-01 -1.062686e+00 -9.455289e-01 -2.202732e-01 -4.144381e-01 -8.906372e-01 9.550303e-01 -5.498480e-01 -4.580895e-01 -1.948840e-01 7.852286e-03 5.285558e-01 7.716533e-01 8.171534e-01 1.159923e+00 7.927250e-01 5.307164e-01 6.090708e-01 6.209547e-01 -6.782938e-02
<VARIANCE> 39
 1.281439e+01 1.422548e+01 1.655567e+01 2.847804e+01 2.202254e+01 4.567062e+01 4.289227e+01 4.713824e+01 2.872251e+01 3.262442e+01 3.604025e+01 2.409831e+01 1.284956e+01 1.102575e+00 1.758619e+00 1.214409e+00 1.585221e+00 1.745858e+00 2.659964e+00 3.198116e+00 3.468592e+00 2.176909e+00 2.925682e+00 2.618161e+00 2.451163e+00 1.364665e+00 1.833044e-01 2.838524e-01 2.536787e-01 5.464239e-01 4.144701e-01 7.318332e-01 6.801919e-01 8.053713e-01 4.446547e-01 4.907711e-01 4.039335e-01 5.942791e-01 2.263267e-01
<GCONST> 1.118455e+02
<MIXTURE> 9 4.205134e-02
<MEAN> 39
 1.753157e+00 -3.711421e+00 2.450424e+00 -4.208572e+00 -2.464870e+00 -4.791498e+00 -8.169958e+00 -7.249074e+00 -4.272699e+00 2.359092e+00 -5.078501e-01 -3.593188e+00 6.595348e+01 1.060897e-01 1.356301e+00 9.370233e-01 1.420758e+00 1.048495e+00 8.626031e-01 2.786722e-01 -8.016559e-02 5.778590e-02 2.511482e-01 7.151393e-01 4.543548e-01 -1.291353e+00 -1.582512e-01 -5.891834e-01 -5.328818e-02 -6.788189e-01 -4.280953e-01 -9.762552e-02 5.779050e-01 1.061303e+00 4.163324e-01 -5.125214e-02 -1.526255e-01 2.755903e-01 9.667538e-01
<VARIANCE> 39
 9.117295e+00 2.500296e+01 2.986514e+01 5.813329e+01 3.030550e+01 6.822395e+01 3.918825e+01 6.697797e+01 4.287982e+01 4.338420e+01 4.982474e+01 3.718428e+01 1.391452e+01 4.911365e-01 1.315858e+00 1.887032e+00 2.725079e+00 2.191645e+00 3.209804e+00 2.655697e+00 3.613645e+00 2.618621e+00 2.803113e+00 2.344615e+00 2.365541e+00 8.071541e-01 9.070778e-02 2.475843e-01 3.878351e-01 7.449625e-01 5.680059e-01 4.985509e-01 7.370549e-01 6.910480e-01 6.584111e-01 6.524459e-01 6.107790e-01 6.041322e-01 1.707065e-01
<GCONST> 1.160802e+02
<MIXTURE> 10 3.635731e-02
<MEAN> 39
 7.295138e-01 4.766517e-01 5.719284e+00 -1.523479e+00 -6.886989e+00 -9.939152e+00 -6.058052e+00 -6.237304e+00 -4.142130e+00 -2.487072e+00 -5.715320e+00 -4.918539e+00 6.437350e+01 1.901218e-01 7.888556e-01 2.424666e-01 4.142712e-01 4.828080e-01 9.709166e-01 4.653166e-02 -4.932874e-02 9.315540e-02 1.966729e-01 2.776142e-01 1.423957e-01 -6.100191e-01 -7.934983e-02 -2.006131e-01 2.032836e-01 -1.736903e-01 1.619038e-01 3.811587e-01 1.475699e-01 2.031726e-01 1.931327e-02 3.158350e-01 3.146076e-01 2.335044e-01 2.642125e-01
<VARIANCE> 39
 7.029716e+00 1.409517e+01 1.915052e+01 3.176742e+01 2.887095e+01 7.763976e+01 3.837276e+01 9.075900e+01 2.774002e+01 4.466647e+01 3.405719e+01 3.508434e+01 1.161454e+01 1.728988e-01 4.202662e-01 4.217865e-01 7.625387e-01 9.479932e-01 1.711311e+00 1.116568e+00 1.492086e+00 1.207055e+00 1.380561e+00 1.141323e+00 1.193042e+00 2.637024e-01 7.740825e-02 1.772625e-01 2.427409e-01 3.785796e-01 4.026922e-01 3.505078e-01 3.521448e-01 5.114685e-01 2.192299e-01 3.383858e-01 3.130749e-01 2.860911e-01 1.709366e-01
<GCONST> 9.481059e+01
<MIXTURE> 11 3.331539e-02
<MEAN> 39
 1.716597e+00 3.037037e+00 6.853001e+00 3.544296e-01 -5.451898e+00 -6.606928e+00 -1.046436e+01 -9.932356e+00 -6.019885e+00 -6.970887e-01 -2.524829e+00 -4.219890e+00 6.044426e+01 -4.640690e-01 8.215726e-01 8.848528e-01 7.520498e-01 1.392632e+00 1.187916e+00 7.823136e-01 1.759946e-01 5.185345e-01 -3.395376e-01 6.085067e-01 8.343128e-01 -1.000883e+00 -2.015128e-01 -4.093588e-01 1.370124e-01 -1.622471e-01 1.306221e-01 1.385105e-01 3.243537e-01 6.504245e-01 2.386631e-01 1.557781e-01 1.204902e-01 2.078641e-01 4.402608e-01
<VARIANCE> 39
 2.714539e+00 8.573618e+00 1.190934e+01 1.092505e+01 2.393456e+01 2.075041e+01 2.690090e+01 4.543795e+01 2.350326e+01 3.144878e+01 2.538976e+01 3.000690e+01 4.687792e+00 3.180960e-01 4.323315e-01 6.267233e-01 8.710153e-01 1.844010e+00 1.742341e+00 1.289585e+00 2.047624e+00 1.775147e+00 1.719769e+00 1.499684e+00 1.840910e+00 1.894703e-01 6.489997e-02 1.559062e-01 2.442052e-01 3.373806e-01 4.247031e-01 2.642966e-01 2.835658e-01 4.432804e-01 3.355605e-01 3.413009e-01 3.551207e-01 3.802633e-01 1.764701e-01
<GCONST> 9.055814e+01
<MIXTURE> 12 4.547543e-02
<MEAN> 39
 -4.068795e-02 7.996497e-01 6.862999e+00 -3.112397e-01 -1.567401e+00 -2.260665e+00 -5.433022e+00 -5.843796e+00 -4.212716e+00 -2.559156e+00 -3.174832e+00 -2.826560e+00 6.006533e+01 -7.111930e-01 1.791593e+00 1.408743e+00 2.351076e+00 1.962735e+00 1.760918e+00 1.469461e+00 4.102099e-02 3.258737e-01 -3.948744e-01 4.424575e-01 2.437568e-01 -1.810156e+00 -8.889134e-02 -6.267419e-01 -3.471971e-04 -8.663985e-01 -6.105728e-01 -2.622837e-01 1.464681e-01 5.891427e-01 1.553857e-01 3.443673e-01 1.189949e-01 2.533338e-01 1.087767e+00
<VARIANCE> 39
 5.735805e+00 1.394118e+01 1.849693e+01 2.132973e+01 1.823077e+01 2.357392e+01 2.805177e+01 3.097586e+01 2.841951e+01 2.670965e+01 2.444022e+01 1.957836e+01 8.094721e+00 9.791326e-01 1.906048e+00 2.585653e+00 3.688188e+00 2.839958e+00 2.912030e+00 3.190411e+00 3.464056e+00 3.409842e+00 2.836421e+00 2.884619e+00 3.383920e+00 1.187508e+00 1.513823e-01 2.195338e-01 5.795106e-01 5.421270e-01 5.392694e-01 4.440636e-01 5.773618e-01 4.978269e-01 5.666871e-01 4.801387e-01 4.100093e-01 3.948106e-01 1.965012e-01
<GCONST> 1.098870e+02
<MIXTURE> 13 3.226191e-02
<MEAN> 39
 -2.180114e+00 2.981473e+00 9.518653e+00 2.053911e+00 4.448754e-01 6.465160e-01 -2.107253e+00 -5.362759e+00 -4.946752e+00 -3.531698e+00 -2.882619e+00 -2.299694e+00 5.719069e+01 -6.886497e-03 3.549953e-01 4.668995e-01 5.231719e-01 4.439208e-01 4.384356e-01 5.279481e-01 2.130131e-01 3.633121e-01 -1.352217e-01 -7.580176e-02 -7.572943e-02 -1.705722e-01 1.165962e-01 -1.272523e-01 -1.219362e-01 -2.011871e-01 -1.142350e-01 -9.554563e-02 -2.994550e-02 1.847923e-01 1.863238e-01 2.395771e-01 1.886720e-01 1.621939e-01 3.215056e-01
<VARIANCE> 39
 6.674247e+00 7.236129e+00 1.039819e+01 1.193199e+01 1.679886e+01 1.997851e+01 1.724540e+01 1.834324e+01 2.190696e+01 2.861144e+01 3.447215e+01 1.877925e+01 9.554649e+00 3.948193e-01 4.171560e-01 5.466018e-01 7.487257e-01 1.037047e+00 1.188473e+00 1.277583e+00 1.462033e+00 1.135714e+00 1.452962e+00 1.599831e+00 1.024914e+00 2.425909e-01 7.559300e-02 9.812128e-02 1.241884e-01 1.835803e-01 2.102971e-01 2.455354e-01 2.421270e-01 2.437897e-01 2.535454e-01 3.298388e-01 2.925908e-01 2.132502e-01 7.771969e-02
<GCONST> 8.254595e+01
<MIXTURE> 14 2.710641e-02
<MEAN> 39
 1.140905e+00 5.791159e-01 7.634703e+00 4.594356e+00 5.594292e-01 -2.068146e+00 -4.729074e+00 -8.127876e+00 -1.092036e+01 1.451329e+00 2.643647e+00 -5.036105e+00 6.058070e+01 -1.743317e-02 9.646122e-01 6.160269e-01 8.130589e-02 2.013006e-01 1.247799e+00 7.088220e-01 4.358239e-01 1.179396e+00 -2.303009e-01 -3.330556e-01 7.531691e-02 -7.404401e-01 -6.139632e-02 4.779896e-02 -2.485204e-02 -1.508045e-01 4.814593e-02 1.151650e-01 2.625912e-01 3.235828e-01 5.760331e-01 1.845969e-02 -1.120440e-01 2.673570e-01 8.098920e-02
<VARIANCE> 39
 4.131766e+00 7.993397e+00 1.151140e+01 2.709670e+01 1.279942e+01 2.032091e+01 3.365290e+01 2.527857e+01 4.976863e+01 3.040730e+01 2.899320e+01 1.857832e+01 1.034315e+01 2.051815e-01 4.721667e-01 5.079989e-01 9.922271e-01 9.208640e-01 1.593368e+00 1.408664e+00 1.748042e+00 2.219010e+00 1.488545e+00 1.772466e+00 1.591704e+00 2.766845e-01 4.832496e-02 1.027009e-01 1.154827e-01 2.141514e-01 1.961858e-01 2.861766e-01 2.425191e-01 2.256161e-01 3.838329e-01 2.403333e-01 2.698207e-01 2.462996e-01 7.868548e-02
<GCONST> 8.595651e+01
<MIXTURE> 15 2.777715e-02
<MEAN> 39
 -9.557975e+00 -2.841158e+00 6.027637e+00 2.636050e+00 2.920252e+00 4.735849e+00 3.194036e+00 8.900323e-01 2.401165e+00 1.900559e+00 2.763737e+00 2.657176e+00 5.266724e+01 2.013407e+00 1.668064e+00 1.072496e+00 4.099778e-01 -4.800839e-01 -1.074510e+00 -1.484401e+00 -1.603419e+00 -1.629735e+00 -1.226156e+00 -1.310144e+00 -1.502259e+00 1.128023e+00 6.576299e-01 4.002660e-01 1.936092e-01 -1.310050e-01 -3.257131e-01 -4.672346e-01 -4.859501e-01 -4.210912e-01 -3.830441e-01 -1.251748e-01 -1.862700e-01 -3.079278e-01 6.640117e-01
<VARIANCE> 39
 4.180333e+00 6.800543e+00 7.752884e+00 8.692947e+00 1.118062e+01 1.331100e+01 1.774387e+01 1.624925e+01 1.357397e+01 2.054322e+01 1.758059e+01 1.720367e+01 8.013556e+00 1.083557e+00 1.138087e+00 1.063590e+00 1.124337e+00 1.436091e+00 2.372208e+00 3.060727e+00 3.071276e+00 2.040201e+00 2.406683e+00 2.103696e+00 2.372108e+00 9.448258e-01 1.619559e-01 2.190348e-01 2.416286e-01 4.311582e-01 3.324106e-01 3.326298e-01 5.125349e-01 4.757431e-01 3.516153e-01 5.169905e-01 4.403305e-01 4.536479e-01 1.900842e-01
<GCONST> 9.613287e+01
<MIXTURE> 16 1.182170e-02
<MEAN> 39
 -3.342613e+00 2.820436e+00 8.788541e+00 2.337672e+00 -9.518142e-01 -1.388220e+00 -4.630193e+00 -6.894863e+00 -4.951349e+00 -3.786212e+00 -3.057584e+00 -2.422225e+00 5.670325e+01 2.887029e+00 1.774369e+00 9.837195e-01 3.110489e-01 -1.424886e+00 -1.846641e+00 -2.318208e+00 -2.509974e+00 -1.890282e+00 -8.418306e-01 -1.706629e+00 -1.896746e+00 1.755359e+00 -1.791635e-01 -3.823817e-01 -2.748680e-01 -1.232338e-01 1.752420e-01 4.860388e-01 4.929374e-01 6.802118e-01 6.004663e-01 6.178059e-01 5.182507e-01 4.329481e-01 1.977784e-01
<VARIANCE> 39
 1.141107e+01 8.779838e+00 1.594226e+01 1.520509e+01 1.957203e+01 4.625534e+01 3.775612e+01 3.401242e+01 2.228335e+01 2.226353e+01 2.676007e+01 2.122998e+01 1.250635e+01 1.289971e+00 2.269485e+00 1.629187e+00 3.273372e+00 2.462132e+00 4.066517e+00 4.437118e+00 6.621017e+00 3.681379e+00 3.363436e+00 3.785990e+00 3.443249e+00 7.931042e-01 1.999522e-01 2.333793e-01 2.445203e-01 3.190573e-01 4.139610e-01 6.547439e-01 5.639797e-01 5.603608e-01 3.351496e-01 5.079042e-01 5.266143e-01 5.299762e-01 2.021475e-01
<GCONST> 1.113820e+02
<MIXTURE> 17 4.946938e-02
<MEAN> 39
 1.694919e+00 -5.161537e+00 6.240081e-01 -7.625556e+00 -5.214287e+00 -5.024233e+00 -8.744915e+00 -9.526778e+00 -1.009141e+01 -1.306641e+00 8.513300e-01 -4.529018e+00 6.421378e+01 -1.499213e-01 9.883326e-01 8.762255e-02 2.748032e-01 2.997215e-01 3.345609e-01 1.684086e-01 -7.502351e-01 -6.213381e-01 -8.112389e-01 4.715455e-02 4.513659e-01 -1.701507e+00 -2.473830e-01 -6.377790e-01 -2.403282e-01 -7.273571e-01 -5.630542e-01 -4.992655e-01 -1.977718e-01 6.493163e-01 3.943059e-01 -1.359166e-01 -5.616444e-01 -2.817023e-01 6.253748e-01
<VARIANCE> 39
 7.821340e+00 2.974495e+01 2.661925e+01 7.789745e+01 3.232018e+01 5.376535e+01 5.117289e+01 5.284963e+01 6.071216e+01 4.505947e+01 5.128715e+01 3.712909e+01 1.307331e+01 5.996587e-01 1.606245e+00 1.709701e+00 3.157825e+00 2.502205e+00 3.599266e+00 3.194122e+00 3.785137e+00 3.760912e+00 3.033890e+00 3.086528e+00 2.567152e+00 9.635713e-01 8.826684e-02 2.450970e-01 3.911162e-01 6.939525e-01 4.818013e-01 4.052314e-01 6.612858e-01 5.172024e-01 8.397115e-01 6.417114e-01 5.922025e-01 5.961471e-01 1.612525e-01
<GCONST> 1.176413e+02
<MIXTURE> 18 4.547543e-02
<MEAN> 39
 -9.986696e-01 -6.938660e-01 5.142677e+00 -2.158604e+00 -3.275301e+00 -4.202785e+00 -7.551579e+00 -8.070034e+00 -6.345114e+00 -4.626411e+00 -5.152314e+00 -4.596458e+00 5.892729e+01 -1.106997e+00 1.239355e+00 7.655447e-01 1.582890e+00 1.288648e+00 1.078332e+00 7.549925e-01 -7.034580e-01 -4.127566e-01 -1.068542e+00 -2.369091e-01 -4.920606e-01 -2.246047e+00 -2.445229e-01 -8.141597e-01 -3.048496e-01 -1.160915e+00 -9.043127e-01 -5.288361e-01 -1.574692e-01 3.069153e-01 -1.457288e-01 6.719913e-02 -1.371329e-01 1.997992e-03 9.104537e-01
<VARIANCE> 39
 5.735805e+00 1.394118e+01 1.849693e+01 2.132973e+01 1.823077e+01 2.357392e+01 2.805177e+01 3.097586e+01 2.841951e+01 2.670965e+01 2.444022e+01 1.957836e+01 8.094721e+00 9.791326e-01 1.906048e+00 2.585653e+00 3.688188e+00 2.839958e+00 2.912030e+00 3.190411e+00 3.464056e+00 3.409842e+00 2.836421e+00 2.884619e+00 3.383920e+00 1.187508e+00 1.513823e-01 2.195338e-01 5.795106e-01 5.421270e-01 5.392694e-01 4.440636e-01 5.773618e-01 4.978269e-01 5.666871e-01 4.801387e-01 4.100093e-01 3.948106e-01 1.965012e-01
<GCONST> 1.098870e+02
<MIXTURE> 19 4.205134e-02
<MEAN> 39
 5.453628e-01 -5.711539e+00 2.644639e-01 -7.258380e+00 -4.666888e+00 -8.095409e+00 -1.067398e+01 -1.052268e+01 -6.892007e+00 -2.755758e-01 -3.331316e+00 -6.032344e+00 6.446140e+01 -1.742349e-01 8.974572e-01 3.875461e-01 7.604458e-01 4.563263e-01 1.459660e-01 -3.731802e-01 -8.405492e-01 -5.895003e-01 -4.185518e-01 1.026539e-01 -1.608578e-01 -1.650721e+00 -2.787222e-01 -7.882148e-01 -3.023938e-01 -1.024064e+00 -7.295600e-01 -3.800581e-01 2.344974e-01 7.287862e-01 9.176223e-02 -3.743486e-01 -4.652349e-01 -3.531348e-02 8.014873e-01
<VARIANCE> 39
 9.117295e+00 2.500296e+01 2.986514e+01 5.813329e+01 3.030550e+01 6.822395e+01 3.918825e+01 6.697797e+01 4.287982e+01 4.338420e+01 4.982474e+01 3.718428e+01 1.391452e+01 4.911365e-01 1.315858e+00 1.887032e+00 2.725079e+00 2.191645e+00 3.209804e+00 2.655697e+00 3.613645e+00 2.618621e+00 2.803113e+00 2.344615e+00 2.365541e+00 8.071541e-01 9.070778e-02 2.475843e-01 3.878351e-01 7.449625e-01 5.680059e-01 4.985509e-01 7.370549e-01 6.910480e-01 6.584111e-01 6.524459e-01 6.107790e-01 6.041322e-01 1.707065e-01
<GCONST> 1.160802e+02
<MIXTURE> 20 3.656616e-02
<MEAN> 39
 -3.512879e+00 2.139486e+00 8.901590e+00 1.780350e+00 -4.516987e-01 -7.874485e-01 -3.113498e+00 -6.183912e+00 -5.201638e+00 -4.248883e+00 -3.500781e+00 -3.624459e+00 5.482578e+01 -2.133197e-01 1.168741e-01 1.829297e-01 8.288187e-02 5.425893e-02 1.280749e-01 4.504703e-02 -2.399479e-01 -1.246148e-01 -4.495753e-01 -3.178201e-01 -1.998488e-01 -3.728621e-01 -1.161968e-01 -2.605171e-01 -1.886569e-01 -2.342133e-01 -1.713465e-01 -1.898250e-01 -1.662261e-01 -6.673133e-02 -4.281193e-02 4.881255e-03 4.044392e-02 4.322059e-03 1.237881e-01
<VARIANCE> 39
 6.320274e+00 4.950838e+00 8.735872e+00 9.692439e+00 1.446134e+01 2.137381e+01 1.586668e+01 1.280152e+01 1.969323e+01 2.155395e+01 2.245728e+01 1.791459e+01 9.881828e+00 3.864098e-01 4.883320e-01 4.563595e-01 7.274991e-01 9.804562e-01 1.249274e+00 1.271232e+00 1.312471e+00 1.301717e+00 1.382696e+00 1.190292e+00 1.074722e+00 2.240048e-01 8.384041e-02 9.334224e-02 1.122103e-01 1.494982e-01 1.727092e-01 2.263401e-01 2.433406e-01 2.472176e-01 2.521067e-01 2.345099e-01 2.234310e-01 2.005425e-01 7.026216e-02
<GCONST> 7.864800e+01
<MIXTURE> 21 3.635731e-02
<MEAN> 39
 -3.310307e-01 -1.025090e+00 3.968832e+00 -3.777983e+00 -9.036257e+00 -1.346369e+01 -8.535882e+00 -1.004801e+01 -6.248882e+00 -5.160391e+00 -8.049661e+00 -7.287821e+00 6.301030e+01 2.379739e-02 5.295438e-01 -1.731379e-02 6.497738e-02 9.334821e-02 4.476482e-01 -3.761395e-01 -5.379326e-01 -3.463088e-01 -2.733162e-01 -1.497167e-01 -2.945101e-01 -8.154270e-01 -1.906392e-01 -3.690233e-01 6.208614e-03 -4.198055e-01 -9.192829e-02 1.443439e-01 -8.979730e-02 -8.289555e-02 -1.679747e-01 8.315122e-02 9.079521e-02 1.955443e-02 9.883454e-02
<VARIANCE> 39
 7.029716e+00 1.409517e+01 1.915052e+01 3.176742e+01 2.887095e+01 7.763976e+01 3.837276e+01 9.075900e+01 2.774002e+01 4.466647e+01 3.405719e+01 3.508434e+01 1.161454e+01 1.728988e-01 4.202662e-01 4.217865e-01 7.625387e-01 9.479932e-01 1.711311e+00 1.116568e+00 1.492086e+00 1.207055e+00 1.380561e+00 1.141323e+00 1.193042e+00 2.637024e-01 7.740825e-02 1.772625e-01 2.427409e-01 3.785796e-01 4.026922e-01 3.505078e-01 3.521448e-01 5.114685e-01 2.192299e-01 3.383858e-01 3.130749e-01 2.860911e-01 1.709366e-01
<GCONST> 9.481059e+01
<MIXTURE> 22 3.331539e-02
<MEAN> 39
 1.057563e+00 1.865807e+00 5.472604e+00 -9.676930e-01 -7.408816e+00 -8.429032e+00 -1.253900e+01 -1.262866e+01 -7.959091e+00 -2.940257e+00 -4.540359e+00 -6.411032e+00 5.957821e+01 -6.896690e-01 5.585650e-01 5.681894e-01 3.787370e-01 8.494543e-01 6.599244e-01 3.280740e-01 -3.963863e-01 -1.440409e-02 -8.640974e-01 1.186603e-01 2.915922e-01 -1.174995e+00 -3.034147e-01 -5.672986e-01 -6.065610e-02 -3.945850e-01 -1.300549e-01 -6.712865e-02 1.113501e-01 3.841073e-01 6.952725e-03 -7.790574e-02 -1.178778e-01 -3.879786e-02 2.722274e-01
<VARIANCE> 39
 2.714539e+00 8.573618e+00 1.190934e+01 1.092505e+01 2.393456e+01 2.075041e+01 2.690090e+01 4.543795e+01 2.350326e+01 3.144878e+01 2.538976e+01 3.000690e+01 4.687792e+00 3.180960e-01 4.323315e-01 6.267233e-01 8.710153e-01 1.844010e+00 1.742341e+00 1.289585e+00 2.047624e+00 1.775147e+00 1.719769e+00 1.499684e+00 1.840910e+00 1.894703e-01 6.489997e-02 1.559062e-01 2.442052e-01 3.373806e-01 4.247031e-01 2.642966e-01 2.835658e-01 4.432804e-01 3.355605e-01 3.413009e-01 3.551207e-01 3.802633e-01 1.764701e-01
<GCONST> 9.055814e+01
<MIXTURE> 23 3.307315e-02
<MEAN> 39
 -1.108512e-02 -2.149789e-01 5.178431e+00 -1.529911e+00 -2.085408e+00 -2.625637e+00 -6.715563e+00 -8.414379e+00 -6.320598e+00 -3.433456e+00 -2.053614e+00 -3.209222e+00 5.843017e+01 -1.116229e+00 1.503121e+00 8.008877e-01 1.267737e+00 1.253584e+00 1.367172e+00 1.378843e+00 -3.464618e-01 -2.502322e-03 -9.672763e-01 -7.436984e-01 -4.760316e-01 -2.558522e+00 -3.678757e-01 -6.509067e-01 -1.196280e-01 -7.143255e-01 -6.848354e-01 -5.481984e-01 -2.072629e-01 3.758263e-01 -7.303854e-02 2.470405e-02 -1.776626e-01 -2.063629e-01 6.914331e-01
<VARIANCE> 39
 5.251903e+00 1.274444e+01 1.655485e+01 2.754269e+01 1.869298e+01 3.040618e+01 2.948400e+01 3.818985e+01 3.354672e+01 2.711606e+01 2.926905e+01 1.861402e+01 7.591954e+00 1.018219e+00 1.641242e+00 2.647947e+00 4.742176e+00 3.467304e+00 3.557681e+00 3.590890e+00 4.295075e+00 4.105381e+00 2.979748e+00 4.203043e+00 3.475623e+00 1.084260e+00 1.357245e-01 2.195059e-01 4.430557e-01 4.883055e-01 3.435337e-01 4.602938e-01 5.835807e-01 4.811191e-01 5.684541e-01 4.646770e-01 3.760420e-01 4.441322e-01 1.658539e-01
<GCONST> 1.109953e+02
<MIXTURE> 24 3.226191e-02
<MEAN> 39
 -3.213496e+00 1.905471e+00 8.228805e+00 6.722028e-01 -1.194581e+00 -1.141377e+00 -3.768357e+00 -7.075919e+00 -6.818947e+00 -5.671284e+00 -5.231139e+00 -4.033095e+00 5.595427e+01 -2.582251e-01 9.664477e-02 1.711694e-01 1.770561e-01 3.657879e-02 2.367184e-03 7.582726e-02 -2.706451e-01 -6.296748e-02 -6.173773e-01 -5.817394e-01 -4.806816e-01 -3.675863e-01 6.619476e-03 -2.525495e-01 -2.628977e-01 -3.725722e-01 -2.976676e-01 -2.937518e-01 -2.267711e-01 -1.270792e-02 -1.508941e-02 9.850703e-03 -2.769461e-02 -2.252219e-02 2.099926e-01
<VARIANCE> 39
 6.674247e+00 7.236129e+00 1.039819e+01 1.193199e+01 1.679886e+01 1.997851e+01 1.724540e+01 1.834324e+01 2.190696e+01 2.861144e+01 3.447215e+01 1.877925e+01 9.554649e+00 3.948193e-01 4.171560e-01 5.466018e-01 7.487257e-01 1.037047e+00 1.188473e+00 1.277583e+00 1.462033e+00 1.135714e+00 1.452962e+00 1.599831e+00 1.024914e+00 2.425909e-01 7.559300e-02 9.812128e-02 1.241884e-01 1.835803e-01 2.102971e-01 2.455354e-01 2.421270e-01 2.437897e-01 2.535454e-01 3.298388e-01 2.925908e-01 2.132502e-01 7.771969e-02
<GCONST> 8.254595e+01
<MIXTURE> 25 3.184538e-02
<MEAN> 39
 5.032252e-01 2.230868e-01 4.618489e+00 -2.743948e+00 -7.331867e+00 -1.067492e+01 -9.326222e+00 -8.793259e+00 -6.727922e+00 -3.812074e+00 -6.983983e+00 -7.550930e+00 6.153976e+01 -9.545241e-02 5.487416e-01 4.734434e-02 1.841321e-01 8.194132e-02 3.928651e-01 -1.186310e-01 -4.168609e-01 -1.340402e-01 -4.044929e-01 -1.784122e-02 -1.609949e-01 -8.622024e-01 -1.964356e-01 -3.577377e-01 -4.864127e-02 -3.213162e-01 -5.763101e-02 1.091660e-01 -6.373672e-02 -5.752447e-02 -1.400017e-01 1.894444e-02 1.722665e-01 6.989490e-02 4.965018e-02
<VARIANCE> 39
 5.066470e+00 1.121833e+01 1.729179e+01 4.029646e+01 2.946055e+01 5.532948e+01 3.935165e+01 7.932142e+01 2.966238e+01 4.332452e+01 3.853506e+01 3.613961e+01 8.814504e+00 1.863765e-01 4.283596e-01 4.773259e-01 6.793693e-01 1.002345e+00 1.925645e+00 9.538972e-01 1.543727e+00 1.435180e+00 1.415272e+00 1.358204e+00 1.267868e+00 2.408145e-01 7.265259e-02 1.901921e-01 2.228006e-01 3.586935e-01 3.674441e-01 4.334659e-01 3.158191e-01 5.108207e-01 2.736218e-01 3.819281e-01 3.472791e-01 3.428401e-01 1.879471e-01
<GCONST> 9.497106e+01
<MIXTURE> 26 3.119805e-02
<MEAN> 39
 1.300386e+00 1.586663e+00 5.674844e+00 -1.347035e+00 -6.511770e+00 -8.022175e+00 -1.167089e+01 -1.043614e+01 -6.656569e+00 -1.938315e+00 -4.337665e+00 -7.237371e+00 5.930153e+01 -6.624381e-01 7.540307e-01 5.167202e-01 4.369749e-01 5.881046e-01 8.438725e-01 4.240873e-01 -6.497374e-01 4.120663e-02 -8.872134e-01 2.302007e-01 5.204414e-01 -1.248288e+00 -3.332514e-01 -4.621991e-01 -3.587876e-02 -1.625511e-01 8.123181e-02 3.755331e-02 8.882982e-02 1.467281e-01 -1.119924e-01 -1.461720e-01 -1.982816e-03 6.722179e-02 1.081142e-01
<VARIANCE> 39
 2.541120e+00 9.415672e+00 1.113659e+01 1.803053e+01 2.654131e+01 1.952409e+01 3.645352e+01 4.629905e+01 3.803140e+01 3.400214e+01 2.634663e+01 2.530562e+01 7.657584e+00 3.466578e-01 5.400624e-01 6.555685e-01 8.990787e-01 2.064184e+00 1.901509e+00 1.274525e+00 1.820298e+00 2.219672e+00 2.247586e+00 1.780274e+00 2.028369e+00 2.031655e-01 6.362187e-02 1.458563e-01 1.762977e-01 2.238061e-01 3.436198e-01 2.772227e-01 3.013279e-01 4.554977e-01 4.178528e-01 3.852206e-01 3.787394e-01 3.840418e-01 1.254673e-01
<GCONST> 9.276145e+01
<MIXTURE> 27 2.777715e-02
<MEAN> 39
 -1.037581e+01 -3.884272e+00 4.913877e+00 1.456698e+00 1.582754e+00 3.276479e+00 1.509097e+00 -7.223821e-01 9.274496e-01 8.757389e-02 1.086569e+00 9.980839e-01 5.153490e+01 1.597031e+00 1.241340e+00 6.599743e-01 -1.416121e-02 -9.594320e-01 -1.690588e+00 -2.184199e+00 -2.304421e+00 -2.201077e+00 -1.846696e+00 -1.890308e+00 -2.118325e+00 7.392144e-01 4.966549e-01 2.130614e-01 -3.013708e-03 -3.936556e-01 -5.563333e-01 -6.979309e-01 -7.723163e-01 -6.969877e-01 -6.202327e-01 -4.127830e-01 -4.516996e-01 -5.773414e-01 4.896171e-01
<VARIANCE> 39
 4.180333e+00 6.800543e+00 7.752884e+00 8.692947e+00 1.118062e+01 1.331100e+01 1.774387e+01 1.624925e+01 1.357397e+01 2.054322e+01 1.758059e+01 1.720367e+01 8.013556e+00 1.083557e+00 1.138087e+00 1.063590e+00 1.124337e+00 1.436091e+00 2.372208e+00 3.060727e+00 3.071276e+00 2.040201e+00 2.406683e+00 2.103696e+00 2.372108e+00 9.448258e-01 1.619559e-01 2.190348e-01 2.416286e-01 4.311582e-01 3.324106e-01 3.326298e-01 5.125349e-01 4.757431e-01 3.516153e-01 5.169905e-01 4.403305e-01 4.536479e-01 1.900842e-01
<GCONST> 9.613287e+01
<MIXTURE> 28 2.710641e-02
<MEAN> 39
 3.278355e-01 -5.517879e-01 6.277565e+00 2.512176e+00 -8.716220e-01 -3.871294e+00 -7.049519e+00 -1.013899e+01 -1.374224e+01 -7.543837e-01 4.898334e-01 -6.760208e+00 5.929427e+01 -1.986210e-01 6.897547e-01 3.309307e-01 -3.171365e-01 -1.825460e-01 7.428843e-01 2.340734e-01 -9.303029e-02 5.835419e-01 -7.183247e-01 -8.655915e-01 -4.293341e-01 -9.508433e-01 -1.493281e-01 -8.038896e-02 -1.607830e-01 -3.359105e-01 -1.290255e-01 -9.881695e-02 6.560634e-02 1.335866e-01 3.282161e-01 -1.776355e-01 -3.198210e-01 6.884264e-02 -3.121454e-02
<VARIANCE> 39
 4.131766e+00 7.993397e+00 1.151140e+01 2.709670e+01 1.279942e+01 2.032091e+01 3.365290e+01 2.527857e+01 4.976863e+01 3.040730e+01 2.899320e+01 1.857832e+01 1.034315e+01 2.051815e-01 4.721667e-01 5.079989e-01 9.922271e-01 9.208640e-01 1.593368e+00 1.408664e+00 1.748042e+00 2.219010e+00 1.488545e+00 1.772466e+00 1.591704e+00 2.766845e-01 4.832496e-02 1.027009e-01 1.154827e-01 2.141514e-01 1.961858e-01 2.861766e-01 2.425191e-01 2.256161e-01 3.838329e-01 2.403333e-01 2.698207e-01 2.462996e-01 7.868548e-02
<GCONST> 8.595651e+01
<MIXTURE> 29 2.148465e-02
<MEAN> 39
 -3.280326e+00 2.168350e+00 7.347048e+00 4.540796e-01 -3.546463e+00 -5.132130e+00 -7.573188e+00 -1.116480e+01 -7.473584e+00 -4.462456e+00 -4.420732e+00 -5.506147e+00 5.655390e+01 1.536332e+00 3.518054e-01 1.928700e-01 -1.866198e-01 -9.561908e-01 -1.131259e+00 -1.561073e+00 -1.807652e+00 -1.535703e+00 -9.044582e-01 -1.061667e+00 -1.516885e+00 4.877548e-01 -7.211043e-01 -6.712007e-01 -3.963501e-01 -2.878297e-01 2.710384e-01 4.294643e-01 4.872584e-01 8.009535e-01 5.259953e-01 2.504962e-01 3.548478e-01 3.125967e-01 -2.581246e-01
<VARIANCE> 39
 1.281439e+01 1.422548e+01 1.655567e+01 2.847804e+01 2.202254e+01 4.567062e+01 4.289227e+01 4.713824e+01 2.872251e+01 3.262442e+01 3.604025e+01 2.409831e+01 1.284956e+01 1.102575e+00 1.758619e+00 1.214409e+00 1.585221e+00 1.745858e+00 2.659964e+00 3.198116e+00 3.468592e+00 2.176909e+00 2.925682e+00 2.618161e+00 2.451163e+00 1.364665e+00 1.833044e-01 2.838524e-01 2.536787e-01 5.464239e-01 4.144701e-01 7.318332e-01 6.801919e-01 8.053713e-01 4.446547e-01 4.907711e-01 4.039335e-01 5.942791e-01 2.263267e-01
<GCONST> 1.118455e+02
<MIXTURE> 30 2.072906e-02
<MEAN> 39
 -1.024160e+01 -2.781508e+00 5.564045e+00 2.052682e+00 2.007012e+00 3.476128e+00 9.301490e-01 -9.386694e-01 5.561165e-01 2.783695e-01 8.986853e-01 3.706744e-01 5.197181e+01 7.459270e-01 4.178510e-01 4.608797e-01 4.679793e-01 -1.567879e-01 -3.062437e-01 -5.214956e-01 -1.079995e+00 -1.137328e+00 -9.091167e-01 -9.847296e-01 -1.106799e+00 -3.981922e-01 1.840335e-01 1.165129e-01 -1.475550e-01 -4.596220e-01 -3.921797e-01 -5.803505e-01 -5.284983e-01 -4.282786e-01 -4.772459e-01 -3.877985e-01 -3.413385e-01 -4.095289e-01 4.999200e-01
<VARIANCE> 39
 7.451411e+00 1.088203e+01 1.115568e+01 9.471285e+00 1.471453e+01 1.464331e+01 2.363078e+01 1.600509e+01 1.627354e+01 1.844786e+01 1.606341e+01 1.648691e+01 1.365094e+01 1.263524e+00 1.320612e+00 9.417220e-01 1.096415e+00 1.127465e+00 1.530670e+00 1.921651e+00 2.309756e+00 2.295976e+00 2.477108e+00 1.631985e+00 2.318593e+00 1.464044e+00 3.127913e-01 2.333830e-01 3.268345e-01 3.448663e-01 2.896396e-01 3.216855e-01 4.072725e-01 4.383731e-01 3.608599e-01 4.044646e-01 2.922517e-01 4.586320e-01 2.393303e-01
<GCONST> 9.770838e+01
<MIXTURE> 31 1.946514e-02
<MEAN> 39
 -6.467071e-01 6.224429e-01 7.624246e+00 5.624280e+00 -1.004072e+00 -2.898106e+00 -5.885874e+00 -1.021894e+01 -1.251024e+01 1.613740e-01 9.037532e-01 -8.046343e+00 5.825551e+01 -2.825360e-01 6.743900e-01 4.073921e-01 -5.736629e-01 3.344433e-01 1.018437e+00 3.253859e-01 1.029869e-01 8.901267e-01 -8.238913e-01 -7.611330e-01 2.337381e-01 -1.164223e+00 -2.061042e-01 -2.077350e-01 -7.169998e-02 -3.212888e-01 6.864942e-02 -6.617674e-02 8.601965e-02 1.659953e-01 3.359556e-01 -2.046168e-01 -3.011183e-01 1.171010e-01 -9.275900e-02
<VARIANCE> 39
 5.475176e+00 9.316294e+00 1.170931e+01 2.973409e+01 1.154627e+01 3.127179e+01 4.588843e+01 2.354224e+01 3.489342e+01 2.443552e+01 2.207974e+01 2.052072e+01 9.007338e+00 2.123699e-01 6.163982e-01 6.376104e-01 1.141739e+00 1.331543e+00 1.688892e+00 1.919187e+00 1.668596e+00 2.325203e+00 1.385997e+00 1.657032e+00 1.774504e+00 4.226220e-01 4.751630e-02 1.241175e-01 1.282419e-01 1.947827e-01 2.420437e-01 3.341273e-01 2.928766e-01 2.786016e-01 4.333948e-01 2.459029e-01 3.376763e-01 2.916943e-01 6.828988e-02
<GCONST> 8.932508e+01
<MIXTURE> 32 1.182170e-02
<MEAN> 39
 -4.693825e+00 1.635204e+00 7.191431e+00 7.779239e-01 -2.721426e+00 -4.108672e+00 -7.088034e+00 -9.227670e+00 -6.839559e+00 -5.673582e+00 -5.126790e+00 -4.265265e+00 5.528867e+01 2.432721e+00 1.171777e+00 4.731610e-01 -4.126496e-01 -2.052534e+00 -2.653265e+00 -3.160786e+00 -3.539228e+00 -2.657758e+00 -1.575418e+00 -2.484933e+00 -2.638986e+00 1.399133e+00 -3.580275e-01 -5.756191e-01 -4.726640e-01 -3.491744e-01 -8.211721e-02 1.623738e-01 1.925431e-01 3.807828e-01 3.688979e-01 3.327363e-01 2.279779e-01 1.417503e-01 1.793517e-02
<VARIANCE> 39
 1.141107e+01 8.779838e+00 1.594226e+01 1.520509e+01 1.957203e+01 4.625534e+01 3.775612e+01 3.401242e+01 2.228335e+01 2.226353e+01 2.676007e+01 2.122998e+01 1.250635e+01 1.289971e+00 2.269485e+00 1.629187e+00 3.273372e+00 2.462132e+00 4.066517e+00 4.437118e+00 6.621017e+00 3.681379e+00 3.363436e+00 3.785990e+00 3.443249e+00 7.931042e-01 1.999522e-01 2.333793e-01 2.445203e-01 3.190573e-01 4.139610e-01 6.547439e-01 5.639797e-01 5.603608e-01 3.351496e-01 5.079042e-01 5.266143e-01 5.299762e-01 2.021475e-01
<GCONST> 1.113820e+02
<STATE> 3
<NUMMIXES> 32
<MIXTURE> 1 1.986236e-02
<MEAN> 39
 -1.942658e+00 4.068386e+00 1.122142e+01 5.467616e+00 3.141345e+00 3.695384e+00 -1.180086e-01 -3.624076e+00 -2.250883e+00 -9.460142e-01 -2.244979e-02 -2.374704e+00 5.510958e+01 -8.753304e-01 3.562006e-01 1.053164e+00 1.268053e+00 1.597031e+00 1.372938e+00 1.474361e+00 1.143176e+00 1.258207e+00 7.277866e-02 -1.611372e-01 6.228976e-01 -9.695292e-01 1.511641e-01 -5.850443e-01 -4.617149e-01 -6.508503e-01 -5.562847e-01 -5.578060e-01 -2.708140e-01 3.410213e-01 -2.706984e-02 2.444183e-01 4.135134e-01 1.991588e-01 1.056113e+00
<VARIANCE> 39
 6.633846e+00 4.878727e+00 7.954779e+00 1.716606e+01 1.213317e+01 1.699235e+01 1.320512e+01 1.740021e+01 2.484112e+01 1.361222e+01 1.514930e+01 2.100959e+01 3.919856e+00 7.807627e-01 1.084189e+00 1.024813e+00 2.567155e+00 1.619189e+00 2.031191e+00 2.155346e+00 2.191302e+00 2.469791e+00 1.745162e+00 2.179909e+00 1.658250e+00 5.832818e-01 2.198949e-01 1.528291e-01 3.272364e-01 5.600609e-01 4.181512e-01 6.118563e-01 2.293328e-01 2.983558e-01 4.304414e-01 3.461145e-01 3.710645e-01 3.911268e-01 1.631712e-01
<GCONST> 9.475782e+01
<MIXTURE> 2 3.354441e-02
<MEAN> 39
 2.826355e+00 4.665124e-01 2.932895e+00 -6.450732e+00 -4.189159e+00 2.238007e+00 -7.438585e-01 -5.968675e+00 -8.735878e+00 -2.980380e+00 2.774873e+00 4.506986e-01 6.229745e+01 2.490394e-01 -1.620337e-01 -5.805804e-01 -1.106683e+00 9.153014e-02 -1.083547e-01 -7.184365e-02 7.226150e-01 1.711459e+00 1.323925e+00 7.507565e-01 4.890243e-01 9.753805e-01 8.530910e-02 -7.390419e-01 -3.569555e-01 -5.712295e-01 -3.959325e-02 -1.905169e-01 -4.967495e-01 5.213401e-01 8.668901e-01 7.539030e-01 1.989926e-01 -3.285924e-01 1.017339e+00
<VARIANCE> 39
 4.961309e+00 1.358963e+01 1.782193e+01 6.125779e+01 2.454119e+01 2.944495e+01 2.342451e+01 2.141942e+01 3.826833e+01 2.865626e+01 3.889584e+01 2.446417e+01 1.206969e+01 4.031006e-01 1.559628e+00 1.286972e+00 4.411453e+00 2.562771e+00 2.350131e+00 2.801860e+00 2.017076e+00 3.504251e+00 3.087584e+00 3.575856e+00 2.353426e+00 1.330058e+00 1.175953e-01 1.833757e-01 2.664424e-01 6.957987e-01 4.956199e-01 4.128284e-01 3.614578e-01 5.534671e-01 7.576387e-01 4.677246e-01 8.354086e-01 5.504506e-01 1.828858e-01
<GCONST> 1.093990e+02
<MIXTURE> 3 3.158674e-02
<MEAN> 39
 2.844588e+00 -4.017220e+00 3.640676e+00 -4.591646e+00 -3.837394e+00 -7.763134e+00 -8.478029e+00 -2.340928e+00 -1.808444e+00 2.533517e+00 1.478935e+00 -2.579718e+00 6.627277e+01 5.535647e-03 -1.448254e-01 1.036132e+00 2.522375e-01 -5.016277e-01 -5.290314e-01 2.971503e-01 1.076133e+00 1.488632e-01 -9.383166e-02 1.095026e-01 5.368534e-01 5.211566e-01 -1.885010e-01 -3.457505e-01 3.414346e-01 -4.172447e-01 -5.226328e-01 -8.250342e-02 5.249533e-01 6.908672e-01 -7.002412e-02 -1.349214e-02 7.795231e-02 1.399740e-01 7.615613e-01
<VARIANCE> 39
 7.535500e+00 2.885020e+01 3.331436e+01 4.121129e+01 2.323102e+01 4.352832e+01 3.491005e+01 3.394646e+01 2.961758e+01 2.943759e+01 4.588732e+01 2.169659e+01 1.821740e+01 7.395273e-01 7.688785e-01 2.217352e+00 1.740215e+00 1.409098e+00 2.433145e+00 1.813765e+00 1.821636e+00 2.230629e+00 1.790345e+00 1.550543e+00 1.463230e+00 5.563579e-01 1.451604e-01 2.215187e-01 3.638824e-01 5.143433e-01 4.221710e-01 5.664644e-01 4.619647e-01 5.946203e-01 5.281029e-01 3.195107e-01 4.437963e-01 3.489626e-01 1.317071e-01
<GCONST> 1.061796e+02
<MIXTURE> 4 3.433184e-02
<MEAN> 39
 -1.719698e+00 4.073762e+00 1.142865e+01 3.927872e+00 1.982297e+00 1.799302e+00 -1.450453e+00 -5.762337e+00 -3.999534e+00 -3.578775e+00 -3.319693e+00 -4.620379e+00 5.636555e+01 -2.849258e-01 -5.304821e-01 -1.028066e-01 -2.762144e-01 1.073226e-02 -3.033843e-01 1.268796e-01 9.783068e-01 9.951971e-01 6.070497e-01 7.847711e-01 6.670887e-01 1.176535e+00 2.860601e-01 -8.527396e-01 -4.573810e-01 -9.551950e-01 -8.388814e-01 -9.047694e-01 -3.408059e-01 7.997770e-01 -1.286271e-01 7.132596e-01 5.791571e-01 4.696673e-01 1.463827e+00
<VARIANCE> 39
 6.757310e+00 5.000262e+00 8.943549e+00 1.222429e+01 1.448524e+01 1.623973e+01 1.821832e+01 2.084616e+01 2.043112e+01 1.975333e+01 1.982575e+01 1.375799e+01 6.495563e+00 1.577033e+00 1.051143e+00 1.570315e+00 2.157727e+00 1.994938e+00 3.047022e+00 2.798569e+00 3.059706e+00 2.633680e+00 1.983863e+00 2.252230e+00 2.048406e+00 1.505625e+00 1.991887e-01 2.234819e-01 8.027185e-01 9.795656e-01 6.882580e-01 1.103725e+00 5.119714e-01 8.006967e-01 8.769818e-01 7.066959e-01 4.181829e-01 4.137627e-01 2.008615e-01
<GCONST> 1.056847e+02
<MIXTURE> 5 4.430573e-02
<MEAN> 39
 -1.076488e+00 3.173291e+00 8.726032e+00 1.924293e+00 -1.252756e+00 -3.361857e+00 -5.541153e+00 -4.828722e+00 -2.467089e+00 -2.349125e+00 -2.309746e+00 -3.265076e+00 5.769662e+01 -7.588682e-01 -5.378934e-01 1.303625e+00 1.261761e-01 -1.035060e-01 1.330432e-01 9.309536e-01 1.023639e+00 1.163846e-01 2.552198e-01 9.127164e-01 8.608477e-01 8.417583e-01 8.735172e-02 -7.129887e-01 5.047086e-01 -1.009431e+00 -1.054499e+00 -3.699644e-01 1.822476e-02 2.634989e-01 -2.765874e-01 4.620131e-01 4.914880e-02 2.892657e-01 1.277344e+00
<VARIANCE> 39
 6.100924e+00 8.270859e+00 7.442143e+00 8.966869e+00 1.495227e+01 1.677507e+01 1.991790e+01 2.456156e+01 1.868562e+01 1.837617e+01 1.727647e+01 1.524032e+01 6.817448e+00 1.241339e+00 1.449365e+00 2.242165e+00 2.307121e+00 3.222469e+00 2.765487e+00 2.705841e+00 2.773955e+00 2.356180e+00 2.314275e+00 1.552290e+00 1.765182e+00 1.265343e+00 2.126849e-01 2.827773e-01 8.700845e-01 7.793294e-01 5.610896e-01 5.044214e-01 6.067480e-01 5.887037e-01 5.439989e-01 5.557918e-01 4.821360e-01 4.300148e-01 2.221159e-01
<GCONST> 1.044561e+02
<MIXTURE> 6 2.961455e-02
<MEAN> 39
 -2.570752e+00 3.230794e+00 9.590846e+00 3.709192e+00 2.674350e+00 3.008670e+00 5.975288e-02 -3.341307e+00 -2.360305e+00 -1.673191e+00 1.103079e-01 -4.083449e-01 5.521585e+01 -2.723764e-02 2.595024e-01 3.026343e-01 1.242733e-01 1.582088e-01 2.645013e-01 3.736369e-01 3.227844e-01 3.754499e-01 7.875182e-02 1.856513e-02 1.568476e-01 1.140981e-01 2.393732e-01 -5.504724e-01 -3.662627e-01 -6.449528e-01 -5.682151e-01 -5.986010e-01 -4.167281e-01 3.202311e-01 1.555136e-01 4.275784e-01 2.636723e-01 2.150268e-02 1.115873e+00
<VARIANCE> 39
 1.446605e+01 7.362875e+00 1.188529e+01 1.670156e+01 1.131010e+01 1.613839e+01 1.772021e+01 2.633260e+01 2.691204e+01 1.927931e+01 1.898383e+01 1.839381e+01 8.475284e+00 5.643312e-01 5.632825e-01 6.294365e-01 7.475653e-01 7.724563e-01 1.138280e+00 1.394657e+00 1.341214e+00 1.402371e+00 1.283220e+00 1.048731e+00 1.257672e+00 5.131684e-01 2.218453e-01 1.942583e-01 4.392447e-01 4.666110e-01 2.796752e-01 5.167019e-01 3.891225e-01 5.523230e-01 5.107337e-01 4.990376e-01 3.690240e-01 3.445212e-01 2.092045e-01
<GCONST> 9.283278e+01
<MIXTURE> 7 2.876349e-02
<MEAN> 39
 5.696454e-01 -2.742323e-01 6.211401e+00 1.023846e+00 2.655602e-01 -6.097813e+00 -1.173806e+01 -1.276182e+01 -3.977476e+00 3.811555e+00 -2.467581e+00 -5.433869e+00 6.172445e+01 6.601930e-03 -4.014229e-01 -2.987380e-01 -1.037526e+00 -7.014266e-02 6.522553e-01 1.358639e+00 2.741219e+00 1.258295e+00 -1.157882e-01 2.086962e-01 2.861309e-01 7.562516e-01 -7.160282e-02 -1.168729e+00 -2.946634e-01 -1.308306e+00 -6.451381e-01 -3.137394e-01 1.038812e+00 1.559686e+00 4.951071e-01 -1.329629e-01 -1.865747e-01 6.416912e-01 1.392310e+00
<VARIANCE> 39
 3.852578e+00 1.520648e+01 2.045782e+01 2.413608e+01 2.031361e+01 3.438962e+01 1.571025e+01 4.500974e+01 2.243832e+01 3.162070e+01 3.996022e+01 2.109246e+01 8.701208e+00 6.579484e-01 1.457451e+00 1.762644e+00 3.344564e+00 2.032882e+00 4.005761e+00 2.647365e+00 4.587409e+00 2.603384e+00 3.348505e+00 2.327153e+00 2.535168e+00 1.253078e+00 1.530542e-01 2.810556e-01 6.800702e-01 7.023186e-01 7.699128e-01 7.293211e-01 4.291362e-01 7.328480e-01 7.895792e-01 6.859301e-01 7.297873e-01 5.033475e-01 1.904049e-01
<GCONST> 1.121246e+02
<MIXTURE> 8 2.451232e-02
<MEAN> 39
 5.412695e-01 2.696459e+00 5.392794e+00 1.471995e+00 -2.138935e+00 -4.745846e-01 -2.458190e+00 -8.879295e+00 -1.014092e+01 -2.688545e+00 1.300069e+00 -3.112144e+00 6.202290e+01 6.640613e-03 -7.257664e-01 -2.971551e-01 -1.288724e+00 4.756408e-01 1.783270e-02 -4.912279e-01 2.192891e+00 2.719495e+00 1.208423e+00 4.835795e-01 1.137729e+00 1.087973e+00 1.029802e-01 -8.756555e-01 -2.001726e-01 -7.205867e-01 -5.571992e-01 -3.609939e-01 -2.328595e-01 5.690780e-01 8.980306e-01 5.931259e-01 1.000742e-01 1.339890e-01 1.232186e+00
<VARIANCE> 39
 8.329187e+00 2.288207e+01 1.799362e+01 3.777301e+01 3.242215e+01 2.771251e+01 4.805788e+01 5.266806e+01 3.114094e+01 4.519575e+01 4.157807e+01 3.801695e+01 8.262171e+00 1.779325e+00 2.054457e+00 2.842219e+00 6.861177e+00 3.505685e+00 3.105271e+00 6.495492e+00 6.211112e+00 4.528695e+00 3.978685e+00 3.598135e+00 4.138947e+00 1.432577e+00 2.120236e-01 2.656174e-01 7.868573e-01 1.109306e+00 9.056239e-01 6.610009e-01 5.223269e-01 1.012221e+00 6.225896e-01 6.882703e-01 8.576058e-01 7.857667e-01 2.884947e-01
<GCONST> 1.244679e+02
<MIXTURE> 9 4.098443e-02
<MEAN> 39
 -1.259054e+00 2.258575e+00 8.134452e+00 1.040563e+00 -1.788842e+00 -3.227872e+00 -5.898271e+00 -5.125135e+00 -3.427407e+00 -3.650208e+00 -3.323332e+00 -3.838436e+00 5.851315e+01 -6.305655e-01 -6.085755e-01 1.839051e+00 -3.311785e-01 -7.586557e-01 -2.857611e-02 6.657369e-01 6.404825e-01 -4.038359e-01 4.846640e-01 7.328428e-01 8.481737e-01 1.169700e+00 1.005733e-02 -6.123846e-01 7.065691e-01 -1.317532e+00 -1.123217e+00 -3.876167e-01 -5.338535e-03 1.424932e-01 -2.155316e-01 7.416844e-01 -8.642478e-02 3.835531e-01 1.279939e+00
<VARIANCE> 39
 7.761353e+00 1.026114e+01 8.447790e+00 1.055234e+01 1.590150e+01 1.678319e+01 1.897908e+01 1.999568e+01 1.845203e+01 1.887576e+01 1.864201e+01 1.539444e+01 8.934696e+00 1.206957e+00 1.358060e+00 2.379761e+00 2.219672e+00 3.147526e+00 2.722632e+00 2.225687e+00 2.591126e+00 2.086433e+00 1.858432e+00 1.708336e+00 1.826682e+00 1.246230e+00 2.211362e-01 2.914998e-01 7.682238e-01 6.025943e-01 6.792939e-01 5.000513e-01 6.768367e-01 5.639057e-01 5.874793e-01 4.955272e-01 5.188351e-01 5.011092e-01 1.953623e-01
<GCONST> 1.047764e+02
<MIXTURE> 10 3.678808e-02
<MEAN> 39
 -2.054944e+00 3.307443e+00 1.024194e+01 3.166913e+00 8.698019e-01 2.062424e-01 -3.535359e+00 -6.649972e+00 -4.755636e+00 -4.570124e+00 -4.191700e+00 -4.964681e+00 5.642241e+01 -8.443803e-02 -4.294031e-01 -1.174067e-01 -4.615508e-01 -9.087241e-02 -2.408824e-01 2.149796e-01 1.128912e+00 6.930292e-01 4.444774e-01 5.637882e-01 5.550145e-01 1.292990e+00 2.871286e-01 -9.066440e-01 -4.664747e-01 -1.335886e+00 -9.718407e-01 -6.156851e-01 -1.781410e-01 7.108815e-01 2.583803e-01 7.252512e-01 3.662734e-01 6.047333e-01 1.546301e+00
<VARIANCE> 39
 6.361691e+00 5.845066e+00 8.703868e+00 9.773261e+00 1.196962e+01 1.437224e+01 2.178188e+01 2.030316e+01 2.154925e+01 2.398535e+01 2.248749e+01 1.535104e+01 4.839324e+00 1.702423e+00 1.050595e+00 1.630733e+00 2.133830e+00 1.947014e+00 2.801681e+00 3.069312e+00 3.329979e+00 2.141673e+00 1.827654e+00 1.759468e+00 2.281759e+00 1.583233e+00 2.334809e-01 4.247452e-01 9.769368e-01 7.786894e-01 6.402109e-01 8.625486e-01 5.880601e-01 7.300171e-01 7.991594e-01 5.901265e-01 4.813631e-01 4.897789e-01 2.522578e-01
<GCONST> 1.061104e+02
<MIXTURE> 11 3.231589e-02
<MEAN> 39
 2.366000e+00 1.278421e-01 2.160187e+00 -5.589948e+00 -3.353162e+00 1.895777e+00 -2.175819e+00 -6.882744e+00 -9.622843e+00 -2.880293e+00 2.203439e+00 8.301646e-02 6.214036e+01 1.878279e-01 -9.397668e-02 -5.291361e-01 -1.000557e+00 1.499728e-01 -5.633831e-02 4.410937e-02 8.132764e-01 1.782302e+00 1.306281e+00 3.860719e-01 3.023297e-01 8.442859e-01 1.244855e-01 -7.712156e-01 -3.568522e-01 -6.812658e-01 -1.976333e-01 -2.262957e-01 -5.054798e-01 6.325405e-01 9.630867e-01 7.206419e-01 2.294989e-02 -3.293630e-01 1.092957e+00
<VARIANCE> 39
 5.224040e+00 1.308679e+01 2.085962e+01 6.009002e+01 2.487165e+01 2.387847e+01 2.721491e+01 2.190505e+01 3.393568e+01 3.066508e+01 3.840795e+01 2.213037e+01 1.002677e+01 4.102160e-01 1.672858e+00 1.239600e+00 4.287755e+00 2.618747e+00 2.463432e+00 2.988109e+00 2.278188e+00 4.054717e+00 3.184154e+00 2.711029e+00 2.150737e+00 1.273511e+00 9.965862e-02 2.188185e-01 3.587289e-01 7.199037e-01 5.763823e-01 5.321684e-01 3.902295e-01 7.415371e-01 7.113324e-01 4.770373e-01 6.971364e-01 5.250578e-01 1.890569e-01
<GCONST> 1.100976e+02
<MIXTURE> 12 3.743704e-02
<MEAN> 39
 1.782557e+00 -4.671288e+00 4.555789e+00 -5.429107e+00 -5.056059e+00 -8.950564e+00 -8.846739e+00 -1.766019e+00 -3.056767e+00 2.699671e+00 -3.638575e-01 -3.256188e+00 6.728433e+01 -2.489398e-01 -1.977876e-03 1.357820e+00 1.867118e-01 -6.017040e-01 -2.605329e-01 4.503820e-01 8.608781e-01 -2.473509e-01 -3.023034e-02 1.842712e-01 5.060862e-01 4.604347e-01 -2.636894e-01 -3.090791e-01 3.676790e-01 -4.779823e-01 -5.368888e-01 2.707467e-02 6.053892e-01 5.419959e-01 -4.954825e-02 3.837921e-02 7.629810e-02 2.028523e-01 7.645153e-01
<VARIANCE> 39
 9.778231e+00 2.730056e+01 4.169345e+01 4.864529e+01 2.549795e+01 4.910194e+01 3.932994e+01 3.763457e+01 2.903856e+01 3.765255e+01 4.475941e+01 2.493000e+01 1.569174e+01 3.836611e-01 7.472991e-01 2.225407e+00 1.954461e+00 1.434469e+00 2.377059e+00 1.600377e+00 2.265042e+00 2.288211e+00 1.777431e+00 1.669288e+00 1.526120e+00 5.386947e-01 1.108676e-01 1.612511e-01 3.301559e-01 5.620908e-01 4.587428e-01 5.494773e-01 4.257050e-01 5.977359e-01 4.484361e-01 4.257757e-01 4.707339e-01 3.589745e-01 1.189460e-01
<GCONST> 1.065158e+02
<MIXTURE> 13 2.983359e-02
<MEAN> 39
 -2.878441e+00 2.102208e+00 7.963412e+00 1.496747e+00 1.114650e+00 1.708301e+00 -5.505399e-01 -3.771957e+00 -2.771685e+00 -1.366673e+00 -1.051378e+00 -1.603393e+00 5.641166e+01 6.697547e-02 1.728223e-01 2.108429e-01 -3.912412e-02 -1.919726e-02 2.534036e-01 2.122290e-01 2.243084e-01 3.816210e-01 -6.810844e-03 -9.049967e-03 2.419345e-02 3.614289e-01 4.456651e-01 -6.192989e-01 -3.598139e-01 -8.948855e-01 -6.251114e-01 -6.200284e-01 -5.369796e-01 2.810870e-01 2.447246e-01 3.679248e-01 1.671373e-01 1.942360e-01 1.304282e+00
<VARIANCE> 39
 1.844368e+01 9.517400e+00 1.482713e+01 1.910740e+01 1.321880e+01 1.231253e+01 2.027044e+01 2.627452e+01 2.831534e+01 2.286394e+01 2.002638e+01 1.927848e+01 1.081750e+01 7.833964e-01 6.141297e-01 8.500808e-01 1.158347e+00 1.074713e+00 1.471691e+00 1.441149e+00 1.499060e+00 1.529139e+00 1.605790e+00 1.460267e+00 1.110160e+00 7.358400e-01 2.997790e-01 2.388258e-01 5.737624e-01 6.430795e-01 3.739834e-01 5.909538e-01 5.601861e-01 5.480073e-01 6.247923e-01 5.445406e-01 5.806247e-01 3.426573e-01 2.128959e-01
<GCONST> 9.966409e+01
<MIXTURE> 14 2.676312e-02
<MEAN> 39
 7.785028e-01 9.225342e-01 5.447943e+00 1.393932e+00 -1.081448e+00 -1.087007e+00 -5.060688e+00 -1.049353e+01 -1.080404e+01 -1.567711e+00 8.774428e-01 -3.773659e+00 6.160098e+01 -1.491417e-01 -9.324431e-01 -2.808514e-01 -1.379717e+00 5.502617e-02 -1.427817e-02 1.641721e-01 2.634465e+00 3.068382e+00 9.953365e-01 -2.818466e-01 6.850827e-01 1.328634e+00 1.106757e-02 -9.808438e-01 -1.919064e-01 -6.778964e-01 -7.289461e-01 -4.014993e-01 -1.397845e-01 8.335584e-01 9.034269e-01 4.485396e-01 -2.511714e-01 3.180719e-01 1.363903e+00
<VARIANCE> 39
 5.231500e+00 1.876067e+01 1.876766e+01 3.090768e+01 2.833185e+01 2.973920e+01 4.372823e+01 6.593281e+01 2.938933e+01 5.116304e+01 4.105944e+01 4.819477e+01 6.867140e+00 1.167135e+00 1.712968e+00 3.344958e+00 6.552183e+00 3.048835e+00 3.049557e+00 6.809900e+00 7.786018e+00 3.958515e+00 3.835907e+00 2.643215e+00 3.641055e+00 1.391506e+00 1.796616e-01 2.816805e-01 9.364135e-01 1.048095e+00 1.037470e+00 6.921039e-01 5.370436e-01 1.073509e+00 6.392218e-01 5.707775e-01 7.017595e-01 9.508779e-01 2.663151e-01
<GCONST> 1.228378e+02
<MIXTURE> 15 2.166602e-02
<MEAN> 39
 9.607013e-01 -3.475597e+00 2.680227e+00 -2.956468e+00 -9.242610e-01 -5.433517e+00 -1.086998e+01 -1.004799e+01 -2.606176e+00 4.093780e+00 -2.980534e+00 -6.160251e+00 6.410649e+01 1.298256e-01 -1.067870e+00 -3.014048e-01 -1.520844e+00 -5.573028e-01 -8.907372e-02 8.241179e-01 2.435510e+00 1.007246e+00 4.143085e-01 -2.928520e-01 -2.096644e-02 1.598282e+00 -1.773161e-01 -9.834917e-01 -1.057323e-01 -1.176037e+00 -6.136513e-01 -1.364830e-01 9.804790e-01 1.326235e+00 3.047391e-01 -4.461145e-01 -3.165241e-01 6.039272e-01 1.352388e+00
<VARIANCE> 39
 6.168613e+00 1.569993e+01 2.048910e+01 3.742178e+01 2.448503e+01 4.623613e+01 1.989301e+01 5.634896e+01 2.659636e+01 2.676146e+01 2.624323e+01 1.857881e+01 1.063254e+01 4.985211e-01 1.279659e+00 2.515917e+00 3.968486e+00 2.365360e+00 3.974271e+00 2.055498e+00 4.746891e+00 2.042171e+00 2.652369e+00 2.389066e+00 2.012353e+00 1.324702e+00 1.025413e-01 3.163574e-01 6.517025e-01 5.498492e-01 8.051856e-01 5.354295e-01 4.981652e-01 5.360351e-01 5.976352e-01 5.671138e-01 6.668172e-01 5.190321e-01 1.652806e-01
<GCONST> 1.114190e+02
<MIXTURE> 16 2.769089e-02
<MEAN> 39
 -1.745960e+00 3.366729e+00 1.021134e+01 3.813364e+00 1.675504e+00 1.018150e+00 -2.810133e+00 -5.210146e+00 -2.922427e+00 -1.721081e+00 -1.585682e+00 -3.283721e+00 5.542335e+01 -8.552227e-01 3.385388e-01 7.849823e-01 8.632874e-01 1.096172e+00 1.236738e+00 1.326571e+00 9.713886e-01 6.488528e-01 -3.016435e-01 2.359587e-02 4.149178e-01 -6.213946e-01 1.164020e-01 -6.509963e-01 -9.927954e-02 -5.869218e-01 -7.681704e-01 -7.476605e-01 -3.151666e-01 2.456978e-01 -8.967395e-02 3.534208e-01 3.150418e-01 2.395417e-01 1.203979e+00
<VARIANCE> 39
 5.282078e+00 4.622328e+00 7.695793e+00 1.091343e+01 1.084566e+01 1.593401e+01 1.392262e+01 1.558420e+01 1.761330e+01 1.859468e+01 1.493691e+01 1.588460e+01 5.042942e+00 5.998986e-01 9.006145e-01 7.281093e-01 1.197486e+00 1.284650e+00 1.483478e+00 1.757683e+00 1.915183e+00 2.293815e+00 2.027273e+00 2.149431e+00 1.764810e+00 5.254691e-01 1.519839e-01 1.737625e-01 5.408253e-01 5.459712e-01 4.260847e-01 4.812999e-01 3.231169e-01 3.295177e-01 4.944603e-01 3.652471e-01 3.780093e-01 3.442175e-01 1.677520e-01
<GCONST> 9.183221e+01
<MIXTURE> 17 4.430573e-02
<MEAN> 39
 -2.064490e+00 2.022927e+00 7.634821e+00 7.265033e-01 -2.799482e+00 -5.000153e+00 -7.326333e+00 -6.811106e+00 -4.196163e+00 -4.063823e+00 -3.972345e+00 -4.826630e+00 5.665221e+01 -1.204530e+00 -1.019452e+00 7.046708e-01 -4.813923e-01 -8.215554e-01 -5.321470e-01 2.729760e-01 3.574313e-01 -4.976096e-01 -3.532899e-01 4.143527e-01 3.294071e-01 3.918084e-01 -9.711938e-02 -9.256960e-01 1.315954e-01 -1.362549e+00 -1.354123e+00 -6.540549e-01 -2.933514e-01 -4.340927e-02 -5.716126e-01 1.638073e-01 -2.285953e-01 2.696368e-02 1.088828e+00
<VARIANCE> 39
 6.100924e+00 8.270859e+00 7.442143e+00 8.966869e+00 1.495227e+01 1.677507e+01 1.991790e+01 2.456156e+01 1.868562e+01 1.837617e+01 1.727647e+01 1.524032e+01 6.817448e+00 1.241339e+00 1.449365e+00 2.242165e+00 2.307121e+00 3.222469e+00 2.765487e+00 2.705841e+00 2.773955e+00 2.356180e+00 2.314275e+00 1.552290e+00 1.765182e+00 1.265343e+00 2.126849e-01 2.827773e-01 8.700845e-01 7.793294e-01 5.610896e-01 5.044214e-01 6.067480e-01 5.887037e-01 5.439989e-01 5.557918e-01 4.821360e-01 4.300148e-01 2.221159e-01
<GCONST> 1.044561e+02
<MIXTURE> 18 4.098443e-02
<MEAN> 39
 -2.373422e+00 9.772547e-01 6.971848e+00 -2.588113e-01 -3.383910e+00 -4.866564e+00 -7.640871e+00 -6.913796e+00 -5.145640e+00 -5.388058e+00 -5.050388e+00 -5.407866e+00 5.731751e+01 -1.070012e+00 -1.074719e+00 1.221992e+00 -9.271210e-01 -1.468306e+00 -6.885921e-01 6.898737e-02 -3.396511e-03 -9.816155e-01 -6.063323e-02 2.100295e-01 3.075545e-01 7.231613e-01 -1.780432e-01 -8.283474e-01 3.559755e-01 -1.628040e+00 -1.452895e+00 -6.704739e-01 -3.344189e-01 -1.578815e-01 -5.221204e-01 4.601097e-01 -3.745456e-01 1.003969e-01 1.103139e+00
<VARIANCE> 39
 7.761353e+00 1.026114e+01 8.447790e+00 1.055234e+01 1.590150e+01 1.678319e+01 1.897908e+01 1.999568e+01 1.845203e+01 1.887576e+01 1.864201e+01 1.539444e+01 8.934696e+00 1.206957e+00 1.358060e+00 2.379761e+00 2.219672e+00 3.147526e+00 2.722632e+00 2.225687e+00 2.591126e+00 2.086433e+00 1.858432e+00 1.708336e+00 1.826682e+00 1.246230e+00 2.211362e-01 2.914998e-01 7.682238e-01 6.025943e-01 6.792939e-01 5.000513e-01 6.768367e-01 5.639057e-01 5.874793e-01 4.955272e-01 5.188351e-01 5.011092e-01 1.953623e-01
<GCONST> 1.047764e+02
<MIXTURE> 19 3.743704e-02
<MEAN> 39
 5.317507e-01 -6.761286e+00 1.972971e+00 -8.218954e+00 -7.075879e+00 -1.175348e+01 -1.135528e+01 -4.219900e+00 -5.212265e+00 2.452035e-01 -3.039957e+00 -5.253386e+00 6.569981e+01 -4.967014e-01 -3.477637e-01 7.611080e-01 -3.724963e-01 -1.080781e+00 -8.772415e-01 -5.564204e-02 2.588758e-01 -8.524243e-01 -5.635117e-01 -3.325326e-01 1.194125e-02 1.668514e-01 -3.968766e-01 -4.697035e-01 1.378422e-01 -7.778732e-01 -8.078110e-01 -2.694323e-01 3.444049e-01 2.327423e-01 -3.174098e-01 -2.226267e-01 -1.981421e-01 -3.680561e-02 6.265611e-01
<VARIANCE> 39
 9.778231e+00 2.730056e+01 4.169345e+01 4.864529e+01 2.549795e+01 4.910194e+01 3.932994e+01 3.763457e+01 2.903856e+01 3.765255e+01 4.475941e+01 2.493000e+01 1.569174e+01 3.836611e-01 7.472991e-01 2.225407e+00 1.954461e+00 1.434469e+00 2.377059e+00 1.600377e+00 2.265042e+00 2.288211e+00 1.777431e+00 1.669288e+00 1.526120e+00 5.386947e-01 1.108676e-01 1.612511e-01 3.301559e-01 5.620908e-01 4.587428e-01 5.494773e-01 4.257050e-01 5.977359e-01 4.484361e-01 4.257757e-01 4.707339e-01 3.589745e-01 1.189460e-01
<GCONST> 1.065158e+02
<MIXTURE> 20 3.678808e-02
<MEAN> 39
 -3.063840e+00 2.340380e+00 9.061844e+00 1.916425e+00 -5.140836e-01 -1.310187e+00 -5.402201e+00 -8.452333e+00 -6.612483e+00 -6.529118e+00 -6.088539e+00 -6.531897e+00 5.554247e+01 -6.063458e-01 -8.393972e-01 -6.282073e-01 -1.045856e+00 -6.490142e-01 -9.104114e-01 -4.857986e-01 3.989829e-01 1.076510e-01 -9.628561e-02 3.320843e-02 -4.920527e-02 7.896838e-01 9.384918e-02 -1.167334e+00 -8.618351e-01 -1.688860e+00 -1.291893e+00 -9.871790e-01 -4.848813e-01 3.691173e-01 -9.920261e-02 4.179724e-01 8.875203e-02 3.247965e-01 1.345399e+00
<VARIANCE> 39
 6.361691e+00 5.845066e+00 8.703868e+00 9.773261e+00 1.196962e+01 1.437224e+01 2.178188e+01 2.030316e+01 2.154925e+01 2.398535e+01 2.248749e+01 1.535104e+01 4.839324e+00 1.702423e+00 1.050595e+00 1.630733e+00 2.133830e+00 1.947014e+00 2.801681e+00 3.069312e+00 3.329979e+00 2.141673e+00 1.827654e+00 1.759468e+00 2.281759e+00 1.583233e+00 2.334809e-01 4.247452e-01 9.769368e-01 7.786894e-01 6.402109e-01 8.625486e-01 5.880601e-01 7.300171e-01 7.991594e-01 5.901265e-01 4.813631e-01 4.897789e-01 2.522578e-01
<GCONST> 1.061104e+02
<MIXTURE> 21 3.433184e-02
<MEAN> 39
 -2.759491e+00 3.179312e+00 1.023242e+01 2.529342e+00 4.599174e-01 1.873600e-01 -3.157769e+00 -7.588641e+00 -5.807566e+00 -5.356564e+00 -5.100738e+00 -6.104049e+00 5.534609e+01 -7.872457e-01 -9.405831e-01 -6.040554e-01 -8.637826e-01 -5.542369e-01 -1.001613e+00 -5.422774e-01 2.786262e-01 3.460523e-01 4.365095e-02 1.844739e-01 9.459853e-02 6.857193e-01 1.075379e-01 -1.041835e+00 -8.157592e-01 -1.351087e+00 -1.170727e+00 -1.325003e+00 -6.270146e-01 4.418504e-01 -5.032163e-01 3.769988e-01 3.204889e-01 2.123697e-01 1.284557e+00
<VARIANCE> 39
 6.757310e+00 5.000262e+00 8.943549e+00 1.222429e+01 1.448524e+01 1.623973e+01 1.821832e+01 2.084616e+01 2.043112e+01 1.975333e+01 1.982575e+01 1.375799e+01 6.495563e+00 1.577033e+00 1.051143e+00 1.570315e+00 2.157727e+00 1.994938e+00 3.047022e+00 2.798569e+00 3.059706e+00 2.633680e+00 1.983863e+00 2.252230e+00 2.048406e+00 1.505625e+00 1.991887e-01 2.234819e-01 8.027185e-01 9.795656e-01 6.882580e-01 1.103725e+00 5.119714e-01 8.006967e-01 8.769818e-01 7.066959e-01 4.181829e-01 4.137627e-01 2.008615e-01
<GCONST> 1.056847e+02
<MIXTURE> 22 3.354441e-02
<MEAN> 39
 1.935395e+00 -1.008052e+00 1.244254e+00 -9.581427e+00 -6.170722e+00 6.747890e-02 -2.679813e+00 -7.819920e+00 -1.121033e+01 -5.121642e+00 2.802114e-01 -1.527752e+00 6.090779e+01 -4.921407e-03 -6.615739e-01 -1.034359e+00 -1.946821e+00 -5.488161e-01 -7.215602e-01 -7.413939e-01 1.545198e-01 9.626732e-01 6.210643e-01 -5.640894e-03 -1.246109e-01 5.140680e-01 -5.185959e-02 -9.103315e-01 -5.634277e-01 -9.048877e-01 -3.211944e-01 -4.475238e-01 -7.372349e-01 2.237587e-01 5.187203e-01 4.803414e-01 -1.666102e-01 -6.253618e-01 8.462780e-01
<VARIANCE> 39
 4.961309e+00 1.358963e+01 1.782193e+01 6.125779e+01 2.454119e+01 2.944495e+01 2.342451e+01 2.141942e+01 3.826833e+01 2.865626e+01 3.889584e+01 2.446417e+01 1.206969e+01 4.031006e-01 1.559628e+00 1.286972e+00 4.411453e+00 2.562771e+00 2.350131e+00 2.801860e+00 2.017076e+00 3.504251e+00 3.087584e+00 3.575856e+00 2.353426e+00 1.330058e+00 1.175953e-01 1.833757e-01 2.664424e-01 6.957987e-01 4.956199e-01 4.128284e-01 3.614578e-01 5.534671e-01 7.576387e-01 4.677246e-01 8.354086e-01 5.504506e-01 1.828858e-01
<GCONST> 1.093990e+02
<MIXTURE> 23 3.231589e-02
<MEAN> 39
 1.451754e+00 -1.319185e+00 3.332933e-01 -8.690659e+00 -5.348022e+00 -5.884665e-02 -4.262535e+00 -8.754858e+00 -1.195302e+01 -5.095335e+00 -2.755268e-01 -1.798701e+00 6.087376e+01 -6.836459e-02 -6.113327e-01 -9.744854e-01 -1.828833e+00 -4.973290e-01 -6.841513e-01 -6.473366e-01 2.095297e-01 9.768494e-01 5.925128e-01 -2.725362e-01 -2.842859e-01 3.928861e-01 -1.789518e-03 -9.583278e-01 -5.964282e-01 -1.020654e+00 -5.013127e-01 -5.180951e-01 -7.553532e-01 2.880903e-01 6.257247e-01 4.443703e-01 -3.110289e-01 -6.192065e-01 9.190347e-01
<VARIANCE> 39
 5.224040e+00 1.308679e+01 2.085962e+01 6.009002e+01 2.487165e+01 2.387847e+01 2.721491e+01 2.190505e+01 3.393568e+01 3.066508e+01 3.840795e+01 2.213037e+01 1.002677e+01 4.102160e-01 1.672858e+00 1.239600e+00 4.287755e+00 2.618747e+00 2.463432e+00 2.988109e+00 2.278188e+00 4.054717e+00 3.184154e+00 2.711029e+00 2.150737e+00 1.273511e+00 9.965862e-02 2.188185e-01 3.587289e-01 7.199037e-01 5.763823e-01 5.321684e-01 3.902295e-01 7.415371e-01 7.113324e-01 4.770373e-01 6.971364e-01 5.250578e-01 1.890569e-01
<GCONST> 1.100976e+02
<MIXTURE> 24 3.158674e-02
<MEAN> 39
 1.746554e+00 -6.165716e+00 1.331932e+00 -7.159486e+00 -5.765336e+00 -1.040217e+01 -1.084142e+01 -4.671472e+00 -3.985326e+00 3.632606e-01 -1.230672e+00 -4.442902e+00 6.456549e+01 -3.384475e-01 -4.955682e-01 4.405006e-01 -2.754314e-01 -9.764495e-01 -1.152973e+00 -2.415541e-01 5.362612e-01 -4.485484e-01 -6.290467e-01 -3.885806e-01 5.299720e-02 2.227990e-01 -3.409007e-01 -5.340136e-01 1.001440e-01 -7.041157e-01 -7.825316e-01 -3.835588e-01 2.530813e-01 3.824207e-01 -3.607069e-01 -2.395933e-01 -1.885199e-01 -9.631822e-02 6.163954e-01
<VARIANCE> 39
 7.535500e+00 2.885020e+01 3.331436e+01 4.121129e+01 2.323102e+01 4.352832e+01 3.491005e+01 3.394646e+01 2.961758e+01 2.943759e+01 4.588732e+01 2.169659e+01 1.821740e+01 7.395273e-01 7.688785e-01 2.217352e+00 1.740215e+00 1.409098e+00 2.433145e+00 1.813765e+00 1.821636e+00 2.230629e+00 1.790345e+00 1.550543e+00 1.463230e+00 5.563579e-01 1.451604e-01 2.215187e-01 3.638824e-01 5.143433e-01 4.221710e-01 5.664644e-01 4.619647e-01 5.946203e-01 5.281029e-01 3.195107e-01 4.437963e-01 3.489626e-01 1.317071e-01
<GCONST> 1.061796e+02
<MIXTURE> 25 2.983359e-02
<MEAN> 39
 -4.596285e+00 8.681963e-01 6.423172e+00 -2.517338e-01 -3.396567e-01 3.047327e-01 -2.351448e+00 -5.822305e+00 -4.900171e+00 -3.279323e+00 -2.841412e+00 -3.359684e+00 5.509606e+01 -2.870633e-01 -1.406435e-01 -1.579564e-01 -4.696302e-01 -4.338707e-01 -2.318495e-01 -2.679625e-01 -2.654361e-01 -1.130124e-01 -5.136899e-01 -4.924160e-01 -3.972631e-01 1.830436e-02 2.266567e-01 -8.147781e-01 -6.628023e-01 -1.215654e+00 -8.697281e-01 -9.275224e-01 -8.363619e-01 -1.502304e-02 -7.145058e-02 7.275282e-02 -1.376577e-01 -3.991175e-02 1.119720e+00
<VARIANCE> 39
 1.844368e+01 9.517400e+00 1.482713e+01 1.910740e+01 1.321880e+01 1.231253e+01 2.027044e+01 2.627452e+01 2.831534e+01 2.286394e+01 2.002638e+01 1.927848e+01 1.081750e+01 7.833964e-01 6.141297e-01 8.500808e-01 1.158347e+00 1.074713e+00 1.471691e+00 1.441149e+00 1.499060e+00 1.529139e+00 1.605790e+00 1.460267e+00 1.110160e+00 7.358400e-01 2.997790e-01 2.388258e-01 5.737624e-01 6.430795e-01 3.739834e-01 5.909538e-01 5.601861e-01 5.480073e-01 6.247923e-01 5.445406e-01 5.806247e-01 3.426573e-01 2.128959e-01
<GCONST> 9.966409e+01
<MIXTURE> 26 2.961455e-02
<MEAN> 39
 -4.092122e+00 2.145410e+00 8.211844e+00 2.074490e+00 1.329130e+00 1.401766e+00 -1.624062e+00 -5.393919e+00 -4.435377e+00 -3.429519e+00 -1.632510e+00 -2.123865e+00 5.405135e+01 -3.277256e-01 -4.070620e-02 -1.471388e-02 -2.215742e-01 -1.933491e-01 -1.622595e-01 -9.874550e-02 -1.404588e-01 -9.823710e-02 -3.743654e-01 -3.910651e-01 -2.917363e-01 -1.724450e-01 5.097138e-02 -7.267714e-01 -6.313649e-01 -9.181886e-01 -7.797525e-01 -8.861290e-01 -6.662469e-01 2.295732e-02 -1.303490e-01 1.450080e-01 2.068290e-02 -2.132810e-01 9.329172e-01
<VARIANCE> 39
 1.446605e+01 7.362875e+00 1.188529e+01 1.670156e+01 1.131010e+01 1.613839e+01 1.772021e+01 2.633260e+01 2.691204e+01 1.927931e+01 1.898383e+01 1.839381e+01 8.475284e+00 5.643312e-01 5.632825e-01 6.294365e-01 7.475653e-01 7.724563e-01 1.138280e+00 1.394657e+00 1.341214e+00 1.402371e+00 1.283220e+00 1.048731e+00 1.257672e+00 5.131684e-01 2.218453e-01 1.942583e-01 4.392447e-01 4.666110e-01 2.796752e-01 5.167019e-01 3.891225e-01 5.523230e-01 5.107337e-01 4.990376e-01 3.690240e-01 3.445212e-01 2.092045e-01
<GCONST> 9.283278e+01
<MIXTURE> 27 2.876349e-02
<MEAN> 39
