~o
<STREAMINFO> 1 39
<VECSIZE> 39<NULLD><MFCC_D_A_0><DIAGC>
~s "silst"
<MEAN> 39
 -1.180579e+01 -5.079885e+00 4.243758e+00 -3.787452e-02 2.054721e+00 3.417730e+00 3.218878e+00 3.049851e+00 2.698139e+00 2.362289e+00 3.521860e+00 3.810424e+00 5.359774e+01 -6.889910e-02 -4.142047e-02 3.694542e-02 6.878215e-02 4.243740e-02 6.298459e-02 7.148955e-02 1.546435e-02 3.182214e-02 5.360544e-02 5.439367e-02 5.322399e-02 -1.326371e-01 7.972918e-02 5.899433e-03 2.624700e-04 -4.554245e-02 -6.756981e-02 -5.331244e-02 -5.336460e-02 -5.812755e-02 -3.074293e-02 -5.343434e-02 -4.342775e-02 -4.446409e-02 7.294143e-02
<VARIANCE> 39
 1.160861e+01 1.220525e+01 1.262783e+01 1.648201e+01 1.779488e+01 2.000046e+01 1.960101e+01 2.272124e+01 2.174925e+01 2.185966e+01 2.049393e+01 1.605354e+01 1.460677e+01 8.247261e-01 8.016169e-01 9.861935e-01 1.339218e+00 1.499469e+00 1.671233e+00 1.763775e+00 1.828529e+00 1.876279e+00 1.882110e+00 1.673113e+00 1.451218e+00 7.621958e-01 1.517309e-01 1.513388e-01 2.000624e-01 2.880500e-01 3.147782e-01 3.363590e-01 3.573337e-01 3.605786e-01 3.785101e-01 3.713131e-01 3.340530e-01 2.871917e-01 1.735876e-01
<GCONST> 9.543597e+01
~h "b"
<BEGINHMM>
<NUMSTATES> 5
<STATE> 2
<MEAN> 39
 -6.864596e-02 -1.424746e+00 4.610527e+00 -2.450983e+00 -4.041816e+00 -4.337760e+00 -6.281960e+00 -6.815333e+00 -6.384262e+00 -1.294840e+00 -1.746756e+00 -4.028481e+00 6.195272e+01 4.102575e-02 8.798504e-01 5.305912e-01 7.279271e-01 4.101745e-01 4.467192e-01 1.834741e-01 -4.985308e-01 -1.978361e-01 -3.633088e-01 -5.665598e-02 -4.905317e-02 -9.208235e-01 -1.088084e-01 -1.895470e-01 -3.080014e-02 -2.964402e-01 -1.175952e-01 -3.976644e-02 5.565859e-02 2.313973e-01 1.189872e-01 -1.203467e-02 -3.518908e-02 3.295348e-02 2.709639e-01
<VARIANCE> 39
 1.659704e+01 2.363759e+01 2.947442e+01 5.862466e+01 3.675734e+01 5.682259e+01 4.706473e+01 5.301319e+01 4.851566e+01 4.039299e+01 4.341515e+01 3.580693e+01 2.745257e+01 8.950142e-01 1.231102e+00 1.423315e+00 2.618001e+00 2.202142e+00 2.463232e+00 2.413487e+00 2.480029e+00 2.493497e+00 2.235250e+00 2.229111e+00 2.195266e+00 1.410664e+00 1.301784e-01 2.347824e-01 2.571666e-01 4.521906e-01 4.075685e-01 4.125465e-01 4.379647e-01 5.014743e-01 4.734515e-01 4.257908e-01 4.053988e-01 3.816578e-01 2.555900e-01
<GCONST> 1.135847e+02
<STATE> 3
<MEAN> 39
 -3.770993e-01 1.860142e-01 5.794396e+00 -1.479288e+00 -3.042000e+00 -3.305747e+00 -5.701970e+00 -7.181360e+00 -6.258808e+00 -2.311831e+00 -2.220576e+00 -4.131035e+00 6.016986e+01 -2.197074e-01 3.225716e-01 4.441091e-01 2.523844e-02 1.584157e-01 2.608250e-01 2.500529e-01 1.248879e-01 2.012780e-01 -2.135761e-01 -2.450456e-02 6.755469e-02 -3.053288e-01 -9.525744e-02 -5.889370e-01 -1.529387e-01 -6.999986e-01 -4.351831e-01 -3.034441e-01 -4.757321e-02 4.054457e-01 1.497433e-01 2.052210e-01 1.049308e-02 1.065451e-01 7.219177e-01
<VARIANCE> 39
 1.284097e+01 2.245018e+01 2.758282e+01 5.425590e+01 3.115190e+01 4.730780e+01 4.118189e+01 4.709779e+01 3.877481e+01 3.634230e+01 3.896457e+01 2.949966e+01 2.435540e+01 1.010800e+00 1.272327e+00 1.584103e+00 2.895102e+00 2.391451e+00 2.732728e+00 2.496653e+00 2.854996e+00 2.743039e+00 2.199919e+00 2.203426e+00 2.215820e+00 1.539372e+00 1.712762e-01 2.947023e-01 5.053379e-01 7.102256e-01 6.165237e-01 5.642304e-01 5.757805e-01 6.330647e-01 6.219752e-01 5.161729e-01 5.095868e-01 4.699537e-01 3.717703e-01
<GCONST> 1.168077e+02
<STATE> 4
<MEAN> 39
 -1.153176e+00 9.358037e-02 6.190370e+00 -2.082917e+00 -2.627951e+00 -2.701654e+00 -5.303637e+00 -6.578007e+00 -5.171028e+00 -2.177958e+00 -2.115795e+00 -3.667501e+00 6.016241e+01 -1.971579e-01 -1.300590e+00 -2.857800e-01 -1.954094e+00 -1.145322e+00 -7.013116e-01 -9.711395e-02 1.047997e+00 5.408468e-01 5.173343e-01 1.124507e-01 2.920854e-01 1.743050e+00 3.473002e-02 -6.474407e-01 -1.957986e-01 -8.355802e-01 -6.447163e-01 -3.020605e-01 -9.911954e-02 2.566851e-01 -4.682489e-02 2.239962e-01 -6.706923e-02 4.331573e-02 8.807721e-01
<VARIANCE> 39
 1.446925e+01 2.330249e+01 3.296282e+01 6.399683e+01 3.474766e+01 4.390882e+01 3.956556e+01 4.113940e+01 3.253847e+01 3.136934e+01 3.447197e+01 2.519835e+01 2.868903e+01 1.390266e+00 2.278524e+00 5.084378e+00 6.177595e+00 3.885712e+00 4.037199e+00 3.998154e+00 4.797997e+00 4.335403e+00 3.315780e+00 3.084066e+00 2.973691e+00 2.725422e+00 2.451040e-01 4.759953e-01 7.464103e-01 1.018157e+00 9.131547e-01 7.799942e-01 6.828572e-01 8.504273e-01 7.218413e-01 6.125661e-01 6.512920e-01 6.095874e-01 4.692769e-01
<GCONST> 1.273180e+02
<TRANSP> 5
 0.000000e+00 1.000000e+00 0.000000e+00 0.000000e+00 0.000000e+00
 0.000000e+00 4.909923e-01 5.090078e-01 0.000000e+00 0.000000e+00
 0.000000e+00 0.000000e+00 3.648246e-01 6.351754e-01 0.000000e+00
 0.000000e+00 0.000000e+00 0.000000e+00 5.077885e-01 4.922114e-01
 0.000000e+00 0.000000e+00 0.000000e+00 0.000000e+00 0.000000e+00
<ENDHMM>
~h "d"
<BEGINHMM>
<NUMSTATES> 5
<STATE> 2
<MEAN> 39
 -3.987957e+00 4.071915e-01 6.442837e+00 -7.174985e-01 -3.362177e+00 -5.409576e+00 -5.163085e+00 -3.876828e+00 -2.316906e+00 -2.994866e+00 -3.809255e+00 -2.567569e+00 6.069738e+01 -1.683151e-01 -1.393203e-01 2.047018e-01 -3.055141e-01 -4.119168e-01 -7.025017e-01 -2.018081e-01 1.747783e-01 -2.357592e-01 -1.143843e-01 1.744133e-01 1.266383e-01 9.064171e-01 -1.676795e-02 -4.844275e-01 -1.997209e-01 -6.849258e-01 -6.564736e-01 -2.835508e-01 -1.112644e-03 1.972472e-01 -1.001944e-02 2.048238e-01 1.477728e-01 1.471459e-01 7.475215e-01
<VARIANCE> 39
 1.718975e+01 2.424166e+01 3.038814e+01 4.930595e+01 4.799926e+01 5.692488e+01 4.665219e+01 3.880320e+01 3.329782e+01 3.760884e+01 3.487759e+01 3.357982e+01 4.866816e+01 2.392768e+00 3.165369e+00 2.989303e+00 6.129897e+00 6.400796e+00 5.984076e+00 4.700481e+00 4.401443e+00 3.611023e+00 3.280280e+00 3.546853e+00 3.329391e+00 6.011152e+00 3.447900e-01 3.852198e-01 4.852041e-01 8.415431e-01 1.132392e+00 1.058884e+00 8.337498e-01 7.339364e-01 6.640871e-01 6.021517e-01 5.822268e-01 5.813577e-01 7.431380e-01
<GCONST> 1.313410e+02
<STATE> 3
<MEAN> 39
 -4.517337e+00 -2.877661e+00 4.894361e+00 -5.637232e+00 -7.458713e+00 -9.812733e+00 -6.402877e+00 -2.155612e+00 -2.149473e+00 -1.964074e+00 -2.525470e+00 -9.693295e-01 6.772136e+01 -1.125552e-02 -1.340379e+00 -1.112171e-01 -1.948882e+00 -2.226128e+00 -1.280781e+00 -1.427737e-01 5.949656e-01 -1.314516e-01 5.613286e-01 4.986013e-01 4.280304e-01 2.351303e+00 1.546874e-01 -7.900871e-02 1.165681e-01 -2.324244e-01 -3.655203e-01 2.079797e-01 1.004092e-01 -1.252928e-01 -1.171237e-01 1.213931e-01 -1.022267e-01 -1.510307e-01 7.358468e-03
<VARIANCE> 39
 1.494761e+01 2.408206e+01 3.219468e+01 6.062142e+01 6.322360e+01 5.728568e+01 5.430665e+01 4.542321e+01 3.824822e+01 4.045368e+01 3.873023e+01 3.328184e+01 3.858492e+01 1.751109e+00 2.689831e+00 4.077038e+00 6.375807e+00 7.324016e+00 5.557337e+00 5.445571e+00 5.077347e+00 4.482967e+00 4.210695e+00 3.761000e+00 3.318319e+00 4.416578e+00 3.382085e-01 4.549749e-01 5.206555e-01 9.991758e-01 1.279831e+00 9.905610e-01 8.557475e-01 8.050491e-01 6.572466e-01 6.029958e-01 6.216779e-01 6.170540e-01 8.423986e-01
<GCONST> 1.333691e+02
<STATE> 4
<MEAN> 39
 -3.790558e+00 -5.108253e+00 4.824007e+00 -9.354007e+00 -1.227431e+01 -1.124996e+01 -6.918011e+00 -1.660792e+00 -2.452106e+00 -8.305513e-01 -2.125614e+00 -1.089646e+00 7.133139e+01 9.171334e-02 -7.799002e-01 3.543544e-01 -1.305802e+00 -1.697085e+00 -2.451691e-01 1.451543e-01 1.239407e-01 -3.794699e-01 4.521059e-01 1.876624e-01 -8.413660e-03 1.207418e+00 2.736232e-02 2.492896e-01 1.196405e-01 2.784000e-01 3.474602e-01 4.373099e-01 8.673952e-02 -2.007615e-01 -7.625785e-02 -4.124146e-02 -1.327963e-01 -1.373841e-01 -4.846004e-01
<VARIANCE> 39
 1.330989e+01 2.471870e+01 4.748203e+01 7.102821e+01 6.772641e+01 5.847953e+01 6.442127e+01 6.396678e+01 4.867624e+01 5.548858e+01 4.930378e+01 3.741626e+01 2.266997e+01 1.272840e+00 2.242193e+00 3.398909e+00 4.920362e+00 6.433505e+00 4.197049e+00 4.644334e+00 4.576640e+00 3.721445e+00 3.514835e+00 3.022495e+00 2.818780e+00 3.051348e+00 2.234187e-01 3.379098e-01 4.393769e-01 7.993086e-01 9.763982e-01 7.081096e-01 7.780347e-01 7.267099e-01 6.040674e-01 6.144530e-01 5.522266e-01 5.224282e-01 5.097821e-01
<GCONST> 1.293170e+02
<TRANSP> 5
 0.000000e+00 1.000000e+00 0.000000e+00 0.000000e+00 0.000000e+00
 0.000000e+00 5.908056e-01 4.091944e-01 0.000000e+00 0.000000e+00
 0.000000e+00 0.000000e+00 3.591445e-01 6.408554e-01 0.000000e+00
 0.000000e+00 0.000000e+00 0.000000e+00 3.469106e-01 6.530894e-01
 0.000000e+00 0.000000e+00 0.000000e+00 0.000000e+00 0.000000e+00
<ENDHMM>
~h "f"
<BEGINHMM>
<NUMSTATES> 5
<STATE> 2
<MEAN> 39
 -1.253690e+01 -3.001053e+00 3.654274e+00 -3.316955e-01 4.462599e-01 6.537541e-01 -1.669742e-01 1.808358e+00 1.257103e-01 3.903337e-01 6.053994e-01 1.160166e+00 6.210802e+01 -2.261086e+00 -2.913009e-01 3.483226e-03 8.595759e-01 8.862128e-01 7.915075e-01 7.599468e-01 1.115837e+00 1.210387e+00 7.486690e-01 8.539952e-01 9.002600e-01 -5.962414e-01 4.076828e-01 -2.783879e-01 -1.489595e-01 -5.585828e-01 -5.041939e-01 -3.419683e-01 -2.105414e-01 -1.890880e-01 -1.872880e-01 -7.451081e-03 -8.459579e-02 -9.401345e-02 4.017580e-01
<VARIANCE> 39
 3.870135e+01 1.596246e+01 2.179172e+01 1.987735e+01 1.904539e+01 2.148032e+01 2.089112e+01 2.451286e+01 2.583251e+01 2.368708e+01 2.297498e+01 2.003594e+01 2.033290e+01 4.830366e+00 2.401262e+00 2.992779e+00 3.780851e+00 3.409869e+00 3.253740e+00 2.695305e+00 3.552680e+00 3.447556e+00 2.704698e+00 2.844511e+00 2.386683e+00 1.788183e+00 7.101202e-01 4.283177e-01 4.456478e-01 5.548841e-01 5.151167e-01 4.953023e-01 4.910978e-01 6.468650e-01 6.045809e-01 5.327831e-01 4.897084e-01 4.438176e-01 2.301036e-01
<GCONST> 1.170311e+02
<STATE> 3
<MEAN> 39
 -1.687475e+01 -5.907537e+00 2.384895e+00 -6.322867e-01 7.890307e-01 1.004898e+00 9.048832e-01 3.796319e+00 2.483090e+00 2.408906e+00 2.739984e+00 3.326124e+00 6.274483e+01 1.043881e+00 -2.555171e-01 -2.359296e-01 -9.102492e-01 -7.350584e-01 -5.886428e-01 -3.074087e-01 -4.124495e-01 -5.170155e-01 -2.909466e-01 -2.796298e-01 -2.909663e-01 6.096228e-01 9.897274e-01 1.698197e-01 8.155812e-02 -5.336255e-01 -5.117810e-01 -3.467935e-01 -3.252127e-01 -4.769752e-01 -5.470923e-01 -2.488932e-01 -3.266219e-01 -3.610665e-01 2.445220e-01
<VARIANCE> 39
 1.505278e+01 1.347965e+01 1.697127e+01 1.388310e+01 1.434850e+01 1.680599e+01 1.679178e+01 1.750723e+01 1.709554e+01 1.677310e+01 1.602806e+01 1.389903e+01 1.592352e+01 5.473548e+00 1.812879e+00 2.103887e+00 3.092249e+00 2.573597e+00 2.454017e+00 2.141808e+00 2.631588e+00 2.982783e+00 2.390773e+00 2.383236e+00 2.073962e+00 1.279451e+00 3.914253e-01 3.563197e-01 4.320399e-01 6.263388e-01 5.053710e-01 4.947682e-01 4.942729e-01 5.601240e-01 5.144369e-01 4.896074e-01 5.126098e-01 3.836187e-01 2.594031e-01
<GCONST> 1.087003e+02
<STATE> 4
<MEAN> 39
 -7.046940e+00 -5.017466e+00 1.158405e+00 -6.390740e+00 -3.988950e+00 -2.270028e+00 -1.598323e+00 -1.330562e-01 -2.001973e+00 -5.425706e-01 5.661104e-02 3.039095e-01 6.539072e+01 4.113507e+00 5.777188e-02 -1.810461e-01 -3.079102e+00 -2.661575e+00 -1.562874e+00 -1.383897e+00 -1.784198e+00 -2.080114e+00 -5.877705e-01 -9.857785e-01 -1.294277e+00 1.487541e+00 -2.487581e-01 -1.866169e-01 1.229419e-01 -6.459790e-02 -6.869715e-02 3.673220e-02 -1.599271e-01 7.673234e-03 1.173464e-01 3.204896e-01 9.293652e-02 1.504619e-02 1.639669e-01
<VARIANCE> 39
 6.698130e+01 1.744444e+01 4.435069e+01 6.538653e+01 3.814027e+01 4.146590e+01 3.308504e+01 3.534781e+01 3.351237e+01 2.390891e+01 2.533524e+01 1.898871e+01 1.801857e+01 3.155527e+00 3.559982e+00 5.939080e+00 7.389599e+00 4.573803e+00 5.052547e+00 4.280504e+00 5.019126e+00 4.641514e+00 3.897434e+00 4.946817e+00 2.852256e+00 1.728787e+00 1.129763e+00 4.924134e-01 4.378166e-01 1.156410e+00 8.505343e-01 7.089646e-01 7.101135e-01 7.646638e-01 8.097928e-01 6.249290e-01 6.609985e-01 4.594995e-01 2.553733e-01
<GCONST> 1.297736e+02
<TRANSP> 5
 0.000000e+00 1.000000e+00 0.000000e+00 0.000000e+00 0.000000e+00
 0.000000e+00 6.827933e-01 3.172068e-01 0.000000e+00 0.000000e+00
 0.000000e+00 0.000000e+00 7.304952e-01 2.695048e-01 0.000000e+00
 0.000000e+00 0.000000e+00 0.000000e+00 4.630346e-01 5.369654e-01
 0.000000e+00 0.000000e+00 0.000000e+00 0.000000e+00 0.000000e+00
<ENDHMM>
~h "g"
<BEGINHMM>
<NUMSTATES> 5
<STATE> 2
<MEAN> 39
 -1.010178e+00 -4.086425e+00 2.981510e+00 -8.086290e+00 -8.352205e+00 -6.326293e+00 -6.031437e+00 -2.994627e+00 -4.994342e+00 6.056166e-01 -2.178368e+00 -1.643604e+00 6.636415e+01 3.534959e-01 4.171377e-01 3.142994e-03 -1.864415e-01 -3.859553e-01 -9.333834e-02 -9.109644e-02 -2.425326e-01 -4.612886e-01 1.768869e-01 1.614949e-01 8.040308e-02 -1.829343e-01 -3.328072e-02 -1.085780e-01 -5.572629e-02 -1.867439e-02 -2.655790e-02 5.971915e-02 7.170805e-02 1.116603e-01 4.561688e-02 -6.540091e-02 -5.923772e-03 -9.226114e-02 1.060060e-01
<VARIANCE> 39
 1.957789e+01 3.832912e+01 4.612725e+01 7.444119e+01 7.277197e+01 7.156886e+01 6.467905e+01 7.560632e+01 5.974874e+01 5.278136e+01 6.683351e+01 3.848769e+01 3.947316e+01 8.382660e-01 2.024518e+00 2.263045e+00 4.647826e+00 4.036598e+00 3.387923e+00 3.240578e+00 3.430552e+00 3.170494e+00 3.083542e+00 2.593102e+00 2.590771e+00 2.747198e+00 1.471217e-01 3.095358e-01 3.367030e-01 5.887586e-01 7.492526e-01 5.898871e-01 6.853501e-01 5.973626e-01 5.928670e-01 5.792221e-01 4.798980e-01 4.454607e-01 3.434246e-01
<GCONST> 1.260807e+02
<STATE> 3
<MEAN> 39
 -3.504273e-01 -3.223181e+00 3.031348e+00 -8.816066e+00 -9.797128e+00 -6.336174e+00 -5.983759e+00 -3.098912e+00 -6.114469e+00 9.257517e-01 -2.015878e+00 -1.707279e+00 6.637576e+01 1.450837e-01 1.774352e-01 -1.037305e-01 -7.148711e-02 -2.063524e-01 2.267332e-02 9.142688e-02 6.829458e-02 -1.391861e-01 2.515829e-03 1.677792e-01 -5.776463e-02 -8.789898e-02 -5.734581e-02 -1.847454e-01 -8.797263e-02 -2.217950e-02 9.857443e-02 4.127693e-02 7.798399e-03 1.353659e-01 1.450172e-01 -7.215782e-02 -1.773950e-02 -9.347140e-02 1.402135e-01
<VARIANCE> 39
 1.781076e+01 3.861784e+01 4.896498e+01 7.890285e+01 6.703197e+01 7.212012e+01 5.717365e+01 7.551286e+01 5.783028e+01 5.488736e+01 6.894092e+01 4.374668e+01 3.350026e+01 5.350205e-01 1.675035e+00 1.672825e+00 3.720587e+00 3.314454e+00 2.760986e+00 2.822290e+00 2.887954e+00 2.765624e+00 2.751447e+00 2.359962e+00 2.327499e+00 2.112619e+00 1.052822e-01 3.005039e-01 2.785308e-01 5.719036e-01 6.361347e-01 5.007299e-01 5.447479e-01 5.494039e-01 5.500757e-01 5.225683e-01 4.403704e-01 4.674293e-01 3.641812e-01
<GCONST> 1.219432e+02
<STATE> 4
<MEAN> 39
 3.140516e-01 -3.313590e+00 2.199425e+00 -9.313008e+00 -1.018705e+01 -5.525903e+00 -6.194588e+00 -1.113085e+00 -5.587104e+00 -2.251766e-01 -2.405698e-01 -2.437443e+00 6.657059e+01 1.844881e-02 -2.123835e-01 -2.096693e-01 -4.711035e-03 1.186357e-01 3.219284e-02 2.556656e-02 1.855493e-01 1.652021e-01 -8.135826e-02 7.584779e-02 -9.725859e-02 1.201537e-01 -3.951100e-02 -1.506969e-01 -4.598655e-02 -4.374756e-03 1.447270e-01 2.134495e-02 -5.539434e-02 2.567792e-02 8.249712e-02 -1.030341e-02 -3.990122e-02 -1.227026e-02 8.763370e-02
<VARIANCE> 39
 1.770750e+01 4.259727e+01 4.760504e+01 8.501811e+01 6.319790e+01 7.814197e+01 5.392405e+01 8.414873e+01 5.227756e+01 5.008531e+01 7.308635e+01 5.165083e+01 3.415578e+01 5.238692e-01 1.456150e+00 1.501474e+00 3.084560e+00 3.146956e+00 2.451772e+00 2.677402e+00 2.925436e+00 2.808841e+00 2.483154e+00 2.352350e+00 2.359920e+00 1.773534e+00 9.389520e-02 2.812104e-01 2.712006e-01 5.389997e-01 5.520509e-01 4.589686e-01 4.816068e-01 5.618886e-01 4.879868e-01 4.430786e-01 4.164328e-01 4.457456e-01 3.639983e-01
<GCONST> 1.203009e+02
<TRANSP> 5
 0.000000e+00 1.000000e+00 0.000000e+00 0.000000e+00 0.000000e+00
 0.000000e+00 3.688751e-01 6.311249e-01 0.000000e+00 0.000000e+00
 0.000000e+00 0.000000e+00 4.200425e-01 5.799575e-01 0.000000e+00
 0.000000e+00 0.000000e+00 0.000000e+00 5.885122e-01 4.114878e-01
 0.000000e+00 0.000000e+00 0.000000e+00 0.000000e+00 0.000000e+00
<ENDHMM>
~h "k"
<BEGINHMM>
<NUMSTATES> 5
<STATE> 2
<MEAN> 39
 -7.556363e+00 -3.186023e+00 5.079965e+00 -7.729965e-01 -1.647900e+00 -1.581288e+00 3.589536e-01 5.487114e-01 -1.590420e-02 1.889165e+00 7.490481e-01 1.278406e+00 5.704028e+01 -1.076302e+00 -3.041906e-01 -3.873795e-01 1.046682e+00 1.436433e+00 1.328370e+00 1.057575e+00 7.802886e-01 1.311382e+00 6.918046e-01 9.137493e-01 8.344408e-01 -1.770204e+00 2.204554e-02 -4.046203e-01 -4.459390e-01 -7.032861e-01 -2.721290e-01 -1.723456e-01 -1.719304e-01 5.452537e-02 -1.902677e-01 3.750600e-02 -8.262475e-02 6.308527e-03 8.312182e-01
<VARIANCE> 39
 2.102195e+01 1.730260e+01 3.223975e+01 4.605282e+01 4.765552e+01 5.692080e+01 4.051979e+01 4.334742e+01 4.595705e+01 3.541836e+01 3.982406e+01 2.768902e+01 4.133753e+01 1.914629e+00 3.109671e+00 4.090748e+00 6.635638e+00 4.845164e+00 4.762126e+00 4.055337e+00 4.375276e+00 5.053585e+00 3.377334e+00 4.149581e+00 2.655382e+00 6.077573e+00 3.426031e-01 4.840856e-01 6.463290e-01 9.049081e-01 8.178646e-01 9.248769e-01 7.613392e-01 8.020650e-01 1.023039e+00 7.024347e-01 7.508620e-01 5.125472e-01 7.941979e-01
<GCONST> 1.318956e+02
<STATE> 3
<MEAN> 39
 -1.062094e+01 -6.235379e+00 1.304011e+00 -1.661014e+00 1.608661e+00 1.337794e+00 2.364366e+00 2.771533e+00 2.069297e+00 4.492591e+00 2.973629e+00 4.131581e+00 5.652236e+01 -1.097414e-01 -8.029807e-01 -1.709618e+00 -1.637154e+00 1.042325e-01 -2.975305e-01 -3.160087e-01 2.319307e-01 -7.396337e-01 3.249568e-01 -2.903554e-01 2.342919e-01 1.935341e+00 5.908960e-01 3.067562e-01 9.091392e-02 -5.862792e-01 -6.812848e-01 -5.574599e-01 -4.802021e-01 -3.762176e-01 -6.269631e-01 -3.751074e-01 -4.276162e-01 -4.566431e-01 7.744546e-01
<VARIANCE> 39
 1.655721e+01 2.181884e+01 4.196633e+01 4.171802e+01 3.937597e+01 3.968417e+01 3.066491e+01 3.115855e+01 3.312862e+01 2.971707e+01 2.563749e+01 2.100559e+01 3.551197e+01 2.865047e+00 3.237329e+00 5.529082e+00 6.188931e+00 5.777897e+00 5.955401e+00 4.361516e+00 4.687697e+00 5.354939e+00 4.017106e+00 3.989157e+00 3.051661e+00 5.682854e+00 4.486699e-01 6.061962e-01 9.816064e-01 9.316407e-01 9.505450e-01 8.808671e-01 7.389046e-01 8.251917e-01 8.475286e-01 7.267995e-01 7.124181e-01 5.674644e-01 8.140758e-01
<GCONST> 1.319637e+02
<STATE> 4
<MEAN> 39
 -6.944358e+00 -5.914471e+00 -2.382540e+00 -9.052919e+00 -2.139802e+00 -2.170398e+00 -1.293403e+00 9.700938e-01 -3.245864e+00 3.064523e+00 1.794302e-01 1.741148e+00 6.506817e+01 1.949214e+00 5.010286e-01 1.816095e-01 -2.034025e+00 -2.296354e+00 -1.403628e+00 -1.153506e+00 -9.077377e-01 -1.382135e+00 -9.897111e-01 -9.078337e-01 -1.345252e+00 2.160386e+00 1.973300e-01 1.414139e-02 4.463255e-01 2.548209e-01 -2.198051e-01 8.386055e-02 5.187869e-02 -8.164090e-02 2.146740e-01 -2.168953e-01 7.387024e-02 -2.158951e-01 -3.049429e-01
<VARIANCE> 39
 4.270071e+01 3.234375e+01 6.731416e+01 7.589523e+01 8.045032e+01 6.768715e+01 5.108419e+01 6.157891e+01 5.094666e+01 4.642953e+01 4.483282e+01 3.385025e+01 3.603152e+01 3.737229e+00 3.301336e+00 5.145543e+00 6.563069e+00 7.072571e+00 5.631261e+00 5.320652e+00 5.733109e+00 5.537038e+00 4.516218e+00 4.663019e+00 4.116968e+00 3.605804e+00 6.825413e-01 7.588133e-01 1.056478e+00 1.078030e+00 1.509471e+00 1.141868e+00 9.904792e-01 1.112214e+00 1.002289e+00 9.085746e-01 7.689101e-01 7.733569e-01 5.440494e-01
<GCONST> 1.422633e+02
<TRANSP> 5
 0.000000e+00 1.000000e+00 0.000000e+00 0.000000e+00 0.000000e+00
 0.000000e+00 6.545899e-01 3.454101e-01 0.000000e+00 0.000000e+00
 0.000000e+00 0.000000e+00 6.081614e-01 3.918386e-01 0.000000e+00
 0.000000e+00 0.000000e+00 0.000000e+00 6.318191e-01 3.681809e-01
 0.000000e+00 0.000000e+00 0.000000e+00 0.000000e+00 0.000000e+00
<ENDHMM>
~h "l"
<BEGINHMM>
<NUMSTATES> 5
<STATE> 2
<MEAN> 39
 -3.928784e+00 -4.085372e+00 7.020897e+00 -5.362944e+00 -6.993546e+00 -6.221793e+00 -9.856053e+00 -3.428254e+00 4.228786e-02 -1.589113e+00 -2.445334e+00 -5.097160e-01 6.517222e+01 -2.422611e-01 7.459993e-01 6.631183e-01 2.849355e-01 4.563175e-01 4.510859e-01 -5.150176e-01 -6.597270e-01 1.652278e-01 -3.728416e-02 -9.644122e-02 2.608313e-01 -6.917385e-01 3.612689e-02 -3.263907e-01 -3.484923e-01 -2.457951e-01 -1.319690e-01 7.982688e-02 4.053112e-01 3.298031e-01 -1.135599e-01 9.935922e-02 2.810614e-02 -1.323848e-01 2.556014e-01
<VARIANCE> 39
 2.373561e+01 2.563886e+01 3.763050e+01 5.619261e+01 5.795817e+01 6.224991e+01 8.693991e+01 6.080275e+01 4.736469e+01 5.078756e+01 5.016602e+01 4.687343e+01 4.704193e+01 1.228716e+00 1.932027e+00 2.509207e+00 2.750007e+00 3.010962e+00 3.818022e+00 5.702302e+00 4.701148e+00 3.226037e+00 3.107724e+00 2.838206e+00 2.613909e+00 1.821591e+00 2.017995e-01 4.088013e-01 4.604976e-01 5.706096e-01 6.355307e-01 7.809266e-01 1.033094e+00 9.296784e-01 6.624390e-01 6.519027e-01 6.117570e-01 5.413277e-01 2.381864e-01
<GCONST> 1.273917e+02
<STATE> 3
<MEAN> 39
 -4.028642e+00 -3.560294e+00 7.561499e+00 -5.546740e+00 -6.871669e+00 -5.524542e+00 -1.017692e+01 -4.055140e+00 8.728746e-02 -1.480943e+00 -2.708005e+00 -5.311639e-01 6.471415e+01 -6.782126e-02 1.265685e-02 -5.322276e-02 -9.794931e-02 1.088570e-01 3.031500e-01 1.937240e-01 1.036345e-01 5.284815e-03 1.711884e-01 4.631415e-02 -5.528242e-02 -1.241460e-01 9.648744e-02 -3.906402e-01 -4.224129e-01 -2.104480e-01 -1.965014e-01 -8.351067e-02 4.257009e-01 4.007967e-01 -1.284311e-01 8.218350e-02 3.661454e-02 -1.510146e-01 3.403209e-01
<VARIANCE> 39
 2.317224e+01 2.493466e+01 3.776435e+01 5.736375e+01 5.615342e+01 6.044801e+01 9.032598e+01 6.164583e+01 4.707065e+01 5.036724e+01 5.413615e+01 4.794963e+01 4.605733e+01 9.941489e-01 1.613588e+00 2.102037e+00 2.355858e+00 2.397305e+00 3.086586e+00 4.095682e+00 3.987839e+00 2.806136e+00 2.649915e+00 2.544854e+00 2.286583e+00 1.476903e+00 1.788446e-01 3.958913e-01 4.620027e-01 5.297827e-01 5.917734e-01 7.335653e-01 1.171746e+00 9.160456e-01 6.347373e-01 6.310483e-01 6.084582e-01 5.356953e-01 2.595180e-01
<GCONST> 1.247550e+02
<STATE> 4
<MEAN> 39
 -5.690493e+00 -4.336860e+00 6.535131e+00 -4.512589e+00 -4.993034e+00 -3.371740e+00 -6.442596e+00 -2.208236e+00 3.626821e-01 -5.906793e-01 -1.054572e+00 2.883834e-01 6.270937e+01 1.214203e-01 -4.010737e-01 -5.027976e-01 -3.400640e-01 -2.098845e-01 3.940438e-02 4.985863e-01 5.024845e-01 -1.712333e-01 1.851862e-01 -1.918055e-04 -2.395819e-01 3.334992e-01 1.235340e-01 -2.169255e-01 -2.795416e-01 -1.865237e-01 -1.479468e-01 -1.307315e-01 1.557219e-01 1.672327e-01 -1.414081e-01 -1.868837e-02 -7.123990e-02 -1.235462e-01 3.310994e-01
<VARIANCE> 39
 3.026300e+01 2.458099e+01 3.230965e+01 5.499758e+01 5.577892e+01 6.111517e+01 8.878747e+01 5.647694e+01 4.371409e+01 4.235502e+01 5.116711e+01 4.038430e+01 6.321232e+01 1.212573e+00 2.075326e+00 2.489250e+00 2.758224e+00 2.981378e+00 3.784486e+00 5.116047e+00 4.668644e+00 3.226197e+00 3.062627e+00 2.949379e+00 2.560891e+00 1.871790e+00 1.863054e-01 3.841328e-01 4.166525e-01 5.039036e-01 5.646215e-01 6.674434e-01 1.052211e+00 7.759758e-01 5.962397e-01 6.068079e-01 5.486108e-01 4.624147e-01 2.874360e-01
<GCONST> 1.261035e+02
<TRANSP> 5
 0.000000e+00 1.000000e+00 0.000000e+00 0.000000e+00 0.000000e+00
 0.000000e+00 3.512802e-01 6.487198e-01 0.000000e+00 0.000000e+00
 0.000000e+00 0.000000e+00 2.970737e-01 7.029263e-01 0.000000e+00
 0.000000e+00 0.000000e+00 0.000000e+00 2.715549e-01 7.284451e-01
 0.000000e+00 0.000000e+00 0.000000e+00 0.000000e+00 0.000000e+00
<ENDHMM>
~h "m"
<BEGINHMM>
<NUMSTATES> 5
<STATE> 2
<MEAN> 39
 9.050570e-01 -3.065011e+00 2.199221e+00 -3.730313e+00 -4.930244e+00 -5.519784e+00 -7.066519e+00 -7.888636e+00 -7.766859e+00 -1.600933e+00 -2.195946e+00 -4.950916e+00 6.496038e+01 1.009927e-01 1.150504e+00 8.228391e-01 1.985013e+00 7.089666e-01 -9.288531e-02 -2.850685e-01 -2.066256e+00 -1.452754e+00 1.690926e-01 1.852957e-01 -5.008599e-01 -9.975024e-01 -1.901206e-01 -3.002217e-01 -3.005242e-03 -4.551605e-01 -2.056534e-01 8.634080e-02 1.492996e-01 3.945013e-01 1.189783e-01 -8.881275e-02 -6.452537e-02 9.290117e-02 3.635904e-01
<VARIANCE> 39
 1.089224e+01 2.291170e+01 3.075620e+01 4.802496e+01 4.362397e+01 5.675098e+01 5.263236e+01 6.050596e+01 4.665410e+01 4.569519e+01 4.471558e+01 3.385603e+01 1.992558e+01 1.248027e+00 1.989413e+00 3.343037e+00 3.890052e+00 3.187579e+00 3.879399e+00 4.646349e+00 4.531172e+00 4.461946e+00 4.513629e+00 3.232275e+00 3.005856e+00 1.495488e+00 1.585577e-01 2.692694e-01 4.720842e-01 5.724590e-01 4.740913e-01 5.009249e-01 6.320361e-01 7.899096e-01 7.208759e-01 6.217491e-01 5.020185e-01 4.782397e-01 1.659486e-01
<GCONST> 1.224501e+02
<STATE> 3
<MEAN> 39
 7.426306e-01 -2.214041e+00 3.633298e+00 -1.516003e+00 -4.369223e+00 -5.255300e+00 -7.207011e+00 -1.053101e+01 -1.054493e+01 -1.777256e+00 -1.938222e+00 -5.771539e+00 6.442374e+01 -4.803678e-02 -1.559361e-01 -3.757699e-02 -2.937218e-01 -4.926568e-02 8.788407e-02 9.464718e-02 2.917788e-01 2.988443e-02 -1.939074e-01 -9.459572e-02 -1.525442e-01 2.011828e-01 -4.787533e-02 -4.060613e-01 -2.946787e-01 -8.285550e-01 -2.637756e-01 9.932787e-02 1.570853e-01 7.814964e-01 5.433018e-01 -1.069488e-01 -6.957109e-02 1.884633e-01 3.708125e-01
<VARIANCE> 39
 5.898721e+00 1.903977e+01 2.257089e+01 3.945096e+01 4.339248e+01 6.510168e+01 5.828322e+01 6.038816e+01 4.528553e+01 5.477540e+01 4.702552e+01 3.785761e+01 1.226582e+01 4.668528e-01 1.153424e+00 1.597631e+00 2.801165e+00 1.582552e+00 2.268273e+00 2.167501e+00 3.199229e+00 2.903037e+00 2.485505e+00 1.971312e+00 1.936596e+00 9.379246e-01 1.318593e-01 2.244482e-01 4.482122e-01 4.581857e-01 4.004789e-01 5.217864e-01 6.726785e-01 6.783227e-01 7.252826e-01 7.537618e-01 5.174363e-01 5.337954e-01 1.378863e-01
<GCONST> 1.131309e+02
<STATE> 4
<MEAN> 39
 8.739977e-01 -3.555409e+00 1.115268e+00 -6.926744e+00 -6.140846e+00 -4.126120e+00 -5.857376e+00 -5.726453e+00 -7.664969e+00 -3.614064e+00 -2.801095e+00 -5.950782e+00 6.672289e+01 -1.816542e-01 -9.588050e-01 -5.928365e-01 -2.139545e+00 -6.522357e-01 2.590451e-01 3.514672e-01 1.842369e+00 1.156190e+00 -2.582720e-01 -8.807726e-02 4.120445e-01 9.931459e-01 -1.562571e-01 -9.111290e-02 1.150990e-01 -1.347995e-01 -4.360657e-02 1.528416e-01 7.483201e-02 2.969663e-02 5.749027e-03 4.640159e-02 3.897889e-02 1.770134e-01 7.674152e-02
<VARIANCE> 39
 7.632498e+00 2.583794e+01 4.324210e+01 6.470477e+01 5.074310e+01 6.529633e+01 5.261296e+01 6.169869e+01 5.212042e+01 5.418814e+01 4.577961e+01 3.332438e+01 2.067670e+01 8.854001e-01 2.081106e+00 4.252759e+00 4.027017e+00 3.726326e+00 3.868662e+00 4.665323e+00 4.894369e+00 5.195905e+00 4.736629e+00 3.448126e+00 3.319799e+00 1.532050e+00 1.121573e-01 2.671298e-01 4.663860e-01 7.258701e-01 5.552544e-01 5.586286e-01 6.420049e-01 7.797858e-01 7.674580e-01 6.437125e-01 5.329162e-01 4.849245e-01 1.367148e-01
<GCONST> 1.242084e+02
<TRANSP> 5
 0.000000e+00 1.000000e+00 0.000000e+00 0.000000e+00 0.000000e+00
 0.000000e+00 5.851091e-01 4.148909e-01 0.000000e+00 0.000000e+00
 0.000000e+00 0.000000e+00 6.471323e-01 3.528677e-01 0.000000e+00
 0.000000e+00 0.000000e+00 0.000000e+00 5.899580e-01 4.100421e-01
 0.000000e+00 0.000000e+00 0.000000e+00 0.000000e+00 0.000000e+00
<ENDHMM>
~h "n"
<BEGINHMM>
<NUMSTATES> 5
<STATE> 2
<MEAN> 39
 -4.841257e-01 -2.950822e+00 3.550392e+00 -6.377620e+00 -9.566328e+00 -7.170152e+00 -4.793046e+00 -3.920425e+00 -6.417794e+00 -2.193210e+00 -5.040074e+00 -3.689150e+00 6.638843e+01 4.307764e-01 1.198919e+00 6.185281e-01 1.572435e+00 -1.125945e-01 -7.594277e-01 9.489224e-02 -1.149421e+00 -4.071653e-01 8.818829e-02 -8.101948e-01 1.375837e-02 -1.088861e+00 -1.274812e-01 -9.315865e-02 -7.953734e-03 -2.529306e-01 4.085550e-02 1.858474e-01 -4.099568e-03 9.613105e-02 6.081613e-02 -4.315931e-02 1.100063e-01 4.226200e-02 1.400646e-01
<VARIANCE> 39
 1.232396e+01 2.492079e+01 3.983211e+01 6.651967e+01 6.650404e+01 6.443836e+01 5.206401e+01 7.263351e+01 5.169490e+01 5.792249e+01 5.839693e+01 4.817212e+01 2.685977e+01 1.014357e+00 1.653487e+00 3.097350e+00 3.249537e+00 4.062558e+00 3.859321e+00 4.045021e+00 4.151449e+00 3.737548e+00 3.790279e+00 3.322580e+00 2.973921e+00 1.604807e+00 1.573964e-01 2.883973e-01 3.667672e-01 5.336738e-01 5.400138e-01 6.109226e-01 5.711700e-01 7.177687e-01 6.035959e-01 5.851916e-01 5.511950e-01 4.389843e-01 1.972924e-01
<GCONST> 1.241319e+02
<STATE> 3
<MEAN> 39
 3.395373e-01 -4.778698e-01 4.936407e+00 -3.518894e+00 -9.931602e+00 -8.680167e+00 -4.730272e+00 -6.409016e+00 -7.235287e+00 -2.036473e+00 -6.646271e+00 -3.311249e+00 6.452251e+01 -1.152608e-01 4.725042e-01 3.335437e-01 4.453041e-01 3.236210e-01 1.561444e-01 -1.147060e-01 -1.255796e-01 -2.500176e-02 -2.086687e-01 -2.737245e-02 4.949349e-02 -4.791974e-01 -3.117932e-01 -3.847961e-01 -1.326234e-01 -4.640930e-01 2.526988e-01 4.202367e-01 -4.117207e-02 5.121927e-01 2.165977e-01 -7.094599e-02 3.639726e-01 2.234270e-02 2.674332e-01
<VARIANCE> 39
 6.640149e+00 1.884460e+01 2.949296e+01 4.582478e+01 5.009589e+01 5.566653e+01 4.634370e+01 6.195772e+01 4.590720e+01 6.027942e+01 5.248911e+01 5.283085e+01 1.417049e+01 7.835492e-01 1.820510e+00 1.840902e+00 2.802625e+00 2.868396e+00 2.937016e+00 2.784857e+00 3.637744e+00 2.900296e+00 2.687793e+00 2.609725e+00 2.103244e+00 1.650427e+00 1.823014e-01 3.274149e-01 4.298411e-01 5.674817e-01 6.106531e-01 6.200576e-01 6.522426e-01 6.871381e-01 6.630746e-01 6.584848e-01 5.517774e-01 5.299238e-01 2.250694e-01
<GCONST> 1.192630e+02
<STATE> 4
<MEAN> 39
 -8.511153e-01 -1.096864e-01 5.412037e+00 -3.300079e+00 -7.701102e+00 -5.914968e+00 -5.212902e+00 -4.806597e+00 -6.272291e+00 -3.281987e+00 -5.082572e+00 -3.072060e+00 6.316688e+01 -9.067736e-01 -4.948654e-01 -2.104274e-02 -2.675046e-01 1.099059e+00 1.016714e+00 4.985330e-02 1.017191e+00 6.763242e-01 -7.206535e-03 7.862187e-01 1.534659e-01 -1.324596e-01 -2.349303e-01 -3.540599e-01 -2.272207e-01 -2.825953e-01 7.515491e-02 2.064775e-01 1.590707e-01 2.635689e-01 2.242076e-01 1.789074e-01 2.170581e-01 1.073033e-01 1.934649e-01
<VARIANCE> 39
 1.040784e+01 2.745755e+01 2.965295e+01 4.709658e+01 5.172113e+01 4.948448e+01 4.361317e+01 5.672991e+01 4.089468e+01 4.990612e+01 4.514255e+01 3.997611e+01 2.922697e+01 1.386763e+00 2.475623e+00 2.540259e+00 4.159125e+00 3.767996e+00 3.410038e+00 3.801274e+00 3.947919e+00 3.732463e+00 3.579747e+00 3.106276e+00 2.823580e+00 2.530156e+00 2.135716e-01 3.515276e-01 3.679221e-01 4.874706e-01 5.548684e-01 5.294969e-01 5.588181e-01 6.314897e-01 5.809078e-01 5.715051e-01 4.980632e-01 4.534885e-01 2.314419e-01
<GCONST> 1.226467e+02
<TRANSP> 5
 0.000000e+00 1.000000e+00 0.000000e+00 0.000000e+00 0.000000e+00
 0.000000e+00 5.423896e-01 4.576104e-01 0.000000e+00 0.000000e+00
 0.000000e+00 0.000000e+00 5.590324e-01 4.409675e-01 0.000000e+00
 0.000000e+00 0.000000e+00 0.000000e+00 5.819810e-01 4.180190e-01
 0.000000e+00 0.000000e+00 0.000000e+00 0.000000e+00 0.000000e+00
<ENDHMM>
~h "p"
<BEGINHMM>
<NUMSTATES> 5
<STATE> 2
<MEAN> 39
 -7.494527e+00 -2.579889e+00 4.975560e+00 4.871054e-01 9.467862e-01 2.074569e+00 1.398032e+00 3.396561e-01 1.954149e+00 1.505651e+00 1.133549e+00 4.476723e-01 5.382848e+01 -1.169809e+00 -2.721843e-01 1.254919e-01 6.357843e-01 5.062047e-01 5.956783e-01 8.373272e-01 7.715953e-01 1.036712e+00 5.764759e-01 6.546208e-01 7.777658e-01 -1.064099e+00 2.479896e-01 -2.841230e-01 -3.585825e-01 -7.099277e-01 -4.459276e-01 -4.273123e-01 -3.948701e-01 -9.403079e-02 -2.791813e-01 -8.881348e-02 -1.166288e-01 -1.002329e-01 9.759102e-01
<VARIANCE> 39
 1.956741e+01 1.282373e+01 1.651189e+01 1.723766e+01 1.713004e+01 2.265089e+01 2.479758e+01 2.559929e+01 2.795305e+01 2.722240e+01 2.776278e+01 2.632094e+01 1.682394e+01 1.759295e+00 1.802133e+00 2.227952e+00 3.936720e+00 2.440228e+00 2.786279e+00 2.963135e+00 2.686958e+00 3.167275e+00 2.749906e+00 2.826362e+00 2.345844e+00 4.530747e+00 3.610515e-01 3.750576e-01 4.000935e-01 5.596330e-01 4.302832e-01 5.110760e-01 5.458767e-01 5.744949e-01 6.196579e-01 6.182949e-01 5.883661e-01 5.277553e-01 4.095633e-01
<GCONST> 1.150114e+02
<STATE> 3
<MEAN> 39
 -1.041292e+01 -4.298388e+00 3.959484e+00 -4.258710e-01 1.013475e+00 2.187555e+00 2.053363e+00 2.008342e+00 3.512267e+00 2.751609e+00 2.898408e+00 2.691250e+00 5.484337e+01 1.074989e+00 -5.099308e-01 -9.550401e-01 -2.040433e+00 -1.250212e+00 -1.660750e+00 -1.493004e+00 -3.374980e-01 -9.494033e-01 -6.226568e-01 -7.129034e-01 -6.357034e-01 3.348336e+00 9.996276e-01 -1.439477e-01 -2.925255e-01 -8.620343e-01 -7.149469e-01 -5.125772e-01 -5.691701e-01 -4.006721e-01 -6.210328e-01 -2.552685e-01 -4.330517e-01 -4.767915e-01 9.997790e-01
<VARIANCE> 39
 7.568409e+00 8.252831e+00 1.019023e+01 1.375769e+01 1.343645e+01 1.887474e+01 1.916617e+01 1.702041e+01 1.861500e+01 1.895148e+01 1.689966e+01 1.614886e+01 2.879571e+01 3.503132e+00 1.846743e+00 2.815879e+00 4.324061e+00 3.167902e+00 4.143672e+00 3.376213e+00 2.986616e+00 3.430843e+00 2.913481e+00 3.090535e+00 2.749268e+00 3.783056e+00 3.168824e-01 4.604324e-01 5.541399e-01 7.579595e-01 5.995402e-01 7.849296e-01 6.635224e-01 6.216355e-01 6.400896e-01 6.159261e-01 6.505827e-01 5.112424e-01 7.167506e-01
<GCONST> 1.151416e+02
<STATE> 4
<MEAN> 39
 -3.709569e+00 -5.404839e+00 8.735913e-02 -8.837112e+00 -4.495066e+00 -2.989188e+00 -3.388887e+00 -6.319536e-01 -8.094153e-01 1.301695e-01 -1.599893e-01 -6.449273e-01 6.609418e+01 2.915466e+00 -1.058919e+00 -1.339488e+00 -3.171732e+00 -2.453973e+00 -1.518177e+00 -1.778953e+00 -9.581712e-01 -1.547870e+00 -4.398655e-01 -9.708247e-01 -1.239458e+00 3.546743e+00 -1.510114e-01 -1.378776e-01 2.278026e-01 4.238366e-01 8.544218e-02 3.496946e-01 2.354219e-01 3.813028e-02 1.688611e-01 2.083582e-01 1.188327e-01 7.770835e-02 -6.232387e-01
<VARIANCE> 39
 4.085589e+01 2.343593e+01 3.892805e+01 7.600668e+01 3.940870e+01 5.028059e+01 4.079805e+01 3.330584e+01 3.354212e+01 3.004705e+01 3.000315e+01 2.405117e+01 3.100416e+01 3.049955e+00 4.209971e+00 5.842021e+00 9.092164e+00 6.046625e+00 7.541247e+00 5.901452e+00 4.937938e+00 5.184459e+00 4.528502e+00 5.292821e+00 3.809285e+00 5.224934e+00 8.889511e-01 5.242422e-01 5.804397e-01 1.597271e+00 9.985462e-01 9.517359e-01 8.597824e-01 8.370993e-01 8.673870e-01 7.590266e-01 7.138708e-01 5.833749e-01 6.192712e-01
<GCONST> 1.368094e+02
<TRANSP> 5
 0.000000e+00 1.000000e+00 0.000000e+00 0.000000e+00 0.000000e+00
 0.000000e+00 7.074050e-01 2.925950e-01 0.000000e+00 0.000000e+00
 0.000000e+00 0.000000e+00 4.953338e-01 5.046663e-01 0.000000e+00
 0.000000e+00 0.000000e+00 0.000000e+00 5.316697e-01 4.683303e-01
 0.000000e+00 0.000000e+00 0.000000e+00 0.000000e+00 0.000000e+00
<ENDHMM>
~h "s"
<BEGINHMM>
<NUMSTATES> 5
<STATE> 2
<MEAN> 39
 -1.342436e+01 2.551376e+00 2.557266e+00 -2.526312e+00 -3.521774e-01 -4.488738e+00 -1.590400e+00 5.647524e-01 -1.782531e+00 -2.014025e+00 -8.303238e-01 -2.547089e-01 6.636086e+01 -4.105264e+00 1.039789e+00 -2.375233e-01 1.271675e+00 2.033400e+00 1.730444e+00 1.528082e+00 1.444558e+00 1.082125e+00 9.123231e-01 1.285508e+00 1.007364e+00 -7.148721e-01 1.414580e-01 -6.056982e-01 -2.875115e-01 -4.857759e-01 -4.241736e-01 5.492113e-02 -6.668523e-02 1.245108e-01 1.261309e-01 2.984582e-01 1.240795e-01 1.248838e-01 1.055176e-01
<VARIANCE> 39
 5.054312e+01 2.398892e+01 2.713568e+01 3.597148e+01 4.993466e+01 5.319880e+01 4.367462e+01 3.938979e+01 3.427057e+01 3.527560e+01 2.816004e+01 2.325661e+01 2.227310e+01 3.107279e+00 3.383317e+00 3.632406e+00 4.285154e+00 4.113985e+00 4.761788e+00 4.546463e+00 4.298692e+00 3.606618e+00 4.078691e+00 3.495775e+00 3.023263e+00 1.372811e+00 9.279330e-01 4.729334e-01 4.369484e-01 5.296216e-01 6.340313e-01 7.746082e-01 7.053548e-01 6.956787e-01 5.773273e-01 6.215582e-01 5.140754e-01 5.027553e-01 1.839183e-01
<GCONST> 1.263089e+02
<STATE> 3
<MEAN> 39
 -2.301367e+01 2.567791e+00 -2.133663e-01 -1.783404e+00 2.077650e+00 -4.192270e-01 1.792421e+00 4.442545e+00 1.453873e+00 1.548758e+00 3.241932e+00 3.252815e+00 6.485170e+01 -8.108311e-01 -2.743284e-01 -3.028177e-01 -5.078306e-02 8.542710e-02 3.954879e-01 2.889799e-01 4.052695e-01 3.899916e-01 4.593688e-01 4.884320e-01 4.635963e-01 -3.552431e-01 9.643862e-01 -1.995404e-01 2.348606e-01 -1.772319e-01 -3.964612e-01 -3.886334e-01 -2.950049e-01 -3.688677e-01 -2.750460e-01 -2.569310e-01 -3.319062e-01 -2.675701e-01 7.066551e-02
<VARIANCE> 39
 2.155244e+01 1.921451e+01 2.562474e+01 3.239077e+01 3.649860e+01 3.386747e+01 3.460915e+01 2.952154e+01 2.496281e+01 2.212350e+01 2.090025e+01 1.816044e+01 1.800132e+01 2.849877e+00 1.446235e+00 1.508414e+00 1.578766e+00 1.843121e+00 2.337208e+00 2.120205e+00 2.264792e+00 2.259215e+00 2.349767e+00 2.058607e+00 1.816231e+00 1.352809e+00 4.140283e-01 2.874121e-01 3.200570e-01 3.915210e-01 4.250093e-01 5.218000e-01 5.054590e-01 5.041859e-01 4.580405e-01 5.002573e-01 4.480135e-01 3.763148e-01 1.938958e-01
<GCONST> 1.102479e+02
<STATE> 4
<MEAN> 39
 -1.997358e+01 7.120340e-02 1.273510e+00 -2.045239e+00 9.308375e-01 -1.324393e-01 1.734612e+00 3.956755e+00 1.484162e+00 1.795964e+00 3.075707e+00 3.096484e+00 6.284860e+01 1.914853e+00 -5.618104e-01 5.446172e-01 -2.824551e-01 -8.853111e-01 -6.136625e-01 -4.958342e-01 -7.467275e-01 -4.433150e-01 -3.042876e-01 -5.682798e-01 -4.949289e-01 -1.151300e-01 5.079098e-01 -3.983618e-02 6.522558e-02 -1.666833e-01 -2.925067e-01 -2.237596e-01 -2.435416e-01 -2.401076e-01 -1.801608e-01 -1.154130e-01 -2.030819e-01 -1.629596e-01 1.690030e-01
<VARIANCE> 39
 3.420763e+01 1.733695e+01 2.569217e+01 3.093288e+01 3.515777e+01 3.945430e+01 3.745199e+01 2.942440e+01 2.685213e+01 2.386397e+01 2.257584e+01 1.903552e+01 3.272676e+01 4.640671e+00 1.385310e+00 2.005682e+00 2.520912e+00 3.111539e+00 3.548313e+00 3.369373e+00 2.978491e+00 2.533031e+00 2.437859e+00 2.652806e+00 2.077866e+00 1.993910e+00 5.266724e-01 2.552314e-01 3.343546e-01 4.044017e-01 4.735625e-01 5.467255e-01 5.967063e-01 5.254740e-01 4.587114e-01 4.614612e-01 4.887998e-01 3.721014e-01 2.636043e-01
<GCONST> 1.162920e+02
<TRANSP> 5
 0.000000e+00 1.000000e+00 0.000000e+00 0.000000e+00 0.000000e+00
 0.000000e+00 6.331252e-01 3.668748e-01 0.000000e+00 0.000000e+00
 0.000000e+00 0.000000e+00 7.125588e-01 2.874412e-01 0.000000e+00
 0.000000e+00 0.000000e+00 0.000000e+00 7.696155e-01 2.303845e-01
 0.000000e+00 0.000000e+00 0.000000e+00 0.000000e+00 0.000000e+00
<ENDHMM>
~h "t"
<BEGINHMM>
<NUMSTATES> 5
<STATE> 2
<MEAN> 39
 -8.787117e+00 -1.897906e+00 5.690690e+00 1.399927e+00 7.571445e-01 1.499531e+00 1.481530e+00 7.682290e-01 1.945457e+00 1.604317e+00 1.384214e+00 1.131775e+00 5.359144e+01 -9.882211e-01 -7.060004e-01 -1.973092e-01 2.652925e-01 7.514315e-01 1.182571e+00 1.061090e+00 6.925298e-01 9.308251e-01 6.140033e-01 8.352016e-01 7.759197e-01 -1.105143e+00 3.983705e-02 -2.045681e-01 -2.609371e-01 -6.157485e-01 -4.614599e-01 -4.637394e-01 -2.985890e-01 -4.925141e-02 -2.342899e-01 -9.479284e-02 -8.890954e-02 -2.829739e-02 9.441702e-01
<VARIANCE> 39
 1.378465e+01 1.271579e+01 1.664941e+01 1.692265e+01 1.944712e+01 2.722692e+01 2.471117e+01 2.388853e+01 2.568709e+01 2.498532e+01 2.486259e+01 2.399061e+01 1.599516e+01 1.560690e+00 1.627251e+00 2.023051e+00 3.107630e+00 2.920718e+00 3.141562e+00 2.891322e+00 2.560225e+00 2.830140e+00 2.520644e+00 2.637553e+00 2.170504e+00 3.484851e+00 2.379134e-01 3.525636e-01 3.685644e-01 4.985932e-01 5.102143e-01 5.499424e-01 4.870291e-01 4.633406e-01 5.007715e-01 5.019968e-01 4.775878e-01 4.288701e-01 5.273845e-01
<GCONST> 1.121734e+02
<STATE> 3
<MEAN> 39
 -1.193450e+01 -4.256432e+00 3.920146e+00 -2.813110e-01 1.343555e+00 2.901216e+00 3.012993e+00 2.561274e+00 3.453380e+00 3.198141e+00 3.675597e+00 3.558605e+00 5.426758e+01 -5.900685e-01 -7.226945e-01 -9.206175e-01 -1.882502e+00 -8.992118e-01 -1.288691e+00 -6.457355e-01 2.650584e-01 -4.852355e-01 -4.042027e-01 -1.424830e-01 -5.856768e-02 3.397774e+00 6.977407e-01 1.947364e-01 -5.230130e-02 -5.495573e-01 -8.068838e-01 -9.766778e-01 -7.452269e-01 -3.765621e-01 -5.430964e-01 -4.472514e-01 -6.508858e-01 -5.625071e-01 1.250377e+00
<VARIANCE> 39
 1.044299e+01 9.104561e+00 1.307757e+01 1.791651e+01 1.584457e+01 1.778662e+01 1.716381e+01 1.805980e+01 1.856139e+01 1.912238e+01 1.598392e+01 1.573623e+01 2.737186e+01 1.919726e+00 1.548560e+00 2.242548e+00 2.622994e+00 3.232006e+00 3.729738e+00 3.178887e+00 2.839702e+00 2.929125e+00 3.026466e+00 2.886917e+00 2.677451e+00 4.425156e+00 4.117587e-01 3.287921e-01 5.529761e-01 5.364252e-01 6.280169e-01 5.868537e-01 5.907090e-01 6.324984e-01 5.914239e-01 6.068053e-01 5.736816e-01 4.887034e-01 6.176129e-01
<GCONST> 1.130649e+02
<STATE> 4
<MEAN> 39
 -1.084654e+01 -5.023054e+00 8.935791e-01 -7.087370e+00 -3.450218e+00 -4.583063e+00 -1.817829e+00 2.006521e+00 5.729300e-01 2.797534e-01 6.290873e-01 9.770858e-01 6.828680e+01 2.540312e+00 -2.743186e-01 -6.265581e-01 -2.335799e+00 -2.696361e+00 -2.882461e+00 -2.423270e+00 -9.410465e-01 -1.113497e+00 -8.881662e-01 -1.756622e+00 -1.615767e+00 3.876594e+00 6.495833e-01 -3.563062e-02 2.888787e-01 2.300849e-01 -7.156231e-02 3.712890e-01 -2.335470e-02 -2.470368e-01 -3.277269e-02 1.321698e-01 -9.532826e-02 -1.783159e-01 -8.647640e-01
<VARIANCE> 39
 3.055984e+01 1.828259e+01 2.587696e+01 3.208102e+01 3.872079e+01 4.580318e+01 4.456551e+01 2.852484e+01 2.532614e+01 2.838268e+01 3.301244e+01 2.566618e+01 2.446174e+01 2.886045e+00 2.881265e+00 5.336594e+00 4.572172e+00 5.464070e+00 5.352334e+00 5.546232e+00 5.314589e+00 4.697359e+00 4.825208e+00 5.037914e+00 3.722697e+00 4.420245e+00 7.065466e-01 4.852487e-01 6.869143e-01 6.136452e-01 8.934397e-01 1.241043e+00 1.101289e+00 8.564404e-01 6.649592e-01 6.960246e-01 8.832678e-01 7.176874e-01 5.680079e-01
<GCONST> 1.317988e+02
<TRANSP> 5
 0.000000e+00 1.000000e+00 0.000000e+00 0.000000e+00 0.000000e+00
 0.000000e+00 7.298968e-01 2.701032e-01 0.000000e+00 0.000000e+00
 0.000000e+00 0.000000e+00 5.433435e-01 4.566565e-01 0.000000e+00
 0.000000e+00 0.000000e+00 0.000000e+00 5.733352e-01 4.266648e-01
 0.000000e+00 0.000000e+00 0.000000e+00 0.000000e+00 0.000000e+00
<ENDHMM>
~h "w"
<BEGINHMM>
<NUMSTATES> 5
<STATE> 2
<MEAN> 39
 2.504698e+00 -1.490191e+00 -3.103130e+00 -1.725164e+01 -8.188123e+00 -1.707823e+00 -4.347922e+00 -2.840261e+00 -6.774094e+00 -5.226057e-01 -7.916153e-01 -7.393396e-01 6.546826e+01 1.715277e+00 -5.057667e-01 -1.180422e+00 -2.356430e+00 -3.581237e-01 -1.746962e-02 -1.404284e+00 -1.479048e+00 -1.452100e+00 8.680664e-01 3.471487e-01 -4.043060e-01 1.617885e+00 -7.135133e-01 -6.631105e-01 2.317242e-01 8.648680e-01 5.623871e-01 -7.510489e-02 -8.894341e-02 2.652679e-01 7.355501e-01 5.116923e-01 2.324790e-02 -1.548255e-01 2.480518e-02
<VARIANCE> 39
 1.705375e+01 2.424274e+01 3.085343e+01 6.973295e+01 5.318588e+01 4.253939e+01 4.718104e+01 5.291669e+01 5.015629e+01 4.539078e+01 4.570469e+01 3.088629e+01 2.101052e+01 3.529503e+00 3.879125e+00 3.015761e+00 6.759076e+00 5.700079e+00 5.525007e+00 5.266622e+00 5.455492e+00 6.342458e+00 6.299658e+00 6.152961e+00 3.850379e+00 2.476618e+00 5.164961e-01 4.789713e-01 4.704101e-01 1.281677e+00 9.111409e-01 8.701813e-01 8.786701e-01 1.051306e+00 1.298690e+00 1.021014e+00 8.246579e-01 6.390682e-01 2.478260e-01
<GCONST> 1.351820e+02
<STATE> 3
<MEAN> 39
 2.838021e+00 -6.207061e+00 -5.323496e+00 -1.874384e+01 -5.058571e+00 -1.316604e+00 -8.712195e+00 -6.033532e+00 -7.126915e+00 5.111542e+00 1.232915e+00 -2.910997e+00 6.988927e+01 -2.993400e-01 -1.778439e+00 -5.236372e-02 8.168519e-01 6.956065e-01 -1.193542e+00 -1.560183e+00 1.632818e-01 1.548271e+00 1.353389e+00 -7.846105e-01 -1.376405e+00 1.304644e+00 -6.315854e-01 -5.033119e-02 6.706240e-01 1.048614e+00 -2.230091e-01 -5.386859e-01 5.167579e-01 8.961997e-01 7.036085e-01 -6.812883e-01 -5.867548e-01 4.286830e-02 -2.680598e-01
<VARIANCE> 39
 8.310122e+00 2.424851e+01 3.745129e+01 5.919634e+01 5.406227e+01 6.472870e+01 5.756164e+01 5.438300e+01 6.625488e+01 6.985574e+01 8.801723e+01 4.113734e+01 1.436013e+01 1.535513e+00 3.557954e+00 2.485000e+00 5.775929e+00 4.468984e+00 6.190965e+00 5.284325e+00 5.007480e+00 6.531029e+00 5.469121e+00 5.957301e+00 3.719377e+00 1.981468e+00 3.813916e-01 3.737128e-01 4.270633e-01 8.292078e-01 9.956344e-01 9.594610e-01 1.094730e+00 9.887575e-01 1.238730e+00 1.171936e+00 1.068811e+00 8.057095e-01 1.741785e-01
<GCONST> 1.340334e+02
<STATE> 4
<MEAN> 39
 6.349388e-01 -1.049528e+01 -2.760861e+00 -1.337882e+01 -6.057300e+00 -7.595971e+00 -1.059221e+01 -1.142131e+00 -8.238308e-01 3.531373e+00 -4.822951e+00 -5.337602e+00 7.233265e+01 -8.496594e-01 -7.394697e-01 1.547509e+00 1.576514e+00 -1.144003e+00 -1.867963e+00 8.356295e-01 1.658900e+00 7.233089e-01 -1.433995e+00 -1.091528e+00 2.377474e-01 4.640862e-01 -1.220452e-01 5.403716e-01 2.854158e-01 -1.432534e-02 -3.105074e-01 3.909058e-01 7.156497e-01 -1.556283e-01 -6.501628e-01 -4.251511e-01 4.551076e-01 4.794402e-01 -3.912195e-01
<VARIANCE> 39
 1.049675e+01 3.089718e+01 4.311624e+01 5.435255e+01 5.627240e+01 8.100145e+01 6.324541e+01 6.529625e+01 5.648444e+01 6.785502e+01 1.038548e+02 4.613521e+01 1.771133e+01 9.261023e-01 2.059528e+00 2.691913e+00 3.728405e+00 5.230729e+00 4.806430e+00 5.640839e+00 4.922794e+00 5.720920e+00 4.529133e+00 4.726832e+00 3.621856e+00 1.208115e+00 2.408829e-01 3.591530e-01 3.520836e-01 6.772798e-01 8.176484e-01 9.693795e-01 9.411196e-01 1.119211e+00 9.664887e-01 1.073695e+00 1.067247e+00 7.030142e-01 1.551770e-01
<GCONST> 1.311784e+02
<TRANSP> 5
 0.000000e+00 1.000000e+00 0.000000e+00 0.000000e+00 0.000000e+00
 0.000000e+00 5.310568e-01 4.689433e-01 0.000000e+00 0.000000e+00
 0.000000e+00 0.000000e+00 4.608150e-01 5.391850e-01 0.000000e+00
 0.000000e+00 0.000000e+00 0.000000e+00 5.764937e-01 4.235063e-01
 0.000000e+00 0.000000e+00 0.000000e+00 0.000000e+00 0.000000e+00
<ENDHMM>
~h "y"
<BEGINHMM>
<NUMSTATES> 5
<STATE> 2
<MEAN> 39
 -8.465927e+00 -8.374279e-01 1.374381e+01 -7.344254e+00 -1.104217e+01 -6.633138e+00 -5.176183e+00 -4.711555e+00 -6.881301e+00 -9.040658e-01 -1.924988e+00 -1.429607e+00 6.719801e+01 1.478304e+00 -1.853102e-01 1.772879e+00 -1.450531e+00 -2.524271e+00 -1.068614e+00 -1.401117e+00 -1.042689e+00 -1.269787e+00 -1.713510e-02 -5.421181e-01 -1.518026e-01 9.739546e-01 -9.783247e-02 -2.860593e-01 -6.314022e-01 -1.417827e-01 2.155597e-01 1.258729e-01 1.734616e-01 4.180792e-01 3.302223e-01 2.121876e-01 1.679959e-01 1.064314e-01 7.246903e-02
<VARIANCE> 39
 3.700989e+01 2.996370e+01 3.783801e+01 7.034414e+01 6.645190e+01 5.548499e+01 4.929938e+01 6.424804e+01 4.327580e+01 3.488372e+01 3.888362e+01 2.303442e+01 2.428956e+01 7.581327e+00 2.930783e+00 4.356950e+00 6.274214e+00 6.594500e+00 6.170866e+00 6.032743e+00 5.363445e+00 4.525773e+00 4.025513e+00 4.400027e+00 3.015749e+00 2.078449e+00 6.184776e-01 3.994744e-01 5.680674e-01 7.294067e-01 1.142410e+00 8.716981e-01 8.583522e-01 9.524310e-01 7.630015e-01 6.100258e-01 6.059455e-01 4.575317e-01 2.661644e-01
<GCONST> 1.341111e+02
<STATE> 3
<MEAN> 39
 -5.855310e+00 -2.904236e+00 1.598966e+01 -1.211723e+01 -1.682730e+01 -8.169347e+00 -7.411775e+00 -5.805100e+00 -9.041631e+00 1.175853e+00 -2.586292e+00 -1.193010e+00 7.001293e+01 4.985193e-01 -8.828474e-01 -6.187388e-01 -8.215349e-01 -7.235497e-01 -5.810874e-01 -8.767424e-02 6.389828e-01 3.212650e-01 4.134300e-01 7.331151e-02 1.289984e-01 7.254146e-01 -1.838613e-01 -1.383749e-01 -8.644939e-01 3.812942e-01 7.672770e-01 1.604457e-01 3.784516e-01 4.848791e-01 5.624421e-01 -1.286540e-01 3.933799e-02 -4.799819e-02 -1.432273e-01
<VARIANCE> 39
 1.181674e+01 2.612984e+01 3.857113e+01 8.430331e+01 4.321686e+01 6.035380e+01 5.325437e+01 7.174400e+01 5.100777e+01 4.755941e+01 5.339839e+01 3.026668e+01 1.478830e+01 1.458407e+00 2.417130e+00 3.538324e+00 2.847680e+00 3.676691e+00 3.608617e+00 3.805822e+00 3.923718e+00 3.253335e+00 2.731222e+00 2.328821e+00 1.844025e+00 1.097118e+00 3.786161e-01 2.555939e-01 3.544288e-01 6.222805e-01 8.517177e-01 8.309503e-01 7.344320e-01 7.001691e-01 6.789894e-01 6.701542e-01 5.446545e-01 4.408224e-01 1.360708e-01
<GCONST> 1.230139e+02
<STATE> 4
<MEAN> 39
 -4.444350e+00 -6.224622e+00 1.045550e+01 -1.271919e+01 -1.675490e+01 -8.774241e+00 -6.579187e+00 -1.705533e+00 -5.409242e+00 4.872950e-01 -2.664217e+00 -1.466417e+00 7.176718e+01 4.628946e-01 -8.150663e-01 -1.921645e+00 -2.899334e-03 1.010010e+00 9.816000e-02 2.312195e-01 9.213865e-01 1.002403e+00 -2.892565e-01 -3.400787e-01 -3.642323e-01 2.680494e-01 -2.716612e-02 1.425280e-01 -1.102137e-01 1.678522e-01 3.941947e-01 2.854306e-01 9.708758e-03 -1.751407e-01 -6.060530e-02 -1.101948e-01 -8.865329e-03 -9.277429e-02 -1.981152e-01
<VARIANCE> 39
 1.369607e+01 2.913568e+01 5.355720e+01 6.942795e+01 5.878434e+01 6.743201e+01 6.795145e+01 7.416413e+01 4.805844e+01 4.466558e+01 5.674399e+01 3.020134e+01 1.867776e+01 4.562648e-01 1.259045e+00 2.385573e+00 1.998169e+00 3.590149e+00 2.946246e+00 3.368378e+00 3.444188e+00 3.446177e+00 3.475674e+00 2.271236e+00 2.103503e+00 6.592727e-01 1.037295e-01 2.021069e-01 3.052157e-01 3.245536e-01 4.897754e-01 5.707275e-01 5.741035e-01 6.124959e-01 5.874550e-01 5.067589e-01 4.546194e-01 3.646280e-01 8.556902e-02
<GCONST> 1.162263e+02
<TRANSP> 5
 0.000000e+00 1.000000e+00 0.000000e+00 0.000000e+00 0.000000e+00
 0.000000e+00 6.084825e-01 3.915175e-01 0.000000e+00 0.000000e+00
 0.000000e+00 0.000000e+00 5.575832e-01 4.424168e-01 0.000000e+00
 0.000000e+00 0.000000e+00 0.000000e+00 7.663198e-01 2.336802e-01
 0.000000e+00 0.000000e+00 0.000000e+00 0.000000e+00 0.000000e+00
<ENDHMM>
~h "z"
<BEGINHMM>
<NUMSTATES> 5
<STATE> 2
<MEAN> 39
 -1.675932e+01 1.518667e+00 2.989888e+00 -2.073717e+00 -1.542015e+00 -3.436341e+00 5.327429e-01 1.871575e+00 -9.199270e-01 -1.157072e+00 1.159049e+00 1.006836e+00 6.625345e+01 -6.716062e-01 -3.348884e-01 -6.764418e-01 -1.196308e-01 7.523478e-01 6.213229e-01 1.024343e-01 3.654652e-01 5.447231e-01 4.279063e-01 3.725454e-01 3.845075e-01 -4.616525e-01 7.550848e-01 -7.440945e-02 2.891568e-01 -7.764089e-02 -4.357129e-01 -1.925122e-01 -3.108984e-01 -3.884295e-01 -2.747102e-01 8.517779e-04 -1.511532e-01 -1.523652e-01 -8.453563e-02
<VARIANCE> 39
 8.440750e+01 2.521817e+01 3.959925e+01 4.360834e+01 6.636771e+01 4.373196e+01 4.752567e+01 5.394961e+01 4.035951e+01 3.471904e+01 3.060010e+01 2.643368e+01 2.278148e+01 3.636394e+00 1.688619e+00 2.031088e+00 2.462436e+00 2.453333e+00 2.728632e+00 2.672439e+00 3.837994e+00 2.707806e+00 2.481539e+00 2.146105e+00 1.950704e+00 6.860620e-01 5.688425e-01 2.805294e-01 4.225150e-01 4.735477e-01 6.048053e-01 5.380943e-01 5.615082e-01 6.668172e-01 5.231123e-01 5.559502e-01 3.924989e-01 3.694560e-01 1.467823e-01
<GCONST> 1.196637e+02
<STATE> 3
<MEAN> 39
 -1.311131e+01 4.829680e-01 2.669554e+00 -3.217611e+00 -3.188344e+00 -2.915730e+00 -1.120042e+00 9.553311e-01 -2.298902e+00 -1.492287e+00 2.319615e+00 2.657572e-01 6.538950e+01 6.874687e-01 -2.967656e-01 -2.012784e-02 8.347183e-02 2.956518e-01 3.022195e-01 -2.293500e-01 -8.526274e-02 2.728201e-02 1.605264e-01 2.081427e-02 3.239523e-04 -6.116233e-01 4.636618e-01 2.879899e-03 2.220792e-01 9.270011e-03 -1.641676e-01 -1.293733e-01 -1.512888e-01 -2.519480e-01 -1.189651e-01 -3.988599e-02 -1.891331e-01 -1.824591e-01 -5.560432e-02
<VARIANCE> 39
 1.068165e+02 2.939910e+01 4.499143e+01 4.741855e+01 6.826202e+01 5.146979e+01 5.439761e+01 5.615660e+01 4.263417e+01 4.295957e+01 5.107578e+01 3.034987e+01 2.470758e+01 1.753316e+00 1.135911e+00 1.520672e+00 2.012788e+00 1.983187e+00 2.061538e+00 2.227473e+00 2.444630e+00 2.193854e+00 2.082098e+00 1.908334e+00 1.480174e+00 8.411478e-01 3.754071e-01 2.592056e-01 3.474707e-01 4.348100e-01 4.888064e-01 4.586266e-01 4.631939e-01 5.635366e-01 4.493923e-01 4.964800e-01 4.304648e-01 3.284604e-01 1.527119e-01
<GCONST> 1.165509e+02
<STATE> 4
<MEAN> 39
 -1.183932e+01 -5.940656e-01 4.131965e+00 -1.960589e+00 -7.835904e-01 -2.089571e+00 -9.306798e-01 4.680198e-01 -1.546441e+00 3.505775e-02 1.156823e+00 7.943915e-01 6.237057e+01 1.294427e+00 -1.884880e-01 3.220527e-01 1.724709e-01 6.280488e-02 1.277604e-01 -3.574986e-01 -5.935377e-01 -8.212226e-02 3.278230e-02 -3.322898e-01 -2.942320e-01 -6.512718e-01 2.999249e-01 7.205945e-02 6.909122e-02 -1.194686e-01 -2.284530e-01 -2.237978e-01 -1.463748e-01 -2.672907e-01 -1.163688e-01 -6.303564e-02 -1.949772e-01 -2.087961e-01 1.330934e-01
<VARIANCE> 39
 6.993091e+01 1.999268e+01 3.186092e+01 4.015030e+01 4.941644e+01 5.343924e+01 4.505612e+01 5.030953e+01 4.054503e+01 3.166769e+01 3.955320e+01 2.136352e+01 3.771268e+01 2.312472e+00 1.149902e+00 1.625432e+00 2.078780e+00 2.108658e+00 2.165362e+00 2.612232e+00 2.692539e+00 2.259322e+00 2.183501e+00 2.182983e+00 1.894932e+00 1.083338e+00 3.236238e-01 3.090432e-01 3.421045e-01 3.486232e-01 4.460175e-01 5.335207e-01 5.456352e-01 7.163426e-01 4.597805e-01 4.399124e-01 5.183238e-01 3.325347e-01 2.295237e-01
<GCONST> 1.163349e+02
<TRANSP> 5
 0.000000e+00 1.000000e+00 0.000000e+00 0.000000e+00 0.000000e+00
 0.000000e+00 5.907539e-01 4.092462e-01 0.000000e+00 0.000000e+00
 0.000000e+00 0.000000e+00 4.239343e-01 5.760657e-01 0.000000e+00
 0.000000e+00 0.000000e+00 0.000000e+00 3.597022e-01 6.402978e-01
 0.000000e+00 0.000000e+00 0.000000e+00 0.000000e+00 0.000000e+00
<ENDHMM>
~h "aa"
<BEGINHMM>
<NUMSTATES> 5
<STATE> 2
<MEAN> 39
 -2.302815e+00 -1.149142e+01 -2.752985e+00 -1.045577e+01 -6.445897e+00 -5.357963e+00 -3.934180e+00 2.660747e+00 -1.365688e+00 -2.879857e+00 -5.114845e+00 -3.580497e+00 7.233025e+01 6.138027e-01 -1.840626e+00 -1.493113e+00 -7.034832e-01 3.716690e-01 1.426862e-01 3.343017e-01 6.040470e-01 -3.036046e-01 -1.037090e+00 -1.013516e+00 -5.691121e-01 1.659811e+00 -3.030325e-01 3.152215e-01 2.422758e-01 4.313102e-01 2.227511e-01 1.868397e-01 8.279432e-02 -2.669958e-01 -3.466615e-02 8.081760e-02 2.492277e-01 2.495613e-01 -4.156249e-01
<VARIANCE> 39
 1.841351e+01 3.915807e+01 4.862251e+01 5.212231e+01 6.917411e+01 6.927410e+01 7.008533e+01 5.240560e+01 4.963581e+01 6.052244e+01 5.667366e+01 5.754776e+01 4.840142e+01 2.176385e+00 2.761650e+00 2.790051e+00 3.751268e+00 3.795243e+00 4.183522e+00 5.613792e+00 4.305511e+00 3.919104e+00 3.845397e+00 3.548612e+00 3.597078e+00 3.011328e+00 3.963778e-01 5.760614e-01 5.376163e-01 6.339655e-01 6.291717e-01 7.096928e-01 9.054423e-01 7.522742e-01 6.313152e-01 6.963997e-01 6.735792e-01 5.972763e-01 6.089869e-01
<GCONST> 1.332378e+02
<STATE> 3
<MEAN> 39
 -1.915605e+00 -1.558233e+01 -5.908257e+00 -1.065231e+01 -4.823971e+00 -4.246181e+00 -2.919898e+00 2.831538e+00 -3.089789e+00 -5.911323e+00 -6.944511e+00 -3.869196e+00 7.586756e+01 5.834796e-02 1.227000e-01 -1.582011e-01 3.987584e-01 2.837796e-01 2.856571e-02 -7.295486e-02 -1.769477e-01 2.105305e-02 -2.130081e-01 2.533741e-02 7.375593e-02 -1.968884e-01 -7.819220e-02 6.654712e-01 4.742488e-01 2.289822e-01 -1.688786e-01 -1.292106e-01 -1.805058e-01 -1.959199e-01 9.790890e-02 3.339800e-01 2.727950e-01 1.083231e-01 -5.451387e-01
<VARIANCE> 39
 1.235515e+01 2.508144e+01 3.852436e+01 3.841761e+01 5.356246e+01 5.648087e+01 6.060661e+01 4.837301e+01 5.192413e+01 5.898329e+01 4.692505e+01 5.812185e+01 1.530262e+01 6.024560e-01 1.825177e+00 1.724783e+00 1.795229e+00 2.702146e+00 2.427269e+00 2.677184e+00 2.512908e+00 2.150369e+00 2.397405e+00 1.991675e+00 1.998798e+00 1.073968e+00 2.076966e-01 2.809893e-01 2.866760e-01 4.120322e-01 4.132308e-01 4.589505e-01 5.647103e-01 5.387204e-01 5.099710e-01 4.804231e-01 4.453783e-01 4.553649e-01 1.920334e-01
<GCONST> 1.150008e+02
<STATE> 4
<MEAN> 39
 -1.640927e+00 -1.190199e+01 -4.529308e+00 -8.175097e+00 -5.651522e+00 -4.607149e+00 -3.844024e+00 2.125429e+00 -1.759436e+00 -5.163535e+00 -5.365720e+00 -3.394245e+00 7.219482e+01 -2.086729e-01 1.568214e+00 1.153636e+00 8.125247e-01 -5.731444e-02 -1.843459e-01 -2.673429e-01 -4.333605e-01 1.629578e-01 6.081844e-01 5.615588e-01 2.927037e-01 -1.495273e+00 -2.160110e-01 2.243067e-01 2.688113e-01 1.513560e-01 8.377296e-02 9.748990e-02 4.812669e-02 -1.010887e-01 -1.778015e-02 1.475835e-01 1.157252e-01 9.598856e-02 -2.474090e-01
<VARIANCE> 39
 1.461949e+01 3.326249e+01 4.262708e+01 4.753263e+01 6.211338e+01 6.237170e+01 6.024008e+01 4.698764e+01 5.235638e+01 6.268818e+01 4.979412e+01 5.270692e+01 3.438575e+01 1.249228e+00 2.327631e+00 2.276821e+00 2.886142e+00 3.279419e+00 3.153754e+00 3.470884e+00 3.181302e+00 2.876497e+00 2.886301e+00 2.510544e+00 2.467550e+00 1.945642e+00 2.652590e-01 3.194421e-01 3.409491e-01 4.158362e-01 4.845509e-01 5.275803e-01 5.543622e-01 5.342042e-01 4.891716e-01 5.085109e-01 4.338986e-01 4.033768e-01 2.522907e-01
<GCONST> 1.219747e+02
<TRANSP> 5
 0.000000e+00 1.000000e+00 0.000000e+00 0.000000e+00 0.000000e+00
 0.000000e+00 5.904779e-01 4.095221e-01 0.000000e+00 0.000000e+00
 0.000000e+00 0.000000e+00 6.368960e-01 3.631041e-01 0.000000e+00
 0.000000e+00 0.000000e+00 0.000000e+00 6.836140e-01 3.163860e-01
 0.000000e+00 0.000000e+00 0.000000e+00 0.000000e+00 0.000000e+00
<ENDHMM>
~h "bb"
<BEGINHMM>
<NUMSTATES> 5
<STATE> 2
<MEAN> 39
 1.093273e+00 -6.025112e+00 1.731903e+00 -8.610338e+00 -6.391233e+00 -6.086619e+00 -8.340658e+00 -4.155064e+00 -3.843852e+00 5.227646e-01 -1.130686e+00 -2.959312e+00 6.652760e+01 3.037479e-01 3.962438e-01 -1.514713e-01 2.712018e-01 4.664879e-01 -6.431440e-02 -5.855636e-01 -4.628005e-01 1.236871e-01 3.828031e-01 3.287850e-01 -7.515619e-02 -5.711368e-01 -1.538595e-01 -2.382398e-01 8.343544e-02 -3.007077e-01 -3.476281e-01 -8.352787e-03 1.764604e-01 2.078183e-01 -6.990281e-02 -1.097346e-01 -1.209150e-01 -1.825367e-04 3.819398e-01
<VARIANCE> 39
 1.270805e+01 3.859869e+01 5.862361e+01 6.750401e+01 4.493523e+01 6.416913e+01 4.809156e+01 4.456782e+01 4.029966e+01 4.230866e+01 5.464970e+01 2.964716e+01 3.030714e+01 8.048474e-01 2.582010e+00 3.897221e+00 4.996957e+00 4.528645e+00 3.790549e+00 3.283261e+00 3.961575e+00 3.201194e+00 2.909487e+00 2.973053e+00 2.516716e+00 2.750373e+00 1.379518e-01 4.467781e-01 4.564657e-01 8.315489e-01 8.011740e-01 6.847893e-01 6.505558e-01 7.279504e-01 5.682672e-01 6.014132e-01 5.804631e-01 4.672455e-01 4.158264e-01
<GCONST> 1.260416e+02
<STATE> 3
<MEAN> 39
 1.597274e+00 -6.192043e+00 1.532118e+00 -9.107262e+00 -6.564000e+00 -6.445852e+00 -9.418886e+00 -4.486796e+00 -3.804387e+00 1.157981e+00 -5.613896e-01 -3.211751e+00 6.661090e+01 -1.094545e-01 -1.838752e-01 2.794678e-01 -3.164007e-01 -4.187361e-01 -2.193002e-01 2.090560e-03 3.709004e-01 2.326287e-02 -9.500939e-02 -7.665551e-02 1.673338e-02 2.503974e-01 -1.968624e-01 -2.503701e-01 1.374472e-01 -2.509770e-01 -3.358057e-01 -2.463378e-03 2.892856e-01 2.907575e-01 -4.685804e-02 -1.752878e-01 -2.017891e-01 3.602413e-02 3.693019e-01
<VARIANCE> 39
 1.164281e+01 3.316820e+01 5.656649e+01 7.173187e+01 4.125875e+01 6.459634e+01 5.082265e+01 4.476049e+01 4.114910e+01 4.787310e+01 5.394394e+01 3.021066e+01 2.328539e+01 6.797333e-01 2.433805e+00 3.503798e+00 5.029384e+00 3.728422e+00 4.098905e+00 3.095917e+00 3.974546e+00 3.386562e+00 3.410643e+00 2.967763e+00 2.739549e+00 2.349403e+00 1.021771e-01 3.866527e-01 4.165020e-01 7.995593e-01 7.706751e-01 6.840272e-01 5.998584e-01 7.506611e-01 6.290058e-01 6.831659e-01 6.037953e-01 5.116366e-01 3.548068e-01
<GCONST> 1.248706e+02
<STATE> 4
<MEAN> 39
 1.275001e+00 -6.610900e+00 8.795615e-01 -1.370087e+01 -9.445024e+00 -5.432269e+00 -7.340904e+00 -2.205597e+00 -4.276866e+00 5.376028e-01 -2.095861e+00 -3.217126e+00 6.883236e+01 -3.154644e-01 -2.563508e-01 2.686580e-01 -2.005367e-01 -3.852002e-01 -7.544085e-02 3.404517e-01 3.830281e-01 9.818263e-03 -2.296919e-01 -2.381835e-01 6.600635e-02 3.742262e-01 -8.919218e-02 -9.886683e-03 3.933891e-02 6.573288e-02 1.525364e-02 4.057969e-02 7.015012e-02 -3.403090e-02 -2.855069e-02 -3.475777e-02 -2.396207e-02 2.474821e-02 3.633352e-02
<VARIANCE> 39
 1.350014e+01 4.763360e+01 8.475813e+01 9.198919e+01 5.343416e+01 7.785870e+01 6.405097e+01 5.588935e+01 4.762227e+01 5.238401e+01 6.195039e+01 3.678338e+01 2.524207e+01 5.223632e-01 1.600538e+00 2.442652e+00 3.295396e+00 3.001499e+00 2.664500e+00 2.528402e+00 3.067400e+00 2.689097e+00 2.602763e+00 2.405475e+00 2.271055e+00 1.452556e+00 8.538006e-02 2.336638e-01 2.708026e-01 5.282445e-01 4.705413e-01 4.334885e-01 4.430898e-01 5.206487e-01 4.224443e-01 5.020792e-01 4.141603e-01 3.890893e-01 2.088187e-01
<GCONST> 1.185964e+02
<TRANSP> 5
 0.000000e+00 1.000000e+00 0.000000e+00 0.000000e+00 0.000000e+00
 0.000000e+00 4.137842e-01 5.862159e-01 0.000000e+00 0.000000e+00
 0.000000e+00 0.000000e+00 4.611086e-01 5.388914e-01 0.000000e+00
 0.000000e+00 0.000000e+00 0.000000e+00 6.744681e-01 3.255319e-01
 0.000000e+00 0.000000e+00 0.000000e+00 0.000000e+00 0.000000e+00
<ENDHMM>
~h "ch"
<BEGINHMM>
<NUMSTATES> 5
<STATE> 2
<MEAN> 39
 -1.108570e+01 -1.314079e+00 8.449046e+00 -1.529849e+00 6.773888e-02 5.664412e-01 -4.425730e-01 9.253871e-01 1.147463e+00 1.993690e+00 2.484668e+00 2.032828e+00 5.635465e+01 -1.963347e+00 -7.981718e-01 -5.420111e-01 -3.029696e-01 1.335451e+00 1.573037e+00 9.431243e-01 1.236537e+00 1.329021e+00 8.180534e-01 1.081225e+00 8.770163e-01 -6.347120e-01 -2.715828e-01 -2.029429e-01 -8.142081e-03 -8.436132e-01 -4.917307e-01 -3.352611e-01 -3.951748e-01 -1.284508e-01 -2.940292e-01 -1.602887e-01 -1.744069e-01 -1.629657e-01 1.164702e+00
<VARIANCE> 39
 2.112704e+01 1.869985e+01 2.175631e+01 2.559206e+01 2.757521e+01 3.376200e+01 3.153086e+01 2.976648e+01 3.010506e+01 2.580084e+01 2.504569e+01 2.182495e+01 2.495458e+01 2.749555e+00 2.468714e+00 2.760314e+00 5.690662e+00 3.733018e+00 3.476907e+00 4.278582e+00 3.197248e+00 3.407601e+00 3.059963e+00 2.757818e+00 2.315371e+00 7.782238e+00 5.114133e-01 7.036019e-01 7.085767e-01 6.872240e-01 6.838481e-01 6.483777e-01 6.830376e-01 5.628514e-01 6.390847e-01 7.269894e-01 5.646467e-01 4.673209e-01 6.944242e-01
<GCONST> 1.239593e+02
<STATE> 3
<MEAN> 39
 -2.340735e+01 -3.197603e+00 8.685877e+00 -9.395375e+00 1.162617e+00 3.611811e+00 -5.652258e-01 3.958236e+00 2.680933e+00 2.208143e+00 4.227476e+00 3.132494e+00 6.576376e+01 -1.742963e+00 1.026801e-01 4.177360e-01 -8.918681e-01 -1.114234e+00 -4.688973e-01 5.702677e-02 -5.667050e-02 -3.597988e-01 -6.169686e-01 -3.066337e-01 -3.223120e-01 2.568688e+00 1.259343e+00 7.217176e-02 -5.054022e-02 5.874317e-01 -5.092611e-01 -6.663040e-01 -9.008064e-02 -3.345525e-01 -3.501819e-01 -2.376063e-01 -3.416359e-01 -2.277996e-01 -4.036488e-01
<VARIANCE> 39
 2.637098e+01 2.552195e+01 2.820136e+01 2.526160e+01 3.249928e+01 2.569366e+01 2.443965e+01 2.406769e+01 2.261952e+01 1.716814e+01 1.650242e+01 1.501989e+01 2.712670e+01 6.132641e+00 1.891588e+00 2.113133e+00 3.626171e+00 3.052169e+00 3.658649e+00 2.904418e+00 2.514391e+00 2.355714e+00 2.234138e+00 1.991599e+00 1.611038e+00 3.453900e+00 1.097005e+00 4.913205e-01 5.293918e-01 5.949919e-01 6.344999e-01 7.235260e-01 6.869621e-01 5.501328e-01 4.854555e-01 4.361255e-01 4.313167e-01 3.719002e-01 6.643754e-01
<GCONST> 1.182757e+02
<STATE> 4
<MEAN> 39
 -1.653794e+01 -4.103610e+00 8.262266e+00 -7.534647e+00 -5.940938e+00 -3.697730e+00 -2.025311e+00 1.815222e+00 -3.083364e-01 -1.647218e+00 6.401111e-01 7.724579e-01 6.949432e+01 4.043030e+00 -4.379742e-01 -1.028827e+00 -6.718931e-02 -1.434198e+00 -2.261775e+00 -1.491572e+00 -8.730637e-01 -8.450453e-01 -7.513390e-01 -1.407127e+00 -9.176567e-01 2.884179e-01 4.558648e-01 -1.442242e-01 -3.145465e-01 -3.269437e-01 2.536480e-01 2.672639e-01 -2.240591e-01 -1.228789e-01 1.080531e-01 2.803684e-01 -2.834472e-02 -9.545711e-02 -2.194993e-01
<VARIANCE> 39
 7.994292e+01 1.780304e+01 2.213358e+01 3.247915e+01 3.322198e+01 5.373410e+01 4.131470e+01 2.963321e+01 3.159577e+01 2.665496e+01 2.760529e+01 1.851818e+01 1.665198e+01 4.334134e+00 2.300933e+00 3.663028e+00 3.945837e+00 4.592349e+00 4.807159e+00 5.054029e+00 3.816144e+00 3.457911e+00 3.938645e+00 3.789521e+00 2.424638e+00 1.400996e+00 1.746557e+00 4.090299e-01 4.511210e-01 7.101768e-01 7.558259e-01 1.153059e+00 9.829595e-01 6.969336e-01 6.211346e-01 7.215021e-01 6.830219e-01 4.541442e-01 4.198076e-01
<GCONST> 1.272581e+02
<TRANSP> 5
 0.000000e+00 1.000000e+00 0.000000e+00 0.000000e+00 0.000000e+00
 0.000000e+00 7.914162e-01 2.085837e-01 0.000000e+00 0.000000e+00
 0.000000e+00 0.000000e+00 7.207655e-01 2.792345e-01 0.000000e+00
 0.000000e+00 0.000000e+00 0.000000e+00 7.576456e-01 2.423544e-01
 0.000000e+00 0.000000e+00 0.000000e+00 0.000000e+00 0.000000e+00
<ENDHMM>
~h "dd"
<BEGINHMM>
<NUMSTATES> 5
<STATE> 2
<MEAN> 39
 -1.884858e+00 -8.759357e+00 -1.507571e+00 -1.027474e+01 -7.891347e+00 -7.736414e+00 -6.713816e+00 -1.127351e+00 -7.658514e-01 -3.027544e+00 -4.153991e+00 -2.709186e+00 7.228696e+01 1.445580e-01 2.379664e-01 -3.508674e-01 -3.604627e-01 1.931394e-01 -2.386184e-02 -3.701749e-01 -1.332750e-01 6.668944e-01 2.779938e-01 -8.640665e-03 -1.255684e-01 -1.208195e-01 -1.381776e-02 3.657933e-02 7.103778e-02 -3.109548e-02 -3.475951e-02 7.064330e-02 5.248699e-02 4.921625e-03 -7.858546e-02 5.255694e-02 1.746122e-02 -2.589077e-02 -3.872788e-02
<VARIANCE> 39
 1.102441e+01 4.535670e+01 7.850626e+01 6.822222e+01 7.548341e+01 7.135926e+01 6.147105e+01 5.700310e+01 5.213807e+01 6.335286e+01 6.277151e+01 5.337663e+01 2.500696e+01 3.528467e-01 1.428097e+00 1.490242e+00 2.422761e+00 2.093242e+00 2.043838e+00 2.094818e+00 2.367552e+00 2.238725e+00 1.947449e+00 1.863770e+00 1.563738e+00 1.135299e+00 6.228976e-02 1.680516e-01 1.675707e-01 3.442845e-01 3.371684e-01 3.405792e-01 3.391673e-01 3.450865e-01 3.449352e-01 3.206778e-01 3.128267e-01 2.666020e-01 1.798302e-01
<GCONST> 1.108690e+02
<STATE> 3
<MEAN> 39
 -1.289189e+00 -7.062729e+00 -1.601545e+00 -1.201707e+01 -7.654885e+00 -7.957209e+00 -7.690345e+00 -2.113064e+00 7.605920e-01 -7.758159e-01 -3.349421e+00 -3.488395e+00 7.153425e+01 3.493572e-02 1.068319e-01 -1.445463e-01 -3.992164e-01 1.179873e-01 3.088283e-01 3.220120e-02 -1.041757e-01 8.339723e-02 2.101251e-01 1.024497e-01 -6.553123e-02 -8.604263e-02 -2.240902e-02 -4.355634e-02 5.253055e-02 2.122343e-02 -1.650225e-02 8.962023e-02 1.231647e-01 5.054862e-02 -1.772001e-01 -5.988706e-02 3.213646e-03 2.575122e-02 -1.846133e-03
<VARIANCE> 39
 1.203641e+01 3.460058e+01 6.506741e+01 7.312299e+01 7.062932e+01 7.058065e+01 6.865985e+01 6.256034e+01 5.607255e+01 6.170393e+01 6.541057e+01 5.054329e+01 2.299702e+01 3.150597e-01 1.144868e+00 1.241320e+00 2.154709e+00 1.655756e+00 1.909990e+00 1.830624e+00 2.071182e+00 1.889624e+00 1.792720e+00 1.848267e+00 1.611085e+00 8.917077e-01 4.747296e-02 1.423755e-01 1.393224e-01 2.797921e-01 2.593065e-01 2.798992e-01 2.899645e-01 3.014245e-01 3.066177e-01 2.799565e-01 2.780877e-01 2.385697e-01 1.409864e-01
<GCONST> 1.066597e+02
<STATE> 4
<MEAN> 39
 -8.902302e-01 -6.585444e+00 -2.826730e+00 -1.428757e+01 -6.751165e+00 -3.899690e+00 -6.837507e+00 -2.516868e+00 2.427875e-01 -9.489009e-01 -2.361090e+00 -3.177654e+00 7.045980e+01 -1.410822e-02 1.153098e-01 1.048986e-01 -1.113599e-02 4.995396e-02 2.447428e-01 1.976876e-01 -1.013029e-02 -2.702242e-01 -1.904264e-02 9.987838e-02 1.104821e-01 -2.340226e-01 -1.514288e-02 1.300971e-02 6.123672e-02 1.441275e-01 -4.610130e-03 -4.676729e-02 7.960091e-03 2.995661e-02 -3.175712e-02 -1.835748e-02 -1.032144e-02 1.537864e-02 -5.826154e-02
<VARIANCE> 39
 1.603094e+01 3.453429e+01 6.153570e+01 8.316817e+01 7.091288e+01 7.011403e+01 7.053569e+01 6.250219e+01 5.335329e+01 5.721226e+01 6.281596e+01 4.172987e+01 2.682094e+01 2.934319e-01 8.024261e-01 9.013734e-01 1.574072e+00 1.323010e+00 1.548742e+00 1.453510e+00 1.493495e+00 1.555473e+00 1.475450e+00 1.459446e+00 1.312376e+00 5.766931e-01 4.782565e-02 1.149166e-01 1.197492e-01 2.304550e-01 2.211967e-01 2.318148e-01 2.383233e-01 2.353673e-01 2.611187e-01 2.418744e-01 2.275058e-01 2.047758e-01 1.042405e-01
<GCONST> 1.012130e+02
<TRANSP> 5
 0.000000e+00 1.000000e+00 0.000000e+00 0.000000e+00 0.000000e+00
 0.000000e+00 6.080155e-01 3.919845e-01 0.000000e+00 0.000000e+00
 0.000000e+00 0.000000e+00 6.025302e-01 3.974698e-01 0.000000e+00
 0.000000e+00 0.000000e+00 0.000000e+00 7.793983e-01 2.206017e-01
 0.000000e+00 0.000000e+00 0.000000e+00 0.000000e+00 0.000000e+00
<ENDHMM>
~h "ey"
<BEGINHMM>
<NUMSTATES> 5
<STATE> 2
<MEAN> 39
 -4.826023e+00 -6.827131e+00 6.022077e+00 -8.586778e+00 -1.352661e+01 -9.661494e+00 -2.467125e+00 6.181396e-01 -3.156722e+00 -2.404339e-02 -1.596930e+00 -5.781585e-01 6.941895e+01 6.972283e-01 -6.066968e-01 5.494826e-01 -1.277066e+00 -2.138292e+00 -1.089303e+00 7.337314e-02 -4.487558e-02 -7.133816e-01 6.123249e-02 -3.246516e-01 -3.446016e-01 1.469538e+00 -2.397242e-01 2.276987e-01 -1.130397e-01 2.587585e-01 4.850281e-01 4.425294e-01 2.312858e-02 -1.232392e-01 1.173044e-01 7.010898e-02 7.577610e-02 1.309788e-02 -3.364921e-01
<VARIANCE> 39
 1.953923e+01 2.814688e+01 3.286192e+01 7.134586e+01 7.786671e+01 8.183568e+01 6.262262e+01 5.732320e+01 4.787472e+01 4.084994e+01 4.327248e+01 2.894021e+01 6.365552e+01 2.966316e+00 2.356254e+00 2.320039e+00 5.074523e+00 6.549445e+00 5.558355e+00 5.100178e+00 4.482963e+00 3.393488e+00 3.245463e+00 3.425357e+00 2.633290e+00 3.823931e+00 4.772635e-01 4.147460e-01 3.585340e-01 8.783572e-01 1.246246e+00 1.012471e+00 7.756637e-01 7.889631e-01 6.463590e-01 5.679981e-01 5.400536e-01 4.371474e-01 7.802616e-01
<GCONST> 1.329040e+02
<STATE> 3
<MEAN> 39
 -4.006479e+00 -8.165629e+00 6.984221e+00 -1.180266e+01 -1.744523e+01 -1.129549e+01 -2.448239e+00 3.992186e-02 -5.151391e+00 3.652060e-01 -2.566509e+00 -1.668428e+00 7.338294e+01 4.584547e-02 3.617477e-01 8.999671e-02 2.816088e-01 6.784104e-02 1.967727e-01 -4.503072e-02 -2.668153e-01 -1.456497e-01 -1.117030e-01 -4.340740e-02 -7.469866e-02 -2.512523e-01 -1.887063e-01 4.476812e-01 -1.506259e-01 6.197217e-01 8.287370e-01 3.790559e-01 -1.306020e-01 -1.228211e-01 1.977030e-01 -9.826104e-02 6.280364e-02 8.658023e-02 -6.355056e-01
<VARIANCE> 39
 1.240517e+01 2.386719e+01 3.642185e+01 6.852836e+01 5.355740e+01 6.538966e+01 6.565624e+01 6.873260e+01 4.313404e+01 4.313951e+01 4.657527e+01 2.829956e+01 1.678772e+01 9.799674e-01 2.034826e+00 1.748389e+00 3.240926e+00 3.635191e+00 2.909180e+00 3.166062e+00 2.923180e+00 2.341527e+00 2.424703e+00 2.023272e+00 1.746013e+00 1.973329e+00 3.585714e-01 3.238099e-01 3.326825e-01 5.683371e-01 6.621365e-01 7.702609e-01 7.672834e-01 6.988943e-01 5.183026e-01 5.154171e-01 4.702779e-01 3.961343e-01 2.801237e-01
<GCONST> 1.205978e+02
<STATE> 4
<MEAN> 39
 -4.146312e+00 -5.377954e+00 6.724367e+00 -8.769155e+00 -1.570338e+01 -9.484609e+00 -3.235379e+00 -1.310052e+00 -4.762486e+00 -6.816948e-01 -2.315701e+00 -1.376882e+00 7.034357e+01 -2.806919e-01 1.043207e+00 -1.532679e-01 1.350472e+00 1.672720e+00 7.294707e-01 -1.153834e-01 -2.642740e-01 2.415704e-01 -3.190941e-01 8.324971e-02 1.162684e-01 -1.347039e+00 -2.276545e-01 7.522181e-02 -9.741860e-02 1.548636e-01 4.197888e-01 2.461530e-01 8.167414e-02 5.012289e-02 1.383959e-01 9.275343e-02 8.726535e-02 5.606650e-02 -2.123415e-01
<VARIANCE> 39
 1.399427e+01 2.992330e+01 3.458670e+01 6.525465e+01 6.907461e+01 6.926439e+01 5.883193e+01 6.723446e+01 4.378128e+01 4.224244e+01 4.424266e+01 3.015205e+01 3.313028e+01 1.825008e+00 2.254382e+00 2.010168e+00 3.542818e+00 4.242425e+00 3.655557e+00 3.853527e+00 3.480702e+00 2.825048e+00 2.749616e+00 2.514178e+00 2.146808e+00 2.096377e+00 3.471399e-01 3.464242e-01 3.100734e-01 5.272753e-01 6.777006e-01 6.227989e-01 5.904887e-01 6.621395e-01 5.199239e-01 5.051477e-01 4.457335e-01 3.681648e-01 2.888269e-01
<GCONST> 1.234857e+02
<TRANSP> 5
 0.000000e+00 1.000000e+00 0.000000e+00 0.000000e+00 0.000000e+00
 0.000000e+00 4.984624e-01 5.015376e-01 0.000000e+00 0.000000e+00
 0.000000e+00 0.000000e+00 4.930523e-01 5.069478e-01 0.000000e+00
 0.000000e+00 0.000000e+00 0.000000e+00 5.947827e-01 4.052173e-01
 0.000000e+00 0.000000e+00 0.000000e+00 0.000000e+00 0.000000e+00
<ENDHMM>
~h "gg"
<BEGINHMM>
<NUMSTATES> 5
<STATE> 2
<MEAN> 39
 3.051363e-01 -2.210972e+00 1.702633e+00 -1.281028e+01 -7.826841e+00 -5.664873e+00 -5.500788e+00 -4.891641e+00 -7.865188e+00 2.938649e+00 -1.344175e+00 1.215502e-01 6.578579e+01 3.397410e-01 1.852206e-01 -6.707467e-01 -1.429986e+00 -4.860659e-01 8.936948e-01 9.020020e-01 2.181262e-01 -5.310149e-01 -5.258211e-01 6.594248e-02 2.551039e-01 1.832943e-01 -7.715072e-02 -1.902554e-01 5.047067e-02 7.338206e-02 -1.445252e-01 -1.444845e-01 1.024216e-02 2.679413e-01 1.977346e-01 -1.770810e-01 -1.590545e-01 -1.079094e-01 1.793934e-01
<VARIANCE> 39
 2.085367e+01 3.474821e+01 6.804475e+01 7.509487e+01 5.867131e+01 5.902626e+01 5.727872e+01 6.267470e+01 5.360887e+01 5.800761e+01 7.280775e+01 3.508691e+01 3.214938e+01 5.508944e-01 1.619033e+00 1.783517e+00 4.183322e+00 2.997721e+00 2.701157e+00 2.973346e+00 2.870773e+00 3.213406e+00 3.143455e+00 2.931256e+00 2.208115e+00 1.711494e+00 8.414182e-02 1.827128e-01 2.495462e-01 5.846199e-01 5.530416e-01 4.458658e-01 5.204529e-01 5.315192e-01 5.776145e-01 5.643014e-01 5.440245e-01 4.427454e-01 2.515358e-01
<GCONST> 1.206348e+02
<STATE> 3
<MEAN> 39
 3.348583e-02 -3.095713e+00 1.059711e+00 -1.656642e+01 -1.121488e+01 -3.972702e+00 -3.265942e+00 -3.012863e+00 -7.768682e+00 1.763699e-01 -2.881032e+00 -6.159303e-01 6.811890e+01 5.967943e-02 -2.130279e-01 -4.356795e-01 -2.234724e-01 2.804585e-02 1.816515e-01 2.594129e-01 3.190869e-01 1.624741e-01 -3.143672e-01 -5.533888e-02 -8.270110e-02 1.730015e-01 -3.234720e-02 -9.098532e-02 -1.599080e-02 1.920923e-01 1.527204e-01 -6.468274e-02 -1.556409e-01 -7.722285e-02 9.641052e-02 9.440682e-02 6.915339e-02 -4.782175e-02 1.868760e-02
<VARIANCE> 39
 2.724669e+01 4.905088e+01 9.385120e+01 8.825960e+01 6.301366e+01 6.791671e+01 5.604917e+01 7.552885e+01 5.309464e+01 5.154805e+01 6.551257e+01 3.665037e+01 3.432298e+01 2.713730e-01 8.346824e-01 1.036118e+00 1.988942e+00 1.783577e+00 1.612194e+00 1.492401e+00 1.843460e+00 1.761516e+00 1.849901e+00 1.491020e+00 1.493970e+00 7.760679e-01 4.974244e-02 1.548746e-01 1.650676e-01 3.343055e-01 2.815673e-01 2.657163e-01 2.966458e-01 3.085641e-01 3.096832e-01 3.457966e-01 2.953690e-01 2.747091e-01 1.574817e-01
<GCONST> 1.075375e+02
<STATE> 4
<MEAN> 39
 4.044380e-01 -3.903556e+00 -1.387308e+00 -1.496147e+01 -8.327742e+00 -2.203657e+00 -1.852421e+00 -2.253018e+00 -6.014067e+00 -9.976177e-01 -1.684999e+00 -8.716456e-02 6.678954e+01 -1.007194e-01 -2.664056e-01 -2.787646e-01 2.662650e-01 3.403901e-01 1.213373e-01 6.209078e-03 1.123045e-01 2.220641e-01 -1.154259e-01 1.026491e-01 -1.892052e-01 9.986492e-02 -3.793686e-02 -5.847712e-02 3.880766e-02 1.704267e-01 1.097798e-01 -7.197245e-02 -1.650892e-01 -8.826523e-02 6.137720e-02 1.034702e-01 1.649055e-02 -8.101659e-02 1.106812e-02
<VARIANCE> 39
 2.504358e+01 5.101072e+01 6.878334e+01 8.486947e+01 5.795068e+01 6.949914e+01 4.683867e+01 6.066153e+01 4.438984e+01 4.678587e+01 5.631818e+01 3.579317e+01 4.160000e+01 3.510655e-01 9.461896e-01 1.257752e+00 2.112152e+00 1.603540e+00 1.517263e+00 1.822406e+00 1.860370e+00 1.876867e+00 2.051213e+00 1.737802e+00 1.528421e+00 8.719347e-01 6.642058e-02 1.835153e-01 1.907175e-01 3.678252e-01 2.988380e-01 2.952903e-01 3.113545e-01 3.076800e-01 3.207785e-01 3.586017e-01 3.398392e-01 2.708941e-01 1.694337e-01
<GCONST> 1.087425e+02
<TRANSP> 5
 0.000000e+00 1.000000e+00 0.000000e+00 0.000000e+00 0.000000e+00
 0.000000e+00 6.224936e-01 3.775064e-01 0.000000e+00 0.000000e+00
 0.000000e+00 0.000000e+00 6.864618e-01 3.135382e-01 0.000000e+00
 0.000000e+00 0.000000e+00 0.000000e+00 5.223886e-01 4.776114e-01
 0.000000e+00 0.000000e+00 0.000000e+00 0.000000e+00 0.000000e+00
<ENDHMM>
~h "hh"
<BEGINHMM>
<NUMSTATES> 5
<STATE> 2
<MEAN> 39
 -8.865477e+00 -5.931042e+00 2.917287e+00 -3.615046e+00 2.758288e+00 -5.750941e-01 -1.611728e+00 1.201823e+00 -1.378782e+00 1.180029e+00 -2.212474e+00 4.137956e-01 6.480228e+01 -1.052142e+00 -6.096497e-01 -1.050227e+00 6.558329e-02 1.960717e+00 1.244754e+00 4.337545e-01 7.111769e-01 7.627159e-01 9.806578e-01 6.081976e-01 3.957271e-01 -6.185117e-01 3.151906e-01 7.584520e-02 -1.045820e-02 -5.764601e-01 -7.751402e-01 -1.049330e-01 -2.754850e-02 -3.281598e-01 -3.178495e-01 -7.775300e-02 6.690564e-02 -6.201666e-02 2.206076e-01
<VARIANCE> 39
 2.711966e+01 2.720165e+01 5.206552e+01 4.108929e+01 6.705267e+01 5.452934e+01 5.178552e+01 5.133927e+01 4.746681e+01 5.861776e+01 3.845258e+01 2.583754e+01 2.108153e+01 2.543968e+00 2.192749e+00 5.299276e+00 4.265034e+00 6.347489e+00 4.983668e+00 4.794399e+00 5.597250e+00 5.369905e+00 4.661224e+00 3.768425e+00 3.159745e+00 8.803992e-01 2.887211e-01 4.420777e-01 5.814217e-01 6.155176e-01 9.056157e-01 8.607533e-01 9.343606e-01 1.122457e+00 1.033832e+00 9.610397e-01 7.237352e-01 5.892426e-01 1.360712e-01
<GCONST> 1.309294e+02
<STATE> 3
<MEAN> 39
 -1.044202e+01 -6.336401e+00 1.087251e+00 -5.805359e+00 3.896787e+00 2.324134e+00 -1.482429e-01 1.536370e+00 -1.248804e+00 2.694026e+00 -1.263028e-01 1.235251e+00 6.421365e+01 7.711931e-02 2.112109e-01 -3.409724e-01 -7.742248e-01 -3.678672e-01 4.815006e-01 4.285409e-01 -2.161967e-01 -2.633316e-01 -9.626300e-02 3.753785e-01 1.836034e-01 -1.861841e-01 5.827368e-01 2.707689e-01 1.773302e-01 -2.345305e-01 -8.156851e-01 -4.679953e-01 -2.171153e-01 -3.559851e-01 -3.150675e-01 -4.183629e-01 -2.645136e-01 -2.207402e-01 2.325100e-01
<VARIANCE> 39
 3.106489e+01 2.765951e+01 5.787405e+01 4.180421e+01 6.606635e+01 4.818201e+01 4.854641e+01 4.703582e+01 4.501934e+01 6.083191e+01 3.970945e+01 2.753731e+01 2.201135e+01 1.717236e+00 1.578664e+00 2.448512e+00 2.509678e+00 3.940191e+00 3.288247e+00 3.502670e+00 3.560539e+00 3.555959e+00 3.504302e+00 3.022203e+00 2.404308e+00 6.406837e-01 2.602023e-01 2.650298e-01 4.743263e-01 5.960530e-01 6.416983e-01 6.207234e-01 7.047114e-01 7.490619e-01 7.544000e-01 7.625445e-01 6.684191e-01 5.562737e-01 1.303025e-01
<GCONST> 1.229090e+02
<STATE> 4
<MEAN> 39
 -9.867240e+00 -4.391272e+00 2.163224e+00 -7.322042e+00 2.108933e-01 2.999952e+00 1.402423e+00 1.169577e+00 -1.532991e+00 1.085435e+00 1.216202e-02 1.548912e+00 6.338095e+01 1.059305e+00 5.680249e-01 5.615918e-02 -6.733500e-01 -1.378666e+00 -4.681666e-01 -2.323617e-01 -6.462715e-01 -4.959216e-01 -6.787223e-01 -3.269668e-01 -4.030166e-01 2.161802e-01 4.121854e-01 2.268406e-02 1.073815e-02 -1.652267e-01 -4.173760e-01 -3.216778e-01 -2.907510e-01 -2.000137e-01 -1.825507e-01 -9.718174e-02 -1.512636e-01 -2.187894e-01 2.540095e-01
<VARIANCE> 39
 4.314426e+01 3.099454e+01 5.528648e+01 4.308353e+01 7.309804e+01 4.371317e+01 4.311539e+01 4.472404e+01 4.354244e+01 4.734517e+01 3.661802e+01 2.587794e+01 2.772260e+01 1.919514e+00 1.348303e+00 1.901085e+00 2.609037e+00 3.661149e+00 2.546113e+00 2.666392e+00 2.831170e+00 2.712030e+00 2.711417e+00 2.392060e+00 2.121399e+00 7.868339e-01 2.336552e-01 2.501350e-01 3.297376e-01 4.453052e-01 5.234158e-01 4.392459e-01 5.069538e-01 5.019450e-01 5.201539e-01 4.725600e-01 4.889361e-01 4.108954e-01 1.576005e-01
<GCONST> 1.178256e+02
<TRANSP> 5
 0.000000e+00 1.000000e+00 0.000000e+00 0.000000e+00 0.000000e+00
 0.000000e+00 6.109244e-01 3.890756e-01 0.000000e+00 0.000000e+00
 0.000000e+00 0.000000e+00 4.667222e-01 5.332778e-01 0.000000e+00
 0.000000e+00 0.000000e+00 0.000000e+00 6.751077e-01 3.248923e-01
 0.000000e+00 0.000000e+00 0.000000e+00 0.000000e+00 0.000000e+00
<ENDHMM>
~h "iy"
<BEGINHMM>
<NUMSTATES> 5
<STATE> 2
<MEAN> 39
 -6.784610e+00 -9.263606e-01 1.335993e+01 -6.875204e+00 -1.342881e+01 -6.699908e+00 -5.305644e+00 -6.422969e+00 -7.533926e+00 -7.139366e-01 -2.218825e+00 -1.178800e+00 6.720724e+01 7.726052e-01 3.752765e-01 2.230027e+00 -1.829385e+00 -2.483680e+00 -2.362870e-01 -1.290168e+00 -1.675924e+00 -1.315773e+00 1.765923e-01 -8.760213e-01 -2.888143e-01 1.043007e+00 -1.948213e-01 8.242415e-03 -4.272958e-01 1.023689e-01 5.088590e-01 3.402692e-01 1.040251e-01 2.796786e-01 3.681027e-01 1.160706e-01 5.431116e-02 9.003852e-02 -2.567151e-01
<VARIANCE> 39
 2.027456e+01 2.555642e+01 3.702839e+01 7.981570e+01 6.152645e+01 5.846952e+01 4.885839e+01 6.204717e+01 4.946221e+01 3.901628e+01 4.182549e+01 2.999483e+01 2.844187e+01 4.268224e+00 2.079530e+00 3.292391e+00 6.098317e+00 5.947882e+00 5.696249e+00 6.113604e+00 5.722579e+00 4.717591e+00 4.131003e+00 4.608447e+00 3.525864e+00 2.073650e+00 4.291762e-01 3.624904e-01 5.771245e-01 9.754465e-01 1.194897e+00 8.071099e-01 8.696375e-01 1.017621e+00 7.594954e-01 6.276146e-01 6.584243e-01 5.216651e-01 4.447225e-01
<GCONST> 1.337056e+02
<STATE> 3
<MEAN> 39
 -6.411200e+00 -5.955260e-02 1.684075e+01 -1.218916e+01 -1.654677e+01 -4.941498e+00 -8.306003e+00 -9.048916e+00 -8.810761e+00 6.759664e-01 -4.795872e+00 -1.402428e+00 6.900913e+01 3.044355e-02 3.382280e-01 -5.102783e-02 2.244978e-01 2.074729e-01 2.280692e-01 -2.414585e-02 -8.455493e-02 9.444394e-02 -1.029981e-02 -6.388844e-02 -3.769116e-02 -3.106373e-01 -1.182291e-01 -3.977236e-02 -7.150645e-01 7.811337e-01 7.818286e-01 -6.611774e-02 4.370558e-01 4.648527e-01 3.360188e-01 -1.473931e-01 2.881243e-01 3.627654e-02 -3.888851e-01
<VARIANCE> 39
 1.066570e+01 2.242854e+01 3.194995e+01 9.748801e+01 4.712915e+01 5.697114e+01 5.299100e+01 6.137394e+01 5.191924e+01 4.664425e+01 5.578375e+01 3.992220e+01 1.302285e+01 1.101887e+00 1.499887e+00 2.165975e+00 4.833468e+00 3.959727e+00 3.075637e+00 3.286154e+00 2.889390e+00 2.567900e+00 2.390255e+00 2.283752e+00 1.913039e+00 1.293888e+00 3.486326e-01 2.797677e-01 3.989014e-01 8.506788e-01 8.809503e-01 7.612512e-01 7.140089e-01 7.458931e-01 6.614130e-01 5.778357e-01 5.723947e-01 4.757737e-01 2.214116e-01
<GCONST> 1.221881e+02
<STATE> 4
<MEAN> 39
 -6.218214e+00 6.814754e-01 1.351538e+01 -8.053656e+00 -1.449883e+01 -5.591981e+00 -6.843778e+00 -7.603559e+00 -6.828388e+00 -9.663171e-01 -2.924926e+00 -1.222439e+00 6.708478e+01 4.657118e-02 -2.088125e-01 -1.314497e+00 1.022037e+00 1.287291e+00 -1.979732e-01 6.732804e-01 9.211439e-01 6.635051e-01 -1.803371e-01 3.370945e-01 9.391647e-02 -5.558529e-01 -7.606094e-02 -1.639407e-01 -2.390492e-01 -3.204818e-02 2.169068e-01 9.616663e-02 8.583568e-02 1.860698e-01 1.524581e-01 4.386343e-02 1.375099e-02 3.493327e-02 -9.378886e-04
<VARIANCE> 39
 1.626019e+01 2.541821e+01 3.422217e+01 8.488705e+01 6.753754e+01 6.002408e+01 5.285849e+01 5.827614e+01 4.580311e+01 3.905584e+01 4.529374e+01 3.180963e+01 2.668395e+01 1.728783e+00 1.725112e+00 2.185649e+00 4.520420e+00 5.804023e+00 3.634537e+00 3.638122e+00 3.577564e+00 3.230706e+00 2.645663e+00 2.514652e+00 2.112148e+00 2.142411e+00 2.148157e-01 2.489562e-01 2.868698e-01 6.245572e-01 8.533485e-01 6.110865e-01 5.450803e-01 5.772203e-01 5.138893e-01 4.800264e-01 4.279693e-01 3.548653e-01 2.467551e-01
<GCONST> 1.224989e+02
<TRANSP> 5
 0.000000e+00 1.000000e+00 0.000000e+00 0.000000e+00 0.000000e+00
 0.000000e+00 5.819199e-01 4.180801e-01 0.000000e+00 0.000000e+00
 0.000000e+00 0.000000e+00 6.471738e-01 3.528262e-01 0.000000e+00
 0.000000e+00 0.000000e+00 0.000000e+00 7.382430e-01 2.617570e-01
 0.000000e+00 0.000000e+00 0.000000e+00 0.000000e+00 0.000000e+00
<ENDHMM>
~h "ny"
<BEGINHMM>
<NUMSTATES> 5
<STATE> 2
<MEAN> 39
 -2.047775e+00 8.722811e-01 8.162511e+00 -1.152282e+01 -1.101709e+01 -3.596275e+00 -5.791728e+00 -2.956246e+00 -8.333033e+00 -1.982394e+00 -2.018492e+00 -4.295948e+00 6.650416e+01 -8.484137e-02 2.111223e-01 3.772703e-01 -4.145506e-01 -1.803299e-01 5.220534e-01 -2.021826e-02 -1.834773e-01 -1.184315e-01 -2.897074e-02 1.789915e-01 -5.112154e-02 -1.240194e-01 -3.279227e-02 -4.239752e-01 -1.604435e-01 1.042716e-01 -7.770293e-02 -1.548454e-01 1.401814e-01 2.627744e-01 1.288962e-01 -1.114266e-01 -3.510083e-02 9.259964e-02 2.525790e-01
<VARIANCE> 39
 1.297254e+01 2.345071e+01 4.419326e+01 7.446674e+01 6.049399e+01 5.392022e+01 3.958940e+01 5.738677e+01 3.245881e+01 4.357606e+01 3.469409e+01 2.601274e+01 1.810925e+01 1.161929e+00 3.219663e+00 3.141659e+00 4.536423e+00 4.594795e+00 3.438296e+00 3.560834e+00 2.845069e+00 2.404689e+00 2.724738e+00 2.177328e+00 1.786707e+00 2.101430e+00 2.077120e-01 2.136957e-01 7.691301e-01 1.036116e+00 8.738298e-01 7.512177e-01 5.998471e-01 4.970607e-01 4.454299e-01 4.358051e-01 4.223969e-01 3.172323e-01 1.614311e-01
<GCONST> 1.208552e+02
<STATE> 3
<MEAN> 39
 -2.619411e+00 -3.646966e+00 9.390263e+00 -1.211158e+01 -1.445574e+01 -1.820614e+00 -4.564457e+00 8.878572e-01 -6.628755e+00 -5.338127e+00 -2.007251e-01 -2.561649e+00 6.848684e+01 1.206536e-01 -1.183399e+00 -9.542037e-01 8.981875e-01 2.757973e-01 -7.837546e-01 1.352294e-01 1.037907e+00 7.555398e-01 -5.973325e-01 -3.178152e-01 4.321809e-01 4.695286e-01 1.068816e-01 2.419791e-02 -3.571547e-01 1.138775e-01 5.049776e-01 -7.813911e-02 -2.664256e-01 -8.490005e-03 2.560120e-01 7.122467e-02 -2.031138e-01 -1.069982e-01 -8.116716e-02
<VARIANCE> 39
 1.192779e+01 3.249365e+01 4.793365e+01 5.629572e+01 5.402919e+01 4.666059e+01 5.053921e+01 5.815006e+01 4.042344e+01 4.996698e+01 3.289647e+01 2.987800e+01 2.319503e+01 4.283727e-01 1.825665e+00 3.011801e+00 2.902082e+00 4.010022e+00 2.728035e+00 2.913122e+00 2.735052e+00 3.098520e+00 2.742508e+00 1.868375e+00 1.758336e+00 7.792984e-01 9.076335e-02 2.549052e-01 5.381154e-01 5.884076e-01 8.370416e-01 5.739598e-01 5.373217e-01 4.573641e-01 4.354655e-01 3.976193e-01 3.233180e-01 3.339983e-01 1.003533e-01
<GCONST> 1.151395e+02
<STATE> 4
<MEAN> 39
 -2.439974e+00 -6.692472e+00 5.723431e+00 -9.511790e+00 -1.091803e+01 -3.806485e+00 -4.745332e+00 3.174329e+00 -2.483613e+00 -5.413247e+00 -2.936529e+00 -1.622229e+00 6.901672e+01 2.044382e-01 -6.352893e-01 -1.248121e+00 5.388474e-01 1.187791e+00 -2.763337e-01 -3.621544e-01 3.707516e-01 9.211873e-01 -6.096874e-02 -5.320744e-01 -1.361885e-01 1.094018e-01 1.113545e-02 2.401138e-01 5.000272e-02 -1.977332e-01 1.681788e-01 1.954201e-01 -9.874517e-02 -2.979522e-01 -2.743673e-02 2.541840e-01 4.661906e-02 -1.593914e-01 -1.434053e-01
<VARIANCE> 39
 1.409766e+01 3.310812e+01 4.276045e+01 5.470181e+01 5.494342e+01 4.862266e+01 5.212453e+01 5.888943e+01 5.789917e+01 4.034607e+01 3.562192e+01 3.145130e+01 3.405156e+01 4.121337e-01 1.577702e+00 2.347320e+00 2.063049e+00 2.979130e+00 2.136080e+00 2.487134e+00 2.310840e+00 3.065347e+00 2.540022e+00 1.859361e+00 1.839859e+00 5.894055e-01 8.724815e-02 2.298115e-01 3.089337e-01 3.581667e-01 5.594171e-01 4.686030e-01 4.090057e-01 4.674121e-01 3.914059e-01 3.674506e-01 3.640144e-01 3.574992e-01 1.074245e-01
<GCONST> 1.119920e+02
<TRANSP> 5
 0.000000e+00 1.000000e+00 0.000000e+00 0.000000e+00 0.000000e+00
 0.000000e+00 8.545811e-01 1.454189e-01 0.000000e+00 0.000000e+00
 0.000000e+00 0.000000e+00 6.687267e-01 3.312732e-01 0.000000e+00
 0.000000e+00 0.000000e+00 0.000000e+00 4.276221e-01 5.723779e-01
 0.000000e+00 0.000000e+00 0.000000e+00 0.000000e+00 0.000000e+00
<ENDHMM>
~h "ow"
<BEGINHMM>
<NUMSTATES> 5
<STATE> 2
<MEAN> 39
 1.032850e+00 -6.415329e+00 -3.900273e+00 -1.706322e+01 -4.936339e+00 -1.729119e+00 -9.015290e+00 -3.526775e+00 -2.466038e+00 1.220837e+00 -1.199935e+00 -3.383926e+00 6.953512e+01 7.532765e-01 -8.130097e-02 -9.457433e-01 -1.492347e+00 1.269861e-01 8.913739e-01 -1.096289e-01 -4.198621e-01 -3.960001e-01 1.723137e-01 3.790739e-01 -3.512763e-01 3.523205e-01 -4.577568e-01 1.797804e-01 4.106737e-01 7.006935e-01 1.568743e-01 -5.457235e-02 3.518613e-01 1.176979e-01 -1.083277e-02 -1.224877e-01 3.604911e-02 2.300753e-01 -3.655985e-01
<VARIANCE> 39
 1.460989e+01 2.568322e+01 4.102716e+01 7.330299e+01 5.141757e+01 6.121325e+01 6.929639e+01 5.018496e+01 5.730995e+01 5.441363e+01 6.900465e+01 3.528896e+01 2.343610e+01 2.082399e+00 1.894117e+00 2.677988e+00 5.713042e+00 4.294498e+00 4.149004e+00 4.825140e+00 3.840367e+00 3.952218e+00 3.864980e+00 3.480642e+00 2.931318e+00 1.811114e+00 3.796902e-01 3.460099e-01 4.350610e-01 1.015465e+00 7.594579e-01 7.107773e-01 8.427046e-01 7.643956e-01 8.282126e-01 7.193813e-01 7.153772e-01 5.446668e-01 2.550366e-01
<GCONST> 1.296320e+02
<STATE> 3
<MEAN> 39
 1.672061e+00 -5.889042e+00 -5.427193e+00 -1.963510e+01 -4.341178e+00 3.772216e-01 -7.819280e+00 -3.826334e+00 -4.008237e+00 5.784558e-01 -3.038287e-01 -3.285246e+00 6.932451e+01 -2.375891e-01 4.034495e-01 3.672490e-01 9.679562e-01 3.618082e-01 -5.121725e-02 2.485103e-01 -8.069678e-02 3.105591e-02 -2.548815e-01 -4.267160e-02 7.139647e-02 -6.268288e-01 -3.765898e-01 1.443705e-01 4.578220e-01 8.258423e-01 6.391528e-02 -2.795478e-01 1.321490e-01 1.183088e-01 1.602009e-01 -5.278472e-02 -1.295029e-01 1.117767e-01 -2.941267e-01
<VARIANCE> 39
 1.160386e+01 2.353671e+01 3.545766e+01 6.429176e+01 5.228117e+01 6.139685e+01 6.759568e+01 4.667916e+01 5.518843e+01 5.630194e+01 6.442685e+01 3.587686e+01 1.944325e+01 8.122293e-01 1.705847e+00 1.894203e+00 4.415310e+00 2.602452e+00 3.075251e+00 3.331140e+00 2.637536e+00 3.380698e+00 3.100604e+00 2.601273e+00 2.244322e+00 1.347215e+00 2.652365e-01 2.639965e-01 3.156429e-01 6.563488e-01 5.598646e-01 5.365718e-01 6.436812e-01 5.955809e-01 6.246568e-01 5.974211e-01 5.378607e-01 4.702536e-01 1.733969e-01
<GCONST> 1.205124e+02
<STATE> 4
<MEAN> 39
 -1.471607e-01 -4.104789e+00 -2.350934e+00 -1.268518e+01 -2.746202e+00 5.449598e-02 -5.411656e+00 -3.177444e+00 -2.679117e+00 -1.895625e-01 -4.417922e-01 -2.159638e+00 6.491710e+01 -1.049974e+00 4.204775e-01 1.199595e+00 2.236796e+00 5.445188e-01 -3.450434e-01 5.427798e-01 2.566933e-01 3.829300e-01 -1.659497e-01 -1.923148e-01 2.431076e-01 -1.035681e+00 -2.613253e-01 -3.271081e-02 1.525758e-01 1.617952e-01 -4.070826e-02 -7.587127e-02 1.030404e-01 1.348472e-01 5.623747e-02 6.435809e-02 2.426876e-02 1.001072e-01 -9.502100e-03
<VARIANCE> 39
 1.898544e+01 2.489540e+01 3.550678e+01 7.535265e+01 4.975240e+01 5.865535e+01 7.379577e+01 4.441641e+01 5.062774e+01 4.692453e+01 5.366650e+01 3.437981e+01 4.152309e+01 1.854441e+00 2.125551e+00 2.322606e+00 4.574601e+00 3.295013e+00 3.289774e+00 3.683091e+00 3.413616e+00 3.578356e+00 3.176633e+00 3.019930e+00 2.502831e+00 1.574014e+00 3.529234e-01 2.743669e-01 3.851115e-01 7.821854e-01 5.332136e-01 5.175332e-01 6.501977e-01 5.973669e-01 6.353199e-01 5.696667e-01 5.290369e-01 4.434123e-01 2.255267e-01
<GCONST> 1.246538e+02
<TRANSP> 5
 0.000000e+00 1.000000e+00 0.000000e+00 0.000000e+00 0.000000e+00
 0.000000e+00 5.793349e-01 4.206651e-01 0.000000e+00 0.000000e+00
 0.000000e+00 0.000000e+00 5.648748e-01 4.351251e-01 0.000000e+00
 0.000000e+00 0.000000e+00 0.000000e+00 5.005776e-01 4.994224e-01
 0.000000e+00 0.000000e+00 0.000000e+00 0.000000e+00 0.000000e+00
<ENDHMM>
~h "rr"
<BEGINHMM>
<NUMSTATES> 5
<STATE> 2
<MEAN> 39
 -4.318515e+00 -8.001949e+00 1.569624e+00 -4.171886e+00 -4.582407e+00 -4.300496e+00 -5.193480e+00 3.495870e-01 8.766207e-01 -7.939806e-01 -1.020846e+00 -2.729068e+00 6.697778e+01 4.592934e-01 -3.896717e-01 -6.325817e-02 -2.939287e-02 -1.526226e-01 -4.636610e-01 -6.785085e-01 -5.280988e-02 2.218351e-01 1.320631e-01 1.666362e-01 -3.345301e-01 3.299810e-01 3.117148e-01 -1.845579e-01 -1.882962e-01 -2.370901e-01 -3.141750e-01 -2.911839e-01 -4.293904e-02 1.401176e-02 -1.908174e-01 4.818435e-02 -1.276709e-01 -3.999005e-02 2.463083e-01
<VARIANCE> 39
 3.286309e+01 2.530661e+01 4.739442e+01 3.958932e+01 4.710313e+01 5.018812e+01 5.293966e+01 4.800478e+01 3.744544e+01 4.428646e+01 5.042727e+01 3.295187e+01 3.962438e+01 4.025118e+00 2.967892e+00 3.927289e+00 3.502689e+00 4.287556e+00 5.064772e+00 4.518390e+00 4.795631e+00 3.687352e+00 3.486495e+00 3.970223e+00 2.944452e+00 3.126658e+00 7.205817e-01 5.634301e-01 7.133292e-01 6.640316e-01 7.219383e-01 8.970190e-01 8.851438e-01 9.403445e-01 7.325025e-01 6.832575e-01 7.585710e-01 5.781764e-01 4.476663e-01
<GCONST> 1.328764e+02
<STATE> 3
<MEAN> 39
 -7.964815e-01 -1.007911e+01 -3.760366e-01 -5.119009e+00 -6.661654e+00 -7.327936e+00 -7.521178e+00 2.668823e-01 6.850266e-01 -3.883670e-02 -8.338344e-01 -4.423760e+00 6.947774e+01 1.036970e+00 -8.031984e-01 -2.783134e-01 -2.681118e-01 -9.643059e-01 -1.202877e+00 -3.859695e-01 3.340140e-01 -3.420890e-01 2.140805e-01 -1.745187e-01 -1.916891e-01 5.823235e-01 -9.547970e-02 -7.703185e-03 1.031802e-01 -9.947439e-02 -1.729611e-01 -6.508453e-02 2.832749e-01 1.343921e-01 -2.692538e-01 -4.152051e-02 -9.733568e-02 1.367352e-01 6.106394e-02
<VARIANCE> 39
 2.422148e+01 2.171474e+01 4.488012e+01 3.655494e+01 4.510903e+01 4.489795e+01 4.862010e+01 4.296014e+01 3.819675e+01 4.261165e+01 6.703439e+01 3.585766e+01 1.817046e+01 2.353251e+00 2.273999e+00 3.251518e+00 2.458231e+00 3.495814e+00 4.077909e+00 3.656721e+00 4.473905e+00 3.373355e+00 3.249155e+00 3.403478e+00 2.777971e+00 1.486602e+00 5.549371e-01 4.673733e-01 5.474078e-01 4.587683e-01 5.819198e-01 6.712236e-01 7.043669e-01 8.243409e-01 6.472056e-01 6.111968e-01 6.028955e-01 4.935467e-01 2.515522e-01
<GCONST> 1.251930e+02
<STATE> 4
<MEAN> 39
 1.292808e+00 -1.253638e+01 -1.257398e+00 -5.526247e+00 -1.067737e+01 -1.044262e+01 -7.120344e+00 2.606055e+00 -1.386160e+00 3.983590e-02 -1.207311e+00 -5.082398e+00 7.161353e+01 6.153743e-03 -1.407284e-01 4.242034e-01 -4.741235e-01 -8.775931e-01 -5.700959e-01 4.595204e-01 3.537192e-01 -8.102496e-01 -3.916160e-02 -1.601082e-01 2.992656e-01 3.728013e-01 -2.653255e-01 3.413695e-01 1.409917e-01 -4.715702e-02 1.722708e-01 2.893273e-01 1.648431e-01 -2.107632e-01 -4.459566e-02 -3.847273e-02 7.082349e-03 8.502030e-02 -1.455427e-01
<VARIANCE> 39
 1.293420e+01 2.302064e+01 5.808488e+01 4.314973e+01 6.061551e+01 6.560170e+01 5.637879e+01 5.321194e+01 4.592055e+01 3.989411e+01 8.812599e+01 5.053929e+01 1.558134e+01 1.300410e+00 1.898374e+00 2.458229e+00 2.463988e+00 3.082490e+00 3.811502e+00 3.426159e+00 3.958194e+00 3.696259e+00 3.261950e+00 2.823447e+00 2.502213e+00 1.049488e+00 2.389508e-01 3.643830e-01 3.604314e-01 3.885823e-01 5.676217e-01 5.895789e-01 5.693970e-01 7.420604e-01 6.192133e-01 5.646234e-01 5.271759e-01 4.713816e-01 2.005495e-01
<GCONST> 1.220115e+02
<TRANSP> 5
 0.000000e+00 1.000000e+00 0.000000e+00 0.000000e+00 0.000000e+00
 0.000000e+00 6.481196e-01 3.518805e-01 0.000000e+00 0.000000e+00
 0.000000e+00 0.000000e+00 5.410167e-01 4.589833e-01 0.000000e+00
 0.000000e+00 0.000000e+00 0.000000e+00 7.230276e-01 2.769723e-01
 0.000000e+00 0.000000e+00 0.000000e+00 0.000000e+00 0.000000e+00
<ENDHMM>
~h "rx"
<BEGINHMM>
<NUMSTATES> 5
<STATE> 2
<MEAN> 39
 -9.841473e-01 -9.055117e+00 1.420551e+00 -6.136757e+00 -9.525085e+00 -7.753133e+00 -7.557992e+00 2.026208e-01 -6.988156e-02 -4.362711e-01 -1.937309e+00 -2.882547e+00 6.922607e+01 4.299112e-01 -2.195597e-01 5.655271e-01 1.015069e+00 -9.480417e-02 -4.484671e-01 -8.894284e-01 1.906803e-01 4.747499e-01 -3.158799e-01 4.167520e-02 4.222081e-02 -4.609972e-01 -1.923256e-01 4.782280e-02 1.874215e-02 -2.668158e-01 1.519344e-01 2.715800e-01 3.248476e-01 -4.178691e-05 -2.494275e-01 5.756572e-02 5.345742e-02 8.283768e-02 -3.892625e-02
<VARIANCE> 39
 2.034734e+01 3.206398e+01 5.724391e+01 5.570401e+01 6.578743e+01 5.692712e+01 5.651953e+01 5.472339e+01 4.605835e+01 4.254628e+01 5.126335e+01 3.851491e+01 3.202457e+01 2.596561e+00 3.596185e+00 3.727258e+00 6.015775e+00 7.258993e+00 5.374332e+00 4.651282e+00 5.032782e+00 4.338918e+00 4.021969e+00 3.698135e+00 3.216574e+00 3.628889e+00 4.440731e-01 5.947031e-01 6.604494e-01 1.128744e+00 1.295021e+00 9.985473e-01 9.104404e-01 8.958696e-01 8.472411e-01 7.746351e-01 7.727333e-01 6.461195e-01 8.565174e-01
<GCONST> 1.370685e+02
<STATE> 3
<MEAN> 39
 -8.004398e-01 -9.089472e+00 2.758687e+00 -4.461498e+00 -9.036327e+00 -7.798357e+00 -8.588848e+00 5.934145e-01 4.171516e-01 -1.019727e+00 -1.630448e+00 -2.414541e+00 6.797118e+01 -7.918123e-02 6.425067e-02 4.371763e-01 -8.046736e-02 2.553292e-01 1.881597e-01 2.029562e-02 7.966495e-02 -3.550668e-01 2.302515e-02 1.444498e-01 4.514393e-02 -2.531413e-01 -2.200562e-01 6.191583e-02 -1.727812e-01 -5.517535e-01 6.463005e-02 2.399553e-01 4.553248e-01 -7.485367e-02 -3.594520e-01 1.862591e-01 -2.260033e-02 -1.488488e-02 2.081743e-01
<VARIANCE> 39
 1.970093e+01 3.290455e+01 5.227002e+01 5.135984e+01 6.667397e+01 4.927119e+01 5.592027e+01 5.222434e+01 4.712447e+01 4.159798e+01 5.000586e+01 3.697211e+01 3.127081e+01 2.290566e+00 3.726734e+00 4.299245e+00 6.050461e+00 6.479098e+00 4.874848e+00 4.528445e+00 5.378086e+00 4.584794e+00 4.122565e+00 3.814167e+00 3.262886e+00 3.648489e+00 4.208698e-01 6.911883e-01 6.526725e-01 1.229295e+00 1.390044e+00 1.008368e+00 9.520380e-01 1.000679e+00 9.295458e-01 8.519105e-01 8.099669e-01 6.474285e-01 7.917896e-01
<GCONST> 1.371943e+02
<STATE> 4
<MEAN> 39
 -1.234542e+00 -8.704747e+00 2.838237e+00 -6.072326e+00 -8.429581e+00 -6.988436e+00 -7.629857e+00 7.094233e-01 -1.096095e+00 -3.299963e-01 -1.051344e+00 -2.711812e+00 6.801609e+01 -3.890351e-01 2.749510e-01 1.273699e-01 -7.516856e-01 3.373840e-01 5.291820e-01 7.723734e-01 -1.800144e-01 -8.120133e-01 2.727020e-01 1.693344e-02 3.027995e-02 -9.374842e-03 -1.536576e-01 4.959774e-02 -1.505699e-01 -1.560444e-01 -1.970477e-02 1.122628e-01 2.788376e-01 -9.787766e-02 -7.897210e-02 2.315654e-02 -6.499048e-02 4.643241e-02 1.028172e-01
<VARIANCE> 39
 2.370135e+01 3.700272e+01 5.692591e+01 5.502096e+01 6.593797e+01 5.512252e+01 6.064722e+01 5.918623e+01 5.025524e+01 4.544754e+01 5.546309e+01 3.806885e+01 3.660787e+01 2.180949e+00 3.662711e+00 3.799638e+00 5.185099e+00 5.776934e+00 4.381977e+00 4.273203e+00 5.006310e+00 4.342587e+00 3.830841e+00 3.752302e+00 3.056813e+00 3.603324e+00 3.491933e-01 5.387638e-01 5.660368e-01 9.249937e-01 1.135100e+00 8.315391e-01 8.326965e-01 8.756061e-01 7.923198e-01 7.698234e-01 7.180737e-01 5.741364e-01 5.530647e-01
<GCONST> 1.350984e+02
<TRANSP> 5
 0.000000e+00 1.000000e+00 0.000000e+00 0.000000e+00 0.000000e+00
 0.000000e+00 3.759432e-01 6.240568e-01 0.000000e+00 0.000000e+00
 0.000000e+00 0.000000e+00 3.929442e-01 6.070558e-01 0.000000e+00
 0.000000e+00 0.000000e+00 0.000000e+00 3.410351e-01 6.589649e-01
 0.000000e+00 0.000000e+00 0.000000e+00 0.000000e+00 0.000000e+00
<ENDHMM>
~h "sp"
<BEGINHMM>
<NUMSTATES> 3
<STATE> 2
~s "silst"
<TRANSP> 3
 0.000000e+00 2.073804e-01 7.926196e-01
 0.000000e+00 9.087465e-01 9.125344e-02
 0.000000e+00 0.000000e+00 0.000000e+00
<ENDHMM>
~h "uw"
<BEGINHMM>
<NUMSTATES> 5
<STATE> 2
<MEAN> 39
 -9.592933e-01 -1.319923e+00 4.868822e-01 -1.139216e+01 -5.076699e+00 -3.136338e+00 -8.043536e+00 -4.307893e+00 -4.083762e+00 -7.948908e-01 -1.469893e+00 -1.284953e+00 6.462033e+01 2.072704e+00 7.987456e-01 -7.498677e-01 -1.895005e+00 -1.131391e+00 8.421712e-02 -1.245640e+00 -1.745473e+00 -1.477137e+00 -1.690017e-01 1.051083e-01 -3.041006e-01 6.322788e-01 -4.211770e-01 -8.706503e-02 1.260398e-01 2.159895e-01 1.141171e-01 1.980656e-01 3.496851e-01 1.614102e-01 9.853003e-02 6.646456e-02 1.065059e-01 1.320307e-01 -8.242155e-02
<VARIANCE> 39
 2.996559e+01 2.623089e+01 3.538039e+01 6.106401e+01 5.659440e+01 5.223691e+01 7.762592e+01 5.649105e+01 5.193612e+01 4.262468e+01 4.338390e+01 2.986749e+01 3.148435e+01 4.316825e+00 2.498752e+00 3.029791e+00 4.958793e+00 5.641012e+00 4.949861e+00 6.731415e+00 6.516583e+00 4.991697e+00 4.481010e+00 4.664869e+00 3.520722e+00 1.836669e+00 5.638583e-01 4.341152e-01 4.426117e-01 1.035803e+00 8.847791e-01 8.253925e-01 1.202308e+00 9.769634e-01 9.687085e-01 7.969212e-01 7.460204e-01 5.816621e-01 3.031597e-01
<GCONST> 1.348038e+02
<STATE> 3
<MEAN> 39
 2.211929e+00 -5.859178e-01 -1.564714e+00 -1.600426e+01 -6.967237e+00 -1.291989e+00 -9.453725e+00 -7.727359e+00 -8.071034e+00 -8.470626e-01 -1.970845e-02 -1.159494e+00 6.653136e+01 1.084349e-01 -1.126714e-02 1.064614e-01 2.307252e-01 4.739576e-02 9.730308e-02 -2.666999e-01 -5.476681e-01 -7.093003e-02 6.632864e-02 3.721083e-02 -1.115068e-01 4.956822e-02 -5.522929e-01 -1.708252e-01 4.210364e-01 8.515825e-01 2.519602e-01 -2.628624e-01 2.445755e-01 4.724842e-01 5.736150e-01 -1.051531e-02 -3.041158e-01 -7.412349e-02 -2.086462e-01
<VARIANCE> 39
 8.932493e+00 2.157695e+01 3.749245e+01 4.659242e+01 4.865933e+01 5.057635e+01 6.700459e+01 6.159790e+01 5.375504e+01 5.339938e+01 5.199270e+01 3.462538e+01 1.233267e+01 1.161304e+00 2.258950e+00 2.175710e+00 5.075067e+00 4.039532e+00 3.856934e+00 5.957514e+00 4.655138e+00 5.359894e+00 4.491012e+00 3.823294e+00 2.947711e+00 1.178920e+00 3.590645e-01 3.094777e-01 4.178534e-01 6.663595e-01 8.172212e-01 8.088360e-01 1.127474e+00 1.039588e+00 9.116215e-01 9.134404e-01 8.600489e-01 6.616896e-01 1.692100e-01
<GCONST> 1.274562e+02
<STATE> 4
<MEAN> 39
 9.274078e-01 -1.219837e+00 5.327153e-01 -1.142390e+01 -6.355417e+00 -3.101663e+00 -1.004117e+01 -7.455862e+00 -5.113041e+00 -1.266487e+00 -1.988221e+00 -2.361566e+00 6.570063e+01 -8.091958e-01 -1.413656e-01 1.115521e+00 1.821274e+00 2.953928e-01 -5.933378e-01 2.980507e-01 5.422565e-01 8.768498e-01 -1.751184e-01 -7.437317e-01 -1.701023e-01 -4.131543e-01 -2.545212e-01 1.600543e-05 1.189112e-01 1.354853e-01 2.134899e-03 3.615133e-02 3.171543e-01 2.926664e-01 2.548487e-02 -3.494467e-02 1.680769e-02 1.079636e-01 -1.079143e-01
<VARIANCE> 39
 1.415594e+01 2.423433e+01 4.630911e+01 6.244630e+01 5.742403e+01 5.215226e+01 6.741171e+01 5.984679e+01 5.339577e+01 5.374843e+01 5.298200e+01 3.544936e+01 1.794802e+01 1.567277e+00 1.942458e+00 3.009044e+00 4.361526e+00 4.258301e+00 4.387763e+00 5.835804e+00 5.155183e+00 4.701838e+00 4.477806e+00 4.256679e+00 3.174631e+00 1.534622e+00 2.403985e-01 3.283637e-01 5.211349e-01 7.997375e-01 7.491327e-01 7.805560e-01 1.048631e+00 9.442829e-01 9.701971e-01 8.903965e-01 8.053715e-01 5.955119e-01 2.173709e-01
<GCONST> 1.299101e+02
<TRANSP> 5
