~o
<STREAMINFO> 1 39
<VECSIZE> 39<NULLD><MFCC_D_A_0><DIAGC>
~s "silst"
<NUMMIXES> 2
<MIXTURE> 1 5.231922e-01
<MEAN> 39
 -1.135882e+01 -4.396504e+00 4.306273e+00 8.863669e-01 2.635319e+00 4.332922e+00 3.835550e+00 2.671712e+00 2.875845e+00 2.652781e+00 3.385115e+00 3.710133e+00 5.209947e+01 -1.357963e-01 -6.616813e-02 1.934414e-02 9.465511e-02 7.531979e-02 1.446432e-01 1.703846e-01 1.151907e-01 1.764291e-01 2.224994e-01 1.744279e-01 1.315686e-01 -2.072014e-01 4.263093e-02 -1.567779e-02 4.786206e-03 -4.897399e-02 -6.396352e-02 -4.719086e-02 -4.832870e-02 -4.037385e-02 3.780727e-03 -4.821077e-02 -8.824956e-03 -1.179687e-02 5.927170e-02
<VARIANCE> 39
 7.397158e+00 8.136217e+00 9.591885e+00 1.152783e+01 1.437952e+01 1.525230e+01 1.736362e+01 1.881843e+01 1.915788e+01 2.024138e+01 1.820185e+01 1.489431e+01 9.084072e+00 7.539221e-01 7.501422e-01 8.933680e-01 1.178015e+00 1.416525e+00 1.495504e+00 1.672522e+00 1.759514e+00 1.812585e+00 1.850191e+00 1.612730e+00 1.399185e+00 5.507376e-01 1.187595e-01 1.246703e-01 1.556656e-01 2.110490e-01 2.581828e-01 2.767282e-01 3.147481e-01 3.251157e-01 3.404564e-01 3.466317e-01 3.041544e-01 2.628960e-01 8.720025e-02
<GCONST> 8.851852e+01
<MIXTURE> 2 4.767063e-01
<MEAN> 39
 -1.157777e+01 -4.790122e+00 4.064041e+00 3.338325e-02 2.043964e+00 3.502269e+00 2.937341e+00 2.454657e+00 2.329542e+00 2.127899e+00 2.871781e+00 3.283699e+00 5.374049e+01 -7.465852e-02 -1.340682e-03 9.681779e-02 3.624216e-02 2.229967e-02 -8.766585e-02 -7.215200e-02 -4.763794e-02 -1.587166e-01 -7.453754e-02 -8.752092e-02 -4.733747e-02 3.806039e-03 1.096614e-01 2.730782e-03 1.086723e-03 -8.215280e-02 -1.157658e-01 -8.539748e-02 -7.168645e-02 -6.586155e-02 -3.648072e-02 -6.804626e-02 -4.303475e-02 -4.396085e-02 9.146446e-02
<VARIANCE> 39
 1.303778e+01 1.257342e+01 1.500660e+01 1.873845e+01 2.061657e+01 2.211044e+01 2.205856e+01 2.295219e+01 2.375978e+01 2.339181e+01 2.061363e+01 1.704636e+01 1.530060e+01 1.143903e+00 1.090135e+00 1.330169e+00 1.799033e+00 1.974325e+00 2.109846e+00 2.182362e+00 2.147319e+00 2.133337e+00 2.101132e+00 1.846800e+00 1.617882e+00 1.153734e+00 2.263816e-01 2.215170e-01 2.902926e-01 4.232508e-01 4.427012e-01 4.437140e-01 4.592911e-01 4.335402e-01 4.417845e-01 4.226689e-01 3.809662e-01 3.283825e-01 2.903026e-01
<GCONST> 1.031534e+02
~h "b"
<BEGINHMM>
<NUMSTATES> 5
<STATE> 2
<NUMMIXES> 2
<MIXTURE> 1 5.087578e-01
<MEAN> 39
 -2.562191e-01 8.031456e-01 6.613839e+00 4.931930e-01 -2.341847e+00 -2.891869e+00 -5.992854e+00 -7.500007e+00 -6.870074e+00 -1.873820e+00 -1.576509e+00 -4.254380e+00 5.927053e+01 -2.474387e-01 9.019418e-01 5.798352e-01 7.039087e-01 7.291808e-01 9.214827e-01 6.097088e-01 -1.955143e-01 2.469927e-01 -4.473259e-01 -4.193816e-02 1.330206e-01 -1.130837e+00 -2.039783e-01 -2.584595e-01 -1.381741e-02 -2.588411e-01 -8.953279e-02 -6.154861e-02 7.223136e-02 2.720232e-01 1.783572e-01 5.830506e-02 -5.389288e-03 9.723307e-02 2.572411e-01
<VARIANCE> 39
 1.043885e+01 1.464706e+01 1.782117e+01 3.478834e+01 2.671062e+01 3.770977e+01 4.046910e+01 3.668194e+01 4.397452e+01 3.244282e+01 3.615870e+01 2.778411e+01 1.602161e+01 7.378433e-01 1.101846e+00 1.194337e+00 2.278640e+00 2.262740e+00 2.330527e+00 2.133024e+00 2.246830e+00 2.637078e+00 2.032666e+00 2.270017e+00 2.185075e+00 1.173567e+00 1.218729e-01 1.824432e-01 2.167061e-01 3.131734e-01 3.538139e-01 3.372830e-01 3.707488e-01 4.092500e-01 4.576144e-01 3.333112e-01 3.832552e-01 3.532995e-01 1.724837e-01
<GCONST> 1.056231e+02
<MIXTURE> 2 4.912433e-01
<MEAN> 39
 -8.907892e-01 -1.334999e+00 4.548408e+00 -2.441726e+00 -3.443396e+00 -4.422061e+00 -6.693207e+00 -7.758591e+00 -5.687824e+00 -1.624658e+00 -2.142290e+00 -3.240782e+00 6.130198e+01 2.319949e-01 9.830579e-01 5.903351e-01 8.618558e-01 4.031754e-01 3.427294e-01 -7.700592e-02 -6.768766e-01 -5.052610e-01 -4.497674e-01 -1.066686e-01 -2.291922e-01 -8.836059e-01 -1.262494e-01 -3.328250e-01 -7.823935e-02 -4.518861e-01 -2.241752e-01 -9.077383e-02 1.133597e-01 4.151141e-01 1.513982e-01 2.053410e-02 -6.317680e-02 2.523452e-03 4.426154e-01
<VARIANCE> 39
 2.005288e+01 2.519354e+01 2.676019e+01 4.717698e+01 3.223796e+01 6.940929e+01 4.944424e+01 6.400137e+01 4.425664e+01 4.325177e+01 4.472007e+01 3.316241e+01 3.024185e+01 1.355614e+00 1.368312e+00 1.564061e+00 2.272463e+00 2.534705e+00 3.312365e+00 3.188655e+00 3.169659e+00 2.797450e+00 2.689725e+00 2.890067e+00 2.688514e+00 1.647689e+00 1.775221e-01 2.837550e-01 3.080086e-01 5.139405e-01 4.734416e-01 5.025707e-01 5.875655e-01 6.968049e-01 5.535040e-01 5.177835e-01 5.098993e-01 4.835873e-01 2.719867e-01
<GCONST> 1.188667e+02
<STATE> 3
<NUMMIXES> 2
<MIXTURE> 1 4.990814e-01
<MEAN> 39
 -1.596356e+00 2.126739e+00 8.056476e+00 1.467703e+00 -3.410231e-01 -3.250740e-01 -3.349629e+00 -6.447505e+00 -5.498360e+00 -3.363463e+00 -2.104455e+00 -3.559392e+00 5.688794e+01 -6.496350e-01 7.056329e-02 3.623342e-01 6.596477e-02 3.621448e-01 3.282572e-01 4.940033e-01 5.448033e-01 5.607812e-01 -1.523337e-01 1.831763e-02 2.351530e-01 -2.670951e-01 8.293203e-02 -7.879007e-01 -3.447791e-01 -9.687785e-01 -7.939494e-01 -7.269735e-01 -4.246170e-01 3.263005e-01 1.483135e-02 3.796235e-01 1.289817e-01 8.139285e-02 1.121804e+00
<VARIANCE> 39
 1.069536e+01 1.038595e+01 1.600846e+01 2.401020e+01 2.022198e+01 2.578985e+01 2.841809e+01 2.994338e+01 3.412827e+01 2.379943e+01 2.579694e+01 2.204229e+01 1.214491e+01 1.080626e+00 1.294366e+00 1.444862e+00 2.291604e+00 2.131643e+00 2.471212e+00 2.669127e+00 2.601373e+00 2.725257e+00 2.042488e+00 2.200779e+00 2.028706e+00 1.239405e+00 2.016495e-01 2.120846e-01 6.671179e-01 6.849789e-01 5.136062e-01 6.107777e-01 4.780111e-01 5.938535e-01 7.147979e-01 5.106781e-01 4.801653e-01 4.580660e-01 1.995519e-01
<GCONST> 1.089543e+02
<MIXTURE> 2 5.009187e-01
<MEAN> 39
 -2.907139e-01 -7.636619e-01 5.000138e+00 -2.042755e+00 -2.665572e+00 -4.215575e+00 -7.084948e+00 -7.707162e+00 -5.894869e+00 -1.872648e+00 -2.474728e+00 -4.325665e+00 6.086659e+01 -2.673004e-01 -1.566526e-01 2.705387e-01 -4.313627e-01 -2.311938e-01 -5.713769e-02 2.354991e-01 6.441366e-01 2.270463e-01 -5.550782e-02 7.373838e-02 1.474712e-01 1.844954e-01 -5.988932e-02 -8.540440e-01 -1.615199e-01 -1.147048e+00 -8.463842e-01 -4.748647e-01 1.662496e-02 5.954325e-01 1.385156e-01 2.246370e-01 -9.621386e-02 1.397231e-01 1.127655e+00
<VARIANCE> 39
 1.198861e+01 2.425233e+01 2.726096e+01 4.600927e+01 2.771546e+01 4.742302e+01 3.961680e+01 4.984436e+01 3.628934e+01 3.760126e+01 3.747190e+01 2.747833e+01 2.202855e+01 9.196951e-01 1.217433e+00 2.082552e+00 2.594258e+00 2.038702e+00 2.688146e+00 2.562533e+00 3.395529e+00 2.722664e+00 2.264592e+00 1.923497e+00 2.088727e+00 1.024303e+00 2.178850e-01 3.214377e-01 7.910714e-01 7.640772e-01 6.939491e-01 6.695987e-01 7.865108e-01 8.533157e-01 8.168221e-01 6.771189e-01 6.466061e-01 5.785230e-01 2.470634e-01
<GCONST> 1.180983e+02
<STATE> 4
<NUMMIXES> 2
<MIXTURE> 1 4.767251e-01
<MEAN> 39
 -2.555701e+00 2.393037e-01 5.966971e+00 -1.464898e+00 -1.350620e+00 -1.262146e+00 -3.269519e+00 -4.672925e+00 -4.374763e+00 -2.514538e+00 -1.180351e+00 -2.424114e+00 5.954350e+01 3.514775e-01 -1.762553e+00 -1.037279e+00 -2.810506e+00 -1.806363e+00 -1.445629e+00 -8.554566e-01 1.048412e+00 5.793197e-01 8.881451e-01 5.396236e-01 2.739029e-01 2.652015e+00 2.593609e-01 -5.925848e-01 -2.110555e-01 -8.352371e-01 -7.149383e-01 -2.520660e-01 -2.357696e-01 7.519794e-02 -1.167661e-01 2.170520e-01 -2.721670e-02 -1.457626e-01 8.444937e-01
<VARIANCE> 39
 2.105162e+01 1.675542e+01 2.786883e+01 4.753477e+01 2.881579e+01 3.910030e+01 3.515196e+01 3.409051e+01 3.192021e+01 2.593270e+01 2.942610e+01 2.129258e+01 2.638095e+01 2.039299e+00 2.164926e+00 5.753884e+00 6.484495e+00 3.938770e+00 4.687592e+00 4.493393e+00 4.985448e+00 5.641428e+00 4.228159e+00 3.352100e+00 3.448086e+00 1.970096e+00 3.485816e-01 5.131711e-01 7.596263e-01 1.036525e+00 8.478379e-01 8.584734e-01 6.738154e-01 9.204229e-01 8.232427e-01 6.301593e-01 7.593653e-01 6.740011e-01 4.938717e-01
<GCONST> 1.279188e+02
<MIXTURE> 2 5.232734e-01
<MEAN> 39
 -1.382891e+00 -2.083435e+00 5.117959e+00 -2.598598e+00 -3.303266e+00 -5.631677e+00 -7.464008e+00 -5.722167e+00 -4.323563e+00 -1.253100e+00 -2.231129e+00 -4.118650e+00 6.256336e+01 -8.513986e-02 -2.267951e+00 -3.882928e-02 -2.921595e+00 -2.430553e+00 -1.451170e+00 -9.912907e-02 1.615580e+00 3.600213e-01 6.867847e-01 -3.044564e-01 4.735179e-01 2.880858e+00 -4.442115e-02 -3.991218e-01 1.219935e-01 -7.041612e-01 -6.539273e-01 -2.972627e-02 1.720395e-01 4.198370e-02 -2.073640e-01 4.876264e-02 -2.382973e-01 1.351822e-01 6.361777e-01
<VARIANCE> 39
 1.447408e+01 2.251724e+01 3.483058e+01 4.756151e+01 2.780001e+01 4.441026e+01 3.212096e+01 4.312758e+01 2.892981e+01 3.135619e+01 2.930051e+01 2.263396e+01 2.509516e+01 1.787079e+00 2.855888e+00 8.375492e+00 7.136507e+00 4.996575e+00 5.677053e+00 5.606638e+00 7.491947e+00 6.641865e+00 4.233247e+00 3.798234e+00 3.735300e+00 2.325345e+00 2.367353e-01 5.713265e-01 6.148133e-01 9.136549e-01 8.338339e-01 7.252526e-01 7.377610e-01 9.547688e-01 6.767132e-01 6.421801e-01 5.738735e-01 6.122606e-01 4.444147e-01
<GCONST> 1.292736e+02
<TRANSP> 5
 0.000000e+00 1.000000e+00 0.000000e+00 0.000000e+00 0.000000e+00
 0.000000e+00 5.077483e-01 4.922517e-01 0.000000e+00 0.000000e+00
 0.000000e+00 0.000000e+00 3.531373e-01 6.468627e-01 0.000000e+00
 0.000000e+00 0.000000e+00 0.000000e+00 4.512828e-01 5.487173e-01
 0.000000e+00 0.000000e+00 0.000000e+00 0.000000e+00 0.000000e+00
<ENDHMM>
~h "d"
<BEGINHMM>
<NUMSTATES> 5
<STATE> 2
<NUMMIXES> 2
<MIXTURE> 1 5.126293e-01
<MEAN> 39
 -3.069162e+00 2.750799e+00 9.190796e+00 2.702451e+00 -2.086269e+00 -3.331871e+00 -4.329013e+00 -4.492776e+00 -2.943067e+00 -3.445167e+00 -4.275830e+00 -3.652322e+00 5.656856e+01 -4.331649e-01 7.905129e-02 2.967108e-01 2.868039e-01 5.817741e-01 4.437653e-01 4.250501e-01 2.802112e-01 1.767291e-02 -1.438512e-01 1.563363e-01 -5.033380e-02 -2.416533e-02 -2.367489e-01 -5.281788e-01 -3.343413e-01 -6.842284e-01 -5.065086e-01 -2.741223e-01 -4.582266e-02 2.372861e-01 5.196987e-02 2.174717e-01 2.960180e-01 2.797837e-01 8.271955e-01
<VARIANCE> 39
 9.150064e+00 1.007784e+01 1.416138e+01 1.936162e+01 3.038865e+01 3.292527e+01 2.840527e+01 2.456365e+01 2.365888e+01 2.585304e+01 2.344300e+01 2.354515e+01 1.651241e+01 1.670153e+00 1.652939e+00 1.830265e+00 2.895736e+00 3.433662e+00 3.450976e+00 2.874842e+00 2.530885e+00 2.360129e+00 2.187479e+00 2.324000e+00 2.664458e+00 2.937288e+00 2.330114e-01 2.375675e-01 3.280056e-01 5.763655e-01 9.646341e-01 8.122578e-01 5.924075e-01 5.394915e-01 5.369685e-01 4.558852e-01 4.086486e-01 4.456172e-01 5.712854e-01
<GCONST> 1.128726e+02
<MIXTURE> 2 4.873416e-01
<MEAN> 39
 -4.546550e+00 2.362420e-01 5.973361e+00 -1.897144e-01 -2.837451e+00 -5.054160e+00 -4.895671e+00 -3.728112e+00 -2.001983e+00 -2.952750e+00 -3.648589e+00 -2.193093e+00 6.019573e+01 -2.534524e-01 -3.208113e-01 -1.006094e-02 -6.970275e-01 -9.076269e-01 -1.043025e+00 -2.482982e-01 2.373950e-01 -3.776894e-01 -1.687448e-01 3.502843e-01 2.636999e-01 1.465364e+00 1.101916e-01 -5.258473e-01 -2.013331e-01 -9.403697e-01 -9.783725e-01 -5.182167e-01 -8.257135e-02 1.475442e-01 -4.042858e-02 2.064117e-01 7.586300e-02 1.261264e-01 1.009779e+00
<VARIANCE> 39
 1.804320e+01 2.474203e+01 2.860721e+01 4.193426e+01 4.661190e+01 6.156868e+01 4.850113e+01 3.817902e+01 3.584958e+01 3.957426e+01 3.545772e+01 3.214128e+01 4.890945e+01 2.627433e+00 2.762250e+00 2.589786e+00 3.902944e+00 4.436520e+00 4.224008e+00 4.235095e+00 4.539271e+00 3.675443e+00 3.292108e+00 3.677205e+00 3.109153e+00 3.301809e+00 2.833252e-01 4.265690e-01 4.570183e-01 7.734536e-01 9.656304e-01 9.778373e-01 8.801572e-01 7.746739e-01 6.805922e-01 6.163808e-01 5.793251e-01 5.477104e-01 5.294901e-01
<GCONST> 1.286006e+02
<STATE> 3
<NUMMIXES> 2
<MIXTURE> 1 4.960304e-01
<MEAN> 39
 -4.703238e+00 -2.994667e+00 4.042056e+00 -4.745808e+00 -5.757597e+00 -9.912788e+00 -6.937739e+00 -1.162582e+00 -1.101758e+00 -1.703458e+00 -1.950659e+00 -1.477467e+00 6.770695e+01 -4.286699e-02 -1.319055e+00 9.724326e-02 -1.434021e+00 -2.362645e+00 -1.807058e+00 -4.322206e-01 9.442961e-01 -2.244380e-01 1.543509e-02 8.277051e-01 7.809460e-01 2.341184e+00 2.505630e-01 -1.964521e-01 1.554055e-01 -3.288585e-01 -6.824922e-01 6.265873e-02 6.440260e-02 -5.162339e-02 -2.035181e-01 1.680316e-01 4.709053e-02 -1.989998e-01 2.036064e-01
<VARIANCE> 39
 1.973661e+01 2.100616e+01 2.780664e+01 4.291597e+01 5.405250e+01 5.806358e+01 5.961937e+01 4.245463e+01 3.847917e+01 3.964324e+01 3.940406e+01 3.768932e+01 2.553375e+01 1.521228e+00 2.068634e+00 2.826238e+00 4.260363e+00 4.922338e+00 5.119819e+00 5.320293e+00 4.166397e+00 4.225019e+00 3.237051e+00 3.028428e+00 2.724491e+00 3.204069e+00 3.348902e-01 2.768494e-01 3.898577e-01 5.218199e-01 6.441857e-01 5.961038e-01 7.480109e-01 6.238885e-01 5.247495e-01 4.578130e-01 4.556367e-01 5.520889e-01 2.166644e-01
<GCONST> 1.243753e+02
<MIXTURE> 2 5.039641e-01
<MEAN> 39
 -8.161177e+00 -1.791191e+00 4.014586e+00 -3.850035e+00 -3.839749e+00 -5.313956e+00 -3.019147e+00 -1.770030e+00 -3.066328e+00 -2.630335e+00 -1.109108e+00 -4.926426e-01 6.520594e+01 -9.593382e-02 -1.666464e+00 -5.652537e-01 -3.180053e+00 -3.238428e+00 -2.155337e+00 -4.454824e-01 3.086139e-01 -1.240789e-01 7.220729e-01 4.509715e-01 5.746272e-01 3.875128e+00 5.755658e-01 -1.679720e-01 3.080615e-01 -5.692001e-01 -9.040270e-01 -2.918580e-01 -2.610807e-01 -2.953911e-01 -4.711200e-02 1.766853e-01 -4.494159e-01 -1.293280e-01 2.677310e-01
<VARIANCE> 39
 1.867539e+01 1.761774e+01 2.551871e+01 3.028976e+01 4.796411e+01 5.026487e+01 3.642067e+01 2.850706e+01 2.842743e+01 2.790887e+01 2.707866e+01 2.297536e+01 2.369856e+01 2.048404e+00 2.305729e+00 4.176455e+00 3.977485e+00 6.395802e+00 5.237548e+00 5.373557e+00 5.424160e+00 4.792768e+00 4.166613e+00 3.689454e+00 3.015597e+00 2.595580e+00 3.770645e-01 4.577489e-01 7.364801e-01 6.962115e-01 8.077470e-01 8.728021e-01 8.839399e-01 7.962543e-01 6.703652e-01 6.822878e-01 6.536880e-01 6.398102e-01 3.474918e-01
<GCONST> 1.268987e+02
<STATE> 4
<NUMMIXES> 2
<MIXTURE> 1 4.846267e-01
<MEAN> 39
 -3.047796e+00 -4.482536e+00 4.625215e+00 -6.099599e+00 -1.018345e+01 -1.371096e+01 -9.199755e+00 -4.497923e-01 -1.083179e+00 -1.041812e+00 -4.572639e-01 -1.138072e+00 7.107720e+01 6.729191e-01 -1.588701e+00 1.564434e-01 -1.672459e+00 -3.096624e+00 -1.684513e+00 -5.088044e-01 8.775223e-01 -1.852048e-01 4.238563e-01 6.791354e-01 3.788537e-01 2.272297e+00 6.245480e-02 2.349389e-01 2.180418e-01 1.984732e-01 2.175401e-01 7.703325e-01 3.764884e-01 -2.367390e-01 -2.215286e-01 9.895379e-02 -1.555650e-01 -3.162588e-01 -6.141834e-01
<VARIANCE> 39
 1.067522e+01 1.762728e+01 2.890698e+01 5.145086e+01 4.621052e+01 4.525991e+01 5.494569e+01 5.299799e+01 4.370419e+01 3.852082e+01 4.258559e+01 3.660406e+01 1.409734e+01 1.834780e+00 2.330707e+00 4.002687e+00 5.054725e+00 5.664279e+00 5.610891e+00 6.000539e+00 5.424213e+00 5.262349e+00 4.158444e+00 3.843673e+00 3.636789e+00 2.162976e+00 2.368563e-01 2.090162e-01 2.987499e-01 3.817284e-01 5.631891e-01 5.404112e-01 6.166282e-01 5.266452e-01 5.234414e-01 4.190086e-01 4.320621e-01 4.725486e-01 2.875345e-01
<GCONST> 1.233210e+02
<MIXTURE> 2 5.153697e-01
<MEAN> 39
 -5.239208e+00 -3.664128e+00 4.344956e+00 -8.004105e+00 -1.301095e+01 -1.161133e+01 -4.287957e+00 -2.468716e+00 -3.072963e+00 -2.373203e+00 -2.135963e+00 8.002670e-01 7.083151e+01 1.498661e-01 -1.383620e+00 5.042418e-01 -2.981467e+00 -3.359656e+00 -1.023784e+00 7.410581e-02 -1.174670e-01 -4.844816e-01 9.189994e-01 -3.747719e-02 4.907232e-02 2.828977e+00 2.111716e-01 1.395784e-01 2.986684e-01 6.897055e-02 3.235441e-01 5.148414e-01 -1.145198e-01 -2.539625e-01 -3.975985e-02 1.082480e-01 -3.870552e-01 -3.166208e-01 -5.507778e-01
<VARIANCE> 39
 1.265401e+01 1.960700e+01 3.876924e+01 4.116166e+01 5.171206e+01 4.604788e+01 3.991013e+01 4.389973e+01 4.027720e+01 3.648530e+01 3.182189e+01 2.424420e+01 1.502577e+01 1.845285e+00 2.720577e+00 5.013907e+00 5.120007e+00 5.856057e+00 4.675842e+00 6.299981e+00 5.586000e+00 4.610250e+00 4.098981e+00 3.724636e+00 3.056078e+00 2.792741e+00 2.164344e-01 2.039305e-01 3.231743e-01 4.076589e-01 5.377322e-01 5.054644e-01 5.439132e-01 5.422802e-01 4.854493e-01 4.813325e-01 4.490205e-01 4.305746e-01 3.201142e-01
<GCONST> 1.226814e+02
<TRANSP> 5
 0.000000e+00 1.000000e+00 0.000000e+00 0.000000e+00 0.000000e+00
 0.000000e+00 6.227182e-01 3.772818e-01 0.000000e+00 0.000000e+00
 0.000000e+00 0.000000e+00 1.377398e-01 8.622602e-01 0.000000e+00
 0.000000e+00 0.000000e+00 0.000000e+00 9.410266e-02 9.058974e-01
 0.000000e+00 0.000000e+00 0.000000e+00 0.000000e+00 0.000000e+00
<ENDHMM>
~h "f"
<BEGINHMM>
<NUMSTATES> 5
<STATE> 2
<NUMMIXES> 2
<MIXTURE> 1 4.849872e-01
<MEAN> 39
 -1.010445e+01 -1.426545e+00 5.196078e+00 3.943791e-01 7.916946e-01 2.598374e-01 -6.547057e-01 5.870639e-01 -1.493136e+00 -1.326764e+00 -1.100555e+00 -6.261821e-01 6.190255e+01 -3.753760e+00 -3.038982e-01 1.923645e-01 1.705992e+00 1.649676e+00 1.493650e+00 1.439283e+00 1.970216e+00 2.070669e+00 1.356475e+00 1.499404e+00 1.413878e+00 -1.150380e+00 1.485446e-01 -6.206414e-01 -4.234842e-01 -8.003671e-01 -6.661841e-01 -3.555120e-01 -1.922173e-01 -1.939208e-02 3.516485e-02 2.482951e-01 1.096449e-01 1.565735e-01 5.192981e-01
<VARIANCE> 39
 2.047348e+01 1.091723e+01 1.890664e+01 1.524493e+01 1.778944e+01 2.332788e+01 2.088412e+01 2.171359e+01 2.275210e+01 2.247195e+01 2.052589e+01 1.681289e+01 1.759551e+01 2.304527e+00 2.458335e+00 3.623312e+00 3.379960e+00 3.690005e+00 3.467989e+00 3.118859e+00 3.523354e+00 3.175783e+00 2.824310e+00 3.152159e+00 2.297932e+00 1.457765e+00 4.163919e-01 3.096113e-01 3.581405e-01 4.921188e-01 4.387773e-01 5.029638e-01 4.908615e-01 5.553855e-01 5.127253e-01 4.824486e-01 4.331350e-01 4.336099e-01 1.676799e-01
<GCONST> 1.121305e+02
<MIXTURE> 2 5.150084e-01
<MEAN> 39
 -1.352486e+01 -2.485009e+00 4.559416e+00 8.089228e-01 1.217979e+00 1.082737e+00 1.464603e-01 2.227236e+00 3.212887e-01 1.458164e-01 2.398027e-01 9.087804e-01 6.231403e+01 -2.500663e+00 -9.840831e-01 -5.411026e-01 5.279804e-01 6.685692e-01 6.214171e-01 6.583879e-01 1.319371e+00 1.434397e+00 1.047832e+00 1.014262e+00 1.082225e+00 -2.128039e-01 6.011044e-01 -2.220194e-01 -2.565548e-01 -6.975373e-01 -6.489104e-01 -4.179322e-01 -3.390324e-01 -3.599941e-01 -2.646084e-01 -5.854611e-03 -4.033630e-02 -8.879259e-02 4.082904e-01
<VARIANCE> 39
 1.635683e+01 1.435319e+01 1.792483e+01 1.407150e+01 1.747064e+01 1.967018e+01 1.988279e+01 2.025704e+01 2.078358e+01 1.872084e+01 1.872188e+01 1.717686e+01 2.664400e+01 2.909159e+00 1.823685e+00 2.454906e+00 2.428955e+00 2.939406e+00 2.642021e+00 2.501823e+00 3.083305e+00 2.859747e+00 2.400987e+00 2.681762e+00 2.231193e+00 1.236197e+00 3.882083e-01 3.194150e-01 4.151873e-01 4.758774e-01 5.377183e-01 5.090315e-01 4.953693e-01 5.785796e-01 5.321729e-01 4.910081e-01 4.779661e-01 4.349351e-01 2.459311e-01
<GCONST> 1.104285e+02
<STATE> 3
<NUMMIXES> 2
<MIXTURE> 1 6.110064e-01
<MEAN> 39
 -1.760356e+01 -5.486652e+00 2.278400e+00 -6.546683e-02 1.263960e+00 1.744515e+00 1.041969e+00 4.011991e+00 2.887486e+00 3.033518e+00 3.410123e+00 3.924409e+00 6.118103e+01 -3.923032e-01 -3.450933e-01 -2.331066e-01 -1.010234e-01 -5.006206e-02 4.047557e-02 8.221672e-02 1.604576e-01 1.682067e-01 1.911461e-01 2.570309e-01 2.751543e-01 1.649671e-01 5.716442e-01 7.911596e-02 8.352536e-02 -1.633887e-01 -1.402110e-01 -1.736742e-01 -1.158903e-01 -2.299066e-01 -2.960123e-01 -2.541422e-01 -2.566467e-01 -2.634925e-01 1.527131e-01
<VARIANCE> 39
 1.000493e+01 1.182683e+01 1.419284e+01 1.016816e+01 1.242665e+01 1.387823e+01 1.478623e+01 1.478939e+01 1.489966e+01 1.469447e+01 1.382229e+01 1.234269e+01 1.546925e+01 1.081713e+00 8.044031e-01 9.377233e-01 1.017425e+00 1.054933e+00 1.269811e+00 1.330299e+00 1.372911e+00 1.447957e+00 1.605938e+00 1.483336e+00 1.461094e+00 9.111385e-01 2.689998e-01 1.893138e-01 2.233851e-01 2.636630e-01 2.903659e-01 3.004350e-01 3.166340e-01 3.497897e-01 3.555549e-01 3.373463e-01 3.218394e-01 2.990325e-01 1.751209e-01
<GCONST> 9.080744e+01
<MIXTURE> 2 3.889657e-01
<MEAN> 39
 -1.738581e+01 -6.445794e+00 1.978146e+00 -7.633655e-01 6.935756e-01 9.923429e-01 8.663574e-01 3.915748e+00 2.676572e+00 2.643116e+00 3.045531e+00 3.535784e+00 6.320544e+01 9.747956e-01 -3.031731e-01 -1.312591e-01 -6.984034e-01 -5.514460e-01 -6.184684e-01 -3.498900e-01 -4.873401e-01 -5.381904e-01 -4.592438e-01 -4.411910e-01 -4.024326e-01 6.140227e-01 1.259732e+00 3.480590e-01 1.489470e-01 -6.219410e-01 -6.274183e-01 -4.357323e-01 -4.261886e-01 -6.354246e-01 -6.859129e-01 -3.776164e-01 -4.655741e-01 -4.568047e-01 1.864370e-01
<VARIANCE> 39
 9.952504e+00 1.344588e+01 1.703152e+01 1.268156e+01 1.419492e+01 1.626815e+01 1.648928e+01 1.672769e+01 1.653122e+01 1.607885e+01 1.522389e+01 1.344242e+01 1.647172e+01 3.209827e+00 1.541853e+00 1.959202e+00 1.808487e+00 1.867903e+00 2.090783e+00 1.871052e+00 2.119296e+00 2.174501e+00 1.988628e+00 1.899933e+00 1.759109e+00 1.436579e+00 2.894053e-01 3.587193e-01 5.007870e-01 6.405154e-01 4.962651e-01 5.347717e-01 4.999376e-01 5.824050e-01 4.989442e-01 4.546722e-01 5.206397e-01 3.739808e-01 2.881100e-01
<GCONST> 1.050271e+02
<STATE> 4
<NUMMIXES> 2
<MIXTURE> 1 5.292158e-01
<MEAN> 39
 -1.058521e+01 -5.311248e+00 1.607485e+00 -3.299653e+00 -5.242675e-01 -4.841055e-01 -6.349995e-01 1.694760e+00 1.150995e-01 5.348023e-01 6.404877e-01 1.259586e+00 6.420852e+01 4.674520e+00 8.836691e-01 1.990681e-02 -2.649701e+00 -2.654387e+00 -1.498345e+00 -1.100491e+00 -1.424534e+00 -2.272661e+00 -1.063718e+00 -5.641001e-01 -1.124506e+00 8.803219e-01 3.432871e-01 -1.172962e-01 1.623858e-02 -4.842525e-01 -5.653678e-01 -1.755595e-01 -2.682750e-01 -1.595770e-01 -2.976020e-01 1.735150e-01 2.340862e-01 -9.736466e-02 3.224915e-01
<VARIANCE> 39
 3.897501e+01 1.606912e+01 2.648378e+01 2.881495e+01 2.307844e+01 2.866366e+01 2.240940e+01 2.239455e+01 2.244357e+01 1.852975e+01 1.675641e+01 1.460007e+01 1.726471e+01 2.014979e+00 3.016038e+00 4.752058e+00 6.309196e+00 3.254551e+00 4.325741e+00 3.526955e+00 3.384278e+00 3.534603e+00 3.051832e+00 3.541517e+00 2.339594e+00 1.191046e+00 6.671412e-01 4.616452e-01 4.050865e-01 7.624977e-01 5.645322e-01 5.570441e-01 6.485988e-01 5.742152e-01 6.649975e-01 5.506871e-01 5.881038e-01 4.327715e-01 2.430366e-01
<GCONST> 1.185586e+02
<MIXTURE> 2 4.707816e-01
<MEAN> 39
 -1.193040e+01 -5.286134e+00 3.265249e+00 -2.681038e+00 -1.626477e+00 -1.015693e+00 1.591530e-01 1.426652e+00 -6.922489e-01 -3.063628e-01 7.041187e-01 1.286276e+00 6.325981e+01 4.581254e+00 1.613051e-01 -1.058698e-01 -3.691296e+00 -2.934167e+00 -1.965893e+00 -1.854529e+00 -2.661453e+00 -2.425840e+00 -9.232631e-01 -2.142833e+00 -1.726564e+00 1.679577e+00 3.555731e-01 -1.212792e-01 -4.976616e-02 -7.559559e-01 -4.626509e-01 -1.147627e-01 -3.743802e-01 -2.926888e-01 -7.887944e-02 3.374434e-01 -2.451024e-01 -9.096273e-02 4.071884e-01
<VARIANCE> 39
 3.368713e+01 1.172884e+01 3.272940e+01 2.616106e+01 2.579659e+01 2.609487e+01 2.656883e+01 2.595639e+01 2.244035e+01 1.989473e+01 1.797812e+01 1.568334e+01 1.544209e+01 1.587146e+00 3.426022e+00 7.259390e+00 5.573515e+00 4.078247e+00 4.280753e+00 3.813248e+00 4.397037e+00 3.742126e+00 3.315173e+00 3.327902e+00 2.219863e+00 1.772564e+00 5.941679e-01 4.304498e-01 4.289027e-01 7.918169e-01 5.909259e-01 7.045507e-01 6.696033e-01 7.657845e-01 6.599656e-01 6.071039e-01 6.201724e-01 4.560509e-01 2.540361e-01
<GCONST> 1.205650e+02
<TRANSP> 5
 0.000000e+00 1.000000e+00 0.000000e+00 0.000000e+00 0.000000e+00
 0.000000e+00 5.951182e-01 4.048818e-01 0.000000e+00 0.000000e+00
 0.000000e+00 0.000000e+00 8.281848e-01 1.718152e-01 0.000000e+00
 0.000000e+00 0.000000e+00 0.000000e+00 4.563694e-01 5.436306e-01
 0.000000e+00 0.000000e+00 0.000000e+00 0.000000e+00 0.000000e+00
<ENDHMM>
~h "g"
<BEGINHMM>
<NUMSTATES> 5
<STATE> 2
<NUMMIXES> 2
<MIXTURE> 1 5.364499e-01
<MEAN> 39
 -2.304243e+00 -1.020006e+00 5.718854e+00 -2.304584e+00 -4.072628e+00 -4.975006e+00 -5.323082e+00 -3.965968e+00 -4.620263e+00 2.226666e-01 -1.324799e+00 -1.366179e+00 6.084531e+01 -2.942672e-01 6.357427e-01 -1.616568e-01 5.200501e-01 9.313614e-01 8.888077e-01 9.328739e-01 1.314159e-01 -2.340778e-01 -1.270686e-01 2.417658e-01 4.328267e-01 -1.147382e+00 8.103802e-03 -4.737418e-01 -2.969395e-01 -6.845341e-01 -4.973378e-01 -1.570655e-01 -1.137341e-02 2.452178e-01 2.384994e-02 1.955673e-02 -2.776130e-02 -1.693765e-02 7.474095e-01
<VARIANCE> 39
 1.659318e+01 2.004989e+01 3.091470e+01 4.806768e+01 5.053553e+01 5.849218e+01 5.072026e+01 5.232065e+01 4.174433e+01 4.015955e+01 5.199927e+01 2.992793e+01 3.039635e+01 1.385505e+00 2.319104e+00 3.119154e+00 4.515226e+00 4.864788e+00 4.413830e+00 4.744938e+00 4.035414e+00 4.082037e+00 3.614454e+00 3.204437e+00 2.721989e+00 2.441246e+00 2.743987e-01 3.598988e-01 4.908505e-01 8.104261e-01 8.695190e-01 7.954175e-01 8.156258e-01 6.836644e-01 6.892557e-01 6.175889e-01 6.716013e-01 5.816043e-01 4.314765e-01
<GCONST> 1.276091e+02
<MIXTURE> 2 4.635486e-01
<MEAN> 39
 -4.997268e+00 -2.653303e+00 2.703019e+00 -2.669145e+00 -5.079905e-01 -1.283496e+00 -2.706580e+00 -2.883926e+00 -3.697294e+00 6.811706e-01 -1.665666e+00 -3.012588e-01 6.012236e+01 1.960082e-01 -3.089735e-01 -1.200247e+00 -1.287202e+00 1.627475e-01 -3.662818e-01 -1.719912e-01 4.189223e-01 -5.816619e-01 3.789343e-01 8.548193e-02 2.422709e-01 8.977088e-01 4.873753e-01 -1.206810e-01 3.213971e-02 -8.234454e-01 -1.104586e+00 -6.001173e-01 -4.006023e-01 -1.669153e-01 -1.277900e-01 -2.297397e-02 -1.909690e-01 -1.166565e-01 7.802704e-01
<VARIANCE> 39
 2.541393e+01 2.750392e+01 5.363208e+01 5.507639e+01 7.325880e+01 5.943624e+01 5.379075e+01 4.769462e+01 4.368130e+01 4.140411e+01 3.990721e+01 3.042136e+01 3.751300e+01 2.008301e+00 3.213224e+00 4.747490e+00 5.849906e+00 6.446845e+00 5.670354e+00 5.387084e+00 5.244103e+00 4.657307e+00 4.522344e+00 3.854397e+00 2.890107e+00 3.027152e+00 3.534871e-01 6.175784e-01 8.509873e-01 1.081040e+00 1.227816e+00 1.001438e+00 9.198287e-01 9.766924e-01 8.901237e-01 8.608499e-01 8.252361e-01 6.971989e-01 5.036468e-01
<GCONST> 1.363567e+02
<STATE> 3
<NUMMIXES> 2
<MIXTURE> 1 4.886323e-01
<MEAN> 39
 -5.972707e-01 -1.636527e+00 4.430337e+00 -5.116065e+00 -7.642043e+00 -7.663717e+00 -5.932848e+00 -1.885095e+00 -6.268141e+00 -2.732357e-01 -1.839979e-01 -7.078698e-02 6.371585e+01 3.610120e-01 -1.535773e-01 -1.889587e-01 -8.503961e-01 -1.257938e+00 -6.267055e-01 -1.859157e-02 1.134192e-01 -2.328534e-01 8.790075e-02 3.118008e-01 4.853548e-02 8.110788e-01 7.616922e-02 -5.168667e-01 -1.989015e-01 -3.376395e-01 -2.933320e-01 -2.319385e-02 -9.302102e-02 1.839678e-01 2.416667e-01 5.066914e-02 -1.128682e-02 -3.709721e-01 5.754049e-01
<VARIANCE> 39
 1.151829e+01 2.840926e+01 3.253346e+01 5.432674e+01 4.758543e+01 7.241115e+01 4.721847e+01 5.547431e+01 5.090268e+01 4.531940e+01 5.477541e+01 3.525920e+01 2.564143e+01 9.236126e-01 1.823787e+00 1.941473e+00 4.103125e+00 3.739951e+00 3.161366e+00 3.489321e+00 3.629910e+00 3.131944e+00 3.034945e+00 3.164443e+00 2.514509e+00 1.602381e+00 1.191624e-01 2.885480e-01 3.416259e-01 4.392689e-01 5.285493e-01 6.029037e-01 6.919715e-01 5.707412e-01 6.196432e-01 5.657507e-01 4.588902e-01 5.566058e-01 2.909126e-01
<GCONST> 1.209303e+02
<MIXTURE> 2 5.113683e-01
<MEAN> 39
 -3.042765e+00 -2.069389e+00 2.010341e+00 -5.935820e+00 -4.112526e+00 -5.109845e+00 -4.704526e+00 -3.433128e+00 -5.381896e+00 1.931762e+00 -2.313496e+00 -5.807451e-03 6.319630e+01 8.602766e-01 -6.211544e-01 -7.343862e-01 -2.358218e+00 -1.847412e+00 -1.313488e+00 -4.745715e-01 2.979120e-01 -4.614752e-01 2.839337e-01 -2.333587e-01 -1.599251e-01 1.984745e+00 2.539293e-01 -3.430459e-01 4.174251e-02 -4.309687e-01 -6.529862e-01 -7.624830e-02 -8.623169e-02 -1.050465e-02 1.513313e-01 -2.011530e-01 -1.408902e-01 -2.467905e-01 4.951945e-01
<VARIANCE> 39
 2.059678e+01 2.559366e+01 4.674781e+01 4.744118e+01 6.972926e+01 6.366570e+01 5.881884e+01 5.057267e+01 4.232516e+01 4.683666e+01 4.757053e+01 3.075545e+01 2.528374e+01 2.057813e+00 2.852289e+00 3.125056e+00 6.035919e+00 5.940362e+00 4.618590e+00 4.437350e+00 5.637946e+00 4.583030e+00 4.359993e+00 4.754137e+00 3.071477e+00 2.509221e+00 2.172264e-01 4.658203e-01 5.505226e-01 6.316059e-01 8.819811e-01 8.432871e-01 9.637339e-01 8.390869e-01 7.602988e-01 7.813874e-01 5.990672e-01 6.183566e-01 4.041882e-01
<GCONST> 1.317147e+02
<STATE> 4
<NUMMIXES> 2
<MIXTURE> 1 5.127203e-01
<MEAN> 39
 -8.283011e-01 -4.991094e+00 4.363802e+00 -7.809231e+00 -1.284122e+01 -1.044911e+01 -5.950033e+00 -1.587301e-01 -6.111956e+00 6.670693e-01 3.365335e-01 -1.930774e+00 6.908311e+01 4.503798e-01 -9.957356e-01 -4.052372e-01 -8.270166e-01 -1.091466e+00 -2.184023e-01 -3.148003e-01 4.578807e-01 5.988796e-01 -1.461092e-01 2.449061e-01 -6.687042e-01 1.157569e+00 -5.913566e-03 3.575641e-02 -9.525822e-03 3.435068e-01 6.642170e-01 4.358796e-01 -4.533431e-02 -7.084849e-02 2.860948e-01 -1.480265e-01 -1.275918e-01 -6.125725e-02 -4.457588e-01
<VARIANCE> 39
 1.348652e+01 3.390759e+01 3.714520e+01 6.257905e+01 6.207149e+01 8.204973e+01 5.850546e+01 8.817977e+01 5.514934e+01 4.470584e+01 7.315416e+01 4.958382e+01 2.377950e+01 8.007031e-01 1.692646e+00 1.919541e+00 3.842586e+00 4.926510e+00 3.215272e+00 3.719573e+00 4.135369e+00 3.668731e+00 3.154391e+00 2.840994e+00 2.847743e+00 1.588987e+00 1.418396e-01 3.033429e-01 3.086661e-01 5.496238e-01 8.136828e-01 6.481252e-01 7.078319e-01 6.933392e-01 5.060423e-01 6.007254e-01 5.869902e-01 5.100099e-01 3.941368e-01
<GCONST> 1.250140e+02
<MIXTURE> 2 4.872790e-01
<MEAN> 39
 -3.147307e-01 -2.384223e+00 1.250680e+00 -1.111517e+01 -9.082753e+00 -6.991328e+00 -5.435980e+00 -3.020889e+00 -7.020709e+00 2.035807e+00 -1.739381e+00 -1.342792e+00 6.658560e+01 8.182505e-01 -9.732792e-01 -7.705647e-01 -2.215908e+00 -1.788477e+00 -7.109810e-01 -2.202992e-01 3.399479e-01 -5.565504e-02 -1.089417e-01 -2.063929e-01 -6.651148e-01 2.014700e+00 -7.900560e-02 -2.228619e-01 6.190180e-02 3.436135e-01 2.435111e-01 3.636012e-01 3.647815e-02 -3.702204e-03 2.793780e-01 -2.810350e-01 -3.560633e-02 -1.138105e-01 -1.177313e-01
<VARIANCE> 39
 1.672285e+01 3.291232e+01 4.630260e+01 5.849120e+01 6.361954e+01 6.521567e+01 5.795741e+01 7.194323e+01 5.307907e+01 5.750253e+01 7.693006e+01 3.777723e+01 2.412141e+01 1.680267e+00 2.757136e+00 2.526618e+00 5.581997e+00 5.706731e+00 4.260775e+00 4.374019e+00 5.318089e+00 5.027980e+00 4.009517e+00 3.996653e+00 3.668374e+00 2.022862e+00 1.488245e-01 2.740737e-01 3.572415e-01 5.308267e-01 7.904441e-01 6.661434e-01 7.000281e-01 7.585604e-01 6.341653e-01 7.973976e-01 6.658878e-01 4.581766e-01 3.044760e-01
<GCONST> 1.294558e+02
<TRANSP> 5
 0.000000e+00 1.000000e+00 0.000000e+00 0.000000e+00 0.000000e+00
 0.000000e+00 5.503356e-01 4.496644e-01 0.000000e+00 0.000000e+00
 0.000000e+00 0.000000e+00 2.436621e-01 7.563379e-01 0.000000e+00
 0.000000e+00 0.000000e+00 0.000000e+00 3.738389e-01 6.261611e-01
 0.000000e+00 0.000000e+00 0.000000e+00 0.000000e+00 0.000000e+00
<ENDHMM>
~h "k"
<BEGINHMM>
<NUMSTATES> 5
<STATE> 2
<NUMMIXES> 2
<MIXTURE> 1 5.237983e-01
<MEAN> 39
 -6.355665e+00 -1.378700e+00 7.048626e+00 9.216219e-01 -1.863249e+00 -3.037879e+00 -7.444649e-01 -5.280404e-01 -1.394239e+00 9.122251e-01 -6.582260e-01 1.061812e-02 5.731466e+01 -1.758376e+00 -1.269912e-01 -2.472577e-01 2.048403e+00 2.363130e+00 2.417074e+00 1.894035e+00 1.304816e+00 2.409142e+00 8.926420e-01 1.562439e+00 1.085440e+00 -3.260270e+00 -8.812086e-02 -7.313054e-01 -5.451044e-01 -9.361791e-01 -4.759411e-01 -5.409462e-02 -3.643060e-02 2.134947e-01 2.619790e-02 1.424470e-01 1.498164e-01 1.524384e-01 8.288741e-01
<VARIANCE> 39
 1.424490e+01 1.550237e+01 3.063644e+01 2.802160e+01 3.893922e+01 4.514460e+01 3.491976e+01 4.069975e+01 3.312492e+01 3.246029e+01 3.344275e+01 2.339501e+01 1.421740e+01 1.446317e+00 2.437921e+00 3.749039e+00 4.264975e+00 4.585873e+00 3.899431e+00 3.683361e+00 4.975636e+00 4.007795e+00 3.467824e+00 4.599155e+00 2.734049e+00 1.934003e+00 2.244272e-01 3.125475e-01 4.083918e-01 4.571617e-01 5.306599e-01 6.068931e-01 6.010661e-01 6.150746e-01 6.244097e-01 5.832146e-01 5.474645e-01 4.385022e-01 2.925163e-01
<GCONST> 1.203756e+02
<MIXTURE> 2 4.761800e-01
<MEAN> 39
 -8.173299e+00 -2.310224e+00 5.868825e+00 1.333629e+00 -1.029986e-01 1.039816e-01 9.509681e-01 6.302122e-01 7.660024e-01 1.582546e+00 9.755474e-01 8.166280e-01 5.468872e+01 -1.401099e+00 -9.372271e-01 -6.317920e-01 6.417018e-01 1.205588e+00 1.488389e+00 1.268694e+00 1.134536e+00 1.671855e+00 8.617485e-01 1.175300e+00 1.025697e+00 -1.620668e+00 1.455435e-01 -5.299042e-01 -6.409153e-01 -1.082151e+00 -5.142543e-01 -4.624979e-01 -3.567231e-01 -5.659932e-03 -4.829751e-01 9.998156e-02 -1.087607e-01 5.917802e-02 1.282630e+00
<VARIANCE> 39
 1.313796e+01 1.237332e+01 2.241823e+01 2.244178e+01 2.659387e+01 3.390771e+01 2.650080e+01 3.308966e+01 2.938173e+01 2.959314e+01 2.810510e+01 2.319076e+01 1.041686e+01 1.701015e+00 1.885924e+00 3.214011e+00 3.659642e+00 4.016375e+00 3.744469e+00 3.292460e+00 3.827374e+00 3.962220e+00 2.970459e+00 3.424395e+00 2.545922e+00 2.308213e+00 2.778161e-01 3.423847e-01 6.081266e-01 5.909993e-01 6.768311e-01 6.650432e-01 5.996869e-01 6.884525e-01 7.276385e-01 6.452969e-01 6.849536e-01 5.026736e-01 4.232081e-01
<GCONST> 1.187623e+02
<STATE> 3
<NUMMIXES> 2
<MIXTURE> 1 5.978050e-01
<MEAN> 39
 -1.028378e+01 -4.431504e+00 4.095805e+00 5.323205e-01 9.615825e-01 2.843282e+00 3.460048e+00 2.409956e+00 3.963924e+00 3.687191e+00 3.813677e+00 4.027975e+00 5.220229e+01 -4.520571e-01 -6.460667e-01 -9.538490e-01 -6.540328e-01 3.235798e-01 4.272827e-01 3.470840e-01 4.302906e-01 1.752551e-01 4.206869e-01 3.840399e-01 5.154746e-01 1.872444e-01 2.773454e-01 -6.695251e-03 -2.782109e-01 -5.832711e-01 -2.529723e-01 -4.727480e-01 -4.015037e-01 -2.116453e-01 -6.136051e-01 -1.422989e-01 -4.373460e-01 -2.226315e-01 9.713203e-01
<VARIANCE> 39
 4.580256e+00 6.499339e+00 1.088626e+01 1.358175e+01 1.694565e+01 1.802093e+01 1.654735e+01 1.859767e+01 1.793582e+01 1.885570e+01 1.649236e+01 1.423214e+01 7.532468e+00 1.175990e+00 1.421898e+00 2.910033e+00 3.380551e+00 2.421617e+00 2.765850e+00 2.340550e+00 2.566208e+00 3.030597e+00 2.468461e+00 2.207790e+00 1.846927e+00 2.451116e+00 2.484818e-01 2.551686e-01 5.684223e-01 5.869758e-01 5.371442e-01 5.349801e-01 4.726645e-01 5.578297e-01 5.801639e-01 5.183238e-01 4.636962e-01 3.626058e-01 3.735148e-01
<GCONST> 1.052229e+02
<MIXTURE> 2 4.021578e-01
<MEAN> 39
 -1.079510e+01 -5.188927e+00 3.096917e+00 3.407570e-01 1.282194e+00 1.952508e+00 3.012825e+00 2.809355e+00 3.145873e+00 4.063149e+00 3.466983e+00 4.110569e+00 5.384318e+01 -3.989932e-01 -1.548281e+00 -2.237319e+00 -1.692698e+00 3.795826e-01 -4.298672e-01 -3.696321e-01 4.627025e-01 -8.136816e-01 4.579474e-01 -3.607393e-01 4.112568e-01 2.509902e+00 6.005670e-01 2.468715e-01 -1.540290e-01 -8.220855e-01 -6.607659e-01 -7.214049e-01 -6.150514e-01 -4.329160e-01 -8.138071e-01 -3.260546e-01 -5.547698e-01 -4.617942e-01 1.175269e+00
<VARIANCE> 39
 1.015069e+01 1.349499e+01 1.841260e+01 2.120587e+01 2.544980e+01 2.689133e+01 2.303254e+01 2.448377e+01 2.355162e+01 2.309208e+01 1.934729e+01 1.720540e+01 1.592152e+01 2.481703e+00 2.769289e+00 4.747490e+00 5.382969e+00 5.399752e+00 5.820156e+00 4.341010e+00 4.574790e+00 4.710954e+00 3.998411e+00 3.699355e+00 2.984654e+00 4.075243e+00 3.354068e-01 4.121246e-01 6.147918e-01 6.210993e-01 7.986756e-01 6.928401e-01 5.898979e-01 7.213532e-01 6.976520e-01 6.143674e-01 6.469339e-01 4.673114e-01 4.359776e-01
<GCONST> 1.213876e+02
<STATE> 4
<NUMMIXES> 2
<MIXTURE> 1 5.184970e-01
<MEAN> 39
 -1.034029e+01 -7.089879e+00 -3.515155e+00 -7.523910e+00 1.585569e+00 9.645334e-01 8.520921e-01 3.673602e+00 -1.018058e+00 4.778990e+00 2.640500e+00 3.446001e+00 6.226615e+01 7.740352e-01 7.571274e-01 -1.641563e-01 -1.415462e+00 -1.175741e+00 -8.106338e-01 -7.049748e-01 -4.565372e-01 -1.115945e+00 -6.042047e-01 -2.635365e-01 -5.480856e-01 1.808419e+00 5.843133e-01 5.272719e-01 9.216500e-01 3.095552e-01 -6.914532e-01 -2.914862e-01 -2.010373e-01 -4.755540e-01 -8.575557e-02 -4.892322e-01 -1.106037e-01 -3.832177e-01 -2.636455e-01
<VARIANCE> 39
 3.492833e+01 3.021844e+01 5.749681e+01 6.979622e+01 5.579936e+01 5.454630e+01 4.314211e+01 4.036720e+01 4.644237e+01 3.893387e+01 3.243746e+01 2.499376e+01 2.664343e+01 4.643674e+00 2.972811e+00 6.231799e+00 5.180872e+00 5.824938e+00 4.620716e+00 3.575937e+00 4.398646e+00 3.875824e+00 3.986383e+00 3.097585e+00 2.950232e+00 3.191229e+00 5.107476e-01 7.018389e-01 8.458288e-01 9.805332e-01 1.040281e+00 9.833046e-01 9.309787e-01 8.764368e-01 9.385225e-01 7.823861e-01 6.990848e-01 6.282187e-01 4.701300e-01
<GCONST> 1.348783e+02
<MIXTURE> 2 4.814630e-01
<MEAN> 39
 -9.494599e+00 -7.144003e+00 -3.402630e+00 -7.149320e+00 9.731647e-01 -1.027746e+00 1.388588e-01 1.814888e+00 -2.045841e+00 4.433656e+00 -1.693684e-01 3.743854e+00 6.398724e+01 2.395491e+00 6.765972e-01 -1.483771e-01 -2.958483e+00 -2.607452e+00 -2.025352e+00 -1.810308e+00 -1.415058e+00 -2.301225e+00 -1.013572e+00 -1.668885e+00 -1.579895e+00 3.033918e+00 6.196938e-01 1.791094e-01 6.201279e-01 -1.565251e-01 -7.084370e-01 -9.342207e-02 -1.428438e-01 -2.497262e-01 6.215649e-03 -3.613172e-01 -1.681578e-02 -5.201644e-01 -1.704941e-01
<VARIANCE> 39
 3.238311e+01 3.514629e+01 5.859574e+01 5.382766e+01 6.530066e+01 5.526596e+01 4.329844e+01 4.960826e+01 4.334240e+01 4.042142e+01 3.280883e+01 2.701965e+01 2.545687e+01 2.001197e+00 2.796304e+00 5.542531e+00 4.828401e+00 6.010645e+00 4.458356e+00 4.005932e+00 4.953395e+00 3.803789e+00 4.150992e+00 3.856225e+00 3.145644e+00 2.510412e+00 4.642794e-01 7.580743e-01 8.466578e-01 9.260959e-01 1.219399e+00 1.144808e+00 1.026499e+00 1.021405e+00 9.700438e-01 9.145680e-01 7.967301e-01 7.294930e-01 4.745577e-01
<GCONST> 1.352733e+02
<TRANSP> 5
 0.000000e+00 1.000000e+00 0.000000e+00 0.000000e+00 0.000000e+00
 0.000000e+00 5.153898e-01 4.846102e-01 0.000000e+00 0.000000e+00
 0.000000e+00 0.000000e+00 6.879027e-01 3.120973e-01 0.000000e+00
 0.000000e+00 0.000000e+00 0.000000e+00 6.451891e-01 3.548109e-01
 0.000000e+00 0.000000e+00 0.000000e+00 0.000000e+00 0.000000e+00
<ENDHMM>
~h "l"
<BEGINHMM>
<NUMSTATES> 5
<STATE> 2
<NUMMIXES> 2
<MIXTURE> 1 4.819804e-01
<MEAN> 39
 -4.004792e+00 -4.134503e+00 6.682984e+00 -3.455961e+00 -6.123335e+00 -6.944786e+00 -8.735139e+00 -3.099512e+00 -4.073515e-01 -1.392469e+00 -9.349971e-01 -9.941484e-01 6.441202e+01 -8.915916e-02 1.364085e+00 1.182420e+00 4.798658e-01 4.856078e-01 2.600347e-01 -1.110685e+00 -1.452472e+00 -1.680893e-01 -4.194014e-01 -4.237721e-01 3.583796e-02 -6.875972e-01 5.601402e-02 -2.022743e-01 -2.208477e-01 -3.723843e-01 -1.678248e-01 2.091383e-01 2.591070e-01 1.999314e-01 -8.543056e-02 1.130684e-01 -8.254444e-02 -9.669979e-02 2.404584e-01
<VARIANCE> 39
 2.537800e+01 2.127650e+01 3.340322e+01 4.510555e+01 5.166491e+01 7.091784e+01 8.051443e+01 5.697605e+01 4.811285e+01 4.653548e+01 4.731579e+01 4.783909e+01 5.090217e+01 1.683484e+00 1.848135e+00 2.404154e+00 3.537010e+00 4.343211e+00 4.878158e+00 5.300344e+00 4.767025e+00 3.739172e+00 3.418566e+00 3.282112e+00 3.351217e+00 2.313996e+00 2.771333e-01 3.784510e-01 3.855782e-01 5.586978e-01 6.700909e-01 9.624498e-01 1.075914e+00 8.154463e-01 7.004982e-01 6.954328e-01 6.477799e-01 5.534193e-01 2.558179e-01
<GCONST> 1.291674e+02
<MIXTURE> 2 5.180181e-01
<MEAN> 39
 -3.458179e+00 -4.616666e+00 7.364929e+00 -6.653677e+00 -8.903784e+00 -8.610821e+00 -1.148107e+01 -4.031188e+00 9.063484e-02 -3.732949e+00 -3.699526e+00 7.190323e-01 6.696490e+01 3.441954e-01 1.118970e+00 1.515688e+00 -3.788019e-01 -9.821499e-02 -1.741073e-01 -2.169597e+00 -1.567372e+00 1.404242e-01 -5.687870e-01 -8.604631e-01 2.690488e-01 -1.562045e-01 -5.078455e-02 -2.976772e-01 -4.272368e-01 -2.733945e-01 3.511598e-02 4.345402e-01 5.545895e-01 2.607684e-01 -1.142727e-01 3.288411e-01 2.266941e-02 -2.364405e-01 1.464746e-01
<VARIANCE> 39
 1.743645e+01 2.682543e+01 3.912043e+01 4.905955e+01 5.042669e+01 6.085581e+01 6.834262e+01 5.761988e+01 5.008776e+01 5.971589e+01 4.341126e+01 4.082277e+01 3.472528e+01 2.289773e+00 1.992262e+00 2.638666e+00 4.580438e+00 5.191502e+00 6.078141e+00 5.261355e+00 5.157912e+00 4.452618e+00 4.289204e+00 3.704556e+00 3.976804e+00 3.278462e+00 2.375016e-01 4.110132e-01 4.052850e-01 6.484926e-01 6.922629e-01 9.052454e-01 9.622080e-01 8.580351e-01 7.709367e-01 8.069700e-01 6.567375e-01 5.671958e-01 2.549646e-01
<GCONST> 1.311618e+02
<STATE> 3
<NUMMIXES> 2
<MIXTURE> 1 4.765358e-01
<MEAN> 39
 -2.870041e+00 -2.171090e+00 9.124553e+00 -4.792323e+00 -7.801808e+00 -6.479594e+00 -1.190937e+01 -6.532572e+00 -1.196435e+00 -1.436401e+00 -3.253561e+00 -2.279088e+00 6.512375e+01 -1.745341e-01 3.523720e-01 1.503723e-01 3.824368e-01 4.059756e-01 5.636569e-01 3.906863e-01 -1.481851e-01 -2.796564e-01 1.146585e-01 1.785014e-01 -1.375038e-01 -4.821227e-01 -6.195742e-02 -4.271314e-01 -4.985559e-01 -1.430577e-01 -4.560252e-02 -1.293460e-02 6.038454e-01 6.933085e-01 1.832554e-02 1.408685e-01 2.437710e-01 7.348474e-02 1.949032e-01
<VARIANCE> 39
 1.453757e+01 2.307260e+01 3.599475e+01 4.429045e+01 4.831432e+01 5.089378e+01 5.930050e+01 5.851376e+01 5.065170e+01 5.167120e+01 5.316085e+01 5.411562e+01 2.285497e+01 1.216522e+00 1.498303e+00 1.712385e+00 3.305268e+00 2.857883e+00 3.397356e+00 3.825611e+00 3.510549e+00 2.818455e+00 2.536417e+00 2.482652e+00 2.325165e+00 1.869979e+00 2.132639e-01 3.178610e-01 3.878213e-01 5.897312e-01 7.296209e-01 7.932954e-01 7.912543e-01 8.568104e-01 7.005637e-01 6.648674e-01 6.501672e-01 6.219765e-01 2.596476e-01
<GCONST> 1.232199e+02
<MIXTURE> 2 5.234534e-01
<MEAN> 39
 -3.255626e+00 -3.620848e+00 9.024812e+00 -9.229836e+00 -9.508403e+00 -6.778207e+00 -1.452006e+01 -6.463193e+00 5.743669e-01 -2.588252e+00 -5.607455e+00 1.858268e-01 6.756728e+01 1.332976e-01 -1.586312e-01 -1.239031e-01 -4.493282e-01 -4.343272e-02 2.276318e-01 -1.605514e-01 7.155573e-02 -1.798145e-02 3.003849e-01 -1.658893e-01 -2.948593e-01 1.959619e-01 5.917696e-02 -6.323708e-01 -7.692532e-01 -6.884997e-02 -1.748495e-01 -7.999673e-02 9.410728e-01 8.071534e-01 -2.639761e-01 1.526079e-01 2.164845e-01 -2.649694e-01 4.023139e-01
<VARIANCE> 39
 1.525904e+01 2.346732e+01 4.127669e+01 4.518911e+01 4.828269e+01 5.480317e+01 6.450956e+01 6.516943e+01 5.677725e+01 6.296616e+01 5.494718e+01 5.505836e+01 1.852717e+01 7.018380e-01 1.286816e+00 1.777271e+00 2.231914e+00 1.854634e+00 2.205443e+00 3.239580e+00 3.601130e+00 2.665369e+00 2.319969e+00 2.227383e+00 1.823026e+00 9.578076e-01 1.710454e-01 3.574474e-01 4.053946e-01 5.966212e-01 7.128996e-01 7.904646e-01 1.034424e+00 9.243426e-01 7.790697e-01 7.972898e-01 7.210543e-01 6.356597e-01 2.062272e-01
<GCONST> 1.210836e+02
<STATE> 4
<NUMMIXES> 2
<MIXTURE> 1 4.544889e-01
<MEAN> 39
 -4.478227e+00 -2.593180e+00 7.955961e+00 -1.904714e+00 -5.385992e+00 -5.626999e+00 -7.660181e+00 -4.288660e+00 -2.209784e+00 -1.603339e+00 -1.470146e+00 -1.689615e+00 6.340232e+01 -3.535063e-01 -1.661330e-01 -7.486550e-01 5.685986e-01 7.031603e-01 6.027007e-01 1.458063e+00 1.078916e+00 -6.452885e-02 4.589063e-01 7.783499e-01 1.963219e-01 -6.350741e-01 -4.070501e-02 -2.255135e-01 -2.178374e-01 -4.105023e-01 -1.036945e-01 1.158858e-01 1.677087e-01 2.636878e-01 2.095588e-01 1.901902e-01 7.183447e-02 1.582417e-01 9.552567e-02
<VARIANCE> 39
 2.552632e+01 2.729348e+01 3.355247e+01 4.198506e+01 5.139065e+01 5.223767e+01 6.228809e+01 5.900425e+01 4.616101e+01 4.100059e+01 4.243431e+01 3.841158e+01 3.481916e+01 2.369789e+00 2.762656e+00 2.703016e+00 6.009734e+00 6.835969e+00 6.973827e+00 6.948741e+00 5.471969e+00 4.936522e+00 4.511878e+00 3.963667e+00 3.867957e+00 4.773064e+00 3.236691e-01 4.888369e-01 4.869645e-01 6.881436e-01 8.120458e-01 8.676706e-01 9.595597e-01 9.158760e-01 7.559657e-01 6.423503e-01 6.201685e-01 5.533639e-01 4.229824e-01
<GCONST> 1.335677e+02
<MIXTURE> 2 5.455029e-01
<MEAN> 39
 -2.624678e+00 -4.825615e+00 7.241930e+00 -9.210636e+00 -9.010898e+00 -7.875538e+00 -1.341850e+01 -3.447487e+00 -7.369220e-01 -1.992654e+00 -3.591045e+00 -7.915553e-01 6.825118e+01 5.344419e-01 -1.848966e+00 -1.904178e+00 -1.298865e+00 -8.284588e-01 -5.224662e-01 1.427938e+00 2.100106e+00 -3.961518e-01 3.897179e-01 -2.462255e-01 -7.365577e-01 1.873088e+00 -6.307118e-02 -4.180440e-01 -6.061583e-01 -1.135942e-02 8.785551e-02 3.004523e-01 8.973435e-01 2.796968e-01 -9.697919e-02 -6.287488e-03 -1.031612e-01 -1.307922e-01 2.133359e-01
<VARIANCE> 39
 1.387149e+01 2.566207e+01 3.812556e+01 4.463965e+01 4.459196e+01 5.139647e+01 5.824781e+01 5.985206e+01 4.873819e+01 5.287687e+01 5.554571e+01 4.699923e+01 2.374492e+01 1.149385e+00 2.314033e+00 2.919035e+00 3.700832e+00 4.129998e+00 5.666763e+00 9.221760e+00 5.691547e+00 5.128580e+00 4.857888e+00 4.403317e+00 3.229387e+00 1.668100e+00 1.883684e-01 4.806558e-01 3.261367e-01 6.309640e-01 6.610184e-01 7.860830e-01 1.074321e+00 8.557408e-01 7.385110e-01 7.301233e-01 6.339012e-01 4.685507e-01 2.031901e-01
<GCONST> 1.284807e+02
<TRANSP> 5
 0.000000e+00 1.000000e+00 0.000000e+00 0.000000e+00 0.000000e+00
 0.000000e+00 4.054815e-01 5.945185e-01 0.000000e+00 0.000000e+00
 0.000000e+00 0.000000e+00 5.319898e-01 4.680102e-01 0.000000e+00
 0.000000e+00 0.000000e+00 0.000000e+00 3.860802e-01 6.139198e-01
 0.000000e+00 0.000000e+00 0.000000e+00 0.000000e+00 0.000000e+00
<ENDHMM>
~h "m"
<BEGINHMM>
<NUMSTATES> 5
<STATE> 2
<NUMMIXES> 2
<MIXTURE> 1 5.150857e-01
<MEAN> 39
 1.402376e+00 -2.815325e+00 2.723705e+00 -2.017309e+00 -3.845579e+00 -4.649146e+00 -5.736146e+00 -6.845973e+00 -7.870760e+00 -1.055576e+00 -5.374889e-01 -4.196509e+00 6.393279e+01 -1.184101e-01 1.374116e+00 9.034755e-01 2.190808e+00 1.333213e+00 3.084202e-01 1.936099e-01 -2.115870e+00 -1.987644e+00 -1.477825e-01 3.292813e-01 -3.434444e-01 -1.290908e+00 -2.181700e-01 -2.942768e-01 8.223176e-02 -4.361213e-01 -3.406501e-01 -7.605589e-03 4.929854e-02 3.898408e-01 1.596676e-01 -9.024052e-02 -1.195805e-01 1.632267e-02 4.179507e-01
<VARIANCE> 39
 9.548200e+00 1.947478e+01 2.696066e+01 3.788259e+01 3.692626e+01 4.256095e+01 4.953141e+01 4.601408e+01 4.851315e+01 3.512657e+01 4.360521e+01 3.050213e+01 1.777587e+01 1.063029e+00 1.933789e+00 4.197327e+00 3.362503e+00 3.471344e+00 4.098598e+00 5.170412e+00 3.932683e+00 4.876514e+00 4.643496e+00 3.703586e+00 2.975824e+00 1.216519e+00 1.582681e-01 2.399223e-01 5.005133e-01 5.222322e-01 4.823942e-01 4.411257e-01 6.070619e-01 6.100595e-01 7.534372e-01 4.972586e-01 5.183368e-01 4.197712e-01 1.511804e-01
<GCONST> 1.196359e+02
<MIXTURE> 2 4.849019e-01
<MEAN> 39
 4.943619e-01 -2.791443e+00 2.201817e+00 -3.555345e+00 -5.492781e+00 -6.792360e+00 -8.468175e+00 -1.037140e+01 -7.995424e+00 -1.817277e+00 -3.824823e+00 -5.688164e+00 6.526539e+01 2.599509e-01 1.340416e+00 8.860615e-01 2.064466e+00 3.879288e-01 -3.800963e-01 -6.843913e-01 -2.536931e+00 -1.348002e+00 4.238645e-01 -5.121059e-02 -7.934689e-01 -8.796344e-01 -2.618062e-01 -4.207748e-01 -9.970474e-02 -6.401960e-01 -1.352014e-01 2.323281e-01 3.082760e-01 6.510575e-01 1.764804e-01 -1.519894e-01 -7.842888e-03 1.821831e-01 4.219183e-01
<VARIANCE> 39
 9.169840e+00 2.283259e+01 2.761475e+01 3.777594e+01 4.297569e+01 6.388069e+01 5.294957e+01 6.574520e+01 4.167263e+01 5.002468e+01 4.100861e+01 3.473444e+01 1.821792e+01 1.700950e+00 2.198907e+00 3.354057e+00 4.084311e+00 3.598571e+00 4.996473e+00 5.407272e+00 4.400355e+00 4.328339e+00 5.766865e+00 3.568674e+00 3.555967e+00 2.143138e+00 1.897327e-01 2.525311e-01 4.475706e-01 4.730617e-01 4.821914e-01 5.431896e-01 7.005187e-01 8.153480e-01 6.966745e-01 7.400373e-01 5.107087e-01 5.198007e-01 1.617807e-01
<GCONST> 1.240651e+02
<STATE> 3
<NUMMIXES> 2
<MIXTURE> 1 5.161042e-01
<MEAN> 39
 9.928174e-01 -1.577000e+00 4.575044e+00 -1.064621e+00 -4.290230e+00 -3.370917e+00 -5.172287e+00 -7.789343e+00 -1.038850e+01 -2.679169e+00 -1.404418e+00 -5.464530e+00 6.344900e+01 -6.554838e-02 2.782585e-02 9.448493e-02 -2.611240e-02 3.667989e-02 5.380673e-02 2.398664e-02 3.131596e-02 -4.783300e-02 -6.703209e-02 2.695241e-03 -4.621187e-02 2.120891e-02 -1.259133e-02 -2.889348e-01 -2.495071e-01 -6.577667e-01 -2.836818e-01 -1.645532e-02 -2.723972e-02 5.180919e-01 5.467545e-01 8.776672e-02 2.584170e-02 1.807011e-01 2.802570e-01
<VARIANCE> 39
 5.327657e+00 1.797801e+01 2.220407e+01 3.982962e+01 4.293776e+01 5.664643e+01 5.480118e+01 4.513807e+01 4.177619e+01 4.869450e+01 4.732169e+01 3.549321e+01 1.216516e+01 3.392024e-01 7.562668e-01 9.545654e-01 1.554428e+00 1.208931e+00 1.535850e+00 1.378667e+00 1.602772e+00 2.012142e+00 1.601421e+00 1.650201e+00 1.329286e+00 6.097639e-01 1.300483e-01 2.071753e-01 4.156156e-01 4.082128e-01 3.670156e-01 4.558107e-01 5.263755e-01 4.821992e-01 6.450123e-01 5.279785e-01 4.849680e-01 3.989787e-01 1.292492e-01
<GCONST> 1.047708e+02
<MIXTURE> 2 4.838665e-01
<MEAN> 39
 6.491169e-01 -2.619788e+00 2.548111e+00 -2.737115e+00 -5.149084e+00 -5.616138e+00 -8.502907e+00 -1.164749e+01 -1.010910e+01 -1.783810e+00 -3.191073e+00 -6.003408e+00 6.518924e+01 -1.213487e-02 -1.659569e-01 -1.484812e-01 -3.025920e-01 -6.165164e-02 4.924355e-02 7.317104e-02 3.629867e-01 7.601251e-03 -1.669392e-01 -8.976251e-02 -3.363665e-01 2.243662e-01 -4.963050e-03 -4.235050e-01 -3.135108e-01 -9.040830e-01 -2.343223e-01 9.516387e-02 2.277389e-01 8.648116e-01 4.333749e-01 -2.046846e-01 -6.226171e-02 1.626770e-01 3.945233e-01
<VARIANCE> 39
 5.712660e+00 1.880388e+01 2.277263e+01 3.864951e+01 4.718208e+01 7.736161e+01 5.245215e+01 6.549145e+01 4.679420e+01 6.631103e+01 4.637514e+01 4.114756e+01 1.013261e+01 1.881271e-01 6.486323e-01 8.227602e-01 1.604131e+00 1.030570e+00 1.736743e+00 1.406046e+00 2.169894e+00 1.734275e+00 2.022783e+00 1.523407e+00 1.644110e+00 3.599480e-01 1.030965e-01 2.232211e-01 4.181935e-01 4.238481e-01 3.373794e-01 5.266863e-01 6.269009e-01 7.133640e-01 6.330070e-01 8.081266e-01 4.952593e-01 5.850627e-01 1.209191e-01
<GCONST> 1.063552e+02
<STATE> 4
<NUMMIXES> 2
<MIXTURE> 1 4.936453e-01
<MEAN> 39
 8.293656e-01 -2.228018e+00 3.141704e+00 -3.389379e+00 -4.696983e+00 -3.549999e+00 -4.253154e+00 -6.689258e+00 -8.733916e+00 -3.374901e+00 -1.394513e+00 -4.873181e+00 6.476776e+01 -8.389513e-02 -7.451645e-01 -7.182012e-01 -1.941486e+00 -8.959394e-01 -8.141816e-02 -1.528713e-01 1.732790e+00 1.942874e+00 3.928176e-01 1.768519e-01 4.284531e-01 7.764652e-01 -1.402357e-01 -2.201474e-01 -4.916299e-02 -2.720231e-01 -1.526483e-01 1.408392e-01 4.291529e-02 3.317837e-01 2.608874e-01 9.853965e-02 4.864931e-02 1.095438e-01 1.351920e-01
<VARIANCE> 39
 7.442271e+00 2.227985e+01 3.250066e+01 5.268443e+01 4.228605e+01 4.934045e+01 5.064073e+01 4.579094e+01 5.238755e+01 4.388477e+01 4.753456e+01 3.016201e+01 2.110929e+01 1.188582e+00 2.039775e+00 4.604651e+00 4.547180e+00 4.323750e+00 4.161445e+00 4.669667e+00 4.097346e+00 5.471167e+00 4.282458e+00 3.841724e+00 3.091074e+00 2.258755e+00 1.283070e-01 2.573478e-01 4.914516e-01 5.528961e-01 6.105381e-01 4.885511e-01 6.160738e-01 6.100433e-01 9.469337e-01 5.773848e-01 6.190494e-01 4.567682e-01 1.338351e-01
<GCONST> 1.231155e+02
<MIXTURE> 2 5.063419e-01
<MEAN> 39
 9.215449e-01 -4.699801e+00 1.303183e+00 -5.415648e+00 -5.512741e+00 -8.040670e+00 -9.228409e+00 -7.869165e+00 -7.008358e+00 -1.253119e+00 -3.412771e+00 -6.969055e+00 6.734447e+01 -3.781922e-01 -1.810066e+00 -4.306014e-01 -3.073105e+00 -9.529409e-01 5.658690e-01 1.049707e+00 2.720292e+00 9.332072e-01 -1.152556e+00 -5.278867e-01 6.426342e-01 1.728790e+00 -2.820979e-01 -1.264592e-01 2.549942e-01 -4.519520e-01 -1.877349e-01 4.064360e-01 3.838840e-01 1.607824e-01 -1.115629e-01 -1.788774e-01 -4.463998e-02 3.108758e-01 2.029156e-01
<VARIANCE> 39
 5.864711e+00 2.276096e+01 2.746465e+01 4.210714e+01 4.239398e+01 5.487791e+01 4.178843e+01 6.766859e+01 4.010239e+01 4.740231e+01 4.030257e+01 3.108366e+01 1.310260e+01 8.436773e-01 1.855207e+00 5.674984e+00 2.579504e+00 3.984256e+00 4.440662e+00 5.682133e+00 4.899794e+00 5.136541e+00 5.171795e+00 3.243916e+00 4.080397e+00 7.642010e-01 9.627961e-02 3.118367e-01 4.517540e-01 6.633362e-01 5.456750e-01 4.897277e-01 6.837856e-01 8.283787e-01 6.014219e-01 7.096046e-01 4.502512e-01 5.024887e-01 1.366890e-01
<GCONST> 1.205781e+02
<TRANSP> 5
 0.000000e+00 1.000000e+00 0.000000e+00 0.000000e+00 0.000000e+00
 0.000000e+00 4.900462e-01 5.099538e-01 0.000000e+00 0.000000e+00
 0.000000e+00 0.000000e+00 6.892979e-01 3.107021e-01 0.000000e+00
 0.000000e+00 0.000000e+00 0.000000e+00 4.842606e-01 5.157394e-01
 0.000000e+00 0.000000e+00 0.000000e+00 0.000000e+00 0.000000e+00
<ENDHMM>
~h "n"
<BEGINHMM>
<NUMSTATES> 5
<STATE> 2
<NUMMIXES> 2
<MIXTURE> 1 5.288482e-01
<MEAN> 39
 1.698654e-01 -2.238523e+00 4.526266e+00 -3.684499e+00 -8.310369e+00 -7.920126e+00 -4.627572e+00 -4.001270e+00 -6.847564e+00 -9.797502e-01 -3.793279e+00 -4.150562e+00 6.555959e+01 3.742721e-01 1.358863e+00 5.969180e-01 1.981898e+00 3.816392e-01 -4.808757e-01 3.181437e-01 -1.612487e+00 -3.749771e-01 3.618810e-01 -6.885089e-01 -3.747738e-02 -1.509435e+00 -2.292210e-01 -1.760508e-01 4.147936e-02 -4.535201e-01 -6.576015e-02 3.080792e-01 3.317149e-02 2.105963e-01 1.284850e-01 -9.683840e-02 9.114617e-02 6.787190e-02 2.537914e-01
<VARIANCE> 39
 8.079316e+00 1.997673e+01 3.061921e+01 4.908844e+01 5.068828e+01 5.325906e+01 4.494798e+01 6.984748e+01 4.673346e+01 5.131316e+01 4.727538e+01 5.122161e+01 1.692579e+01 9.863882e-01 1.645855e+00 4.166325e+00 2.654274e+00 4.769236e+00 4.057238e+00 4.679174e+00 4.722471e+00 4.257445e+00 4.140129e+00 3.348744e+00 3.375838e+00 1.080070e+00 1.408611e-01 2.153737e-01 3.780004e-01 3.892765e-01 4.849959e-01 4.669906e-01 5.180456e-01 6.248115e-01 5.257619e-01 5.265271e-01 4.474114e-01 4.241660e-01 1.363149e-01
<GCONST> 1.197862e+02
<MIXTURE> 2 4.711316e-01
<MEAN> 39
 -1.304252e+00 -2.074069e+00 3.904098e+00 -4.433321e+00 -8.695416e+00 -7.850844e+00 -5.017960e+00 -5.060352e+00 -5.176546e+00 -2.952381e+00 -6.197076e+00 -2.363906e+00 6.442210e+01 8.169381e-01 1.439114e+00 7.613689e-01 1.371063e+00 -7.512525e-01 -1.172668e+00 4.345454e-03 -1.474281e+00 -6.125870e-01 -1.218166e-01 -1.331764e+00 -1.354348e-02 -8.024374e-01 -1.614428e-01 -2.540774e-01 -8.923198e-02 -4.793817e-01 4.730649e-02 3.068438e-01 4.983619e-02 2.223792e-01 -1.581629e-02 -1.287774e-02 1.991004e-01 -1.200372e-03 2.991873e-01
<VARIANCE> 39
 1.631228e+01 2.149941e+01 3.297968e+01 4.637877e+01 6.840688e+01 7.472144e+01 5.615087e+01 6.948085e+01 5.220033e+01 5.533405e+01 5.917596e+01 3.989052e+01 3.748585e+01 1.560599e+00 1.724499e+00 3.263343e+00 4.380236e+00 5.158342e+00 4.856184e+00 5.726940e+00 4.198699e+00 5.090933e+00 4.863200e+00 3.950957e+00 3.581019e+00 3.111604e+00 2.359601e-01 2.935019e-01 3.435857e-01 4.243630e-01 6.035227e-01 6.928432e-01 6.217052e-01 7.234329e-01 6.781483e-01 6.274099e-01 6.222966e-01 4.411974e-01 1.738580e-01
<GCONST> 1.279188e+02
<STATE> 3
<NUMMIXES> 2
<MIXTURE> 1 5.277358e-01
<MEAN> 39
 7.596174e-01 -2.791461e-02 5.274261e+00 -2.089414e+00 -8.708455e+00 -6.207337e+00 -4.186694e+00 -5.471670e+00 -6.429257e+00 -1.600155e+00 -4.328753e+00 -4.150121e+00 6.302991e+01 -2.590370e-01 6.965370e-01 4.756694e-01 5.683742e-01 5.067601e-01 3.537323e-01 4.256497e-02 -2.266865e-01 -1.079171e-03 -1.473849e-01 7.811479e-02 9.533510e-02 -7.738927e-01 -3.160174e-01 -1.781356e-01 -3.658412e-02 -2.247240e-01 2.576414e-01 2.438352e-01 2.136155e-02 3.639345e-01 1.840421e-01 -2.593300e-02 2.174025e-01 1.053961e-01 9.493919e-02
<VARIANCE> 39
 5.458423e+00 1.641056e+01 2.799707e+01 3.902893e+01 4.171914e+01 4.366749e+01 4.125755e+01 5.401467e+01 3.566798e+01 5.190439e+01 3.729515e+01 5.284579e+01 1.306347e+01 4.495809e-01 1.005713e+00 1.119689e+00 1.403850e+00 1.860008e+00 1.698511e+00 1.637618e+00 1.869241e+00 1.871585e+00 1.762840e+00 1.724383e+00 1.553639e+00 6.929827e-01 1.774254e-01 2.032911e-01 3.067199e-01 3.752705e-01 4.589197e-01 3.911488e-01 4.719808e-01 4.919492e-01 4.420544e-01 4.404868e-01 3.762064e-01 4.011087e-01 1.332374e-01
<GCONST> 1.056002e+02
<MIXTURE> 2 4.722143e-01
<MEAN> 39
 4.615872e-01 -3.745466e-01 3.907871e+00 -4.290537e+00 -1.148911e+01 -8.346035e+00 -4.915530e+00 -6.786107e+00 -6.719407e+00 -3.508482e+00 -7.708948e+00 -1.738104e+00 6.463180e+01 -3.128986e-02 2.987910e-01 2.257863e-01 2.721117e-01 9.170173e-02 -2.976845e-02 -3.439086e-02 -4.541188e-02 -7.257530e-02 -6.650179e-02 -1.341021e-01 -2.297424e-02 -2.911542e-01 -2.269809e-01 -3.946345e-01 -1.158150e-01 -4.901074e-01 2.637847e-01 3.271063e-01 -1.505048e-01 4.881434e-01 1.107055e-01 -4.282288e-02 3.727185e-01 -1.246073e-01 3.104562e-01
<VARIANCE> 39
 5.967999e+00 1.684339e+01 2.828870e+01 3.616468e+01 5.024390e+01 6.212588e+01 4.744872e+01 5.969420e+01 4.933932e+01 6.361973e+01 5.958672e+01 4.520963e+01 1.140933e+01 2.988682e-01 9.705155e-01 1.024261e+00 1.264170e+00 1.552979e+00 1.609712e+00 1.738709e+00 2.021030e+00 1.902039e+00 1.761820e+00 1.835810e+00 1.491929e+00 7.241707e-01 1.374982e-01 3.067973e-01 4.213432e-01 5.580316e-01 5.756979e-01 6.261180e-01 5.933675e-01 6.260861e-01 6.408084e-01 6.153430e-01 5.661624e-01 4.493563e-01 2.213867e-01
<GCONST> 1.102545e+02
<STATE> 4
<NUMMIXES> 2
<MIXTURE> 1 5.108289e-01
<MEAN> 39
 -2.136951e+00 2.804443e+00 7.145407e+00 -6.730651e-01 -4.592947e+00 -4.229110e+00 -4.120276e+00 -5.395657e+00 -6.540003e+00 -3.334731e+00 -4.003260e+00 -3.170409e+00 5.916478e+01 -1.862203e+00 -2.127164e-01 4.152038e-01 9.563125e-01 2.193991e+00 1.732290e+00 9.123905e-01 1.246086e+00 1.324961e+00 4.663429e-01 1.102017e+00 5.380930e-01 -1.459976e+00 -4.341912e-01 -6.406890e-01 -4.011936e-01 -2.379474e-01 -2.095891e-02 1.943357e-01 3.560306e-01 4.262193e-01 4.659209e-01 3.925084e-01 3.046161e-01 3.310778e-01 2.401907e-01
<VARIANCE> 39
 9.387724e+00 1.163246e+01 2.021885e+01 2.796526e+01 3.957947e+01 3.518613e+01 3.349599e+01 4.234725e+01 3.336526e+01 3.508409e+01 3.099351e+01 3.024604e+01 1.529075e+01 1.136274e+00 2.251779e+00 1.889231e+00 2.879596e+00 3.217767e+00 3.230508e+00 3.613409e+00 3.399002e+00 3.616177e+00 3.783706e+00 3.264914e+00 3.044513e+00 1.131292e+00 2.610388e-01 2.456131e-01 3.150769e-01 4.203705e-01 5.658330e-01 4.853978e-01 5.352372e-01 5.333515e-01 5.355355e-01 5.098187e-01 4.583028e-01 4.132844e-01 2.373463e-01
<GCONST> 1.146440e+02
<MIXTURE> 2 4.891420e-01
<MEAN> 39
 -4.310514e-01 -2.005710e+00 5.198557e+00 -3.703974e+00 -8.959892e+00 -9.187761e+00 -5.849457e+00 -5.368028e+00 -6.366516e+00 -1.736845e+00 -6.423164e+00 -3.282667e+00 6.567625e+01 -5.514539e-01 -1.384874e+00 -4.199424e-01 -1.678726e+00 4.865510e-01 7.279652e-01 -7.811180e-01 1.683004e+00 4.086200e-01 -5.321150e-01 7.805752e-01 -3.487249e-02 1.305228e+00 -1.299034e-01 -4.922534e-01 -3.122844e-01 -7.075476e-01 5.613703e-02 4.341835e-01 -1.534178e-02 4.267527e-01 1.503773e-01 -9.438098e-02 2.781195e-01 -8.567260e-04 4.612854e-01
<VARIANCE> 39
 8.066178e+00 2.186504e+01 2.911777e+01 4.648042e+01 4.945817e+01 5.844170e+01 4.863918e+01 6.473762e+01 4.939980e+01 5.603070e+01 5.697434e+01 5.081621e+01 1.747168e+01 9.812201e-01 2.343576e+00 3.403522e+00 3.527370e+00 4.038962e+00 4.313504e+00 4.536038e+00 4.849066e+00 4.779263e+00 4.435118e+00 3.694167e+00 3.149021e+00 1.540037e+00 1.641055e-01 3.404072e-01 4.812450e-01 5.303240e-01 6.947184e-01 7.076606e-01 6.808336e-01 7.393839e-01 6.997256e-01 7.105212e-01 6.439602e-01 5.615032e-01 2.346200e-01
<GCONST> 1.252347e+02
<TRANSP> 5
 0.000000e+00 1.000000e+00 0.000000e+00 0.000000e+00 0.000000e+00
 0.000000e+00 3.737127e-01 6.262873e-01 0.000000e+00 0.000000e+00
 0.000000e+00 0.000000e+00 6.677482e-01 3.322518e-01 0.000000e+00
 0.000000e+00 0.000000e+00 0.000000e+00 4.738717e-01 5.261282e-01
 0.000000e+00 0.000000e+00 0.000000e+00 0.000000e+00 0.000000e+00
<ENDHMM>
~h "p"
<BEGINHMM>
<NUMSTATES> 5
<STATE> 2
<NUMMIXES> 2
<MIXTURE> 1 4.331172e-01
<MEAN> 39
 -6.255145e+00 -9.486695e-01 6.604091e+00 1.826014e+00 1.315928e+00 1.357354e+00 3.961627e-01 -8.524448e-01 1.816811e-01 -1.690107e-01 -6.684334e-01 -1.281164e+00 5.425694e+01 -1.799590e+00 -5.097247e-01 1.013641e-01 1.023869e+00 8.362401e-01 1.285314e+00 1.688303e+00 1.381797e+00 1.837523e+00 1.109351e+00 1.099615e+00 1.204832e+00 -2.036795e+00 4.940850e-02 -5.649025e-01 -5.672702e-01 -8.871559e-01 -5.568659e-01 -3.219663e-01 -2.640850e-01 5.415311e-02 -3.467726e-02 1.953987e-01 2.022804e-01 2.090566e-01 8.727402e-01
<VARIANCE> 39
 1.531578e+01 1.241231e+01 1.709969e+01 1.431368e+01 1.794949e+01 2.281636e+01 2.369243e+01 2.570604e+01 2.627020e+01 2.618831e+01 2.654123e+01 2.487905e+01 8.531931e+00 1.584899e+00 1.604804e+00 2.179915e+00 3.061311e+00 2.269782e+00 2.435993e+00 2.545496e+00 2.818878e+00 2.894433e+00 2.630277e+00 2.962020e+00 2.207953e+00 2.061025e+00 1.998914e-01 3.019185e-01 3.438565e-01 4.834102e-01 3.965306e-01 4.071963e-01 4.142311e-01 4.808805e-01 4.779709e-01 5.226085e-01 4.647500e-01 4.206389e-01 2.393930e-01
<GCONST> 1.086777e+02
<MIXTURE> 2 5.668483e-01
<MEAN> 39
 -9.451063e+00 -3.701284e+00 4.405022e+00 4.195973e-01 8.132596e-01 2.820952e+00 2.893364e+00 1.765327e+00 3.816058e+00 2.983870e+00 2.818791e+00 2.450545e+00 5.218959e+01 -7.099650e-01 -5.555986e-01 -2.929372e-01 -6.824475e-02 5.712973e-02 3.931579e-01 4.838223e-01 4.018068e-01 5.956629e-01 4.595219e-01 6.219293e-01 7.407424e-01 -4.794513e-01 3.341359e-01 2.611960e-02 -9.089543e-02 -4.019755e-01 -2.109618e-01 -4.440407e-01 -5.034560e-01 -2.657233e-01 -4.639509e-01 -3.422611e-01 -3.120708e-01 -2.962402e-01 9.192222e-01
<VARIANCE> 39
 7.004611e+00 7.718441e+00 1.206390e+01 1.170138e+01 1.502241e+01 1.716025e+01 1.654192e+01 1.914256e+01 1.945629e+01 2.132978e+01 1.953176e+01 1.886560e+01 6.901062e+00 9.753948e-01 7.483676e-01 9.044287e-01 1.003701e+00 1.170495e+00 1.378766e+00 1.579919e+00 1.924042e+00 2.093996e+00 2.035401e+00 2.028789e+00 1.881862e+00 8.970252e-01 1.734969e-01 1.832967e-01 2.822081e-01 3.856973e-01 3.470629e-01 3.977466e-01 3.827947e-01 4.241475e-01 4.439769e-01 4.428329e-01 4.219488e-01 3.756719e-01 3.349641e-01
<GCONST> 9.562991e+01
<STATE> 3
<NUMMIXES> 2
<MIXTURE> 1 5.840684e-01
<MEAN> 39
 -1.056566e+01 -4.292913e+00 4.411545e+00 8.724750e-01 1.795528e+00 4.093351e+00 3.814804e+00 2.272090e+00 4.435351e+00 3.577247e+00 3.890937e+00 3.694496e+00 5.127972e+01 -1.026534e-01 -3.732166e-01 -4.138558e-01 -9.007828e-01 -4.246777e-01 -1.060145e+00 -8.885888e-01 4.880547e-02 -2.977164e-01 -2.948406e-01 -2.241264e-01 -1.729041e-01 2.137903e+00 8.754595e-01 1.241324e-02 -2.208383e-01 -7.926674e-01 -6.515045e-01 -7.872669e-01 -7.764480e-01 -3.818372e-01 -6.920303e-01 -4.199678e-01 -5.434707e-01 -5.880882e-01 1.339846e+00
<VARIANCE> 39
 3.089561e+00 4.064297e+00 6.575081e+00 8.010135e+00 1.001440e+01 1.153764e+01 1.330263e+01 1.382615e+01 1.467933e+01 1.583533e+01 1.318111e+01 1.274697e+01 8.013419e+00 1.128388e+00 1.141573e+00 1.370897e+00 1.621739e+00 1.661515e+00 2.450056e+00 2.060414e+00 2.070846e+00 2.112638e+00 2.232797e+00 1.935904e+00 1.857945e+00 2.621202e+00 2.408098e-01 2.359573e-01 4.280604e-01 5.333022e-01 4.179063e-01 5.548427e-01 4.787982e-01 4.692333e-01 4.980567e-01 4.435922e-01 4.850067e-01 3.872181e-01 3.345222e-01
<GCONST> 9.691422e+01
<MIXTURE> 2 4.159035e-01
<MEAN> 39
 -1.104124e+01 -4.595146e+00 3.785858e+00 -7.686799e-01 1.097035e+00 1.718365e+00 1.644217e+00 2.143880e+00 3.210084e+00 2.489992e+00 2.860159e+00 2.781436e+00 5.589541e+01 1.794730e+00 -4.841108e-01 -1.129985e+00 -2.557713e+00 -1.708424e+00 -2.105090e+00 -1.943876e+00 -6.824994e-01 -1.475812e+00 -9.571081e-01 -1.210709e+00 -1.080757e+00 4.041313e+00 1.112753e+00 -2.020608e-01 -3.386074e-01 -9.684784e-01 -7.920149e-01 -4.052995e-01 -4.841940e-01 -4.233382e-01 -5.950228e-01 -1.756051e-01 -4.558139e-01 -4.669557e-01 8.718960e-01
<VARIANCE> 39
 6.811493e+00 9.285041e+00 9.330405e+00 1.180521e+01 1.227431e+01 1.578340e+01 1.613957e+01 1.604637e+01 1.690442e+01 1.743143e+01 1.550965e+01 1.414766e+01 2.385797e+01 2.423666e+00 1.894175e+00 3.390416e+00 4.041714e+00 3.154004e+00 4.186854e+00 3.090989e+00 2.818477e+00 3.100295e+00 2.723779e+00 2.803651e+00 2.477059e+00 2.399537e+00 2.807016e-01 5.929210e-01 6.348069e-01 7.956045e-01 6.472275e-01 7.571113e-01 6.350169e-01 6.460438e-01 6.221965e-01 6.225675e-01 6.658345e-01 4.885557e-01 6.335230e-01
<GCONST> 1.128236e+02
<STATE> 4
<NUMMIXES> 2
<MIXTURE> 1 5.049640e-01
<MEAN> 39
 -5.864282e+00 -4.922350e+00 8.777704e-01 -6.271093e+00 -2.781153e+00 -2.810269e+00 -2.810790e+00 -2.105806e-01 7.388256e-02 7.381058e-01 9.592443e-01 1.937708e-01 6.516632e+01 3.449584e+00 -3.027751e-01 -1.379039e+00 -3.100437e+00 -2.696498e+00 -1.562503e+00 -1.772698e+00 -9.984385e-01 -1.656660e+00 -6.502709e-01 -2.870840e-01 -9.816775e-01 3.216977e+00 2.644862e-01 -3.788685e-02 1.768729e-01 1.473733e-01 -1.301625e-01 3.720602e-01 1.604587e-01 -6.970212e-02 4.641813e-02 1.523941e-01 1.968092e-01 -2.006130e-02 -6.888453e-01
<VARIANCE> 39
 3.659743e+01 1.691625e+01 2.025237e+01 3.953996e+01 2.755697e+01 3.276727e+01 2.877578e+01 2.472892e+01 2.610558e+01 2.348041e+01 2.068704e+01 1.784349e+01 2.411554e+01 2.728319e+00 3.719337e+00 4.449875e+00 8.042996e+00 4.542855e+00 6.027056e+00 5.312499e+00 4.547485e+00 4.155583e+00 3.843317e+00 4.162527e+00 3.075849e+00 3.701011e+00 8.007912e-01 4.787189e-01 4.317017e-01 1.030440e+00 8.023171e-01 6.828818e-01 7.037472e-01 7.700221e-01 7.367514e-01 6.554762e-01 6.182768e-01 5.059718e-01 4.413041e-01
<GCONST> 1.270038e+02
<MIXTURE> 2 4.950161e-01
<MEAN> 39
 -6.008054e+00 -4.724181e+00 1.271316e+00 -6.018779e+00 -3.227453e+00 -3.979943e+00 -3.225919e+00 4.980722e-01 2.106554e-01 -5.861736e-01 -8.614678e-01 -5.844055e-01 6.496348e+01 3.357951e+00 -1.367716e+00 -1.608058e+00 -3.946730e+00 -2.909358e+00 -2.277092e+00 -2.426244e+00 -1.152182e+00 -1.980322e+00 -7.298722e-01 -1.911203e+00 -1.675305e+00 4.845088e+00 1.211319e-01 -3.203939e-01 6.547957e-02 6.435421e-03 -1.317109e-01 4.460467e-01 2.663045e-01 -7.425147e-02 2.656149e-02 2.855476e-01 5.679597e-02 9.335764e-02 -4.250568e-01
<VARIANCE> 39
 2.721079e+01 1.477055e+01 2.695654e+01 3.673871e+01 2.494719e+01 3.502077e+01 2.722706e+01 2.291386e+01 2.403859e+01 2.158820e+01 1.984790e+01 1.780318e+01 2.184525e+01 1.342581e+00 4.034456e+00 6.793759e+00 7.077295e+00 5.448011e+00 7.559804e+00 5.005584e+00 4.372340e+00 4.677984e+00 4.074986e+00 4.200813e+00 3.570627e+00 3.432310e+00 5.814807e-01 4.261059e-01 4.918387e-01 9.970912e-01 7.055295e-01 7.658896e-01 6.874995e-01 7.354421e-01 6.916555e-01 6.298365e-01 6.005433e-01 5.119171e-01 4.777382e-01
<GCONST> 1.260843e+02
<TRANSP> 5
 0.000000e+00 1.000000e+00 0.000000e+00 0.000000e+00 0.000000e+00
 0.000000e+00 7.361754e-01 2.638246e-01 0.000000e+00 0.000000e+00
 0.000000e+00 0.000000e+00 5.995771e-01 4.004228e-01 0.000000e+00
 0.000000e+00 0.000000e+00 0.000000e+00 4.035103e-01 5.964897e-01
 0.000000e+00 0.000000e+00 0.000000e+00 0.000000e+00 0.000000e+00
<ENDHMM>
~h "s"
<BEGINHMM>
<NUMSTATES> 5
<STATE> 2
<NUMMIXES> 2
<MIXTURE> 1 4.778929e-01
<MEAN> 39
 -1.167294e+01 3.559268e+00 2.938752e+00 -1.974410e+00 -3.032440e+00 -6.347508e+00 -2.055863e+00 -1.554831e+00 -3.418421e+00 -3.551023e+00 -1.658756e+00 -5.712749e-01 6.665081e+01 -4.462521e+00 1.375664e+00 -3.342284e-01 1.817779e+00 2.681954e+00 2.243354e+00 1.812781e+00 1.586139e+00 1.236848e+00 1.092665e+00 1.568273e+00 8.257825e-01 -9.223047e-01 -1.457978e-01 -7.776552e-01 -3.564792e-01 -5.668662e-01 -2.470256e-01 2.557751e-01 8.562943e-02 3.884109e-01 3.175945e-01 5.182910e-01 2.210218e-01 2.349449e-01 1.195555e-01
<VARIANCE> 39
 3.488925e+01 2.014858e+01 2.683127e+01 3.106504e+01 5.405921e+01 5.094476e+01 3.686686e+01 3.843134e+01 3.342206e+01 3.594407e+01 2.612453e+01 2.125701e+01 1.901151e+01 2.030641e+00 3.371240e+00 3.668122e+00 4.504746e+00 4.225646e+00 4.710474e+00 4.714586e+00 4.434096e+00 3.702176e+00 4.312081e+00 3.611217e+00 3.338682e+00 1.318168e+00 6.921911e-01 3.972839e-01 3.813786e-01 4.654527e-01 5.984947e-01 7.280092e-01 6.740496e-01 6.122863e-01 5.478017e-01 6.190346e-01 4.794604e-01 4.659180e-01 1.597414e-01
<GCONST> 1.236366e+02
<MIXTURE> 2 5.220489e-01
<MEAN> 39
 -1.541263e+01 2.187448e+00 3.281147e+00 -2.472661e+00 1.789371e+00 -2.984157e+00 -1.004763e+00 1.971239e+00 -9.509077e-01 -1.275133e+00 -4.514104e-01 -8.225971e-02 6.621794e+01 -4.074976e+00 5.858159e-01 -3.290951e-01 7.702928e-01 1.682206e+00 1.469639e+00 1.381585e+00 1.516357e+00 9.591057e-01 8.060431e-01 1.132867e+00 1.085674e+00 -4.069433e-01 4.478558e-01 -5.346143e-01 -3.576538e-01 -4.903005e-01 -6.373988e-01 -1.267707e-01 -2.170128e-01 -7.929704e-02 1.993629e-02 1.927070e-01 8.434096e-02 4.853041e-02 1.013431e-01
<VARIANCE> 39
 4.314683e+01 2.493855e+01 2.582635e+01 3.442311e+01 4.433644e+01 4.876013e+01 4.579366e+01 3.831976e+01 3.346380e+01 3.081804e+01 2.570871e+01 2.287735e+01 2.443963e+01 3.119381e+00 2.664214e+00 3.414798e+00 3.570564e+00 3.643981e+00 4.323836e+00 4.233080e+00 4.048502e+00 3.463925e+00 3.793616e+00 3.276901e+00 2.757606e+00 1.366084e+00 7.617223e-01 4.666263e-01 4.084423e-01 5.372848e-01 5.676086e-01 7.378117e-01 6.613311e-01 6.499972e-01 5.626822e-01 5.385699e-01 4.981766e-01 5.182276e-01 1.855628e-01
<GCONST> 1.239167e+02
<STATE> 3
<NUMMIXES> 2
<MIXTURE> 1 5.137503e-01
<MEAN> 39
 -2.307115e+01 2.171410e+00 -2.435662e-01 -1.715166e+00 1.946287e+00 4.620908e-01 2.193522e+00 4.654220e+00 1.752076e+00 2.139280e+00 3.829918e+00 3.894631e+00 6.324595e+01 -4.173939e-01 -1.039293e-01 -1.071131e-01 4.938177e-04 1.215387e-01 2.791864e-01 2.019986e-01 2.745562e-01 2.895144e-01 3.838360e-01 3.429212e-01 2.956739e-01 -3.311597e-01 5.490286e-01 -1.418992e-01 2.048298e-01 -6.270196e-02 -1.572169e-01 -1.635859e-01 -9.043577e-02 -1.757977e-01 -1.168021e-01 -1.447525e-01 -1.816015e-01 -1.590417e-01 -1.470257e-02
<VARIANCE> 39
 1.421243e+01 1.598095e+01 2.425877e+01 3.674578e+01 3.876628e+01 3.639910e+01 3.253409e+01 2.694657e+01 2.370848e+01 2.045226e+01 1.927140e+01 1.670700e+01 1.628317e+01 1.491855e+00 1.018430e+00 1.100642e+00 1.161790e+00 1.421601e+00 1.786083e+00 1.687680e+00 1.898466e+00 1.950214e+00 1.960503e+00 1.757325e+00 1.610268e+00 1.084079e+00 2.784187e-01 1.761054e-01 2.040948e-01 2.564062e-01 3.059474e-01 3.418511e-01 3.604831e-01 3.781112e-01 3.600218e-01 3.696825e-01 3.508577e-01 3.075846e-01 1.197264e-01
<GCONST> 1.013130e+02
<MIXTURE> 2 4.861529e-01
<MEAN> 39
 -2.345510e+01 2.051436e+00 -5.067643e-01 -1.900676e+00 1.493770e+00 -8.257374e-02 1.977518e+00 4.377423e+00 1.404102e+00 1.476399e+00 3.378989e+00 3.149384e+00 6.542109e+01 -4.556277e-01 -4.629998e-01 -1.549739e-01 -2.931675e-01 -1.891436e-01 6.905079e-02 1.756730e-01 2.038995e-01 1.444444e-01 1.946949e-01 2.581942e-01 2.515158e-01 -2.209221e-02 1.051624e+00 -1.389401e-01 2.938632e-01 -1.913476e-01 -4.326900e-01 -4.778856e-01 -3.827856e-01 -4.233621e-01 -3.097456e-01 -2.875418e-01 -3.907202e-01 -2.907215e-01 9.069559e-02
<VARIANCE> 39
 1.805717e+01 1.834405e+01 2.500599e+01 3.010906e+01 3.533878e+01 3.349575e+01 3.363309e+01 2.922436e+01 2.523899e+01 2.171109e+01 2.083799e+01 1.808834e+01 1.625585e+01 2.378525e+00 1.175744e+00 1.608234e+00 1.417984e+00 1.641259e+00 2.103214e+00 1.935847e+00 2.100781e+00 2.122131e+00 2.161803e+00 2.001503e+00 1.802111e+00 7.561079e-01 3.964392e-01 2.577924e-01 3.068591e-01 3.748695e-01 4.146723e-01 4.997993e-01 4.812156e-01 4.882162e-01 4.443241e-01 4.848156e-01 4.515444e-01 3.700733e-01 1.627463e-01
<GCONST> 1.075133e+02
<STATE> 4
<NUMMIXES> 2
<MIXTURE> 1 4.938425e-01
<MEAN> 39
 -1.825387e+01 -7.962452e-01 2.670853e+00 -3.162711e+00 2.363212e+00 -8.284218e-01 -5.333487e-01 4.403739e+00 2.183593e+00 2.113405e+00 2.518800e+00 2.860273e+00 6.203160e+01 1.889281e+00 -6.657073e-01 4.944389e-01 6.577066e-01 -3.351576e-01 3.301847e-01 1.012989e-01 -5.636228e-01 -2.270121e-03 2.096781e-01 -8.703618e-02 -1.906635e-01 -1.530894e+00 3.920557e-01 2.406844e-02 -6.066293e-03 5.616941e-02 -1.927861e-01 4.678955e-04 3.164044e-02 -2.394483e-01 -2.179645e-01 -1.289631e-01 -1.007110e-01 -1.196279e-01 1.931368e-04
<VARIANCE> 39
 3.804462e+01 2.364767e+01 2.868129e+01 3.854728e+01 4.060954e+01 4.402085e+01 4.794655e+01 3.821295e+01 3.565863e+01 2.921620e+01 2.556997e+01 2.297974e+01 3.428505e+01 2.712077e+00 1.848426e+00 2.052063e+00 2.310890e+00 2.974945e+00 3.498700e+00 3.225917e+00 2.866812e+00 2.995586e+00 2.532384e+00 2.253351e+00 2.140347e+00 2.658245e+00 6.517230e-01 3.867504e-01 3.876511e-01 5.432931e-01 5.903667e-01 7.137460e-01 7.104710e-01 6.468810e-01 6.053138e-01 5.788008e-01 5.028066e-01 4.415425e-01 4.798679e-01
<GCONST> 1.217960e+02
<MIXTURE> 2 5.061093e-01
<MEAN> 39
 -1.918977e+01 -3.148596e-01 2.017721e+00 -2.799061e+00 -8.845811e-01 -1.928538e+00 2.130628e+00 3.059093e+00 1.046341e-01 6.420032e-01 2.182379e+00 2.017897e+00 6.572353e+01 4.261370e+00 -6.218117e-01 1.119805e+00 -1.154805e+00 -2.334779e+00 -2.091968e+00 -1.894170e+00 -1.922240e+00 -1.320030e+00 -1.098864e+00 -1.759240e+00 -1.267764e+00 7.720374e-01 8.364758e-01 -9.499302e-02 -5.981757e-02 -4.777193e-01 -6.416747e-01 -4.149889e-01 -6.383935e-01 -4.016484e-01 -2.564145e-01 -7.380167e-02 -3.394761e-01 -1.982300e-01 3.492185e-01
<VARIANCE> 39
 2.767041e+01 1.622181e+01 2.682061e+01 2.223570e+01 3.179152e+01 3.833935e+01 3.888230e+01 3.210131e+01 2.818368e+01 2.673557e+01 2.577467e+01 1.948673e+01 1.976908e+01 2.976492e+00 2.101819e+00 3.589134e+00 4.125929e+00 3.607562e+00 3.769456e+00 4.167771e+00 3.988166e+00 2.979145e+00 3.087396e+00 3.203995e+00 2.367129e+00 1.176301e+00 5.446696e-01 3.723645e-01 4.819610e-01 5.020794e-01 5.444573e-01 7.231893e-01 7.308840e-01 7.001445e-01 5.772169e-01 6.337342e-01 6.979169e-01 4.883935e-01 1.988242e-01
<GCONST> 1.202811e+02
<TRANSP> 5
 0.000000e+00 1.000000e+00 0.000000e+00 0.000000e+00 0.000000e+00
 0.000000e+00 6.189328e-01 3.810672e-01 0.000000e+00 0.000000e+00
 0.000000e+00 0.000000e+00 8.092117e-01 1.907883e-01 0.000000e+00
 0.000000e+00 0.000000e+00 0.000000e+00 6.221914e-01 3.778086e-01
 0.000000e+00 0.000000e+00 0.000000e+00 0.000000e+00 0.000000e+00
<ENDHMM>
~h "t"
<BEGINHMM>
<NUMSTATES> 5
<STATE> 2
<NUMMIXES> 2
<MIXTURE> 1 4.403611e-01
<MEAN> 39
 -8.835757e+00 -1.190794e+00 6.290462e+00 2.358131e+00 1.396799e+00 1.925119e+00 1.601681e+00 6.990318e-01 1.451888e+00 1.144947e+00 9.346710e-01 7.247465e-01 5.327705e+01 -9.434482e-01 -8.957300e-01 -1.926140e-01 4.434290e-01 8.550739e-01 1.538113e+00 1.408227e+00 8.634821e-01 1.271705e+00 8.386179e-01 1.007100e+00 9.188464e-01 -1.630643e+00 2.334585e-02 -2.925034e-01 -3.019547e-01 -6.556616e-01 -5.221742e-01 -4.220152e-01 -2.695175e-01 -4.498421e-02 -1.431346e-01 1.146922e-02 3.394464e-02 7.370286e-02 8.198415e-01
<VARIANCE> 39
 1.348395e+01 1.170814e+01 1.656572e+01 1.446575e+01 1.780495e+01 2.193735e+01 2.078400e+01 2.250604e+01 2.307933e+01 2.379412e+01 2.315882e+01 2.242302e+01 1.032399e+01 1.962108e+00 1.356499e+00 1.869578e+00 2.314279e+00 2.881680e+00 2.993498e+00 2.745709e+00 2.610753e+00 2.754905e+00 2.500784e+00 2.723603e+00 2.169123e+00 2.233157e+00 1.985553e-01 3.226590e-01 3.371194e-01 4.837543e-01 4.784683e-01 4.092173e-01 3.879229e-01 4.054141e-01 4.213603e-01 4.378411e-01 4.258777e-01 3.862006e-01 3.618889e-01
<GCONST> 1.077536e+02
<MIXTURE> 2 5.595846e-01
<MEAN> 39
 -1.034403e+01 -3.022643e+00 4.682319e+00 1.175953e+00 7.003050e-01 2.876678e+00 2.823651e+00 1.592498e+00 3.161243e+00 2.636845e+00 2.846122e+00 2.660845e+00 5.224654e+01 -3.868457e-01 -7.638441e-01 -2.254466e-01 -2.038952e-01 1.964950e-01 5.425121e-01 4.402524e-01 2.278059e-01 3.943482e-01 2.253676e-01 4.455537e-01 5.145016e-01 -4.277309e-01 -1.034360e-02 4.108096e-02 -1.400684e-01 -4.778732e-01 -2.718620e-01 -5.299478e-01 -3.834997e-01 -8.825207e-02 -3.526493e-01 -2.444901e-01 -2.175737e-01 -1.722760e-01 1.054457e+00
<VARIANCE> 39
 8.773849e+00 8.127379e+00 1.175038e+01 1.217085e+01 1.483493e+01 1.740680e+01 1.699620e+01 1.923019e+01 2.029615e+01 2.069066e+01 1.817236e+01 1.802724e+01 8.887149e+00 1.386046e+00 9.895578e-01 1.161473e+00 1.182835e+00 1.393150e+00 1.554456e+00 1.701953e+00 1.895423e+00 2.015942e+00 2.020438e+00 1.985320e+00 1.835727e+00 1.097651e+00 2.159040e-01 1.957406e-01 2.981712e-01 4.058578e-01 4.547921e-01 4.382347e-01 4.143251e-01 4.218292e-01 4.325387e-01 4.455144e-01 4.051353e-01 3.559849e-01 4.877163e-01
<GCONST> 9.870132e+01
<STATE> 3
<NUMMIXES> 2
<MIXTURE> 1 5.431104e-01
<MEAN> 39
 -1.095670e+01 -3.941041e+00 4.471329e+00 1.137668e+00 1.670665e+00 4.026842e+00 3.860003e+00 2.447824e+00 4.216596e+00 3.609419e+00 4.050465e+00 4.031314e+00 5.142830e+01 -1.030692e+00 -9.829399e-01 -8.627715e-01 -1.776025e+00 -4.037871e-01 -7.595570e-01 -2.727162e-01 5.427803e-01 -1.972507e-01 4.955197e-02 2.829613e-01 2.235779e-01 2.782857e+00 3.998061e-01 2.605103e-01 -9.979817e-02 -6.259275e-01 -7.402776e-01 -1.067229e+00 -7.726174e-01 -3.154861e-01 -6.495484e-01 -4.880575e-01 -5.976549e-01 -5.796005e-01 1.605322e+00
<VARIANCE> 39
 4.659762e+00 4.868760e+00 7.596142e+00 9.364773e+00 1.090320e+01 1.252562e+01 1.317493e+01 1.456695e+01 1.529126e+01 1.660730e+01 1.372088e+01 1.303156e+01 7.569993e+00 1.025565e+00 1.358796e+00 1.861173e+00 2.115267e+00 2.170462e+00 2.449908e+00 2.421614e+00 2.414988e+00 2.509512e+00 2.480795e+00 2.256241e+00 2.318681e+00 2.939604e+00 2.603639e-01 1.917498e-01 3.670063e-01 3.873492e-01 5.084901e-01 4.161081e-01 4.417973e-01 5.016640e-01 4.978391e-01 4.700822e-01 4.271704e-01 3.939878e-01 2.976193e-01
<GCONST> 9.923197e+01
<MIXTURE> 2 4.568560e-01
<MEAN> 39
 -1.256407e+01 -4.103936e+00 3.650256e+00 -4.278696e-01 1.540985e+00 2.802411e+00 2.605503e+00 2.432125e+00 2.902222e+00 2.971584e+00 3.505175e+00 3.295125e+00 5.512869e+01 -4.475596e-01 -6.018239e-01 -1.133756e+00 -2.256785e+00 -1.388075e+00 -1.829192e+00 -9.677852e-01 1.239724e-01 -8.317544e-01 -8.312663e-01 -4.482195e-01 -3.011397e-01 4.480443e+00 9.475368e-01 1.163295e-01 -7.143433e-02 -6.390325e-01 -1.022061e+00 -1.093848e+00 -7.722746e-01 -4.222684e-01 -4.865490e-01 -4.628447e-01 -7.681931e-01 -5.687167e-01 1.216094e+00
<VARIANCE> 39
 1.186212e+01 1.020520e+01 1.505309e+01 1.667936e+01 1.722202e+01 1.665971e+01 1.694843e+01 1.899776e+01 1.921859e+01 1.976697e+01 1.629488e+01 1.574931e+01 2.035857e+01 2.052427e+00 1.720987e+00 2.428658e+00 2.206876e+00 3.544296e+00 3.530471e+00 3.276056e+00 3.184746e+00 3.116837e+00 3.176333e+00 3.005131e+00 2.736925e+00 2.159742e+00 2.869032e-01 3.899232e-01 6.708392e-01 5.597981e-01 6.456447e-01 5.897631e-01 6.627440e-01 7.038906e-01 6.290729e-01 6.898069e-01 6.382192e-01 5.155607e-01 4.267469e-01
<GCONST> 1.132204e+02
<STATE> 4
<NUMMIXES> 2
<MIXTURE> 1 5.161560e-01
<MEAN> 39
 -1.383527e+01 -5.595026e+00 2.596706e+00 -6.587148e+00 -7.842062e-01 -2.914378e+00 -5.771419e-01 3.514965e+00 1.138970e+00 1.190213e+00 1.882528e+00 2.258775e+00 6.659105e+01 2.034451e+00 4.142146e-01 -1.728092e-01 -1.590281e+00 -2.099438e+00 -2.820204e+00 -2.515844e+00 -1.040730e+00 -1.076471e+00 -5.417814e-01 -9.417107e-01 -1.595621e+00 3.522453e+00 1.135524e+00 2.681328e-01 2.822730e-01 3.156098e-01 -4.183744e-01 9.717163e-02 -3.466927e-01 -5.457893e-01 -1.509018e-01 9.194993e-02 -6.182502e-02 -4.599378e-01 -7.602462e-01
<VARIANCE> 39
 1.684674e+01 2.203634e+01 2.352676e+01 2.573523e+01 2.785836e+01 3.356409e+01 3.672537e+01 2.649545e+01 2.363408e+01 2.358488e+01 2.317130e+01 2.303672e+01 1.788252e+01 4.206551e+00 2.010390e+00 4.614460e+00 4.392395e+00 4.388222e+00 4.279031e+00 4.558859e+00 4.757419e+00 4.219728e+00 3.509178e+00 3.578068e+00 3.667768e+00 3.585546e+00 4.268730e-01 5.584977e-01 8.475478e-01 6.336011e-01 6.582918e-01 1.070343e+00 1.036091e+00 9.587648e-01 7.369989e-01 7.037049e-01 7.972093e-01 7.260595e-01 4.365233e-01
<GCONST> 1.264636e+02
<MIXTURE> 2 4.837998e-01
<MEAN> 39
 -1.265769e+01 -4.787634e+00 1.533763e-01 -6.166398e+00 -3.245293e+00 -2.717518e+00 7.995696e-02 1.811789e+00 1.346494e-01 1.147910e-01 1.995948e+00 1.596116e+00 6.812407e+01 2.358955e+00 -5.942477e-01 -9.342700e-01 -3.144278e+00 -3.362075e+00 -3.584967e+00 -2.423237e+00 -8.127493e-01 -1.352294e+00 -1.527614e+00 -2.542809e+00 -1.373268e+00 5.121898e+00 8.284777e-01 -2.051854e-01 3.028635e-01 -1.195411e-02 -1.791145e-01 6.914090e-02 -1.959984e-01 -1.716465e-01 4.219740e-02 6.395456e-02 -5.149931e-01 -1.951475e-01 -6.722387e-01
<VARIANCE> 39
 1.467050e+01 1.576342e+01 1.890183e+01 2.212511e+01 2.814420e+01 3.479204e+01 2.821900e+01 2.293117e+01 2.129503e+01 2.439220e+01 2.361217e+01 1.785123e+01 1.754112e+01 1.849885e+00 2.471708e+00 5.103091e+00 3.389910e+00 5.225641e+00 3.525851e+00 5.070693e+00 4.984497e+00 4.241404e+00 4.480514e+00 3.800165e+00 2.986728e+00 2.568552e+00 3.929254e-01 4.275936e-01 7.118939e-01 5.691822e-01 7.756811e-01 1.152801e+00 9.543728e-01 7.762315e-01 6.453117e-01 7.677611e-01 7.584050e-01 6.500663e-01 4.877592e-01
<GCONST> 1.232821e+02
<TRANSP> 5
 0.000000e+00 1.000000e+00 0.000000e+00 0.000000e+00 0.000000e+00
 0.000000e+00 7.314464e-01 2.685536e-01 0.000000e+00 0.000000e+00
 0.000000e+00 0.000000e+00 5.129626e-01 4.870373e-01 0.000000e+00
 0.000000e+00 0.000000e+00 0.000000e+00 5.034219e-01 4.965781e-01
 0.000000e+00 0.000000e+00 0.000000e+00 0.000000e+00 0.000000e+00
<ENDHMM>
~h "w"
<BEGINHMM>
<NUMSTATES> 5
<STATE> 2
<NUMMIXES> 2
<MIXTURE> 1 5.393359e-01
<MEAN> 39
 4.240855e+00 -7.846615e-01 -2.922225e+00 -1.842693e+01 -1.071936e+01 -2.436195e-01 -3.916745e+00 -2.962411e+00 -8.311295e+00 -1.956357e+00 1.157282e+00 -6.395208e-01 6.611736e+01 6.781772e-01 -6.214622e-01 -7.244698e-01 -1.144435e+00 -2.697085e-02 6.955683e-01 -4.798272e-01 -1.027324e+00 -1.085430e+00 4.584968e-01 1.185884e+00 3.000302e-01 9.426199e-01 -6.372801e-01 -6.565747e-01 1.523884e-01 9.166847e-01 7.388656e-01 -1.696970e-01 -3.808023e-01 6.573313e-02 7.914049e-01 6.286722e-01 -6.177602e-02 -3.536967e-01 7.781425e-02
<VARIANCE> 39
 5.731494e+00 2.098173e+01 2.547157e+01 5.387346e+01 4.876611e+01 3.399699e+01 4.511118e+01 5.464950e+01 4.199728e+01 4.321235e+01 5.377868e+01 4.087402e+01 1.341685e+01 1.954284e+00 3.649401e+00 2.258779e+00 4.820490e+00 4.655180e+00 3.427163e+00 4.349176e+00 4.382967e+00 4.200654e+00 4.879872e+00 4.274370e+00 2.958353e+00 2.387682e+00 3.356715e-01 3.326222e-01 2.862341e-01 7.914696e-01 7.262964e-01 5.722367e-01 6.152602e-01 7.807302e-01 8.920564e-01 7.750671e-01 7.099530e-01 5.974578e-01 1.171871e-01
<GCONST> 1.245486e+02
<MIXTURE> 2 4.606595e-01
<MEAN> 39
 2.517705e+00 -7.613257e-01 -3.548048e+00 -1.707381e+01 -7.656022e+00 -3.083338e+00 -5.314028e+00 -3.433542e+00 -7.124917e+00 -1.968982e-01 -2.173930e+00 -1.287218e+00 6.531449e+01 2.393763e+00 -1.238881e-01 -1.457741e+00 -3.136109e+00 -8.438162e-01 -3.211211e-01 -1.335668e+00 -1.599702e+00 -1.912031e+00 7.779691e-01 -2.858665e-01 -6.793399e-01 1.736872e+00 -8.446440e-01 -7.882205e-01 2.496193e-01 8.279726e-01 5.434449e-01 8.439430e-02 1.031417e-01 3.894068e-01 8.010809e-01 5.182452e-01 1.135654e-01 1.159337e-02 3.136868e-02
<VARIANCE> 39
 9.780708e+00 2.114430e+01 2.845757e+01 5.595973e+01 4.411353e+01 3.922011e+01 4.903433e+01 4.412722e+01 4.219848e+01 3.869622e+01 3.592061e+01 2.416449e+01 1.893153e+01 3.658748e+00 3.185998e+00 3.461950e+00 6.992161e+00 5.522879e+00 6.239818e+00 6.436038e+00 6.055829e+00 6.647656e+00 6.141829e+00 6.300037e+00 3.769441e+00 2.671265e+00 3.751632e-01 3.891882e-01 4.474685e-01 1.069205e+00 8.264367e-01 9.017587e-01 8.931714e-01 9.988776e-01 1.088327e+00 9.585645e-01 7.411754e-01 5.715017e-01 2.436148e-01
<GCONST> 1.320291e+02
<STATE> 3
<NUMMIXES> 2
<MIXTURE> 1 5.010852e-01
<MEAN> 39
 3.441430e+00 -5.615005e+00 -4.178956e+00 -1.733960e+01 -5.806586e+00 -1.484472e+00 -7.821032e+00 -6.865723e+00 -7.470117e+00 3.759870e+00 2.904637e+00 -1.485059e+00 6.911830e+01 -1.922295e-01 -1.706422e+00 -1.444009e-03 6.505588e-01 8.735261e-01 -1.245451e+00 -1.873730e+00 -7.760879e-02 1.497571e+00 1.815216e+00 -4.133786e-01 -1.386331e+00 1.239577e+00 -7.672094e-01 -1.290366e-01 6.538239e-01 1.093199e+00 1.894622e-02 -4.948099e-01 3.797689e-01 9.638087e-01 8.720236e-01 -4.189418e-01 -7.140207e-01 -1.314926e-01 -2.581308e-01
<VARIANCE> 39
 7.194568e+00 2.298833e+01 3.667621e+01 6.211113e+01 4.868989e+01 5.266581e+01 5.132693e+01 5.414492e+01 5.968581e+01 5.506113e+01 8.686903e+01 3.944038e+01 1.386977e+01 1.321694e+00 2.914462e+00 2.334344e+00 5.298183e+00 4.213998e+00 4.728957e+00 4.850602e+00 4.175913e+00 4.198804e+00 4.765713e+00 5.343879e+00 3.029022e+00 2.131007e+00 4.076195e-01 3.228949e-01 4.126509e-01 8.898536e-01 7.124168e-01 8.209119e-01 9.645391e-01 9.426280e-01 1.130642e+00 7.946316e-01 9.815444e-01 7.412248e-01 1.585331e-01
<GCONST> 1.296353e+02
<MIXTURE> 2 4.989110e-01
<MEAN> 39
 2.628460e+00 -7.798535e+00 -7.435057e+00 -2.009372e+01 -4.373710e+00 6.964223e-01 -9.238456e+00 -6.308979e+00 -7.413509e+00 6.871053e+00 1.167231e+00 -4.342663e+00 7.108716e+01 -7.276124e-01 -2.519163e+00 -6.678356e-02 1.521123e+00 1.247619e+00 -1.413330e+00 -2.032020e+00 4.426282e-01 2.566340e+00 1.658794e+00 -1.542043e+00 -2.201748e+00 1.644723e+00 -4.966795e-01 1.255718e-01 8.108059e-01 1.059427e+00 -5.194043e-01 -8.712666e-01 5.534709e-01 1.065005e+00 6.830564e-01 -1.028233e+00 -8.030905e-01 1.788429e-01 -3.285752e-01
<VARIANCE> 39
 6.999265e+00 1.746048e+01 3.542286e+01 4.859231e+01 4.837885e+01 6.990580e+01 5.649124e+01 4.807409e+01 6.287217e+01 6.643257e+01 7.684577e+01 3.920931e+01 1.133344e+01 9.181621e-01 1.408735e+00 1.792958e+00 4.375613e+00 3.212588e+00 5.484017e+00 3.419805e+00 3.927764e+00 4.089701e+00 4.472943e+00 3.990663e+00 2.341220e+00 7.504008e-01 3.243188e-01 2.817539e-01 3.394212e-01 7.203698e-01 7.553469e-01 7.702332e-01 8.971267e-01 7.726071e-01 9.698406e-01 9.387692e-01 7.767295e-01 6.947638e-01 1.143871e-01
<GCONST> 1.237921e+02
<STATE> 4
<NUMMIXES> 2
<MIXTURE> 1 4.502435e-01
<MEAN> 39
 1.317878e+00 -8.675635e+00 -1.311851e+00 -1.120864e+01 -5.857115e+00 -8.259473e+00 -1.097857e+01 -1.872356e+00 -7.783657e-01 2.972250e+00 -3.362648e+00 -4.357522e+00 7.057426e+01 -8.981525e-01 -6.125838e-01 1.680720e+00 1.529667e+00 -9.536751e-01 -1.742611e+00 8.082212e-01 1.675164e+00 6.294922e-01 -1.170927e+00 -1.035208e+00 2.963488e-01 3.142278e-01 -3.139030e-01 4.279674e-01 3.027336e-01 6.141106e-02 -1.925525e-01 5.283462e-01 8.355179e-01 -1.144814e-01 -5.693473e-01 -3.678334e-01 4.402794e-01 4.116783e-01 -3.525789e-01
<VARIANCE> 39
 9.100485e+00 3.530673e+01 4.260571e+01 4.923795e+01 4.883341e+01 6.315738e+01 5.351526e+01 6.349786e+01 4.636229e+01 5.259376e+01 1.030080e+02 4.342738e+01 2.139715e+01 9.794915e-01 1.616180e+00 2.814595e+00 4.141076e+00 5.409748e+00 4.389513e+00 5.480975e+00 4.261444e+00 4.638535e+00 3.884973e+00 3.677577e+00 3.153944e+00 1.588338e+00 3.533482e-01 3.852393e-01 3.875583e-01 7.146627e-01 6.633494e-01 8.308011e-01 8.419318e-01 1.025249e+00 8.419417e-01 7.535865e-01 1.038980e+00 5.505691e-01 1.817410e-01
<GCONST> 1.288304e+02
<MIXTURE> 2 5.497521e-01
<MEAN> 39
 2.186660e-02 -1.239775e+01 -4.364280e+00 -1.496154e+01 -4.210086e+00 -7.590691e+00 -1.164810e+01 -8.928481e-01 5.057430e-01 5.720077e+00 -7.613860e+00 -7.045690e+00 7.372294e+01 -1.078012e+00 -1.326543e+00 1.753218e+00 1.942707e+00 -1.542479e+00 -2.723556e+00 8.277732e-01 2.599672e+00 1.387458e+00 -2.102771e+00 -1.929707e+00 2.646463e-01 9.260476e-01 3.832632e-02 6.937051e-01 3.837196e-01 -1.341832e-01 -7.763240e-01 3.139474e-01 1.001731e+00 -6.940918e-02 -1.030801e+00 -8.064144e-01 6.966354e-01 8.295791e-01 -4.490500e-01
<VARIANCE> 39
 8.919326e+00 1.693903e+01 3.997496e+01 4.032045e+01 5.453708e+01 8.592888e+01 5.993739e+01 5.751987e+01 5.196432e+01 7.336854e+01 8.679334e+01 4.075814e+01 1.016480e+01 4.385165e-01 1.017980e+00 1.785715e+00 2.290943e+00 3.686462e+00 3.592782e+00 4.846748e+00 2.966573e+00 5.080554e+00 3.665549e+00 3.609350e+00 3.325892e+00 3.386463e-01 1.287038e-01 1.832185e-01 2.767845e-01 4.899318e-01 5.770988e-01 8.413094e-01 7.704247e-01 9.104543e-01 6.171520e-01 1.035295e+00 7.906849e-01 5.070375e-01 7.740952e-02
<GCONST> 1.188495e+02
<TRANSP> 5
 0.000000e+00 1.000000e+00 0.000000e+00 0.000000e+00 0.000000e+00
 0.000000e+00 5.857955e-01 4.142046e-01 0.000000e+00 0.000000e+00
 0.000000e+00 0.000000e+00 4.573458e-01 5.426543e-01 0.000000e+00
 0.000000e+00 0.000000e+00 0.000000e+00 4.846407e-01 5.153593e-01
 0.000000e+00 0.000000e+00 0.000000e+00 0.000000e+00 0.000000e+00
<ENDHMM>
~h "y"
<BEGINHMM>
<NUMSTATES> 5
<STATE> 2
<NUMMIXES> 2
<MIXTURE> 1 4.987546e-01
<MEAN> 39
 -7.854452e+00 -1.381259e+00 1.471413e+01 -6.233710e+00 -9.805381e+00 -6.406641e+00 -5.961007e+00 -2.553518e+00 -6.862437e+00 -1.955150e+00 -1.060589e+00 -9.723229e-01 6.637734e+01 -7.764322e-02 1.897003e-01 1.419774e+00 -8.582594e-01 -1.281117e+00 8.263285e-02 -4.491917e-01 -4.298732e-01 -7.244937e-01 -1.790703e-02 1.430387e-01 1.772506e-01 4.612636e-01 1.275497e-01 -1.985745e-01 -5.263988e-01 -2.400951e-01 3.578441e-02 4.758994e-02 1.426775e-02 4.690341e-02 2.704655e-01 2.184928e-01 -4.292424e-03 -3.143277e-02 1.193115e-01
<VARIANCE> 39
 4.040581e+01 3.539997e+01 3.389374e+01 7.351527e+01 8.650793e+01 6.511736e+01 4.715625e+01 6.359939e+01 4.922440e+01 3.684872e+01 3.968073e+01 2.664353e+01 3.230451e+01 5.684592e+00 2.644659e+00 4.187580e+00 6.010113e+00 8.131360e+00 5.807472e+00 5.091772e+00 4.376234e+00 4.500257e+00 3.641107e+00 3.043632e+00 2.650606e+00 2.760412e+00 6.196262e-01 4.546179e-01 5.728139e-01 7.852647e-01 1.325280e+00 1.020417e+00 7.200767e-01 8.774942e-01 7.269523e-01 5.835018e-01 5.282671e-01 4.718268e-01 3.598381e-01
<GCONST> 1.346500e+02
<MIXTURE> 2 5.012217e-01
<MEAN> 39
 -8.732800e+00 6.453563e-01 1.404489e+01 -7.454922e+00 -1.226415e+01 -7.262696e+00 -4.952309e+00 -6.924768e+00 -7.840918e+00 -9.498296e-01 -2.648587e+00 -1.965139e+00 6.719436e+01 2.960659e+00 -5.423353e-01 1.803952e+00 -2.101676e+00 -3.529619e+00 -1.852209e+00 -2.198198e+00 -1.618921e+00 -1.680095e+00 -2.110179e-02 -1.180140e+00 -5.413076e-01 1.452293e+00 -3.833294e-01 -4.562869e-01 -8.303096e-01 -1.362655e-01 4.607022e-01 2.599091e-01 3.506645e-01 8.221831e-01 5.758029e-01 3.523623e-01 3.292658e-01 2.641036e-01 5.374121e-02
<VARIANCE> 39
 2.376942e+01 2.145141e+01 2.937418e+01 5.367476e+01 4.754183e+01 4.157668e+01 3.674792e+01 5.203711e+01 3.213523e+01 2.685796e+01 3.203665e+01 1.767123e+01 1.642648e+01 5.567434e+00 2.713078e+00 4.137632e+00 6.155603e+00 4.355928e+00 5.531118e+00 5.702440e+00 5.125701e+00 4.268953e+00 4.215930e+00 4.650935e+00 3.133034e+00 1.291248e+00 5.580527e-01 3.388664e-01 4.017669e-01 5.399624e-01 8.699444e-01 6.335918e-01 7.784864e-01 7.896526e-01 6.003394e-01 5.273156e-01 5.830926e-01 3.796653e-01 2.214440e-01
<GCONST> 1.262109e+02
<STATE> 3
<NUMMIXES> 2
<MIXTURE> 1 4.745915e-01
<MEAN> 39
 -5.593698e+00 -3.046985e+00 1.683241e+01 -1.141245e+01 -1.750926e+01 -7.968729e+00 -7.364136e+00 -5.446996e+00 -9.472332e+00 1.308912e+00 -1.776505e+00 -1.145554e+00 6.980583e+01 6.218753e-01 -1.112753e+00 -7.554906e-01 -7.653953e-01 -8.319364e-01 -8.433344e-01 9.776492e-02 8.539202e-01 3.053637e-01 5.162556e-01 2.556914e-01 2.504203e-01 8.052274e-01 -2.385729e-01 -1.620544e-01 -8.866671e-01 3.887053e-01 8.102210e-01 1.055254e-01 4.017057e-01 6.105200e-01 6.158922e-01 -1.530243e-01 4.907409e-02 3.832394e-03 -1.364423e-01
<VARIANCE> 39
 8.975915e+00 2.176982e+01 3.563970e+01 7.967986e+01 4.087953e+01 5.588066e+01 5.049671e+01 6.841346e+01 5.301604e+01 4.974942e+01 5.304851e+01 2.979240e+01 1.594359e+01 1.277603e+00 2.022211e+00 2.349899e+00 2.620108e+00 2.615383e+00 3.163523e+00 3.394658e+00 3.208458e+00 2.502445e+00 2.287683e+00 2.062199e+00 1.661702e+00 9.964325e-01 3.961880e-01 1.939448e-01 3.628810e-01 5.604808e-01 7.584825e-01 7.147812e-01 6.475959e-01 5.828288e-01 6.534604e-01 6.305641e-01 5.091161e-01 4.177433e-01 1.172563e-01
<GCONST> 1.187147e+02
<MIXTURE> 2 5.253767e-01
<MEAN> 39
 -7.106699e+00 -8.622784e-01 1.616411e+01 -1.598030e+01 -1.705611e+01 -3.971764e+00 -8.779931e+00 -8.485251e+00 -7.133771e+00 1.318941e+00 -4.732349e+00 -1.409123e+00 6.989216e+01 9.867512e-02 -5.878587e-01 -4.771208e-01 -5.401082e-01 -7.785543e-01 -1.554290e-01 4.723729e-01 4.145806e-01 1.898904e-01 3.043320e-01 1.625503e-01 -8.967037e-02 5.755273e-01 1.003473e-01 -2.867720e-01 -6.250671e-01 4.949476e-01 2.881213e-01 -2.272449e-01 3.845982e-01 4.608969e-01 1.386826e-01 -2.146085e-01 1.295508e-01 -4.370128e-02 -3.658251e-02
<VARIANCE> 39
 1.118795e+01 2.363849e+01 3.179561e+01 7.135144e+01 4.787164e+01 4.852021e+01 5.261593e+01 5.313678e+01 4.548465e+01 4.242377e+01 5.031499e+01 3.208286e+01 1.373422e+01 6.096609e-01 1.805021e+00 2.030152e+00 2.392769e+00 2.223640e+00 2.432981e+00 2.995676e+00 2.511227e+00 1.783272e+00 1.771151e+00 1.671509e+00 1.414263e+00 7.781588e-01 1.339777e-01 1.554745e-01 2.772947e-01 3.950208e-01 5.936041e-01 4.211122e-01 4.842206e-01 4.014347e-01 4.715109e-01 4.537356e-01 3.582326e-01 3.065449e-01 1.021211e-01
<GCONST> 1.102422e+02
<STATE> 4
<NUMMIXES> 2
<MIXTURE> 1 4.928575e-01
<MEAN> 39
 -2.829205e+00 -7.318427e+00 1.083881e+01 -7.660236e+00 -1.637656e+01 -1.276653e+01 -7.489310e+00 1.716229e+00 -6.237223e+00 -4.435544e-01 6.707578e-01 -5.861009e-01 7.090143e+01 7.292265e-01 -8.814626e-01 -2.488437e+00 -2.591957e-01 1.534995e+00 -2.047715e-01 -3.278449e-01 1.058013e+00 2.020455e+00 1.779741e-01 -5.804718e-01 -3.399612e-01 2.318090e-01 -1.842804e-01 2.765175e-01 -2.537813e-01 -1.312242e-03 7.332345e-01 7.063267e-01 7.853812e-02 -3.404540e-01 2.044000e-01 4.593038e-02 -1.868335e-01 -2.838380e-01 -2.687430e-01
<VARIANCE> 39
 9.738959e+00 2.100533e+01 3.838424e+01 5.594777e+01 4.879450e+01 5.829164e+01 6.306928e+01 6.560605e+01 5.497629e+01 4.464402e+01 4.931710e+01 3.016978e+01 2.050519e+01 5.697883e-01 1.300724e+00 2.000981e+00 2.740393e+00 2.854106e+00 3.428140e+00 3.205191e+00 3.995374e+00 3.171131e+00 4.157249e+00 2.267940e+00 2.646926e+00 9.857729e-01 1.947405e-01 1.840410e-01 3.258230e-01 3.974654e-01 5.025051e-01 5.845224e-01 6.797198e-01 5.996703e-01 7.549659e-01 5.541294e-01 5.316961e-01 4.107923e-01 8.368338e-02
<GCONST> 1.173035e+02
<MIXTURE> 2 5.071181e-01
<MEAN> 39
 -4.439091e+00 -8.657408e+00 7.226515e+00 -1.442957e+01 -1.638692e+01 -1.113745e+01 -3.138682e+00 2.250198e-01 -4.740418e+00 5.123978e-01 -4.624175e+00 -1.267384e+00 7.356210e+01 6.183106e-01 -1.397747e+00 -2.788095e+00 2.387944e-01 1.856131e+00 1.236228e-01 1.024683e-01 1.854562e+00 1.281649e+00 -1.339946e+00 -1.013551e+00 -4.273197e-01 5.171449e-01 -3.326446e-02 3.200439e-01 1.278372e-02 1.655253e-01 5.771682e-01 5.411905e-01 -3.861604e-01 -5.132185e-01 -8.711936e-02 -1.083098e-01 -8.922505e-02 -1.561473e-01 -3.046139e-01
<VARIANCE> 39
 1.073906e+01 1.776266e+01 3.811826e+01 5.311345e+01 5.761646e+01 5.887184e+01 6.330602e+01 6.025731e+01 3.791613e+01 4.304205e+01 4.671064e+01 2.930580e+01 1.142064e+01 2.906232e-01 8.678535e-01 1.486874e+00 1.651210e+00 2.950746e+00 2.597251e+00 4.515005e+00 2.980603e+00 4.276201e+00 3.587030e+00 2.455481e+00 2.291398e+00 2.879532e-01 7.784973e-02 1.322022e-01 2.717712e-01 3.504998e-01 4.763319e-01 5.251568e-01 5.188709e-01 6.027893e-01 5.695955e-01 6.512737e-01 5.228802e-01 4.382990e-01 4.846610e-02
<GCONST> 1.103742e+02
<TRANSP> 5
 0.000000e+00 1.000000e+00 0.000000e+00 0.000000e+00 0.000000e+00
 0.000000e+00 5.527405e-01 4.472595e-01 0.000000e+00 0.000000e+00
 0.000000e+00 0.000000e+00 6.924030e-01 3.075970e-01 0.000000e+00
 0.000000e+00 0.000000e+00 0.000000e+00 6.135823e-01 3.864177e-01
 0.000000e+00 0.000000e+00 0.000000e+00 0.000000e+00 0.000000e+00
<ENDHMM>
~h "z"
<BEGINHMM>
<NUMSTATES> 5
<STATE> 2
<NUMMIXES> 2
<MIXTURE> 1 5.698290e-01
<MEAN> 39
 -1.450958e+01 4.227919e+00 5.706534e+00 4.065716e-01 -2.965800e+00 -6.355834e+00 -6.178558e-01 -8.117278e-01 -3.977449e+00 -2.493592e+00 3.592115e-01 -2.306974e-01 6.669131e+01 -3.826194e+00 4.057752e-02 -1.343998e+00 8.141280e-01 3.366920e+00 1.897171e+00 1.472568e+00 2.281578e+00 1.927807e+00 6.396154e-01 1.074499e+00 8.374137e-01 -4.960139e-01 2.379045e-01 -5.600227e-01 -6.468070e-02 -6.805337e-01 -6.599551e-01 3.174913e-01 -1.833287e-01 -7.932402e-02 1.245098e-01 3.209824e-01 9.781820e-02 1.215857e-01 3.752813e-02
<VARIANCE> 39
 3.181244e+01 1.780838e+01 2.315199e+01 2.804920e+01 5.500584e+01 4.999358e+01 3.217369e+01 4.564226e+01 3.178915e+01 2.451728e+01 1.981697e+01 2.449057e+01 1.526665e+01 2.121987e+00 2.455647e+00 2.955719e+00 4.094256e+00 4.542309e+00 4.014780e+00 3.931449e+00 4.076866e+00 2.928102e+00 3.567404e+00 3.444863e+00 2.810240e+00 8.644822e-01 7.264653e-01 3.366382e-01 5.162227e-01 5.105907e-01 6.663861e-01 8.742634e-01 7.003037e-01 6.911522e-01 6.264119e-01 5.649684e-01 6.134356e-01 6.048938e-01 1.141355e-01
<GCONST> 1.213575e+02
<MIXTURE> 2 4.301711e-01
<MEAN> 39
 -1.245460e+01 2.556161e+00 6.169044e+00 -2.099367e+00 -3.415942e+00 -6.629546e+00 -1.973787e+00 -3.589307e-01 -4.746823e+00 -3.916792e+00 -1.271307e+00 -1.291431e+00 6.770552e+01 -1.936183e+00 6.609780e-02 -9.109251e-01 5.230560e-01 2.380215e+00 1.278168e+00 3.220923e-01 1.184001e+00 1.108851e+00 -9.294511e-02 2.865579e-01 2.244507e-01 -5.803739e-01 4.944107e-01 -3.367542e-01 1.985605e-01 -4.727146e-01 -6.275606e-01 7.154263e-02 -2.356451e-01 -3.902025e-01 -9.088900e-02 3.740747e-01 -5.075950e-02 2.806366e-02 -2.554106e-02
<VARIANCE> 39
 5.341182e+01 2.454382e+01 3.018550e+01 3.920716e+01 5.386042e+01 4.665336e+01 4.508990e+01 6.226811e+01 4.511141e+01 2.807154e+01 3.224665e+01 2.874360e+01 1.642113e+01 3.021903e+00 2.155952e+00 2.510788e+00 3.500002e+00 3.420540e+00 4.128805e+00 4.180617e+00 4.719707e+00 3.701906e+00 2.982605e+00 3.148659e+00 2.507542e+00 7.589720e-01 5.594006e-01 3.617294e-01 4.175658e-01 4.382651e-01 7.022970e-01 8.988945e-01 6.855128e-01 6.659503e-01 6.956195e-01 5.784804e-01 4.954009e-01 5.617349e-01 1.532872e-01
<GCONST> 1.237401e+02
<STATE> 3
<NUMMIXES> 2
<MIXTURE> 1 5.953915e-01
<MEAN> 39
 -2.216048e+01 9.158691e-01 -7.130341e-01 9.550276e-02 1.533578e-01 -5.048610e-01 2.625805e+00 4.145658e+00 1.712496e+00 8.054831e-01 4.369029e+00 3.068880e+00 6.441933e+01 2.483424e-01 -3.639368e-01 -8.086514e-02 -1.669212e-01 3.445072e-01 4.044726e-01 9.217942e-03 1.889134e-01 4.205726e-01 5.787053e-01 2.796554e-01 2.755735e-01 -7.808228e-01 7.984650e-01 4.905132e-02 4.580627e-01 -3.104921e-02 -2.000031e-01 -1.845303e-01 -2.210826e-01 -3.884191e-01 -2.934488e-01 -1.223480e-01 -3.106659e-01 -2.583723e-01 -1.391319e-01
<VARIANCE> 39
 1.342703e+01 2.791053e+01 2.338681e+01 3.074447e+01 2.993611e+01 3.526083e+01 2.262016e+01 2.221111e+01 2.087618e+01 2.076083e+01 2.003625e+01 1.885999e+01 2.123170e+01 2.061499e+00 1.369735e+00 1.962159e+00 1.915797e+00 1.860353e+00 1.979223e+00 1.917841e+00 2.592328e+00 2.299456e+00 1.893171e+00 2.164405e+00 1.834552e+00 9.062419e-01 2.496594e-01 2.790160e-01 3.323241e-01 4.160911e-01 4.250703e-01 4.226273e-01 4.902473e-01 5.865673e-01 4.005478e-01 4.247322e-01 4.115256e-01 3.464215e-01 1.921679e-01
<GCONST> 1.074709e+02
<MIXTURE> 2 4.046080e-01
<MEAN> 39
 -1.738711e+01 1.577789e+00 3.279246e+00 -2.834511e+00 6.994413e-01 -3.214206e+00 -1.073247e-01 2.599364e+00 -7.475821e-01 -9.367753e-01 1.294965e+00 8.331361e-01 6.568021e+01 5.668924e-01 -5.381211e-01 2.574639e-01 -2.161894e-01 5.501373e-01 3.664763e-01 -5.090427e-01 -3.331949e-01 3.206454e-01 8.903435e-02 -1.854326e-01 -1.696333e-01 -7.027617e-01 1.016062e+00 -5.911849e-02 2.917381e-01 -3.682532e-02 -6.932325e-01 -3.758621e-01 -4.639177e-01 -6.757507e-01 -4.057683e-01 -1.302979e-01 -3.128342e-01 -2.523170e-01 3.595994e-02
<VARIANCE> 39
 6.542501e+01 2.748627e+01 3.794312e+01 4.008500e+01 4.895813e+01 4.171056e+01 5.269239e+01 5.074506e+01 4.356025e+01 3.202777e+01 3.847910e+01 2.683689e+01 1.971094e+01 2.282853e+00 1.581330e+00 2.714779e+00 2.430965e+00 2.458163e+00 3.389183e+00 2.680072e+00 3.497654e+00 3.089789e+00 2.431326e+00 2.447138e+00 2.103074e+00 1.001700e+00 5.457041e-01 3.738795e-01 4.577029e-01 6.810293e-01 6.260922e-01 6.971602e-01 8.190349e-01 6.878253e-01 6.807398e-01 7.844383e-01 6.077145e-01 5.191048e-01 2.396596e-01
<GCONST> 1.229912e+02
<STATE> 4
<NUMMIXES> 2
<MIXTURE> 1 4.692816e-01
<MEAN> 39
 -1.307675e+01 -7.770644e-01 4.788823e+00 -8.000354e-01 1.793163e+00 1.007011e-01 -7.610404e-01 1.448802e+00 4.976362e-01 1.760926e+00 1.773034e+00 7.583480e-01 6.055636e+01 2.495797e+00 1.422871e-01 3.379890e-01 2.273994e-01 -8.086928e-01 -1.536394e-03 -2.326076e-01 -1.715274e+00 -8.586656e-01 9.842203e-02 -4.636993e-01 -6.729593e-01 -9.555621e-01 2.827029e-01 2.365806e-01 -1.771926e-01 -2.179383e-01 -4.767478e-01 -5.366668e-01 -1.589045e-01 -3.043599e-01 -4.007727e-01 -2.690218e-01 -1.687690e-01 -1.614012e-01 4.993513e-01
<VARIANCE> 39
