~o
<STREAMINFO> 1 39
<VECSIZE> 39<NULLD><MFCC_D_A_0><DIAGC>
~s "silst"
<NUMMIXES> 16
<MIXTURE> 1 7.129455e-02
<MEAN> 39
 -1.109034e+01 -3.718649e+00 5.230175e+00 2.201392e+00 3.419559e+00 5.851636e+00 5.544276e+00 3.580734e+00 4.658439e+00 4.471385e+00 5.110594e+00 5.052724e+00 5.073184e+01 3.058973e-02 8.199911e-02 7.966423e-02 1.501936e-01 2.333642e-01 3.486247e-01 3.789455e-01 4.302897e-01 4.793093e-01 5.119618e-01 4.227186e-01 3.174421e-01 4.091124e-02 6.869016e-02 4.787153e-02 5.526664e-02 2.660933e-02 6.737743e-02 2.810214e-02 2.128228e-02 6.690341e-02 4.340994e-02 2.955448e-02 3.626610e-02 5.869083e-02 1.226378e-01
<VARIANCE> 39
 2.727133e+00 3.621450e+00 4.947297e+00 6.172122e+00 8.742985e+00 9.607720e+00 1.258412e+01 1.333242e+01 1.284393e+01 1.460718e+01 1.381706e+01 1.139002e+01 5.095862e+00 4.618536e-01 5.202307e-01 6.244271e-01 8.391886e-01 1.110215e+00 1.137659e+00 1.348774e+00 1.477862e+00 1.571084e+00 1.611604e+00 1.380349e+00 1.196505e+00 2.825636e-01 6.615190e-02 7.574925e-02 9.909017e-02 1.363859e-01 1.889488e-01 2.056331e-01 2.516053e-01 2.653805e-01 2.732058e-01 2.959652e-01 2.587211e-01 2.214572e-01 4.174469e-02
<GCONST> 7.377377e+01
<MIXTURE> 2 5.367795e-02
<MEAN> 39
 -1.046181e+01 -4.287125e+00 4.424685e+00 8.843136e-02 3.715850e+00 3.780350e+00 3.522322e+00 4.855788e+00 1.997917e+00 2.349491e+00 3.548370e+00 3.942548e+00 5.689025e+01 -1.868407e-01 -9.292844e-02 1.907663e-01 3.611544e-01 5.396091e-01 5.653303e-01 7.628658e-01 7.629068e-01 7.750740e-01 8.552316e-01 8.415810e-01 7.063438e-01 -2.903636e-01 2.644347e-01 1.057271e-01 1.510774e-01 1.702813e-01 -8.080676e-03 1.814098e-01 1.483322e-01 -4.610473e-02 2.507069e-01 1.368152e-01 1.559041e-01 1.291757e-01 -6.068051e-02
<VARIANCE> 39
 2.334584e+01 2.102283e+01 2.280649e+01 2.674570e+01 3.373090e+01 3.254640e+01 3.304498e+01 3.377723e+01 3.410946e+01 3.686359e+01 3.150428e+01 2.446456e+01 1.237208e+01 1.074843e+00 1.039541e+00 1.291881e+00 1.622310e+00 1.931096e+00 2.072614e+00 2.206580e+00 2.218987e+00 2.354300e+00 2.371011e+00 2.056872e+00 1.830653e+00 8.487842e-01 2.357164e-01 2.534272e-01 3.090707e-01 4.484260e-01 4.601568e-01 4.944220e-01 5.087995e-01 4.726636e-01 4.907010e-01 4.898040e-01 4.366449e-01 3.742228e-01 1.779439e-01
<GCONST> 1.086496e+02
<MIXTURE> 3 8.538570e-02
<MEAN> 39
 -1.073924e+01 -3.623976e+00 5.437935e+00 2.034351e+00 3.421568e+00 5.101198e+00 4.279469e+00 2.339094e+00 3.144729e+00 2.626573e+00 3.141085e+00 3.899795e+00 5.210012e+01 9.592651e-02 2.409197e-01 3.280052e-01 3.785301e-01 2.501144e-01 2.949534e-01 2.789717e-01 1.330860e-01 1.771454e-01 1.886035e-01 1.494640e-01 1.872043e-01 -5.153314e-02 3.465240e-02 7.650260e-03 5.279981e-03 -1.859290e-02 4.606799e-02 6.003327e-02 1.053166e-01 2.020726e-01 2.020551e-01 2.015750e-01 2.216040e-01 1.604790e-01 1.221456e-01
<VARIANCE> 39
 4.215856e+00 5.443672e+00 7.060397e+00 7.964002e+00 1.133133e+01 1.108751e+01 1.327784e+01 1.511824e+01 1.528328e+01 1.624442e+01 1.429849e+01 1.278774e+01 4.809626e+00 4.330044e-01 5.340816e-01 6.283513e-01 7.976038e-01 1.078194e+00 1.155715e+00 1.336246e+00 1.465843e+00 1.516186e+00 1.563971e+00 1.352965e+00 1.205848e+00 2.541005e-01 8.851535e-02 9.918203e-02 1.241688e-01 1.648005e-01 2.252356e-01 2.313825e-01 2.607745e-01 2.839152e-01 2.930087e-01 3.052729e-01 2.588886e-01 2.413008e-01 5.415866e-02
<GCONST> 7.770429e+01
<MIXTURE> 4 3.929184e-02
<MEAN> 39
 -1.132865e+01 -3.981072e+00 4.494746e+00 8.729772e-01 2.397986e+00 4.689847e+00 4.452742e+00 4.002933e+00 4.708621e+00 4.390171e+00 4.881477e+00 5.044137e+00 5.439311e+01 -2.557036e-01 2.788464e-01 5.283573e-01 6.486854e-01 7.368511e-01 4.287432e-01 5.777129e-01 6.415322e-01 3.449578e-01 4.900354e-01 5.377202e-01 3.872132e-01 3.213062e-01 2.404601e-01 9.102777e-02 1.368691e-01 1.548162e-02 7.518321e-02 2.372248e-02 1.290669e-02 7.718911e-02 -6.476241e-02 -4.980066e-02 2.579093e-03 5.334444e-03 3.130742e-01
<VARIANCE> 39
 1.549173e+01 1.217458e+01 1.798919e+01 2.224134e+01 2.545807e+01 2.457678e+01 2.490148e+01 2.312600e+01 2.305852e+01 2.261676e+01 1.941313e+01 1.681743e+01 1.612788e+01 2.484000e+00 1.968728e+00 2.802558e+00 4.279383e+00 3.943754e+00 4.012635e+00 3.810963e+00 3.166235e+00 3.178965e+00 3.008460e+00 2.585026e+00 2.154863e+00 3.238951e+00 3.515075e-01 2.598493e-01 3.902814e-01 5.284535e-01 5.471957e-01 5.202324e-01 5.635670e-01 4.955009e-01 5.007083e-01 4.608220e-01 4.189332e-01 3.515218e-01 4.343179e-01
<GCONST> 1.142833e+02
<MIXTURE> 5 8.120480e-02
<MEAN> 39
 -1.058237e+01 -3.822323e+00 5.337256e+00 1.549626e+00 2.891419e+00 4.567755e+00 3.680091e+00 1.766874e+00 2.462332e+00 2.055860e+00 2.720799e+00 3.456463e+00 5.276107e+01 1.939292e-01 3.204603e-01 3.821068e-01 3.863464e-01 1.961885e-01 1.659048e-01 9.836148e-02 -7.321769e-02 -4.562712e-02 -4.112916e-02 -7.063234e-02 8.003829e-02 -1.025812e-02 4.248744e-02 2.839963e-02 1.444765e-02 -8.845970e-03 5.640149e-02 5.473809e-02 1.007416e-01 1.993771e-01 1.945535e-01 1.823002e-01 1.864763e-01 1.408134e-01 1.407575e-01
<VARIANCE> 39
 4.491965e+00 5.750566e+00 7.813781e+00 8.469815e+00 1.152112e+01 1.128478e+01 1.319128e+01 1.511723e+01 1.618654e+01 1.610373e+01 1.424769e+01 1.272061e+01 5.268102e+00 4.535280e-01 5.501146e-01 6.336809e-01 7.980816e-01 1.097156e+00 1.194910e+00 1.338209e+00 1.468636e+00 1.508147e+00 1.543152e+00 1.343742e+00 1.226091e+00 2.682379e-01 9.363870e-02 1.024956e-01 1.276758e-01 1.703480e-01 2.291675e-01 2.369544e-01 2.615830e-01 2.844993e-01 2.941186e-01 3.007053e-01 2.566277e-01 2.413730e-01 6.194070e-02
<GCONST> 7.863927e+01
<MIXTURE> 6 7.407505e-02
<MEAN> 39
 -1.103082e+01 -3.915269e+00 5.062426e+00 1.764771e+00 3.094221e+00 5.364013e+00 4.854946e+00 3.069826e+00 4.207396e+00 3.898516e+00 4.410028e+00 4.490157e+00 5.146662e+01 9.876408e-02 1.498516e-01 1.243821e-01 1.421334e-01 1.979641e-01 2.237984e-01 2.233002e-01 2.714368e-01 2.838148e-01 3.320675e-01 2.318694e-01 2.086322e-01 9.338874e-02 9.182206e-02 5.984891e-02 7.100224e-02 3.957495e-02 6.484360e-02 2.557046e-02 2.163463e-02 5.919223e-02 3.679959e-02 1.078337e-02 2.726687e-02 5.250753e-02 1.260797e-01
<VARIANCE> 39
 2.998784e+00 3.814664e+00 5.520957e+00 6.466223e+00 9.181302e+00 9.799195e+00 1.266944e+01 1.374163e+01 1.389303e+01 1.499773e+01 1.367992e+01 1.144736e+01 5.122468e+00 4.974298e-01 5.593424e-01 6.551732e-01 8.825775e-01 1.145329e+00 1.191484e+00 1.373611e+00 1.536711e+00 1.603310e+00 1.638844e+00 1.380479e+00 1.211396e+00 3.041779e-01 7.123228e-02 8.170220e-02 1.036934e-01 1.446671e-01 1.966675e-01 2.126440e-01 2.562103e-01 2.699110e-01 2.792331e-01 2.953796e-01 2.602921e-01 2.263941e-01 4.701865e-02
<GCONST> 7.532038e+01
<MIXTURE> 7 6.627120e-02
<MEAN> 39
 -1.001392e+01 -4.999613e+00 3.956609e+00 -4.528419e-01 3.544409e+00 3.841252e+00 2.915223e+00 4.673210e+00 2.116968e+00 2.229153e+00 3.197170e+00 3.559401e+00 5.768866e+01 -5.180113e-02 9.352192e-03 2.147485e-01 2.683982e-01 4.715255e-01 3.553565e-01 4.648210e-01 4.574394e-01 4.240351e-01 4.920916e-01 4.632825e-01 4.533209e-01 -1.147563e-01 2.202176e-01 1.481328e-01 1.796503e-01 1.889460e-01 -1.250529e-02 1.253618e-01 1.576253e-01 -2.505997e-02 2.072649e-01 1.075709e-01 1.505584e-01 1.245116e-01 -5.074546e-02
<VARIANCE> 39
 2.340785e+01 2.366748e+01 2.596873e+01 2.825715e+01 3.512107e+01 3.469487e+01 3.314551e+01 3.504454e+01 3.783626e+01 3.866069e+01 3.439892e+01 2.660627e+01 1.370464e+01 8.701565e-01 9.644015e-01 1.156181e+00 1.444832e+00 1.760599e+00 1.890843e+00 1.999594e+00 2.019171e+00 2.101707e+00 2.087957e+00 1.918598e+00 1.683095e+00 7.067184e-01 2.025343e-01 2.401992e-01 2.992358e-01 4.162072e-01 4.261890e-01 4.634435e-01 4.820513e-01 4.646517e-01 4.813873e-01 4.784074e-01 4.370319e-01 3.710740e-01 1.497850e-01
<GCONST> 1.073103e+02
<MIXTURE> 8 2.873904e-02
<MEAN> 39
 -1.064083e+01 -3.863859e+00 4.626156e+00 1.259494e+00 2.056267e+00 4.939792e+00 4.259296e+00 3.145987e+00 4.586001e+00 3.882964e+00 4.290929e+00 4.455045e+00 5.314616e+01 5.935837e-01 3.582488e-01 3.908723e-01 6.323212e-02 1.484323e-01 -2.381918e-02 -2.372458e-01 -8.657691e-02 -2.893053e-01 -1.467844e-01 -2.361607e-01 -1.107973e-01 1.223547e+00 4.722112e-01 7.936027e-02 -1.683354e-03 -4.279592e-01 -2.852643e-01 -3.026615e-01 -2.855277e-01 -7.031503e-02 -2.179140e-01 -1.358818e-01 -2.144158e-01 -1.256793e-01 9.710805e-01
<VARIANCE> 39
 7.935115e+00 9.035391e+00 1.442439e+01 1.676321e+01 2.046466e+01 1.895257e+01 1.994335e+01 1.987346e+01 2.057273e+01 2.197195e+01 1.757874e+01 1.655408e+01 1.085164e+01 2.247351e+00 2.618743e+00 3.549915e+00 5.011595e+00 4.758551e+00 3.975370e+00 3.957719e+00 3.656162e+00 3.464618e+00 3.168118e+00 2.777514e+00 2.509549e+00 3.363978e+00 3.238441e-01 4.504112e-01 5.870805e-01 7.541985e-01 8.100027e-01 6.283085e-01 6.436267e-01 6.365364e-01 5.846627e-01 5.502168e-01 5.165175e-01 4.451506e-01 5.769514e-01
<GCONST> 1.159041e+02
<MIXTURE> 9 8.538570e-02
<MEAN> 39
 -1.156054e+01 -4.557243e+00 4.375079e+00 9.055287e-01 2.075086e+00 3.769281e+00 2.821918e+00 7.838064e-01 1.580975e+00 1.014399e+00 1.628551e+00 2.469397e+00 5.122288e+01 -1.672858e-01 -5.140386e-02 1.093078e-02 2.129547e-02 -1.652301e-01 -1.350634e-01 -1.834127e-01 -3.512020e-01 -3.153886e-01 -3.116318e-01 -3.158041e-01 -2.520401e-01 -2.531667e-01 -8.435372e-02 -1.183225e-01 -1.356704e-01 -1.809754e-01 -1.437680e-01 -1.323757e-01 -9.894774e-02 -1.106217e-02 -1.446604e-02 -1.943108e-02 1.807960e-02 -3.601054e-02 2.905751e-02
<VARIANCE> 39
 4.215856e+00 5.443672e+00 7.060397e+00 7.964002e+00 1.133133e+01 1.108751e+01 1.327784e+01 1.511824e+01 1.528328e+01 1.624442e+01 1.429849e+01 1.278774e+01 4.809626e+00 4.330044e-01 5.340816e-01 6.283513e-01 7.976038e-01 1.078194e+00 1.155715e+00 1.336246e+00 1.465843e+00 1.516186e+00 1.563971e+00 1.352965e+00 1.205848e+00 2.541005e-01 8.851535e-02 9.918203e-02 1.241688e-01 1.648005e-01 2.252356e-01 2.313825e-01 2.607745e-01 2.839152e-01 2.930087e-01 3.052729e-01 2.588886e-01 2.413008e-01 5.415866e-02
<GCONST> 7.770429e+01
<MIXTURE> 10 8.120480e-02
<MEAN> 39
 -1.143015e+01 -4.781537e+00 4.219130e+00 3.855081e-01 1.533708e+00 3.224041e+00 2.227299e+00 2.116389e-01 8.530319e-01 4.506819e-01 1.210955e+00 2.029825e+00 5.184298e+01 -7.544880e-02 2.378148e-02 6.369056e-02 2.900478e-02 -2.227924e-01 -2.713430e-01 -3.643625e-01 -5.579669e-01 -5.368537e-01 -5.380238e-01 -5.343119e-01 -3.628777e-01 -2.174249e-01 -7.991432e-02 -9.966011e-02 -1.284794e-01 -1.739389e-01 -1.350843e-01 -1.399738e-01 -1.038392e-01 -1.397680e-02 -2.237731e-02 -3.704628e-02 -1.615746e-02 -5.570547e-02 4.120593e-02
<VARIANCE> 39
 4.491965e+00 5.750566e+00 7.813781e+00 8.469815e+00 1.152112e+01 1.128478e+01 1.319128e+01 1.511723e+01 1.618654e+01 1.610373e+01 1.424769e+01 1.272061e+01 5.268102e+00 4.535280e-01 5.501146e-01 6.336809e-01 7.980816e-01 1.097156e+00 1.194910e+00 1.338209e+00 1.468636e+00 1.508147e+00 1.543152e+00 1.343742e+00 1.226091e+00 2.682379e-01 9.363870e-02 1.024956e-01 1.276758e-01 1.703480e-01 2.291675e-01 2.369544e-01 2.615830e-01 2.844993e-01 2.941186e-01 3.007053e-01 2.566277e-01 2.413730e-01 6.194070e-02
<GCONST> 7.863927e+01
<MIXTURE> 11 7.407505e-02
<MEAN> 39
 -1.172350e+01 -4.696515e+00 4.122557e+00 7.476206e-01 1.882195e+00 4.111866e+00 3.431180e+00 1.587038e+00 2.716462e+00 2.349440e+00 2.930573e+00 3.136799e+00 5.056131e+01 -1.833507e-01 -1.493052e-01 -1.993890e-01 -2.336490e-01 -2.301161e-01 -2.128221e-01 -2.455043e-01 -2.244197e-01 -2.226726e-01 -1.800019e-01 -2.381057e-01 -2.316216e-01 -1.272206e-01 -1.493545e-02 -5.448548e-02 -5.780361e-02 -1.125656e-01 -1.125452e-01 -1.588829e-01 -1.808343e-01 -1.486196e-01 -1.745705e-01 -2.066120e-01 -1.768084e-01 -1.378160e-01 3.934458e-02
<VARIANCE> 39
 2.998784e+00 3.814664e+00 5.520957e+00 6.466223e+00 9.181302e+00 9.799195e+00 1.266944e+01 1.374163e+01 1.389303e+01 1.499773e+01 1.367992e+01 1.144736e+01 5.122468e+00 4.974298e-01 5.593424e-01 6.551732e-01 8.825775e-01 1.145329e+00 1.191484e+00 1.373611e+00 1.536711e+00 1.603310e+00 1.638844e+00 1.380479e+00 1.211396e+00 3.041779e-01 7.123228e-02 8.170220e-02 1.036934e-01 1.446671e-01 1.966675e-01 2.126440e-01 2.562103e-01 2.699110e-01 2.792331e-01 2.953796e-01 2.602921e-01 2.263941e-01 4.701865e-02
<GCONST> 7.532038e+01
<MIXTURE> 12 7.129455e-02
<MEAN> 39
 -1.175090e+01 -4.479853e+00 4.340474e+00 1.207642e+00 2.236817e+00 4.611784e+00 4.125312e+00 2.120190e+00 3.224901e+00 2.942611e+00 3.623742e+00 3.702760e+00 4.982888e+01 -2.412495e-01 -2.065090e-01 -2.364186e-01 -2.162353e-01 -1.881028e-01 -7.801969e-02 -8.560146e-02 -5.597970e-02 -2.206229e-02 4.165977e-03 -4.723442e-02 -1.200974e-01 -1.717156e-01 -3.418989e-02 -6.221880e-02 -7.064772e-02 -1.211125e-01 -1.064955e-01 -1.532850e-01 -1.793588e-01 -1.391570e-01 -1.656664e-01 -1.880563e-01 -1.671924e-01 -1.295461e-01 4.091172e-02
<VARIANCE> 39
 2.727133e+00 3.621450e+00 4.947297e+00 6.172122e+00 8.742985e+00 9.607720e+00 1.258412e+01 1.333242e+01 1.284393e+01 1.460718e+01 1.381706e+01 1.139002e+01 5.095862e+00 4.618536e-01 5.202307e-01 6.244271e-01 8.391886e-01 1.110215e+00 1.137659e+00 1.348774e+00 1.477862e+00 1.571084e+00 1.611604e+00 1.380349e+00 1.196505e+00 2.825636e-01 6.615190e-02 7.574925e-02 9.909017e-02 1.363859e-01 1.889488e-01 2.056331e-01 2.516053e-01 2.653805e-01 2.732058e-01 2.959652e-01 2.587211e-01 2.214572e-01 4.174469e-02
<GCONST> 7.377377e+01
<MIXTURE> 13 6.627120e-02
<MEAN> 39
 -1.194918e+01 -6.945583e+00 1.918227e+00 -2.579140e+00 1.173887e+00 1.485158e+00 6.123372e-01 2.305272e+00 -3.434800e-01 -2.579558e-01 8.511462e-01 1.496150e+00 5.620787e+01 -4.249299e-01 -3.834636e-01 -2.153549e-01 -2.124065e-01 -5.922474e-02 -1.946752e-01 -1.008070e-01 -1.109508e-01 -1.558555e-01 -8.589900e-02 -9.077145e-02 -6.561571e-02 -4.510225e-01 4.020237e-02 -4.790771e-02 -3.915954e-02 -6.911045e-02 -2.736379e-01 -1.469450e-01 -1.200944e-01 -2.977214e-01 -7.026340e-02 -1.690971e-01 -1.138752e-01 -1.191518e-01 -2.055537e-01
<VARIANCE> 39
 2.340785e+01 2.366748e+01 2.596873e+01 2.825715e+01 3.512107e+01 3.469487e+01 3.314551e+01 3.504454e+01 3.783626e+01 3.866069e+01 3.439892e+01 2.660627e+01 1.370464e+01 8.701565e-01 9.644015e-01 1.156181e+00 1.444832e+00 1.760599e+00 1.890843e+00 1.999594e+00 2.019171e+00 2.101707e+00 2.087957e+00 1.918598e+00 1.683095e+00 7.067184e-01 2.025343e-01 2.401992e-01 2.992358e-01 4.162072e-01 4.261890e-01 4.634435e-01 4.820513e-01 4.646517e-01 4.813873e-01 4.784074e-01 4.370319e-01 3.710740e-01 1.497850e-01
<GCONST> 1.073103e+02
<MIXTURE> 14 5.367795e-02
<MEAN> 39
 -1.239451e+01 -6.121151e+00 2.514439e+00 -1.980218e+00 1.392718e+00 1.498372e+00 1.222932e+00 2.531060e+00 -3.382155e-01 -7.912493e-02 1.303223e+00 1.964082e+00 5.548329e+01 -6.015393e-01 -5.007600e-01 -2.638775e-01 -1.483254e-01 -1.624647e-02 -1.053274e-02 1.686834e-01 1.670562e-01 1.613248e-01 2.393081e-01 2.679090e-01 1.651374e-01 -6.588815e-01 7.023212e-02 -9.563909e-02 -7.129912e-02 -9.757715e-02 -2.794201e-01 -9.985075e-02 -1.369885e-01 -3.211069e-01 -2.949331e-02 -1.431288e-01 -1.084123e-01 -1.155193e-01 -2.294141e-01
<VARIANCE> 39
 2.334584e+01 2.102283e+01 2.280649e+01 2.674570e+01 3.373090e+01 3.254640e+01 3.304498e+01 3.377723e+01 3.410946e+01 3.686359e+01 3.150428e+01 2.446456e+01 1.237208e+01 1.074843e+00 1.039541e+00 1.291881e+00 1.622310e+00 1.931096e+00 2.072614e+00 2.206580e+00 2.218987e+00 2.354300e+00 2.371011e+00 2.056872e+00 1.830653e+00 8.487842e-01 2.357164e-01 2.534272e-01 3.090707e-01 4.484260e-01 4.601568e-01 4.944220e-01 5.087995e-01 4.726636e-01 4.907010e-01 4.898040e-01 4.366449e-01 3.742228e-01 1.779439e-01
<GCONST> 1.086496e+02
<MIXTURE> 15 3.929184e-02
<MEAN> 39
 -1.290303e+01 -5.376756e+00 2.798200e+00 -1.013452e+00 3.797461e-01 2.706849e+00 2.456686e+00 2.079353e+00 2.787849e+00 2.487887e+00 3.119064e+00 3.403774e+00 5.278673e+01 -8.861320e-01 -2.823991e-01 -1.412763e-01 -1.787814e-01 -5.750445e-02 -3.725193e-01 -2.031547e-01 -7.022446e-02 -3.682283e-01 -2.037612e-01 -1.054004e-01 -1.999649e-01 -3.985772e-01 3.307864e-03 -1.128739e-01 -1.130209e-01 -2.752976e-01 -2.207075e-01 -2.647861e-01 -2.873777e-01 -2.043782e-01 -3.478054e-01 -3.213362e-01 -2.563211e-01 -2.318226e-01 4.946300e-02
<VARIANCE> 39
 1.549173e+01 1.217458e+01 1.798919e+01 2.224134e+01 2.545807e+01 2.457678e+01 2.490148e+01 2.312600e+01 2.305852e+01 2.261676e+01 1.941313e+01 1.681743e+01 1.612788e+01 2.484000e+00 1.968728e+00 2.802558e+00 4.279383e+00 3.943754e+00 4.012635e+00 3.810963e+00 3.166235e+00 3.178965e+00 3.008460e+00 2.585026e+00 2.154863e+00 3.238951e+00 3.515075e-01 2.598493e-01 3.902814e-01 5.284535e-01 5.471957e-01 5.202324e-01 5.635670e-01 4.955009e-01 5.007083e-01 4.608220e-01 4.189332e-01 3.515218e-01 4.343179e-01
<GCONST> 1.142833e+02
<MIXTURE> 16 2.873904e-02
<MEAN> 39
 -1.176761e+01 -5.066216e+00 3.106978e+00 -3.782225e-01 2.467514e-01 3.198410e+00 2.472977e+00 1.362801e+00 2.771715e+00 2.007994e+00 2.613849e+00 2.827577e+00 5.182848e+01 -6.062955e-03 -2.890525e-01 -3.627765e-01 -8.322315e-01 -7.241319e-01 -8.213524e-01 -1.033006e+00 -8.514206e-01 -1.033845e+00 -8.587527e-01 -9.027957e-01 -7.444595e-01 4.899013e-01 2.445820e-01 -1.890905e-01 -3.081681e-01 -7.753376e-01 -6.452649e-01 -6.197251e-01 -6.064331e-01 -3.894480e-01 -5.237670e-01 -4.325882e-01 -5.018924e-01 -3.925577e-01 6.672512e-01
<VARIANCE> 39
 7.935115e+00 9.035391e+00 1.442439e+01 1.676321e+01 2.046466e+01 1.895257e+01 1.994335e+01 1.987346e+01 2.057273e+01 2.197195e+01 1.757874e+01 1.655408e+01 1.085164e+01 2.247351e+00 2.618743e+00 3.549915e+00 5.011595e+00 4.758551e+00 3.975370e+00 3.957719e+00 3.656162e+00 3.464618e+00 3.168118e+00 2.777514e+00 2.509549e+00 3.363978e+00 3.238441e-01 4.504112e-01 5.870805e-01 7.541985e-01 8.100027e-01 6.283085e-01 6.436267e-01 6.365364e-01 5.846627e-01 5.502168e-01 5.165175e-01 4.451506e-01 5.769514e-01
<GCONST> 1.159041e+02
~h "b"
<BEGINHMM>
<NUMSTATES> 5
<STATE> 2
<NUMMIXES> 16
<MIXTURE> 1 5.120130e-02
<MEAN> 39
 -6.650090e-01 2.487900e+00 9.322153e+00 5.259276e+00 5.877865e-01 -2.693939e-01 -2.706732e+00 -6.541298e+00 -6.657806e+00 4.570701e-01 1.013817e+00 -4.270620e+00 5.804808e+01 -4.646772e-02 7.592831e-01 6.379536e-01 2.006805e-01 5.925552e-01 1.202682e+00 7.335957e-01 4.279471e-01 1.049281e+00 -1.742404e-01 -1.013091e-01 4.947879e-01 -5.844255e-01 -9.722391e-02 -1.130154e-01 9.658162e-03 -6.203703e-02 1.568050e-01 1.209091e-01 2.082685e-01 2.756148e-01 3.761988e-01 5.842328e-02 5.802277e-02 2.913259e-01 1.190016e-01
<VARIANCE> 39
 7.349522e+00 7.683555e+00 1.028190e+01 2.406158e+01 1.375309e+01 2.589711e+01 3.216171e+01 2.227135e+01 4.316234e+01 2.736490e+01 2.630723e+01 2.354026e+01 1.176349e+01 3.617666e-01 6.549992e-01 5.968508e-01 1.179140e+00 1.273682e+00 1.723476e+00 1.601995e+00 1.579848e+00 2.231655e+00 1.507591e+00 1.604482e+00 1.674934e+00 5.154867e-01 7.286867e-02 1.209840e-01 1.201655e-01 1.724715e-01 2.313478e-01 2.976131e-01 2.718925e-01 2.806144e-01 3.972111e-01 2.429097e-01 2.946968e-01 2.699345e-01 8.521647e-02
<GCONST> 8.991322e+01
<MIXTURE> 2 6.871845e-02
<MEAN> 39
 1.185914e+00 2.158368e-02 5.884842e+00 -4.538156e-01 -1.209846e+00 -1.706393e+00 -5.297788e+00 -6.102194e+00 -4.585700e+00 -6.358230e-01 4.923353e-01 -1.839872e+00 6.151853e+01 -4.857363e-01 1.980791e+00 1.222618e+00 2.023627e+00 1.858354e+00 2.019814e+00 1.807254e+00 1.716747e-01 4.968286e-01 -3.941478e-01 3.886764e-01 5.378903e-01 -2.009227e+00 -1.983594e-01 -4.407791e-01 1.536492e-01 -5.039116e-01 -4.415777e-01 -2.173326e-01 1.966513e-01 7.369070e-01 3.414927e-01 2.408124e-01 -1.600665e-02 1.169008e-01 8.462362e-01
<VARIANCE> 39
 7.662723e+00 2.086099e+01 2.180736e+01 3.840141e+01 2.493506e+01 3.745451e+01 3.880062e+01 4.412286e+01 4.553722e+01 3.340221e+01 4.131918e+01 2.467192e+01 1.385667e+01 1.119647e+00 1.682317e+00 2.831655e+00 4.568462e+00 3.272932e+00 3.741990e+00 3.979150e+00 4.111128e+00 4.243477e+00 3.067242e+00 3.884815e+00 3.601382e+00 1.228351e+00 1.481245e-01 2.573008e-01 4.827732e-01 5.983619e-01 4.346779e-01 4.456766e-01 6.498821e-01 5.365258e-01 7.323124e-01 5.360897e-01 4.771242e-01 4.937364e-01 2.130984e-01
<GCONST> 1.174224e+02
<MIXTURE> 3 6.882045e-02
<MEAN> 39
 1.591466e+00 2.587687e+00 6.858362e+00 1.894162e-01 -4.310861e+00 -5.401848e+00 -7.566308e+00 -6.994218e+00 -5.271057e+00 -9.443752e-01 -2.870188e+00 -4.349227e+00 6.082256e+01 -2.810960e-01 8.666711e-01 7.298033e-01 6.851062e-01 9.361210e-01 1.070478e+00 6.916448e-01 9.037627e-02 6.302795e-01 -1.428530e-01 5.743582e-01 6.689935e-01 -8.598119e-01 -1.485386e-01 -3.026263e-01 9.717729e-02 -8.816416e-02 1.633824e-01 1.849815e-01 2.006194e-01 4.059575e-01 1.963823e-01 2.485923e-01 2.780814e-01 2.400774e-01 3.335366e-01
<VARIANCE> 39
 3.572048e+00 9.554633e+00 1.307294e+01 2.408059e+01 2.701431e+01 3.292688e+01 4.096693e+01 5.417561e+01 3.465696e+01 3.641264e+01 3.377334e+01 2.777920e+01 7.895638e+00 3.437369e-01 4.999272e-01 6.644325e-01 8.496957e-01 1.725228e+00 1.768543e+00 1.252142e+00 1.783159e+00 1.684014e+00 1.959152e+00 1.606440e+00 1.760177e+00 2.600261e-01 7.758258e-02 1.600592e-01 2.214075e-01 3.168319e-01 3.747351e-01 3.469552e-01 3.247983e-01 4.663935e-01 3.510154e-01 3.848499e-01 3.897648e-01 3.388975e-01 1.697704e-01
<GCONST> 9.520514e+01
<MIXTURE> 4 4.653284e-02
<MEAN> 39
 -6.362655e+00 -2.321851e-01 6.958436e+00 2.118618e+00 1.649567e+00 2.587935e+00 2.776297e-01 -1.854569e+00 5.235267e-02 8.250353e-01 1.488123e+00 7.729748e-01 5.621714e+01 1.780105e+00 1.147358e+00 8.501427e-01 6.642017e-01 -1.376387e-01 -2.939930e-01 -4.946683e-01 -9.406184e-01 -1.038087e+00 -5.017030e-01 -5.271376e-01 -8.499663e-01 4.469824e-01 1.993773e-01 1.455266e-01 7.359120e-02 -1.020025e-01 -1.125102e-02 -3.510229e-02 3.040828e-02 2.302102e-01 5.934862e-02 9.035841e-02 7.704952e-02 7.483894e-02 4.891177e-01
<VARIANCE> 39
 2.065280e+01 2.080997e+01 1.593488e+01 2.460678e+01 2.226885e+01 4.353851e+01 4.693864e+01 4.501443e+01 3.589188e+01 2.808691e+01 2.880073e+01 2.817406e+01 3.142657e+01 1.352129e+00 1.696154e+00 1.219765e+00 1.375032e+00 1.560100e+00 2.422354e+00 2.958398e+00 2.829572e+00 2.340237e+00 2.633799e+00 2.346001e+00 2.495683e+00 1.837555e+00 5.103663e-01 3.674645e-01 3.350504e-01 5.047436e-01 4.955321e-01 6.761888e-01 7.517209e-01 9.140149e-01 6.509482e-01 5.560676e-01 4.978240e-01 6.393794e-01 3.754271e-01
<GCONST> 1.162425e+02
<MIXTURE> 5 7.837750e-02
<MEAN> 39
 1.277275e+00 1.893450e+00 6.171386e+00 -4.058670e-01 -5.814815e+00 -6.441612e+00 -7.419945e+00 -7.210821e+00 -5.236588e+00 -2.154029e+00 -4.167843e+00 -4.296487e+00 6.226462e+01 -8.518425e-02 7.659786e-01 5.138578e-01 5.575757e-01 7.469944e-01 9.311422e-01 4.766565e-01 4.303470e-02 2.828769e-01 -2.921849e-03 3.789746e-01 3.827527e-01 -6.755083e-01 -1.003410e-01 -2.999442e-01 1.571312e-01 -2.373869e-01 8.860898e-02 1.986654e-01 1.869830e-01 4.100305e-01 1.386618e-01 2.973864e-01 2.636306e-01 2.254512e-01 3.846867e-01
<VARIANCE> 39
 4.763596e+00 1.131087e+01 1.593015e+01 2.594242e+01 2.753033e+01 6.035930e+01 4.001872e+01 6.669722e+01 2.845180e+01 4.089140e+01 3.724725e+01 3.240497e+01 9.042535e+00 2.797947e-01 4.420350e-01 6.270249e-01 8.214441e-01 1.307838e+00 1.745472e+00 1.244494e+00 1.661062e+00 1.349326e+00 1.575632e+00 1.284593e+00 1.461707e+00 2.890196e-01 7.838174e-02 1.841927e-01 2.680114e-01 3.852530e-01 4.113999e-01 3.506441e-01 3.458796e-01 4.993871e-01 2.860384e-01 3.563851e-01 3.433959e-01 3.053915e-01 1.932942e-01
<GCONST> 9.590857e+01
<MIXTURE> 6 9.086425e-02
<MEAN> 39
 1.763089e+00 -2.470423e+00 3.532835e+00 -3.379786e+00 -2.389587e+00 -3.017315e+00 -7.008940e+00 -6.585756e+00 -5.047685e+00 7.798371e-01 1.888583e-01 -2.738154e+00 6.447010e+01 -9.764138e-02 1.579380e+00 1.007630e+00 1.631812e+00 1.279766e+00 1.207051e+00 7.947861e-01 -1.243601e-01 8.253849e-02 -6.644514e-02 6.855878e-01 6.193458e-01 -1.484242e+00 -1.342357e-01 -5.639548e-01 4.257366e-03 -6.451416e-01 -4.445351e-01 -2.083762e-01 3.372697e-01 9.160978e-01 4.695343e-01 1.327253e-01 -1.233952e-01 1.513854e-01 9.600815e-01
<VARIANCE> 39
 8.541467e+00 2.635671e+01 2.790635e+01 5.855381e+01 2.844848e+01 5.103188e+01 4.196821e+01 5.365017e+01 4.632894e+01 4.307386e+01 4.883132e+01 2.946248e+01 1.673058e+01 7.267982e-01 1.525342e+00 2.171177e+00 3.341823e+00 2.586481e+00 3.186394e+00 2.978067e+00 3.505857e+00 3.081227e+00 3.028205e+00 2.835706e+00 2.766154e+00 9.128824e-01 1.069016e-01 2.373286e-01 4.446460e-01 7.009624e-01 5.833974e-01 4.509313e-01 7.168715e-01 6.160150e-01 7.627219e-01 6.155233e-01 5.567844e-01 5.344190e-01 1.845466e-01
<GCONST> 1.172710e+02
<MIXTURE> 7 6.347035e-02
<MEAN> 39
 -1.452083e+00 2.486517e+00 9.210049e+00 2.983629e+00 7.743188e-01 -1.321900e-01 -2.893228e+00 -5.943507e+00 -5.146197e+00 -1.645614e+00 -9.699410e-01 -2.677038e+00 5.758260e+01 2.463536e-02 5.391172e-01 5.262475e-01 4.413778e-01 4.347357e-01 7.530673e-01 5.464993e-01 2.585827e-01 5.082960e-01 -1.426436e-01 -1.144244e-01 4.554282e-02 -3.065944e-01 2.766222e-02 -8.312213e-02 -6.749109e-02 -1.367688e-01 -3.929505e-02 6.919056e-04 1.005281e-01 2.104438e-01 2.246279e-01 1.222157e-01 9.255164e-02 1.916564e-01 2.378094e-01
<VARIANCE> 39
 8.143083e+00 7.450562e+00 1.053713e+01 1.404250e+01 1.596124e+01 2.235545e+01 2.233543e+01 1.974262e+01 3.006827e+01 2.628307e+01 2.772996e+01 1.966480e+01 1.150952e+01 3.778531e-01 5.116096e-01 5.365095e-01 9.189687e-01 1.151172e+00 1.541966e+00 1.300873e+00 1.566994e+00 1.621806e+00 1.492756e+00 1.570169e+00 1.306416e+00 3.620254e-01 8.130145e-02 1.053388e-01 1.121624e-01 1.708514e-01 2.160634e-01 2.501464e-01 2.559041e-01 2.438942e-01 2.944941e-01 2.812171e-01 2.651192e-01 2.226723e-01 8.032934e-02
<GCONST> 8.543560e+01
<MIXTURE> 8 3.201493e-02
<MEAN> 39
 -3.485703e+00 1.152051e+00 7.689589e+00 1.436886e+00 -7.909904e-01 -1.817855e+00 -3.656377e+00 -5.540470e+00 -3.191204e+00 -1.188265e+00 -1.955228e+00 -1.955711e+00 5.904911e+01 2.353785e+00 1.325794e+00 8.163940e-01 3.671968e-01 -8.843091e-01 -1.250215e+00 -1.707490e+00 -1.636878e+00 -1.440099e+00 -4.688487e-01 -1.040110e+00 -1.261392e+00 1.283414e+00 -6.963308e-02 -2.269350e-01 -1.357886e-01 -1.374547e-01 1.397488e-01 4.223137e-01 4.789731e-01 6.608399e-01 4.180161e-01 3.540779e-01 4.166576e-01 3.707684e-01 3.042019e-01
<VARIANCE> 39
 1.876772e+01 2.273076e+01 2.204791e+01 3.617019e+01 2.645521e+01 7.591972e+01 5.013414e+01 6.460190e+01 3.100686e+01 3.674171e+01 3.362688e+01 2.936411e+01 3.729354e+01 1.699785e+00 2.479033e+00 1.647696e+00 2.570044e+00 2.349827e+00 4.498375e+00 4.747303e+00 6.716518e+00 3.562649e+00 3.519828e+00 4.002072e+00 4.168287e+00 1.815842e+00 3.552131e-01 3.615664e-01 2.889723e-01 6.206353e-01 5.241165e-01 9.464493e-01 8.529506e-01 1.081514e+00 5.236573e-01 6.629601e-01 5.841779e-01 6.675235e-01 3.411849e-01
<GCONST> 1.246687e+02
<MIXTURE> 9 9.086425e-02
<MEAN> 39
 5.940573e-01 -4.523975e+00 1.419777e+00 -6.440605e+00 -4.523071e+00 -5.874779e+00 -9.600255e+00 -9.515608e+00 -7.770299e+00 -1.845390e+00 -2.606318e+00 -4.909328e+00 6.283398e+01 -4.386512e-01 1.085361e+00 4.182329e-01 9.005859e-01 6.364648e-01 4.930317e-01 1.045031e-01 -8.733175e-01 -6.195985e-01 -7.625147e-01 1.200560e-02 -4.592460e-02 -1.866422e+00 -2.650189e-01 -7.588204e-01 -2.624698e-01 -9.800355e-01 -7.500569e-01 -4.769818e-01 -1.403332e-03 6.021513e-01 1.201985e-01 -1.810958e-01 -4.218672e-01 -1.410305e-01 7.882459e-01
<VARIANCE> 39
 8.541467e+00 2.635671e+01 2.790635e+01 5.855381e+01 2.844848e+01 5.103188e+01 4.196821e+01 5.365017e+01 4.632894e+01 4.307386e+01 4.883132e+01 2.946248e+01 1.673058e+01 7.267982e-01 1.525342e+00 2.171177e+00 3.341823e+00 2.586481e+00 3.186394e+00 2.978067e+00 3.505857e+00 3.081227e+00 3.028205e+00 2.835706e+00 2.766154e+00 9.128824e-01 1.069016e-01 2.373286e-01 4.446460e-01 7.009624e-01 5.833974e-01 4.509313e-01 7.168715e-01 6.160150e-01 7.627219e-01 6.155233e-01 5.567844e-01 5.344190e-01 1.845466e-01
<GCONST> 1.172710e+02
<MIXTURE> 10 7.837750e-02
<MEAN> 39
 4.042487e-01 5.481842e-01 4.574883e+00 -2.443215e+00 -7.913589e+00 -9.549262e+00 -9.950359e+00 -1.047756e+01 -7.370197e+00 -4.711884e+00 -6.609065e+00 -6.573502e+00 6.106178e+01 -2.967668e-01 5.000358e-01 1.971182e-01 1.950415e-01 2.895514e-01 4.026769e-01 3.042892e-02 -4.724941e-01 -1.817650e-01 -5.050186e-01 -7.438497e-02 -1.008517e-01 -8.905505e-01 -2.123280e-01 -4.716148e-01 -4.994804e-02 -4.856619e-01 -1.679529e-01 -3.819549e-02 -4.826309e-02 1.273611e-01 -7.526839e-02 5.859441e-02 2.923062e-02 4.402228e-03 2.088257e-01
<VARIANCE> 39
 4.763596e+00 1.131087e+01 1.593015e+01 2.594242e+01 2.753033e+01 6.035930e+01 4.001872e+01 6.669722e+01 2.845180e+01 4.089140e+01 3.724725e+01 3.240497e+01 9.042535e+00 2.797947e-01 4.420350e-01 6.270249e-01 8.214441e-01 1.307838e+00 1.745472e+00 1.244494e+00 1.661062e+00 1.349326e+00 1.575632e+00 1.284593e+00 1.461707e+00 2.890196e-01 7.838174e-02 1.841927e-01 2.680114e-01 3.852530e-01 4.113999e-01 3.506441e-01 3.458796e-01 4.993871e-01 2.860384e-01 3.563851e-01 3.433959e-01 3.053915e-01 1.932942e-01
<GCONST> 9.590857e+01
<MIXTURE> 11 6.882045e-02
<MEAN> 39
 8.354717e-01 1.351265e+00 5.412102e+00 -1.773463e+00 -6.389873e+00 -7.697126e+00 -1.012652e+01 -9.938381e+00 -7.625863e+00 -3.358091e+00 -5.194782e+00 -6.457467e+00 5.969859e+01 -5.156124e-01 5.838490e-01 4.037524e-01 3.163904e-01 4.107292e-01 5.385314e-01 2.440482e-01 -4.437637e-01 1.112013e-01 -7.027318e-01 6.737655e-02 1.383068e-01 -1.063783e+00 -2.599532e-01 -4.626559e-01 -9.103855e-02 -3.133155e-01 -8.148004e-02 -5.063012e-02 -2.734487e-02 1.327855e-01 -4.060389e-02 4.472584e-04 2.835681e-02 7.217795e-03 1.687238e-01
<VARIANCE> 39
 3.572048e+00 9.554633e+00 1.307294e+01 2.408059e+01 2.701431e+01 3.292688e+01 4.096693e+01 5.417561e+01 3.465696e+01 3.641264e+01 3.377334e+01 2.777920e+01 7.895638e+00 3.437369e-01 4.999272e-01 6.644325e-01 8.496957e-01 1.725228e+00 1.768543e+00 1.252142e+00 1.783159e+00 1.684014e+00 1.959152e+00 1.606440e+00 1.760177e+00 2.600261e-01 7.758258e-02 1.600592e-01 2.214075e-01 3.168319e-01 3.747351e-01 3.469552e-01 3.247983e-01 4.663935e-01 3.510154e-01 3.848499e-01 3.897648e-01 3.388975e-01 1.697704e-01
<GCONST> 9.520514e+01
<MIXTURE> 12 6.871845e-02
<MEAN> 39
 7.864928e-02 -1.805370e+00 4.016908e+00 -2.932570e+00 -3.207246e+00 -4.154397e+00 -7.789394e+00 -8.759196e+00 -7.284951e+00 -2.947609e+00 -2.078865e+00 -3.826706e+00 6.002955e+01 -9.089898e-01 1.461975e+00 5.495168e-01 1.168669e+00 1.134704e+00 1.246046e+00 1.009342e+00 -6.393619e-01 -3.271595e-01 -1.094690e+00 -3.997209e-01 -2.212021e-01 -2.452551e+00 -3.523072e-01 -6.436785e-01 -1.242783e-01 -8.133270e-01 -7.052981e-01 -4.843686e-01 -1.258098e-01 4.439153e-01 -8.082986e-04 -5.206023e-02 -2.923034e-01 -1.641647e-01 6.615859e-01
<VARIANCE> 39
 7.662723e+00 2.086099e+01 2.180736e+01 3.840141e+01 2.493506e+01 3.745451e+01 3.880062e+01 4.412286e+01 4.553722e+01 3.340221e+01 4.131918e+01 2.467192e+01 1.385667e+01 1.119647e+00 1.682317e+00 2.831655e+00 4.568462e+00 3.272932e+00 3.741990e+00 3.979150e+00 4.111128e+00 4.243477e+00 3.067242e+00 3.884815e+00 3.601382e+00 1.228351e+00 1.481245e-01 2.573008e-01 4.827732e-01 5.983619e-01 4.346779e-01 4.456766e-01 6.498821e-01 5.365258e-01 7.323124e-01 5.360897e-01 4.771242e-01 4.937364e-01 2.130984e-01
<GCONST> 1.174224e+02
<MIXTURE> 13 6.347035e-02
<MEAN> 39
 -2.593527e+00 1.394689e+00 7.911611e+00 1.484697e+00 -8.237420e-01 -2.023452e+00 -4.783643e+00 -7.720813e+00 -7.339579e+00 -3.696294e+00 -3.076311e+00 -4.450838e+00 5.622558e+01 -2.212437e-01 2.530096e-01 2.332603e-01 5.792639e-02 5.564928e-03 2.563635e-01 9.027596e-02 -2.421358e-01 -1.104593e-03 -6.313572e-01 -6.156499e-01 -4.116514e-01 -5.472686e-01 -8.639142e-02 -2.129459e-01 -2.014537e-01 -3.021055e-01 -2.252255e-01 -1.993666e-01 -1.018197e-01 1.290120e-02 7.558681e-03 -8.990395e-02 -1.134073e-01 2.903700e-03 1.244396e-01
<VARIANCE> 39
 8.143083e+00 7.450562e+00 1.053713e+01 1.404250e+01 1.596124e+01 2.235545e+01 2.233543e+01 1.974262e+01 3.006827e+01 2.628307e+01 2.772996e+01 1.966480e+01 1.150952e+01 3.778531e-01 5.116096e-01 5.365095e-01 9.189687e-01 1.151172e+00 1.541966e+00 1.300873e+00 1.566994e+00 1.621806e+00 1.492756e+00 1.570169e+00 1.306416e+00 3.620254e-01 8.130145e-02 1.053388e-01 1.121624e-01 1.708514e-01 2.160634e-01 2.501464e-01 2.559041e-01 2.438942e-01 2.944941e-01 2.812171e-01 2.651192e-01 2.226723e-01 8.032934e-02
<GCONST> 8.543560e+01
<MIXTURE> 14 5.120130e-02
<MEAN> 39
 -1.749409e+00 1.379130e+00 8.039537e+00 3.297172e+00 -8.956199e-01 -2.304962e+00 -4.975184e+00 -8.429000e+00 -9.285728e+00 -1.635389e+00 -1.037806e+00 -6.211352e+00 5.667616e+01 -2.870559e-01 4.355550e-01 3.289292e-01 -2.336723e-01 1.411251e-01 6.775575e-01 2.273159e-01 -7.482092e-02 4.517323e-01 -6.653764e-01 -6.079817e-01 -2.288908e-02 -8.716151e-01 -2.052007e-01 -2.521464e-01 -1.290014e-01 -2.281558e-01 -3.558952e-02 -9.730665e-02 -3.047287e-04 6.372260e-02 1.241000e-01 -1.387202e-01 -1.591212e-01 8.350505e-02 2.234180e-03
<VARIANCE> 39
 7.349522e+00 7.683555e+00 1.028190e+01 2.406158e+01 1.375309e+01 2.589711e+01 3.216171e+01 2.227135e+01 4.316234e+01 2.736490e+01 2.630723e+01 2.354026e+01 1.176349e+01 3.617666e-01 6.549992e-01 5.968508e-01 1.179140e+00 1.273682e+00 1.723476e+00 1.601995e+00 1.579848e+00 2.231655e+00 1.507591e+00 1.604482e+00 1.674934e+00 5.154867e-01 7.286867e-02 1.209840e-01 1.201655e-01 1.724715e-01 2.313478e-01 2.976131e-01 2.718925e-01 2.806144e-01 3.972111e-01 2.429097e-01 2.946968e-01 2.699345e-01 8.521647e-02
<GCONST> 8.991322e+01
<MIXTURE> 15 4.653284e-02
<MEAN> 39
 -8.180470e+00 -2.056903e+00 5.361696e+00 1.344095e-01 -2.380280e-01 -5.141342e-02 -2.462842e+00 -4.538281e+00 -2.344041e+00 -1.294848e+00 -6.585298e-01 -1.350195e+00 5.397476e+01 1.314981e+00 6.264117e-01 4.083709e-01 1.951547e-01 -6.372545e-01 -9.165496e-01 -1.182668e+00 -1.613472e+00 -1.650001e+00 -1.150862e+00 -1.139804e+00 -1.481876e+00 -9.524339e-02 -8.638246e-02 -9.694885e-02 -1.579430e-01 -3.861837e-01 -2.928272e-01 -3.640251e-01 -3.163991e-01 -1.522063e-01 -2.633768e-01 -2.079214e-01 -2.051771e-01 -2.450059e-01 2.440293e-01
<VARIANCE> 39
 2.065280e+01 2.080997e+01 1.593488e+01 2.460678e+01 2.226885e+01 4.353851e+01 4.693864e+01 4.501443e+01 3.589188e+01 2.808691e+01 2.880073e+01 2.817406e+01 3.142657e+01 1.352129e+00 1.696154e+00 1.219765e+00 1.375032e+00 1.560100e+00 2.422354e+00 2.958398e+00 2.829572e+00 2.340237e+00 2.633799e+00 2.346001e+00 2.495683e+00 1.837555e+00 5.103663e-01 3.674645e-01 3.350504e-01 5.047436e-01 4.955321e-01 6.761888e-01 7.517209e-01 9.140149e-01 6.509482e-01 5.560676e-01 4.978240e-01 6.393794e-01 3.754271e-01
<GCONST> 1.162425e+02
<MIXTURE> 16 3.201493e-02
<MEAN> 39
 -5.218573e+00 -7.550203e-01 5.811381e+00 -9.687808e-01 -2.848376e+00 -5.303133e+00 -6.488595e+00 -8.755482e+00 -5.418556e+00 -3.612863e+00 -4.274776e+00 -4.123257e+00 5.660637e+01 1.832281e+00 6.959961e-01 3.029436e-01 -2.740575e-01 -1.497475e+00 -2.098589e+00 -2.579022e+00 -2.673528e+00 -2.195099e+00 -1.219297e+00 -1.840318e+00 -2.078048e+00 7.444017e-01 -3.080321e-01 -4.674566e-01 -3.508132e-01 -4.525763e-01 -1.498348e-01 3.317115e-02 1.095518e-01 2.448565e-01 1.285594e-01 2.838847e-02 1.109314e-01 4.395998e-02 7.055774e-02
<VARIANCE> 39
 1.876772e+01 2.273076e+01 2.204791e+01 3.617019e+01 2.645521e+01 7.591972e+01 5.013414e+01 6.460190e+01 3.100686e+01 3.674171e+01 3.362688e+01 2.936411e+01 3.729354e+01 1.699785e+00 2.479033e+00 1.647696e+00 2.570044e+00 2.349827e+00 4.498375e+00 4.747303e+00 6.716518e+00 3.562649e+00 3.519828e+00 4.002072e+00 4.168287e+00 1.815842e+00 3.552131e-01 3.615664e-01 2.889723e-01 6.206353e-01 5.241165e-01 9.464493e-01 8.529506e-01 1.081514e+00 5.236573e-01 6.629601e-01 5.841779e-01 6.675235e-01 3.411849e-01
<GCONST> 1.246687e+02
<STATE> 3
<NUMMIXES> 16
<MIXTURE> 1 5.316385e-02
<MEAN> 39
 -2.164456e+00 3.541083e+00 1.070957e+01 4.727696e+00 3.013286e+00 3.244623e+00 -3.208106e-01 -3.941812e+00 -2.561134e+00 -1.353091e+00 -1.287582e-01 -1.704527e+00 5.513360e+01 -6.159443e-01 3.544094e-01 7.434821e-01 8.102677e-01 1.039351e+00 9.983921e-01 1.134568e+00 1.016150e+00 9.684754e-01 4.277651e-02 -7.700092e-02 4.237213e-01 -5.111223e-01 1.913776e-01 -5.711996e-01 -4.023157e-01 -6.532664e-01 -5.800602e-01 -6.308540e-01 -3.509511e-01 3.149677e-01 4.243635e-02 3.370051e-01 3.457410e-01 1.293869e-01 1.116154e+00
<VARIANCE> 39
 8.930571e+00 5.480839e+00 9.604394e+00 1.529309e+01 1.241621e+01 1.703110e+01 1.517069e+01 2.181062e+01 2.412805e+01 1.687742e+01 1.693834e+01 2.094973e+01 5.974521e+00 8.705342e-01 9.703478e-01 1.035769e+00 1.897461e+00 1.679299e+00 1.938488e+00 2.229740e+00 2.481821e+00 2.508411e+00 1.902092e+00 2.005135e+00 1.645561e+00 8.571630e-01 2.171994e-01 1.798974e-01 4.360106e-01 5.351211e-01 3.763664e-01 5.636865e-01 2.984397e-01 3.806613e-01 4.699393e-01 4.031792e-01 3.545023e-01 4.140845e-01 1.894389e-01
<GCONST> 9.771321e+01
<MIXTURE> 2 6.082065e-02
<MEAN> 39
 2.172796e+00 1.030696e+00 3.902412e+00 -3.090790e+00 -3.393968e+00 8.281168e-01 -2.142976e+00 -7.126617e+00 -9.308494e+00 -2.315751e+00 2.557420e+00 -1.067073e+00 6.230180e+01 1.106919e-01 -1.730709e-01 -2.900633e-01 -8.918765e-01 2.405801e-01 -7.079175e-02 -2.737650e-02 1.322888e+00 1.988822e+00 1.043880e+00 5.480169e-01 7.542915e-01 7.207523e-01 8.536526e-02 -8.106189e-01 -2.809390e-01 -6.715772e-01 -2.581070e-01 -2.712996e-01 -3.785973e-01 6.525634e-01 9.023095e-01 6.671237e-01 9.140281e-02 -1.436894e-01 1.127215e+00
<VARIANCE> 39
 6.254195e+00 2.028060e+01 1.944620e+01 7.050785e+01 2.990576e+01 3.340445e+01 3.500222e+01 4.057710e+01 4.085678e+01 3.418060e+01 4.042577e+01 3.445258e+01 1.040981e+01 8.471537e-01 1.636682e+00 1.740336e+00 4.380117e+00 2.803504e+00 2.536186e+00 3.865386e+00 3.431140e+00 4.347370e+00 3.259511e+00 3.074390e+00 2.999181e+00 1.056657e+00 1.366331e-01 2.276180e-01 4.887105e-01 8.417881e-01 6.770520e-01 5.344684e-01 4.606403e-01 7.262593e-01 8.599384e-01 5.591737e-01 8.045260e-01 6.483930e-01 2.285495e-01
<GCONST> 1.172354e+02
<MIXTURE> 3 5.959880e-02
<MEAN> 39
 1.786246e+00 -2.639553e+00 4.979392e+00 -2.763484e+00 -2.694227e+00 -7.358834e+00 -9.457593e+00 -5.117491e+00 -2.752556e+00 2.759163e+00 -3.776213e-01 -3.587860e+00 6.493081e+01 -6.305370e-02 -9.470212e-02 7.940538e-01 -1.148670e-01 -3.406954e-01 2.311298e-02 6.846018e-01 1.275533e+00 2.942851e-01 2.823871e-02 3.232647e-01 4.857743e-01 4.655989e-01 -1.637769e-01 -5.692399e-01 1.931918e-01 -7.415143e-01 -6.303912e-01 -1.273000e-01 6.953149e-01 9.491447e-01 8.820600e-02 -5.978301e-03 -2.104601e-02 3.115052e-01 1.007300e+00
<VARIANCE> 39
 6.859343e+00 2.777332e+01 3.408715e+01 4.112251e+01 2.613895e+01 4.352383e+01 3.136823e+01 5.853848e+01 2.623051e+01 3.150094e+01 4.341747e+01 2.249564e+01 1.982164e+01 6.361052e-01 9.987542e-01 2.464641e+00 2.284653e+00 1.658991e+00 2.991127e+00 1.993223e+00 3.133835e+00 2.387836e+00 2.275898e+00 1.702489e+00 1.772665e+00 7.135628e-01 1.565297e-01 3.774502e-01 5.584499e-01 7.155280e-01 5.704704e-01 6.646312e-01 4.817903e-01 8.338099e-01 6.303405e-01 4.621423e-01 6.208383e-01 4.463929e-01 2.215914e-01
<GCONST> 1.128293e+02
<MIXTURE> 4 7.459285e-02
<MEAN> 39
 -1.615087e+00 3.644572e+00 1.023908e+01 3.074039e+00 8.675254e-01 -1.046389e-02 -2.886773e+00 -5.407389e+00 -3.478565e+00 -3.376738e+00 -3.068320e+00 -4.110215e+00 5.676249e+01 -3.625153e-01 -4.274052e-01 3.847397e-01 -4.637161e-02 -2.808973e-02 -1.412150e-01 4.106198e-01 9.427208e-01 5.653129e-01 4.355395e-01 7.784703e-01 6.969812e-01 9.926178e-01 2.254613e-01 -8.182058e-01 -1.009646e-01 -9.871391e-01 -9.443564e-01 -6.574872e-01 -2.161350e-01 6.038486e-01 -1.062219e-01 6.288170e-01 3.965360e-01 4.298415e-01 1.395643e+00
<VARIANCE> 39
 7.207695e+00 6.502919e+00 9.808620e+00 1.102150e+01 1.558564e+01 1.969496e+01 2.237973e+01 2.143199e+01 2.068681e+01 2.170429e+01 2.006952e+01 1.476482e+01 6.266585e+00 1.554864e+00 1.285014e+00 1.961390e+00 2.078627e+00 2.421366e+00 3.143267e+00 2.949883e+00 2.751002e+00 2.384216e+00 1.954328e+00 1.793839e+00 1.987849e+00 1.497886e+00 2.339091e-01 2.870359e-01 1.003100e+00 9.192485e-01 6.404439e-01 9.013165e-01 5.823394e-01 7.792567e-01 7.918510e-01 6.667562e-01 5.155492e-01 4.165319e-01 2.313647e-01
<GCONST> 1.074139e+02
<MIXTURE> 5 8.038950e-02
<MEAN> 39
 -1.693497e+00 2.628370e+00 8.806011e+00 2.023379e+00 -4.872919e-01 -1.809302e+00 -4.805715e+00 -5.512704e+00 -3.470960e+00 -3.530921e+00 -3.223187e+00 -3.921340e+00 5.744422e+01 -4.114036e-01 -4.971303e-01 1.063390e+00 -1.797095e-01 -4.198260e-01 -7.210672e-02 5.717216e-01 8.139445e-01 1.544502e-02 2.908689e-01 6.282408e-01 6.919633e-01 1.116114e+00 1.493832e-01 -7.241101e-01 3.001527e-01 -1.256606e+00 -1.096213e+00 -4.963988e-01 -9.727651e-02 3.296461e-01 -5.232526e-02 6.600538e-01 7.526687e-02 4.109012e-01 1.398255e+00
<VARIANCE> 39
 7.888455e+00 8.398041e+00 8.820181e+00 1.027782e+01 1.419643e+01 1.705444e+01 2.082822e+01 2.002088e+01 1.989377e+01 2.068711e+01 1.987490e+01 1.580703e+01 7.062094e+00 1.479103e+00 1.283296e+00 2.435908e+00 2.157368e+00 2.737228e+00 2.827205e+00 2.634488e+00 2.727625e+00 2.131606e+00 1.889632e+00 1.658522e+00 1.993385e+00 1.454422e+00 2.567926e-01 3.398060e-01 1.137343e+00 7.100974e-01 6.578937e-01 5.966914e-01 6.534555e-01 6.811445e-01 7.070298e-01 5.561389e-01 5.397702e-01 4.661449e-01 2.309397e-01
<GCONST> 1.067308e+02
<MIXTURE> 6 5.934180e-02
<MEAN> 39
 -2.516236e+00 2.776703e+00 9.554850e+00 2.956827e+00 1.602055e+00 2.010921e+00 -9.651452e-01 -4.418859e+00 -3.101628e+00 -1.946548e+00 -1.106217e+00 -1.922272e+00 5.558534e+01 -2.094691e-01 2.207691e-01 3.616411e-01 2.593409e-01 4.316169e-01 4.804555e-01 4.934009e-01 5.546565e-01 5.637718e-01 -1.384608e-01 -7.996625e-02 1.010164e-01 1.366554e-01 2.653234e-01 -5.853068e-01 -2.984197e-01 -6.939229e-01 -6.091657e-01 -6.849711e-01 -4.442003e-01 3.364059e-01 1.316749e-01 4.062601e-01 2.661121e-01 1.891167e-01 1.213120e+00
<VARIANCE> 39
 1.350660e+01 7.139851e+00 1.306181e+01 1.528144e+01 1.191327e+01 1.529710e+01 1.751702e+01 2.377257e+01 2.338201e+01 2.084327e+01 1.891316e+01 1.938278e+01 7.781832e+00 8.303392e-01 7.408916e-01 8.109255e-01 1.205877e+00 1.247889e+00 1.746289e+00 1.800329e+00 1.856650e+00 1.954820e+00 1.658020e+00 1.671767e+00 1.451513e+00 8.408873e-01 1.969704e-01 1.946308e-01 5.226053e-01 5.594223e-01 3.608911e-01 5.707259e-01 3.983836e-01 5.129077e-01 5.322642e-01 4.814266e-01 4.450932e-01 3.613423e-01 2.172611e-01
<GCONST> 9.791624e+01
<MIXTURE> 7 5.510795e-02
<MEAN> 39
 1.151909e+00 -3.125661e+00 4.151375e+00 -2.801998e+00 -2.262671e+00 -6.754348e+00 -1.005568e+01 -7.514834e+00 -3.039166e+00 3.333243e+00 -2.416388e+00 -4.905956e+00 6.464220e+01 -6.038207e-02 -4.234190e-01 5.697514e-01 -6.807044e-01 -4.584404e-01 -3.686816e-03 8.072094e-01 1.864993e+00 5.227443e-01 2.605421e-01 2.750668e-02 2.368302e-01 8.951919e-01 -1.931144e-01 -7.495450e-01 1.019747e-01 -1.024433e+00 -6.152791e-01 -1.428051e-01 8.493820e-01 1.113506e+00 1.986971e-01 -1.457179e-01 -1.445534e-01 5.039577e-01 1.184619e+00
<VARIANCE> 39
 7.470729e+00 2.198979e+01 2.803198e+01 3.987482e+01 2.787486e+01 4.776908e+01 2.624427e+01 6.465656e+01 2.512801e+01 3.163066e+01 3.360854e+01 2.295400e+01 1.461458e+01 5.440260e-01 1.249990e+00 2.871455e+00 3.244639e+00 1.877727e+00 3.377571e+00 1.961256e+00 4.690571e+00 2.544057e+00 2.474100e+00 2.039238e+00 2.057805e+00 1.043205e+00 1.279909e-01 3.617749e-01 6.559339e-01 6.989347e-01 6.893533e-01 6.041250e-01 5.309712e-01 8.128623e-01 6.280046e-01 6.098145e-01 6.621909e-01 5.027378e-01 2.156945e-01
<GCONST> 1.145034e+02
<MIXTURE> 8 5.698470e-02
<MEAN> 39
 1.673151e+00 6.927704e-01 3.596664e+00 -2.338933e+00 -2.894373e+00 -2.678891e-01 -4.025776e+00 -7.984368e+00 -9.623004e+00 -2.147884e+00 1.348382e+00 -1.678077e+00 6.244883e+01 -6.170258e-03 -3.500723e-01 -5.435786e-02 -8.688229e-01 1.046154e-01 6.144071e-02 1.903364e-01 1.663874e+00 2.081402e+00 9.254603e-01 1.900597e-01 4.887227e-01 8.582022e-01 5.071814e-02 -7.964534e-01 -1.410860e-01 -6.451921e-01 -4.290521e-01 -2.565051e-01 -2.510044e-01 6.860125e-01 8.779191e-01 5.689607e-01 -4.733697e-02 1.065850e-03 1.141092e+00
<VARIANCE> 39
 7.424041e+00 1.895993e+01 2.200404e+01 6.582294e+01 3.064976e+01 3.268374e+01 3.956538e+01 5.567951e+01 3.313474e+01 4.332302e+01 4.361796e+01 3.959124e+01 9.893946e+00 1.072356e+00 1.847495e+00 2.400232e+00 4.863107e+00 2.804719e+00 2.489363e+00 4.592585e+00 4.881221e+00 4.383327e+00 3.348459e+00 2.689269e+00 3.087600e+00 1.197655e+00 1.735512e-01 2.702177e-01 6.911824e-01 8.895662e-01 7.976795e-01 6.023229e-01 5.053150e-01 8.925877e-01 7.227486e-01 5.730820e-01 7.081831e-01 7.981327e-01 2.354511e-01
<GCONST> 1.207286e+02
<MIXTURE> 9 8.038950e-02
<MEAN> 39
 -2.816953e+00 1.469195e+00 7.618059e+00 7.410172e-01 -1.994418e+00 -3.461182e+00 -6.631233e+00 -7.302492e+00 -5.255058e+00 -5.350245e+00 -5.006438e+00 -5.511662e+00 5.638124e+01 -8.978772e-01 -9.502609e-01 4.390938e-01 -7.672287e-01 -1.081609e+00 -7.446785e-01 -7.752262e-02 1.533235e-01 -5.685558e-01 -2.589867e-01 1.131064e-01 1.272141e-01 6.337163e-01 -5.331569e-02 -9.572817e-01 -1.264324e-01 -1.593675e+00 -1.420655e+00 -8.053820e-01 -4.206229e-01 -4.798621e-04 -3.886656e-01 3.617549e-01 -2.186094e-01 1.378020e-01 1.206031e+00
<VARIANCE> 39
 7.888455e+00 8.398041e+00 8.820181e+00 1.027782e+01 1.419643e+01 1.705444e+01 2.082822e+01 2.002088e+01 1.989377e+01 2.068711e+01 1.987490e+01 1.580703e+01 7.062094e+00 1.479103e+00 1.283296e+00 2.435908e+00 2.157368e+00 2.737228e+00 2.827205e+00 2.634488e+00 2.727625e+00 2.131606e+00 1.889632e+00 1.658522e+00 1.993385e+00 1.454422e+00 2.567926e-01 3.398060e-01 1.137343e+00 7.100974e-01 6.578937e-01 5.966914e-01 6.534555e-01 6.811445e-01 7.070298e-01 5.561389e-01 5.397702e-01 4.661449e-01 2.309397e-01
<GCONST> 1.067308e+02
<MIXTURE> 10 7.459285e-02
<MEAN> 39
 -2.688973e+00 2.624539e+00 8.986335e+00 1.746093e+00 -7.116207e-01 -1.785624e+00 -4.779061e+00 -7.259177e+00 -5.297875e+00 -5.240252e+00 -4.860281e+00 -5.647215e+00 5.576117e+01 -8.612921e-01 -8.808390e-01 -1.754589e-01 -6.230694e-01 -6.505193e-01 -8.503854e-01 -2.763891e-01 2.792750e-01 -5.232343e-02 -1.236497e-01 2.427332e-01 1.330168e-01 5.030652e-01 3.200469e-02 -1.032509e+00 -5.015842e-01 -1.370649e+00 -1.264467e+00 -1.037238e+00 -5.213796e-01 2.507465e-01 -4.621659e-01 3.021964e-01 1.093290e-01 1.716843e-01 1.203241e+00
<VARIANCE> 39
 7.207695e+00 6.502919e+00 9.808620e+00 1.102150e+01 1.558564e+01 1.969496e+01 2.237973e+01 2.143199e+01 2.068681e+01 2.170429e+01 2.006952e+01 1.476482e+01 6.266585e+00 1.554864e+00 1.285014e+00 1.961390e+00 2.078627e+00 2.421366e+00 3.143267e+00 2.949883e+00 2.751002e+00 2.384216e+00 1.954328e+00 1.793839e+00 1.987849e+00 1.497886e+00 2.339091e-01 2.870359e-01 1.003100e+00 9.192485e-01 6.404439e-01 9.013165e-01 5.823394e-01 7.792567e-01 7.918510e-01 6.667562e-01 5.155492e-01 4.165319e-01 2.313647e-01
<GCONST> 1.074139e+02
<MIXTURE> 11 6.082065e-02
<MEAN> 39
 1.172460e+00 -7.706640e-01 2.138498e+00 -6.449548e+00 -5.581414e+00 -1.483747e+00 -4.509482e+00 -9.674623e+00 -1.186527e+01 -4.654317e+00 1.416969e-02 -3.414925e+00 6.101122e+01 -2.574719e-01 -6.848024e-01 -8.177505e-01 -1.729026e+00 -4.291666e-01 -7.078080e-01 -8.137999e-01 5.819544e-01 1.154808e+00 3.217150e-01 -1.533407e-01 6.156570e-02 3.095770e-01 -6.249040e-02 -1.001456e+00 -5.605702e-01 -1.038573e+00 -5.872396e-01 -5.637290e-01 -6.500793e-01 3.116800e-01 5.313780e-01 3.680120e-01 -2.673787e-01 -4.657808e-01 9.359872e-01
<VARIANCE> 39
 6.254195e+00 2.028060e+01 1.944620e+01 7.050785e+01 2.990576e+01 3.340445e+01 3.500222e+01 4.057710e+01 4.085678e+01 3.418060e+01 4.042577e+01 3.445258e+01 1.040981e+01 8.471537e-01 1.636682e+00 1.740336e+00 4.380117e+00 2.803504e+00 2.536186e+00 3.865386e+00 3.431140e+00 4.347370e+00 3.259511e+00 3.074390e+00 2.999181e+00 1.056657e+00 1.366331e-01 2.276180e-01 4.887105e-01 8.417881e-01 6.770520e-01 5.344684e-01 4.606403e-01 7.262593e-01 8.599384e-01 5.591737e-01 8.045260e-01 6.483930e-01 2.285495e-01
<GCONST> 1.172354e+02
<MIXTURE> 12 5.959880e-02
<MEAN> 39
 7.386321e-01 -4.747569e+00 2.644024e+00 -5.328558e+00 -4.739277e+00 -9.997738e+00 -1.169789e+01 -8.177909e+00 -4.801186e+00 5.141350e-01 -3.013299e+00 -5.485043e+00 6.314995e+01 -3.820785e-01 -4.944529e-01 1.660868e-01 -7.194698e-01 -8.559027e-01 -6.686820e-01 1.198756e-01 5.674276e-01 -3.238199e-01 -5.752045e-01 -1.986532e-01 -4.679154e-02 1.277083e-01 -3.220323e-01 -8.149878e-01 -1.057263e-01 -1.079870e+00 -9.325092e-01 -4.533997e-01 4.176705e-01 5.838919e-01 -2.293700e-01 -2.779025e-01 -3.362192e-01 4.425462e-02 8.190055e-01
<VARIANCE> 39
 6.859343e+00 2.777332e+01 3.408715e+01 4.112251e+01 2.613895e+01 4.352383e+01 3.136823e+01 5.853848e+01 2.623051e+01 3.150094e+01 4.341747e+01 2.249564e+01 1.982164e+01 6.361052e-01 9.987542e-01 2.464641e+00 2.284653e+00 1.658991e+00 2.991127e+00 1.993223e+00 3.133835e+00 2.387836e+00 2.275898e+00 1.702489e+00 1.772665e+00 7.135628e-01 1.565297e-01 3.774502e-01 5.584499e-01 7.155280e-01 5.704704e-01 6.646312e-01 4.817903e-01 8.338099e-01 6.303405e-01 4.621423e-01 6.208383e-01 4.463929e-01 2.215914e-01
<GCONST> 1.128293e+02
<MIXTURE> 13 5.934180e-02
<MEAN> 39
 -3.986290e+00 1.707883e+00 8.109205e+00 1.393167e+00 2.214309e-01 4.464608e-01 -2.639279e+00 -6.369144e+00 -5.035826e+00 -3.772725e+00 -2.845787e+00 -3.683308e+00 5.446950e+01 -5.739609e-01 -1.235312e-01 1.435488e-03 -1.799088e-01 -1.521891e-02 -4.813348e-02 -4.330449e-02 9.620696e-03 4.512340e-03 -6.535174e-01 -5.971535e-01 -3.808986e-01 -2.301442e-01 8.779800e-02 -7.617747e-01 -5.875855e-01 -9.931011e-01 -8.494625e-01 -9.871567e-01 -6.966709e-01 4.993565e-02 -1.601509e-01 1.287205e-01 -7.491112e-04 -5.133034e-02 1.026675e+00
<VARIANCE> 39
 1.350660e+01 7.139851e+00 1.306181e+01 1.528144e+01 1.191327e+01 1.529710e+01 1.751702e+01 2.377257e+01 2.338201e+01 2.084327e+01 1.891316e+01 1.938278e+01 7.781832e+00 8.303392e-01 7.408916e-01 8.109255e-01 1.205877e+00 1.247889e+00 1.746289e+00 1.800329e+00 1.856650e+00 1.954820e+00 1.658020e+00 1.671767e+00 1.451513e+00 8.408873e-01 1.969704e-01 1.946308e-01 5.226053e-01 5.594223e-01 3.608911e-01 5.707259e-01 3.983836e-01 5.129077e-01 5.322642e-01 4.814266e-01 4.450932e-01 3.613423e-01 2.172611e-01
<GCONST> 9.791624e+01
<MIXTURE> 14 5.698470e-02
<MEAN> 39
 5.832672e-01 -1.048950e+00 1.720326e+00 -5.584187e+00 -5.108862e+00 -2.554677e+00 -6.541817e+00 -1.096912e+01 -1.192552e+01 -4.780694e+00 -1.293374e+00 -4.194940e+00 6.119065e+01 -4.203888e-01 -8.937627e-01 -6.740651e-01 -1.750921e+00 -5.652764e-01 -5.696679e-01 -6.668764e-01 7.801343e-01 1.243946e+00 1.935085e-01 -4.658999e-01 -2.141401e-01 4.204524e-01 -1.159198e-01 -1.004383e+00 -4.736356e-01 -1.022459e+00 -7.863037e-01 -5.669429e-01 -5.353464e-01 3.081051e-01 5.378607e-01 2.661519e-01 -3.839514e-01 -3.562872e-01 9.469984e-01
<VARIANCE> 39
 7.424041e+00 1.895993e+01 2.200404e+01 6.582294e+01 3.064976e+01 3.268374e+01 3.956538e+01 5.567951e+01 3.313474e+01 4.332302e+01 4.361796e+01 3.959124e+01 9.893946e+00 1.072356e+00 1.847495e+00 2.400232e+00 4.863107e+00 2.804719e+00 2.489363e+00 4.592585e+00 4.881221e+00 4.383327e+00 3.348459e+00 2.689269e+00 3.087600e+00 1.197655e+00 1.735512e-01 2.702177e-01 6.911824e-01 8.895662e-01 7.976795e-01 6.023229e-01 5.053150e-01 8.925877e-01 7.227486e-01 5.730820e-01 7.081831e-01 7.981327e-01 2.354511e-01
<GCONST> 1.207286e+02
<MIXTURE> 15 5.510795e-02
<MEAN> 39
 5.860370e-02 -5.001391e+00 2.033565e+00 -5.327858e+00 -4.374537e+00 -9.518955e+00 -1.210484e+01 -1.073121e+01 -5.044280e+00 1.083597e+00 -4.735302e+00 -6.822370e+00 6.311304e+01 -3.554145e-01 -8.706309e-01 -1.080634e-01 -1.401220e+00 -1.006561e+00 -7.388136e-01 2.470300e-01 9.986835e-01 -1.152597e-01 -3.686288e-01 -5.437009e-01 -3.369719e-01 4.866422e-01 -3.362176e-01 -9.901360e-01 -2.219843e-01 -1.358843e+00 -9.473883e-01 -4.537070e-01 5.579109e-01 7.528706e-01 -1.182899e-01 -4.580804e-01 -4.700539e-01 2.203417e-01 9.988471e-01
<VARIANCE> 39
 7.470729e+00 2.198979e+01 2.803198e+01 3.987482e+01 2.787486e+01 4.776908e+01 2.624427e+01 6.465656e+01 2.512801e+01 3.163066e+01 3.360854e+01 2.295400e+01 1.461458e+01 5.440260e-01 1.249990e+00 2.871455e+00 3.244639e+00 1.877727e+00 3.377571e+00 1.961256e+00 4.690571e+00 2.544057e+00 2.474100e+00 2.039238e+00 2.057805e+00 1.043205e+00 1.279909e-01 3.617749e-01 6.559339e-01 6.989347e-01 6.893533e-01 6.041250e-01 5.309712e-01 8.128623e-01 6.280046e-01 6.098145e-01 6.621909e-01 5.027378e-01 2.156945e-01
<GCONST> 1.145034e+02
<MIXTURE> 16 5.316385e-02
<MEAN> 39
 -3.359818e+00 2.604635e+00 9.469931e+00 3.163441e+00 1.603820e+00 1.593873e+00 -1.878793e+00 -5.809886e+00 -4.525946e+00 -2.996377e+00 -1.775007e+00 -3.535362e+00 5.415588e+01 -9.891540e-01 -3.961557e-02 3.363911e-01 2.592743e-01 5.210004e-01 4.414737e-01 5.372759e-01 3.859976e-01 3.349568e-01 -5.088889e-01 -6.434121e-01 -8.939643e-02 -8.814547e-01 4.958935e-03 -7.408568e-01 -6.664401e-01 -9.458743e-01 -8.254550e-01 -9.311702e-01 -5.694697e-01 6.817669e-02 -2.317721e-01 8.301951e-02 1.075806e-01 -1.280107e-01 9.420558e-01
<VARIANCE> 39
 8.930571e+00 5.480839e+00 9.604394e+00 1.529309e+01 1.241621e+01 1.703110e+01 1.517069e+01 2.181062e+01 2.412805e+01 1.687742e+01 1.693834e+01 2.094973e+01 5.974521e+00 8.705342e-01 9.703478e-01 1.035769e+00 1.897461e+00 1.679299e+00 1.938488e+00 2.229740e+00 2.481821e+00 2.508411e+00 1.902092e+00 2.005135e+00 1.645561e+00 8.571630e-01 2.171994e-01 1.798974e-01 4.360106e-01 5.351211e-01 3.763664e-01 5.636865e-01 2.984397e-01 3.806613e-01 4.699393e-01 4.031792e-01 3.545023e-01 4.140845e-01 1.894389e-01
<GCONST> 9.771321e+01
<STATE> 4
<NUMMIXES> 16
<MIXTURE> 1 3.953107e-02
<MEAN> 39
 -3.910884e+00 1.961838e+00 7.560720e+00 1.874207e+00 2.116813e+00 4.195562e+00 2.457477e+00 -9.696345e-01 -1.431112e+00 -1.518773e+00 -8.021069e-02 -2.178580e-01 5.682485e+01 8.900765e-01 -1.233742e+00 -1.812236e+00 -2.832368e+00 -9.792131e-01 -8.190873e-01 -4.822305e-01 1.049211e+00 9.537477e-01 1.286586e+00 1.119184e+00 5.095021e-01 2.974607e+00 7.919377e-01 -4.927474e-01 -5.224670e-01 -1.103409e+00 -6.178617e-01 -1.913406e-01 -4.955789e-01 2.859749e-02 -1.726496e-02 3.957930e-01 3.909570e-01 -1.816321e-01 1.308322e+00
<VARIANCE> 39
 2.398620e+01 1.358207e+01 1.745583e+01 2.887386e+01 2.361092e+01 1.712975e+01 1.838692e+01 2.889747e+01 3.383556e+01 2.250050e+01 2.046747e+01 1.938174e+01 1.729343e+01 2.070982e+00 1.391931e+00 2.269481e+00 5.500384e+00 2.808555e+00 2.967777e+00 3.152785e+00 3.271541e+00 4.056546e+00 3.502844e+00 3.325180e+00 2.985733e+00 1.891549e+00 3.879055e-01 4.972030e-01 6.667931e-01 1.009720e+00 6.517298e-01 8.439764e-01 4.767261e-01 8.217511e-01 7.836493e-01 6.854832e-01 9.654446e-01 6.670845e-01 3.897908e-01
<GCONST> 1.194765e+02
<MIXTURE> 2 9.251200e-02
<MEAN> 39
 1.144499e+00 -4.670686e+00 2.277443e+00 -6.108157e+00 -4.068449e+00 -6.730610e+00 -6.559896e+00 -1.323303e+00 -1.452058e+00 2.551996e+00 2.944396e+00 -8.833134e-01 6.864571e+01 8.723288e-01 -2.264831e+00 -5.800702e-01 -1.848410e+00 -1.928055e+00 -1.386526e+00 -3.271261e-01 2.258886e+00 1.291337e+00 1.326662e+00 8.784928e-01 2.368094e-01 3.339668e+00 -5.140650e-02 2.280404e-01 5.776298e-01 5.580583e-01 6.658057e-02 6.789145e-01 5.302079e-01 1.087944e-01 -1.664983e-01 -1.468915e-01 -1.182914e-01 -1.280831e-01 -1.417997e-01
<VARIANCE> 39
 1.527832e+01 1.761380e+01 3.929464e+01 5.935392e+01 2.946408e+01 6.848643e+01 3.754236e+01 3.595824e+01 3.534142e+01 4.209961e+01 4.219437e+01 2.146884e+01 1.565095e+01 1.647285e+00 2.728630e+00 6.335134e+00 8.301139e+00 6.028512e+00 6.896494e+00 5.548865e+00 5.433698e+00 7.587004e+00 5.799423e+00 4.299340e+00 5.170248e+00 2.379288e+00 2.114583e-01 3.270116e-01 3.489726e-01 7.988112e-01 6.350260e-01 6.482014e-01 6.818329e-01 7.367305e-01 6.126096e-01 6.973993e-01 6.976104e-01 5.570727e-01 2.896933e-01
<GCONST> 1.285011e+02
<MIXTURE> 3 5.685350e-02
<MEAN> 39
 3.654388e-01 -1.811182e+00 5.983687e+00 -5.385428e+00 -5.821740e+00 -5.974588e+00 -4.944328e+00 -2.486524e+00 -3.589836e+00 -4.281235e-01 -1.978928e+00 -2.402202e+00 6.505163e+01 -5.578089e-02 -1.456030e+00 1.181956e+00 -3.043923e+00 -1.883035e+00 -3.389504e-01 1.074744e+00 1.477216e+00 3.013999e-01 1.189807e+00 4.149112e-02 1.152176e+00 2.818583e+00 -5.831272e-02 -7.554613e-02 2.670641e-01 -3.542025e-01 -1.668908e-02 3.045520e-01 2.179659e-01 -1.780467e-01 -7.375136e-03 2.743666e-01 -4.201181e-02 2.469065e-01 4.845107e-01
<VARIANCE> 39
 1.373395e+01 2.062882e+01 4.940778e+01 6.423361e+01 2.908294e+01 4.478893e+01 2.850927e+01 3.269556e+01 3.061368e+01 2.605243e+01 2.067968e+01 2.044793e+01 1.207166e+01 1.428116e+00 3.716368e+00 9.147692e+00 6.740729e+00 4.666013e+00 4.624252e+00 4.293138e+00 7.020005e+00 5.421340e+00 4.133327e+00 3.589877e+00 2.541301e+00 2.444610e+00 1.307874e-01 3.328752e-01 3.124864e-01 6.576598e-01 5.982777e-01 4.457299e-01 5.166480e-01 6.512029e-01 5.395488e-01 4.978321e-01 4.461885e-01 3.954286e-01 1.436482e-01
<GCONST> 1.209805e+02
<MIXTURE> 4 6.108505e-02
<MEAN> 39
 -1.950415e+00 2.961764e+00 9.919753e+00 3.230559e+00 1.624077e+00 -1.366677e-01 -3.900419e+00 -6.482256e+00 -4.515727e+00 -2.369531e+00 -1.385182e+00 -3.640675e+00 5.805341e+01 1.842601e-01 -2.261086e+00 -3.240703e-01 -2.192966e+00 -1.924416e+00 -1.842761e+00 -1.875457e-01 2.550436e+00 1.145328e+00 1.328117e+00 7.862312e-01 9.472013e-01 3.484915e+00 2.715088e-01 -7.713994e-01 -5.214514e-02 -7.614888e-01 -9.668816e-01 -3.903682e-01 6.418025e-02 5.945968e-01 -3.915353e-02 4.881301e-01 1.276138e-01 2.800004e-01 1.275805e+00
<VARIANCE> 39
 9.192034e+00 6.238530e+00 1.269351e+01 1.281138e+01 1.393434e+01 1.758863e+01 1.994365e+01 2.547825e+01 2.198507e+01 2.056300e+01 2.304734e+01 1.568159e+01 9.393047e+00 1.274042e+00 1.445210e+00 6.337496e+00 4.949358e+00 3.924017e+00 6.201890e+00 5.683306e+00 5.512790e+00 6.517431e+00 4.005980e+00 3.206741e+00 2.639751e+00 1.500068e+00 2.215218e-01 4.610590e-01 8.775002e-01 7.588799e-01 8.926889e-01 8.846152e-01 6.976279e-01 9.911358e-01 9.019715e-01 6.073187e-01 6.225607e-01 6.742271e-01 2.914691e-01
<GCONST> 1.172945e+02
<MIXTURE> 5 8.670765e-02
<MEAN> 39
 5.016058e-01 -5.934513e+00 3.767259e+00 -4.863162e+00 -5.333214e+00 -7.343522e+00 -8.255058e+00 -1.301867e+00 -1.100510e+00 1.785203e+00 4.726402e-01 -1.760897e+00 6.938127e+01 1.852355e-01 -2.318618e+00 2.835474e-01 -1.534503e+00 -2.661105e+00 -1.429811e+00 1.473253e-01 2.441953e+00 1.204810e+00 7.117054e-01 2.503707e-01 8.228144e-01 3.569492e+00 -7.269554e-02 3.141462e-01 5.203255e-01 4.186233e-01 -1.218152e-01 6.144309e-01 6.629156e-01 -4.715528e-02 -3.618283e-01 -1.211718e-01 1.144922e-01 1.958954e-02 -2.519539e-02
<VARIANCE> 39
 1.364974e+01 2.050098e+01 5.141235e+01 8.264832e+01 3.131932e+01 6.510024e+01 4.193869e+01 3.800215e+01 3.726574e+01 4.535954e+01 4.537242e+01 2.300593e+01 1.689663e+01 1.331458e+00 3.123334e+00 7.354789e+00 8.090662e+00 7.799447e+00 6.028802e+00 6.121429e+00 6.145387e+00 8.873166e+00 5.042699e+00 4.787435e+00 5.350751e+00 2.787048e+00 1.709184e-01 3.132539e-01 3.240666e-01 9.359938e-01 7.365225e-01 7.149219e-01 7.265086e-01 8.777603e-01 6.167228e-01 7.516238e-01 6.642810e-01 5.601919e-01 2.845801e-01
<GCONST> 1.307032e+02
<MIXTURE> 6 5.217725e-02
<MEAN> 39
 -1.761696e-01 -3.840308e+00 6.261122e+00 -5.563618e+00 -5.207554e+00 -6.226000e+00 -6.470559e+00 -4.115352e+00 -3.365728e+00 1.421487e+00 -3.066996e+00 -4.829677e+00 6.613599e+01 -4.258623e-01 -2.311857e+00 9.396631e-01 -3.984374e+00 -1.538755e+00 -3.513810e-02 1.395707e+00 2.231693e+00 7.971349e-01 1.240185e+00 -8.526729e-01 1.006535e+00 3.633012e+00 -1.482151e-01 -1.217328e-02 1.618199e-01 -2.019592e-01 5.492434e-02 2.677221e-01 2.485428e-01 -7.411362e-02 2.235265e-02 -2.616538e-02 -2.677034e-01 4.912563e-01 5.256119e-01
<VARIANCE> 39
 1.273177e+01 1.969788e+01 6.352839e+01 5.104697e+01 3.247854e+01 3.868360e+01 2.271147e+01 3.325608e+01 3.222965e+01 3.033928e+01 2.085233e+01 2.556245e+01 1.211895e+01 1.367678e+00 3.880820e+00 1.338348e+01 5.984510e+00 5.374516e+00 4.498774e+00 4.676456e+00 9.008395e+00 5.744109e+00 4.627472e+00 4.015476e+00 3.252341e+00 2.501070e+00 1.428389e-01 4.567383e-01 3.444155e-01 9.166872e-01 5.324932e-01 4.708411e-01 4.985927e-01 7.084528e-01 5.848452e-01 6.591590e-01 3.740546e-01 5.084254e-01 1.781572e-01
<GCONST> 1.238081e+02
<MIXTURE> 7 6.653755e-02
<MEAN> 39
 -2.113138e+00 1.709819e+00 8.552884e+00 2.130341e+00 -1.352152e-01 -2.419627e+00 -5.966410e+00 -6.591628e+00 -4.281021e+00 -2.293568e+00 -1.915002e+00 -3.892514e+00 5.904095e+01 -1.838653e-01 -2.343292e+00 9.811902e-01 -2.952155e+00 -2.276679e+00 -8.056706e-01 5.415944e-01 2.298493e+00 7.798969e-01 1.298845e+00 9.076113e-02 9.799226e-01 3.454488e+00 1.838841e-01 -5.081645e-01 2.098511e-01 -1.084027e+00 -8.081421e-01 -1.215141e-01 5.335917e-02 2.241776e-01 -5.578402e-02 4.930616e-01 -2.355256e-01 3.565381e-01 1.193540e+00
<VARIANCE> 39
 1.130719e+01 8.051447e+00 1.285270e+01 1.207025e+01 1.391889e+01 1.746566e+01 1.852837e+01 2.910635e+01 1.775098e+01 2.092705e+01 2.513513e+01 1.731700e+01 9.316860e+00 1.567122e+00 1.836856e+00 9.983533e+00 4.698812e+00 4.354293e+00 4.578026e+00 4.994416e+00 6.503320e+00 5.827240e+00 3.367874e+00 3.165320e+00 2.800910e+00 1.397438e+00 2.453369e-01 6.789870e-01 9.062780e-01 6.214813e-01 8.208571e-01 6.010296e-01 6.827236e-01 8.864892e-01 5.923018e-01 5.310336e-01 5.456091e-01 6.563721e-01 3.229997e-01
<GCONST> 1.172254e+02
<MIXTURE> 8 4.459507e-02
<MEAN> 39
 -3.554961e+00 6.059998e-01 5.180362e+00 -1.459638e+00 2.143922e-01 1.586552e+00 -9.272188e-02 -1.945219e+00 -2.705735e+00 -2.190292e+00 -7.385287e-01 -1.043203e+00 6.050453e+01 1.418732e+00 -1.215559e+00 -1.969668e+00 -3.601979e+00 -1.447350e+00 -8.722181e-01 -8.136468e-01 1.027120e+00 8.815070e-01 1.251517e+00 9.349651e-01 6.691684e-01 3.204239e+00 7.298579e-01 -3.034554e-01 -2.424422e-01 -9.088176e-01 -4.289407e-01 4.427685e-02 -2.310649e-01 4.342496e-03 5.412683e-02 3.385713e-01 1.072755e-01 2.445900e-02 8.569785e-01
<VARIANCE> 39
 2.283762e+01 1.390241e+01 1.962283e+01 2.892094e+01 2.171196e+01 1.671140e+01 1.933370e+01 2.371904e+01 2.578741e+01 1.926551e+01 1.925605e+01 1.838241e+01 2.136576e+01 1.627650e+00 1.991393e+00 3.286323e+00 6.986947e+00 2.974040e+00 3.637582e+00 3.619718e+00 4.029037e+00 3.903302e+00 4.266892e+00 3.669651e+00 3.706109e+00 1.861166e+00 3.028494e-01 6.057619e-01 6.535144e-01 8.112007e-01 6.701491e-01 8.645378e-01 5.245553e-01 7.696763e-01 6.632614e-01 6.600627e-01 7.753709e-01 6.840100e-01 4.498537e-01
<GCONST> 1.203129e+02
<MIXTURE> 9 9.251200e-02
<MEAN> 39
 -4.190007e-01 -6.349438e+00 -2.299747e-01 -9.189816e+00 -6.239683e+00 -1.004087e+01 -9.010770e+00 -3.721911e+00 -3.830004e+00 -4.337227e-02 3.461081e-01 -2.736693e+00 6.706325e+01 3.589424e-01 -2.925573e+00 -1.586858e+00 -3.000878e+00 -2.910177e+00 -2.436974e+00 -1.269367e+00 1.326474e+00 1.895569e-01 3.633825e-01 4.909882e-02 -6.727178e-01 2.722670e+00 -2.353449e-01 -6.993562e-04 3.413342e-01 2.005533e-01 -2.521735e-01 3.568707e-01 1.999151e-01 -2.345377e-01 -4.795759e-01 -4.809332e-01 -4.523836e-01 -4.266323e-01 -3.570923e-01
<VARIANCE> 39
 1.527832e+01 1.761380e+01 3.929464e+01 5.935392e+01 2.946408e+01 6.848643e+01 3.754236e+01 3.595824e+01 3.534142e+01 4.209961e+01 4.219437e+01 2.146884e+01 1.565095e+01 1.647285e+00 2.728630e+00 6.335134e+00 8.301139e+00 6.028512e+00 6.896494e+00 5.548865e+00 5.433698e+00 7.587004e+00 5.799423e+00 4.299340e+00 5.170248e+00 2.379288e+00 2.114583e-01 3.270116e-01 3.489726e-01 7.988112e-01 6.350260e-01 6.482014e-01 6.818329e-01 7.367305e-01 6.126096e-01 6.973993e-01 6.976104e-01 5.570727e-01 2.896933e-01
<GCONST> 1.285011e+02
<MIXTURE> 10 8.670765e-02
<MEAN> 39
 -9.762164e-01 -7.745633e+00 8.991628e-01 -8.499607e+00 -7.571760e+00 -1.057091e+01 -1.084546e+01 -3.767703e+00 -3.542336e+00 -9.087769e-01 -2.221722e+00 -3.679477e+00 6.773705e+01 -2.763197e-01 -3.025536e+00 -8.012412e-01 -2.672267e+00 -3.778205e+00 -2.411955e+00 -8.423355e-01 1.450357e+00 1.329589e-02 -1.865328e-01 -6.248376e-01 -1.024532e-01 2.901714e+00 -2.380647e-01 9.026981e-02 2.926181e-01 3.163625e-02 -4.650988e-01 2.762187e-01 3.219737e-01 -4.219107e-01 -6.759551e-01 -4.679568e-01 -2.115216e-01 -2.797943e-01 -2.385796e-01
<VARIANCE> 39
 1.364974e+01 2.050098e+01 5.141235e+01 8.264832e+01 3.131932e+01 6.510024e+01 4.193869e+01 3.800215e+01 3.726574e+01 4.535954e+01 4.537242e+01 2.300593e+01 1.689663e+01 1.331458e+00 3.123334e+00 7.354789e+00 8.090662e+00 7.799447e+00 6.028802e+00 6.121429e+00 6.145387e+00 8.873166e+00 5.042699e+00 4.787435e+00 5.350751e+00 2.787048e+00 1.709184e-01 3.132539e-01 3.240666e-01 9.359938e-01 7.365225e-01 7.149219e-01 7.265086e-01 8.777603e-01 6.167228e-01 7.516238e-01 6.642810e-01 5.601919e-01 2.845801e-01
<GCONST> 1.307032e+02
<MIXTURE> 11 6.653755e-02
<MEAN> 39
 -3.458184e+00 5.748166e-01 7.118858e+00 7.406507e-01 -1.627536e+00 -4.091305e+00 -7.688194e+00 -8.749640e+00 -5.966297e+00 -4.123412e+00 -3.920400e+00 -5.557062e+00 5.782001e+01 -6.846043e-01 -2.885414e+00 -2.826790e-01 -3.819225e+00 -3.111357e+00 -1.661523e+00 -3.523332e-01 1.278429e+00 -1.856903e-01 5.647740e-01 -6.208927e-01 3.104858e-01 2.981634e+00 -1.424194e-02 -8.377672e-01 -1.709435e-01 -1.399363e+00 -1.170547e+00 -4.316185e-01 -2.771492e-01 -1.524367e-01 -3.636286e-01 2.015734e-01 -5.309870e-01 3.247091e-02 9.662079e-01
<VARIANCE> 39
 1.130719e+01 8.051447e+00 1.285270e+01 1.207025e+01 1.391889e+01 1.746566e+01 1.852837e+01 2.910635e+01 1.775098e+01 2.092705e+01 2.513513e+01 1.731700e+01 9.316860e+00 1.567122e+00 1.836856e+00 9.983533e+00 4.698812e+00 4.354293e+00 4.578026e+00 4.994416e+00 6.503320e+00 5.827240e+00 3.367874e+00 3.165320e+00 2.800910e+00 1.397438e+00 2.453369e-01 6.789870e-01 9.062780e-01 6.214813e-01 8.208571e-01 6.010296e-01 6.827236e-01 8.864892e-01 5.923018e-01 5.310336e-01 5.456091e-01 6.563721e-01 3.229997e-01
<GCONST> 1.172254e+02
<MIXTURE> 12 6.108505e-02
<MEAN> 39
 -3.163149e+00 1.962682e+00 8.494636e+00 1.798839e+00 1.309278e-01 -1.814220e+00 -5.686752e+00 -8.501296e+00 -6.391256e+00 -4.183389e+00 -3.305488e+00 -5.224675e+00 5.682749e+01 -2.672338e-01 -2.741954e+00 -1.331046e+00 -3.082852e+00 -2.716782e+00 -2.838905e+00 -1.141133e+00 1.611263e+00 1.241579e-01 5.275191e-01 6.993607e-02 2.973088e-01 2.995006e+00 8.324439e-02 -1.043005e+00 -4.268451e-01 -1.109944e+00 -1.344810e+00 -7.665842e-01 -2.699162e-01 1.963736e-01 -4.190423e-01 1.764075e-01 -1.879962e-01 -4.844497e-02 1.059853e+00
<VARIANCE> 39
 9.192034e+00 6.238530e+00 1.269351e+01 1.281138e+01 1.393434e+01 1.758863e+01 1.994365e+01 2.547825e+01 2.198507e+01 2.056300e+01 2.304734e+01 1.568159e+01 9.393047e+00 1.274042e+00 1.445210e+00 6.337496e+00 4.949358e+00 3.924017e+00 6.201890e+00 5.683306e+00 5.512790e+00 6.517431e+00 4.005980e+00 3.206741e+00 2.639751e+00 1.500068e+00 2.215218e-01 4.610590e-01 8.775002e-01 7.588799e-01 8.926889e-01 8.846152e-01 6.976279e-01 9.911358e-01 9.019715e-01 6.073187e-01 6.225607e-01 6.742271e-01 2.914691e-01
<GCONST> 1.172945e+02
<MIXTURE> 13 5.685350e-02
<MEAN> 39
 -1.116935e+00 -3.627940e+00 3.172061e+00 -8.591264e+00 -7.978884e+00 -8.651569e+00 -7.080091e+00 -4.773726e+00 -5.803021e+00 -2.469787e+00 -3.797925e+00 -4.210978e+00 6.366186e+01 -5.337961e-01 -2.227146e+00 -2.785027e-02 -4.082439e+00 -2.747073e+00 -1.199113e+00 2.459483e-01 4.174038e-01 -6.299509e-01 3.765839e-01 -7.163877e-01 5.145179e-01 2.193173e+00 -2.029709e-01 -3.063275e-01 4.346213e-02 -6.785874e-01 -3.260827e-01 3.749999e-02 -6.954700e-02 -5.008353e-01 -3.011911e-01 -7.862344e-03 -3.092012e-01 -4.625931e-03 3.329069e-01
<VARIANCE> 39
 1.373395e+01 2.062882e+01 4.940778e+01 6.423361e+01 2.908294e+01 4.478893e+01 2.850927e+01 3.269556e+01 3.061368e+01 2.605243e+01 2.067968e+01 2.044793e+01 1.207166e+01 1.428116e+00 3.716368e+00 9.147692e+00 6.740729e+00 4.666013e+00 4.624252e+00 4.293138e+00 7.020005e+00 5.421340e+00 4.133327e+00 3.589877e+00 2.541301e+00 2.444610e+00 1.307874e-01 3.328752e-01 3.124864e-01 6.576598e-01 5.982777e-01 4.457299e-01 5.166480e-01 6.512029e-01 5.395488e-01 4.978321e-01 4.461885e-01 3.954286e-01 1.436482e-01
<GCONST> 1.209805e+02
<MIXTURE> 14 5.217725e-02
<MEAN> 39
 -1.603434e+00 -5.615600e+00 3.072934e+00 -8.421504e+00 -7.487152e+00 -8.713846e+00 -8.376821e+00 -6.422076e+00 -5.636574e+00 -7.817576e-01 -4.893570e+00 -6.852050e+00 6.474350e+01 -8.936533e-01 -3.099849e+00 -5.236745e-01 -4.962904e+00 -2.466075e+00 -8.835506e-01 5.307021e-01 1.031133e+00 -1.615399e-01 3.797224e-01 -1.654219e+00 2.851649e-01 3.000422e+00 -2.993913e-01 -2.825029e-01 -7.292780e-02 -5.849344e-01 -2.369642e-01 -6.749332e-03 -3.390159e-02 -4.107922e-01 -2.835481e-01 -3.509198e-01 -5.123434e-01 2.060405e-01 3.567772e-01
<VARIANCE> 39
 1.273177e+01 1.969788e+01 6.352839e+01 5.104697e+01 3.247854e+01 3.868360e+01 2.271147e+01 3.325608e+01 3.222965e+01 3.033928e+01 2.085233e+01 2.556245e+01 1.211895e+01 1.367678e+00 3.880820e+00 1.338348e+01 5.984510e+00 5.374516e+00 4.498774e+00 4.676456e+00 9.008395e+00 5.744109e+00 4.627472e+00 4.015476e+00 3.252341e+00 2.501070e+00 1.428389e-01 4.567383e-01 3.444155e-01 9.166872e-01 5.324932e-01 4.708411e-01 4.985927e-01 7.084528e-01 5.848452e-01 6.591590e-01 3.740546e-01 5.084254e-01 1.781572e-01
<GCONST> 1.238081e+02
<MIXTURE> 15 4.459507e-02
<MEAN> 39
 -5.466510e+00 -8.854376e-01 3.408456e+00 -3.610766e+00 -1.649452e+00 -4.863137e-02 -1.851526e+00 -3.893307e+00 -4.736987e+00 -3.945992e+00 -2.493797e+00 -2.758191e+00 5.865561e+01 9.084142e-01 -1.780026e+00 -2.694796e+00 -4.659293e+00 -2.137166e+00 -1.635116e+00 -1.574669e+00 2.242213e-01 9.123597e-02 4.252588e-01 1.687117e-01 -1.008819e-01 2.658541e+00 5.097309e-01 -6.147782e-01 -5.658032e-01 -1.269084e+00 -7.563912e-01 -3.276452e-01 -5.207697e-01 -3.465823e-01 -2.716366e-01 1.359431e-02 -2.449451e-01 -3.063606e-01 5.886939e-01
<VARIANCE> 39
 2.283762e+01 1.390241e+01 1.962283e+01 2.892094e+01 2.171196e+01 1.671140e+01 1.933370e+01 2.371904e+01 2.578741e+01 1.926551e+01 1.925605e+01 1.838241e+01 2.136576e+01 1.627650e+00 1.991393e+00 3.286323e+00 6.986947e+00 2.974040e+00 3.637582e+00 3.619718e+00 4.029037e+00 3.903302e+00 4.266892e+00 3.669651e+00 3.706109e+00 1.861166e+00 3.028494e-01 6.057619e-01 6.535144e-01 8.112007e-01 6.701491e-01 8.645378e-01 5.245553e-01 7.696763e-01 6.632614e-01 6.600627e-01 7.753709e-01 6.840100e-01 4.498537e-01
<GCONST> 1.203129e+02
<MIXTURE> 16 3.953107e-02
<MEAN> 39
 -5.869912e+00 4.876838e-01 5.889514e+00 -2.751692e-01 1.731706e-01 2.540038e+00 7.422775e-01 -3.119889e+00 -3.757846e+00 -3.416161e+00 -1.889850e+00 -1.978846e+00 5.516143e+01 3.144402e-01 -1.705662e+00 -2.414828e+00 -3.770484e+00 -1.649563e+00 -1.508177e+00 -1.192474e+00 3.257152e-01 1.481129e-01 5.379508e-01 3.897811e-01 -1.816689e-01 2.424473e+00 5.428095e-01 -7.747979e-01 -8.490966e-01 -1.505349e+00 -9.407809e-01 -5.588134e-01 -7.717604e-01 -3.340045e-01 -3.713608e-01 6.461737e-02 -2.071187e-03 -5.083331e-01 1.058589e+00
<VARIANCE> 39
 2.398620e+01 1.358207e+01 1.745583e+01 2.887386e+01 2.361092e+01 1.712975e+01 1.838692e+01 2.889747e+01 3.383556e+01 2.250050e+01 2.046747e+01 1.938174e+01 1.729343e+01 2.070982e+00 1.391931e+00 2.269481e+00 5.500384e+00 2.808555e+00 2.967777e+00 3.152785e+00 3.271541e+00 4.056546e+00 3.502844e+00 3.325180e+00 2.985733e+00 1.891549e+00 3.879055e-01 4.972030e-01 6.667931e-01 1.009720e+00 6.517298e-01 8.439764e-01 4.767261e-01 8.217511e-01 7.836493e-01 6.854832e-01 9.654446e-01 6.670845e-01 3.897908e-01
<GCONST> 1.194765e+02
<TRANSP> 5
 0.000000e+00 1.000000e+00 0.000000e+00 0.000000e+00 0.000000e+00
 0.000000e+00 5.462949e-01 4.537051e-01 0.000000e+00 0.000000e+00
 0.000000e+00 0.000000e+00 3.768123e-01 6.231877e-01 0.000000e+00
 0.000000e+00 0.000000e+00 0.000000e+00 4.762875e-01 5.237125e-01
 0.000000e+00 0.000000e+00 0.000000e+00 0.000000e+00 0.000000e+00
<ENDHMM>
~h "d"
<BEGINHMM>
<NUMSTATES> 5
<STATE> 2
<NUMMIXES> 16
<MIXTURE> 1 5.872130e-02
<MEAN> 39
 -2.004206e+00 4.184760e+00 1.111616e+01 4.332704e+00 -1.035570e+00 -1.400786e+00 -2.339865e+00 -3.636568e+00 -2.057083e+00 -2.631570e+00 -3.885495e+00 -3.373275e+00 5.558054e+01 4.302049e-02 2.863286e-01 4.945777e-01 5.471930e-01 9.123647e-01 8.764783e-01 6.189983e-01 5.823106e-01 6.606103e-01 2.622143e-01 2.859015e-01 1.166013e-01 -1.538870e-01 -3.265431e-01 -3.146906e-01 -1.799371e-01 -1.332379e-01 2.510188e-01 2.198956e-01 2.719181e-01 3.657235e-01 2.056039e-01 2.930662e-01 4.193531e-01 4.091135e-01 4.163354e-01
<VARIANCE> 39
 7.093403e+00 5.198915e+00 8.289570e+00 1.596466e+01 2.668122e+01 2.119203e+01 2.070675e+01 1.879033e+01 1.943765e+01 2.009557e+01 1.970613e+01 1.763454e+01 8.098571e+00 6.890684e-01 5.581669e-01 6.588985e-01 8.963675e-01 1.696270e+00 1.830602e+00 1.524317e+00 1.521971e+00 1.573495e+00 1.489789e+00 1.273368e+00 1.625926e+00 5.494586e-01 1.693969e-01 1.318316e-01 1.772657e-01 2.959369e-01 5.083755e-01 4.824125e-01 3.788553e-01 3.519976e-01 4.354842e-01 3.541059e-01 3.122658e-01 3.292831e-01 2.890165e-01
<GCONST> 9.230000e+01
<MIXTURE> 2 5.736750e-02
<MEAN> 39
 -3.828928e+00 3.054532e+00 9.024332e+00 3.515385e+00 8.151432e-01 -3.249022e-01 -2.115982e+00 -2.278028e+00 -9.473608e-01 3.125400e-01 -1.378813e+00 -3.239361e+00 5.826508e+01 -1.025963e+00 -7.530570e-01 -2.894836e-01 -7.084934e-01 7.237321e-01 1.596595e-01 6.327864e-01 1.472656e+00 7.232897e-01 3.994181e-01 1.287938e+00 1.520936e+00 1.868518e+00 3.317654e-01 -4.823045e-01 -4.297769e-02 -8.689260e-01 -1.091880e+00 -7.828308e-01 -4.626845e-01 2.395349e-01 -3.618117e-02 1.606970e-01 3.398072e-01 3.273381e-01 1.441299e+00
<VARIANCE> 39
 1.504213e+01 1.469709e+01 1.817380e+01 2.843225e+01 3.246631e+01 3.793247e+01 4.267631e+01 2.742138e+01 3.000926e+01 2.395546e+01 2.908890e+01 3.194025e+01 2.214372e+01 1.322681e+00 2.040683e+00 2.440022e+00 4.333676e+00 4.417751e+00 4.205667e+00 5.029624e+00 3.336699e+00 3.480574e+00 3.189615e+00 2.945407e+00 3.448164e+00 3.231435e+00 2.121554e-01 4.580926e-01 4.876418e-01 5.125197e-01 6.961156e-01 7.659394e-01 7.010029e-01 9.135703e-01 7.636255e-01 5.878873e-01 6.138063e-01 5.995010e-01 2.465268e-01
<GCONST> 1.210124e+02
<MIXTURE> 3 6.976805e-02
<MEAN> 39
 -2.008950e+00 3.966290e+00 1.048099e+01 3.761709e+00 -9.153769e-01 -2.478324e+00 -3.550899e+00 -4.050175e+00 -2.773488e+00 -3.187483e+00 -4.091970e+00 -2.984076e+00 5.710198e+01 -8.144751e-01 1.514651e-01 6.426340e-01 8.556210e-01 1.611756e+00 1.447856e+00 1.198834e+00 9.098853e-01 4.323085e-01 2.746190e-01 7.974311e-01 2.245945e-01 3.419453e-01 -2.011283e-01 -6.860644e-01 -4.693949e-01 -9.920706e-01 -7.068751e-01 -3.805029e-01 3.112450e-02 4.195840e-01 2.384471e-01 5.443251e-01 5.172336e-01 5.890419e-01 1.488244e+00
<VARIANCE> 39
 6.046413e+00 7.438583e+00 1.232583e+01 1.842737e+01 2.674928e+01 2.594120e+01 2.221682e+01 2.448321e+01 2.335391e+01 2.499798e+01 2.115823e+01 2.330752e+01 8.513506e+00 1.788759e+00 2.265744e+00 2.923821e+00 4.478453e+00 4.883715e+00 4.640079e+00 3.599866e+00 3.189430e+00 2.835373e+00 2.654607e+00 3.005255e+00 3.140426e+00 4.872053e+00 2.076090e-01 1.973504e-01 3.806421e-01 5.603150e-01 9.115911e-01 8.447447e-01 6.285279e-01 6.250995e-01 6.394113e-01 5.159342e-01 4.992011e-01 5.055054e-01 3.873107e-01
<GCONST> 1.144718e+02
<MIXTURE> 4 7.555320e-02
<MEAN> 39
 -1.780166e+00 -2.272322e+00 3.347078e+00 -3.506214e+00 -4.892671e+00 -8.490367e+00 -6.338539e+00 -1.968081e+00 1.649570e+00 5.519941e-01 -1.489383e+00 -7.069106e-01 6.767180e+01 4.383763e-01 8.212750e-01 1.057617e+00 1.175513e+00 -1.250150e-01 -4.681455e-01 -2.087596e-02 7.108718e-02 -1.030718e-01 -8.863837e-02 6.691128e-02 4.916523e-01 -4.490504e-02 -2.619482e-02 -1.989266e-01 1.500706e-01 -2.536899e-01 -1.808672e-01 2.657422e-01 4.924213e-01 5.258917e-01 -9.810910e-03 6.742418e-02 2.172621e-01 1.395289e-01 4.765030e-01
<VARIANCE> 39
 1.644714e+01 2.747146e+01 3.119346e+01 6.177051e+01 5.764575e+01 6.615484e+01 6.808073e+01 6.082853e+01 4.471047e+01 5.282052e+01 5.194019e+01 4.539070e+01 5.679237e+01 1.032776e+00 1.126104e+00 1.008340e+00 1.872100e+00 2.108788e+00 2.371158e+00 2.303720e+00 2.664321e+00 2.200032e+00 1.850542e+00 2.224017e+00 2.168595e+00 1.173560e+00 1.984185e-01 2.709164e-01 1.990139e-01 4.467326e-01 6.436621e-01 5.945354e-01 5.671569e-01 6.320876e-01 4.738786e-01 3.845481e-01 3.692097e-01 3.783875e-01 3.155598e-01
<GCONST> 1.166949e+02
<MIXTURE> 5 6.804155e-02
<MEAN> 39
 -2.080791e+00 3.562657e+00 9.689264e+00 2.661926e+00 -2.273783e+00 -3.780257e+00 -4.347160e+00 -4.867448e+00 -4.297050e+00 -5.819580e+00 -5.210922e+00 -1.877578e+00 5.778910e+01 -5.816851e-01 -2.537745e-02 1.259276e-01 -2.418130e-01 4.242016e-01 4.063073e-01 6.936893e-01 7.586436e-01 6.497827e-02 7.130572e-01 1.112925e+00 6.064519e-02 1.682308e+00 -1.242763e-01 -7.698821e-01 -4.557881e-01 -1.194551e+00 -9.132279e-01 -3.679655e-01 2.107715e-01 5.043558e-01 4.859868e-01 7.818519e-01 4.360267e-01 5.889274e-01 1.577758e+00
<VARIANCE> 39
 6.482496e+00 7.910431e+00 1.084011e+01 1.350438e+01 2.554807e+01 2.683789e+01 1.998770e+01 2.670576e+01 2.164230e+01 2.329134e+01 1.868521e+01 2.143991e+01 8.845572e+00 2.505074e+00 2.412521e+00 2.404734e+00 3.683151e+00 5.790096e+00 4.782696e+00 3.948635e+00 4.256311e+00 3.104989e+00 3.285757e+00 3.530725e+00 2.830468e+00 3.581100e+00 2.222105e-01 2.315885e-01 4.235897e-01 7.846422e-01 1.190064e+00 9.215947e-01 7.404398e-01 7.224949e-01 6.779460e-01 5.362765e-01 5.914773e-01 5.196828e-01 4.775929e-01
<GCONST> 1.162980e+02
<MIXTURE> 6 6.613060e-02
<MEAN> 39
 -2.879710e+00 3.364933e+00 1.049333e+01 3.632114e+00 -7.873816e-01 -1.215936e+00 -2.484411e+00 -4.073152e+00 -2.097028e+00 -3.002764e+00 -3.605753e+00 -2.528893e+00 5.565211e+01 3.506854e-01 5.350569e-01 6.059008e-01 5.149131e-01 4.822043e-01 5.063791e-01 3.318768e-01 1.579172e-01 3.364198e-02 -1.309257e-01 -2.586675e-02 -2.129216e-01 8.304459e-02 -1.831341e-01 -2.507585e-01 -2.122217e-01 -2.536392e-01 9.355932e-03 2.456583e-02 1.518854e-01 3.684737e-01 2.292864e-01 2.957489e-01 3.449160e-01 3.386303e-01 5.769070e-01
<VARIANCE> 39
 7.363934e+00 5.366136e+00 9.354584e+00 1.265353e+01 2.507377e+01 2.406991e+01 2.268382e+01 1.933941e+01 1.865314e+01 1.977935e+01 1.786948e+01 1.887740e+01 8.841786e+00 9.768009e-01 6.848745e-01 7.148268e-01 9.395559e-01 1.716871e+00 2.009432e+00 1.753717e+00 1.601570e+00 1.547354e+00 1.605435e+00 1.640671e+00 1.636320e+00 7.021433e-01 1.555550e-01 1.447390e-01 2.154807e-01 2.970031e-01 5.067755e-01 4.903705e-01 3.892753e-01 3.709623e-01 3.681922e-01 3.258340e-01 3.079559e-01 3.344665e-01 3.334894e-01
<GCONST> 9.417886e+01
<MIXTURE> 7 6.137665e-02
<MEAN> 39
 -4.544867e+00 2.798058e+00 7.942755e+00 3.037323e+00 5.258145e-01 -1.538194e+00 -3.069005e+00 -3.048779e+00 -1.476187e+00 -1.030308e+00 -2.509398e+00 -2.066271e+00 5.906897e+01 -6.439427e-01 -9.462289e-01 -4.951688e-01 -1.231313e+00 -4.518821e-01 -5.662326e-01 4.459431e-01 1.396871e+00 5.959084e-01 5.118463e-01 1.332303e+00 1.107983e+00 2.592167e+00 4.278446e-01 -5.637982e-01 -1.197096e-01 -1.125438e+00 -1.214617e+00 -8.130567e-01 -1.729446e-01 2.665730e-01 1.094794e-01 3.182736e-01 1.405252e-01 3.735603e-01 1.509056e+00
<VARIANCE> 39
 1.682303e+01 1.632051e+01 2.122086e+01 2.573670e+01 2.889793e+01 4.501402e+01 4.007550e+01 3.076519e+01 3.111574e+01 2.798307e+01 3.335508e+01 2.853773e+01 2.261194e+01 1.465769e+00 1.579234e+00 2.435694e+00 3.179235e+00 4.606637e+00 3.682983e+00 3.853191e+00 3.452596e+00 3.765424e+00 2.928084e+00 2.891631e+00 2.706363e+00 2.315593e+00 2.441383e-01 4.636692e-01 5.714284e-01 6.128300e-01 7.347743e-01 8.184873e-01 8.945195e-01 8.783839e-01 7.894759e-01 6.506050e-01 6.745003e-01 6.068887e-01 2.200145e-01
<GCONST> 1.211811e+02
<MIXTURE> 8 4.303069e-02
<MEAN> 39
 -5.268120e+00 2.087715e-01 5.167428e+00 -9.896958e-02 -1.763100e+00 -3.242226e+00 -2.728037e+00 -2.347087e+00 5.534028e-01 -1.153557e+00 -1.213070e+00 5.008240e-01 6.179811e+01 1.856659e+00 1.389992e+00 1.201781e+00 3.506401e-01 -1.279467e+00 -1.707181e+00 -1.112340e+00 -9.674938e-01 -9.835069e-01 -8.983665e-01 -7.977195e-01 -3.735401e-01 1.227750e+00 2.100704e-01 -1.320606e-01 9.417900e-02 -2.583036e-01 -2.106166e-01 9.356851e-02 3.218051e-01 3.632283e-01 1.016307e-01 1.522107e-01 1.467189e-01 1.006768e-01 5.121212e-01
<VARIANCE> 39
 2.482482e+01 2.436213e+01 3.111937e+01 4.399307e+01 5.077475e+01 6.897923e+01 5.372432e+01 4.110464e+01 3.419559e+01 4.272356e+01 3.324266e+01 2.601577e+01 6.386851e+01 2.478701e+00 3.009776e+00 1.264428e+00 2.722356e+00 3.269111e+00 3.949802e+00 4.002248e+00 4.444174e+00 3.768415e+00 3.045523e+00 3.367362e+00 2.941664e+00 2.045693e+00 3.100978e-01 3.737574e-01 2.487735e-01 4.858611e-01 6.666476e-01 7.449455e-01 7.036720e-01 6.734424e-01 5.532030e-01 4.969458e-01 4.435995e-01 4.055817e-01 3.211482e-01
<GCONST> 1.236457e+02
<MIXTURE> 9 7.555320e-02
<MEAN> 39
 -3.402369e+00 -4.368852e+00 1.113034e+00 -6.649983e+00 -7.929663e+00 -1.174379e+01 -9.638981e+00 -5.087787e+00 -1.025065e+00 -2.355115e+00 -4.372165e+00 -3.401815e+00 6.465736e+01 3.187391e-02 3.968028e-01 6.559526e-01 6.282141e-01 -7.058817e-01 -1.084088e+00 -6.279964e-01 -5.818228e-01 -6.963720e-01 -6.327769e-01 -5.296143e-01 -9.739371e-02 -4.782290e-01 -2.043716e-01 -4.071251e-01 -2.837327e-02 -5.210421e-01 -5.017814e-01 -4.268225e-02 1.911820e-01 2.078759e-01 -2.851663e-01 -1.806236e-01 -2.578845e-02 -1.065240e-01 2.518042e-01
<VARIANCE> 39
 1.644714e+01 2.747146e+01 3.119346e+01 6.177051e+01 5.764575e+01 6.615484e+01 6.808073e+01 6.082853e+01 4.471047e+01 5.282052e+01 5.194019e+01 4.539070e+01 5.679237e+01 1.032776e+00 1.126104e+00 1.008340e+00 1.872100e+00 2.108788e+00 2.371158e+00 2.303720e+00 2.664321e+00 2.200032e+00 1.850542e+00 2.224017e+00 2.168595e+00 1.173560e+00 1.984185e-01 2.709164e-01 1.990139e-01 4.467326e-01 6.436621e-01 5.945354e-01 5.671569e-01 6.320876e-01 4.738786e-01 3.845481e-01 3.692097e-01 3.783875e-01 3.155598e-01
<GCONST> 1.166949e+02
<MIXTURE> 10 6.976805e-02
<MEAN> 39
 -2.992528e+00 2.875340e+00 9.076666e+00 2.044625e+00 -2.984165e+00 -4.515624e+00 -5.436288e+00 -6.029395e+00 -4.706524e+00 -5.187402e+00 -5.931893e+00 -4.915190e+00 5.593486e+01 -1.349453e+00 -4.506305e-01 -4.133329e-02 9.126782e-03 7.277904e-01 5.862221e-01 4.399013e-01 1.955263e-01 -2.412341e-01 -3.770996e-01 1.040043e-01 -4.842554e-01 -5.409639e-01 -3.833849e-01 -8.637610e-01 -7.161797e-01 -1.291487e+00 -1.088784e+00 -7.481429e-01 -2.859945e-01 1.033310e-01 -8.140566e-02 2.570108e-01 2.346170e-01 3.046463e-01 1.239306e+00
<VARIANCE> 39
 6.046413e+00 7.438583e+00 1.232583e+01 1.842737e+01 2.674928e+01 2.594120e+01 2.221682e+01 2.448321e+01 2.335391e+01 2.499798e+01 2.115823e+01 2.330752e+01 8.513506e+00 1.788759e+00 2.265744e+00 2.923821e+00 4.478453e+00 4.883715e+00 4.640079e+00 3.599866e+00 3.189430e+00 2.835373e+00 2.654607e+00 3.005255e+00 3.140426e+00 4.872053e+00 2.076090e-01 1.973504e-01 3.806421e-01 5.603150e-01 9.115911e-01 8.447447e-01 6.285279e-01 6.250995e-01 6.394113e-01 5.159342e-01 4.992011e-01 5.055054e-01 3.873107e-01
<GCONST> 1.144718e+02
<MIXTURE> 11 6.804155e-02
<MEAN> 39
 -3.099221e+00 2.437637e+00 8.372292e+00 1.191994e+00 -4.295587e+00 -5.852469e+00 -6.135464e+00 -6.934552e+00 -6.157902e+00 -7.750024e+00 -6.939978e+00 -3.729708e+00 5.659944e+01 -1.214782e+00 -6.466691e-01 -4.943606e-01 -1.009475e+00 -5.383032e-01 -4.684678e-01 -1.011577e-01 -6.658959e-02 -6.398609e-01 -1.200914e-02 3.613160e-01 -6.123146e-01 9.253561e-01 -3.128331e-01 -9.623767e-01 -7.161232e-01 -1.548871e+00 -1.349588e+00 -7.519643e-01 -1.334238e-01 1.643570e-01 1.566369e-01 4.889283e-01 1.283965e-01 3.005712e-01 1.301326e+00
<VARIANCE> 39
 6.482496e+00 7.910431e+00 1.084011e+01 1.350438e+01 2.554807e+01 2.683789e+01 1.998770e+01 2.670576e+01 2.164230e+01 2.329134e+01 1.868521e+01 2.143991e+01 8.845572e+00 2.505074e+00 2.412521e+00 2.404734e+00 3.683151e+00 5.790096e+00 4.782696e+00 3.948635e+00 4.256311e+00 3.104989e+00 3.285757e+00 3.530725e+00 2.830468e+00 3.581100e+00 2.222105e-01 2.315885e-01 4.235897e-01 7.846422e-01 1.190064e+00 9.215947e-01 7.404398e-01 7.224949e-01 6.779460e-01 5.362765e-01 5.914773e-01 5.196828e-01 4.775929e-01
<GCONST> 1.162980e+02
<MIXTURE> 12 6.613060e-02
<MEAN> 39
 -3.965172e+00 2.438335e+00 9.269918e+00 2.209242e+00 -2.790330e+00 -3.178380e+00 -4.389513e+00 -5.832216e+00 -3.824600e+00 -4.781724e+00 -5.296645e+00 -4.266819e+00 5.446271e+01 -4.464757e-02 2.040283e-01 2.677110e-01 1.271903e-01 -4.191336e-02 -6.063867e-02 -1.978351e-01 -3.482954e-01 -4.639288e-01 -6.377487e-01 -5.382215e-01 -7.245965e-01 -2.521314e-01 -3.408960e-01 -4.029369e-01 -3.979013e-01 -4.716312e-01 -2.753967e-01 -2.555400e-01 -9.768227e-02 1.248470e-01 -1.342899e-02 6.742145e-02 1.229410e-01 1.072979e-01 3.459128e-01
<VARIANCE> 39
 7.363934e+00 5.366136e+00 9.354584e+00 1.265353e+01 2.507377e+01 2.406991e+01 2.268382e+01 1.933941e+01 1.865314e+01 1.977935e+01 1.786948e+01 1.887740e+01 8.841786e+00 9.768009e-01 6.848745e-01 7.148268e-01 9.395559e-01 1.716871e+00 2.009432e+00 1.753717e+00 1.601570e+00 1.547354e+00 1.605435e+00 1.640671e+00 1.636320e+00 7.021433e-01 1.555550e-01 1.447390e-01 2.154807e-01 2.970031e-01 5.067755e-01 4.903705e-01 3.892753e-01 3.709623e-01 3.681922e-01 3.258340e-01 3.079559e-01 3.344665e-01 3.334894e-01
<GCONST> 9.417886e+01
<MIXTURE> 13 6.137665e-02
<MEAN> 39
 -6.185503e+00 1.182112e+00 6.100111e+00 1.008069e+00 -1.624457e+00 -4.221894e+00 -5.601213e+00 -5.267434e+00 -3.707447e+00 -3.146269e+00 -4.819552e+00 -4.203099e+00 5.716689e+01 -1.128219e+00 -1.448899e+00 -1.119437e+00 -1.944529e+00 -1.310405e+00 -1.333876e+00 -3.392388e-01 6.536248e-01 -1.802796e-01 -1.726195e-01 6.521109e-01 4.499415e-01 1.983484e+00 2.302032e-01 -8.361713e-01 -4.220812e-01 -1.438572e+00 -1.557493e+00 -1.174938e+00 -5.512608e-01 -1.083155e-01 -2.459305e-01 -4.366785e-03 -1.879866e-01 6.194808e-02 1.321434e+00
<VARIANCE> 39
 1.682303e+01 1.632051e+01 2.122086e+01 2.573670e+01 2.889793e+01 4.501402e+01 4.007550e+01 3.076519e+01 3.111574e+01 2.798307e+01 3.335508e+01 2.853773e+01 2.261194e+01 1.465769e+00 1.579234e+00 2.435694e+00 3.179235e+00 4.606637e+00 3.682983e+00 3.853191e+00 3.452596e+00 3.765424e+00 2.928084e+00 2.891631e+00 2.706363e+00 2.315593e+00 2.441383e-01 4.636692e-01 5.714284e-01 6.128300e-01 7.347743e-01 8.184873e-01 8.945195e-01 8.783839e-01 7.894759e-01 6.506050e-01 6.745003e-01 6.068887e-01 2.200145e-01
<GCONST> 1.211811e+02
<MIXTURE> 14 5.872130e-02
<MEAN> 39
 -3.069544e+00 3.272715e+00 9.964498e+00 2.734472e+00 -3.101724e+00 -3.242178e+00 -4.160051e+00 -5.370480e+00 -3.820609e+00 -4.424694e+00 -5.661159e+00 -5.053015e+00 5.444222e+01 -2.890201e-01 -1.251374e-02 1.698875e-01 1.684862e-01 3.914010e-01 3.352793e-01 1.251453e-01 8.883783e-02 1.588541e-01 -2.260134e-01 -1.654729e-01 -3.934459e-01 -4.503888e-01 -4.911745e-01 -4.599252e-01 -3.483489e-01 -3.508383e-01 -3.418303e-02 -5.792813e-02 2.571326e-02 1.284059e-01 -5.836101e-02 5.503900e-02 1.958301e-01 1.795807e-01 2.012944e-01
<VARIANCE> 39
 7.093403e+00 5.198915e+00 8.289570e+00 1.596466e+01 2.668122e+01 2.119203e+01 2.070675e+01 1.879033e+01 1.943765e+01 2.009557e+01 1.970613e+01 1.763454e+01 8.098571e+00 6.890684e-01 5.581669e-01 6.588985e-01 8.963675e-01 1.696270e+00 1.830602e+00 1.524317e+00 1.521971e+00 1.573495e+00 1.489789e+00 1.273368e+00 1.625926e+00 5.494586e-01 1.693969e-01 1.318316e-01 1.772657e-01 2.959369e-01 5.083755e-01 4.824125e-01 3.788553e-01 3.519976e-01 4.354842e-01 3.541059e-01 3.122658e-01 3.292831e-01 2.890165e-01
<GCONST> 9.230000e+01
<MIXTURE> 15 5.736750e-02
<MEAN> 39
 -5.380296e+00 1.521060e+00 7.319103e+00 1.382509e+00 -1.464025e+00 -2.788476e+00 -4.729066e+00 -4.372644e+00 -3.138589e+00 -1.645233e+00 -3.536179e+00 -5.499990e+00 5.638280e+01 -1.485995e+00 -1.324467e+00 -9.143064e-01 -1.541193e+00 -1.170058e-01 -6.606494e-01 -2.642866e-01 7.419904e-01 -2.296215e-02 -3.149616e-01 6.014506e-01 7.781664e-01 1.149470e+00 1.475240e-01 -7.530346e-01 -3.223031e-01 -1.155288e+00 -1.425614e+00 -1.132903e+00 -7.975881e-01 -1.427886e-01 -3.857238e-01 -1.459982e-01 2.642402e-02 1.762830e-02 1.242693e+00
<VARIANCE> 39
 1.504213e+01 1.469709e+01 1.817380e+01 2.843225e+01 3.246631e+01 3.793247e+01 4.267631e+01 2.742138e+01 3.000926e+01 2.395546e+01 2.908890e+01 3.194025e+01 2.214372e+01 1.322681e+00 2.040683e+00 2.440022e+00 4.333676e+00 4.417751e+00 4.205667e+00 5.029624e+00 3.336699e+00 3.480574e+00 3.189615e+00 2.945407e+00 3.448164e+00 3.231435e+00 2.121554e-01 4.580926e-01 4.876418e-01 5.125197e-01 6.961156e-01 7.659394e-01 7.010029e-01 9.135703e-01 7.636255e-01 5.878873e-01 6.138063e-01 5.995010e-01 2.465268e-01
<GCONST> 1.210124e+02
<MIXTURE> 16 4.303069e-02
<MEAN> 39
 -7.261100e+00 -1.765549e+00 2.936038e+00 -2.752060e+00 -4.613356e+00 -6.564375e+00 -5.659913e+00 -4.911603e+00 -1.785677e+00 -3.768087e+00 -3.519328e+00 -1.539402e+00 5.860141e+01 1.226903e+00 6.960438e-01 7.519937e-01 -3.093425e-01 -2.002695e+00 -2.502145e+00 -1.912564e+00 -1.810742e+00 -1.760003e+00 -1.596424e+00 -1.531734e+00 -1.059591e+00 6.556395e-01 -1.267529e-02 -3.766034e-01 -1.053298e-01 -5.371186e-01 -5.372106e-01 -2.516724e-01 -1.373553e-02 3.497411e-02 -1.958798e-01 -1.297668e-01 -1.196941e-01 -1.540644e-01 2.854414e-01
<VARIANCE> 39
 2.482482e+01 2.436213e+01 3.111937e+01 4.399307e+01 5.077475e+01 6.897923e+01 5.372432e+01 4.110464e+01 3.419559e+01 4.272356e+01 3.324266e+01 2.601577e+01 6.386851e+01 2.478701e+00 3.009776e+00 1.264428e+00 2.722356e+00 3.269111e+00 3.949802e+00 4.002248e+00 4.444174e+00 3.768415e+00 3.045523e+00 3.367362e+00 2.941664e+00 2.045693e+00 3.100978e-01 3.737574e-01 2.487735e-01 4.858611e-01 6.666476e-01 7.449455e-01 7.036720e-01 6.734424e-01 5.532030e-01 4.969458e-01 4.435995e-01 4.055817e-01 3.211482e-01
<GCONST> 1.236457e+02
<STATE> 3
<NUMMIXES> 16
<MIXTURE> 1 6.160145e-02
<MEAN> 39
 2.280677e-01 -5.086006e+00 3.057350e+00 -5.487545e+00 -6.399755e+00 -1.119380e+01 -1.222647e+01 6.782081e-01 3.431693e+00 4.005793e+00 1.533064e+00 -5.630598e+00 7.173178e+01 -1.084283e-01 -3.903933e-01 8.616778e-01 6.136200e-01 -9.903935e-01 -8.892605e-01 5.016904e-01 1.752586e+00 3.590495e-01 -4.226035e-01 -3.365505e-02 1.153825e+00 7.529991e-01 -5.244601e-02 -1.161411e-01 1.313270e-01 -1.649617e-01 -2.189397e-01 2.253573e-01 4.588515e-01 4.098423e-01 -1.580921e-01 -5.072895e-02 2.444281e-01 3.028352e-01 2.782961e-01
<VARIANCE> 39
 6.151442e+00 1.682598e+01 2.555470e+01 4.444550e+01 3.434344e+01 4.236183e+01 4.954068e+01 7.265363e+01 5.452666e+01 4.010923e+01 6.101760e+01 3.742124e+01 1.554455e+01 3.369725e-01 9.808648e-01 9.202846e-01 1.545442e+00 1.632996e+00 1.885356e+00 1.760732e+00 2.618334e+00 2.164393e+00 1.557854e+00 1.828213e+00 1.411807e+00 7.290642e-01 4.244810e-02 1.118621e-01 1.115101e-01 1.781995e-01 2.637623e-01 2.162877e-01 2.652164e-01 3.146807e-01 3.164844e-01 2.250333e-01 2.827877e-01 2.214352e-01 9.451243e-02
<GCONST> 9.834869e+01
<MIXTURE> 2 7.772460e-02
<MEAN> 39
 -8.089613e+00 -1.521862e-01 7.986835e+00 1.155822e-01 2.647167e+00 -5.335997e-01 -2.785397e-02 1.299395e+00 -1.212755e+00 -1.065037e+00 -2.587231e-01 2.400051e-01 6.259968e+01 1.129204e-02 -1.333143e+00 -3.755484e-01 -1.847532e+00 -2.220165e+00 -2.441001e+00 -1.115498e+00 1.158952e+00 -8.008838e-03 5.088192e-01 1.671529e+00 1.379814e+00 4.061103e+00 9.023437e-01 5.728853e-02 3.979116e-01 -2.133505e-02 -1.374606e+00 -4.427034e-01 -4.714956e-01 -1.895436e-01 -1.087988e-01 3.159739e-01 2.497668e-01 -1.950853e-01 5.841721e-01
<VARIANCE> 39
 1.371926e+01 1.684238e+01 2.095739e+01 2.788363e+01 2.572229e+01 3.607866e+01 3.337818e+01 2.155146e+01 2.145923e+01 2.189752e+01 2.214921e+01 2.262268e+01 2.936279e+01 1.895167e+00 1.578213e+00 3.251889e+00 3.246415e+00 5.832004e+00 4.652727e+00 4.379908e+00 4.151806e+00 4.567268e+00 3.572180e+00 2.689481e+00 2.811360e+00 1.343277e+00 2.741700e-01 5.113609e-01 7.072884e-01 7.505169e-01 7.248988e-01 1.001945e+00 8.592257e-01 8.477731e-01 7.501361e-01 7.330006e-01 7.060993e-01 7.580145e-01 4.313841e-01
<GCONST> 1.221163e+02
<MIXTURE> 3 6.577510e-02
<MEAN> 39
 -6.361368e+00 8.266364e-01 5.345127e+00 -1.875161e+00 -3.615645e+00 -4.879814e+00 -3.775302e+00 -2.434785e+00 -2.619385e+00 -1.410584e+00 -1.694452e-01 -7.387775e-01 6.608550e+01 4.477096e-01 -1.776766e+00 -1.744889e-01 -3.000069e+00 -2.715534e+00 -1.671369e+00 -1.948659e-01 1.082213e+00 7.408495e-01 1.395311e+00 9.693031e-01 1.164907e+00 4.199135e+00 5.355653e-01 -2.631072e-01 4.768484e-01 -5.364842e-01 -5.834253e-01 -3.187330e-02 1.514597e-01 1.228115e-01 1.849626e-01 4.549201e-01 -2.929625e-01 2.195944e-01 3.671558e-01
<VARIANCE> 39
 1.371683e+01 1.358328e+01 1.945996e+01 2.578225e+01 2.462986e+01 3.898670e+01 3.332051e+01 2.548452e+01 2.595949e+01 2.364943e+01 2.318667e+01 2.170104e+01 1.759422e+01 3.053769e+00 2.250952e+00 4.069893e+00 3.450284e+00 6.777176e+00 6.157501e+00 5.747999e+00 6.174204e+00 5.413430e+00 4.056824e+00 3.951545e+00 3.581158e+00 1.896839e+00 3.231655e-01 3.864282e-01 6.057005e-01 6.605969e-01 5.334691e-01 7.584563e-01 8.549972e-01 7.448530e-01 6.222270e-01 5.901683e-01 5.556598e-01 6.751237e-01 2.926755e-01
<GCONST> 1.229287e+02
<MIXTURE> 4 5.993480e-02
<MEAN> 39
 -2.167956e+00 -3.589075e+00 2.650229e+00 -4.253505e+00 -1.089023e+01 -1.505771e+01 -3.810256e+00 -1.669923e-01 2.168994e+00 -4.857444e+00 -3.916725e+00 4.346921e+00 7.054675e+01 -2.478657e-01 -3.118512e-02 1.201094e+00 -1.734428e-01 -1.382555e+00 -6.737493e-02 1.424893e+00 4.597554e-01 -7.704906e-01 2.962111e-01 1.356099e+00 5.248194e-01 8.082330e-01 -9.200968e-02 -1.312507e-01 1.598435e-01 -4.701541e-01 -1.374522e-01 4.926505e-01 3.938937e-01 -2.478421e-03 -1.576637e-01 5.036184e-01 1.853392e-01 -3.561468e-01 3.782917e-01
<VARIANCE> 39
 8.399403e+00 1.727368e+01 3.458573e+01 4.762382e+01 4.024472e+01 3.046660e+01 4.280069e+01 3.146530e+01 4.266459e+01 3.617256e+01 3.388197e+01 3.061731e+01 1.571398e+01 3.643714e-01 9.845310e-01 1.077021e+00 1.683743e+00 2.194874e+00 1.340072e+00 2.108244e+00 1.796112e+00 1.906144e+00 1.800422e+00 1.259416e+00 1.489496e+00 1.079777e+00 5.159128e-02 8.616818e-02 1.379567e-01 2.141194e-01 2.447788e-01 1.970256e-01 3.374974e-01 2.595066e-01 2.466945e-01 2.133400e-01 2.143343e-01 1.903586e-01 1.074288e-01
<GCONST> 9.655901e+01
<MIXTURE> 5 7.120210e-02
<MEAN> 39
 -8.741721e+00 -1.102585e+00 7.010123e+00 -1.324057e+00 1.651703e+00 -6.709274e-01 -5.357456e-01 1.083171e+00 -1.692719e+00 -1.149891e+00 3.153744e-01 2.857766e-01 6.348922e+01 1.238714e-01 -1.119700e+00 -4.131165e-01 -2.283669e+00 -2.538467e+00 -2.214597e+00 -9.511859e-01 4.775354e-01 -4.502624e-03 8.234940e-01 1.238271e+00 1.096044e+00 4.319160e+00 9.305102e-01 2.117485e-01 3.877409e-01 -1.566376e-01 -1.293788e+00 -3.914864e-01 -3.709865e-01 -3.624502e-01 3.282215e-02 3.422478e-01 -1.166997e-01 -3.214537e-02 5.252494e-01
<VARIANCE> 39
 1.585891e+01 1.989388e+01 2.610245e+01 3.522386e+01 2.409322e+01 3.407037e+01 3.607608e+01 2.335709e+01 2.496344e+01 2.581594e+01 2.453596e+01 2.417307e+01 2.416783e+01 1.869642e+00 1.871671e+00 3.561218e+00 3.538214e+00 6.476993e+00 4.520493e+00 4.599891e+00 4.395689e+00 4.769593e+00 3.742512e+00 3.411526e+00 2.830481e+00 1.542036e+00 3.078836e-01 5.499017e-01 9.729233e-01 8.941101e-01 6.946765e-01 9.974314e-01 9.212868e-01 9.614532e-01 8.244953e-01 8.419877e-01 8.076898e-01 7.351581e-01 4.635326e-01
<GCONST> 1.254347e+02
<MIXTURE> 6 6.153135e-02
<MEAN> 39
 -7.304008e+00 1.425883e-01 4.370459e+00 -3.425564e+00 -4.149903e+00 -5.060716e+00 -2.897297e+00 -2.558321e+00 -3.320979e+00 -2.119905e+00 -4.446588e-01 -5.863459e-01 6.706493e+01 2.197561e-01 -1.912333e+00 -3.677061e-01 -3.667334e+00 -2.651103e+00 -1.459768e+00 3.543293e-01 1.231064e+00 8.611790e-01 1.412687e+00 5.216659e-01 9.347914e-01 4.468976e+00 6.411407e-01 -2.523967e-01 5.204135e-01 -6.006961e-01 -5.140945e-01 -7.607394e-02 7.584281e-02 2.087496e-02 2.318292e-01 3.811169e-01 -4.913664e-01 2.530861e-01 3.320734e-01
<VARIANCE> 39
 1.310074e+01 1.464702e+01 2.162875e+01 2.483096e+01 3.112938e+01 3.720360e+01 2.837893e+01 2.632898e+01 2.500931e+01 2.324307e+01 2.466961e+01 2.080309e+01 1.627315e+01 2.680295e+00 2.231265e+00 4.756324e+00 2.860227e+00 7.282787e+00 5.755250e+00 5.247931e+00 6.623526e+00 5.020181e+00 4.536408e+00 4.014670e+00 3.140155e+00 1.838436e+00 2.984370e-01 3.983955e-01 6.525864e-01 6.171963e-01 6.351884e-01 7.944196e-01 8.026109e-01 6.948612e-01 6.710830e-01 6.551831e-01 5.509334e-01 6.517458e-01 3.098229e-01
<GCONST> 1.229138e+02
<MIXTURE> 7 4.946992e-02
<MEAN> 39
 -2.345471e+00 -3.141319e+00 2.803693e+00 -3.370045e+00 -1.031109e+01 -1.331012e+01 -6.247514e+00 -1.229815e+00 6.982540e-01 -5.268834e+00 -4.071039e+00 3.951615e+00 6.872772e+01 -2.219134e-01 -4.673359e-01 6.630068e-01 -1.016683e+00 -1.946267e+00 -1.199565e-01 1.729598e+00 7.554904e-01 -5.094523e-01 5.439903e-01 1.316226e+00 3.190960e-01 1.683438e+00 -1.297060e-01 -2.817270e-01 -8.671187e-03 -7.968700e-01 -3.705194e-01 4.545479e-01 6.120196e-01 1.047662e-01 -2.342775e-02 4.769903e-01 1.715411e-01 -4.060256e-01 7.084217e-01
<VARIANCE> 39
 8.074839e+00 1.394497e+01 2.320365e+01 3.354310e+01 3.692347e+01 2.468842e+01 3.293586e+01 2.477826e+01 3.607681e+01 3.260205e+01 2.943712e+01 2.602528e+01 1.314603e+01 5.494101e-01 1.338823e+00 1.581601e+00 2.801705e+00 3.377304e+00 1.911244e+00 2.277714e+00 2.493510e+00 2.039378e+00 2.108540e+00 1.693529e+00 1.986570e+00 1.808772e+00 6.681572e-02 1.236112e-01 1.943414e-01 3.332210e-01 3.547108e-01 2.636825e-01 3.789949e-01 3.590379e-01 2.738201e-01 2.726713e-01 3.179399e-01 2.133017e-01 1.822468e-01
<GCONST> 1.020275e+02
<MIXTURE> 8 5.275835e-02
<MEAN> 39
 -8.234360e-01 -4.792233e+00 1.287781e+00 -7.513813e+00 -5.289246e+00 -1.170640e+01 -1.117121e+01 -1.459085e+00 4.728298e+00 2.696027e+00 -2.126736e+00 -3.273696e+00 7.195754e+01 -5.357444e-02 -5.027806e-01 7.910609e-01 5.279197e-01 -1.184125e+00 -9.166530e-01 7.297237e-01 1.899109e+00 3.338481e-01 -5.115261e-01 1.909527e-02 1.132458e+00 8.965551e-01 -5.521024e-02 -1.464892e-01 1.139184e-01 -1.962061e-01 -2.862733e-01 2.472665e-01 4.792270e-01 4.836010e-01 -2.141731e-01 -4.197545e-02 3.587460e-01 1.893338e-01 3.215913e-01
<VARIANCE> 39
 9.334185e+00 1.711111e+01 3.305115e+01 4.971978e+01 4.741458e+01 3.859231e+01 5.696765e+01 6.453792e+01 4.980545e+01 5.041351e+01 7.040723e+01 3.677156e+01 1.553551e+01 3.593149e-01 1.053487e+00 9.445029e-01 1.626732e+00 1.825341e+00 2.069124e+00 2.178349e+00 2.786510e+00 2.196858e+00 1.512301e+00 1.840975e+00 1.542426e+00 8.755612e-01 4.707138e-02 1.087673e-01 1.219914e-01 2.028636e-01 2.646794e-01 2.314068e-01 2.888854e-01 3.178261e-01 2.968653e-01 2.262741e-01 2.736133e-01 2.080130e-01 9.627803e-02
<GCONST> 1.009474e+02
<MIXTURE> 9 7.772460e-02
<MEAN> 39
 -9.571194e+00 -1.793765e+00 6.155665e+00 -1.996616e+00 6.184810e-01 -2.936220e+00 -2.338808e+00 -5.575470e-01 -3.065719e+00 -2.936829e+00 -2.141241e+00 -1.662527e+00 6.043218e+01 -5.393682e-01 -1.835651e+00 -1.096868e+00 -2.568244e+00 -3.186147e+00 -3.303809e+00 -1.952628e+00 3.439126e-01 -8.628556e-01 -2.471894e-01 1.015543e+00 7.091298e-01 3.597503e+00 6.928987e-01 -2.287495e-01 6.150982e-02 -3.678645e-01 -1.715170e+00 -8.430922e-01 -8.422734e-01 -5.578420e-01 -4.552404e-01 -2.648792e-02 -8.635208e-02 -5.433415e-01 3.214527e-01
<VARIANCE> 39
 1.371926e+01 1.684238e+01 2.095739e+01 2.788363e+01 2.572229e+01 3.607866e+01 3.337818e+01 2.155146e+01 2.145923e+01 2.189752e+01 2.214921e+01 2.262268e+01 2.936279e+01 1.895167e+00 1.578213e+00 3.251889e+00 3.246415e+00 5.832004e+00 4.652727e+00 4.379908e+00 4.151806e+00 4.567268e+00 3.572180e+00 2.689481e+00 2.811360e+00 1.343277e+00 2.741700e-01 5.113609e-01 7.072884e-01 7.505169e-01 7.248988e-01 1.001945e+00 8.592257e-01 8.477731e-01 7.501361e-01 7.330006e-01 7.060993e-01 7.580145e-01 4.313841e-01
<GCONST> 1.221163e+02
<MIXTURE> 10 7.120210e-02
<MEAN> 39
 -1.033465e+01 -2.886687e+00 4.966501e+00 -3.698045e+00 -3.116908e-01 -3.005721e+00 -2.938280e+00 -8.499961e-01 -3.691256e+00 -3.182267e+00 -1.665977e+00 -1.680868e+00 6.152279e+01 -4.230680e-01 -1.666936e+00 -1.167964e+00 -3.036075e+00 -3.556465e+00 -3.065055e+00 -1.809080e+00 -3.611006e-01 -8.780786e-01 4.967102e-02 4.994584e-01 4.230826e-01 3.822446e+00 7.085611e-01 -8.487295e-02 -6.806552e-03 -5.348672e-01 -1.627177e+00 -7.909724e-01 -7.549212e-01 -7.546651e-01 -3.303847e-01 -2.479178e-02 -4.761859e-01 -3.751108e-01 2.529165e-01
<VARIANCE> 39
