~o
<STREAMINFO> 1 39
<VECSIZE> 39<NULLD><MFCC_D_A_0><DIAGC>
~s "silst"
<MEAN> 39
 -1.157858e+01 -4.579281e+00 4.207240e+00 5.175092e-01 2.354885e+00 3.947326e+00 3.449269e+00 2.643273e+00 2.785365e+00 2.556591e+00 3.292217e+00 3.632550e+00 5.273033e+01 -8.446211e-02 -2.992403e-02 6.209516e-02 7.671758e-02 4.415065e-02 3.900932e-02 5.083682e-02 2.133855e-02 1.389837e-02 6.569995e-02 4.344817e-02 3.554159e-02 -1.110016e-01 7.615387e-02 -6.280932e-03 7.223525e-03 -5.568063e-02 -8.085333e-02 -6.069745e-02 -5.816653e-02 -5.514089e-02 -2.238789e-02 -6.664250e-02 -3.359729e-02 -3.354945e-02 7.365157e-02
<VARIANCE> 39
 9.453150e+00 9.934552e+00 1.165579e+01 1.456300e+01 1.664923e+01 1.819017e+01 1.936543e+01 2.030770e+01 2.056478e+01 2.090863e+01 1.860870e+01 1.537528e+01 1.189347e+01 9.322759e-01 8.950154e-01 1.082647e+00 1.449390e+00 1.641874e+00 1.785278e+00 1.907675e+00 1.932479e+00 1.966352e+00 1.959042e+00 1.711067e+00 1.485527e+00 8.398588e-01 1.711627e-01 1.691024e-01 2.172680e-01 3.070151e-01 3.406816e-01 3.541808e-01 3.814823e-01 3.746860e-01 3.876529e-01 3.801495e-01 3.373974e-01 2.913872e-01 1.828072e-01
<GCONST> 9.575056e+01
~h "b"
<BEGINHMM>
<NUMSTATES> 5
<STATE> 2
<MEAN> 39
 -2.273401e-01 -5.952439e-01 5.183716e+00 -1.234616e+00 -3.296807e+00 -3.986580e+00 -6.440166e+00 -7.575429e+00 -6.529557e+00 -1.516355e+00 -1.825614e+00 -4.042230e+00 6.089568e+01 5.925706e-04 9.341201e-01 5.407107e-01 7.737706e-01 5.403478e-01 6.321886e-01 2.545525e-01 -4.634486e-01 -1.249947e-01 -3.962211e-01 -1.792246e-02 5.611111e-04 -1.027765e+00 -1.578010e-01 -2.130369e-01 -2.284254e-02 -2.843758e-01 -9.798657e-02 -1.994600e-02 1.010291e-01 2.894195e-01 1.525100e-01 1.496168e-03 -3.448045e-02 5.612371e-02 2.560633e-01
<VARIANCE> 39
 1.461061e+01 2.078360e+01 2.503986e+01 4.671913e+01 3.156387e+01 5.509985e+01 4.532421e+01 5.186005e+01 4.522652e+01 3.946555e+01 4.201245e+01 3.337394e+01 2.383031e+01 9.146866e-01 1.185189e+00 1.305252e+00 2.157397e+00 2.316879e+00 2.631356e+00 2.490314e+00 2.401599e+00 2.631713e+00 2.228816e+00 2.401572e+00 2.278855e+00 1.313745e+00 1.323332e-01 2.104257e-01 2.284225e-01 3.790439e-01 3.850625e-01 3.757734e-01 4.294806e-01 5.025143e-01 4.592732e-01 3.908984e-01 4.119472e-01 3.907545e-01 2.093219e-01
<GCONST> 1.114372e+02
<STATE> 3
<MEAN> 39
 -8.214356e-01 6.693470e-01 6.334295e+00 -4.336577e-01 -1.786613e+00 -2.414769e+00 -5.263882e+00 -7.138713e+00 -5.819302e+00 -2.639245e+00 -2.309592e+00 -3.922312e+00 5.904386e+01 -4.317101e-01 1.810078e-01 4.239435e-01 4.799651e-02 2.408567e-01 3.125244e-01 4.238001e-01 4.356992e-01 3.247243e-01 -2.192883e-01 -5.451728e-03 1.437811e-01 -3.139895e-01 -2.548667e-02 -7.821659e-01 -2.293667e-01 -9.720011e-01 -7.289491e-01 -5.599003e-01 -1.839350e-01 4.626990e-01 1.009354e-01 2.927081e-01 2.118210e-02 9.988269e-02 1.047397e+00
<VARIANCE> 39
 1.212279e+01 1.981167e+01 2.397766e+01 3.876097e+01 2.630151e+01 4.104876e+01 3.815361e+01 4.248330e+01 3.683907e+01 3.221503e+01 3.259819e+01 2.582487e+01 2.086195e+01 1.006193e+00 1.197505e+00 1.539273e+00 2.348079e+00 2.137739e+00 2.587681e+00 2.507231e+00 2.823331e+00 2.594364e+00 2.149912e+00 2.062798e+00 2.081356e+00 1.119359e+00 2.009183e-01 2.467744e-01 6.558696e-01 6.838923e-01 5.746136e-01 6.197296e-01 6.579392e-01 7.143700e-01 7.428666e-01 5.689059e-01 5.513971e-01 4.988747e-01 2.236281e-01
<GCONST> 1.144051e+02
<STATE> 4
<MEAN> 39
 -1.913660e+00 -4.148896e-01 5.836743e+00 -1.482758e+00 -1.968813e+00 -3.024950e+00 -5.269288e+00 -5.708125e+00 -4.574333e+00 -2.139621e+00 -1.905486e+00 -3.482697e+00 6.037272e+01 6.666426e-02 -1.836172e+00 -5.092682e-01 -2.635920e+00 -1.860673e+00 -1.327806e+00 -4.280719e-01 1.289189e+00 4.983360e-01 7.153312e-01 1.179163e-01 3.574735e-01 2.525099e+00 1.095484e-01 -5.859398e-01 -9.478150e-02 -8.659781e-01 -7.398664e-01 -2.276824e-01 -6.249097e-02 1.330820e-01 -1.263109e-01 1.743400e-01 -1.121345e-01 2.898884e-02 8.432955e-01
<VARIANCE> 39
 1.711509e+01 1.973647e+01 2.886395e+01 4.498690e+01 2.759425e+01 4.385841e+01 3.782890e+01 3.962989e+01 3.074902e+01 2.838228e+01 3.016236e+01 2.299349e+01 2.567192e+01 1.955001e+00 2.580065e+00 6.739175e+00 6.600378e+00 4.210584e+00 4.961170e+00 5.053411e+00 6.215959e+00 5.770589e+00 4.002317e+00 3.569299e+00 3.450148e+00 2.256912e+00 3.208685e-01 5.264651e-01 7.625281e-01 9.726592e-01 8.648389e-01 8.190248e-01 7.565613e-01 9.555144e-01 7.849731e-01 6.482117e-01 6.882337e-01 6.697249e-01 4.567492e-01
<GCONST> 1.290225e+02
<TRANSP> 5
 0.000000e+00 1.000000e+00 0.000000e+00 0.000000e+00 0.000000e+00
 0.000000e+00 5.402945e-01 4.597055e-01 0.000000e+00 0.000000e+00
 0.000000e+00 0.000000e+00 3.555923e-01 6.444077e-01 0.000000e+00
 0.000000e+00 0.000000e+00 0.000000e+00 4.772493e-01 5.227506e-01
 0.000000e+00 0.000000e+00 0.000000e+00 0.000000e+00 0.000000e+00
<ENDHMM>
~h "d"
<BEGINHMM>
<NUMSTATES> 5
<STATE> 2
<MEAN> 39
 -3.892504e+00 1.477928e+00 7.554674e+00 1.248610e+00 -2.376216e+00 -4.094188e+00 -4.539367e+00 -4.062717e+00 -2.490146e+00 -3.191129e+00 -3.907758e+00 -2.913018e+00 5.837948e+01 -3.390092e-01 -1.340814e-01 1.370988e-01 -2.276337e-01 -1.931930e-01 -3.424819e-01 6.989874e-02 2.617284e-01 -1.778342e-01 -1.502905e-01 2.526447e-01 1.150683e-01 7.608847e-01 -5.262253e-02 -5.259252e-01 -2.621176e-01 -8.068227e-01 -7.512555e-01 -4.008047e-01 -7.248015e-02 1.865291e-01 6.181823e-03 2.122124e-01 1.801202e-01 2.011274e-01 9.137547e-01
<VARIANCE> 39
 1.458249e+01 1.885102e+01 2.374606e+01 3.220155e+01 3.854185e+01 4.757509e+01 3.829601e+01 3.155951e+01 2.976996e+01 3.237025e+01 2.924722e+01 2.813359e+01 3.546407e+01 2.175908e+00 2.333960e+00 2.302837e+00 3.848452e+00 4.710412e+00 4.537589e+00 3.751761e+00 3.605586e+00 3.126700e+00 2.790569e+00 3.041852e+00 2.941578e+00 3.935708e+00 3.003170e-01 3.349600e-01 4.036202e-01 6.908376e-01 1.026394e+00 9.153690e-01 7.422118e-01 6.642682e-01 6.157551e-01 5.413482e-01 5.089486e-01 5.052111e-01 5.588610e-01
<GCONST> 1.235158e+02
<STATE> 3
<MEAN> 39
 -6.290472e+00 -2.578666e+00 3.879553e+00 -4.610591e+00 -5.372839e+00 -8.286411e+00 -5.267186e+00 -1.459479e+00 -2.045452e+00 -2.183774e+00 -1.440737e+00 -7.878616e-01 6.707435e+01 3.718527e-03 -1.558276e+00 -2.337794e-01 -2.363849e+00 -2.926990e+00 -2.040347e+00 -4.501203e-01 6.556992e-01 -1.616206e-01 4.096717e-01 6.337236e-01 6.572000e-01 3.157685e+00 3.956212e-01 -1.509340e-01 2.539691e-01 -3.931052e-01 -7.081729e-01 -1.791086e-02 -5.507038e-02 -1.760352e-01 -1.283732e-01 1.765465e-01 -2.146455e-01 -1.953285e-01 1.386044e-01
<VARIANCE> 39
 2.122193e+01 1.864061e+01 2.578816e+01 3.606024e+01 5.130729e+01 5.746040e+01 5.147747e+01 3.561339e+01 3.418867e+01 3.341472e+01 3.331219e+01 3.013064e+01 2.389396e+01 1.812943e+00 2.262125e+00 3.703290e+00 5.040867e+00 6.032168e+00 5.413313e+00 5.508626e+00 4.964449e+00 4.640948e+00 3.941702e+00 3.487030e+00 2.982947e+00 3.487296e+00 3.758224e-01 3.428527e-01 5.464776e-01 6.075232e-01 7.210768e-01 7.461762e-01 8.330725e-01 7.132415e-01 5.917935e-01 5.492228e-01 6.010478e-01 5.885478e-01 3.043001e-01
<GCONST> 1.271069e+02
<STATE> 4
<MEAN> 39
 -4.008091e+00 -4.385411e+00 4.441543e+00 -7.401600e+00 -1.211050e+01 -1.285668e+01 -6.695964e+00 -1.394043e+00 -1.975618e+00 -1.658845e+00 -1.387038e+00 -1.812491e-01 7.125098e+01 3.932527e-01 -1.417046e+00 4.006909e-01 -2.262800e+00 -3.103059e+00 -1.142281e+00 -1.237478e-01 3.276150e-01 -3.750218e-01 6.795545e-01 2.607214e-01 1.412563e-01 2.377276e+00 1.084561e-01 2.284063e-01 2.541769e-01 1.747984e-01 3.566492e-01 6.761457e-01 1.225527e-01 -2.683265e-01 -1.455611e-01 9.030435e-02 -2.678986e-01 -3.109773e-01 -6.240155e-01
<VARIANCE> 39
 1.272341e+01 1.918933e+01 3.626810e+01 4.988719e+01 5.334367e+01 4.862186e+01 5.521013e+01 5.122874e+01 4.588315e+01 4.000987e+01 4.016763e+01 3.189922e+01 1.493327e+01 1.886995e+00 2.447178e+00 4.457825e+00 5.357460e+00 5.594434e+00 4.806459e+00 6.126944e+00 5.586182e+00 4.860301e+00 4.074479e+00 3.787142e+00 3.255063e+00 2.379397e+00 2.232033e-01 2.109123e-01 3.055598e-01 4.170565e-01 5.894042e-01 5.604926e-01 6.339171e-01 5.414919e-01 5.362334e-01 4.640888e-01 4.638191e-01 4.438590e-01 3.267688e-01
<GCONST> 1.243679e+02
<TRANSP> 5
 0.000000e+00 1.000000e+00 0.000000e+00 0.000000e+00 0.000000e+00
 0.000000e+00 6.322858e-01 3.677142e-01 0.000000e+00 0.000000e+00
 0.000000e+00 0.000000e+00 1.552162e-01 8.447838e-01 0.000000e+00
 0.000000e+00 0.000000e+00 0.000000e+00 9.587906e-02 9.041209e-01
 0.000000e+00 0.000000e+00 0.000000e+00 0.000000e+00 0.000000e+00
<ENDHMM>
~h "f"
<BEGINHMM>
<NUMSTATES> 5
<STATE> 2
<MEAN> 39
 -1.188297e+01 -1.992401e+00 4.685937e+00 5.205240e-01 9.126434e-01 7.115083e-01 -2.590775e-01 1.464931e+00 -4.829067e-01 -4.449988e-01 -2.503571e-01 2.749149e-01 6.203194e+01 -2.986466e+00 -5.946268e-01 -1.603005e-01 1.055461e+00 1.099730e+00 1.024656e+00 1.018321e+00 1.558741e+00 1.675675e+00 1.162645e+00 1.224896e+00 1.215481e+00 -6.688424e-01 3.650487e-01 -4.113087e-01 -3.149890e-01 -7.126458e-01 -6.195475e-01 -3.791499e-01 -2.594407e-01 -1.819486e-01 -1.191920e-01 9.479995e-02 1.240870e-02 1.787442e-02 4.626704e-01
<VARIANCE> 39
 2.319516e+01 1.309857e+01 1.901180e+01 1.506554e+01 1.767816e+01 2.141331e+01 2.036658e+01 2.148822e+01 2.300267e+01 2.148759e+01 2.038885e+01 1.794150e+01 2.284294e+01 3.156034e+00 2.242325e+00 3.077446e+00 3.219931e+00 3.500274e+00 3.155050e+00 2.880602e+00 3.370712e+00 3.110474e+00 2.596980e+00 2.899893e+00 2.303905e+00 1.571342e+00 4.817574e-01 3.485484e-01 3.921013e-01 4.895922e-01 4.911883e-01 4.970340e-01 4.921986e-01 5.876608e-01 5.444416e-01 5.109604e-01 4.692082e-01 4.426802e-01 2.122496e-01
<GCONST> 1.131820e+02
<STATE> 3
<MEAN> 39
 -1.751484e+01 -6.024618e+00 2.110822e+00 -4.308480e-01 1.037548e+00 1.365783e+00 9.469897e-01 3.994128e+00 2.807941e+00 2.877201e+00 3.238563e+00 3.746832e+00 6.219238e+01 3.755080e-01 -2.776418e-01 -1.727858e-01 -4.333937e-01 -3.427969e-01 -3.007558e-01 -1.454406e-01 -1.903358e-01 -2.294759e-01 -1.478374e-01 -9.983703e-02 -7.508726e-02 3.742230e-01 8.752272e-01 1.976940e-01 1.111419e-01 -3.748114e-01 -3.677546e-01 -2.859729e-01 -2.531023e-01 -4.073518e-01 -4.721794e-01 -2.968495e-01 -3.361158e-01 -3.456042e-01 1.696215e-01
<VARIANCE> 39
 1.005231e+01 1.238829e+01 1.568853e+01 1.148624e+01 1.331026e+01 1.522123e+01 1.554094e+01 1.575216e+01 1.552645e+01 1.524227e+01 1.447792e+01 1.284494e+01 1.607953e+01 3.014662e+00 1.208304e+00 1.494734e+00 1.643330e+00 1.623735e+00 1.823718e+00 1.659478e+00 1.902807e+00 2.031804e+00 1.892190e+00 1.816250e+00 1.714336e+00 1.160513e+00 3.782504e-01 2.768663e-01 3.495991e-01 4.982918e-01 4.514085e-01 4.207115e-01 4.295968e-01 4.921761e-01 4.576440e-01 3.961674e-01 4.247395e-01 3.444625e-01 2.219863e-01
<GCONST> 1.006817e+02
<STATE> 4
<MEAN> 39
 -9.103969e+00 -4.707064e+00 2.060797e+00 -4.327342e+00 -2.232994e+00 -1.390567e+00 -8.867577e-01 7.070609e-01 -1.297090e+00 -5.853750e-01 8.880882e-02 6.741918e-01 6.409724e+01 4.711602e+00 4.096666e-01 -1.826657e-01 -3.411787e+00 -2.975428e+00 -1.732924e+00 -1.510449e+00 -2.015321e+00 -2.381592e+00 -9.147286e-01 -1.273008e+00 -1.435868e+00 1.437071e+00 3.606818e-02 -2.248411e-01 3.225636e-03 -4.248501e-01 -3.357573e-01 -4.145329e-02 -2.322223e-01 -9.472459e-02 -2.546684e-02 3.522518e-01 8.991865e-02 -1.983314e-02 3.287314e-01
<VARIANCE> 39
 4.773277e+01 1.455011e+01 3.493047e+01 4.128765e+01 3.091684e+01 3.261762e+01 2.742563e+01 2.565848e+01 2.496291e+01 1.987540e+01 1.870684e+01 1.548207e+01 1.690652e+01 1.708350e+00 3.560520e+00 6.244631e+00 6.685349e+00 3.860417e+00 4.794757e+00 4.117685e+00 4.576275e+00 4.015046e+00 3.560816e+00 4.624662e+00 2.616005e+00 1.620551e+00 7.586622e-01 4.361274e-01 3.880280e-01 8.825820e-01 6.536203e-01 6.381382e-01 6.591418e-01 6.497109e-01 6.716449e-01 5.570236e-01 6.389346e-01 4.307893e-01 2.457538e-01
<GCONST> 1.231206e+02
<TRANSP> 5
 0.000000e+00 1.000000e+00 0.000000e+00 0.000000e+00 0.000000e+00
 0.000000e+00 6.297053e-01 3.702947e-01 0.000000e+00 0.000000e+00
 0.000000e+00 0.000000e+00 8.278916e-01 1.721084e-01 0.000000e+00
 0.000000e+00 0.000000e+00 0.000000e+00 4.370133e-01 5.629867e-01
 0.000000e+00 0.000000e+00 0.000000e+00 0.000000e+00 0.000000e+00
<ENDHMM>
~h "g"
<BEGINHMM>
<NUMSTATES> 5
<STATE> 2
<MEAN> 39
 -2.836857e+00 -2.520285e+00 3.506868e+00 -3.921701e+00 -3.373940e+00 -4.228077e+00 -5.014672e+00 -3.185511e+00 -4.738685e+00 5.919262e-01 -1.263109e+00 -1.018323e+00 6.217433e+01 2.749709e-01 5.365250e-01 -3.519982e-01 -2.748393e-01 1.163279e-01 4.468414e-02 2.123893e-01 -7.639824e-02 -6.455246e-01 6.095782e-02 1.444773e-01 3.782894e-01 -3.126957e-01 1.318612e-01 -2.170078e-01 -3.074922e-02 -5.010129e-01 -6.414732e-01 -2.202410e-01 -5.773447e-02 7.227120e-02 4.720327e-02 -3.115165e-02 -8.222930e-02 -1.104167e-01 5.331379e-01
<VARIANCE> 39
 2.218530e+01 2.519269e+01 4.340852e+01 5.559177e+01 7.331615e+01 7.120273e+01 6.116785e+01 5.701880e+01 4.603504e+01 4.253394e+01 5.246542e+01 3.283532e+01 3.660685e+01 1.817835e+00 2.691982e+00 3.735194e+00 6.406802e+00 6.855733e+00 5.632357e+00 5.042155e+00 4.663975e+00 4.151264e+00 4.026953e+00 3.466385e+00 2.881106e+00 4.088364e+00 3.499115e-01 4.415169e-01 6.096085e-01 8.919117e-01 1.260352e+00 9.868491e-01 9.396245e-01 8.242570e-01 7.496871e-01 7.164461e-01 7.167356e-01 5.987888e-01 4.808719e-01
<GCONST> 1.345271e+02
<STATE> 3
<MEAN> 39
 -1.451828e+00 -1.508155e+00 4.004131e+00 -5.326472e+00 -6.954250e+00 -6.719039e+00 -5.147834e+00 -3.317639e+00 -6.213245e+00 8.577635e-01 -1.604664e+00 1.522847e-02 6.319670e+01 3.303596e-01 -1.799246e-01 -3.257954e-01 -1.126188e+00 -1.094030e+00 -4.884039e-01 7.518117e-02 2.498127e-01 -2.527733e-01 1.164192e-01 1.515014e-01 -4.289648e-02 8.221287e-01 7.945734e-02 -5.190476e-01 -2.064113e-01 -4.434183e-01 -3.027548e-01 -3.616477e-02 -1.274047e-01 2.134405e-01 2.507493e-01 -4.445051e-02 -7.456438e-02 -2.963610e-01 6.011878e-01
<VARIANCE> 39
 1.582663e+01 2.525924e+01 3.732811e+01 5.463737e+01 6.223769e+01 6.608914e+01 4.753445e+01 5.783899e+01 4.835986e+01 4.587868e+01 5.071956e+01 3.345849e+01 2.889276e+01 1.271495e+00 2.006246e+00 2.412705e+00 5.401256e+00 5.238698e+00 3.601161e+00 3.873517e+00 3.958198e+00 3.371314e+00 3.324362e+00 3.476961e+00 2.493392e+00 2.547196e+00 2.075684e-01 3.594624e-01 4.348905e-01 7.304792e-01 8.464531e-01 7.702067e-01 7.439230e-01 6.611968e-01 6.937636e-01 6.933880e-01 5.441970e-01 6.104547e-01 4.989556e-01
<GCONST> 1.273085e+02
<STATE> 4
<MEAN> 39
 -1.166487e-01 -2.223775e+00 2.849046e+00 -9.495512e+00 -1.089252e+01 -7.196420e+00 -5.342171e+00 -8.960881e-01 -6.619637e+00 -2.731069e-02 -1.488701e-01 -2.392940e+00 6.643739e+01 3.646332e-01 -8.134872e-01 -6.541247e-01 -1.195325e+00 -8.122418e-01 -2.121356e-01 -2.198961e-01 4.390399e-01 2.975644e-01 -1.039941e-02 6.322515e-02 -5.332782e-01 1.230856e+00 -1.543294e-02 -2.023012e-01 -4.649377e-02 1.596140e-01 3.152954e-01 2.131252e-01 -8.411673e-02 -4.892155e-02 2.091402e-01 -9.621357e-02 -7.073510e-02 -3.893384e-02 -3.660293e-02
<VARIANCE> 39
 1.659147e+01 4.185754e+01 4.014075e+01 7.274712e+01 6.377003e+01 7.257834e+01 4.992547e+01 7.153894e+01 5.252230e+01 4.933258e+01 7.291268e+01 4.909945e+01 3.173133e+01 9.521376e-01 1.710573e+00 1.969693e+00 4.324372e+00 4.293424e+00 3.072708e+00 3.382622e+00 3.526704e+00 3.616023e+00 3.106758e+00 2.991313e+00 2.792947e+00 1.760023e+00 1.412075e-01 2.819349e-01 2.923527e-01 5.948657e-01 7.822447e-01 5.816335e-01 5.365319e-01 6.432965e-01 5.099710e-01 5.279100e-01 5.487261e-01 4.698499e-01 4.212666e-01
<GCONST> 1.247600e+02
<TRANSP> 5
 0.000000e+00 1.000000e+00 0.000000e+00 0.000000e+00 0.000000e+00
 0.000000e+00 4.728965e-01 5.271035e-01 0.000000e+00 0.000000e+00
 0.000000e+00 0.000000e+00 2.736750e-01 7.263250e-01 0.000000e+00
 0.000000e+00 0.000000e+00 0.000000e+00 4.442797e-01 5.557203e-01
 0.000000e+00 0.000000e+00 0.000000e+00 0.000000e+00 0.000000e+00
<ENDHMM>
~h "k"
<BEGINHMM>
<NUMSTATES> 5
<STATE> 2
<MEAN> 39
 -7.509127e+00 -2.138892e+00 6.186211e+00 9.425856e-01 -1.024219e+00 -1.343593e+00 2.914855e-01 3.027802e-01 3.606102e-02 1.465542e+00 5.186104e-01 7.872020e-01 5.585041e+01 -1.461913e+00 -5.034487e-01 -4.494810e-01 1.223971e+00 1.680516e+00 1.831039e+00 1.470252e+00 1.128430e+00 1.869119e+00 8.243560e-01 1.277043e+00 1.014155e+00 -2.277102e+00 4.384871e-02 -5.615724e-01 -5.479411e-01 -9.389456e-01 -4.433185e-01 -2.534246e-01 -2.026014e-01 6.806167e-02 -2.543432e-01 9.574582e-02 -3.116497e-02 7.491205e-02 1.017910e+00
<VARIANCE> 39
 1.449295e+01 1.363624e+01 2.603250e+01 2.424561e+01 3.349038e+01 4.287875e+01 3.133820e+01 3.652333e+01 3.400179e+01 3.060905e+01 3.175892e+01 2.358739e+01 1.741207e+01 1.627032e+00 2.322497e+00 3.404912e+00 4.543096e+00 4.557376e+00 3.985234e+00 3.514850e+00 4.296393e+00 4.131435e+00 3.151621e+00 3.894708e+00 2.560453e+00 3.132202e+00 2.727430e-01 3.575684e-01 5.268016e-01 5.546098e-01 6.229736e-01 7.081459e-01 6.360477e-01 6.737496e-01 7.812696e-01 6.113130e-01 6.395270e-01 4.705670e-01 4.477328e-01
<GCONST> 1.218706e+02
<STATE> 3
<MEAN> 39
 -1.083244e+01 -5.470765e+00 2.717265e+00 -1.316984e-01 1.494141e+00 2.375656e+00 3.295891e+00 2.868430e+00 3.371790e+00 4.224126e+00 3.655859e+00 4.330638e+00 5.391375e+01 -3.075262e-01 -9.848434e-01 -1.647804e+00 -1.360763e+00 2.537723e-01 -1.374084e-01 -1.253168e-01 3.634688e-01 -4.953138e-01 3.965187e-01 -1.102743e-01 3.773559e-01 1.592330e+00 4.786388e-01 2.274786e-01 -8.881520e-02 -6.370084e-01 -5.016682e-01 -5.777790e-01 -5.042500e-01 -3.593068e-01 -6.906795e-01 -2.879109e-01 -4.941097e-01 -3.870336e-01 9.470997e-01
<VARIANCE> 39
 9.625233e+00 1.403061e+01 2.251585e+01 2.457677e+01 2.577726e+01 2.574434e+01 2.202593e+01 2.336262e+01 2.299823e+01 2.236884e+01 1.827476e+01 1.593392e+01 1.864903e+01 1.979501e+00 2.400019e+00 4.479297e+00 4.812998e+00 4.071696e+00 4.514505e+00 3.454272e+00 3.639022e+00 4.068844e+00 3.339111e+00 3.074309e+00 2.437502e+00 4.386018e+00 3.529750e-01 4.198453e-01 7.032518e-01 6.965491e-01 7.501328e-01 6.524272e-01 5.728064e-01 6.741212e-01 6.519275e-01 5.963562e-01 5.568624e-01 4.465303e-01 4.958711e-01
<GCONST> 1.193293e+02
<STATE> 4
<MEAN> 39
 -8.948281e+00 -6.380736e+00 -3.357614e+00 -8.301823e+00 3.374257e-01 -6.201490e-01 -2.157015e-01 2.134199e+00 -2.438246e+00 4.121378e+00 8.424221e-01 2.997572e+00 6.385649e+01 1.909529e+00 8.634358e-01 1.722853e-01 -2.204766e+00 -2.257994e+00 -1.544121e+00 -1.348848e+00 -1.099187e+00 -1.750821e+00 -9.886338e-01 -9.814155e-01 -1.275360e+00 2.348922e+00 4.951265e-01 2.084031e-01 7.119153e-01 1.744613e-01 -5.741857e-01 -9.758769e-02 -8.005879e-02 -2.681220e-01 9.585959e-02 -3.546265e-01 1.302867e-02 -3.808383e-01 -2.946227e-01
<VARIANCE> 39
 3.895203e+01 3.409350e+01 6.120924e+01 6.416151e+01 6.519127e+01 5.866343e+01 4.373346e+01 4.970622e+01 4.684709e+01 4.207397e+01 3.739098e+01 2.775053e+01 2.672368e+01 3.577776e+00 2.712601e+00 5.322334e+00 5.680857e+00 6.217505e+00 4.799796e+00 4.251952e+00 4.966887e+00 4.263320e+00 4.010466e+00 4.169250e+00 3.353169e+00 3.068111e+00 5.465701e-01 7.928726e-01 9.503753e-01 9.863291e-01 1.240700e+00 1.108799e+00 9.786476e-01 1.007072e+00 9.638748e-01 8.876495e-01 7.485303e-01 7.021157e-01 4.619290e-01
<GCONST> 1.374517e+02
<TRANSP> 5
 0.000000e+00 1.000000e+00 0.000000e+00 0.000000e+00 0.000000e+00
 0.000000e+00 6.047660e-01 3.952340e-01 0.000000e+00 0.000000e+00
 0.000000e+00 0.000000e+00 6.775002e-01 3.224998e-01 0.000000e+00
 0.000000e+00 0.000000e+00 0.000000e+00 6.188580e-01 3.811420e-01
 0.000000e+00 0.000000e+00 0.000000e+00 0.000000e+00 0.000000e+00
<ENDHMM>
~h "l"
<BEGINHMM>
<NUMSTATES> 5
<STATE> 2
<MEAN> 39
 -3.359160e+00 -4.275687e+00 7.276965e+00 -5.514493e+00 -7.845410e+00 -8.118476e+00 -1.109196e+01 -4.093954e+00 -2.379844e-01 -2.774152e+00 -2.780667e+00 -2.749380e-01 6.628687e+01 -5.588916e-02 1.243818e+00 1.284698e+00 2.526039e-01 4.099403e-01 3.165157e-01 -1.296161e+00 -1.411114e+00 5.641105e-02 -3.842551e-01 -5.433348e-01 2.127720e-01 -7.039326e-01 -1.528139e-02 -2.890865e-01 -3.795600e-01 -2.865185e-01 -5.818022e-02 3.122467e-01 5.129920e-01 3.175551e-01 -1.172766e-01 2.236379e-01 6.793038e-03 -1.770449e-01 1.916885e-01
<VARIANCE> 39
 1.908436e+01 2.427747e+01 3.753608e+01 5.062593e+01 5.191317e+01 6.214005e+01 7.231736e+01 5.856074e+01 5.027735e+01 5.673399e+01 4.903045e+01 4.835525e+01 3.679324e+01 1.686989e+00 1.804710e+00 2.544665e+00 3.933821e+00 4.253801e+00 4.954858e+00 5.644104e+00 4.899818e+00 3.921255e+00 3.784925e+00 3.379337e+00 3.454064e+00 2.239097e+00 2.291511e-01 3.886155e-01 4.127138e-01 6.315396e-01 6.894769e-01 9.003477e-01 9.822801e-01 8.789833e-01 7.546090e-01 7.844406e-01 6.732402e-01 5.945686e-01 2.330820e-01
<GCONST> 1.295904e+02
<STATE> 3
<MEAN> 39
 -3.299680e+00 -2.882344e+00 9.047749e+00 -6.748702e+00 -8.155428e+00 -6.234911e+00 -1.296709e+01 -6.446947e+00 -2.101985e-01 -1.930125e+00 -4.334630e+00 -9.916204e-01 6.598241e+01 -2.765671e-02 -8.779095e-04 -9.905715e-02 -7.845807e-02 1.556233e-01 3.567644e-01 2.375266e-01 1.330920e-01 -1.381243e-01 2.554170e-01 3.959721e-02 -2.389921e-01 -7.616103e-02 3.059755e-02 -5.564562e-01 -6.468009e-01 -1.568796e-01 -1.648464e-01 -8.698408e-02 7.402771e-01 7.443379e-01 -1.306403e-01 1.494102e-01 2.198089e-01 -1.018757e-01 3.546692e-01
<VARIANCE> 39
 1.643517e+01 2.385590e+01 3.885332e+01 5.198414e+01 5.054213e+01 5.366768e+01 6.967385e+01 6.223416e+01 5.463359e+01 5.696867e+01 5.619838e+01 5.549318e+01 2.654657e+01 1.019850e+00 1.428952e+00 1.801036e+00 2.913301e+00 2.494106e+00 2.983709e+00 3.746429e+00 3.561291e+00 2.794164e+00 2.509825e+00 2.416538e+00 2.110094e+00 1.518962e+00 2.042860e-01 3.582301e-01 4.318433e-01 6.150365e-01 7.308053e-01 8.213162e-01 1.037689e+00 9.349275e-01 7.772403e-01 7.434850e-01 7.088675e-01 6.645286e-01 2.463176e-01
<GCONST> 1.243504e+02
<STATE> 4
<MEAN> 39
 -3.779748e+00 -3.475023e+00 7.682038e+00 -5.375813e+00 -6.954151e+00 -6.056694e+00 -1.022176e+01 -3.967363e+00 -1.021885e+00 -1.648825e+00 -2.493971e+00 -1.061048e+00 6.505560e+01 2.890177e-01 -1.002854e+00 -1.195321e+00 -6.833620e-01 -3.851320e-01 -2.392554e-01 9.487964e-01 1.379683e+00 -3.065311e-01 3.474061e-01 1.452642e-01 -3.474032e-01 9.772680e-01 -2.061375e-02 -3.605503e-01 -4.453225e-01 -2.293913e-01 -3.419921e-02 1.335045e-01 5.001080e-01 3.054534e-01 2.423206e-02 8.506252e-02 -5.169348e-03 -5.346122e-04 2.251032e-01
<VARIANCE> 39
 2.152841e+01 2.695409e+01 3.451469e+01 5.449340e+01 5.160972e+01 5.464645e+01 7.366162e+01 5.794466e+01 4.780455e+01 4.637199e+01 4.939027e+01 4.215965e+01 3.974601e+01 2.112070e+00 2.964469e+00 3.274606e+00 5.074986e+00 5.521145e+00 6.690202e+00 9.398274e+00 6.214259e+00 4.895381e+00 4.642791e+00 4.489801e+00 3.633092e+00 4.085679e+00 2.681375e-01 4.852738e-01 4.329293e-01 6.790975e-01 7.511138e-01 8.404010e-01 1.228740e+00 8.460839e-01 7.462063e-01 6.959237e-01 6.300397e-01 5.214803e-01 3.101242e-01
<GCONST> 1.339320e+02
<TRANSP> 5
 0.000000e+00 1.000000e+00 0.000000e+00 0.000000e+00 0.000000e+00
 0.000000e+00 4.377102e-01 5.622898e-01 0.000000e+00 0.000000e+00
 0.000000e+00 0.000000e+00 4.671164e-01 5.328836e-01 0.000000e+00
 0.000000e+00 0.000000e+00 0.000000e+00 3.671257e-01 6.328743e-01
 0.000000e+00 0.000000e+00 0.000000e+00 0.000000e+00 0.000000e+00
<ENDHMM>
~h "m"
<BEGINHMM>
<NUMSTATES> 5
<STATE> 2
<MEAN> 39
 9.581102e-01 -2.926688e+00 2.388599e+00 -2.982999e+00 -4.715560e+00 -5.749722e+00 -7.058111e+00 -8.253819e+00 -7.688110e+00 -1.454544e+00 -2.219340e+00 -4.898652e+00 6.467506e+01 1.057538e-01 1.411434e+00 8.739229e-01 2.173949e+00 9.084504e-01 -3.466237e-02 -2.736753e-01 -2.377671e+00 -1.683965e+00 1.546106e-01 1.689705e-01 -5.848556e-01 -1.147747e+00 -2.494894e-01 -3.339478e-01 1.801353e-02 -4.998654e-01 -2.370356e-01 1.090273e-01 1.790223e-01 4.670977e-01 1.291208e-01 -1.107967e-01 -5.722250e-02 9.346655e-02 4.092594e-01
<VARIANCE> 39
 9.867885e+00 2.217998e+01 2.815592e+01 3.889719e+01 4.071546e+01 5.420507e+01 5.229375e+01 5.888292e+01 4.495211e+01 4.209055e+01 4.495281e+01 3.262604e+01 1.923881e+01 1.493393e+00 2.047897e+00 3.948887e+00 3.669754e+00 3.851737e+00 4.709843e+00 5.630826e+00 4.260588e+00 4.826729e+00 5.344735e+00 3.724237e+00 3.357802e+00 1.720273e+00 1.719234e-01 2.557673e-01 4.805019e-01 5.100667e-01 4.903035e-01 5.057584e-01 6.561921e-01 7.336689e-01 7.218843e-01 6.100577e-01 5.190744e-01 4.737729e-01 1.571182e-01
<GCONST> 1.230461e+02
<STATE> 3
<MEAN> 39
 8.356131e-01 -2.074981e+00 3.596990e+00 -1.751203e+00 -4.640429e+00 -4.610671e+00 -6.888549e+00 -9.804704e+00 -1.028635e+01 -2.103682e+00 -2.162130e+00 -5.691417e+00 6.426848e+01 -3.879346e-02 -1.076274e-01 -3.967204e-02 -1.994144e-01 -2.591409e-02 5.424678e-02 5.532823e-02 2.208749e-01 -6.248248e-03 -1.357004e-01 -5.830423e-02 -1.806985e-01 1.575807e-01 -1.672546e-02 -3.741725e-01 -2.838605e-01 -8.014055e-01 -2.698833e-01 5.162928e-02 1.137767e-01 7.151346e-01 5.040359e-01 -7.245111e-02 -3.581373e-02 1.754586e-01 3.533449e-01
<VARIANCE> 39
 5.493205e+00 1.875057e+01 2.313896e+01 3.915136e+01 4.513163e+01 6.711687e+01 5.668689e+01 5.877876e+01 4.382733e+01 5.630864e+01 4.755635e+01 3.824861e+01 1.182304e+01 2.893456e-01 7.853585e-01 1.019911e+00 1.811519e+00 1.186147e+00 1.716010e+00 1.497124e+00 2.105343e+00 2.043321e+00 1.893990e+00 1.628126e+00 1.562413e+00 5.609314e-01 1.216771e-01 2.212141e-01 4.315736e-01 4.294035e-01 3.653543e-01 4.978574e-01 6.141569e-01 6.313283e-01 6.612819e-01 6.982515e-01 4.970545e-01 4.998766e-01 1.295298e-01
<GCONST> 1.075735e+02
<STATE> 4
<MEAN> 39
 9.737344e-01 -3.597412e+00 1.687727e+00 -5.376750e+00 -5.555893e+00 -5.446587e+00 -6.455954e+00 -6.644305e+00 -7.432089e+00 -2.669417e+00 -2.585594e+00 -5.969267e+00 6.642599e+01 -2.002444e-01 -1.240497e+00 -6.360614e-01 -2.534592e+00 -9.220158e-01 2.231959e-01 4.314085e-01 2.229700e+00 1.416968e+00 -3.538511e-01 -1.291921e-01 5.090656e-01 1.249849e+00 -2.076655e-01 -1.324474e-01 1.319680e-01 -2.562994e-01 -1.060786e-01 2.659580e-01 1.803083e-01 1.487328e-01 -5.239861e-03 -2.269681e-02 2.717161e-02 2.022631e-01 1.237090e-01
<VARIANCE> 39
 6.731729e+00 2.425041e+01 3.400399e+01 5.181128e+01 4.386642e+01 5.812700e+01 5.185991e+01 5.729004e+01 4.836303e+01 4.800535e+01 4.510039e+01 3.182477e+01 1.875403e+01 1.021167e+00 2.287933e+00 5.156807e+00 3.832944e+00 4.175924e+00 4.439889e+00 5.556543e+00 4.817146e+00 5.627654e+00 5.380602e+00 3.799994e+00 3.672007e+00 1.651781e+00 1.130120e-01 2.672021e-01 4.624400e-01 6.256115e-01 5.864275e-01 5.162684e-01 6.555670e-01 7.044660e-01 7.797520e-01 6.406940e-01 5.345957e-01 4.778584e-01 1.263689e-01
<GCONST> 1.237905e+02
<TRANSP> 5
 0.000000e+00 1.000000e+00 0.000000e+00 0.000000e+00 0.000000e+00
 0.000000e+00 4.875122e-01 5.124878e-01 0.000000e+00 0.000000e+00
 0.000000e+00 0.000000e+00 7.022789e-01 2.977210e-01 0.000000e+00
 0.000000e+00 0.000000e+00 0.000000e+00 4.884433e-01 5.115567e-01
 0.000000e+00 0.000000e+00 0.000000e+00 0.000000e+00 0.000000e+00
<ENDHMM>
~h "n"
<BEGINHMM>
<NUMSTATES> 5
<STATE> 2
<MEAN> 39
 -5.854750e-01 -2.509295e+00 3.942034e+00 -4.546767e+00 -8.617912e+00 -7.622958e+00 -4.899173e+00 -4.050259e+00 -6.005200e+00 -2.191994e+00 -4.679666e+00 -3.442746e+00 6.544348e+01 5.812066e-01 1.412001e+00 6.638917e-01 1.769308e+00 -1.182315e-01 -8.624227e-01 1.763965e-01 -1.526217e+00 -4.785604e-01 1.578325e-01 -1.008319e+00 -5.036785e-03 -1.225507e+00 -1.702047e-01 -1.568545e-01 -2.143549e-03 -4.138712e-01 -1.804854e-02 2.715245e-01 4.638914e-02 1.417089e-01 4.325313e-02 -3.192174e-02 1.042255e-01 4.057808e-02 2.327552e-01
<VARIANCE> 39
 1.247601e+01 2.154748e+01 3.286777e+01 5.001641e+01 6.197478e+01 6.381916e+01 5.076312e+01 7.294933e+01 5.080089e+01 5.453300e+01 5.594732e+01 4.599834e+01 2.782887e+01 1.283830e+00 1.628368e+00 3.779176e+00 3.408114e+00 5.210694e+00 4.489828e+00 5.142535e+00 4.509024e+00 4.632242e+00 4.524216e+00 3.706321e+00 3.495054e+00 1.997821e+00 1.699525e-01 2.441199e-01 3.464484e-01 3.985661e-01 5.153635e-01 5.583739e-01 5.415500e-01 6.705355e-01 5.833388e-01 5.601279e-01 5.310049e-01 4.184025e-01 1.478707e-01
<GCONST> 1.242117e+02
<STATE> 3
<MEAN> 39
 6.624754e-01 -1.830874e-01 4.712179e+00 -3.096117e+00 -1.025214e+01 -7.764809e+00 -4.537913e+00 -6.273468e+00 -6.737335e+00 -2.264120e+00 -6.275667e+00 -3.034250e+00 6.395272e+01 -1.251759e-01 4.995277e-01 3.432018e-01 4.012778e-01 2.913314e-01 1.549290e-01 -3.021840e-02 -1.472907e-01 -4.620305e-02 -1.295527e-01 -2.433355e-02 3.888837e-02 -5.154793e-01 -2.877693e-01 -3.200970e-01 -8.419688e-02 -4.033905e-01 2.644685e-01 3.274921e-01 -7.560083e-02 4.625037e-01 1.624980e-01 -6.528013e-02 3.207153e-01 -2.904116e-03 2.325555e-01
<VARIANCE> 39
 5.488848e+00 1.657617e+01 2.824600e+01 3.910214e+01 4.684180e+01 5.381432e+01 4.485695e+01 5.760425e+01 4.322618e+01 5.987510e+01 5.067389e+01 5.264940e+01 1.196589e+01 4.284810e-01 1.142905e+00 1.177325e+00 1.528112e+00 1.902744e+00 1.848199e+00 1.830127e+00 2.173620e+00 2.024409e+00 1.890516e+00 1.902822e+00 1.611602e+00 9.119056e-01 1.624934e-01 2.834544e-01 3.870372e-01 5.123274e-01 5.454357e-01 5.385605e-01 5.734883e-01 5.869511e-01 5.745107e-01 5.610591e-01 4.924097e-01 4.673695e-01 2.038756e-01
<GCONST> 1.107952e+02
<STATE> 4
<MEAN> 39
 -1.269225e+00 5.915889e-01 6.208392e+00 -2.164806e+00 -6.633727e+00 -6.329990e+00 -5.004909e+00 -5.361461e+00 -6.368517e+00 -2.745537e+00 -4.998436e+00 -3.149514e+00 6.213486e+01 -1.204879e+00 -7.215459e-01 5.084474e-02 -2.843558e-01 1.365324e+00 1.226417e+00 9.383018e-02 1.401409e+00 8.614546e-01 -1.185588e-02 9.309875e-01 2.430777e-01 -1.557711e-01 -2.876733e-01 -5.416516e-01 -3.444781e-01 -4.176157e-01 2.323319e-02 2.935316e-01 2.061852e-01 4.016200e-01 3.100753e-01 1.909747e-01 2.700349e-01 1.634745e-01 3.133657e-01
<VARIANCE> 39
 9.356165e+00 2.208121e+01 2.550067e+01 3.880213e+01 4.741697e+01 5.007909e+01 4.059570e+01 5.175230e+01 3.991998e+01 4.448053e+01 4.317685e+01 3.843374e+01 2.619830e+01 1.450910e+00 2.646964e+00 2.801466e+00 4.958265e+00 4.350669e+00 3.960846e+00 4.711374e+00 4.162275e+00 4.316034e+00 4.243273e+00 3.447404e+00 3.130231e+00 3.190433e+00 2.409848e-01 2.941637e-01 3.848748e-01 5.059931e-01 6.016160e-01 5.628558e-01 5.977808e-01 5.990682e-01 6.112354e-01 6.196514e-01 5.214522e-01 4.863551e-01 2.374645e-01
<GCONST> 1.235629e+02
<TRANSP> 5
 0.000000e+00 1.000000e+00 0.000000e+00 0.000000e+00 0.000000e+00
 0.000000e+00 3.889094e-01 6.110906e-01 0.000000e+00 0.000000e+00
 0.000000e+00 0.000000e+00 6.697940e-01 3.302060e-01 0.000000e+00
 0.000000e+00 0.000000e+00 0.000000e+00 4.449672e-01 5.550328e-01
 0.000000e+00 0.000000e+00 0.000000e+00 0.000000e+00 0.000000e+00
<ENDHMM>
~h "p"
<BEGINHMM>
<NUMSTATES> 5
<STATE> 2
<MEAN> 39
 -8.021781e+00 -2.500856e+00 5.332471e+00 1.030653e+00 1.085305e+00 2.209071e+00 1.792674e+00 5.932845e-01 2.196703e+00 1.609126e+00 1.294120e+00 8.115528e-01 5.312756e+01 -1.175643e+00 -4.896685e-01 -7.579022e-02 4.495271e-01 4.185703e-01 7.607890e-01 9.819380e-01 8.097488e-01 1.112799e+00 7.096906e-01 8.000200e-01 9.159083e-01 -1.163923e+00 2.068471e-01 -2.369482e-01 -3.039314e-01 -6.231022e-01 -3.734736e-01 -4.008423e-01 -3.986974e-01 -1.170470e-01 -2.733794e-01 -1.078267e-01 -9.421153e-02 -8.288654e-02 9.157692e-01
<VARIANCE> 39
 1.403321e+01 1.169713e+01 1.523581e+01 1.330324e+01 1.625088e+01 2.042605e+01 2.159103e+01 2.398063e+01 2.630637e+01 2.620913e+01 2.607299e+01 2.544946e+01 9.459587e+00 1.557740e+00 1.219354e+00 1.597935e+00 2.416799e+00 1.885927e+00 2.106851e+00 2.413789e+00 2.555834e+00 2.839046e+00 2.429363e+00 2.506806e+00 2.076019e+00 2.304263e+00 2.243008e-01 3.281722e-01 3.666208e-01 4.843946e-01 3.947984e-01 4.180238e-01 4.285301e-01 4.871814e-01 5.204963e-01 5.553699e-01 5.120056e-01 4.674320e-01 2.968974e-01
<GCONST> 1.074411e+02
<STATE> 3
<MEAN> 39
 -1.077545e+01 -4.483036e+00 4.040748e+00 -5.209156e-02 1.379049e+00 2.797354e+00 2.612712e+00 2.201082e+00 3.803781e+00 3.020330e+00 3.335099e+00 3.180957e+00 5.379440e+01 8.691592e-01 -4.201196e-01 -7.784879e-01 -1.746180e+00 -1.081340e+00 -1.609966e+00 -1.449590e+00 -3.237334e-01 -9.070528e-01 -6.408157e-01 -7.246265e-01 -6.372548e-01 3.154246e+00 1.009641e+00 -8.691472e-02 -2.746897e-01 -8.757679e-01 -7.245014e-01 -5.864559e-01 -6.271083e-01 -4.076389e-01 -6.481397e-01 -2.996179e-01 -4.916799e-01 -5.248399e-01 1.087384e+00
<VARIANCE> 39
 4.977379e+00 6.729344e+00 8.144737e+00 1.076002e+01 1.142405e+01 1.567687e+01 1.639892e+01 1.497011e+01 1.627775e+01 1.695401e+01 1.462953e+01 1.371441e+01 2.298269e+01 2.764642e+00 1.565989e+00 2.484563e+00 3.528169e+00 2.829870e+00 3.536519e+00 2.818068e+00 2.590694e+00 2.936548e+00 2.582586e+00 2.577424e+00 2.350846e+00 3.129620e+00 2.631194e-01 4.216864e-01 5.311993e-01 6.759768e-01 5.340658e-01 7.125628e-01 5.933020e-01 5.593969e-01 5.673540e-01 5.510116e-01 5.853460e-01 4.475252e-01 5.898822e-01
<GCONST> 1.089836e+02
<STATE> 4
<MEAN> 39
 -4.669400e+00 -4.873262e+00 4.952066e-01 -7.442326e+00 -3.827901e+00 -3.416461e+00 -3.321696e+00 -2.729476e-01 -4.713521e-01 -6.649213e-02 -1.771123e-01 -4.853040e-01 6.561791e+01 3.414384e+00 -9.122406e-01 -1.524268e+00 -3.571148e+00 -2.787963e+00 -1.744525e+00 -2.022399e+00 -1.087093e+00 -1.768744e+00 -6.025706e-01 -1.050546e+00 -1.312328e+00 3.892593e+00 8.637366e-03 -1.955281e-01 1.797143e-01 2.545477e-01 -7.604840e-03 4.252411e-01 2.505586e-01 -1.606640e-02 1.331671e-01 2.482483e-01 1.568868e-01 7.295741e-02 -6.268358e-01
<VARIANCE> 39
 3.703043e+01 1.834961e+01 2.787273e+01 5.197969e+01 3.055183e+01 3.825213e+01 3.149508e+01 2.609362e+01 2.790220e+01 2.464950e+01 2.355005e+01 1.947823e+01 2.272839e+01 1.935056e+00 4.301613e+00 5.684394e+00 7.907095e+00 5.150630e+00 7.305174e+00 5.457527e+00 4.633849e+00 4.599025e+00 4.123780e+00 5.037246e+00 3.568276e+00 4.388664e+00 7.657480e-01 4.621322e-01 4.654375e-01 1.142399e+00 8.098094e-01 7.352922e-01 7.118797e-01 7.619365e-01 7.378464e-01 6.605417e-01 6.209777e-01 5.195114e-01 4.571306e-01
<GCONST> 1.296975e+02
<TRANSP> 5
 0.000000e+00 1.000000e+00 0.000000e+00 0.000000e+00 0.000000e+00
 0.000000e+00 7.475866e-01 2.524134e-01 0.000000e+00 0.000000e+00
 0.000000e+00 0.000000e+00 5.869238e-01 4.130761e-01 0.000000e+00
 0.000000e+00 0.000000e+00 0.000000e+00 4.338298e-01 5.661702e-01
 0.000000e+00 0.000000e+00 0.000000e+00 0.000000e+00 0.000000e+00
<ENDHMM>
~h "s"
<BEGINHMM>
<NUMSTATES> 5
<STATE> 2
<MEAN> 39
 -1.278806e+01 2.691191e+00 3.145262e+00 -2.421437e+00 -9.215139e-01 -4.983383e+00 -1.836878e+00 -1.940814e-02 -2.348433e+00 -2.532238e+00 -1.276238e+00 -5.098754e-01 6.650890e+01 -4.295784e+00 1.111376e+00 -2.404486e-01 1.383970e+00 2.250438e+00 1.834560e+00 1.607874e+00 1.515241e+00 1.066348e+00 8.746716e-01 1.314467e+00 9.422370e-01 -6.898946e-01 4.569329e-02 -6.462723e-01 -3.625850e-01 -5.106061e-01 -3.957337e-01 1.179835e-01 -2.502609e-02 1.973475e-01 1.942313e-01 3.801226e-01 1.839717e-01 1.619012e-01 1.097513e-01
<VARIANCE> 39
 4.358417e+01 2.342742e+01 2.726165e+01 3.385754e+01 5.628354e+01 5.356013e+01 4.231065e+01 4.180180e+01 3.554842e+01 3.547937e+01 2.690238e+01 2.254602e+01 2.213922e+01 2.589885e+00 3.303710e+00 3.683416e+00 4.442186e+00 4.204816e+00 4.791889e+00 4.659915e+00 4.397711e+00 3.681037e+00 4.147192e+00 3.587003e+00 3.178198e+00 1.426157e+00 8.343289e-01 4.452881e-01 3.967535e-01 5.056327e-01 6.419492e-01 7.675361e-01 6.922811e-01 6.788623e-01 5.742751e-01 5.995439e-01 4.882315e-01 4.964252e-01 1.745811e-01
<GCONST> 1.257584e+02
<STATE> 3
<MEAN> 39
 -2.328686e+01 2.275343e+00 -4.287905e-01 -1.725442e+00 1.772856e+00 8.211923e-02 2.049191e+00 4.490305e+00 1.551800e+00 1.766484e+00 3.534482e+00 3.474707e+00 6.445604e+01 -6.031283e-01 -2.627631e-01 -2.116702e-01 -1.109007e-01 2.836462e-02 2.650386e-01 2.391790e-01 3.152581e-01 2.923414e-01 3.701510e-01 3.883526e-01 3.503013e-01 -2.302588e-01 8.163037e-01 -1.588471e-01 2.448870e-01 -1.365779e-01 -3.083446e-01 -3.241166e-01 -2.351250e-01 -3.050473e-01 -2.182944e-01 -2.184888e-01 -2.839917e-01 -2.243529e-01 3.799216e-02
<VARIANCE> 39
 1.643093e+01 1.742311e+01 2.458836e+01 3.316092e+01 3.743280e+01 3.479385e+01 3.346743e+01 2.825095e+01 2.447841e+01 2.123133e+01 2.012403e+01 1.763853e+01 1.680875e+01 2.067615e+00 1.174109e+00 1.359763e+00 1.332711e+00 1.576437e+00 2.008414e+00 1.849452e+00 2.044870e+00 2.083579e+00 2.121180e+00 1.903404e+00 1.715762e+00 1.021534e+00 3.965708e-01 2.307057e-01 2.637219e-01 3.316512e-01 3.877702e-01 4.514386e-01 4.473978e-01 4.519930e-01 4.158245e-01 4.364239e-01 4.109666e-01 3.466284e-01 1.509145e-01
<GCONST> 1.059482e+02
<STATE> 4
<MEAN> 39
 -1.924981e+01 -4.403114e-01 2.040860e+00 -2.853935e+00 7.198780e-01 -1.160121e+00 1.077201e+00 3.812283e+00 1.148959e+00 1.429792e+00 2.544935e+00 2.578034e+00 6.403786e+01 2.916021e+00 -6.566914e-01 8.152709e-01 -2.824048e-01 -1.275102e+00 -8.948703e-01 -8.390496e-01 -1.173781e+00 -6.603009e-01 -4.743555e-01 -9.104530e-01 -7.366796e-01 -2.739709e-01 6.813470e-01 -2.809253e-02 5.511217e-04 -2.116811e-01 -4.313731e-01 -2.491238e-01 -3.407600e-01 -3.441354e-01 -2.437415e-01 -1.229995e-01 -2.546115e-01 -1.850313e-01 1.719602e-01
<VARIANCE> 39
 3.195360e+01 1.925880e+01 2.693224e+01 2.994263e+01 3.707542e+01 4.076589e+01 4.378964e+01 3.352108e+01 3.099568e+01 2.731689e+01 2.510004e+01 2.080051e+01 2.987650e+01 4.246268e+00 1.849065e+00 2.706064e+00 3.680059e+00 3.930573e+00 4.679420e+00 4.359136e+00 3.647147e+00 3.150672e+00 3.052765e+00 3.184861e+00 2.405113e+00 2.900846e+00 6.212028e-01 3.642112e-01 4.303943e-01 5.712867e-01 5.960125e-01 7.396572e-01 7.971457e-01 6.562225e-01 5.665978e-01 5.887140e-01 6.069698e-01 4.531484e-01 3.467025e-01
<GCONST> 1.233986e+02
<TRANSP> 5
 0.000000e+00 1.000000e+00 0.000000e+00 0.000000e+00 0.000000e+00
 0.000000e+00 6.184376e-01 3.815623e-01 0.000000e+00 0.000000e+00
 0.000000e+00 0.000000e+00 7.999374e-01 2.000626e-01 0.000000e+00
 0.000000e+00 0.000000e+00 0.000000e+00 6.360202e-01 3.639798e-01
 0.000000e+00 0.000000e+00 0.000000e+00 0.000000e+00 0.000000e+00
<ENDHMM>
~h "t"
<BEGINHMM>
<NUMSTATES> 5
<STATE> 2
<MEAN> 39
 -9.475231e+00 -2.072803e+00 5.542096e+00 1.718534e+00 9.760447e-01 2.277462e+00 2.097621e+00 1.056253e+00 2.223836e+00 1.816895e+00 1.804575e+00 1.589510e+00 5.285443e+01 -7.019404e-01 -8.162486e-01 -2.096412e-01 1.264072e-01 5.522923e-01 1.045552e+00 9.273368e-01 5.628655e-01 8.379089e-01 5.355021e-01 7.343283e-01 7.213806e-01 -1.020302e+00 1.213828e-03 -1.321022e-01 -2.280158e-01 -5.677918e-01 -3.936744e-01 -4.714951e-01 -3.174056e-01 -5.876521e-02 -2.414494e-01 -1.103900e-01 -8.744770e-02 -4.248685e-02 9.377156e-01
<VARIANCE> 39
 1.188535e+01 1.103425e+01 1.499832e+01 1.379323e+01 1.666662e+01 2.075118e+01 2.001417e+01 2.142884e+01 2.313177e+01 2.319272e+01 2.208011e+01 2.167904e+01 1.050666e+01 1.720627e+00 1.221820e+00 1.567780e+00 1.972729e+00 2.326595e+00 2.550327e+00 2.485327e+00 2.363727e+00 2.588167e+00 2.364161e+00 2.449837e+00 2.049947e+00 2.173005e+00 2.123284e-01 2.954209e-01 3.298522e-01 4.586663e-01 4.865309e-01 4.406497e-01 4.145783e-01 4.199624e-01 4.476294e-01 4.639582e-01 4.352809e-01 3.914908e-01 4.498480e-01
<GCONST> 1.061399e+02
<STATE> 3
<MEAN> 39
 -1.184512e+01 -4.138429e+00 3.974359e+00 1.744373e-01 1.553957e+00 3.367380e+00 3.258416e+00 2.539635e+00 3.612268e+00 3.360945e+00 3.865526e+00 3.747497e+00 5.342043e+01 -7.073858e-01 -7.659138e-01 -9.546404e-01 -1.968603e+00 -8.792931e-01 -1.287217e+00 -6.178859e-01 3.019023e-01 -5.235952e-01 -3.913831e-01 -9.862478e-02 -5.246643e-02 3.547013e+00 6.666920e-01 2.051450e-01 -6.858493e-02 -5.992592e-01 -8.545972e-01 -1.056880e+00 -7.697388e-01 -3.747739e-01 -5.723020e-01 -4.779222e-01 -6.785195e-01 -5.803952e-01 1.381011e+00
<VARIANCE> 39
 9.058186e+00 7.761065e+00 1.160848e+01 1.462606e+01 1.417665e+01 1.506791e+01 1.546525e+01 1.687272e+01 1.753009e+01 1.818447e+01 1.483470e+01 1.434950e+01 1.878781e+01 1.596521e+00 1.542236e+00 2.135534e+00 2.253457e+00 3.054292e+00 3.250689e+00 2.915755e+00 2.784308e+00 2.835738e+00 2.934474e+00 2.687715e+00 2.540141e+00 3.461480e+00 3.626913e-01 2.950524e-01 5.244083e-01 4.877453e-01 5.951976e-01 5.058643e-01 5.515361e-01 6.061892e-01 5.647622e-01 5.743042e-01 5.318797e-01 4.525476e-01 4.453357e-01
<GCONST> 1.089413e+02
<STATE> 4
<MEAN> 39
 -1.261162e+01 -5.019325e+00 1.243722e+00 -6.599205e+00 -2.404647e+00 -3.481873e+00 -7.801031e-01 2.445819e+00 5.694737e-01 4.417336e-01 1.487490e+00 1.639726e+00 6.779327e+01 2.379662e+00 -1.219713e-01 -5.728154e-01 -2.348908e+00 -2.740903e+00 -3.175079e+00 -2.528666e+00 -9.542287e-01 -1.166315e+00 -9.927263e-01 -1.774695e+00 -1.557910e+00 4.199419e+00 9.018605e-01 -1.264872e-03 2.862456e-01 1.790753e-01 -2.301253e-01 1.870112e-01 -1.952803e-01 -3.239542e-01 -3.306249e-02 1.102011e-01 -2.200581e-01 -2.884878e-01 -7.900535e-01
<VARIANCE> 39
 2.039962e+01 1.906702e+01 2.282255e+01 2.486243e+01 3.117091e+01 3.718379e+01 3.571729e+01 2.597996e+01 2.283845e+01 2.496501e+01 2.565102e+01 2.142978e+01 1.754912e+01 2.956366e+00 2.620909e+00 5.109758e+00 4.591147e+00 5.249213e+00 4.237561e+00 4.984908e+00 5.040849e+00 4.423485e+00 4.427108e+00 4.516374e+00 3.435159e+00 3.861182e+00 4.988018e-01 5.370061e-01 7.509596e-01 6.173920e-01 7.549626e-01 1.141201e+00 1.025371e+00 8.894897e-01 6.847286e-01 7.186511e-01 8.415689e-01 7.000228e-01 4.551315e-01
<GCONST> 1.276342e+02
<TRANSP> 5
 0.000000e+00 1.000000e+00 0.000000e+00 0.000000e+00 0.000000e+00
 0.000000e+00 7.383738e-01 2.616262e-01 0.000000e+00 0.000000e+00
 0.000000e+00 0.000000e+00 5.342649e-01 4.657351e-01 0.000000e+00
 0.000000e+00 0.000000e+00 0.000000e+00 5.161360e-01 4.838640e-01
 0.000000e+00 0.000000e+00 0.000000e+00 0.000000e+00 0.000000e+00
<ENDHMM>
~h "w"
<BEGINHMM>
<NUMSTATES> 5
<STATE> 2
<MEAN> 39
 3.490409e+00 -6.503931e-01 -3.188406e+00 -1.784165e+01 -9.407860e+00 -1.662116e+00 -4.486458e+00 -3.154982e+00 -7.827572e+00 -1.212488e+00 -5.227113e-01 -8.942197e-01 6.566690e+01 1.475658e+00 -4.732874e-01 -1.119705e+00 -2.119501e+00 -3.800898e-01 2.442856e-01 -9.207289e-01 -1.320643e+00 -1.467359e+00 6.828952e-01 5.287129e-01 -1.540333e-01 1.382185e+00 -7.559735e-01 -7.341439e-01 1.942390e-01 8.913683e-01 6.690680e-01 -4.344467e-02 -1.583171e-01 2.200568e-01 8.121134e-01 5.998054e-01 3.828494e-02 -1.840697e-01 5.688972e-02
<VARIANCE> 39
 8.379220e+00 2.130463e+01 2.681693e+01 5.626909e+01 5.003260e+01 3.860073e+01 4.710597e+01 4.945012e+01 4.278715e+01 4.195127e+01 4.767097e+01 3.322072e+01 1.599628e+01 3.374442e+00 3.436920e+00 2.885186e+00 6.619524e+00 5.270071e+00 5.108304e+00 5.470397e+00 5.265969e+00 5.527862e+00 5.491372e+00 5.818260e+00 3.541209e+00 2.620646e+00 3.731316e-01 3.680212e-01 3.725511e-01 9.602423e-01 7.961093e-01 7.432377e-01 8.119841e-01 9.208986e-01 1.009941e+00 8.637134e-01 7.270082e-01 6.247986e-01 1.778531e-01
<GCONST> 1.301074e+02
<STATE> 3
<MEAN> 39
 3.047588e+00 -6.676892e+00 -5.769683e+00 -1.869392e+01 -5.135040e+00 -4.161613e-01 -8.541868e+00 -6.589670e+00 -7.437711e+00 5.283378e+00 2.051866e+00 -2.951040e+00 7.006772e+01 -4.516591e-01 -2.083092e+00 -5.139121e-02 1.065454e+00 1.033547e+00 -1.300894e+00 -1.911132e+00 1.938271e-01 1.996401e+00 1.693475e+00 -9.320511e-01 -1.759015e+00 1.422640e+00 -6.251352e-01 -6.335957e-03 7.296067e-01 1.067013e+00 -2.494903e-01 -6.750615e-01 4.582048e-01 9.996508e-01 7.713631e-01 -7.195454e-01 -7.527452e-01 2.636650e-02 -2.862010e-01
<VARIANCE> 39
 7.281518e+00 2.100111e+01 3.821478e+01 5.740464e+01 4.965416e+01 6.200379e+01 5.453040e+01 5.101355e+01 6.117183e+01 6.362437e+01 8.341103e+01 4.084460e+01 1.347355e+01 1.175291e+00 2.415350e+00 2.084674e+00 5.008514e+00 3.793905e+00 5.190755e+00 4.208758e+00 4.140225e+00 4.504508e+00 4.663868e+00 5.055358e+00 2.895022e+00 1.490864e+00 3.785466e-01 3.151820e-01 3.804997e-01 8.026547e-01 8.128697e-01 8.233191e-01 9.530255e-01 8.645991e-01 1.057690e+00 9.729478e-01 8.821168e-01 7.450619e-01 1.400364e-01
<GCONST> 1.284554e+02
<STATE> 4
<MEAN> 39
 5.943967e-01 -1.086068e+01 -2.908961e+00 -1.319460e+01 -5.215430e+00 -7.985104e+00 -1.130300e+01 -1.090745e+00 2.690548e-03 4.256651e+00 -5.617756e+00 -5.798265e+00 7.240909e+01 -9.807885e-01 -9.677701e-01 1.713965e+00 1.703018e+00 -1.310293e+00 -2.250714e+00 8.566622e-01 2.149117e+00 9.682692e-01 -1.701805e+00 -1.461022e+00 3.258199e-01 6.399099e-01 -1.118159e-01 5.829847e-01 3.376024e-01 -5.825701e-02 -4.801784e-01 4.223114e-01 8.973102e-01 -1.338556e-01 -8.276051e-01 -5.657528e-01 5.820601e-01 6.210046e-01 -4.076827e-01
<VARIANCE> 39
 9.678670e+00 2.788367e+01 4.319850e+01 4.781176e+01 5.327630e+01 7.640694e+01 5.770144e+01 6.042018e+01 4.993297e+01 6.597318e+01 9.925340e+01 4.434295e+01 1.710570e+01 6.952854e-01 1.428881e+00 2.260694e+00 3.166207e+00 4.550870e+00 4.110045e+00 5.125498e+00 3.792113e+00 5.100056e+00 3.901085e+00 3.935457e+00 3.212694e+00 9.522660e-01 2.562220e-01 2.929899e-01 3.244236e-01 5.945117e-01 7.176465e-01 8.655729e-01 8.196992e-01 9.748350e-01 7.676898e-01 9.828548e-01 9.097248e-01 5.887666e-01 1.267012e-01
<GCONST> 1.261343e+02
<TRANSP> 5
 0.000000e+00 1.000000e+00 0.000000e+00 0.000000e+00 0.000000e+00
 0.000000e+00 5.604075e-01 4.395925e-01 0.000000e+00 0.000000e+00
 0.000000e+00 0.000000e+00 4.719175e-01 5.280825e-01 0.000000e+00
 0.000000e+00 0.000000e+00 0.000000e+00 4.956568e-01 5.043433e-01
 0.000000e+00 0.000000e+00 0.000000e+00 0.000000e+00 0.000000e+00
<ENDHMM>
~h "y"
<BEGINHMM>
<NUMSTATES> 5
<STATE> 2
<MEAN> 39
 -8.652134e+00 -2.872759e-01 1.396513e+01 -6.578074e+00 -1.038972e+01 -6.571807e+00 -5.159314e+00 -4.554499e+00 -6.869191e+00 -1.499861e+00 -1.803890e+00 -1.426245e+00 6.654796e+01 1.512280e+00 -1.443345e-01 1.667203e+00 -1.427329e+00 -2.427495e+00 -9.496757e-01 -1.373337e+00 -1.093683e+00 -1.234010e+00 -9.670143e-02 -5.595229e-01 -2.072014e-01 9.455477e-01 -8.727252e-02 -3.276047e-01 -6.135310e-01 -2.437694e-01 1.453372e-01 1.209806e-01 1.357696e-01 3.868421e-01 3.547099e-01 2.896505e-01 1.537015e-01 1.116994e-01 1.277989e-01
<VARIANCE> 39
 3.535215e+01 2.946246e+01 3.173887e+01 6.314471e+01 6.706361e+01 5.437231e+01 4.425724e+01 6.144654e+01 3.987088e+01 3.118667e+01 3.561391e+01 2.185977e+01 2.458978e+01 8.186433e+00 2.757545e+00 4.272747e+00 6.643042e+00 7.558115e+00 6.496216e+00 6.217190e+00 5.160556e+00 4.648423e+00 3.930364e+00 4.384802e+00 3.046759e+00 2.312492e+00 6.431519e-01 4.090067e-01 5.123601e-01 6.734832e-01 1.151587e+00 8.714181e-01 7.850736e-01 9.594777e-01 6.890429e-01 5.578635e-01 5.827094e-01 4.471844e-01 2.979948e-01
<GCONST> 1.332935e+02
<STATE> 3
<MEAN> 39
 -6.229622e+00 -2.132732e+00 1.678289e+01 -1.334315e+01 -1.711350e+01 -6.452654e+00 -8.096957e+00 -6.816803e+00 -8.816621e+00 1.366517e+00 -3.167229e+00 -1.290318e+00 6.979422e+01 3.918519e-01 -8.466572e-01 -5.559036e-01 -7.765055e-01 -8.632701e-01 -5.445390e-01 1.328478e-01 5.815789e-01 2.429206e-01 4.646788e-01 1.865235e-01 1.378118e-01 7.338870e-01 -1.016556e-01 -2.060920e-01 -8.258286e-01 4.426795e-01 6.136447e-01 -1.805439e-02 4.045590e-01 5.479261e-01 4.658900e-01 -1.633718e-01 8.445822e-02 -2.255678e-02 -1.017304e-01
<VARIANCE> 39
 1.040184e+01 2.408479e+01 3.334341e+01 8.180718e+01 4.197612e+01 5.797538e+01 5.145514e+01 6.505428e+01 5.114901e+01 4.692931e+01 5.460625e+01 3.139086e+01 1.381045e+01 1.116365e+00 2.094299e+00 2.574284e+00 2.695744e+00 2.687894e+00 3.165014e+00 3.291121e+00 3.185477e+00 2.396357e+00 2.150577e+00 2.000460e+00 1.597398e+00 9.388587e-01 3.224107e-01 2.022922e-01 3.339848e-01 5.182317e-01 7.960047e-01 6.571992e-01 6.196115e-01 5.492055e-01 6.423924e-01 5.771555e-01 4.788849e-01 3.881950e-01 1.201807e-01
<GCONST> 1.178928e+02
<STATE> 4
<MEAN> 39
 -4.020743e+00 -7.545234e+00 9.173654e+00 -1.194807e+01 -1.688498e+01 -1.080077e+01 -5.243627e+00 3.774296e-02 -5.166221e+00 1.640398e-01 -2.307612e+00 -1.134806e+00 7.240118e+01 5.963166e-01 -1.097339e+00 -2.421803e+00 4.127438e-02 1.436751e+00 -2.659010e-03 1.111023e-01 1.380671e+00 1.409050e+00 -5.588635e-01 -6.737925e-01 -4.233914e-01 3.725740e-01 -6.747746e-02 2.497763e-01 -8.843078e-02 1.243382e-01 5.734153e-01 4.935073e-01 -1.344620e-01 -3.480738e-01 -1.690727e-02 -7.122739e-02 -1.004116e-01 -1.773220e-01 -2.664758e-01
<VARIANCE> 39
 1.210187e+01 2.198440e+01 4.131121e+01 6.884722e+01 5.574351e+01 6.455305e+01 6.773579e+01 6.825571e+01 4.419507e+01 4.265966e+01 5.423156e+01 2.968967e+01 1.715771e+01 3.965546e-01 1.067042e+00 1.840836e+00 2.034767e+00 3.154163e+00 2.716164e+00 3.830180e+00 3.315277e+00 3.858211e+00 4.020069e+00 2.310357e+00 2.261839e+00 5.766049e-01 1.187146e-01 1.650153e-01 2.679264e-01 3.456230e-01 4.444982e-01 5.709341e-01 5.894724e-01 5.952255e-01 5.855434e-01 5.543727e-01 4.793953e-01 3.973616e-01 6.346671e-02
<GCONST> 1.143325e+02
<TRANSP> 5
 0.000000e+00 1.000000e+00 0.000000e+00 0.000000e+00 0.000000e+00
 0.000000e+00 5.676767e-01 4.323233e-01 0.000000e+00 0.000000e+00
 0.000000e+00 0.000000e+00 6.793627e-01 3.206373e-01 0.000000e+00
 0.000000e+00 0.000000e+00 0.000000e+00 6.582504e-01 3.417496e-01
 0.000000e+00 0.000000e+00 0.000000e+00 0.000000e+00 0.000000e+00
<ENDHMM>
~h "z"
<BEGINHMM>
<NUMSTATES> 5
<STATE> 2
<MEAN> 39
 -1.638884e+01 3.095233e+00 4.466931e+00 -6.324984e-01 -1.665950e+00 -4.980419e+00 2.415590e-02 9.941147e-01 -2.651521e+00 -2.200437e+00 6.790460e-01 3.260275e-01 6.684104e+01 -2.575714e+00 -1.737762e-01 -1.158198e+00 3.206272e-01 2.242686e+00 1.440018e+00 7.819026e-01 1.525908e+00 1.491701e+00 5.068050e-01 7.863907e-01 6.428630e-01 -5.006990e-01 6.519716e-01 -3.570996e-01 1.637718e-01 -4.669169e-01 -6.997774e-01 -1.295985e-02 -3.287582e-01 -3.704296e-01 -1.267228e-01 2.034690e-01 -6.421942e-02 -2.541466e-02 -1.680816e-02
<VARIANCE> 39
 4.729873e+01 2.310508e+01 3.212610e+01 3.317095e+01 4.858619e+01 4.780401e+01 4.003366e+01 4.733039e+01 3.766454e+01 2.825462e+01 2.655744e+01 2.705362e+01 1.694073e+01 3.563903e+00 2.124718e+00 2.502586e+00 3.512549e+00 4.551387e+00 3.659757e+00 3.789453e+00 4.358025e+00 3.046845e+00 3.228214e+00 3.141891e+00 2.556488e+00 7.714238e-01 6.548681e-01 3.962722e-01 5.297871e-01 5.196684e-01 6.118242e-01 8.586926e-01 6.668651e-01 6.782127e-01 6.424984e-01 6.282039e-01 5.444267e-01 5.802104e-01 1.337997e-01
<GCONST> 1.230974e+02
<STATE> 3
<MEAN> 39
 -1.949299e+01 1.282033e+00 1.055684e+00 -1.361519e+00 1.137669e-01 -1.853045e+00 7.085627e-01 3.100953e+00 3.151015e-01 -2.402199e-01 2.889618e+00 1.656851e+00 6.508127e+01 7.285780e-01 -4.273716e-01 2.828569e-01 -6.687895e-02 4.349789e-01 3.682330e-01 -3.079576e-01 -2.011944e-01 2.759425e-01 2.466825e-01 -3.309873e-02 -7.273035e-02 -8.268515e-01 8.021718e-01 -2.588033e-02 3.643869e-01 -2.185622e-02 -3.401616e-01 -1.722005e-01 -1.947977e-01 -4.300288e-01 -2.972827e-01 -6.680077e-02 -2.974427e-01 -2.044802e-01 -1.028440e-01
<VARIANCE> 39
 4.969803e+01 2.897577e+01 3.754487e+01 4.116402e+01 4.103579e+01 4.187723e+01 3.940602e+01 3.853177e+01 3.608577e+01 2.790369e+01 3.395235e+01 2.462215e+01 1.944118e+01 1.442340e+00 1.346927e+00 1.927795e+00 2.026750e+00 2.254315e+00 2.602651e+00 2.227151e+00 2.772778e+00 2.464803e+00 1.961450e+00 1.984751e+00 1.729149e+00 9.136648e-01 3.513458e-01 3.223604e-01 3.816592e-01 5.737147e-01 5.778090e-01 5.283619e-01 6.309932e-01 6.126429e-01 5.334609e-01 5.745116e-01 4.972547e-01 4.220994e-01 2.275980e-01
<GCONST> 1.159557e+02
<STATE> 4
<MEAN> 39
 -1.234538e+01 5.815202e-02 4.765749e+00 -1.531115e+00 -1.866526e-01 -1.335533e+00 -9.029729e-01 -1.554564e-01 -8.189551e-01 3.563162e-01 8.895894e-01 2.349905e-01 6.124625e+01 2.918654e+00 6.175280e-02 3.926206e-01 -3.308635e-01 -1.351382e+00 -8.432792e-01 -1.110059e+00 -1.869903e+00 -9.928883e-01 -3.648613e-01 -1.042828e+00 -7.885272e-01 -2.128794e-01 2.597693e-01 5.483521e-02 -2.232042e-01 -2.204312e-01 -4.118795e-01 -3.973280e-01 -2.316847e-01 -2.067613e-01 -1.976984e-01 -1.110523e-01 -1.365140e-01 -9.310485e-02 4.678253e-01
<VARIANCE> 39
 3.929854e+01 2.151501e+01 2.911080e+01 3.105873e+01 4.539248e+01 4.106037e+01 4.747374e+01 4.684338e+01 3.752547e+01 3.139025e+01 3.061645e+01 2.336567e+01 3.131440e+01 3.164518e+00 2.394252e+00 2.888441e+00 3.484000e+00 4.542442e+00 4.981513e+00 5.894785e+00 4.562958e+00 3.346431e+00 3.528947e+00 3.319310e+00 2.834501e+00 3.434963e+00 5.241506e-01 4.639742e-01 4.972472e-01 5.178396e-01 7.791148e-01 8.234063e-01 9.207630e-01 9.342445e-01 7.117879e-01 6.765298e-01 5.920346e-01 5.091543e-01 4.595819e-01
<GCONST> 1.281671e+02
<TRANSP> 5
 0.000000e+00 1.000000e+00 0.000000e+00 0.000000e+00 0.000000e+00
 0.000000e+00 6.702806e-01 3.297194e-01 0.000000e+00 0.000000e+00
 0.000000e+00 0.000000e+00 5.905385e-01 4.094615e-01 0.000000e+00
 0.000000e+00 0.000000e+00 0.000000e+00 6.715147e-01 3.284852e-01
 0.000000e+00 0.000000e+00 0.000000e+00 0.000000e+00 0.000000e+00
<ENDHMM>
~h "aa"
<BEGINHMM>
<NUMSTATES> 5
<STATE> 2
<MEAN> 39
 -2.107745e+00 -1.150259e+01 -3.265517e+00 -1.041207e+01 -6.416460e+00 -5.604112e+00 -3.675221e+00 2.802135e+00 -9.400630e-01 -2.248227e+00 -4.768610e+00 -3.932204e+00 7.234656e+01 7.875195e-01 -2.114219e+00 -1.638733e+00 -9.770173e-01 2.019438e-01 1.086948e-01 4.249213e-01 7.125758e-01 -3.451140e-01 -1.085894e+00 -1.196853e+00 -7.714933e-01 1.969440e+00 -3.857064e-01 3.239078e-01 2.782182e-01 5.018209e-01 3.204794e-01 2.739569e-01 1.177427e-01 -2.926900e-01 -6.513903e-02 2.586921e-02 2.493529e-01 3.025001e-01 -4.869747e-01
<VARIANCE> 39
 1.880215e+01 3.350872e+01 4.387180e+01 5.361360e+01 7.213670e+01 7.304736e+01 6.349821e+01 5.064782e+01 4.817086e+01 6.055909e+01 5.724444e+01 5.584486e+01 4.572153e+01 2.721034e+00 2.521173e+00 2.889275e+00 3.944205e+00 4.074942e+00 4.466080e+00 5.656662e+00 4.572642e+00 4.421159e+00 4.170961e+00 3.948383e+00 4.032248e+00 2.930852e+00 4.268040e-01 5.101755e-01 5.384575e-01 6.873598e-01 7.069686e-01 7.582028e-01 8.084925e-01 7.597536e-01 6.350124e-01 7.229154e-01 7.064801e-01 6.079885e-01 6.599824e-01
<GCONST> 1.340047e+02
<STATE> 3
<MEAN> 39
 -2.219824e+00 -1.589139e+01 -6.217167e+00 -1.035389e+01 -4.902439e+00 -3.771431e+00 -2.706952e+00 2.529518e+00 -3.329623e+00 -6.528080e+00 -7.180648e+00 -3.340960e+00 7.616669e+01 7.133136e-02 1.139911e-01 -1.628271e-01 2.712966e-01 1.346837e-01 -6.006717e-03 -5.266158e-02 -9.129400e-02 6.039513e-02 -1.985396e-01 1.580255e-03 4.134263e-02 -1.467056e-01 2.298187e-03 5.883807e-01 4.052658e-01 1.536825e-01 -1.990475e-01 -1.814531e-01 -2.181268e-01 -1.609124e-01 1.210098e-01 3.266597e-01 2.285245e-01 5.410793e-02 -4.724922e-01
<VARIANCE> 39
 1.220071e+01 2.146753e+01 3.828210e+01 3.748126e+01 5.356215e+01 5.275378e+01 6.001802e+01 4.845877e+01 5.053774e+01 5.393024e+01 4.233344e+01 5.561056e+01 1.237244e+01 4.609048e-01 1.279921e+00 1.405800e+00 1.394541e+00 2.659707e+00 2.040826e+00 2.170888e+00 2.104033e+00 1.872953e+00 2.077537e+00 1.645611e+00 1.668995e+00 5.309008e-01 1.372691e-01 2.383509e-01 2.311530e-01 3.321373e-01 3.332091e-01 3.523276e-01 4.667744e-01 4.629750e-01 4.305303e-01 3.899254e-01 3.785204e-01 3.665442e-01 1.526420e-01
<GCONST> 1.084174e+02
<STATE> 4
<MEAN> 39
 -9.414999e-01 -1.044436e+01 -3.757557e+00 -8.534844e+00 -6.179681e+00 -5.943524e+00 -4.323338e+00 2.353925e+00 -1.070163e+00 -3.674755e+00 -4.835116e+00 -4.004529e+00 7.124945e+01 -2.864258e-01 2.085161e+00 1.569308e+00 1.298295e+00 2.355277e-01 -1.283987e-01 -4.120472e-01 -6.907151e-01 1.330276e-01 7.388199e-01 7.567036e-01 4.261380e-01 -2.127962e+00 -3.907448e-01 2.064659e-01 3.055350e-01 2.894006e-01 2.650660e-01 2.658705e-01 1.567748e-01 -1.429849e-01 -6.046465e-02 6.868277e-02 1.378120e-01 1.687464e-01 -2.946796e-01
<VARIANCE> 39
 1.331369e+01 2.838023e+01 4.030446e+01 5.188546e+01 6.454916e+01 6.702593e+01 6.162126e+01 4.922432e+01 5.342455e+01 6.836629e+01 5.588326e+01 5.405433e+01 3.052970e+01 1.524222e+00 2.213322e+00 2.405513e+00 3.483892e+00 3.821101e+00 4.095382e+00 4.267308e+00 3.777699e+00 3.650854e+00 3.469659e+00 2.998183e+00 2.990406e+00 1.941940e+00 2.949418e-01 3.846540e-01 4.146326e-01 5.040281e-01 5.580259e-01 6.447554e-01 6.544405e-01 6.579693e-01 5.944182e-01 6.256719e-01 5.366449e-01 4.893229e-01 2.965620e-01
<GCONST> 1.264023e+02
<TRANSP> 5
 0.000000e+00 1.000000e+00 0.000000e+00 0.000000e+00 0.000000e+00
 0.000000e+00 5.495775e-01 4.504225e-01 0.000000e+00 0.000000e+00
 0.000000e+00 0.000000e+00 7.492660e-01 2.507340e-01 0.000000e+00
 0.000000e+00 0.000000e+00 0.000000e+00 6.059347e-01 3.940653e-01
 0.000000e+00 0.000000e+00 0.000000e+00 0.000000e+00 0.000000e+00
<ENDHMM>
~h "bb"
<BEGINHMM>
<NUMSTATES> 5
<STATE> 2
<MEAN> 39
 1.070560e+00 -4.282310e+00 2.502275e+00 -6.424642e+00 -4.406711e+00 -5.175158e+00 -8.649280e+00 -5.433715e+00 -3.951418e+00 6.475864e-01 -7.717500e-01 -2.861308e+00 6.403257e+01 -8.388191e-02 1.147075e+00 -6.085134e-02 1.018122e+00 1.270250e+00 7.188036e-01 4.214979e-02 -8.633922e-01 3.154082e-02 1.237697e-01 3.689902e-01 1.971706e-02 -1.368578e+00 -1.842047e-01 -4.282132e-01 1.143287e-01 -5.228825e-01 -6.571559e-01 -1.756341e-01 2.160337e-01 3.901163e-01 -5.118555e-02 -1.343984e-01 -1.594885e-01 2.547014e-02 6.412058e-01
<VARIANCE> 39
 1.199358e+01 3.033557e+01 4.183154e+01 5.392060e+01 2.931156e+01 5.373645e+01 4.166946e+01 3.332177e+01 3.553805e+01 3.610542e+01 4.570039e+01 2.508696e+01 2.602482e+01 9.760018e-01 1.749738e+00 3.745090e+00 3.606917e+00 3.095935e+00 3.895583e+00 3.577923e+00 3.227968e+00 3.057652e+00 2.763878e+00 2.729253e+00 2.359319e+00 1.327289e+00 1.689556e-01 3.693251e-01 4.803858e-01 6.626690e-01 6.002983e-01 6.359709e-01 7.405889e-01 6.184658e-01 5.636613e-01 5.938509e-01 5.124604e-01 4.588293e-01 3.007905e-01
<GCONST> 1.203025e+02
<STATE> 3
<MEAN> 39
 9.558716e-01 -3.985763e+00 2.146806e+00 -6.173112e+00 -4.119020e+00 -5.290413e+00 -8.885759e+00 -5.945484e+00 -3.885427e+00 9.174396e-01 -2.874381e-01 -3.069343e+00 6.384504e+01 -1.304359e-01 -5.757139e-01 2.693148e-01 -1.968932e-01 -7.413123e-01 -8.671440e-01 -9.585471e-02 8.373389e-01 2.061249e-01 -2.411830e-01 -2.133370e-01 8.554772e-02 5.790756e-01 -1.050932e-01 -5.594314e-01 1.763576e-01 -6.161104e-01 -7.537366e-01 -2.555983e-01 1.779918e-01 5.039105e-01 -7.517634e-02 -1.497581e-01 -2.130920e-01 5.480365e-02 7.309333e-01
<VARIANCE> 39
 1.367129e+01 2.747706e+01 3.848731e+01 5.484267e+01 2.824026e+01 5.135187e+01 4.131142e+01 3.336305e+01 3.474219e+01 3.618552e+01 4.424223e+01 2.476777e+01 2.316321e+01 7.331524e-01 1.694197e+00 3.018191e+00 3.904351e+00 2.533979e+00 3.578027e+00 3.003512e+00 2.625936e+00 3.085645e+00 2.869380e+00 2.484614e+00 2.370659e+00 1.557130e+00 1.587516e-01 3.152288e-01 5.064982e-01 7.288193e-01 6.576681e-01 6.519985e-01 6.835803e-01 6.782706e-01 6.698108e-01 6.451824e-01 5.844025e-01 5.360229e-01 2.706870e-01
<GCONST> 1.194841e+02
<STATE> 4
<MEAN> 39
 2.057743e+00 -4.511515e+00 3.515545e-01 -1.256396e+01 -8.418443e+00 -5.537024e+00 -6.237387e+00 -2.612512e+00 -4.291747e+00 -5.803432e-03 -1.272853e+00 -2.006637e+00 6.642239e+01 -2.820422e-01 -7.210357e-01 2.520685e-01 -7.915571e-01 -8.713107e-01 -2.296857e-01 3.387538e-01 7.744216e-01 -6.073147e-03 -1.849301e-01 -2.415932e-01 6.514695e-02 9.030523e-01 -1.274406e-01 -8.321848e-02 6.377119e-02 -8.175753e-02 -1.006689e-02 1.715104e-01 6.301715e-02 -8.911501e-02 -5.252581e-02 3.092621e-02 -3.430166e-02 -4.392302e-02 1.485711e-01
<VARIANCE> 39
 1.398529e+01 4.326219e+01 5.893649e+01 1.005366e+02 4.206155e+01 7.501117e+01 5.907000e+01 4.170068e+01 4.483818e+01 4.209785e+01 4.743142e+01 3.320110e+01 2.184121e+01 6.779428e-01 1.577603e+00 3.155282e+00 3.427821e+00 3.489045e+00 2.653651e+00 2.502062e+00 2.805176e+00 3.011760e+00 2.591000e+00 2.404782e+00 2.376527e+00 1.403529e+00 8.240940e-02 1.771141e-01 1.969753e-01 5.406501e-01 3.947206e-01 4.210707e-01 4.284984e-01 4.203109e-01 3.932383e-01 4.591593e-01 4.011191e-01 3.536679e-01 1.383942e-01
<GCONST> 1.157655e+02
<TRANSP> 5
 0.000000e+00 1.000000e+00 0.000000e+00 0.000000e+00 0.000000e+00
 0.000000e+00 4.257392e-01 5.742608e-01 0.000000e+00 0.000000e+00
 0.000000e+00 0.000000e+00 3.760737e-01 6.239263e-01 0.000000e+00
 0.000000e+00 0.000000e+00 0.000000e+00 5.484725e-01 4.515275e-01
 0.000000e+00 0.000000e+00 0.000000e+00 0.000000e+00 0.000000e+00
<ENDHMM>
~h "ch"
<BEGINHMM>
<NUMSTATES> 5
<STATE> 2
<MEAN> 39
 -1.068804e+01 -1.229230e+00 8.364268e+00 -1.038938e+00 7.422178e-03 5.943210e-01 -1.447313e-01 8.054536e-01 1.157245e+00 2.077330e+00 2.424858e+00 1.960730e+00 5.574227e+01 -1.858043e+00 -8.759609e-01 -6.645835e-01 -2.718030e-01 1.371936e+00 1.547243e+00 9.123184e-01 1.246226e+00 1.317853e+00 8.625414e-01 1.088166e+00 8.948122e-01 -6.921652e-01 -3.217252e-01 -2.152415e-01 9.883561e-03 -9.102550e-01 -4.934525e-01 -3.514625e-01 -4.388091e-01 -1.136266e-01 -2.955761e-01 -1.739926e-01 -1.698667e-01 -1.504562e-01 1.242510e+00
<VARIANCE> 39
 1.549796e+01 1.736568e+01 2.151579e+01 2.190728e+01 2.584367e+01 3.152510e+01 3.028474e+01 3.050874e+01 3.128531e+01 2.617873e+01 2.537165e+01 2.212190e+01 2.048328e+01 2.627060e+00 2.287886e+00 2.412176e+00 5.610701e+00 3.661938e+00 3.481677e+00 4.374403e+00 3.254541e+00 3.541051e+00 2.950332e+00 2.799297e+00 2.282308e+00 7.467642e+00 4.803125e-01 7.045732e-01 6.854962e-01 6.055963e-01 6.479771e-01 5.860634e-01 6.347132e-01 5.635694e-01 6.297621e-01 7.260347e-01 5.677171e-01 4.810550e-01 5.806323e-01
<GCONST> 1.222459e+02
<STATE> 3
<MEAN> 39
 -2.410874e+01 -2.799321e+00 8.887442e+00 -1.006573e+01 1.035846e+00 3.461205e+00 -7.584382e-01 3.671497e+00 2.424126e+00 1.995222e+00 4.022075e+00 2.867731e+00 6.668677e+01 -1.346290e+00 1.231665e-02 4.667367e-01 -7.417836e-01 -1.238165e+00 -4.292639e-01 1.210502e-01 -1.735082e-01 -3.722785e-01 -5.598066e-01 -2.794138e-01 -3.217539e-01 2.261288e+00 1.270785e+00 3.469793e-02 -4.817600e-02 5.818787e-01 -5.014126e-01 -6.480471e-01 -6.750087e-02 -2.995233e-01 -3.368576e-01 -2.172037e-01 -3.084168e-01 -1.919384e-01 -4.564632e-01
<VARIANCE> 39
 2.084931e+01 2.653921e+01 2.732842e+01 2.182927e+01 3.301258e+01 2.524734e+01 2.372173e+01 2.414664e+01 2.302068e+01 1.711946e+01 1.674496e+01 1.546593e+01 2.408838e+01 6.514556e+00 1.800849e+00 1.964842e+00 3.357912e+00 2.833903e+00 3.334487e+00 2.788752e+00 2.552110e+00 2.361851e+00 2.206388e+00 1.908367e+00 1.557283e+00 3.651028e+00 9.278362e-01 4.752985e-01 4.970329e-01 4.905166e-01 6.017812e-01 6.667385e-01 6.370355e-01 5.429010e-01 4.688213e-01 4.134848e-01 4.085783e-01 3.577721e-01 5.256796e-01
<GCONST> 1.163563e+02
<STATE> 4
<MEAN> 39
 -1.543114e+01 -4.545325e+00 8.491071e+00 -6.261716e+00 -6.894991e+00 -4.688540e+00 -1.697692e+00 1.940719e+00 -8.109612e-01 -2.187863e+00 4.449458e-01 8.745580e-01 6.904324e+01 4.748369e+00 -3.821202e-01 -1.271705e+00 4.558281e-02 -1.405025e+00 -2.795573e+00 -1.865859e+00 -8.376356e-01 -9.201087e-01 -9.685415e-01 -1.671432e+00 -9.985148e-01 1.102783e-01 4.098521e-01 -1.565250e-01 -4.127471e-01 -5.339456e-01 3.418622e-01 3.776760e-01 -3.481761e-01 -1.596217e-01 2.130993e-01 3.630292e-01 -5.403493e-02 -1.411342e-01 -1.047326e-01
<VARIANCE> 39
 6.256327e+01 1.612142e+01 1.913335e+01 2.993673e+01 2.712019e+01 4.739513e+01 4.169361e+01 3.119013e+01 3.397870e+01 2.657446e+01 2.757158e+01 1.960290e+01 1.720980e+01 2.438410e+00 2.390196e+00 3.550395e+00 4.231136e+00 5.160828e+00 4.173429e+00 4.739342e+00 4.156778e+00 3.698808e+00 3.957768e+00 3.734544e+00 2.543491e+00 1.229531e+00 1.607633e+00 4.210163e-01 4.315588e-01 6.449153e-01 7.175716e-01 1.080421e+00 9.676695e-01 7.633302e-01 6.494621e-01 7.606919e-01 7.391099e-01 4.872868e-01 4.221280e-01
<GCONST> 1.260656e+02
<TRANSP> 5
 0.000000e+00 1.000000e+00 0.000000e+00 0.000000e+00 0.000000e+00
 0.000000e+00 7.864980e-01 2.135021e-01 0.000000e+00 0.000000e+00
 0.000000e+00 0.000000e+00 7.759286e-01 2.240713e-01 0.000000e+00
 0.000000e+00 0.000000e+00 0.000000e+00 6.903707e-01 3.096292e-01
 0.000000e+00 0.000000e+00 0.000000e+00 0.000000e+00 0.000000e+00
<ENDHMM>
~h "dd"
<BEGINHMM>
<NUMSTATES> 5
<STATE> 2
<MEAN> 39
 -2.117877e+00 -4.732082e+00 1.672008e+00 -6.904577e+00 -8.512934e+00 -1.033351e+01 -7.644140e+00 -2.057868e+00 -5.342257e-01 -2.776433e+00 -2.713354e+00 -1.119580e+00 6.894324e+01 1.221237e-01 5.473647e-02 -4.845802e-01 -5.001870e-01 3.890662e-01 8.972034e-03 -4.387172e-01 -5.354858e-02 8.834774e-01 3.986943e-01 -1.030462e-01 -1.346650e-01 -1.100790e-02 -3.866582e-02 -1.814745e-01 -2.444395e-02 -3.488713e-01 -1.427185e-01 2.719819e-01 1.362514e-01 1.588589e-02 -1.337957e-01 1.383803e-01 5.834121e-03 -1.592004e-01 2.134371e-01
<VARIANCE> 39
 1.043143e+01 3.010014e+01 5.773111e+01 7.934711e+01 6.908440e+01 6.908249e+01 5.383307e+01 5.158261e+01 4.802510e+01 5.111839e+01 4.905983e+01 4.785824e+01 3.156918e+01 5.200446e-01 1.617757e+00 2.127886e+00 3.295113e+00 2.873702e+00 2.239858e+00 2.427428e+00 2.771907e+00 2.825350e+00 2.277529e+00 2.131602e+00 1.826437e+00 1.821769e+00 9.779426e-02 2.498793e-01 2.949148e-01 6.465470e-01 5.817252e-01 4.701590e-01 4.384095e-01 4.410824e-01 4.415980e-01 4.166626e-01 3.959259e-01 3.544517e-01 4.352426e-01
<GCONST> 1.178423e+02
<STATE> 3
<MEAN> 39
 -1.404990e+00 -5.196601e+00 -6.010320e-01 -9.871817e+00 -7.262792e+00 -9.290456e+00 -8.833549e+00 -2.579543e+00 2.019360e+00 -1.406195e-01 -2.714064e+00 -3.247560e+00 6.965396e+01 -1.074488e-02 -1.305153e-01 -3.259252e-01 -8.184664e-01 5.257941e-02 5.831168e-01 1.648047e-01 2.826825e-02 1.208939e-01 3.619195e-01 1.428412e-01 -2.783572e-01 1.663067e-01 -5.157159e-02 -1.349822e-01 3.547434e-02 -9.829611e-02 -7.091255e-02 2.245056e-01 2.409170e-01 1.037264e-01 -3.236644e-01 -1.142137e-01 -2.345085e-03 3.915212e-02 9.306478e-02
<VARIANCE> 39
 1.102450e+01 2.745138e+01 5.474240e+01 7.029346e+01 6.178717e+01 6.349508e+01 6.366360e+01 6.263837e+01 5.384690e+01 5.334693e+01 5.544847e+01 4.828334e+01 2.905525e+01 4.818864e-01 1.439355e+00 1.819542e+00 3.211507e+00 2.337478e+00 2.308683e+00 2.265702e+00 2.807342e+00 2.180417e+00 2.206205e+00 2.334347e+00 2.035782e+00 1.577965e+00 7.169690e-02 1.852536e-01 1.963274e-01 4.055448e-01 3.973124e-01 3.418366e-01 3.726788e-01 3.844191e-01 3.713117e-01 3.400652e-01 3.504736e-01 2.976567e-01 2.523215e-01
<GCONST> 1.134583e+02
<STATE> 4
<MEAN> 39
 -5.473337e-01 -6.755276e+00 -3.239652e+00 -1.471540e+01 -6.349893e+00 -4.321186e+00 -7.495098e+00 -2.490530e+00 9.475181e-01 -3.084283e-01 -2.239849e+00 -4.176159e+00 7.080011e+01 3.757161e-03 6.731968e-02 4.857515e-02 -2.709804e-01 1.367311e-02 2.947121e-01 1.750412e-01 -3.425714e-02 -2.259460e-01 5.632589e-02 1.261117e-01 9.100088e-02 -1.158875e-01 -1.200132e-02 -1.750474e-02 4.526547e-02 1.099766e-01 -6.286136e-03 -1.756646e-02 2.437975e-02 2.863914e-02 -7.293302e-02 -3.726479e-02 -2.500381e-02 3.018475e-02 -2.730961e-02
<VARIANCE> 39
 1.408229e+01 3.110647e+01 5.666747e+01 8.243427e+01 6.884441e+01 7.079605e+01 6.615720e+01 6.150066e+01 5.277756e+01 5.655386e+01 6.576534e+01 4.285110e+01 2.280187e+01 2.701275e-01 8.218576e-01 8.906662e-01 1.634680e+00 1.265307e+00 1.454596e+00 1.384692e+00 1.489875e+00 1.445258e+00 1.385948e+00 1.462572e+00 1.281171e+00 6.770558e-01 3.999064e-02 9.726436e-02 9.726170e-02 1.926827e-01 2.011064e-01 2.037276e-01 2.065856e-01 2.073156e-01 2.337316e-01 2.090643e-01 2.032097e-01 1.848196e-01 9.004945e-02
<GCONST> 9.864097e+01
<TRANSP> 5
 0.000000e+00 1.000000e+00 0.000000e+00 0.000000e+00 0.000000e+00
 0.000000e+00 3.640710e-01 6.359289e-01 0.000000e+00 0.000000e+00
 0.000000e+00 0.000000e+00 3.767948e-01 6.232052e-01 0.000000e+00
 0.000000e+00 0.000000e+00 0.000000e+00 7.454878e-01 2.545122e-01
 0.000000e+00 0.000000e+00 0.000000e+00 0.000000e+00 0.000000e+00
<ENDHMM>
~h "ey"
<BEGINHMM>
<NUMSTATES> 5
<STATE> 2
<MEAN> 39
 -4.766877e+00 -6.531474e+00 5.775884e+00 -8.193143e+00 -1.330576e+01 -9.621968e+00 -2.709416e+00 6.467056e-01 -2.790110e+00 -3.355794e-01 -1.429465e+00 -4.850755e-01 6.910509e+01 9.372346e-01 -8.667274e-01 6.402726e-01 -1.671846e+00 -2.616028e+00 -1.354225e+00 -5.977453e-02 3.182610e-02 -8.554008e-01 5.025223e-02 -4.176364e-01 -4.556487e-01 1.894150e+00 -3.130785e-01 1.897856e-01 -9.494836e-02 2.211864e-01 5.101507e-01 5.298172e-01 1.141505e-01 -1.084079e-01 1.109764e-01 1.393973e-01 9.736171e-02 1.450843e-02 -3.536042e-01
<VARIANCE> 39
 2.011749e+01 2.935793e+01 3.297815e+01 6.983437e+01 7.582475e+01 8.047321e+01 6.089652e+01 5.637696e+01 4.794049e+01 4.119825e+01 4.308834e+01 2.911234e+01 6.289032e+01 3.370267e+00 2.295006e+00 2.562374e+00 5.211104e+00 6.068120e+00 5.844859e+00 5.715055e+00 4.933022e+00 3.737960e+00 3.654943e+00 3.868285e+00 2.921143e+00 3.467903e+00 4.977761e-01 4.280513e-01 3.709204e-01 8.868322e-01 1.261197e+00 1.003601e+00 7.428623e-01 8.195466e-01 6.720350e-01 5.731131e-01 5.593684e-01 4.503100e-01 8.304458e-01
<GCONST> 1.339129e+02
<STATE> 3
<MEAN> 39
 -4.327315e+00 -8.574064e+00 7.246215e+00 -1.306152e+01 -1.835567e+01 -1.026688e+01 -2.334892e+00 4.614533e-02 -5.517456e+00 6.570463e-01 -2.924554e+00 -2.097112e+00 7.412069e+01 4.027828e-02 2.546000e-01 4.110299e-02 1.984647e-01 -8.337275e-03 1.453195e-01 -6.219170e-03 -1.862996e-01 -1.592410e-01 -8.518241e-02 -2.980258e-02 -4.340926e-02 -1.967721e-01 -4.243499e-02 4.218525e-01 -1.389406e-01 6.200784e-01 6.917275e-01 1.808290e-01 -1.986041e-01 -1.586014e-01 1.587907e-01 -1.507365e-01 3.395477e-02 1.006689e-01 -5.821104e-01
<VARIANCE> 39
 1.195470e+01 2.322857e+01 3.762884e+01 6.320357e+01 4.810289e+01 6.609144e+01 6.557145e+01 7.342609e+01 4.101199e+01 4.289204e+01 5.076827e+01 2.880374e+01 1.121874e+01 5.654843e-01 1.289574e+00 1.361642e+00 2.043817e+00 2.060601e+00 2.063593e+00 2.364736e+00 2.285715e+00 1.916679e+00 2.010945e+00 1.598220e+00 1.389726e+00 8.524801e-01 2.403669e-01 2.643059e-01 2.873392e-01 4.394422e-01 5.311145e-01 6.356505e-01 6.289834e-01 5.941566e-01 4.420181e-01 4.340163e-01 4.031379e-01 3.413090e-01 2.143182e-01
<GCONST> 1.125592e+02
<STATE> 4
<MEAN> 39
 -3.223907e+00 -5.274540e+00 6.339296e+00 -7.872298e+00 -1.479594e+01 -1.033138e+01 -4.085271e+00 -7.227722e-01 -4.667266e+00 -1.285174e+00 -2.192445e+00 -1.139258e+00 6.976901e+01 -2.872648e-01 1.504245e+00 -7.435422e-02 1.945529e+00 2.244944e+00 8.184853e-01 -2.054891e-01 -4.953242e-01 3.406377e-01 -4.018859e-01 8.685671e-02 1.880605e-01 -1.928563e+00 -3.888825e-01 1.140397e-01 -5.408362e-02 1.490231e-01 5.338644e-01 4.227397e-01 1.992825e-01 9.034798e-03 1.806783e-01 1.635820e-01 1.124193e-01 2.181387e-02 -2.488514e-01
<VARIANCE> 39
 1.225405e+01 3.097951e+01 3.734902e+01 5.921354e+01 5.871325e+01 7.256639e+01 6.257196e+01 7.149477e+01 4.877191e+01 4.322087e+01 4.609865e+01 3.169899e+01 2.634362e+01 1.918628e+00 2.214860e+00 2.543676e+00 3.606658e+00 3.787959e+00 4.262892e+00 4.691050e+00 4.096989e+00 3.350089e+00 3.256119e+00 2.968637e+00 2.538012e+00 1.959118e+00 3.514311e-01 3.581185e-01 3.430576e-01 4.800105e-01 6.619855e-01 6.524817e-01 6.010874e-01 7.741950e-01 6.119223e-01 5.341778e-01 5.150838e-01 4.123447e-01 2.296093e-01
<GCONST> 1.251554e+02
<TRANSP> 5
 0.000000e+00 1.000000e+00 0.000000e+00 0.000000e+00 0.000000e+00
 0.000000e+00 4.741488e-01 5.258512e-01 0.000000e+00 0.000000e+00
 0.000000e+00 0.000000e+00 6.878096e-01 3.121903e-01 0.000000e+00
 0.000000e+00 0.000000e+00 0.000000e+00 4.730743e-01 5.269258e-01
 0.000000e+00 0.000000e+00 0.000000e+00 0.000000e+00 0.000000e+00
<ENDHMM>
~h "gg"
<BEGINHMM>
<NUMSTATES> 5
<STATE> 2
<MEAN> 39
 -2.236958e-01 -1.216595e+00 2.012676e+00 -8.619269e+00 -4.039609e+00 -5.482831e+00 -6.856128e+00 -5.774619e+00 -6.665420e+00 3.655511e+00 -3.778108e-01 -6.631638e-02 6.283369e+01 5.407473e-01 7.403697e-01 -1.015234e+00 -1.525885e+00 -6.674139e-02 1.332357e+00 1.010077e+00 -2.619826e-01 -7.860085e-01 -2.215392e-01 5.376103e-01 2.953197e-01 -3.807914e-01 5.820871e-03 -2.948835e-01 3.996605e-02 -4.302907e-01 -6.765446e-01 -2.153351e-01 2.268766e-01 4.692228e-01 2.203347e-02 -2.991704e-01 -2.246633e-01 -1.148097e-02 5.037647e-01
<VARIANCE> 39
 1.883392e+01 2.165420e+01 4.974800e+01 6.548524e+01 4.856874e+01 5.287421e+01 5.413873e+01 4.631618e+01 5.118592e+01 5.511485e+01 6.488605e+01 3.296461e+01 2.490046e+01 1.005365e+00 1.760756e+00 2.334967e+00 5.492101e+00 5.125648e+00 4.434348e+00 4.046156e+00 4.589132e+00 4.471017e+00 4.291430e+00 3.703958e+00 2.900793e+00 2.323411e+00 1.780183e-01 2.199814e-01 3.745562e-01 8.083982e-01 6.772570e-01 6.693213e-01 8.843645e-01 6.213205e-01 9.702178e-01 8.001200e-01 6.842800e-01 6.003180e-01 2.509888e-01
<GCONST> 1.272718e+02
<STATE> 3
<MEAN> 39
 1.206750e+00 -6.300963e-01 1.070641e+00 -1.589044e+01 -1.092987e+01 -2.978302e+00 -3.549965e+00 -3.409524e+00 -7.721694e+00 -6.629698e-04 -1.204384e+00 -1.503021e-01 6.527908e+01 9.345161e-02 -2.235104e-01 -4.780626e-01 -6.827686e-01 -3.773516e-01 1.289257e-01 3.445300e-01 6.729042e-01 3.337005e-01 -3.329549e-01 -2.035856e-01 -2.662238e-01 3.802663e-01 -6.795635e-02 -2.137253e-01 -6.274980e-02 1.028713e-01 1.692535e-01 -3.953814e-02 -1.645568e-01 -9.948476e-02 7.025232e-02 1.096141e-01 5.168750e-02 -5.087098e-02 1.704698e-01
<VARIANCE> 39
 2.385936e+01 3.069157e+01 8.442433e+01 9.711755e+01 4.962244e+01 5.906587e+01 4.663470e+01 6.451597e+01 5.202462e+01 4.928377e+01 6.028298e+01 3.571976e+01 2.280294e+01 3.061310e-01 8.020123e-01 1.071494e+00 1.997424e+00 1.889998e+00 1.663578e+00 1.551246e+00 1.853703e+00 1.831348e+00 1.717322e+00 1.600263e+00 1.438552e+00 7.410759e-01 7.063710e-02 1.764584e-01 1.857120e-01 5.176432e-01 3.565677e-01 3.124637e-01 3.363490e-01 3.181565e-01 3.572951e-01 3.670731e-01 3.564728e-01 3.090644e-01 2.394846e-01
<GCONST> 1.083442e+02
<STATE> 4
<MEAN> 39
 9.441698e-01 -1.225292e+00 -1.001648e-01 -1.505978e+01 -9.408586e+00 -3.483072e+00 -2.599319e+00 -2.543859e+00 -6.625505e+00 -2.882904e-01 -1.188306e+00 -4.806817e-01 6.522800e+01 -8.149651e-02 -9.326516e-01 -7.330416e-01 -2.852637e-01 3.596867e-01 1.580699e-01 -1.419940e-01 1.980296e-01 4.292594e-01 9.822869e-02 9.082759e-02 -2.921873e-01 8.121279e-01 -4.684922e-02 -2.537041e-01 -7.553840e-02 7.986216e-02 2.005699e-01 -5.443270e-03 -1.984546e-01 -2.185251e-01 2.273761e-02 1.373314e-01 -1.964835e-02 -8.143985e-02 2.149917e-01
<VARIANCE> 39
 2.376760e+01 3.393507e+01 6.575349e+01 9.340775e+01 5.670354e+01 7.838621e+01 4.316943e+01 6.151773e+01 4.670056e+01 4.785712e+01 5.823582e+01 3.673499e+01 3.135096e+01 5.295295e-01 1.285781e+00 1.689793e+00 3.017161e+00 2.425329e+00 2.462948e+00 2.504071e+00 2.961765e+00 2.703717e+00 2.928054e+00 2.675423e+00 2.307361e+00 1.256327e+00 1.196711e-01 2.221291e-01 2.651059e-01 7.013622e-01 5.184827e-01 5.211213e-01 4.652894e-01 4.293556e-01 5.063698e-01 5.461744e-01 5.678222e-01 4.529771e-01 2.814839e-01
<GCONST> 1.192153e+02
<TRANSP> 5
 0.000000e+00 1.000000e+00 0.000000e+00 0.000000e+00 0.000000e+00
 0.000000e+00 6.748839e-01 3.251161e-01 0.000000e+00 0.000000e+00
 0.000000e+00 0.000000e+00 6.459267e-01 3.540734e-01 0.000000e+00
 0.000000e+00 0.000000e+00 0.000000e+00 3.589844e-01 6.410157e-01
 0.000000e+00 0.000000e+00 0.000000e+00 0.000000e+00 0.000000e+00
<ENDHMM>
~h "hh"
<BEGINHMM>
<NUMSTATES> 5
<STATE> 2
<MEAN> 39
 -9.098796e+00 -5.073197e+00 4.987316e+00 -2.547463e+00 1.486989e+00 -2.184591e+00 -1.556819e+00 9.934298e-01 -1.734931e+00 3.320857e-01 -2.833973e+00 6.290261e-01 6.488191e+01 -1.198499e+00 -9.474424e-01 -1.348650e+00 4.635368e-01 2.506085e+00 1.070820e+00 4.023588e-01 1.200296e+00 1.190196e+00 9.948059e-01 4.789946e-01 3.416655e-01 -5.957923e-01 2.692943e-01 -3.007413e-02 -1.537326e-01 -6.989715e-01 -6.802300e-01 5.222565e-02 -1.004026e-01 -3.480476e-01 -2.441321e-01 9.925810e-02 1.294090e-01 -7.712380e-02 2.330741e-01
<VARIANCE> 39
 2.445444e+01 2.970779e+01 5.073336e+01 3.509808e+01 5.881433e+01 5.732024e+01 5.377933e+01 5.257056e+01 4.690376e+01 5.077224e+01 3.591121e+01 2.490145e+01 1.947778e+01 2.661109e+00 2.353842e+00 5.532567e+00 4.157916e+00 6.310370e+00 5.222358e+00 5.303632e+00 6.110195e+00 5.275095e+00 4.805089e+00 3.891512e+00 3.328493e+00 9.429836e-01 2.623367e-01 4.745938e-01 5.168622e-01 5.752693e-01 8.611034e-01 9.467342e-01 1.002940e+00 1.167097e+00 1.010145e+00 8.492312e-01 7.078906e-01 5.810877e-01 1.424617e-01
<GCONST> 1.307067e+02
<STATE> 3
<MEAN> 39
 -1.079695e+01 -7.209418e+00 -2.439251e-01 -6.122468e+00 5.287644e+00 2.929359e+00 -5.816713e-01 2.136322e+00 -5.423870e-01 3.945769e+00 9.615082e-01 1.699017e+00 6.355841e+01 -7.927192e-03 1.365106e-01 -3.924436e-01 -7.915044e-01 -2.468592e-01 6.862999e-01 5.987573e-01 -1.538252e-01 -2.955197e-01 1.477794e-03 5.523440e-01 3.637437e-01 -2.926507e-01 5.609798e-01 3.525239e-01 3.150511e-01 -1.387290e-01 -7.954301e-01 -4.383884e-01 -1.413702e-01 -3.246208e-01 -3.551424e-01 -5.311733e-01 -3.292710e-01 -2.053961e-01 1.774289e-01
<VARIANCE> 39
 2.941030e+01 2.617343e+01 5.244340e+01 3.838012e+01 5.523397e+01 4.467934e+01 4.591331e+01 4.379071e+01 4.150611e+01 5.523598e+01 3.640123e+01 2.704819e+01 2.103002e+01 1.275096e+00 1.232132e+00 2.094999e+00 2.255175e+00 2.619584e+00 3.204991e+00 3.153003e+00 3.245654e+00 3.259623e+00 3.082569e+00 2.767569e+00 2.184503e+00 5.424225e-01 2.511670e-01 2.308413e-01 4.248842e-01 5.517116e-01 6.260958e-01 5.793394e-01 6.914046e-01 7.146651e-01 7.220207e-01 7.028191e-01 6.177700e-01 5.725651e-01 1.199245e-01
<GCONST> 1.191205e+02
<STATE> 4
<MEAN> 39
 -9.923012e+00 -3.646601e+00 3.167648e+00 -7.235007e+00 -5.827891e-02 2.648797e+00 1.676182e+00 5.349419e-01 -1.890057e+00 5.163586e-01 -2.625101e-01 1.289242e+00 6.325185e+01 1.639237e+00 8.762142e-01 2.459152e-01 -9.472905e-01 -2.008382e+00 -8.746437e-01 -6.174718e-01 -1.087129e+00 -9.016170e-01 -9.420048e-01 -6.324624e-01 -7.811479e-01 5.220668e-01 4.273452e-01 -9.997779e-02 -1.136674e-01 -2.886993e-01 -4.893114e-01 -3.762839e-01 -3.639789e-01 -1.807941e-01 -1.726639e-01 1.206853e-02 -9.743989e-02 -2.146086e-01 3.727492e-01
<VARIANCE> 39
 4.238862e+01 2.782701e+01 5.646458e+01 3.994729e+01 5.495331e+01 4.261624e+01 4.294074e+01 4.625576e+01 4.336610e+01 4.501139e+01 3.564848e+01 2.648767e+01 2.729049e+01 2.221914e+00 1.468165e+00 2.439657e+00 3.458738e+00 4.018853e+00 2.847405e+00 3.222125e+00 3.200358e+00 3.186869e+00 2.963810e+00 2.759293e+00 2.308658e+00 9.607012e-01 2.458692e-01 2.821427e-01 3.514077e-01 4.858449e-01 5.410736e-01 4.859065e-01 5.586196e-01 5.477318e-01 5.794780e-01 4.997669e-01 5.349733e-01 4.385963e-01 1.679351e-01
<GCONST> 1.202712e+02
<TRANSP> 5
 0.000000e+00 1.000000e+00 0.000000e+00 0.000000e+00 0.000000e+00
 0.000000e+00 6.236650e-01 3.763349e-01 0.000000e+00 0.000000e+00
 0.000000e+00 0.000000e+00 6.292845e-01 3.707155e-01 0.000000e+00
 0.000000e+00 0.000000e+00 0.000000e+00 6.513613e-01 3.486387e-01
 0.000000e+00 0.000000e+00 0.000000e+00 0.000000e+00 0.000000e+00
<ENDHMM>
~h "iy"
<BEGINHMM>
<NUMSTATES> 5
<STATE> 2
<MEAN> 39
 -6.519605e+00 -1.050233e+00 1.352811e+01 -6.137582e+00 -1.431602e+01 -7.774684e+00 -5.070107e+00 -6.234061e+00 -8.329217e+00 -1.148174e+00 -1.700197e+00 -1.278050e+00 6.758163e+01 9.145076e-01 3.067605e-01 2.375557e+00 -1.993912e+00 -2.916928e+00 -2.832389e-01 -1.352025e+00 -1.822995e+00 -1.474039e+00 2.314511e-01 -8.658894e-01 -3.484514e-01 1.205120e+00 -2.803146e-01 3.437284e-02 -4.603781e-01 6.161156e-02 6.610282e-01 4.944378e-01 1.032576e-01 2.822808e-01 4.876123e-01 1.786542e-01 1.583082e-02 1.064035e-01 -3.232813e-01
<VARIANCE> 39
 1.717041e+01 2.685186e+01 3.265594e+01 7.349740e+01 5.608779e+01 5.951225e+01 4.423158e+01 6.263304e+01 4.573375e+01 3.797538e+01 3.914651e+01 2.736875e+01 2.670080e+01 4.334727e+00 2.115805e+00 3.053922e+00 5.988122e+00 4.801823e+00 5.761023e+00 6.428982e+00 5.552550e+00 4.633393e+00 4.272913e+00 4.896088e+00 3.668505e+00 1.743038e+00 4.167792e-01 3.763389e-01 4.940493e-01 7.653582e-01 1.020893e+00 7.071444e-01 8.102387e-01 1.042025e+00 6.741298e-01 5.785842e-01 6.200427e-01 5.008845e-01 3.786319e-01
<GCONST> 1.313998e+02
<STATE> 3
<MEAN> 39
 -6.868952e+00 1.493745e-01 1.722904e+01 -1.390414e+01 -1.696597e+01 -3.571072e+00 -9.344946e+00 -9.200819e+00 -8.300075e+00 7.769236e-01 -5.189011e+00 -1.572919e+00 6.940015e+01 5.980273e-02 2.551492e-01 -2.611433e-02 5.418544e-02 4.192906e-02 1.952374e-01 -4.067533e-02 -1.273529e-01 9.719966e-02 4.094210e-02 -1.054962e-01 8.277104e-04 -2.097426e-01 1.181672e-04 -4.713603e-02 -6.497917e-01 8.175353e-01 6.282402e-01 -2.109235e-01 4.241754e-01 3.933515e-01 2.196951e-01 -1.821207e-01 2.809724e-01 2.814016e-02 -3.575557e-01
<VARIANCE> 39
 1.103751e+01 2.280714e+01 3.014882e+01 8.498455e+01 4.596521e+01 5.320710e+01 5.344748e+01 5.928590e+01 5.262798e+01 4.607460e+01 5.689363e+01 4.191614e+01 1.096451e+01 6.861098e-01 1.272505e+00 1.522631e+00 3.363778e+00 2.231874e+00 2.432679e+00 2.517511e+00 2.086305e+00 1.898088e+00 1.881126e+00 1.761634e+00 1.494365e+00 7.553775e-01 2.586322e-01 2.238286e-01 3.561260e-01 6.649248e-01 7.826066e-01 5.922887e-01 5.950740e-01 6.067518e-01 5.838974e-01 5.002769e-01 4.855769e-01 4.107665e-01 1.855412e-01
<GCONST> 1.150862e+02
<STATE> 4
<MEAN> 39
 -5.559435e+00 3.545985e-01 1.319722e+01 -6.506231e+00 -1.499410e+01 -7.180456e+00 -5.741472e+00 -7.277266e+00 -7.344840e+00 -1.312193e+00 -2.184193e+00 -1.080062e+00 6.686436e+01 1.329275e-01 -9.161005e-02 -1.533846e+00 1.582417e+00 1.853735e+00 -3.707505e-01 7.538009e-01 1.144036e+00 8.029982e-01 -3.807843e-01 3.973520e-01 1.347697e-01 -9.270647e-01 -1.853252e-01 -1.306650e-01 -2.734630e-01 -7.431269e-02 4.313722e-01 2.718552e-01 4.849604e-02 2.171810e-01 2.910663e-01 6.530976e-02 -3.873220e-02 2.906812e-02 -4.955218e-02
<VARIANCE> 39
 1.346987e+01 2.734722e+01 2.815071e+01 7.459209e+01 6.060424e+01 6.181784e+01 4.667291e+01 6.074935e+01 4.553942e+01 3.943362e+01 4.335526e+01 2.964283e+01 2.564678e+01 1.695231e+00 1.909206e+00 2.142771e+00 5.005751e+00 5.864378e+00 4.212905e+00 4.002885e+00 3.590753e+00 3.582448e+00 2.974462e+00 2.811965e+00 2.432140e+00 2.578587e+00 2.443733e-01 2.934986e-01 2.829351e-01 5.711021e-01 8.546151e-01 5.995913e-01 5.837280e-01 6.588378e-01 5.238534e-01 4.939248e-01 4.625733e-01 3.727895e-01 2.518100e-01
<GCONST> 1.233957e+02
<TRANSP> 5
 0.000000e+00 1.000000e+00 0.000000e+00 0.000000e+00 0.000000e+00
 0.000000e+00 5.116478e-01 4.883522e-01 0.000000e+00 0.000000e+00
 0.000000e+00 0.000000e+00 7.244417e-01 2.755583e-01 0.000000e+00
 0.000000e+00 0.000000e+00 0.000000e+00 6.235202e-01 3.764798e-01
 0.000000e+00 0.000000e+00 0.000000e+00 0.000000e+00 0.000000e+00
<ENDHMM>
~h "ny"
<BEGINHMM>
<NUMSTATES> 5
<STATE> 2
<MEAN> 39
 -1.288566e+00 1.732471e+00 7.216341e+00 -1.013537e+01 -9.057091e+00 -4.720212e+00 -6.588137e+00 -3.546978e+00 -8.485045e+00 -1.599036e+00 -2.642255e+00 -4.428511e+00 6.533107e+01 -8.036793e-02 2.824894e-01 4.676066e-01 -5.608979e-01 -1.012816e-01 6.402810e-01 -1.679859e-01 -3.522097e-01 1.774893e-02 1.496441e-01 8.652664e-02 -1.466693e-01 -1.683682e-01 -1.430596e-01 -5.084431e-01 4.976457e-02 -1.163682e-01 -3.754833e-01 -1.670405e-02 2.774158e-01 2.510332e-01 1.341786e-01 -1.061409e-01 4.624559e-02 1.132860e-01 3.885715e-01
<VARIANCE> 39
 1.140077e+01 1.621287e+01 4.121024e+01 7.045464e+01 4.862566e+01 5.178822e+01 3.814922e+01 5.613676e+01 3.059863e+01 5.050219e+01 3.689593e+01 2.636175e+01 1.333489e+01 1.409809e+00 2.311450e+00 3.249720e+00 5.336084e+00 4.567514e+00 3.565137e+00 3.477377e+00 2.665016e+00 2.355036e+00 2.653199e+00 2.305228e+00 1.711159e+00 2.022799e+00 2.131249e-01 1.879523e-01 7.002702e-01 1.090847e+00 6.125563e-01 7.855134e-01 5.886073e-01 5.109301e-01 4.623972e-01 4.631380e-01 4.152843e-01 3.068540e-01 1.164674e-01
<GCONST> 1.189733e+02
<STATE> 3
<MEAN> 39
 -4.151963e+00 -3.923119e+00 1.187617e+01 -1.460859e+01 -1.727040e+01 -1.499370e+00 -1.791044e+00 -1.525262e+00 -8.058784e+00 -3.383223e+00 2.173522e-01 -2.999859e+00 7.021006e+01 6.968014e-02 -2.234349e+00 -1.216164e+00 1.572496e+00 -6.506234e-01 -1.547473e+00 1.225020e+00 1.971287e+00 4.065353e-01 -1.263601e+00 -2.473882e-02 9.312668e-01 1.055122e+00 3.103626e-01 2.801809e-02 -9.397575e-01 6.141866e-01 1.143183e+00 -4.987227e-01 -5.936805e-01 2.921596e-01 4.257676e-01 -1.717792e-01 -4.457972e-01 -2.079952e-02 -2.308051e-01
<VARIANCE> 39
 1.035563e+01 2.215301e+01 3.982143e+01 6.224904e+01 4.602244e+01 5.119909e+01 4.456851e+01 6.776198e+01 3.329413e+01 4.842765e+01 3.423386e+01 3.538056e+01 1.585544e+01 3.997934e-01 1.020598e+00 2.733024e+00 2.331745e+00 4.005350e+00 2.768544e+00 3.540074e+00 2.792823e+00 3.337969e+00 3.337461e+00 2.186040e+00 1.862179e+00 4.390343e-01 7.012153e-02 2.325595e-01 4.270942e-01 6.472185e-01 4.973869e-01 6.686000e-01 6.112818e-01 6.134453e-01 5.144675e-01 5.537881e-01 3.757157e-01 4.476206e-01 5.437402e-02
<GCONST> 1.131645e+02
<STATE> 4
<MEAN> 39
 -2.427123e+00 -8.897325e+00 5.035106e+00 -8.363823e+00 -1.276917e+01 -6.800185e+00 -4.624780e+00 5.951198e+00 -2.241036e+00 -7.289053e+00 -2.975916e+00 -7.847647e-01 7.126863e+01 5.532152e-01 -9.802142e-01 -2.393540e+00 6.161227e-01 2.537833e+00 -4.419895e-01 -1.311077e+00 4.805730e-01 2.044045e+00 -6.289238e-02 -1.251682e+00 -4.556316e-01 1.606057e-01 2.477742e-02 5.695105e-01 1.861403e-01 -5.134962e-01 3.024209e-01 6.460952e-01 -2.341874e-01 -8.023522e-01 -1.620445e-01 6.045969e-01 1.870560e-01 -4.338194e-01 -3.201784e-01
<VARIANCE> 39
 1.050501e+01 1.999040e+01 3.676510e+01 4.224540e+01 4.595385e+01 4.096884e+01 5.844239e+01 5.808526e+01 5.030550e+01 3.416155e+01 3.375785e+01 3.175191e+01 2.021986e+01 2.981457e-01 1.203131e+00 1.650632e+00 1.991777e+00 1.970819e+00 2.346345e+00 2.616794e+00 3.103140e+00 2.894423e+00 4.374722e+00 1.718428e+00 2.889638e+00 3.087162e-01 6.117930e-02 1.308816e-01 2.983365e-01 3.364534e-01 5.857825e-01 5.005865e-01 5.065206e-01 4.769758e-01 5.534670e-01 3.987557e-01 4.508132e-01 3.379969e-01 5.143880e-02
<GCONST> 1.080990e+02
<TRANSP> 5
 0.000000e+00 1.000000e+00 0.000000e+00 0.000000e+00 0.000000e+00
 0.000000e+00 8.732596e-01 1.267405e-01 0.000000e+00 0.000000e+00
 0.000000e+00 0.000000e+00 6.602900e-01 3.397100e-01 0.000000e+00
 0.000000e+00 0.000000e+00 0.000000e+00 5.636035e-01 4.363965e-01
 0.000000e+00 0.000000e+00 0.000000e+00 0.000000e+00 0.000000e+00
<ENDHMM>
~h "ow"
<BEGINHMM>
<NUMSTATES> 5
<STATE> 2
<MEAN> 39
 8.810093e-01 -7.283776e+00 -3.508023e+00 -1.646522e+01 -5.486089e+00 -3.582813e+00 -9.822795e+00 -2.883077e+00 -1.606798e+00 1.277727e+00 -2.352282e+00 -3.623323e+00 7.047116e+01 1.098877e+00 -3.022707e-01 -1.467868e+00 -2.159807e+00 1.354504e-01 1.177716e+00 -3.490600e-01 -5.845584e-01 -3.704178e-01 4.537893e-01 4.208676e-01 -7.204927e-01 6.672670e-01 -5.310075e-01 2.651790e-01 4.281643e-01 7.334852e-01 2.384337e-01 1.489129e-01 5.228030e-01 3.093986e-02 -1.453786e-01 -1.369717e-01 1.900259e-01 2.974261e-01 -5.019662e-01
<VARIANCE> 39
 1.324947e+01 2.881664e+01 3.689403e+01 6.688242e+01 5.332720e+01 6.400337e+01 6.543407e+01 5.324132e+01 5.808807e+01 5.554309e+01 7.450430e+01 3.502225e+01 1.941630e+01 2.361726e+00 2.092466e+00 2.715322e+00 4.886789e+00 5.637735e+00 4.666934e+00 5.295236e+00 4.696806e+00 4.396986e+00 4.244188e+00 4.077651e+00 3.253818e+00 1.649620e+00 4.033248e-01 4.121177e-01 4.077478e-01 1.067305e+00 8.467588e-01 8.099333e-01 8.582330e-01 8.974183e-01 9.675362e-01 7.917123e-01 7.891838e-01 5.637745e-01 2.526988e-01
<GCONST> 1.315990e+02
<STATE> 3
<MEAN> 39
 2.011547e+00 -6.234453e+00 -5.938893e+00 -2.026164e+01 -4.923002e+00 8.747450e-01 -7.560189e+00 -3.669024e+00 -4.394749e+00 4.647998e-01 -9.827047e-02 -3.500484e+00 6.990559e+01 -6.877184e-02 3.062371e-01 1.551471e-01 6.242720e-01 1.875250e-01 -5.237307e-02 1.686723e-01 -1.550214e-01 -2.969191e-02 -2.484925e-01 -2.958853e-02 5.288233e-02 -4.216905e-01 -2.920797e-01 1.588202e-01 4.507240e-01 8.244126e-01 6.607240e-02 -3.480407e-01 3.648547e-02 5.622480e-02 1.737224e-01 -6.396721e-02 -1.925704e-01 9.738498e-02 -2.981226e-01
<VARIANCE> 39
 9.806857e+00 2.324418e+01 3.242671e+01 5.399512e+01 5.520578e+01 5.914238e+01 6.532712e+01 4.909581e+01 5.494653e+01 5.837951e+01 6.469982e+01 3.696297e+01 1.496194e+01 4.005582e-01 1.509099e+00 1.262981e+00 3.501850e+00 2.217767e+00 2.822129e+00 2.987563e+00 2.342165e+00 3.130205e+00 2.835354e+00 2.352381e+00 2.120432e+00 8.361226e-01 1.998660e-01 2.101012e-01 2.788039e-01 5.040597e-01 5.493830e-01 4.764972e-01 5.446085e-01 5.602102e-01 5.380454e-01 5.586938e-01 4.732817e-01 4.457704e-01 1.383541e-01
<GCONST> 1.152753e+02
<STATE> 4
<MEAN> 39
 3.280480e-02 -3.623762e+00 -2.383163e+00 -1.214192e+01 -3.173129e+00 -9.782240e-01 -5.827429e+00 -3.707153e+00 -2.703624e+00 -2.354530e-01 -8.540747e-01 -2.501452e+00 6.493980e+01 -1.412904e+00 6.853375e-01 1.701805e+00 3.020860e+00 8.681454e-01 -3.247360e-01 7.968819e-01 3.584017e-01 4.797547e-01 -2.438345e-01 -2.600414e-01 3.833426e-01 -1.528828e+00 -4.197505e-01 -8.722350e-02 1.859113e-01 1.447043e-01 3.529618e-02 5.865133e-02 2.218822e-01 2.477747e-01 9.024443e-02 8.141793e-02 1.255513e-01 1.511374e-01 -2.608054e-02
<VARIANCE> 39
 1.455434e+01 2.855463e+01 3.344424e+01 5.667622e+01 5.326828e+01 6.405490e+01 7.632787e+01 4.680744e+01 5.426853e+01 5.157684e+01 5.889644e+01 3.502207e+01 3.737652e+01 1.893985e+00 2.445298e+00 2.474463e+00 4.587565e+00 4.312922e+00 4.593998e+00 4.553678e+00 4.349776e+00 4.314710e+00 3.856624e+00 3.769121e+00 2.856054e+00 1.996693e+00 3.689981e-01 3.677644e-01 4.135717e-01 7.480750e-01 6.020965e-01 5.934571e-01 7.567786e-01 6.828610e-01 8.205252e-01 6.842464e-01 5.999228e-01 5.003487e-01 2.347972e-01
<GCONST> 1.284849e+02
<TRANSP> 5
 0.000000e+00 1.000000e+00 0.000000e+00 0.000000e+00 0.000000e+00
 0.000000e+00 5.335646e-01 4.664354e-01 0.000000e+00 0.000000e+00
 0.000000e+00 0.000000e+00 7.101964e-01 2.898035e-01 0.000000e+00
 0.000000e+00 0.000000e+00 0.000000e+00 4.998171e-01 5.001829e-01
 0.000000e+00 0.000000e+00 0.000000e+00 0.000000e+00 0.000000e+00
<ENDHMM>
~h "rr"
<BEGINHMM>
<NUMSTATES> 5
<STATE> 2
<MEAN> 39
 -6.970548e+00 -6.980739e+00 4.202773e+00 -2.430205e+00 -2.411891e+00 -2.619524e+00 -3.225778e+00 9.370351e-01 9.605111e-01 -5.888964e-01 -1.322114e-01 -1.592317e+00 6.467046e+01 1.204312e-01 -1.917207e-01 1.395283e-01 -2.695400e-01 -7.197538e-02 -3.883204e-01 -3.777083e-01 -1.479412e-01 2.996055e-02 8.095252e-02 1.392304e-01 -1.522320e-01 3.898780e-01 6.093537e-01 -2.578849e-01 -4.445142e-01 -3.996337e-01 -4.958092e-01 -3.962204e-01 -2.244915e-01 -9.295034e-02 -1.771264e-01 6.036983e-02 -2.113896e-01 -1.410925e-01 3.963804e-01
<VARIANCE> 39
 2.852582e+01 2.479813e+01 3.629768e+01 3.338920e+01 3.310690e+01 4.238290e+01 4.759188e+01 4.255347e+01 3.803228e+01 4.021505e+01 3.439409e+01 2.636998e+01 3.528517e+01 3.997712e+00 2.976601e+00 3.300488e+00 2.969026e+00 3.766838e+00 4.292799e+00 4.211485e+00 4.627057e+00 3.390603e+00 3.176221e+00 3.346846e+00 2.657567e+00 2.757393e+00 6.153630e-01 6.145935e-01 5.885807e-01 6.499918e-01 6.781423e-01 8.776946e-01 8.391945e-01 9.497493e-01 7.616360e-01 6.847320e-01 7.287394e-01 5.503998e-01 4.351384e-01
<GCONST> 1.289175e+02
<STATE> 3
<MEAN> 39
 -2.181236e-01 -8.905851e+00 -1.519848e+00 -5.594389e+00 -6.050645e+00 -6.859452e+00 -7.410737e+00 -1.364923e+00 3.450252e-01 7.030144e-01 -4.421665e-01 -4.791497e+00 6.906395e+01 1.377530e+00 -7.950927e-01 -7.243283e-01 -2.095751e-01 -1.008811e+00 -1.162403e+00 -5.610175e-01 6.862308e-02 -1.011480e-01 2.029376e-01 -2.045917e-01 -2.620982e-01 5.180487e-01 -1.177477e-01 -1.975600e-01 1.190515e-01 3.362873e-02 -2.480646e-01 -9.822240e-02 2.273611e-01 3.241776e-01 -1.612364e-01 -1.360257e-01 -9.431154e-02 1.231056e-01 1.155324e-01
<VARIANCE> 39
 1.539262e+01 1.606715e+01 3.626178e+01 3.010996e+01 3.789263e+01 3.762801e+01 4.014524e+01 3.453862e+01 3.425391e+01 3.921063e+01 5.973336e+01 3.060505e+01 1.632916e+01 1.988248e+00 1.928306e+00 2.563800e+00 2.030659e+00 2.927772e+00 3.162566e+00 2.891392e+00 3.381275e+00 2.761670e+00 2.662591e+00 3.008014e+00 2.446304e+00 1.104430e+00 3.021911e-01 2.686367e-01 3.884208e-01 3.540072e-01 4.234643e-01 4.619942e-01 5.192635e-01 5.598218e-01 5.376401e-01 4.847497e-01 4.772163e-01 3.982563e-01 1.766407e-01
<GCONST> 1.156761e+02
<STATE> 4
<MEAN> 39
 2.245587e+00 -1.316997e+01 -1.989792e+00 -4.496448e+00 -1.105433e+01 -1.100744e+01 -7.518109e+00 2.566715e+00 -6.846685e-01 -6.703215e-01 -1.137451e+00 -4.832634e+00 7.152981e+01 7.625786e-02 -5.966285e-01 4.990969e-01 -5.880903e-01 -1.303970e+00 -7.502003e-01 3.819173e-01 8.643463e-01 -9.220147e-01 -2.288309e-01 -1.727767e-01 2.848566e-01 6.798539e-01 -4.323853e-01 4.085699e-01 2.803710e-01 -2.156587e-01 2.298321e-01 3.859611e-01 2.851640e-01 -1.912245e-01 -1.989846e-01 4.023809e-02 4.003073e-02 1.015770e-01 -1.280820e-01
<VARIANCE> 39
 9.751044e+00 2.078802e+01 5.723868e+01 4.040939e+01 5.965533e+01 6.028648e+01 5.679560e+01 5.085445e+01 4.284920e+01 4.288326e+01 9.610903e+01 5.860789e+01 1.267330e+01 1.336778e+00 1.604736e+00 2.430600e+00 2.307414e+00 2.855947e+00 4.033575e+00 3.688593e+00 3.982438e+00 3.799900e+00 3.620141e+00 3.007671e+00 2.712192e+00 8.477667e-01 2.092120e-01 2.703119e-01 3.122817e-01 3.383174e-01 5.089442e-01 4.894055e-01 5.492337e-01 6.374620e-01 5.721321e-01 6.253763e-01 5.360353e-01 5.134063e-01 1.490215e-01
<GCONST> 1.199760e+02
<TRANSP> 5
 0.000000e+00 1.000000e+00 0.000000e+00 0.000000e+00 0.000000e+00
 0.000000e+00 6.598507e-01 3.401493e-01 0.000000e+00 0.000000e+00
 0.000000e+00 0.000000e+00 6.525584e-01 3.474416e-01 0.000000e+00
 0.000000e+00 0.000000e+00 0.000000e+00 6.051592e-01 3.948408e-01
 0.000000e+00 0.000000e+00 0.000000e+00 0.000000e+00 0.000000e+00
<ENDHMM>
~h "rx"
<BEGINHMM>
<NUMSTATES> 5
<STATE> 2
<MEAN> 39
 -3.250352e-01 -9.497731e+00 7.786627e-01 -5.852638e+00 -1.051362e+01 -8.866485e+00 -8.073927e+00 3.316979e-01 3.265631e-01 -2.236027e-01 -2.043489e+00 -3.036990e+00 6.971888e+01 2.620267e-01 1.769439e-01 8.498954e-01 1.473991e+00 3.588244e-01 -1.998180e-01 -6.618171e-01 1.911579e-02 5.053155e-01 -4.961019e-01 8.257992e-02 2.459421e-01 -1.034970e+00 -3.198022e-01 9.271154e-02 9.007310e-02 -2.765326e-01 2.865855e-01 4.327691e-01 4.229966e-01 1.548388e-02 -2.895193e-01 4.925078e-02 9.821957e-02 1.009230e-01 -1.217147e-01
<VARIANCE> 39
 1.712737e+01 2.856593e+01 5.723241e+01 4.691799e+01 6.516954e+01 5.244010e+01 5.520144e+01 5.424935e+01 4.737207e+01 4.136791e+01 5.215065e+01 4.052963e+01 2.361584e+01 2.780019e+00 3.590010e+00 3.568914e+00 4.700018e+00 7.720237e+00 5.303155e+00 4.671692e+00 5.133744e+00 4.133092e+00 4.025561e+00 3.747602e+00 3.318959e+00 2.915538e+00 3.747454e-01 5.152126e-01 5.973601e-01 9.641447e-01 1.073297e+00 8.544706e-01 7.840285e-01 8.254082e-01 8.143970e-01 6.750417e-01 7.203451e-01 5.898759e-01 7.355353e-01
<GCONST> 1.342385e+02
<STATE> 3
<MEAN> 39
 -1.771762e+00 -7.036730e+00 4.160026e+00 -1.759391e+00 -6.713398e+00 -6.974942e+00 -7.697912e+00 -2.050886e-01 9.842803e-01 -1.661831e+00 -1.700109e+00 -1.650774e+00 6.533026e+01 -3.679974e-01 1.999181e-01 7.533400e-01 1.626091e-01 5.926184e-01 3.748721e-01 1.193829e-01 1.096166e-01 -3.626622e-01 -1.467730e-01 2.776942e-01 1.404704e-01 -4.824675e-01 -1.035059e-01 -2.251658e-01 -3.261115e-01 -9.176373e-01 -3.073331e-01 1.017567e-01 3.567267e-01 7.668072e-02 -4.486356e-01 3.255947e-01 9.728563e-03 -1.206580e-01 5.866958e-01
<VARIANCE> 39
 1.914971e+01 2.961637e+01 4.360837e+01 4.081266e+01 6.018942e+01 4.371083e+01 4.976859e+01 4.166379e+01 4.003224e+01 3.588316e+01 3.771912e+01 2.981868e+01 2.964134e+01 2.435534e+00 3.093453e+00 3.574719e+00 3.386867e+00 5.119600e+00 3.924191e+00 3.742666e+00 4.393981e+00 3.530330e+00 3.155110e+00 3.138667e+00 2.692476e+00 2.301931e+00 4.528181e-01 6.448609e-01 6.147431e-01 1.098260e+00 1.397844e+00 1.061266e+00 1.042926e+00 9.690975e-01 8.928401e-01 8.207837e-01 7.927828e-01 6.221222e-01 7.367611e-01
<GCONST> 1.318486e+02
<STATE> 4
<MEAN> 39
 -2.397794e+00 -7.918706e+00 3.628223e+00 -5.171890e+00 -7.418845e+00 -6.758610e+00 -6.947324e+00 5.980926e-01 -9.015012e-01 -6.761845e-01 -2.669851e-01 -1.936914e+00 6.716139e+01 -1.996139e-01 -1.310796e-01 7.375437e-02 -9.953368e-01 -1.483993e-01 2.948312e-01 5.110109e-01 7.945549e-02 -7.834752e-01 4.180145e-01 5.893664e-02 -6.708953e-02 3.569184e-01 -3.329672e-02 -5.165756e-02 -2.548288e-01 -3.255653e-01 -1.730182e-01 1.037057e-01 2.513856e-01 -8.196080e-02 -1.070079e-01 1.273939e-01 -1.586211e-01 -3.686793e-02 2.110952e-01
<VARIANCE> 39
 3.024310e+01 3.348503e+01 5.070824e+01 4.276841e+01 6.114572e+01 5.204219e+01 5.555911e+01 4.909576e+01 4.393231e+01 4.161471e+01 4.691104e+01 3.405698e+01 3.141903e+01 2.752172e+00 3.761678e+00 3.736852e+00 4.958817e+00 5.928395e+00 4.566037e+00 4.568191e+00 5.065957e+00 4.470182e+00 3.649470e+00 3.726947e+00 2.979401e+00 4.118652e+00 4.715799e-01 5.447791e-01 5.954404e-01 9.111735e-01 1.196677e+00 9.021417e-01 8.787946e-01 8.488402e-01 7.882740e-01 7.854097e-01 7.527468e-01 5.810581e-01 5.326338e-01
<GCONST> 1.347790e+02
<TRANSP> 5
 0.000000e+00 1.000000e+00 0.000000e+00 0.000000e+00 0.000000e+00
 0.000000e+00 3.246012e-01 6.753988e-01 0.000000e+00 0.000000e+00
 0.000000e+00 0.000000e+00 2.641179e-01 7.358821e-01 0.000000e+00
 0.000000e+00 0.000000e+00 0.000000e+00 2.726912e-01 7.273089e-01
 0.000000e+00 0.000000e+00 0.000000e+00 0.000000e+00 0.000000e+00
<ENDHMM>
~h "sp"
<BEGINHMM>
<NUMSTATES> 3
<STATE> 2
~s "silst"
<TRANSP> 3
 0.000000e+00 1.794043e-01 8.205957e-01
 0.000000e+00 9.134817e-01 8.651832e-02
 0.000000e+00 0.000000e+00 0.000000e+00
<ENDHMM>
~h "uw"
<BEGINHMM>
<NUMSTATES> 5
<STATE> 2
<MEAN> 39
 -9.344637e-01 -1.133049e+00 9.001138e-01 -1.123770e+01 -5.464636e+00 -4.077385e+00 -8.686190e+00 -4.266569e+00 -3.457704e+00 -6.417427e-01 -1.866012e+00 -1.689027e+00 6.466205e+01 2.283193e+00 8.959157e-01 -8.483649e-01 -2.198192e+00 -1.346795e+00 1.097720e-01 -1.221393e+00 -1.795699e+00 -1.601239e+00 -2.034332e-01 5.694204e-02 -3.601681e-01 7.232380e-01 -4.945448e-01 -8.835878e-02 7.662551e-02 2.031777e-01 1.815179e-01 3.433174e-01 5.109788e-01 2.073279e-01 1.843158e-02 3.917109e-02 1.897753e-01 2.209957e-01 -1.258406e-01
<VARIANCE> 39
 2.616514e+01 2.755388e+01 3.086073e+01 5.550336e+01 5.733265e+01 5.208778e+01 7.889573e+01 5.154113e+01 4.490306e+01 4.041063e+01 4.280891e+01 2.957203e+01 3.325075e+01 3.983117e+00 2.306890e+00 2.951229e+00 4.393130e+00 5.418316e+00 5.163342e+00 6.585675e+00 6.487028e+00 4.840743e+00 4.388950e+00 4.791345e+00 3.467812e+00 1.848265e+00 5.649573e-01 4.488793e-01 3.968388e-01 9.292722e-01 8.512967e-01 7.542039e-01 1.171484e+00 9.312032e-01 8.853159e-01 7.771900e-01 6.784068e-01 5.222062e-01 3.193832e-01
<GCONST> 1.332357e+02
<STATE> 3
<MEAN> 39
 2.674973e+00 1.914017e-01 -2.214560e+00 -1.702368e+01 -8.728128e+00 -6.886393e-01 -7.577727e+00 -6.317291e+00 -8.902411e+00 -2.193556e+00 -4.818406e-01 -1.308380e+00 6.631917e+01 2.447749e-02 -1.051216e-01 -2.465232e-02 2.922601e-01 2.341392e-01 1.925909e-01 -1.762436e-01 -5.599428e-01 -1.410002e-01 9.579223e-02 1.796299e-01 -2.434592e-02 4.850649e-02 -3.903579e-01 -2.097715e-01 3.551722e-01 7.848307e-01 2.920603e-01 -2.807466e-01 -4.471209e-02 1.967563e-01 5.603752e-01 1.216604e-01 -2.558391e-01 -1.354028e-01 -1.382420e-01
<VARIANCE> 39
 7.288866e+00 2.057585e+01 3.652528e+01 3.855168e+01 5.266670e+01 4.408894e+01 5.898176e+01 6.304319e+01 4.636623e+01 5.464372e+01 5.136724e+01 3.583788e+01 1.154617e+01 4.908404e-01 1.937753e+00 1.408777e+00 3.430060e+00 3.192703e+00 2.905165e+00 4.721911e+00 3.828898e+00 3.955130e+00 3.806801e+00 3.082714e+00 2.626682e+00 8.838737e-01 2.631656e-01 2.192022e-01 3.526112e-01 5.219212e-01 6.193417e-01 6.535576e-01 8.264059e-01 8.734036e-01 7.283856e-01 7.338347e-01 7.421497e-01 5.660418e-01 1.247039e-01
<GCONST> 1.196866e+02
<STATE> 4
<MEAN> 39
 7.131845e-01 -2.348168e+00 8.470779e-01 -1.054278e+01 -4.956443e+00 -3.983871e+00 -1.154296e+01 -8.412626e+00 -4.281692e+00 2.014790e-01 -2.201725e+00 -3.062287e+00 6.634270e+01 -9.846041e-01 -1.076014e-01 1.732972e+00 2.544511e+00 3.211497e-01 -9.505824e-01 5.613922e-02 6.060998e-01 1.357803e+00 -2.331330e-01 -1.185759e+00 -2.812668e-01 -6.538990e-01 -3.428505e-01 1.789468e-01 2.501047e-01 1.849340e-01 -1.282236e-01 7.424833e-02 6.216816e-01 4.679306e-01 -9.371673e-02 -2.711756e-01 -2.047217e-02 2.380885e-01 -2.457320e-01
<VARIANCE> 39
 1.100245e+01 2.340999e+01 4.357089e+01 4.791727e+01 5.321237e+01 5.437560e+01 6.645623e+01 5.565592e+01 4.977071e+01 5.168939e+01 5.382812e+01 3.480546e+01 1.805010e+01 1.322318e+00 1.830664e+00 2.760944e+00 3.541846e+00 4.652526e+00 4.996938e+00 6.181092e+00 4.742760e+00 4.677654e+00 4.615979e+00 4.203979e+00 3.317598e+00 1.509591e+00 2.929653e-01 3.562476e-01 5.172675e-01 6.875634e-01 8.206150e-01 8.044569e-01 1.005091e+00 9.919564e-01 9.212407e-01 8.991645e-01 7.977620e-01 5.648774e-01 2.036987e-01
<GCONST> 1.288593e+02
<TRANSP> 5
