~o
<STREAMINFO> 1 39
<VECSIZE> 39<NULLD><MFCC_D_A_0><DIAGC>
~s "silst"
<NUMMIXES> 4
<MIXTURE> 1 2.812144e-01
<MEAN> 39
 -1.126314e+01 -4.225675e+00 4.583338e+00 1.367497e+00 2.849328e+00 4.764851e+00 4.252746e+00 2.607975e+00 3.249165e+00 2.926897e+00 3.605772e+00 3.917615e+00 5.140501e+01 -1.002504e-01 -2.446012e-02 3.314546e-02 9.993635e-02 7.155925e-02 1.740598e-01 1.799760e-01 1.309767e-01 2.206476e-01 2.559095e-01 1.932074e-01 1.441840e-01 -1.687432e-01 1.220555e-02 -1.790243e-02 -5.259127e-04 -4.751588e-02 -3.786695e-02 -4.187918e-02 -3.534795e-02 3.124451e-03 1.695658e-02 -1.895444e-02 1.848103e-02 1.358604e-02 6.884371e-02
<VARIANCE> 39
 4.780417e+00 5.776272e+00 7.203614e+00 8.336409e+00 1.133659e+01 1.179920e+01 1.450147e+01 1.606898e+01 1.627746e+01 1.785841e+01 1.620183e+01 1.334950e+01 6.456485e+00 5.633289e-01 6.221132e-01 7.308794e-01 9.436885e-01 1.205956e+00 1.267282e+00 1.459336e+00 1.593238e+00 1.669335e+00 1.718239e+00 1.487036e+00 1.291198e+00 3.591490e-01 8.781029e-02 9.699100e-02 1.219314e-01 1.621692e-01 2.138069e-01 2.285657e-01 2.694052e-01 2.906342e-01 3.044463e-01 3.193308e-01 2.781488e-01 2.411669e-01 5.604665e-02
<GCONST> 8.071265e+01
<MIXTURE> 2 2.070838e-01
<MEAN> 39
 -1.197097e+01 -4.918596e+00 3.818119e+00 -3.041805e-01 2.371036e+00 3.370645e+00 2.987462e+00 3.397298e+00 2.254554e+00 2.373330e+00 3.246070e+00 3.651576e+00 5.482153e+01 -2.664695e-01 -5.812683e-02 1.322526e-01 1.628781e-01 2.238055e-01 1.055493e-01 2.187080e-01 2.485958e-01 1.071360e-01 2.290861e-01 2.383752e-01 1.825039e-01 -1.958879e-01 1.290701e-01 5.524165e-03 3.148202e-02 -2.461457e-02 -1.120182e-01 -1.601794e-02 -1.190074e-02 -8.422697e-02 2.668430e-02 -3.795589e-02 4.835752e-04 -1.587467e-02 -3.384366e-02
<VARIANCE> 39
 1.877749e+01 1.760469e+01 1.996548e+01 2.481440e+01 2.815216e+01 2.860301e+01 2.823658e+01 2.809512e+01 2.894061e+01 2.931959e+01 2.519494e+01 2.029776e+01 1.582596e+01 1.465050e+00 1.319649e+00 1.655998e+00 2.283739e+00 2.406683e+00 2.507639e+00 2.573650e+00 2.419495e+00 2.426953e+00 2.367716e+00 2.083737e+00 1.801545e+00 1.509245e+00 2.835360e-01 2.714270e-01 3.541974e-01 5.083697e-01 5.181481e-01 5.294470e-01 5.436615e-01 4.930654e-01 5.109082e-01 4.785166e-01 4.298220e-01 3.655586e-01 3.162333e-01
<GCONST> 1.105925e+02
<MIXTURE> 3 3.226014e-01
<MEAN> 39
 -1.113264e+01 -4.450718e+00 4.371316e+00 8.721494e-01 2.349435e+00 4.234581e+00 3.543482e+00 1.951124e+00 2.551098e+00 2.136780e+00 2.818218e+00 3.214419e+00 5.186156e+01 -3.959439e-02 -7.939195e-03 2.567857e-02 4.976276e-02 -2.539583e-02 2.730736e-03 -2.365520e-02 -1.009588e-01 -4.387908e-02 -1.972994e-02 -7.014197e-02 -2.705199e-02 -1.247418e-01 3.085917e-02 -1.056810e-02 -1.061205e-02 -6.641188e-02 -6.090038e-02 -7.646458e-02 -7.252520e-02 -3.057099e-02 -2.055494e-02 -5.397340e-02 -2.431737e-02 -2.169222e-02 9.040018e-02
<VARIANCE> 39
 4.984426e+00 5.997798e+00 7.775227e+00 8.622683e+00 1.146971e+01 1.205234e+01 1.447117e+01 1.633354e+01 1.722184e+01 1.788978e+01 1.614583e+01 1.344009e+01 6.665545e+00 5.715982e-01 6.294833e-01 7.240235e-01 9.286837e-01 1.185184e+00 1.273001e+00 1.445133e+00 1.591923e+00 1.659556e+00 1.706029e+00 1.467725e+00 1.292080e+00 3.519747e-01 8.955085e-02 9.936910e-02 1.228390e-01 1.652136e-01 2.171195e-01 2.318004e-01 2.699189e-01 2.918402e-01 3.048918e-01 3.163241e-01 2.760052e-01 2.429602e-01 5.868784e-02
<GCONST> 8.111757e+01
<MIXTURE> 4 1.889897e-01
<MEAN> 39
 -1.152623e+01 -5.125035e+00 3.623935e+00 -6.836282e-01 1.616789e+00 2.922332e+00 2.338888e+00 2.557089e+00 1.869899e+00 1.812907e+00 2.615259e+00 3.039887e+00 5.493510e+01 -7.258955e-02 -4.651695e-02 6.172678e-02 -7.343280e-02 -3.338114e-02 -2.056218e-01 -1.834615e-01 -1.084395e-01 -2.758727e-01 -1.587860e-01 -1.774296e-01 -1.224251e-01 1.273813e-01 1.780061e-01 1.299602e-03 -1.158485e-02 -1.529570e-01 -2.055199e-01 -1.453099e-01 -1.266377e-01 -1.367746e-01 -9.210473e-02 -1.210346e-01 -1.067100e-01 -9.608458e-02 1.795878e-01
<VARIANCE> 39
 1.723169e+01 1.624637e+01 1.907818e+01 2.330026e+01 2.628057e+01 2.712770e+01 2.588256e+01 2.677740e+01 2.863366e+01 2.775490e+01 2.422305e+01 1.973646e+01 1.747243e+01 1.470690e+00 1.377798e+00 1.716745e+00 2.392932e+00 2.578123e+00 2.622739e+00 2.649081e+00 2.505874e+00 2.486199e+00 2.392473e+00 2.126179e+00 1.861968e+00 1.656480e+00 2.810122e-01 2.888745e-01 3.800271e-01 5.813087e-01 5.789092e-01 5.522721e-01 5.609667e-01 5.131835e-01 5.185053e-01 4.845843e-01 4.473172e-01 3.793392e-01 4.342227e-01
<GCONST> 1.114189e+02
~h "b"
<BEGINHMM>
<NUMSTATES> 5
<STATE> 2
<NUMMIXES> 4
<MIXTURE> 1 2.489081e-01
<MEAN> 39
 -2.015299e-01 1.659541e+00 7.460078e+00 1.579579e+00 -1.844725e+00 -2.548855e+00 -5.566199e+00 -7.317173e+00 -6.866129e+00 -1.603221e+00 -1.318689e+00 -4.582213e+00 5.854018e+01 -3.156251e-01 8.068641e-01 5.776240e-01 4.967382e-01 6.939363e-01 9.963885e-01 6.470373e-01 -3.150655e-02 5.226079e-01 -3.532409e-01 -3.216017e-02 2.646909e-01 -1.038344e+00 -1.996560e-01 -2.722486e-01 -1.160838e-02 -2.081014e-01 -4.206096e-02 -3.486477e-02 8.542763e-02 2.340600e-01 1.856432e-01 8.005362e-02 3.623052e-02 1.399308e-01 2.104934e-01
<VARIANCE> 39
 7.719519e+00 1.018596e+01 1.416709e+01 3.058431e+01 2.341106e+01 3.238560e+01 3.753773e+01 3.072142e+01 4.143110e+01 3.009509e+01 3.174952e+01 2.412599e+01 1.221937e+01 5.223455e-01 8.809960e-01 9.472225e-01 1.832235e+00 1.947694e+00 2.093994e+00 1.800558e+00 1.891325e+00 2.290867e+00 1.843100e+00 1.956793e+00 1.940544e+00 8.520905e-01 9.270091e-02 1.543214e-01 1.866941e-01 2.603874e-01 3.195909e-01 3.086488e-01 3.132232e-01 3.504914e-01 4.076737e-01 2.958824e-01 3.506601e-01 3.004027e-01 1.432631e-01
<GCONST> 9.898285e+01
<MIXTURE> 2 2.381498e-01
<MEAN> 39
 -1.126662e+00 -1.632360e+00 4.622509e+00 -2.189368e+00 -2.423312e+00 -3.277248e+00 -5.723724e+00 -6.774567e+00 -4.832332e+00 -1.004626e+00 -8.381740e-01 -2.394076e+00 6.093386e+01 2.161897e-01 1.213692e+00 6.729736e-01 1.110236e+00 6.008177e-01 5.440481e-01 1.899648e-01 -5.973131e-01 -4.803825e-01 -4.414071e-01 5.326051e-02 -1.542520e-01 -1.152524e+00 -1.657898e-01 -3.736262e-01 -6.696699e-02 -5.081987e-01 -2.864425e-01 -1.310700e-01 1.133735e-01 5.146341e-01 1.823837e-01 4.850838e-02 -5.598736e-02 -1.771557e-02 5.132225e-01
<VARIANCE> 39
 2.410181e+01 2.692441e+01 2.631165e+01 5.033963e+01 3.388975e+01 6.750616e+01 5.430176e+01 6.546413e+01 4.830330e+01 4.195309e+01 4.714081e+01 3.376392e+01 3.297659e+01 1.768975e+00 1.643686e+00 1.942887e+00 3.032837e+00 2.945425e+00 3.866298e+00 3.783828e+00 3.693357e+00 3.168196e+00 3.048431e+00 3.257481e+00 3.241161e+00 2.253259e+00 2.488785e-01 3.464294e-01 3.846759e-01 6.018903e-01 5.235428e-01 5.802132e-01 6.850691e-01 7.950490e-01 6.997764e-01 5.819991e-01 5.639321e-01 5.782973e-01 3.212707e-01
<GCONST> 1.242158e+02
<MIXTURE> 3 2.816930e-01
<MEAN> 39
 -1.001899e-02 1.405452e+00 6.542155e+00 7.680459e-03 -3.349708e+00 -3.768819e+00 -6.912482e+00 -8.230609e+00 -7.428935e+00 -2.900981e+00 -2.943295e+00 -4.664408e+00 5.924174e+01 -3.112025e-01 6.820402e-01 5.097935e-01 5.384835e-01 6.443794e-01 7.686842e-01 5.012662e-01 -1.516177e-01 2.109932e-01 -5.062442e-01 -1.050212e-01 6.959185e-02 -8.951646e-01 -1.652634e-01 -2.963211e-01 -3.262644e-02 -2.911585e-01 -1.166087e-01 -9.271298e-02 3.675792e-02 2.506871e-01 1.492194e-01 8.345845e-02 -1.466926e-03 1.028793e-01 2.961973e-01
<VARIANCE> 39
 7.725729e+00 1.073684e+01 1.568417e+01 2.572520e+01 2.673522e+01 3.627861e+01 3.875508e+01 3.617081e+01 3.630639e+01 3.248224e+01 3.470066e+01 2.574423e+01 1.194659e+01 4.697526e-01 7.537135e-01 9.627790e-01 1.565061e+00 1.809210e+00 1.894046e+00 1.687898e+00 1.923392e+00 2.071237e+00 1.799256e+00 1.903412e+00 1.929142e+00 6.777406e-01 9.255117e-02 1.601328e-01 2.084583e-01 3.034279e-01 3.355119e-01 2.927383e-01 3.199916e-01 3.653890e-01 3.782816e-01 3.057106e-01 3.511344e-01 2.937656e-01 1.525884e-01
<GCONST> 9.882652e+01
<MIXTURE> 4 2.312479e-01
<MEAN> 39
 -1.490442e+00 -2.299848e+00 3.849237e+00 -3.311432e+00 -3.420389e+00 -4.703667e+00 -6.690876e+00 -7.615032e+00 -5.135681e+00 -1.326342e+00 -2.184680e+00 -2.874739e+00 6.148893e+01 5.101428e-01 1.088224e+00 6.116508e-01 8.305580e-01 1.784648e-01 4.205226e-02 -4.530666e-01 -1.012312e+00 -8.600346e-01 -5.613768e-01 -3.754365e-01 -5.285326e-01 -7.178237e-01 -1.219679e-01 -4.070567e-01 -1.204809e-01 -5.678298e-01 -3.344845e-01 -1.360383e-01 1.313522e-01 4.791875e-01 1.619509e-01 -3.144489e-03 -1.235961e-01 -3.197968e-02 5.779725e-01
<VARIANCE> 39
 2.337752e+01 2.540076e+01 2.912887e+01 5.221565e+01 3.187282e+01 7.514297e+01 5.135903e+01 6.903546e+01 4.258634e+01 4.349821e+01 4.523784e+01 3.263068e+01 3.676645e+01 1.847295e+00 1.626465e+00 1.829965e+00 2.744267e+00 3.053431e+00 4.321530e+00 4.232297e+00 4.394563e+00 3.232666e+00 3.166061e+00 3.563491e+00 3.429847e+00 2.319510e+00 2.204215e-01 3.291799e-01 3.624438e-01 6.281529e-01 5.653118e-01 6.275734e-01 7.410911e-01 8.778790e-01 6.511511e-01 6.181379e-01 5.858467e-01 5.787232e-01 3.070078e-01
<GCONST> 1.249169e+02
<STATE> 3
<NUMMIXES> 4
<MIXTURE> 1 2.535657e-01
<MEAN> 39
 -2.027593e+00 2.806421e+00 9.160373e+00 2.580186e+00 7.734993e-01 7.507158e-01 -2.358852e+00 -5.719921e+00 -4.569669e+00 -3.226913e+00 -2.011166e+00 -3.264490e+00 5.590264e+01 -7.046843e-01 1.514759e-02 3.803722e-01 1.369356e-01 4.061815e-01 3.843627e-01 5.677975e-01 5.571232e-01 6.227803e-01 -2.569661e-02 4.759034e-02 2.651914e-01 -2.550358e-01 1.088198e-01 -7.626417e-01 -4.199167e-01 -9.461285e-01 -7.923821e-01 -7.749611e-01 -4.560073e-01 2.882035e-01 -6.296177e-02 3.805136e-01 2.149382e-01 9.863560e-02 1.125179e+00
<VARIANCE> 39
 9.781082e+00 7.175625e+00 1.248032e+01 1.798262e+01 1.584959e+01 2.029272e+01 2.202921e+01 2.446192e+01 2.855055e+01 2.080293e+01 2.190970e+01 2.035774e+01 8.181285e+00 1.100976e+00 1.283679e+00 1.378271e+00 2.171670e+00 2.056504e+00 2.501081e+00 2.673641e+00 2.564471e+00 2.636067e+00 1.963285e+00 2.181012e+00 1.868349e+00 1.340061e+00 2.017357e-01 1.993043e-01 6.485678e-01 6.941825e-01 4.859926e-01 6.206961e-01 4.052736e-01 5.478302e-01 6.154688e-01 5.053017e-01 4.329318e-01 4.556837e-01 2.086469e-01
<GCONST> 1.052671e+02
<MIXTURE> 2 2.289487e-01
<MEAN> 39
 6.908520e-01 -9.445553e-01 4.469065e+00 -2.566651e+00 -3.168604e+00 -4.496614e+00 -7.347534e+00 -7.952521e+00 -6.458664e+00 -1.212515e+00 -8.931784e-01 -3.928080e+00 6.190573e+01 -1.856645e-01 -2.031166e-01 1.511136e-01 -6.398138e-01 -2.463803e-01 -1.113757e-01 2.423330e-01 8.966754e-01 5.126225e-01 6.593499e-02 2.412529e-01 3.505376e-01 2.077176e-01 -9.554438e-02 -8.729932e-01 -1.592933e-01 -1.069659e+00 -7.313288e-01 -3.842532e-01 8.937651e-02 6.893202e-01 2.594182e-01 2.241240e-01 -8.735111e-02 8.389418e-02 1.055696e+00
<VARIANCE> 39
 9.779336e+00 2.672277e+01 2.524069e+01 5.082616e+01 2.929760e+01 4.968231e+01 4.195945e+01 5.640519e+01 4.224311e+01 3.879816e+01 4.285801e+01 2.978932e+01 1.723395e+01 8.996441e-01 1.254092e+00 2.231486e+00 2.810037e+00 2.185277e+00 2.733463e+00 2.884915e+00 3.553025e+00 3.092529e+00 2.505048e+00 2.069392e+00 2.277960e+00 9.504771e-01 2.096402e-01 3.349952e-01 7.274551e-01 7.794184e-01 6.819103e-01 6.428670e-01 7.995830e-01 8.818652e-01 9.429706e-01 6.859791e-01 7.079363e-01 6.072309e-01 2.400890e-01
<GCONST> 1.193671e+02
<MIXTURE> 3 2.292574e-01
<MEAN> 39
 2.758749e-01 -1.894734e+00 3.591812e+00 -3.465393e+00 -3.579754e+00 -5.530997e+00 -8.537041e+00 -8.471956e+00 -6.313491e+00 -1.026779e+00 -2.679830e+00 -4.808928e+00 6.233714e+01 -2.137228e-01 -3.304931e-01 2.436416e-01 -7.548467e-01 -4.811624e-01 -1.599126e-01 2.360268e-01 8.529388e-01 2.988327e-01 1.381241e-02 -3.743947e-02 1.095041e-01 3.649235e-01 -1.306038e-01 -8.875480e-01 -1.327355e-01 -1.186639e+00 -8.160170e-01 -3.730801e-01 1.962961e-01 6.976439e-01 1.888793e-01 9.649242e-02 -2.184687e-01 1.348485e-01 1.118632e+00
<VARIANCE> 39
 9.584848e+00 2.435380e+01 2.739032e+01 5.011621e+01 2.854155e+01 4.946889e+01 3.708559e+01 5.554911e+01 3.760956e+01 3.993276e+01 3.945360e+01 2.919732e+01 1.758431e+01 7.572372e-01 1.257160e+00 2.459913e+00 2.893986e+00 2.026423e+00 2.734133e+00 2.561455e+00 3.839605e+00 2.916613e+00 2.391282e+00 1.927611e+00 2.172016e+00 9.241209e-01 1.902232e-01 3.522108e-01 7.969159e-01 7.505459e-01 7.404552e-01 6.372281e-01 7.825692e-01 8.822252e-01 8.184204e-01 7.025641e-01 6.835459e-01 6.232021e-01 2.533437e-01
<GCONST> 1.185569e+02
<MIXTURE> 4 2.882278e-01
<MEAN> 39
 -2.221472e+00 2.163630e+00 8.403878e+00 1.541572e+00 -4.735380e-01 -6.909323e-01 -3.595991e+00 -6.507682e+00 -5.279585e+00 -4.143654e+00 -3.318395e+00 -4.130269e+00 5.631186e+01 -6.512991e-01 -1.906342e-01 3.193312e-01 -6.164788e-02 7.092323e-02 5.021452e-02 2.594829e-01 4.510159e-01 2.870934e-01 -2.206898e-01 -3.943192e-03 1.108597e-01 1.630905e-01 1.145531e-01 -8.004130e-01 -2.553488e-01 -1.100436e+00 -9.699538e-01 -8.031654e-01 -4.935982e-01 2.527384e-01 -7.649012e-02 4.225089e-01 7.278910e-02 1.641288e-01 1.218687e+00
<VARIANCE> 39
 9.347591e+00 7.292424e+00 1.265548e+01 1.595093e+01 1.550810e+01 1.893174e+01 2.344672e+01 2.350621e+01 2.675664e+01 2.333654e+01 2.205516e+01 1.844656e+01 8.417214e+00 1.144909e+00 1.294423e+00 1.526346e+00 2.021215e+00 2.121693e+00 2.557739e+00 2.575384e+00 2.423342e+00 2.558861e+00 1.865295e+00 1.988117e+00 1.972273e+00 1.412457e+00 2.036105e-01 2.275531e-01 8.180454e-01 7.467659e-01 5.803663e-01 6.103485e-01 4.660067e-01 5.855686e-01 6.797496e-01 5.159463e-01 4.668186e-01 4.324030e-01 2.068401e-01
<GCONST> 1.059685e+02
<STATE> 4
<NUMMIXES> 4
<MIXTURE> 1 2.188327e-01
<MEAN> 39
 -3.166661e+00 1.187735e+00 6.564173e+00 -6.204270e-01 -2.205653e-01 7.386734e-01 -1.472256e+00 -4.234488e+00 -4.221696e+00 -2.826061e+00 -9.739884e-01 -1.919526e+00 5.822186e+01 4.880201e-01 -1.693011e+00 -1.509608e+00 -3.105138e+00 -1.635077e+00 -1.367038e+00 -9.145439e-01 9.861910e-01 6.968224e-01 1.046990e+00 7.909558e-01 3.497837e-01 2.743435e+00 3.886949e-01 -6.714525e-01 -3.632354e-01 -9.492737e-01 -7.354007e-01 -3.045192e-01 -3.733556e-01 7.428418e-02 -8.280763e-02 3.028638e-01 7.583778e-02 -1.887389e-01 9.530554e-01
<VARIANCE> 39
 2.213985e+01 1.299745e+01 2.477647e+01 4.300418e+01 2.680089e+01 2.382305e+01 2.588389e+01 3.132565e+01 3.129605e+01 2.256602e+01 2.539407e+01 2.125765e+01 2.045217e+01 2.067046e+00 1.849518e+00 4.648250e+00 6.147903e+00 3.483553e+00 4.243940e+00 3.947724e+00 4.335369e+00 5.042668e+00 3.892487e+00 3.147407e+00 3.198057e+00 1.825566e+00 3.466752e-01 5.016576e-01 7.556661e-01 1.007070e+00 8.564262e-01 8.754388e-01 5.726902e-01 9.420127e-01 8.409956e-01 6.220540e-01 7.837583e-01 6.982926e-01 4.340575e-01
<GCONST> 1.244393e+02
<MIXTURE> 2 2.836787e-01
<MEAN> 39
 -5.571862e-01 -2.975332e+00 4.749738e+00 -3.739794e+00 -4.108536e+00 -7.549836e+00 -8.015608e+00 -4.402193e+00 -3.585919e+00 -1.911242e-01 -9.600570e-01 -3.221323e+00 6.438746e+01 -1.899753e-02 -2.360275e+00 1.045545e-01 -2.641113e+00 -2.556570e+00 -1.707607e+00 -1.285449e-01 1.790164e+00 3.666390e-01 7.682340e-01 -7.599978e-03 5.871957e-01 2.842587e+00 -1.103739e-01 -2.137013e-01 2.924386e-01 -3.911713e-01 -4.950136e-01 1.433832e-01 3.235998e-01 6.586988e-03 -2.529666e-01 -2.819279e-02 -1.897386e-01 8.508142e-02 3.470174e-01
<VARIANCE> 39
 1.285662e+01 2.273071e+01 3.865333e+01 5.298062e+01 2.702937e+01 4.682352e+01 3.042074e+01 4.120214e+01 3.024231e+01 3.356990e+01 3.238130e+01 2.135963e+01 2.164891e+01 1.629304e+00 2.822895e+00 7.870389e+00 7.391944e+00 5.575182e+00 6.529464e+00 6.041547e+00 7.294203e+00 7.694832e+00 5.106314e+00 3.902602e+00 3.914690e+00 2.319935e+00 1.852025e-01 4.769418e-01 4.182399e-01 8.687246e-01 7.252690e-01 6.711536e-01 6.807202e-01 8.625062e-01 6.230341e-01 6.235166e-01 5.466093e-01 5.442363e-01 3.901720e-01
<GCONST> 1.282112e+02
<MIXTURE> 3 2.689910e-01
<MEAN> 39
 -1.016815e+00 -3.575985e+00 4.624066e+00 -3.995406e+00 -4.803358e+00 -7.316213e+00 -8.777009e+00 -5.459046e+00 -4.366186e+00 -6.864736e-01 -2.569376e+00 -4.492319e+00 6.428421e+01 -2.972477e-01 -2.492084e+00 2.816761e-01 -3.117843e+00 -2.713351e+00 -1.452662e+00 1.425196e-01 1.776345e+00 2.313369e-01 5.842658e-01 -5.634246e-01 5.006815e-01 3.032593e+00 -1.459654e-01 -2.307974e-01 2.018433e-01 -5.296432e-01 -5.303622e-01 8.782990e-02 2.751314e-01 -7.852449e-02 -2.689203e-01 -7.539475e-02 -2.845625e-01 1.460708e-01 4.856501e-01
<VARIANCE> 39
 1.245295e+01 2.212807e+01 4.236085e+01 5.317399e+01 2.877999e+01 4.353672e+01 2.878673e+01 4.244794e+01 3.034100e+01 3.271165e+01 2.898611e+01 2.302374e+01 2.108520e+01 1.507132e+00 2.916620e+00 9.197921e+00 7.436972e+00 5.736166e+00 5.974859e+00 5.697584e+00 7.676588e+00 7.100936e+00 4.443837e+00 3.998529e+00 3.809538e+00 2.365904e+00 1.754760e-01 5.242311e-01 4.654808e-01 8.624091e-01 7.630380e-01 6.660051e-01 6.720597e-01 8.844219e-01 6.205697e-01 6.637828e-01 5.301433e-01 5.791672e-01 3.818395e-01
<GCONST> 1.282380e+02
<MIXTURE> 4 2.284973e-01
<MEAN> 39
 -3.230706e+00 7.246789e-01 6.082163e+00 -9.637974e-01 -8.016322e-01 -3.408455e-01 -3.039028e+00 -5.270884e+00 -4.982492e+00 -3.526728e+00 -1.950777e+00 -2.994500e+00 5.864398e+01 3.341165e-01 -1.889501e+00 -1.193239e+00 -3.200150e+00 -1.968875e+00 -1.435642e+00 -9.520890e-01 1.007399e+00 5.869761e-01 8.744018e-01 2.978360e-01 2.172894e-01 2.898895e+00 3.402121e-01 -6.889440e-01 -2.981381e-01 -1.027830e+00 -8.503624e-01 -3.529744e-01 -3.671372e-01 9.308390e-03 -1.398158e-01 2.710766e-01 -1.665442e-01 -1.277733e-01 1.016683e+00
<VARIANCE> 39
 2.043345e+01 1.215829e+01 2.556896e+01 4.244361e+01 2.377438e+01 2.261379e+01 2.675124e+01 3.028553e+01 2.945033e+01 2.291062e+01 2.662124e+01 1.988070e+01 1.970549e+01 1.971359e+00 2.026685e+00 6.363600e+00 6.093817e+00 3.649092e+00 4.222365e+00 4.075516e+00 4.695552e+00 5.319985e+00 3.674377e+00 3.268000e+00 3.183928e+00 1.830415e+00 3.050036e-01 5.854675e-01 8.499006e-01 9.494907e-01 9.266442e-01 8.425077e-01 5.888084e-01 8.895554e-01 7.927158e-01 6.106217e-01 7.491449e-01 7.067448e-01 4.541063e-01
<GCONST> 1.245998e+02
<TRANSP> 5
 0.000000e+00 1.000000e+00 0.000000e+00 0.000000e+00 0.000000e+00
 0.000000e+00 5.004364e-01 4.995635e-01 0.000000e+00 0.000000e+00
 0.000000e+00 0.000000e+00 3.524067e-01 6.475933e-01 0.000000e+00
 0.000000e+00 0.000000e+00 0.000000e+00 4.501433e-01 5.498567e-01
 0.000000e+00 0.000000e+00 0.000000e+00 0.000000e+00 0.000000e+00
<ENDHMM>
~h "d"
<BEGINHMM>
<NUMSTATES> 5
<STATE> 2
<NUMMIXES> 4
<MIXTURE> 1 2.525447e-01
<MEAN> 39
 -2.776499e+00 3.277518e+00 9.919847e+00 3.409009e+00 -1.692643e+00 -2.757465e+00 -3.837368e+00 -4.411044e+00 -2.902555e+00 -3.337558e+00 -4.290930e+00 -3.813977e+00 5.589233e+01 -3.820226e-01 1.723601e-01 3.913417e-01 4.505478e-01 8.087771e-01 7.222261e-01 5.597509e-01 3.408245e-01 2.042191e-01 -5.894582e-02 1.513556e-01 -7.337610e-02 -3.144662e-01 -3.260418e-01 -5.170381e-01 -3.426185e-01 -5.836115e-01 -3.341390e-01 -1.685773e-01 2.668308e-02 2.786486e-01 8.796168e-02 2.363010e-01 3.488360e-01 3.198241e-01 6.957729e-01
<VARIANCE> 39
 7.433509e+00 7.404282e+00 1.139089e+01 1.757861e+01 2.803257e+01 2.715788e+01 2.404042e+01 2.179160e+01 2.133473e+01 2.321672e+01 2.118979e+01 2.109827e+01 1.115418e+01 1.519671e+00 1.348433e+00 1.578398e+00 2.303100e+00 3.049483e+00 3.084055e+00 2.579830e+00 2.255612e+00 2.150592e+00 1.991998e+00 2.033931e+00 2.385584e+00 2.341555e+00 2.032839e-01 1.996967e-01 2.866004e-01 5.301575e-01 8.746388e-01 7.447633e-01 5.194376e-01 4.749120e-01 5.102208e-01 4.324341e-01 3.752880e-01 4.130942e-01 5.580592e-01
<GCONST> 1.076211e+02
<MIXTURE> 2 2.463221e-01
<MEAN> 39
 -4.450643e+00 2.727163e-01 6.184806e+00 1.308897e-01 -2.255090e+00 -4.659547e+00 -4.662257e+00 -3.221068e+00 -1.433907e+00 -1.766679e+00 -2.735667e+00 -2.445863e+00 6.022294e+01 -4.536489e-01 -4.584889e-01 -4.638619e-02 -6.743214e-01 -6.365424e-01 -9.612421e-01 -1.495393e-01 5.471473e-01 -1.364377e-01 -5.023910e-02 5.597245e-01 5.707063e-01 1.427786e+00 1.594756e-01 -5.040023e-01 -1.007839e-01 -8.642081e-01 -9.770480e-01 -5.587489e-01 -1.686452e-01 1.630459e-01 -1.009616e-01 1.702820e-01 1.286007e-01 1.044318e-01 9.687064e-01
<VARIANCE> 39
 1.909958e+01 2.575759e+01 2.722415e+01 4.443600e+01 4.714515e+01 6.845021e+01 5.514410e+01 4.150036e+01 3.700448e+01 3.794947e+01 3.711731e+01 3.653416e+01 5.071798e+01 2.452893e+00 2.673707e+00 2.627368e+00 4.082287e+00 4.274315e+00 3.976687e+00 4.363572e+00 4.351257e+00 3.615053e+00 3.184891e+00 3.476470e+00 3.340618e+00 3.181967e+00 2.688098e-01 4.728364e-01 4.417038e-01 7.264763e-01 9.157637e-01 9.882092e-01 9.145895e-01 8.349507e-01 7.100410e-01 6.319796e-01 5.879096e-01 5.732821e-01 4.867807e-01
<GCONST> 1.290803e+02
<MIXTURE> 3 2.689951e-01
<MEAN> 39
 -2.971351e+00 2.837322e+00 9.175654e+00 2.351615e+00 -2.731733e+00 -3.788587e+00 -4.737532e+00 -5.171345e+00 -3.634970e+00 -4.567473e+00 -5.036623e+00 -3.496604e+00 5.641528e+01 -4.387042e-01 8.428051e-02 2.228939e-01 1.474871e-01 3.688281e-01 3.043738e-01 2.783078e-01 8.178601e-02 -2.623810e-01 -2.408965e-01 6.882171e-02 -2.979923e-01 2.463986e-01 -2.470196e-01 -5.765262e-01 -4.376556e-01 -8.286914e-01 -6.469043e-01 -3.471782e-01 -5.104588e-02 2.268765e-01 8.936629e-02 2.867990e-01 2.778574e-01 3.163056e-01 1.001381e+00
<VARIANCE> 39
 7.393626e+00 7.773155e+00 1.209196e+01 1.505901e+01 2.825401e+01 2.806027e+01 2.372882e+01 2.305550e+01 2.222116e+01 2.511385e+01 2.026679e+01 2.168694e+01 1.207456e+01 1.926197e+00 1.647754e+00 1.802428e+00 2.662687e+00 3.489556e+00 3.372960e+00 2.798247e+00 2.545452e+00 2.287939e+00 2.250541e+00 2.488341e+00 2.457821e+00 2.680892e+00 1.996322e-01 2.218905e-01 3.464180e-01 6.655657e-01 1.071137e+00 8.111486e-01 5.875738e-01 5.436661e-01 5.303607e-01 4.601896e-01 4.120025e-01 4.405832e-01 6.255224e-01
<GCONST> 1.109509e+02
<MIXTURE> 4 2.321155e-01
<MEAN> 39
 -4.928763e+00 -3.503807e-01 5.064264e+00 -9.771991e-01 -3.197103e+00 -5.579942e+00 -5.139786e+00 -3.809500e+00 -1.860728e+00 -2.982638e+00 -3.847292e+00 -1.994861e+00 6.101275e+01 -1.052155e-01 -3.566562e-01 -4.283139e-02 -8.416126e-01 -1.223286e+00 -1.344990e+00 -4.182671e-01 1.270117e-01 -4.800707e-01 -2.949221e-01 2.521158e-01 2.500173e-01 1.650324e+00 1.512866e-01 -5.193353e-01 -1.822301e-01 -9.536050e-01 -9.995202e-01 -5.196797e-01 -5.281584e-02 1.273475e-01 -7.349179e-02 1.444429e-01 9.240360e-03 7.737852e-02 1.002957e+00
<VARIANCE> 39
 1.973393e+01 2.664018e+01 3.116029e+01 4.539881e+01 4.989201e+01 6.500366e+01 5.136788e+01 4.006968e+01 3.705394e+01 4.185600e+01 3.790434e+01 3.267777e+01 5.248684e+01 2.728772e+00 2.891401e+00 2.590924e+00 3.766022e+00 4.295999e+00 4.174980e+00 4.407387e+00 4.985658e+00 3.889881e+00 3.404950e+00 3.861252e+00 3.065609e+00 3.008712e+00 2.740405e-01 4.454918e-01 4.462316e-01 7.782762e-01 9.378467e-01 1.003990e+00 9.071046e-01 7.923114e-01 6.869454e-01 6.136262e-01 5.726008e-01 5.327572e-01 5.129554e-01
<GCONST> 1.295463e+02
<STATE> 3
<NUMMIXES> 4
<MIXTURE> 1 2.188755e-01
<MEAN> 39
 -2.565171e+00 -3.549314e+00 3.484112e+00 -5.162892e+00 -7.732845e+00 -1.278603e+01 -9.116889e+00 -1.128391e+00 1.163540e-01 -1.015221e+00 -2.038098e+00 -1.891760e+00 6.914481e+01 -4.468120e-02 -1.093828e+00 4.831444e-01 -7.444852e-01 -1.899284e+00 -1.319265e+00 -4.510783e-02 1.147398e+00 -2.095878e-01 -2.044960e-01 7.753767e-01 7.546495e-01 1.526205e+00 3.723781e-03 -2.456669e-01 1.011478e-01 -3.626300e-01 -4.383050e-01 2.594273e-01 2.904666e-01 9.206888e-02 -2.357261e-01 1.511894e-01 1.639641e-01 -1.490853e-01 2.317804e-01
<VARIANCE> 39
 1.140867e+01 2.054918e+01 2.601697e+01 4.616206e+01 4.443727e+01 4.191082e+01 5.787603e+01 4.881096e+01 4.307971e+01 4.510826e+01 4.570918e+01 4.569941e+01 1.964069e+01 1.217370e+00 1.983623e+00 2.017296e+00 3.198943e+00 3.481927e+00 3.908037e+00 4.678561e+00 3.558526e+00 3.682782e+00 2.529121e+00 2.820325e+00 2.409772e+00 2.170202e+00 1.767500e-01 1.632351e-01 2.197550e-01 3.661487e-01 3.995458e-01 3.454995e-01 4.864611e-01 4.621347e-01 4.048661e-01 3.554145e-01 3.343896e-01 4.307398e-01 1.563027e-01
<GCONST> 1.157166e+02
<MIXTURE> 2 3.069035e-01
<MEAN> 39
 -8.900135e+00 -1.125222e+00 5.554376e+00 -2.557916e+00 -1.301537e+00 -3.166010e+00 -1.892137e+00 -9.649423e-01 -3.049498e+00 -2.191806e+00 -4.370535e-01 -6.076963e-01 6.375245e+01 -8.569463e-02 -1.696760e+00 -6.550606e-01 -3.067547e+00 -3.189167e+00 -2.548009e+00 -9.239907e-01 4.636235e-01 -4.893717e-02 7.633369e-01 8.528678e-01 8.865280e-01 4.048518e+00 7.404681e-01 -1.161323e-01 3.461763e-01 -4.108438e-01 -1.123223e+00 -4.466338e-01 -4.186129e-01 -3.383165e-01 -5.154844e-02 2.340047e-01 -3.148767e-01 -1.439197e-01 2.454226e-01
<VARIANCE> 39
 1.437988e+01 1.648110e+01 2.326867e+01 2.695807e+01 3.761875e+01 3.840491e+01 3.180922e+01 2.697278e+01 2.461207e+01 2.274745e+01 2.274189e+01 2.130352e+01 2.320263e+01 2.197612e+00 2.110208e+00 3.964817e+00 3.576017e+00 6.409205e+00 5.435091e+00 5.227966e+00 5.298828e+00 4.985157e+00 4.209274e+00 3.563250e+00 3.059937e+00 1.625944e+00 3.259521e-01 5.320010e-01 7.933984e-01 8.410769e-01 8.195310e-01 9.010409e-01 9.255563e-01 8.654556e-01 7.439362e-01 7.286731e-01 6.886892e-01 7.716548e-01 3.751207e-01
<GCONST> 1.253422e+02
<MIXTURE> 3 2.588151e-01
<MEAN> 39
 -9.133868e+00 -1.472654e+00 4.366261e+00 -3.675651e+00 -2.818170e+00 -3.870383e+00 -2.424554e+00 -1.930802e+00 -3.855523e+00 -2.719576e+00 -8.483605e-01 -9.530101e-01 6.447720e+01 -1.260646e-01 -1.759213e+00 -7.655321e-01 -3.539397e+00 -3.511351e+00 -2.397315e+00 -7.248392e-01 1.456674e-01 -1.994476e-01 7.760566e-01 3.006916e-01 5.628099e-01 4.331345e+00 6.823191e-01 -1.559246e-01 3.186204e-01 -5.913906e-01 -1.049498e+00 -4.165830e-01 -3.864466e-01 -3.651754e-01 -3.651736e-02 1.553143e-01 -5.804382e-01 -9.370932e-02 2.743542e-01
<VARIANCE> 39
 1.457920e+01 1.684004e+01 2.443607e+01 2.770696e+01 3.776033e+01 3.762987e+01 2.960179e+01 2.693871e+01 2.472873e+01 2.401438e+01 2.247887e+01 2.117144e+01 2.195300e+01 2.221905e+00 2.211085e+00 4.357434e+00 3.366953e+00 6.612796e+00 5.153159e+00 5.270184e+00 5.677324e+00 5.020410e+00 4.349369e+00 3.917741e+00 3.025560e+00 1.643768e+00 3.222222e-01 5.114604e-01 8.201431e-01 7.723701e-01 8.234723e-01 8.907685e-01 8.859445e-01 8.467987e-01 7.344871e-01 7.479271e-01 6.544073e-01 6.957703e-01 3.920751e-01
<GCONST> 1.253586e+02
<MIXTURE> 4 2.154042e-01
<MEAN> 39
 -3.177199e+00 -3.931183e+00 2.177375e+00 -6.164486e+00 -8.648710e+00 -1.286186e+01 -8.508390e+00 -2.118919e+00 -4.749049e-01 -2.893041e+00 -3.846731e+00 -9.483975e-01 6.917844e+01 -1.322991e-01 -1.192479e+00 2.680393e-01 -1.183805e+00 -2.126079e+00 -1.168698e+00 3.344809e-01 9.794002e-01 -2.940878e-01 -1.408547e-01 6.484111e-01 4.351268e-01 1.755393e+00 -4.984487e-03 -2.736672e-01 4.373893e-02 -4.952379e-01 -4.576902e-01 2.633654e-01 2.967067e-01 4.401790e-02 -2.215058e-01 1.644951e-01 8.435278e-02 -2.446783e-01 3.103218e-01
<VARIANCE> 39
 1.138863e+01 2.084896e+01 2.901966e+01 4.507920e+01 4.924376e+01 3.790913e+01 5.333357e+01 4.208448e+01 4.146689e+01 4.878578e+01 4.319652e+01 4.048324e+01 1.869271e+01 1.166677e+00 2.071241e+00 2.259516e+00 3.624768e+00 3.908554e+00 4.078851e+00 4.769342e+00 3.698451e+00 3.704520e+00 2.574449e+00 2.663999e+00 2.519426e+00 2.371499e+00 1.591852e-01 1.575930e-01 2.247317e-01 3.918983e-01 3.961267e-01 3.394317e-01 4.727180e-01 4.509450e-01 3.875086e-01 3.570915e-01 3.435711e-01 3.891135e-01 1.711716e-01
<GCONST> 1.158034e+02
<STATE> 4
<NUMMIXES> 4
<MIXTURE> 1 2.400288e-01
<MEAN> 39
 -2.218676e+00 -4.845496e+00 4.574081e+00 -5.436669e+00 -9.028556e+00 -1.410647e+01 -1.098346e+01 4.407092e-01 -6.272275e-02 -3.726928e-01 2.593215e-02 -1.834549e+00 7.128616e+01 8.072146e-01 -1.669140e+00 -2.045525e-02 -1.225525e+00 -2.913567e+00 -1.821550e+00 -6.269841e-01 1.267865e+00 1.906269e-03 2.952614e-01 9.357057e-01 4.936104e-01 2.114117e+00 1.978770e-04 2.573587e-01 2.014970e-01 2.323007e-01 1.793584e-01 8.252417e-01 5.665259e-01 -2.220654e-01 -2.828592e-01 9.887102e-02 -7.331064e-02 -2.871358e-01 -6.151009e-01
<VARIANCE> 39
 8.350826e+00 1.628319e+01 2.495753e+01 5.213484e+01 4.030317e+01 4.397198e+01 4.735456e+01 5.590051e+01 4.249055e+01 3.927345e+01 4.487043e+01 3.796241e+01 1.316754e+01 1.821773e+00 2.210327e+00 3.517886e+00 4.479196e+00 5.455006e+00 6.066431e+00 5.803068e+00 5.012951e+00 5.334310e+00 4.065646e+00 3.733260e+00 3.863102e+00 1.991044e+00 2.298375e-01 2.017335e-01 2.900383e-01 3.676727e-01 5.310704e-01 5.220095e-01 5.594386e-01 5.187848e-01 5.170860e-01 3.959661e-01 4.185850e-01 4.839723e-01 2.656530e-01
<GCONST> 1.216763e+02
<MIXTURE> 2 2.667061e-01
<MEAN> 39
 -5.657771e+00 -2.760140e+00 5.482588e+00 -7.176387e+00 -1.328984e+01 -1.151863e+01 -2.812553e+00 -2.973190e+00 -3.601499e+00 -2.152662e+00 -1.206085e+00 1.422843e+00 7.051046e+01 1.871703e-01 -1.199113e+00 8.248519e-01 -2.980014e+00 -3.573630e+00 -1.236114e+00 3.888694e-02 -3.662716e-01 -5.278638e-01 1.189364e+00 1.515267e-01 2.860748e-01 2.794178e+00 2.636124e-01 1.589171e-01 3.553003e-01 1.023324e-01 3.857331e-01 5.158554e-01 -1.910260e-01 -1.985054e-01 4.207762e-02 1.456899e-01 -4.101842e-01 -2.892855e-01 -6.280893e-01
<VARIANCE> 39
 1.130754e+01 1.801486e+01 3.570530e+01 3.980550e+01 4.811911e+01 4.869347e+01 3.084237e+01 3.982377e+01 3.465271e+01 3.245734e+01 2.733683e+01 2.119231e+01 1.563078e+01 1.776411e+00 2.678513e+00 4.697777e+00 5.340253e+00 5.854449e+00 4.846024e+00 6.074478e+00 5.039105e+00 4.441755e+00 3.958791e+00 3.546191e+00 3.147264e+00 2.698695e+00 2.274569e-01 2.045124e-01 3.250852e-01 3.931678e-01 5.581132e-01 5.253010e-01 4.713249e-01 5.319074e-01 4.496912e-01 4.781745e-01 3.962915e-01 4.422821e-01 3.125280e-01
<GCONST> 1.209062e+02
<MIXTURE> 3 2.576413e-01
<MEAN> 39
 -6.099792e+00 -3.216753e+00 4.591422e+00 -7.840045e+00 -1.397130e+01 -1.080606e+01 -3.157381e+00 -3.461309e+00 -4.298702e+00 -2.695307e+00 -1.928077e+00 8.560707e-01 7.053897e+01 5.266417e-02 -1.347565e+00 6.368161e-01 -3.342208e+00 -3.733674e+00 -1.059865e+00 4.906579e-02 -5.281011e-01 -6.418122e-01 1.021195e+00 -2.453550e-01 -9.578747e-02 3.106377e+00 2.522258e-01 1.072558e-01 3.283647e-01 2.205447e-03 3.388804e-01 4.394480e-01 -2.411951e-01 -2.535314e-01 2.030531e-02 7.241931e-02 -5.208676e-01 -3.069836e-01 -5.389618e-01
<VARIANCE> 39
 1.195358e+01 1.898505e+01 3.844796e+01 3.773963e+01 4.929111e+01 4.452128e+01 2.899810e+01 4.119983e+01 3.545776e+01 3.375576e+01 2.715307e+01 2.123723e+01 1.554129e+01 1.868928e+00 2.773461e+00 4.934771e+00 4.825424e+00 5.807110e+00 4.752853e+00 6.257361e+00 5.402585e+00 4.508526e+00 4.115978e+00 3.713242e+00 3.008301e+00 2.800779e+00 2.170316e-01 2.006543e-01 3.315225e-01 4.038474e-01 5.456662e-01 4.996363e-01 5.067394e-01 5.460773e-01 4.749129e-01 4.979622e-01 4.172641e-01 4.316033e-01 3.192560e-01
<GCONST> 1.213407e+02
<MIXTURE> 4 2.356245e-01
<MEAN> 39
 -2.605682e+00 -5.440574e+00 3.156164e+00 -7.542525e+00 -9.586133e+00 -1.410536e+01 -1.044734e+01 3.349513e-01 -2.062726e-01 -1.523389e+00 -1.976902e+00 -1.284012e+00 7.138116e+01 6.067640e-01 -1.779729e+00 -2.639208e-01 -1.723416e+00 -2.757403e+00 -1.429445e+00 -4.014547e-01 1.205760e+00 -9.100189e-02 1.748404e-01 5.110983e-01 1.825133e-01 2.295282e+00 4.724601e-02 2.018203e-01 1.465106e-01 1.736467e-01 9.768187e-02 7.617739e-01 4.361290e-01 -2.988602e-01 -3.103808e-01 9.301592e-02 -8.961859e-02 -3.743839e-01 -5.131373e-01
<VARIANCE> 39
 8.400510e+00 1.685718e+01 3.048995e+01 5.391666e+01 4.635277e+01 3.899905e+01 4.830108e+01 4.739984e+01 4.206713e+01 4.227853e+01 4.948251e+01 3.785822e+01 1.266933e+01 1.801405e+00 2.360246e+00 4.124948e+00 4.652586e+00 5.469531e+00 5.394933e+00 6.403463e+00 4.758275e+00 5.284116e+00 3.929657e+00 3.846791e+00 3.359944e+00 2.342353e+00 2.103229e-01 2.064296e-01 2.808898e-01 3.939625e-01 5.031599e-01 4.857921e-01 5.372907e-01 5.192956e-01 4.907767e-01 4.006286e-01 4.237497e-01 4.493631e-01 2.846005e-01
<GCONST> 1.219108e+02
<TRANSP> 5
 0.000000e+00 1.000000e+00 0.000000e+00 0.000000e+00 0.000000e+00
 0.000000e+00 6.146253e-01 3.853747e-01 0.000000e+00 0.000000e+00
 0.000000e+00 0.000000e+00 1.520517e-01 8.479483e-01 0.000000e+00
 0.000000e+00 0.000000e+00 0.000000e+00 9.772163e-02 9.022784e-01
 0.000000e+00 0.000000e+00 0.000000e+00 0.000000e+00 0.000000e+00
<ENDHMM>
~h "f"
<BEGINHMM>
<NUMSTATES> 5
<STATE> 2
<NUMMIXES> 4
<MIXTURE> 1 2.041339e-01
<MEAN> 39
 -9.021389e+00 -8.832448e-01 5.658070e+00 4.147452e-01 6.098989e-01 -1.150876e-01 -1.105963e+00 -7.497706e-02 -2.267594e+00 -1.985389e+00 -1.639389e+00 -1.115728e+00 6.203024e+01 -4.115311e+00 -9.463234e-02 3.981792e-01 2.143668e+00 2.046579e+00 1.814795e+00 1.717743e+00 2.203604e+00 2.361287e+00 1.452366e+00 1.649814e+00 1.508753e+00 -1.392937e+00 6.003893e-03 -7.348903e-01 -4.468860e-01 -8.390970e-01 -6.760964e-01 -3.080178e-01 -1.175673e-01 1.243647e-01 1.558629e-01 3.753383e-01 2.015356e-01 2.550479e-01 5.402722e-01
<VARIANCE> 39
 1.638260e+01 9.415001e+00 1.969421e+01 1.578934e+01 1.782223e+01 2.374895e+01 1.929610e+01 1.997536e+01 2.023345e+01 2.166438e+01 1.939497e+01 1.493729e+01 1.453261e+01 1.547767e+00 2.543108e+00 3.865130e+00 3.172866e+00 3.626219e+00 3.582224e+00 3.234526e+00 3.654792e+00 3.184866e+00 2.958481e+00 3.351920e+00 2.305187e+00 1.350915e+00 3.434480e-01 2.697797e-01 3.490673e-01 4.932470e-01 4.058216e-01 4.999693e-01 4.846373e-01 5.186880e-01 4.568464e-01 4.469970e-01 4.177639e-01 4.185455e-01 1.485084e-01
<GCONST> 1.100320e+02
<MIXTURE> 2 2.951742e-01
<MEAN> 39
 -1.436014e+01 -2.856443e+00 4.553963e+00 1.120300e+00 1.541777e+00 1.647472e+00 1.063620e+00 3.304440e+00 1.616369e+00 1.320440e+00 1.376388e+00 1.746833e+00 6.161123e+01 -2.324484e+00 -9.159503e-01 -5.071605e-01 3.668763e-01 5.345548e-01 6.782268e-01 7.392972e-01 1.374825e+00 1.512699e+00 1.296889e+00 1.220754e+00 1.228483e+00 -1.863170e-01 6.704730e-01 -1.537227e-01 -2.072887e-01 -6.526460e-01 -5.953034e-01 -4.154066e-01 -3.621787e-01 -4.144956e-01 -3.483754e-01 -1.031978e-01 -1.036155e-01 -1.289650e-01 3.941338e-01
<VARIANCE> 39
 1.186117e+01 1.482358e+01 1.524783e+01 1.360912e+01 1.660769e+01 1.805103e+01 2.000830e+01 1.724655e+01 1.915947e+01 1.783305e+01 1.707153e+01 1.632114e+01 3.056954e+01 2.728919e+00 1.723990e+00 2.204719e+00 1.992752e+00 2.346964e+00 2.382720e+00 2.281425e+00 2.743415e+00 2.623392e+00 2.243345e+00 2.426921e+00 2.063785e+00 1.202851e+00 3.602770e-01 2.968574e-01 3.882252e-01 4.540456e-01 5.301555e-01 4.814343e-01 4.801362e-01 5.164254e-01 5.133646e-01 4.442303e-01 4.630683e-01 4.132164e-01 2.410816e-01
<GCONST> 1.074791e+02
<MIXTURE> 3 2.869563e-01
<MEAN> 39
 -1.453675e+01 -3.011004e+00 4.045200e+00 6.268962e-01 9.807172e-01 1.004914e+00 1.617519e-01 2.578164e+00 7.750213e-01 5.065379e-01 5.185784e-01 1.338536e+00 6.242772e+01 -2.212120e+00 -1.113621e+00 -7.753628e-01 1.291854e-01 3.281853e-01 3.889326e-01 4.314415e-01 1.064783e+00 1.256866e+00 9.857591e-01 9.395735e-01 9.884899e-01 -7.922884e-02 7.698084e-01 -1.229933e-01 -1.879278e-01 -6.877350e-01 -6.599777e-01 -4.642853e-01 -3.902524e-01 -4.816593e-01 -4.027210e-01 -1.351130e-01 -1.424663e-01 -1.852704e-01 4.044439e-01
<VARIANCE> 39
 1.264690e+01 1.440392e+01 1.681844e+01 1.371730e+01 1.670301e+01 1.834403e+01 1.902686e+01 1.910021e+01 1.900698e+01 1.748201e+01 1.742392e+01 1.585560e+01 2.608287e+01 2.526714e+00 1.597564e+00 2.025952e+00 1.885319e+00 2.390030e+00 2.350214e+00 2.226241e+00 2.812738e+00 2.600424e+00 2.191868e+00 2.492374e+00 2.092435e+00 1.207155e+00 3.353104e-01 3.025556e-01 4.315828e-01 4.482767e-01 5.533213e-01 5.112038e-01 4.992388e-01 5.746759e-01 5.077062e-01 4.795712e-01 4.782360e-01 4.363472e-01 2.691353e-01
<GCONST> 1.077739e+02
<MIXTURE> 4 2.137295e-01
<MEAN> 39
 -9.031920e+00 -1.229721e+00 5.132436e+00 4.875785e-02 6.704710e-01 -9.421933e-02 -1.382488e+00 -4.875025e-01 -2.720535e+00 -2.353737e+00 -2.160888e+00 -1.545679e+00 6.230392e+01 -4.014329e+00 -3.556823e-01 2.336855e-01 1.911406e+00 1.811113e+00 1.401792e+00 1.371760e+00 2.000109e+00 1.964182e+00 1.081155e+00 1.285161e+00 1.311963e+00 -1.156321e+00 4.686077e-02 -6.921481e-01 -5.095599e-01 -8.330238e-01 -7.098690e-01 -3.526631e-01 -1.721841e-01 4.825140e-02 1.457741e-01 3.536354e-01 1.767375e-01 2.042441e-01 5.299006e-01
<VARIANCE> 39
 1.682290e+01 9.785604e+00 2.080819e+01 1.496301e+01 1.903921e+01 2.510211e+01 1.978289e+01 2.070766e+01 2.048952e+01 2.087165e+01 1.925272e+01 1.553144e+01 1.313091e+01 1.649197e+00 2.504561e+00 3.771886e+00 3.365941e+00 3.800494e+00 3.631438e+00 3.180665e+00 3.630219e+00 3.266922e+00 2.999304e+00 3.318146e+00 2.535649e+00 1.304375e+00 3.312426e-01 2.613248e-01 3.449509e-01 5.024204e-01 4.131802e-01 5.196381e-01 4.699729e-01 5.073440e-01 4.852217e-01 4.531345e-01 4.027264e-01 4.141531e-01 1.477110e-01
<GCONST> 1.103590e+02
<STATE> 3
<NUMMIXES> 4
<MIXTURE> 1 3.020891e-01
<MEAN> 39
 -1.765947e+01 -5.353687e+00 2.459890e+00 1.525618e-01 1.503333e+00 2.029257e+00 1.354442e+00 4.278681e+00 3.143152e+00 3.298984e+00 3.739327e+00 4.208197e+00 6.075875e+01 -3.392517e-01 -2.377883e-01 -1.223248e-01 6.719306e-03 4.750869e-02 1.222344e-01 1.498954e-01 2.266128e-01 2.043719e-01 2.233468e-01 2.879914e-01 2.860948e-01 1.342685e-01 4.501115e-01 4.932854e-02 9.120568e-02 -9.231805e-02 -6.739830e-02 -1.191512e-01 -4.880891e-02 -1.573979e-01 -2.148964e-01 -2.033824e-01 -2.062142e-01 -2.186111e-01 1.389074e-01
<VARIANCE> 39
 1.002156e+01 1.176995e+01 1.390656e+01 9.751901e+00 1.221805e+01 1.334324e+01 1.439400e+01 1.417418e+01 1.456185e+01 1.471762e+01 1.361814e+01 1.224137e+01 1.549347e+01 7.917821e-01 7.336338e-01 8.561360e-01 9.541783e-01 1.017623e+00 1.213874e+00 1.302351e+00 1.289991e+00 1.339010e+00 1.548880e+00 1.413555e+00 1.381641e+00 8.702968e-01 2.254835e-01 1.667033e-01 2.022214e-01 2.335683e-01 2.507095e-01 2.670135e-01 2.910463e-01 3.195386e-01 3.196179e-01 3.260756e-01 3.077016e-01 2.877025e-01 1.548048e-01
<GCONST> 8.827406e+01
<MIXTURE> 2 1.912472e-01
<MEAN> 39
 -1.744424e+01 -6.871127e+00 2.017769e+00 -5.718384e-01 1.108963e+00 1.127792e+00 1.313055e+00 4.504648e+00 3.425084e+00 3.193069e+00 3.296206e+00 3.776090e+00 6.319552e+01 8.088082e-01 -3.096914e-01 -5.435010e-02 -5.217563e-01 -3.467988e-01 -4.020650e-01 -1.004129e-01 -2.194257e-01 -3.208033e-01 -2.226729e-01 -2.070643e-01 -2.230621e-01 5.192291e-01 1.269795e+00 4.399255e-01 2.435943e-01 -5.348850e-01 -6.056039e-01 -3.874556e-01 -4.054936e-01 -6.167649e-01 -7.198809e-01 -4.022567e-01 -3.638057e-01 -4.196046e-01 1.155075e-01
<VARIANCE> 39
 1.051024e+01 1.440223e+01 1.796219e+01 1.372345e+01 1.451031e+01 1.712677e+01 1.745433e+01 1.790094e+01 1.731408e+01 1.663320e+01 1.664238e+01 1.361930e+01 1.568147e+01 2.973254e+00 1.626342e+00 1.965311e+00 1.805516e+00 1.786205e+00 2.157512e+00 1.918107e+00 2.010744e+00 2.157781e+00 1.967562e+00 1.769203e+00 1.717238e+00 1.449742e+00 2.651631e-01 3.412123e-01 4.722343e-01 6.099437e-01 4.734344e-01 5.298185e-01 4.866146e-01 5.427999e-01 4.798448e-01 4.544706e-01 5.316784e-01 3.676149e-01 2.804251e-01
<GCONST> 1.049846e+02
<MIXTURE> 3 3.214641e-01
<MEAN> 39
 -1.764239e+01 -5.523010e+00 1.966390e+00 -3.631201e-01 9.062176e-01 1.434442e+00 5.046098e-01 3.485886e+00 2.321433e+00 2.590996e+00 3.036259e+00 3.626292e+00 6.161498e+01 -3.437659e-01 -3.869682e-01 -3.056001e-01 -2.096856e-01 -1.810537e-01 -1.099979e-01 -8.601014e-02 -3.304010e-02 -2.910097e-03 2.333244e-02 1.082218e-01 1.665338e-01 2.580937e-01 6.315195e-01 6.960954e-02 6.867468e-02 -1.884648e-01 -1.483904e-01 -1.981867e-01 -1.353486e-01 -2.432912e-01 -3.073405e-01 -2.758686e-01 -3.018241e-01 -3.015767e-01 1.600603e-01
<VARIANCE> 39
 9.649536e+00 1.123337e+01 1.410074e+01 9.706605e+00 1.173969e+01 1.346931e+01 1.417752e+01 1.471826e+01 1.447325e+01 1.391290e+01 1.324963e+01 1.212109e+01 1.517684e+01 9.810575e-01 7.404702e-01 8.666799e-01 9.578013e-01 1.031470e+00 1.200860e+00 1.263934e+00 1.343349e+00 1.397272e+00 1.524052e+00 1.454462e+00 1.424567e+00 9.086051e-01 2.551757e-01 1.792272e-01 2.199672e-01 2.498504e-01 2.751811e-01 3.057170e-01 3.046231e-01 3.389789e-01 3.401755e-01 3.308617e-01 3.088591e-01 2.959877e-01 1.823232e-01
<GCONST> 8.940550e+01
<MIXTURE> 4 1.851747e-01
<MEAN> 39
 -1.748895e+01 -6.585839e+00 2.002284e+00 -9.781866e-01 3.139021e-01 7.921567e-01 8.684263e-01 3.868343e+00 2.479819e+00 2.422643e+00 3.058898e+00 3.516311e+00 6.343776e+01 1.555130e+00 -2.374558e-01 -8.264105e-02 -9.869803e-01 -8.488069e-01 -9.324437e-01 -5.926880e-01 -8.689895e-01 -9.090946e-01 -7.938908e-01 -8.117465e-01 -7.251180e-01 7.323450e-01 1.381280e+00 3.600218e-01 1.025204e-01 -8.033951e-01 -7.574598e-01 -5.169929e-01 -5.310248e-01 -7.773824e-01 -7.703659e-01 -3.803913e-01 -6.068594e-01 -5.167057e-01 2.311577e-01
<VARIANCE> 39
 9.227250e+00 1.261960e+01 1.724994e+01 1.277243e+01 1.500129e+01 1.642303e+01 1.626632e+01 1.594161e+01 1.604677e+01 1.620868e+01 1.475033e+01 1.348892e+01 1.641136e+01 3.000456e+00 1.565468e+00 2.297471e+00 1.967409e+00 2.082328e+00 2.154807e+00 1.928812e+00 2.268848e+00 2.164311e+00 1.905972e+00 1.870588e+00 1.669860e+00 1.528399e+00 2.317911e-01 3.882987e-01 5.796543e-01 7.022379e-01 5.012245e-01 5.658990e-01 5.266480e-01 6.171479e-01 5.060847e-01 4.830257e-01 5.309510e-01 3.804572e-01 3.031937e-01
<GCONST> 1.056676e+02
<STATE> 4
<NUMMIXES> 4
<MIXTURE> 1 2.768617e-01
<MEAN> 39
 -1.037482e+01 -5.424264e+00 1.319748e+00 -3.231328e+00 1.127656e-01 -4.434601e-01 -9.086066e-01 1.785383e+00 5.262421e-01 7.809312e-01 6.132585e-01 1.291343e+00 6.444793e+01 4.733143e+00 1.122688e+00 1.265994e-01 -2.238488e+00 -2.451027e+00 -1.272080e+00 -8.522860e-01 -1.003014e+00 -2.117394e+00 -1.038542e+00 -7.424279e-02 -9.290333e-01 6.841319e-01 3.539836e-01 -1.164009e-01 2.588291e-02 -3.906182e-01 -5.771681e-01 -1.438024e-01 -1.827398e-01 -6.617032e-02 -3.355631e-01 1.344536e-01 4.124113e-01 -9.369962e-02 2.837480e-01
<VARIANCE> 39
 3.487830e+01 1.644658e+01 2.283952e+01 2.602635e+01 2.001446e+01 2.919058e+01 1.988960e+01 2.133516e+01 2.179309e+01 1.778305e+01 1.640683e+01 1.366434e+01 1.672605e+01 2.086038e+00 2.725513e+00 4.025122e+00 5.916074e+00 3.007430e+00 4.188367e+00 3.314096e+00 2.807760e+00 3.458209e+00 2.789655e+00 2.936046e+00 2.339798e+00 9.577954e-01 6.179423e-01 4.304686e-01 3.798280e-01 6.622415e-01 5.163083e-01 5.197793e-01 6.215862e-01 4.913200e-01 6.388791e-01 5.179862e-01 4.981272e-01 4.262709e-01 2.285106e-01
<GCONST> 1.155122e+02
<MIXTURE> 2 2.367955e-01
<MEAN> 39
 -1.280571e+01 -5.441697e+00 4.194498e+00 -1.649210e+00 -9.156594e-01 -2.899811e-01 1.404683e+00 2.330306e+00 -6.107974e-02 5.812272e-01 1.530343e+00 2.032562e+00 6.256483e+01 4.508524e+00 1.234244e-01 2.629755e-01 -3.580692e+00 -2.775887e+00 -1.933722e+00 -1.685467e+00 -2.631482e+00 -2.201852e+00 -5.648955e-01 -2.012556e+00 -1.476782e+00 1.726690e+00 4.252150e-01 -1.059981e-01 6.861464e-03 -8.426951e-01 -4.841186e-01 -2.304282e-01 -4.439164e-01 -3.448777e-01 -7.607476e-02 3.563884e-01 -3.001828e-01 -5.810924e-02 4.773992e-01
<VARIANCE> 39
 2.486203e+01 1.082847e+01 3.214107e+01 1.985431e+01 2.420606e+01 2.549690e+01 2.624998e+01 2.370440e+01 2.029289e+01 1.913456e+01 1.710497e+01 1.498487e+01 1.634452e+01 1.670788e+00 3.331791e+00 7.354059e+00 5.613689e+00 4.279240e+00 4.235318e+00 3.782207e+00 4.318977e+00 3.792336e+00 3.275014e+00 3.147187e+00 2.132818e+00 1.668920e+00 4.453360e-01 4.487280e-01 4.156078e-01 6.978506e-01 5.250149e-01 6.884978e-01 6.838677e-01 7.209177e-01 5.778284e-01 5.920126e-01 5.466763e-01 4.492147e-01 2.811898e-01
<GCONST> 1.186367e+02
<MIXTURE> 3 2.735403e-01
<MEAN> 39
 -1.044367e+01 -5.189812e+00 1.110977e+00 -3.442599e+00 -6.353935e-01 -6.594329e-01 -1.505817e+00 1.174700e+00 -3.105488e-01 -1.133880e-01 -7.635646e-02 6.508386e-01 6.438634e+01 4.776801e+00 1.009013e+00 -3.389264e-01 -2.914719e+00 -2.842488e+00 -1.570495e+00 -1.330098e+00 -1.569791e+00 -2.529639e+00 -1.430148e+00 -8.600831e-01 -1.333024e+00 7.719244e-01 3.561746e-01 -8.539438e-02 -8.443739e-02 -5.480284e-01 -6.136906e-01 -1.194589e-01 -2.515228e-01 -1.562451e-01 -3.220947e-01 1.876184e-01 2.364510e-01 -8.660539e-02 3.152917e-01
<VARIANCE> 39
 3.529153e+01 1.630395e+01 2.448494e+01 2.766179e+01 2.211647e+01 2.788383e+01 2.057698e+01 2.152827e+01 2.183096e+01 1.914599e+01 1.551501e+01 1.508953e+01 1.620503e+01 1.791350e+00 2.858461e+00 4.629837e+00 6.578094e+00 3.080359e+00 4.351576e+00 3.489326e+00 2.896885e+00 3.451911e+00 2.906219e+00 3.322994e+00 2.308331e+00 1.013192e+00 6.300673e-01 4.389736e-01 4.028839e-01 7.382410e-01 5.487548e-01 5.522276e-01 6.087179e-01 5.336024e-01 6.649716e-01 5.731447e-01 5.230455e-01 4.277904e-01 2.188144e-01
<GCONST> 1.168620e+02
<MIXTURE> 4 2.128014e-01
<MEAN> 39
 -1.288507e+01 -5.490663e+00 3.987887e+00 -2.301606e+00 -1.881072e+00 -1.248214e+00 5.823643e-01 1.477797e+00 -7.511137e-01 -3.975794e-01 9.578981e-01 1.461746e+00 6.290317e+01 4.529388e+00 -5.873433e-02 -2.701810e-02 -3.953656e+00 -3.089809e+00 -2.189461e+00 -2.127151e+00 -3.112295e+00 -2.548099e+00 -9.410876e-01 -2.640754e+00 -1.964271e+00 1.874000e+00 4.152266e-01 -1.237702e-01 -7.330015e-02 -8.652588e-01 -4.666572e-01 -1.194228e-01 -4.439663e-01 -3.694243e-01 -5.735931e-02 3.238285e-01 -4.280416e-01 -1.570314e-01 4.382134e-01
<VARIANCE> 39
 2.531364e+01 1.020602e+01 3.083725e+01 2.055667e+01 2.542566e+01 2.473506e+01 2.535811e+01 2.562902e+01 2.203340e+01 1.936241e+01 1.711031e+01 1.400841e+01 1.396581e+01 1.456477e+00 3.245617e+00 7.813025e+00 4.680635e+00 4.316929e+00 4.102281e+00 3.806825e+00 4.518464e+00 3.765756e+00 3.130961e+00 2.697014e+00 2.089401e+00 1.675413e+00 4.727030e-01 4.244771e-01 4.103802e-01 7.188370e-01 5.749788e-01 7.237642e-01 6.767024e-01 7.679409e-01 6.342595e-01 6.076440e-01 5.492187e-01 4.624569e-01 2.534454e-01
<GCONST> 1.183053e+02
<TRANSP> 5
 0.000000e+00 1.000000e+00 0.000000e+00 0.000000e+00 0.000000e+00
 0.000000e+00 6.259994e-01 3.740006e-01 0.000000e+00 0.000000e+00
 0.000000e+00 0.000000e+00 8.234594e-01 1.765406e-01 0.000000e+00
 0.000000e+00 0.000000e+00 0.000000e+00 4.174313e-01 5.825687e-01
 0.000000e+00 0.000000e+00 0.000000e+00 0.000000e+00 0.000000e+00
<ENDHMM>
~h "g"
<BEGINHMM>
<NUMSTATES> 5
<STATE> 2
<NUMMIXES> 4
<MIXTURE> 1 2.818921e-01
<MEAN> 39
 -1.845992e+00 -4.989665e-01 6.289433e+00 -1.858579e+00 -4.331359e+00 -5.511317e+00 -5.714824e+00 -3.951457e+00 -4.543876e+00 3.860023e-01 -1.007683e+00 -1.161509e+00 6.077666e+01 -3.820355e-01 7.798873e-01 3.124740e-02 7.807732e-01 1.082210e+00 1.047343e+00 1.076670e+00 1.451556e-01 -1.273257e-01 -1.442427e-01 3.185833e-01 4.838329e-01 -1.461100e+00 -5.369566e-02 -5.484062e-01 -3.336988e-01 -6.616776e-01 -4.037246e-01 -6.591894e-02 7.001308e-02 3.258917e-01 4.542992e-02 4.014707e-02 2.227931e-03 5.298580e-03 7.378253e-01
<VARIANCE> 39
 1.362059e+01 1.975751e+01 2.900060e+01 4.733122e+01 4.637523e+01 5.513218e+01 4.712677e+01 5.458192e+01 4.034245e+01 3.999320e+01 5.275983e+01 3.002655e+01 2.611837e+01 1.246094e+00 1.985955e+00 2.653108e+00 3.878187e+00 4.557269e+00 4.371440e+00 4.457599e+00 3.795925e+00 3.928882e+00 3.348885e+00 3.167684e+00 2.655209e+00 2.045404e+00 2.297951e-01 3.066939e-01 4.228844e-01 6.975481e-01 7.538337e-01 6.751186e-01 7.492383e-01 6.158584e-01 6.351855e-01 5.736016e-01 6.376866e-01 5.722308e-01 3.593840e-01
<GCONST> 1.243288e+02
<MIXTURE> 2 2.068479e-01
<MEAN> 39
 -6.348770e+00 -2.255176e+00 3.353058e+00 -6.865416e-01 1.485022e+00 1.051469e+00 -6.030765e-01 -1.827146e+00 -2.276169e+00 6.419803e-01 -7.518837e-01 1.795765e-02 5.778991e+01 2.205461e-02 -6.585384e-01 -1.581630e+00 -1.574635e+00 2.650866e-01 -1.102259e-01 -5.707107e-02 6.909502e-01 -3.696743e-01 5.676523e-01 3.771136e-01 5.488369e-01 1.129355e+00 6.268768e-01 -3.815988e-02 3.583164e-02 -8.649276e-01 -1.171614e+00 -7.563361e-01 -5.969670e-01 -2.781969e-01 -2.636071e-01 1.289767e-02 -9.526858e-02 -6.543766e-02 8.442438e-01
<VARIANCE> 39
 2.143838e+01 2.437349e+01 5.048882e+01 4.895948e+01 4.937620e+01 4.266741e+01 4.910378e+01 3.705626e+01 4.189293e+01 3.772241e+01 2.963860e+01 2.585452e+01 3.493641e+01 2.128722e+00 3.082254e+00 4.884807e+00 5.043122e+00 6.283731e+00 5.817289e+00 5.475138e+00 4.968246e+00 4.510409e+00 4.551853e+00 3.843732e+00 3.018549e+00 2.225851e+00 2.952032e-01 5.906495e-01 9.700487e-01 1.144623e+00 1.036476e+00 9.469382e-01 8.486101e-01 9.016591e-01 8.165843e-01 8.828405e-01 8.993422e-01 7.115696e-01 5.120632e-01
<GCONST> 1.333578e+02
<MIXTURE> 3 3.203706e-01
<MEAN> 39
 -1.535683e+00 -1.311680e+00 5.441885e+00 -3.625525e+00 -5.949246e+00 -6.528128e+00 -6.150576e+00 -4.821776e+00 -5.478558e+00 2.036213e-01 -2.564906e+00 -1.466446e+00 6.199829e+01 -2.148603e-01 6.761295e-01 -7.186759e-02 4.915940e-01 6.873683e-01 5.568523e-01 7.227922e-01 5.199931e-02 -3.400043e-01 -1.936841e-01 1.581482e-01 1.714123e-01 -9.552341e-01 -9.877762e-03 -5.999269e-01 -3.916398e-01 -7.712477e-01 -5.039861e-01 -1.318881e-01 6.889701e-02 2.975583e-01 4.183809e-02 1.760219e-02 -8.531492e-02 -5.506811e-02 8.560882e-01
<VARIANCE> 39
 1.236281e+01 2.349424e+01 3.056084e+01 4.498211e+01 5.388600e+01 5.292228e+01 4.547995e+01 5.678017e+01 3.845339e+01 4.274505e+01 5.432761e+01 3.149204e+01 2.864336e+01 1.085111e+00 1.956500e+00 2.691839e+00 4.084315e+00 4.295041e+00 4.001444e+00 4.518944e+00 4.117275e+00 3.849124e+00 3.380626e+00 3.090473e+00 2.544549e+00 1.826415e+00 1.873277e-01 2.935335e-01 3.925881e-01 7.082767e-01 7.282959e-01 6.493432e-01 7.371402e-01 6.125253e-01 6.571414e-01 6.084580e-01 6.397840e-01 5.604107e-01 3.634886e-01
<GCONST> 1.240606e+02
<MIXTURE> 4 1.908890e-01
<MEAN> 39
 -6.241834e+00 -2.921886e+00 1.995327e+00 -1.975370e+00 1.297864e+00 1.525683e-01 -1.783937e+00 -2.469133e+00 -3.003195e+00 3.216114e-01 -1.969961e+00 -7.830548e-02 5.902455e+01 2.403528e-01 -6.888533e-01 -1.626783e+00 -1.899212e+00 1.728852e-01 -5.873433e-01 -4.456606e-01 4.983229e-01 -7.853642e-01 4.701832e-01 -1.495781e-01 1.402899e-01 1.504889e+00 6.588863e-01 1.206420e-02 1.082209e-01 -9.853697e-01 -1.357592e+00 -7.773792e-01 -6.174914e-01 -3.742841e-01 -2.445938e-01 -1.133724e-02 -2.798669e-01 -1.276669e-01 8.595065e-01
<VARIANCE> 39
 2.270469e+01 2.650154e+01 5.495626e+01 5.166091e+01 5.629650e+01 4.572146e+01 5.028529e+01 4.164165e+01 4.113428e+01 3.848939e+01 3.198597e+01 2.888218e+01 3.433389e+01 2.213509e+00 3.248693e+00 4.648259e+00 5.096044e+00 7.365943e+00 5.769798e+00 5.556375e+00 5.538882e+00 4.821312e+00 4.652253e+00 4.099782e+00 2.819433e+00 2.157743e+00 3.141254e-01 6.363437e-01 8.938615e-01 1.132535e+00 1.163234e+00 9.528866e-01 8.583879e-01 9.787375e-01 9.028306e-01 9.049412e-01 8.483482e-01 7.307253e-01 5.170770e-01
<GCONST> 1.348923e+02
<STATE> 3
<NUMMIXES> 4
<MIXTURE> 1 2.782023e-01
<MEAN> 39
 -3.752413e-03 -1.714611e+00 4.951336e+00 -4.871349e+00 -8.149432e+00 -8.496540e+00 -6.091517e+00 -7.979121e-01 -6.096619e+00 -8.449754e-01 7.929552e-01 4.335124e-01 6.401609e+01 2.203950e-01 -1.342524e-01 -1.609715e-01 -5.987877e-01 -9.302614e-01 -3.987498e-01 1.679877e-01 1.879164e-01 -1.843758e-01 8.495507e-02 3.788428e-01 5.009086e-02 6.134786e-01 6.739023e-02 -5.456359e-01 -2.399195e-01 -2.984515e-01 -1.671175e-01 1.801902e-02 -1.149929e-01 2.212805e-01 2.373817e-01 1.086245e-01 2.548360e-02 -4.156491e-01 5.775034e-01
<VARIANCE> 39
 9.554893e+00 2.960718e+01 3.084264e+01 5.963261e+01 4.295613e+01 7.917374e+01 4.650938e+01 5.712117e+01 5.413223e+01 4.386066e+01 5.323019e+01 3.687953e+01 2.341463e+01 5.590042e-01 1.422152e+00 1.517563e+00 3.114925e+00 2.598142e+00 2.394512e+00 2.801663e+00 2.948991e+00 2.606884e+00 2.576085e+00 2.599420e+00 2.203540e+00 1.099848e+00 8.012161e-02 2.239096e-01 2.720682e-01 3.392416e-01 4.089718e-01 5.024322e-01 5.541952e-01 4.864511e-01 5.411403e-01 4.935658e-01 4.115367e-01 4.911590e-01 2.151624e-01
<GCONST> 1.146205e+02
<MIXTURE> 2 2.181199e-01
<MEAN> 39
 -3.582602e+00 -2.483824e+00 1.443890e+00 -5.507475e+00 -1.817420e+00 -4.104051e+00 -4.909347e+00 -2.542281e+00 -5.113507e+00 1.780912e+00 -1.115753e+00 -1.082643e-01 6.352973e+01 1.124338e+00 -6.869326e-01 -5.498042e-01 -2.565296e+00 -2.295336e+00 -1.677946e+00 -8.867763e-01 2.733445e-01 -5.188686e-01 4.877008e-01 3.123602e-02 1.655288e-01 2.350090e+00 3.330457e-01 -1.754298e-01 2.578109e-01 -2.592461e-01 -7.774930e-01 -4.926533e-02 -6.222672e-04 -1.094722e-01 1.929244e-01 -1.768671e-01 -8.444460e-02 -1.888846e-01 2.700993e-01
<VARIANCE> 39
 2.006499e+01 2.468739e+01 4.704715e+01 4.951259e+01 5.826798e+01 7.098189e+01 6.348129e+01 4.528754e+01 4.451148e+01 4.938811e+01 5.118145e+01 3.009199e+01 2.704131e+01 2.383294e+00 3.568283e+00 3.928211e+00 5.926574e+00 6.731263e+00 5.220778e+00 5.065221e+00 6.503549e+00 5.666131e+00 5.184605e+00 5.595082e+00 3.623446e+00 2.003144e+00 2.260649e-01 5.215564e-01 6.050739e-01 6.564143e-01 1.089385e+00 9.726390e-01 1.170220e+00 9.349583e-01 7.865328e-01 8.618165e-01 6.609815e-01 7.181702e-01 3.942194e-01
<GCONST> 1.347080e+02
<MIXTURE> 3 2.151388e-01
<MEAN> 39
 -4.183118e+00 -3.129501e+00 2.965258e-02 -6.631930e+00 -1.428623e+00 -4.323636e+00 -4.614625e+00 -3.315935e+00 -4.992868e+00 2.268847e+00 -2.834332e+00 6.850104e-02 6.343104e+01 1.139681e+00 -7.659956e-01 -9.543254e-01 -3.165511e+00 -2.166329e+00 -1.764950e+00 -8.163992e-01 1.578431e-01 -7.742766e-01 3.251559e-01 -6.470003e-01 -2.421454e-01 2.570925e+00 3.379764e-01 -1.843008e-01 2.195311e-01 -4.225191e-01 -8.921244e-01 -7.542705e-02 -6.842212e-02 -1.701363e-01 1.114844e-01 -3.057345e-01 -2.058077e-01 -2.425888e-01 3.891056e-01
<VARIANCE> 39
 2.168745e+01 2.476852e+01 4.913047e+01 4.808104e+01 6.310981e+01 6.535886e+01 6.320930e+01 5.360006e+01 4.145867e+01 4.771125e+01 4.611157e+01 3.034051e+01 2.349238e+01 2.397796e+00 3.559349e+00 3.576777e+00 5.795612e+00 6.873683e+00 5.314559e+00 4.782794e+00 6.823415e+00 5.246707e+00 5.102405e+00 5.352741e+00 3.449632e+00 2.260929e+00 2.211995e-01 5.225117e-01 6.171061e-01 6.533375e-01 1.035920e+00 1.011496e+00 1.105099e+00 9.785774e-01 7.937580e-01 8.728955e-01 6.595699e-01 6.507537e-01 3.602095e-01
<GCONST> 1.342770e+02
<MIXTURE> 4 2.885385e-01
<MEAN> 39
 -6.448294e-01 -1.572896e+00 4.397920e+00 -5.695162e+00 -9.820251e+00 -7.651608e+00 -5.705555e+00 -2.637089e+00 -7.054825e+00 2.478637e-01 -1.713189e+00 -3.519145e-01 6.382998e+01 2.026041e-01 -1.874756e-01 -3.791746e-01 -8.221091e-01 -1.035988e+00 -4.281828e-01 1.615036e-01 1.604256e-01 -2.501042e-01 4.761774e-03 2.545351e-01 -1.951966e-01 7.705990e-01 3.647908e-02 -5.489590e-01 -2.794346e-01 -4.157841e-01 -2.495913e-01 -8.933238e-02 -1.117676e-01 2.037922e-01 2.129975e-01 1.584796e-02 -7.633913e-02 -3.452656e-01 6.611413e-01
<VARIANCE> 39
 1.088768e+01 3.104813e+01 3.317678e+01 4.803886e+01 5.058298e+01 6.433821e+01 4.492263e+01 5.545702e+01 4.781847e+01 4.487177e+01 5.979705e+01 3.710731e+01 2.439822e+01 6.154509e-01 1.373809e+00 1.613133e+00 3.328844e+00 2.720153e+00 2.307782e+00 2.803182e+00 3.118460e+00 2.701497e+00 2.506570e+00 2.645307e+00 2.074072e+00 1.184728e+00 8.969299e-02 2.195571e-01 2.756526e-01 3.708609e-01 4.194668e-01 4.993702e-01 5.760173e-01 4.868115e-01 5.706293e-01 5.020375e-01 4.159667e-01 4.919894e-01 2.252801e-01
<GCONST> 1.152860e+02
<STATE> 4
<NUMMIXES> 4
<MIXTURE> 1 2.687637e-01
<MEAN> 39
 -1.597381e+00 -6.594616e+00 5.298864e+00 -6.406758e+00 -1.380217e+01 -1.226940e+01 -5.789492e+00 1.043239e+00 -5.135128e+00 4.661145e-01 5.106837e-01 -1.539887e+00 7.068393e+01 3.842995e-01 -1.065295e+00 -3.375145e-01 -3.854223e-01 -7.546986e-01 -7.945313e-02 -3.400916e-01 5.617728e-01 8.833513e-01 -1.501473e-01 3.216610e-01 -6.684349e-01 9.195099e-01 5.163056e-02 1.899890e-01 2.694888e-03 3.751147e-01 8.495821e-01 5.250154e-01 -8.385509e-02 -1.049227e-01 2.583897e-01 -1.207843e-01 -1.469242e-01 -3.654080e-02 -6.564024e-01
<VARIANCE> 39
 1.222729e+01 2.473838e+01 3.558440e+01 5.687857e+01 6.181408e+01 7.966930e+01 5.992594e+01 9.264699e+01 5.461889e+01 4.079937e+01 7.171829e+01 5.000454e+01 1.823746e+01 6.696496e-01 1.436725e+00 1.849998e+00 3.283040e+00 4.909359e+00 2.987329e+00 3.651165e+00 3.862425e+00 3.289863e+00 3.169005e+00 2.746228e+00 2.563385e+00 1.665436e+00 1.435705e-01 3.016244e-01 3.204487e-01 5.442229e-01 8.092120e-01 6.724569e-01 7.092003e-01 7.234017e-01 5.208986e-01 5.629262e-01 5.832503e-01 5.486538e-01 3.477528e-01
<GCONST> 1.232421e+02
<MIXTURE> 2 2.404506e-01
<MEAN> 39
 7.375615e-01 -1.378453e+00 8.037679e-01 -1.204111e+01 -7.164920e+00 -5.443699e+00 -6.180179e+00 -4.143949e+00 -7.570839e+00 2.872331e+00 -1.004879e+00 -8.174307e-01 6.587759e+01 1.010696e+00 -8.807358e-01 -5.202197e-01 -2.281847e+00 -2.126827e+00 -7.588913e-01 -2.985540e-01 1.585469e-01 -8.526276e-02 1.367593e-01 -3.648849e-02 -2.619022e-01 2.025950e+00 -1.463416e-01 -2.596408e-01 1.495440e-01 4.565067e-01 1.331166e-01 3.689692e-01 1.661969e-01 9.468488e-02 3.738932e-01 -3.757177e-01 3.898729e-02 -1.035116e-01 -1.403826e-01
<VARIANCE> 39
 1.300697e+01 2.712253e+01 4.106596e+01 5.709761e+01 4.741088e+01 5.869335e+01 5.944389e+01 5.870939e+01 5.801532e+01 6.433310e+01 7.400220e+01 3.155792e+01 1.938082e+01 1.650292e+00 3.076430e+00 2.828933e+00 5.471822e+00 6.074574e+00 4.663422e+00 4.886560e+00 6.284978e+00 5.662781e+00 4.067267e+00 4.139380e+00 4.287275e+00 1.866565e+00 1.447409e-01 2.498505e-01 3.852957e-01 5.366530e-01 7.626047e-01 7.150381e-01 7.541907e-01 7.674342e-01 6.689094e-01 8.961678e-01 7.336742e-01 4.446706e-01 2.686202e-01
<GCONST> 1.291113e+02
<MIXTURE> 3 2.626273e-01
<MEAN> 39
 -1.914704e+00 -6.850347e+00 4.902291e+00 -6.880558e+00 -1.486837e+01 -1.222366e+01 -5.467398e+00 4.505829e-01 -5.435647e+00 4.271574e-01 -4.808454e-01 -1.982829e+00 7.056026e+01 2.781211e-01 -1.209628e+00 -5.064992e-01 -6.611219e-01 -9.504614e-01 -2.130984e-01 -2.093623e-01 5.773306e-01 7.161156e-01 -3.580280e-01 1.380512e-01 -9.122992e-01 1.199287e+00 6.105133e-02 1.176978e-01 -6.083001e-02 2.734953e-01 7.624022e-01 4.062755e-01 -1.299590e-01 -9.682139e-02 2.150541e-01 -8.918605e-02 -2.049130e-01 -8.835407e-02 -4.888150e-01
<VARIANCE> 39
 1.296391e+01 2.580722e+01 3.631710e+01 5.216924e+01 5.968660e+01 7.067035e+01 6.061170e+01 9.710768e+01 5.286898e+01 4.278347e+01 7.971279e+01 4.905388e+01 1.861529e+01 6.466777e-01 1.447679e+00 1.847475e+00 3.165217e+00 4.677328e+00 3.136178e+00 3.566834e+00 3.743582e+00 3.076942e+00 3.037636e+00 2.810640e+00 2.627583e+00 1.605937e+00 1.379034e-01 2.940063e-01 2.965637e-01 5.210973e-01 7.369950e-01 6.189357e-01 6.761990e-01 6.927330e-01 5.055707e-01 5.323178e-01 5.733894e-01 5.288507e-01 3.571416e-01
<GCONST> 1.225179e+02
<MIXTURE> 4 2.281588e-01
<MEAN> 39
 1.094470e-01 -1.415528e+00 -4.605772e-01 -1.305022e+01 -7.255587e+00 -5.839197e+00 -5.666269e+00 -4.535714e+00 -7.503679e+00 2.338220e+00 -2.721023e+00 -1.189411e+00 6.568787e+01 1.049752e+00 -8.568608e-01 -8.496549e-01 -2.787016e+00 -2.149728e+00 -9.234540e-01 -3.002065e-01 3.845799e-02 -3.178312e-01 -1.786776e-01 -4.377005e-01 -6.783289e-01 2.242305e+00 -1.475467e-01 -3.092650e-01 1.136388e-01 4.244044e-01 9.454049e-02 3.883208e-01 8.517326e-02 7.415005e-03 3.075613e-01 -3.646665e-01 -1.797582e-02 -1.481554e-01 -4.793336e-02
<VARIANCE> 39
 1.541963e+01 2.931668e+01 4.268128e+01 5.133950e+01 5.011794e+01 5.554596e+01 5.828864e+01 5.965673e+01 5.209602e+01 5.969640e+01 7.206213e+01 2.942699e+01 2.049552e+01 1.821603e+00 3.190322e+00 2.730554e+00 5.561469e+00 5.922488e+00 4.648023e+00 4.828264e+00 6.070648e+00 5.431242e+00 4.519255e+00 4.271782e+00 3.897254e+00 2.012584e+00 1.422852e-01 2.527416e-01 3.871353e-01 5.209088e-01 7.521046e-01 7.353747e-01 7.230498e-01 7.415667e-01 7.388802e-01 8.765255e-01 6.901991e-01 4.192042e-01 2.602352e-01
<GCONST> 1.290137e+02
<TRANSP> 5
 0.000000e+00 1.000000e+00 0.000000e+00 0.000000e+00 0.000000e+00
 0.000000e+00 5.594016e-01 4.405984e-01 0.000000e+00 0.000000e+00
 0.000000e+00 0.000000e+00 2.635238e-01 7.364762e-01 0.000000e+00
 0.000000e+00 0.000000e+00 0.000000e+00 3.738748e-01 6.261252e-01
 0.000000e+00 0.000000e+00 0.000000e+00 0.000000e+00 0.000000e+00
<ENDHMM>
~h "k"
<BEGINHMM>
<NUMSTATES> 5
<STATE> 2
<NUMMIXES> 4
<MIXTURE> 1 2.391680e-01
<MEAN> 39
 -5.716043e+00 -9.800741e-01 7.773135e+00 8.234737e-01 -2.783747e+00 -4.111557e+00 -1.213176e+00 -8.512358e-01 -2.048409e+00 6.763142e-01 -1.021938e+00 -2.250558e-01 5.804327e+01 -1.845363e+00 1.364200e-01 -2.084715e-01 2.443104e+00 2.770380e+00 2.698103e+00 2.046295e+00 1.347617e+00 2.660820e+00 9.533347e-01 1.619876e+00 1.123382e+00 -3.623043e+00 -1.664546e-01 -8.227825e-01 -5.683978e-01 -8.976046e-01 -4.083702e-01 6.360184e-02 5.605213e-02 3.190109e-01 1.764274e-01 1.996757e-01 2.749917e-01 2.125968e-01 7.376260e-01
<VARIANCE> 39
 1.217953e+01 1.549519e+01 3.103445e+01 2.910371e+01 4.047313e+01 4.410404e+01 3.606695e+01 4.332428e+01 3.231972e+01 3.245509e+01 3.464007e+01 2.292362e+01 1.267264e+01 1.263894e+00 2.434689e+00 3.807642e+00 4.071523e+00 4.394242e+00 3.850129e+00 3.835002e+00 5.419039e+00 3.925320e+00 3.613245e+00 5.087902e+00 2.847262e+00 1.600199e+00 1.910650e-01 2.577806e-01 3.548003e-01 4.260453e-01 5.169104e-01 5.750758e-01 5.783560e-01 5.793937e-01 5.699852e-01 5.625279e-01 5.096215e-01 4.223495e-01 2.552089e-01
<GCONST> 1.190140e+02
<MIXTURE> 2 2.674123e-01
<MEAN> 39
 -8.812734e+00 -2.542194e+00 5.600003e+00 1.622907e+00 6.351418e-01 1.052859e+00 1.818154e+00 1.264230e+00 1.803391e+00 2.382751e+00 1.859218e+00 1.661458e+00 5.415843e+01 -1.420820e+00 -9.594100e-01 -5.734602e-01 6.603709e-01 1.100145e+00 1.602320e+00 1.550975e+00 1.314813e+00 1.905147e+00 1.148418e+00 1.495450e+00 1.290002e+00 -1.783867e+00 2.115509e-01 -4.345182e-01 -5.292765e-01 -1.062581e+00 -5.460466e-01 -4.787939e-01 -4.002859e-01 -6.690087e-02 -5.151679e-01 4.077101e-02 -1.672668e-01 3.589140e-02 1.180679e+00
<VARIANCE> 39
 1.212891e+01 1.156145e+01 2.017044e+01 2.217819e+01 2.489545e+01 2.913136e+01 2.491591e+01 2.939036e+01 2.672726e+01 2.695101e+01 2.531284e+01 2.209190e+01 8.129326e+00 1.751742e+00 1.677301e+00 3.043989e+00 3.339504e+00 3.765424e+00 3.566062e+00 3.100740e+00 3.732142e+00 3.792161e+00 2.909960e+00 3.225274e+00 2.299006e+00 1.785442e+00 2.558149e-01 3.273049e-01 5.926145e-01 5.834513e-01 6.398482e-01 6.008710e-01 5.405193e-01 6.596429e-01 6.406627e-01 6.347848e-01 6.253251e-01 4.882846e-01 3.769200e-01
<GCONST> 1.157440e+02
<MIXTURE> 3 2.420917e-01
<MEAN> 39
 -5.602958e+00 -1.076392e+00 7.433580e+00 7.358090e-01 -2.523767e+00 -3.908409e+00 -1.521180e+00 -1.257532e+00 -2.446937e+00 2.190235e-01 -1.615419e+00 -7.566541e-01 5.794541e+01 -1.765891e+00 -7.193797e-02 -2.079907e-01 2.130661e+00 2.509476e+00 2.379973e+00 1.666606e+00 1.202255e+00 2.273334e+00 5.989667e-01 1.369077e+00 8.305572e-01 -3.299764e+00 -1.608052e-01 -8.308961e-01 -6.570519e-01 -9.805733e-01 -4.608823e-01 -2.771738e-02 1.544055e-02 2.678991e-01 8.574077e-02 1.883025e-01 2.006542e-01 1.706990e-01 8.868768e-01
<VARIANCE> 39
 1.170440e+01 1.535186e+01 3.192040e+01 2.880996e+01 3.754444e+01 4.383124e+01 3.379391e+01 4.361035e+01 3.117072e+01 3.465471e+01 3.277849e+01 2.339400e+01 1.269923e+01 1.286860e+00 2.399189e+00 3.992429e+00 4.059499e+00 4.475467e+00 3.994593e+00 3.953171e+00 5.041786e+00 4.070163e+00 3.500737e+00 4.816015e+00 2.913586e+00 1.759039e+00 1.988708e-01 2.733273e-01 3.975295e-01 4.410686e-01 5.082431e-01 5.809231e-01 5.903965e-01 6.021939e-01 5.740250e-01 5.922145e-01 5.365322e-01 4.409001e-01 2.812437e-01
<GCONST> 1.195175e+02
<MIXTURE> 4 2.513117e-01
<MEAN> 39
 -8.620705e+00 -2.635734e+00 5.376841e+00 1.082734e+00 -1.419178e-01 3.432658e-01 1.202309e+00 9.691206e-01 1.183734e+00 1.938944e+00 1.229852e+00 9.782816e-01 5.430877e+01 -1.335434e+00 -1.119436e+00 -7.738259e-01 3.186166e-01 9.451167e-01 1.275081e+00 1.107504e+00 1.054478e+00 1.474361e+00 7.965947e-01 1.082962e+00 1.004222e+00 -1.305153e+00 2.155871e-01 -4.924182e-01 -6.406401e-01 -1.116710e+00 -5.295540e-01 -5.543960e-01 -4.593484e-01 -9.397099e-02 -6.471075e-01 2.035750e-02 -2.122636e-01 -1.546866e-02 1.439208e+00
<VARIANCE> 39
 1.250017e+01 1.191135e+01 2.188860e+01 2.248651e+01 2.599553e+01 3.167110e+01 2.445249e+01 3.202109e+01 2.758070e+01 2.899973e+01 2.746051e+01 2.310032e+01 8.460361e+00 1.741646e+00 1.794294e+00 3.119555e+00 3.322237e+00 3.797951e+00 3.610703e+00 3.143851e+00 3.689255e+00 3.933161e+00 2.898430e+00 3.170240e+00 2.487392e+00 2.092828e+00 2.827652e-01 3.442189e-01 6.510994e-01 6.141236e-01 7.319707e-01 7.024345e-01 5.928793e-01 7.103299e-01 7.283580e-01 6.607932e-01 7.172112e-01 5.255150e-01 4.404556e-01
<GCONST> 1.180091e+02
<STATE> 3
<NUMMIXES> 4
<MIXTURE> 1 2.915180e-01
<MEAN> 39
 -1.010888e+01 -4.191683e+00 4.583342e+00 8.349972e-01 1.052446e+00 3.148612e+00 3.702004e+00 2.510204e+00 4.247563e+00 3.697903e+00 4.020963e+00 4.156718e+00 5.180695e+01 -4.602987e-01 -5.007843e-01 -7.289781e-01 -4.445105e-01 3.530050e-01 5.665765e-01 4.857734e-01 4.635540e-01 4.019905e-01 4.539078e-01 5.113361e-01 5.737767e-01 -1.541535e-01 2.469678e-01 -3.212235e-02 -2.784021e-01 -5.449159e-01 -2.054189e-01 -4.225332e-01 -3.604353e-01 -1.645299e-01 -5.687011e-01 -9.662039e-02 -3.911597e-01 -1.814719e-01 8.935310e-01
<VARIANCE> 39
 3.345261e+00 4.998353e+00 8.611799e+00 1.081336e+01 1.453351e+01 1.589788e+01 1.528590e+01 1.714726e+01 1.641386e+01 1.750961e+01 1.587000e+01 1.368265e+01 5.871029e+00 9.040803e-01 1.093951e+00 2.142072e+00 2.598306e+00 1.987059e+00 2.362368e+00 2.036303e+00 2.248623e+00 2.640715e+00 2.135597e+00 2.020805e+00 1.691476e+00 1.624911e+00 2.191797e-01 2.141274e-01 5.232973e-01 5.466302e-01 4.867197e-01 4.899090e-01 4.429425e-01 5.174813e-01 5.367408e-01 4.821259e-01 4.377196e-01 3.417064e-01 3.163964e-01
<GCONST> 9.944846e+01
<MIXTURE> 2 2.112247e-01
<MEAN> 39
 -1.108043e+01 -5.174637e+00 3.189882e+00 8.863677e-01 1.765991e+00 1.989861e+00 3.160523e+00 3.088437e+00 3.333365e+00 4.473081e+00 3.808706e+00 4.426550e+00 5.393683e+01 -4.960931e-01 -1.637558e+00 -2.518484e+00 -1.857650e+00 6.109262e-01 -2.278614e-01 -1.569158e-01 7.990699e-01 -5.600945e-01 8.500187e-01 -1.029665e-02 6.665188e-01 2.394415e+00 5.433850e-01 3.094166e-01 -7.782412e-02 -7.540629e-01 -6.105951e-01 -6.132232e-01 -5.498890e-01 -3.642220e-01 -7.406997e-01 -3.000287e-01 -4.582744e-01 -4.122159e-01 1.020946e+00
<VARIANCE> 39
 1.088547e+01 1.502525e+01 1.910775e+01 2.374518e+01 2.838406e+01 3.061566e+01 2.438536e+01 2.530809e+01 2.461033e+01 2.366040e+01 2.049402e+01 1.735240e+01 1.680085e+01 2.801720e+00 2.732446e+00 4.821851e+00 6.168696e+00 5.656032e+00 6.148246e+00 4.670573e+00 4.692914e+00 5.289968e+00 4.287354e+00 3.873855e+00 3.045369e+00 3.964332e+00 3.515166e-01 3.971692e-01 5.791140e-01 6.251600e-01 7.639514e-01 7.112218e-01 5.886177e-01 7.004095e-01 7.001390e-01 6.158026e-01 6.299214e-01 4.514587e-01 4.495336e-01
<GCONST> 1.227983e+02
<MIXTURE> 3 3.034520e-01
<MEAN> 39
 -1.011766e+01 -4.510980e+00 4.058761e+00 1.265263e-01 4.831301e-01 2.698617e+00 3.152345e+00 2.035156e+00 3.679376e+00 3.133704e+00 3.398929e+00 3.656766e+00 5.208637e+01 -4.221765e-01 -6.390136e-01 -8.209181e-01 -5.574043e-01 2.246126e-01 2.555991e-01 1.849929e-01 2.240747e-01 -4.424391e-02 1.432895e-01 1.224636e-01 3.150613e-01 3.041101e-01 2.833930e-01 -6.580182e-02 -3.811951e-01 -6.146167e-01 -2.402018e-01 -5.372483e-01 -4.203965e-01 -2.185825e-01 -6.463950e-01 -1.244584e-01 -4.887680e-01 -2.291100e-01 1.114102e+00
<VARIANCE> 39
 3.382169e+00 4.921421e+00 8.893181e+00 1.071255e+01 1.433167e+01 1.564452e+01 1.486678e+01 1.723741e+01 1.681097e+01 1.773560e+01 1.574845e+01 1.347609e+01 6.012579e+00 9.983539e-01 1.253361e+00 2.397544e+00 2.742140e+00 2.157815e+00 2.521812e+00 2.056743e+00 2.294443e+00 2.651325e+00 2.132164e+00 1.999142e+00 1.655587e+00 2.236375e+00 2.466731e-01 2.309915e-01 5.609138e-01 5.579569e-01 5.365149e-01 5.276318e-01 4.652932e-01 5.620086e-01 5.822927e-01 5.062861e-01 4.595471e-01 3.587147e-01 3.520744e-01
<GCONST> 1.012428e+02
<MIXTURE> 4 1.937622e-01
<MEAN> 39
 -1.079298e+01 -5.327255e+00 2.854624e+00 1.787988e-01 1.216938e+00 1.707882e+00 2.812032e+00 2.651935e+00 2.874137e+00 4.036433e+00 3.275334e+00 4.066168e+00 5.408654e+01 -3.218715e-01 -1.715562e+00 -2.499468e+00 -1.973980e+00 3.085007e-01 -6.503955e-01 -6.108255e-01 3.399175e-01 -1.113803e+00 3.735361e-01 -6.149532e-01 3.111227e-01 3.060576e+00 6.816983e-01 2.904606e-01 -1.272030e-01 -8.971053e-01 -7.766773e-01 -7.799023e-01 -6.722574e-01 -5.145247e-01 -8.674644e-01 -3.919093e-01 -6.171802e-01 -5.441126e-01 1.214844e+00
<VARIANCE> 39
 1.069199e+01 1.432539e+01 1.938688e+01 2.159701e+01 2.646751e+01 2.745734e+01 2.429075e+01 2.547332e+01 2.419530e+01 2.396784e+01 1.967625e+01 1.769804e+01 1.681201e+01 2.591315e+00 2.814604e+00 4.770374e+00 5.397028e+00 5.973047e+00 6.275136e+00 4.569447e+00 4.935473e+00 4.775921e+00 4.236878e+00 3.944196e+00 3.217450e+00 3.267124e+00 3.134274e-01 3.907217e-01 5.659903e-01 6.076673e-01 7.998345e-01 7.020392e-01 6.024408e-01 7.247220e-01 6.945066e-01 6.098408e-01 6.806048e-01 4.751680e-01 4.000555e-01
<GCONST> 1.220299e+02
<STATE> 4
<NUMMIXES> 4
<MIXTURE> 1 2.592580e-01
<MEAN> 39
 -1.097718e+01 -7.281332e+00 -3.604290e+00 -6.930319e+00 2.099246e+00 1.581251e+00 1.541012e+00 4.183014e+00 -1.543629e-01 5.036913e+00 3.396318e+00 3.888254e+00 6.151881e+01 1.218567e-01 6.529625e-01 -3.711065e-01 -1.192061e+00 -5.753471e-01 -3.356049e-01 -2.841939e-01 -1.186521e-01 -7.901751e-01 -2.801087e-01 -1.326791e-02 -1.466942e-01 1.531521e+00 5.258409e-01 6.349132e-01 1.007995e+00 3.919438e-01 -6.449798e-01 -2.872424e-01 -1.998104e-01 -4.766440e-01 -1.302774e-01 -4.902228e-01 -1.455370e-01 -3.517914e-01 -2.867493e-01
<VARIANCE> 39
 3.265414e+01 2.755734e+01 5.594018e+01 7.422083e+01 5.389542e+01 5.204839e+01 4.146972e+01 3.779488e+01 4.602179e+01 3.757124e+01 3.041574e+01 2.383602e+01 2.661280e+01 4.460169e+00 2.909709e+00 6.117227e+00 5.311802e+00 4.801644e+00 4.053469e+00 3.231375e+00 3.909837e+00 3.709633e+00 3.761818e+00 2.776880e+00 2.509259e+00 3.333663e+00 5.103967e-01 5.991271e-01 7.911162e-01 9.776712e-01 9.900647e-01 9.295943e-01 8.735993e-01 8.130627e-01 8.721345e-01 7.362790e-01 6.223768e-01 5.968320e-01 4.661970e-01
<GCONST> 1.326972e+02
<MIXTURE> 2 2.534242e-01
<MEAN> 39
 -9.149439e+00 -6.592343e+00 -2.917441e+00 -6.774597e+00 9.148913e-01 -1.478899e+00 -4.525732e-01 2.479253e+00 -2.322273e+00 4.650068e+00 1.872627e-01 3.307554e+00 6.409503e+01 2.679706e+00 9.670632e-01 3.671245e-01 -2.430821e+00 -2.783172e+00 -2.082367e+00 -1.667859e+00 -1.116630e+00 -1.981708e+00 -1.023938e+00 -1.059742e+00 -1.563292e+00 2.732423e+00 6.144518e-01 9.647279e-02 6.100373e-01 -6.400714e-02 -6.478562e-01 -1.969560e-02 -5.582109e-02 -1.503236e-01 1.348743e-01 -3.266238e-01 1.720537e-01 -4.605698e-01 -2.388066e-01
<VARIANCE> 39
 3.087096e+01 3.309218e+01 5.443864e+01 5.191570e+01 6.211010e+01 5.770034e+01 4.307249e+01 4.721586e+01 4.311917e+01 4.067018e+01 3.305397e+01 2.690437e+01 2.639005e+01 1.644402e+00 2.655992e+00 5.477561e+00 4.729432e+00 5.329112e+00 4.403410e+00 3.912827e+00 5.074302e+00 3.908460e+00 4.044907e+00 4.168856e+00 3.173071e+00 2.298105e+00 4.478346e-01 7.034404e-01 8.495908e-01 8.604357e-01 1.160912e+00 1.093437e+00 1.035205e+00 9.334682e-01 9.613835e-01 9.155928e-01 8.045006e-01 7.165057e-01 4.823256e-01
<GCONST> 1.342636e+02
<MIXTURE> 3 2.574475e-01
<MEAN> 39
 -1.062232e+01 -8.017202e+00 -4.105140e+00 -8.038555e+00 1.828797e+00 1.635914e+00 1.287375e+00 3.655706e+00 -7.974743e-01 4.928110e+00 2.574649e+00 3.754886e+00 6.211864e+01 7.231778e-01 5.626829e-01 -6.411998e-01 -1.763828e+00 -9.999245e-01 -8.371658e-01 -9.552564e-01 -6.770097e-01 -1.432212e+00 -6.357935e-01 -6.464108e-01 -5.994937e-01 2.152621e+00 7.348481e-01 6.839254e-01 9.808015e-01 2.036392e-01 -8.673740e-01 -4.941290e-01 -3.676430e-01 -6.798591e-01 -2.640696e-01 -5.833327e-01 -2.828391e-01 -4.796145e-01 -1.494160e-01
<VARIANCE> 39
 3.295583e+01 2.968475e+01 5.919083e+01 6.733126e+01 5.577409e+01 5.003334e+01 4.285585e+01 4.017451e+01 4.345050e+01 3.783320e+01 3.005110e+01 2.508899e+01 2.444833e+01 3.485742e+00 3.094514e+00 6.270667e+00 5.270494e+00 5.209486e+00 4.276072e+00 3.334505e+00 4.278242e+00 3.764354e+00 3.966678e+00 2.922074e+00 2.610413e+00 3.307216e+00 4.817475e-01 6.301620e-01 7.801526e-01 1.029777e+00 1.039448e+00 9.470936e-01 9.303195e-01 8.913040e-01 9.103528e-01 7.685374e-01 6.731749e-01 6.487911e-01 4.427088e-01
<GCONST> 1.334199e+02
<MIXTURE> 4 2.298329e-01
<MEAN> 39
 -9.544989e+00 -7.107278e+00 -3.514903e+00 -7.032987e+00 8.800023e-01 -1.431894e+00 2.119338e-02 1.139193e+00 -2.207021e+00 4.211927e+00 -9.200393e-01 3.822472e+00 6.429792e+01 2.556290e+00 6.586521e-01 -1.256718e-01 -3.334316e+00 -2.990841e+00 -2.258976e+00 -2.040799e+00 -1.715722e+00 -2.552131e+00 -1.200455e+00 -2.095913e+00 -1.847337e+00 3.203788e+00 5.865147e-01 9.529942e-02 5.503713e-01 -2.684748e-01 -7.109628e-01 -2.099648e-02 -1.132208e-01 -2.087948e-01 1.356788e-02 -3.632990e-01 -4.652995e-02 -5.551060e-01 -1.586477e-01
<VARIANCE> 39
 3.186990e+01 3.560832e+01 5.820916e+01 5.061597e+01 6.457526e+01 5.345451e+01 4.341866e+01 5.005778e+01 4.354312e+01 4.002259e+01 3.107351e+01 2.699937e+01 2.499179e+01 1.587737e+00 2.679113e+00 4.940359e+00 4.518102e+00 5.624856e+00 4.227649e+00 4.009442e+00 4.766657e+00 3.633164e+00 4.080490e+00 3.564347e+00 3.009166e+00 2.474556e+00 4.420962e-01 7.023240e-01 8.167659e-01 8.894215e-01 1.210929e+00 1.138728e+00 1.018907e+00 9.872082e-01 9.674410e-01 9.251890e-01 7.771251e-01 7.326448e-01 4.818206e-01
<GCONST> 1.340256e+02
<TRANSP> 5
 0.000000e+00 1.000000e+00 0.000000e+00 0.000000e+00 0.000000e+00
 0.000000e+00 5.207136e-01 4.792864e-01 0.000000e+00 0.000000e+00
 0.000000e+00 0.000000e+00 6.828983e-01 3.171017e-01 0.000000e+00
 0.000000e+00 0.000000e+00 0.000000e+00 6.418295e-01 3.581705e-01
 0.000000e+00 0.000000e+00 0.000000e+00 0.000000e+00 0.000000e+00
<ENDHMM>
~h "l"
<BEGINHMM>
<NUMSTATES> 5
<STATE> 2
<NUMMIXES> 4
<MIXTURE> 1 2.310286e-01
<MEAN> 39
 -5.156365e+00 -4.018045e+00 6.223057e+00 -1.539337e+00 -4.139563e+00 -4.860737e+00 -6.110754e+00 -2.022128e+00 5.429404e-02 2.633215e-01 7.700453e-01 -1.242759e+00 6.201177e+01 1.292407e-02 1.310609e+00 9.736644e-01 4.846013e-01 4.230243e-01 1.229521e-01 -9.446340e-01 -1.302055e+00 -2.802852e-01 -3.235071e-01 -3.585395e-01 -1.604438e-01 -4.570424e-01 1.765975e-01 -1.212618e-01 -7.974610e-02 -4.293807e-01 -2.733582e-01 3.037788e-02 -1.490636e-02 1.223872e-01 -6.431121e-02 -8.332278e-03 -1.353404e-01 -2.802232e-02 3.224263e-01
<VARIANCE> 39
 3.115273e+01 1.833765e+01 2.850989e+01 3.554149e+01 4.717966e+01 7.616161e+01 8.505733e+01 5.608976e+01 4.783396e+01 3.812268e+01 4.212606e+01 4.764439e+01 6.101129e+01 1.719102e+00 1.834524e+00 2.046408e+00 3.105476e+00 4.162599e+00 4.552042e+00 4.834610e+00 4.482315e+00 3.377431e+00 3.031729e+00 3.121587e+00 3.013533e+00 2.496512e+00 2.968155e-01 3.715524e-01 3.465974e-01 5.020182e-01 6.044965e-01 9.668846e-01 1.133422e+00 7.934610e-01 6.553016e-01 6.052402e-01 6.233785e-01 5.312623e-01 2.675088e-01
<GCONST> 1.273802e+02
<MIXTURE> 2 2.658165e-01
<MEAN> 39
 -2.864273e+00 -4.237000e+00 8.248802e+00 -6.919053e+00 -9.153570e+00 -8.826581e+00 -1.212963e+01 -3.774921e+00 4.393996e-01 -4.158367e+00 -3.901567e+00 1.496522e+00 6.724303e+01 3.026403e-01 1.222251e+00 1.642399e+00 -2.544727e-01 1.485126e-02 -1.069884e-01 -2.128779e+00 -1.430189e+00 2.713747e-01 -4.911562e-01 -5.975533e-01 5.223528e-01 -3.010232e-01 -1.450979e-01 -3.147030e-01 -4.827725e-01 -1.505426e-01 1.640938e-01 5.452688e-01 7.499065e-01 3.085987e-01 -1.499307e-01 4.224921e-01 1.190107e-01 -2.594844e-01 4.280022e-02
<VARIANCE> 39
 1.365204e+01 2.698937e+01 3.734585e+01 4.883727e+01 4.490668e+01 5.363937e+01 5.748243e+01 5.432842e+01 4.698589e+01 5.546920e+01 4.002382e+01 4.058654e+01 2.442660e+01 2.496442e+00 2.309160e+00 2.997263e+00 5.305534e+00 5.220175e+00 6.275009e+00 5.512849e+00 5.500549e+00 4.501807e+00 4.343878e+00 3.736054e+00 4.163447e+00 3.770252e+00 2.433310e-01 4.310113e-01 4.004314e-01 6.858380e-01 6.802953e-01 8.678020e-01 8.329272e-01 8.353508e-01 8.018087e-01 8.262858e-01 6.622872e-01 6.060231e-01 2.669280e-01
<GCONST> 1.307646e+02
<MIXTURE> 3 2.571350e-01
<MEAN> 39
 -3.445614e+00 -4.447273e+00 7.733283e+00 -7.733063e+00 -9.856879e+00 -9.071850e+00 -1.242271e+01 -4.216028e+00 -8.788017e-02 -4.847468e+00 -4.781420e+00 1.193856e+00 6.719801e+01 5.986692e-01 9.674280e-01 1.485957e+00 -8.571521e-01 -4.503886e-01 -5.335862e-01 -2.664523e+00 -1.554027e+00 1.047742e-01 -6.940863e-01 -1.110719e+00 2.475299e-01 2.459647e-01 -1.440266e-01 -3.508182e-01 -5.212229e-01 -2.022450e-01 1.480031e-01 5.270956e-01 6.935993e-01 2.922322e-01 -8.206467e-02 4.036457e-01 7.654078e-02 -2.607933e-01 9.790528e-02
<VARIANCE> 39
 1.429608e+01 2.882056e+01 3.676383e+01 4.727517e+01 4.698911e+01 5.330302e+01 5.949312e+01 5.440410e+01 4.794074e+01 5.920461e+01 3.789321e+01 3.618756e+01 3.135796e+01 2.712584e+00 2.235863e+00 2.833341e+00 5.267018e+00 5.706653e+00 7.244781e+00 5.662981e+00 5.424294e+00 4.859908e+00 4.573768e+00 3.863851e+00 4.093976e+00 4.471146e+00 2.411744e-01 4.215014e-01 3.904441e-01 6.576971e-01 6.535730e-01 8.396477e-01 8.639759e-01 8.561271e-01 7.993453e-01 7.853455e-01 6.380621e-01 5.847556e-01 2.809783e-01
<GCONST> 1.314311e+02
<MIXTURE> 4 2.460163e-01
<MEAN> 39
 -5.130663e+00 -4.307525e+00 5.885592e+00 -2.888624e+00 -5.271944e+00 -5.970979e+00 -6.821826e+00 -3.118485e+00 -6.185663e-01 -3.800815e-01 -2.272513e-01 -1.338982e+00 6.340683e+01 1.952596e-01 1.312559e+00 1.038424e+00 2.020904e-01 1.937379e-01 -2.016222e-01 -1.505472e+00 -1.642489e+00 -5.248639e-01 -6.297956e-01 -6.665220e-01 -3.229706e-01 -2.597241e-01 2.138927e-01 -1.880092e-01 -1.453075e-01 -5.352067e-01 -3.515901e-01 -1.050911e-02 -6.850158e-02 1.480092e-01 -7.930064e-02 -2.948864e-02 -2.198738e-01 -7.250490e-02 4.007884e-01
<VARIANCE> 39
 2.929807e+01 1.890440e+01 3.116870e+01 3.924612e+01 5.296114e+01 8.320770e+01 8.517377e+01 6.002330e+01 4.952702e+01 4.040942e+01 4.562020e+01 4.461477e+01 6.392872e+01 1.767121e+00 1.601167e+00 1.936052e+00 3.153409e+00 4.505011e+00 5.222242e+00 4.829415e+00 4.344731e+00 3.614904e+00 3.310931e+00 3.349927e+00 3.018679e+00 2.450663e+00 2.589085e-01 3.536112e-01 3.412925e-01 5.180016e-01 6.146501e-01 1.075787e+00 1.154170e+00 7.755637e-01 6.560419e-01 6.314902e-01 6.136467e-01 4.893468e-01 2.597121e-01
<GCONST> 1.280745e+02
<STATE> 3
<NUMMIXES> 4
<MIXTURE> 1 2.380119e-01
<MEAN> 39
 -2.533382e+00 -1.819029e+00 8.924660e+00 -3.475539e+00 -7.448010e+00 -6.993009e+00 -1.120835e+01 -5.945228e+00 -1.545276e+00 -1.314260e+00 -2.628683e+00 -2.639074e+00 6.476488e+01 -2.979705e-01 5.674862e-01 2.545366e-01 7.738951e-01 6.690487e-01 7.780327e-01 6.928640e-01 -1.557416e-01 -2.884470e-01 1.047674e-01 2.998762e-01 -3.680063e-02 -8.241828e-01 -1.420164e-01 -3.547128e-01 -4.087903e-01 -1.213931e-01 7.117749e-02 1.329399e-01 6.094714e-01 6.476427e-01 9.802053e-02 1.499532e-01 2.521446e-01 1.488276e-01 6.914885e-02
<VARIANCE> 39
 1.280997e+01 2.208459e+01 3.347237e+01 3.912153e+01 4.620879e+01 4.856327e+01 5.078237e+01 5.632751e+01 4.768264e+01 4.955504e+01 4.935674e+01 5.226138e+01 2.013192e+01 1.375857e+00 1.598467e+00 1.751781e+00 3.522342e+00 3.136039e+00 3.722242e+00 3.971199e+00 3.532149e+00 2.937030e+00 2.689663e+00 2.556811e+00 2.544542e+00 2.081782e+00 2.159442e-01 3.048703e-01 3.701244e-01 5.649059e-01 6.857528e-01 7.734649e-01 7.048293e-01 8.088095e-01 6.582447e-01 6.450979e-01 6.036030e-01 5.992122e-01 2.530471e-01
<GCONST> 1.224492e+02
<MIXTURE> 2 2.643587e-01
<MEAN> 39
 -2.676711e+00 -3.513826e+00 9.518231e+00 -9.186936e+00 -8.932909e+00 -6.423985e+00 -1.540631e+01 -6.398354e+00 8.723916e-01 -2.114720e+00 -5.130238e+00 -2.274243e-01 6.785659e+01 1.210039e-01 -1.737991e-01 -1.074875e-01 -4.025461e-01 4.647157e-02 2.804061e-01 -1.414079e-01 1.358125e-01 9.722725e-02 3.745607e-01 -1.803990e-02 -5.174830e-02 1.271971e-01 5.603776e-02 -6.301945e-01 -7.763622e-01 -8.335732e-03 -2.123446e-01 -1.206658e-01 1.020200e+00 8.660061e-01 -2.428595e-01 1.925611e-01 2.678596e-01 -2.379184e-01 3.685761e-01
<VARIANCE> 39
 1.384892e+01 2.319065e+01 4.309948e+01 4.161837e+01 4.677066e+01 5.507007e+01 6.048170e+01 6.655154e+01 5.484760e+01 6.144918e+01 5.724659e+01 6.103880e+01 1.305413e+01 5.438877e-01 1.166376e+00 1.734631e+00 1.998917e+00 1.683189e+00 1.941634e+00 2.896808e+00 3.566527e+00 2.459982e+00 2.167882e+00 2.120921e+00 1.740968e+00 8.239795e-01 1.585814e-01 3.405299e-01 3.793124e-01 5.708734e-01 7.325411e-01 8.100727e-01 8.962003e-01 9.644598e-01 7.709634e-01 7.944543e-01 7.412575e-01 6.410924e-01 1.882739e-01
<GCONST> 1.190200e+02
<MIXTURE> 3 2.540239e-01
<MEAN> 39
 -3.394617e+00 -4.087950e+00 8.705546e+00 -1.069960e+01 -1.032170e+01 -7.356982e+00 -1.565505e+01 -6.292627e+00 8.857490e-01 -3.549063e+00 -6.713430e+00 8.626776e-01 6.840495e+01 8.012278e-02 -2.042317e-01 -1.688913e-01 -5.042010e-01 -2.225033e-02 2.663565e-01 -2.205172e-01 6.952905e-02 7.239425e-02 3.057153e-01 -2.730961e-01 -3.070092e-01 1.908782e-01 5.784542e-02 -6.913148e-01 -8.435299e-01 -3.449496e-02 -1.865368e-01 -2.915861e-02 1.094005e+00 7.927623e-01 -3.477684e-01 1.747929e-01 2.124684e-01 -3.680804e-01 4.271339e-01
<VARIANCE> 39
 1.431518e+01 2.325242e+01 4.218151e+01 3.927927e+01 4.657219e+01 5.414594e+01 5.683859e+01 6.623669e+01 5.654126e+01 6.605278e+01 4.914131e+01 5.177374e+01 1.229381e+01 5.500987e-01 1.228300e+00 1.752997e+00 2.013102e+00 1.651633e+00 1.879995e+00 3.039158e+00 3.443870e+00 2.537343e+00 2.163671e+00 2.086312e+00 1.706074e+00 8.437756e-01 1.494554e-01 3.484120e-01 3.847340e-01 5.827352e-01 6.806837e-01 7.783282e-01 9.497705e-01 9.077308e-01 7.603087e-01 8.219625e-01 7.086968e-01 6.152641e-01 1.874045e-01
<GCONST> 1.184841e+02
<MIXTURE> 4 2.435964e-01
<MEAN> 39
 -2.982977e+00 -2.216838e+00 8.844731e+00 -4.884782e+00 -8.678959e+00 -7.351422e+00 -1.124902e+01 -7.026601e+00 -2.197419e+00 -1.618362e+00 -3.482382e+00 -2.347631e+00 6.524499e+01 6.398845e-03 3.790725e-01 1.959964e-01 1.732957e-01 1.267421e-01 2.946264e-01 1.761227e-02 -4.446801e-01 -5.107270e-01 -2.298304e-02 -2.759439e-02 -4.144263e-01 -1.974431e-01 -7.032842e-02 -4.048307e-01 -4.758688e-01 -1.927076e-01 2.476757e-03 3.061342e-02 4.783123e-01 6.352274e-01 7.223725e-02 1.133392e-01 1.814522e-01 7.580747e-02 2.070933e-01
<VARIANCE> 39
 1.436076e+01 2.275993e+01 3.603030e+01 3.920053e+01 4.758764e+01 5.162973e+01 5.278443e+01 5.897282e+01 5.041026e+01 5.135263e+01 5.180303e+01 5.018461e+01 2.134616e+01 1.454254e+00 1.481067e+00 1.707503e+00 3.809015e+00 3.069894e+00 3.847378e+00 4.288903e+00 3.568851e+00 2.922819e+00 2.687284e+00 2.652471e+00 2.415233e+00 2.229824e+00 2.162071e-01 3.194529e-01 3.748994e-01 5.945167e-01 7.139301e-01 7.587259e-01 7.367744e-01 8.314255e-01 6.613305e-01 6.271915e-01 6.241699e-01 5.749870e-01 2.618464e-01
<GCONST> 1.233882e+02
<STATE> 4
<NUMMIXES> 4
<MIXTURE> 1 2.188903e-01
<MEAN> 39
 -4.885262e+00 -1.846367e+00 7.993816e+00 -4.329622e-01 -4.527115e+00 -5.950843e+00 -6.872488e+00 -3.942035e+00 -2.367561e+00 -1.885485e+00 -1.430966e+00 -1.358733e+00 6.288760e+01 -8.090488e-01 1.369038e-01 -6.043753e-01 1.318229e+00 1.545219e+00 1.410865e+00 2.135072e+00 1.143909e+00 2.881049e-01 6.366569e-01 9.823611e-01 4.577841e-01 -1.667965e+00 -8.552080e-02 -2.575310e-01 -1.342881e-01 -4.402045e-01 -8.662435e-02 2.414641e-01 1.766897e-01 2.846904e-01 3.025133e-01 2.577601e-01 1.500098e-01 2.133293e-01 -3.129814e-02
<VARIANCE> 39
 2.496257e+01 2.692359e+01 3.098738e+01 3.760425e+01 5.059571e+01 4.739091e+01 5.293292e+01 5.407512e+01 4.460466e+01 3.842276e+01 3.632466e+01 3.438306e+01 2.822322e+01 2.037019e+00 2.796703e+00 2.647923e+00 4.985948e+00 6.029660e+00 5.881275e+00 5.324825e+00 4.831568e+00 4.721928e+00 4.357660e+00 3.594922e+00 3.706813e+00 3.446714e+00 3.504587e-01 5.041716e-01 5.170978e-01 6.698322e-01 8.293700e-01 8.572089e-01 8.701817e-01 9.163659e-01 7.791279e-01 6.320597e-01 5.775518e-01 5.469626e-01 3.922065e-01
<GCONST> 1.307365e+02
<MIXTURE> 2 2.938388e-01
<MEAN> 39
 -1.802515e+00 -5.366772e+00 7.321287e+00 -8.904610e+00 -8.321017e+00 -7.612613e+00 -1.387072e+01 -3.768888e+00 -6.393650e-01 -4.353394e-01 -2.441491e+00 -2.304509e+00 6.896552e+01 4.565808e-01 -1.996633e+00 -2.018865e+00 -1.223795e+00 -7.016773e-01 -5.234575e-01 1.708065e+00 2.634161e+00 -1.006300e-01 5.260258e-01 5.493234e-02 -4.391838e-01 1.728588e+00 -6.048672e-02 -3.336907e-01 -5.706444e-01 2.258427e-02 7.805699e-02 2.449487e-01 8.904876e-01 3.610161e-01 -5.467673e-02 -3.837383e-02 -1.224410e-01 -5.421956e-02 1.520505e-01
<VARIANCE> 39
 1.132967e+01 2.338874e+01 3.956287e+01 4.116635e+01 4.014928e+01 5.038126e+01 5.315912e+01 6.303133e+01 4.819810e+01 5.122531e+01 6.182409e+01 5.019275e+01 1.637131e+01 8.319964e-01 1.745212e+00 2.483564e+00 3.310182e+00 3.885025e+00 4.814234e+00 6.538409e+00 5.111041e+00 5.076632e+00 4.643276e+00 4.505658e+00 3.416420e+00 1.078220e+00 1.715053e-01 4.504178e-01 3.099020e-01 5.858821e-01 6.281945e-01 7.306307e-01 9.080954e-01 9.138318e-01 7.102599e-01 7.169279e-01 6.565285e-01 4.751388e-01 1.629755e-01
<GCONST> 1.250294e+02
<MIXTURE> 3 2.841398e-01
<MEAN> 39
 -2.645804e+00 -5.686405e+00 6.485689e+00 -1.087870e+01 -1.012659e+01 -8.520089e+00 -1.427209e+01 -3.020864e+00 -4.302931e-01 -2.460909e+00 -4.632156e+00 -5.131707e-01 6.958788e+01 3.484275e-01 -2.206413e+00 -2.302363e+00 -1.227667e+00 -6.636308e-01 -6.057747e-02 2.208131e+00 2.332455e+00 -4.177840e-01 4.086338e-01 -3.795035e-01 -9.815027e-01 1.870358e+00 -5.349800e-02 -4.053553e-01 -6.460189e-01 6.334439e-02 1.299693e-01 3.442442e-01 9.713145e-01 1.853752e-01 -2.076957e-01 -1.156782e-01 -1.431883e-01 -1.809221e-01 2.096816e-01
<VARIANCE> 39
 1.215333e+01 2.492074e+01 3.937999e+01 3.858831e+01 4.354335e+01 4.657963e+01 5.176352e+01 5.981974e+01 4.887400e+01 5.552757e+01 5.388133e+01 4.748153e+01 1.502111e+01 7.924738e-01 1.883296e+00 2.478424e+00 3.283278e+00 3.838803e+00 4.827060e+00 6.841943e+00 4.675416e+00 5.140089e+00 4.673505e+00 4.026566e+00 2.953242e+00 1.138231e+00 1.444339e-01 4.706343e-01 2.982044e-01 5.728821e-01 6.074908e-01 6.908475e-01 9.161676e-01 8.373272e-01 7.038453e-01 7.010104e-01 6.072543e-01 4.502493e-01 1.587174e-01
<GCONST> 1.240655e+02
<MIXTURE> 4 2.031290e-01
<MEAN> 39
 -4.494556e+00 -2.389902e+00 8.228685e+00 -2.039494e+00 -6.443228e+00 -6.039925e+00 -7.351947e+00 -5.310576e+00 -3.314107e+00 -2.522822e+00 -2.498674e+00 -1.465705e+00 6.374929e+01 -2.145330e-01 -5.868864e-02 -6.931515e-01 4.578064e-01 3.624320e-01 4.091646e-01 1.200735e+00 5.742169e-01 -5.161504e-01 3.396360e-01 6.680902e-01 -6.088194e-02 -3.675940e-01 1.860246e-02 -2.192120e-01 -1.924521e-01 -5.473548e-01 -2.024818e-01 4.386688e-02 5.662617e-03 1.730508e-01 1.857076e-01 2.022636e-01 4.196795e-02 9.402078e-02 2.212574e-01
<VARIANCE> 39
 2.495476e+01 2.809272e+01 3.759278e+01 3.762006e+01 5.188713e+01 5.195107e+01 5.234644e+01 5.945511e+01 4.758500e+01 3.991994e+01 4.091132e+01 3.390534e+01 2.910486e+01 2.193656e+00 2.474129e+00 2.682393e+00 6.103216e+00 7.358175e+00 6.710631e+00 6.396677e+00 5.479520e+00 4.835750e+00 4.605327e+00 4.032628e+00 3.714264e+00 4.105014e+00 3.049509e-01 4.917130e-01 5.210671e-01 7.005694e-01 8.861157e-01 8.925859e-01 8.960370e-01 9.438190e-01 7.790359e-01 6.470963e-01 6.329361e-01 5.412691e-01 4.276884e-01
<GCONST> 1.328344e+02
<TRANSP> 5
 0.000000e+00 1.000000e+00 0.000000e+00 0.000000e+00 0.000000e+00
 0.000000e+00 4.124080e-01 5.875921e-01 0.000000e+00 0.000000e+00
 0.000000e+00 0.000000e+00 5.494967e-01 4.505033e-01 0.000000e+00
 0.000000e+00 0.000000e+00 0.000000e+00 3.739056e-01 6.260944e-01
 0.000000e+00 0.000000e+00 0.000000e+00 0.000000e+00 0.000000e+00
<ENDHMM>
~h "m"
<BEGINHMM>
<NUMSTATES> 5
<STATE> 2
<NUMMIXES> 4
<MIXTURE> 1 2.609479e-01
<MEAN> 39
 1.732742e+00 -2.896403e+00 2.730024e+00 -1.583107e+00 -3.385821e+00 -3.802290e+00 -4.801148e+00 -5.861507e+00 -7.790393e+00 -1.020072e+00 6.125953e-01 -3.666504e+00 6.381606e+01 -2.207918e-01 1.371225e+00 9.345880e-01 2.307981e+00 1.602479e+00 5.196152e-01 5.121534e-01 -2.040542e+00 -2.191611e+00 -3.069787e-01 4.107619e-01 -1.420063e-01 -1.414779e+00 -2.116691e-01 -2.551622e-01 1.396236e-01 -3.807884e-01 -3.738885e-01 -7.654931e-02 -2.373159e-02 3.706238e-01 1.682246e-01 -5.471196e-02 -1.401229e-01 -3.059441e-02 4.178848e-01
<VARIANCE> 39
 8.896473e+00 1.795524e+01 2.681848e+01 3.785898e+01 3.376181e+01 3.783041e+01 4.420821e+01 4.038433e+01 5.017890e+01 3.214052e+01 4.089016e+01 2.884935e+01 1.682237e+01 8.654742e-01 1.828974e+00 4.439874e+00 3.377240e+00 3.312637e+00 3.884293e+00 4.898183e+00 3.846798e+00 4.739654e+00 4.229939e+00 3.857051e+00 2.851534e+00 9.377589e-01 1.415998e-01 2.221299e-01 4.954953e-01 5.257063e-01 4.732556e-01 3.998421e-01 5.420038e-01 5.640534e-01 7.586259e-01 4.459798e-01 5.033810e-01 3.831891e-01 1.401539e-01
<GCONST> 1.172355e+02
<MIXTURE> 2 2.374467e-01
<MEAN> 39
 4.088787e-01 -2.093310e+00 3.673568e+00 -2.443561e+00 -4.421009e+00 -7.607793e+00 -8.489663e+00 -9.933011e+00 -7.027243e+00 -5.561843e-01 -3.766538e+00 -5.748236e+00 6.497890e+01 3.230252e-01 1.313290e+00 9.129823e-01 2.090739e+00 3.744344e-01 -5.531710e-01 -9.687471e-01 -2.369091e+00 -9.182073e-01 9.039981e-01 1.927756e-01 -7.099760e-01 -8.345144e-01 -2.770324e-01 -4.439307e-01 -1.522059e-01 -6.964185e-01 -7.795924e-02 3.528738e-01 4.034208e-01 6.592487e-01 1.267086e-01 -2.201417e-01 9.436338e-02 3.031960e-01 3.865764e-01
<VARIANCE> 39
 8.262406e+00 2.363172e+01 2.303895e+01 3.786045e+01 4.499394e+01 6.104798e+01 5.475368e+01 6.532674e+01 3.730463e+01 4.795716e+01 3.810133e+01 3.515862e+01 1.750362e+01 1.717584e+00 2.475443e+00 3.246961e+00 3.988415e+00 3.517801e+00 4.649283e+00 4.576568e+00 4.287006e+00 3.837590e+00 4.935315e+00 3.370577e+00 3.434322e+00 2.308339e+00 2.132354e-01 2.578000e-01 4.377102e-01 4.462328e-01 4.637822e-01 5.263467e-01 7.285653e-01 8.061895e-01 6.645377e-01 7.534744e-01 5.237442e-01 5.184293e-01 1.709126e-01
<GCONST> 1.231429e+02
<MIXTURE> 3 2.786810e-01
<MEAN> 39
 1.671835e+00 -3.234892e+00 1.376808e+00 -3.337588e+00 -4.994599e+00 -4.065407e+00 -6.087472e+00 -7.602871e+00 -9.001257e+00 -1.966356e+00 -6.885132e-01 -4.331106e+00 6.447137e+01 -2.128939e-01 1.395625e+00 9.931358e-01 2.205227e+00 1.207051e+00 3.846384e-01 4.218772e-01 -2.210822e+00 -2.310882e+00 -5.126860e-01 1.723179e-01 -4.027194e-01 -1.288392e+00 -2.069789e-01 -3.121168e-01 9.353451e-02 -4.177411e-01 -3.638832e-01 -8.049089e-02 -2.909631e-02 4.017830e-01 2.409280e-01 -4.024086e-02 -2.322409e-01 -5.978172e-02 4.463619e-01
<VARIANCE> 39
 8.658088e+00 1.828660e+01 2.942410e+01 3.941242e+01 3.734893e+01 3.901904e+01 5.013940e+01 4.352006e+01 5.119679e+01 3.718571e+01 4.348359e+01 3.002689e+01 1.694509e+01 8.318261e-01 1.731534e+00 4.136721e+00 3.212910e+00 3.118958e+00 3.858227e+00 5.009962e+00 3.988274e+00 4.567816e+00 4.855806e+00 3.709477e+00 2.960111e+00 8.741092e-01 1.375502e-01 2.237271e-01 4.868330e-01 4.994057e-01 4.805136e-01 3.989396e-01 5.681303e-01 5.832393e-01 7.686120e-01 4.686625e-01 4.973833e-01 3.971080e-01 1.351575e-01
<GCONST> 1.178254e+02
<MIXTURE> 4 2.229123e-01
<MEAN> 39
 -8.585992e-02 -2.845859e+00 2.177557e+00 -3.738617e+00 -5.954860e+00 -8.121045e+00 -9.572132e+00 -1.172034e+01 -7.881961e+00 -1.990153e+00 -5.311415e+00 -6.371354e+00 6.537156e+01 4.325211e-01 1.272899e+00 7.996566e-01 1.940409e+00 8.457953e-02 -7.002287e-01 -1.141686e+00 -2.669361e+00 -1.120064e+00 6.474646e-01 -2.561409e-01 -1.076713e+00 -7.173740e-01 -2.682151e-01 -4.690638e-01 -1.773984e-01 -7.401552e-01 -9.248116e-02 3.284419e-01 4.229467e-01 7.395279e-01 1.396153e-01 -2.231991e-01 3.576356e-02 2.292568e-01 4.495865e-01
<VARIANCE> 39
 8.973817e+00 2.371769e+01 2.543344e+01 3.566591e+01 4.377802e+01 6.755795e+01 5.025259e+01 6.950513e+01 3.744246e+01 5.324345e+01 3.489622e+01 3.521946e+01 1.882351e+01 1.903451e+00 2.340873e+00 3.072217e+00 4.369416e+00 3.560789e+00 5.133881e+00 4.925766e+00 4.405576e+00 3.977939e+00 5.561689e+00 3.428707e+00 3.601795e+00 2.503439e+00 2.031220e-01 2.508520e-01 4.188948e-01 4.449810e-01 4.686226e-01 5.555105e-01 6.726710e-01 8.582613e-01 6.506881e-01 8.009303e-01 4.792133e-01 5.301650e-01 1.693086e-01
<GCONST> 1.238979e+02
<STATE> 3
<NUMMIXES> 4
<MIXTURE> 1 2.620124e-01
<MEAN> 39
 1.100519e+00 -1.313154e+00 5.070493e+00 -6.901543e-01 -3.952194e+00 -2.337409e+00 -3.953884e+00 -6.731294e+00 -1.018133e+01 -2.982487e+00 -1.231773e+00 -5.166870e+00 6.310842e+01 -1.007089e-01 1.182720e-01 1.993640e-01 1.027518e-01 1.304053e-01 1.332141e-01 9.178484e-02 8.389207e-03 -6.349427e-02 -6.767362e-02 2.039087e-02 3.548539e-02 -9.411979e-02 -3.092636e-02 -2.348170e-01 -2.038267e-01 -5.733969e-01 -2.607039e-01 -5.278257e-02 -7.524177e-02 4.527635e-01 5.581452e-01 1.707138e-01 9.029900e-02 1.874175e-01 2.218714e-01
<VARIANCE> 39
 5.398840e+00 1.759776e+01 2.152142e+01 3.814202e+01 4.079419e+01 5.118496e+01 4.966253e+01 4.085049e+01 3.899909e+01 4.436879e+01 4.557236e+01 3.377766e+01 1.188087e+01 3.673913e-01 7.793350e-01 9.423875e-01 1.437181e+00 1.230855e+00 1.486650e+00 1.341047e+00 1.437375e+00 1.904233e+00 1.470127e+00 1.656351e+00 1.249727e+00 6.503335e-01 1.357081e-01 1.959500e-01 4.009987e-01 3.823195e-01 3.552193e-01 4.178934e-01 4.687251e-01 4.403316e-01 5.983381e-01 4.383153e-01 4.574448e-01 3.482348e-01 1.233879e-01
<GCONST> 1.028549e+02
<MIXTURE> 2 2.380280e-01
<MEAN> 39
 7.643520e-01 -2.751246e+00 3.617288e+00 -1.525363e+00 -3.899175e+00 -6.540267e+00 -8.676159e+00 -1.114468e+01 -9.459731e+00 -3.743450e-01 -1.656898e+00 -5.870461e+00 6.539592e+01 1.799074e-02 -1.520641e-01 -1.478562e-01 -3.377436e-01 -1.852266e-02 4.923300e-02 6.605612e-02 3.583443e-01 9.808321e-02 -3.617816e-02 7.004879e-02 -1.240908e-01 2.052251e-01 1.462968e-02 -4.585830e-01 -3.739718e-01 -9.773136e-01 -2.669153e-01 1.921279e-01 2.791406e-01 9.114811e-01 4.558707e-01 -2.998157e-01 -1.092912e-01 2.151976e-01 4.162268e-01
<VARIANCE> 39
 5.479132e+00 1.843884e+01 2.127530e+01 3.849776e+01 4.803586e+01 7.410400e+01 5.226808e+01 6.557112e+01 4.711319e+01 6.052085e+01 4.898721e+01 4.387421e+01 8.568892e+00 1.546464e-01 6.195507e-01 7.572678e-01 1.558818e+00 9.658524e-01 1.673447e+00 1.345303e+00 2.141289e+00 1.688332e+00 1.952878e+00 1.513286e+00 1.621196e+00 3.182764e-01 9.774799e-02 2.225267e-01 4.187325e-01 4.032302e-01 3.561857e-01 5.445815e-01 6.719278e-01 6.533977e-01 7.078910e-01 7.958773e-01 5.238757e-01 6.424471e-01 1.168225e-01
<GCONST> 1.055187e+02
<MIXTURE> 3 2.758773e-01
<MEAN> 39
 1.021624e+00 -1.306129e+00 3.630993e+00 -2.276450e+00 -5.692416e+00 -2.929027e+00 -5.433350e+00 -8.132775e+00 -1.099748e+01 -3.651936e+00 -2.409642e+00 -5.525600e+00 6.325490e+01 -5.580399e-02 -2.152916e-02 8.741090e-02 -9.105511e-04 -4.398926e-02 6.883316e-02 1.039772e-02 -6.549755e-02 -2.244540e-01 -2.123913e-01 -1.520993e-01 -2.291515e-01 9.994251e-02 -1.540022e-02 -2.588892e-01 -1.784070e-01 -5.919374e-01 -2.733077e-01 -9.320202e-02 -1.042602e-01 4.181723e-01 5.113740e-01 1.639351e-01 4.541858e-02 1.273376e-01 2.779878e-01
<VARIANCE> 39
 5.244768e+00 1.746750e+01 2.304472e+01 4.125119e+01 4.364038e+01 5.208318e+01 5.220717e+01 3.914787e+01 4.114290e+01 4.993178e+01 4.718458e+01 3.321053e+01 1.251165e+01 3.337514e-01 7.275006e-01 8.968035e-01 1.419947e+00 1.188818e+00 1.451530e+00 1.331392e+00 1.457072e+00 1.842641e+00 1.543076e+00 1.597978e+00 1.260899e+00 5.365485e-01 1.308978e-01 1.914814e-01 4.252771e-01 3.786604e-01 3.531116e-01 4.128183e-01 4.484128e-01 4.233667e-01 5.783097e-01 4.415541e-01 4.373306e-01 3.301396e-01 1.233200e-01
<GCONST> 1.025789e+02
<MIXTURE> 4 2.240547e-01
<MEAN> 39
 2.923614e-01 -3.380763e+00 2.005037e+00 -2.932032e+00 -5.052712e+00 -7.087501e+00 -1.003860e+01 -1.365917e+01 -1.002471e+01 -1.035618e+00 -3.819282e+00 -6.457137e+00 6.577193e+01 -2.039265e-02 -2.036186e-01 -2.308426e-01 -3.717715e-01 -4.548731e-02 4.824992e-02 8.467449e-02 4.686994e-01 -1.966379e-02 -2.620208e-01 -1.566203e-01 -4.747302e-01 2.505015e-01 -4.112268e-04 -4.852231e-01 -3.739811e-01 -1.028523e+00 -2.327765e-01 1.552966e-01 3.626578e-01 1.050362e+00 4.013361e-01 -3.655783e-01 -1.331204e-01 1.513307e-01 4.460941e-01
<VARIANCE> 39
 5.912812e+00 1.839246e+01 2.165593e+01 3.635278e+01 4.635479e+01 7.924388e+01 4.709657e+01 6.731943e+01 4.893586e+01 6.515961e+01 4.362634e+01 4.347445e+01 8.654702e+00 1.557120e-01 6.087499e-01 7.853875e-01 1.596107e+00 9.686485e-01 1.857598e+00 1.421732e+00 2.375828e+00 1.648967e+00 2.192979e+00 1.479870e+00 1.795890e+00 3.182146e-01 9.119959e-02 2.225211e-01 3.947112e-01 3.793090e-01 3.310014e-01 5.372008e-01 6.145761e-01 7.316378e-01 6.470427e-01 8.507409e-01 4.983381e-01 6.756939e-01 1.162428e-01
<GCONST> 1.057107e+02
<STATE> 4
<NUMMIXES> 4
<MIXTURE> 1 2.484351e-01
<MEAN> 39
 7.441672e-01 -1.703174e+00 3.634566e+00 -2.869582e+00 -4.169038e+00 -2.037783e+00 -2.625792e+00 -6.900173e+00 -9.707706e+00 -3.901528e+00 -1.115098e+00 -4.409057e+00 6.413426e+01 1.006621e-02 -4.037587e-01 -9.382609e-01 -1.774726e+00 -5.994679e-01 -7.976585e-02 -2.435855e-01 1.530345e+00 2.124338e+00 7.170669e-01 4.684818e-01 4.454424e-01 4.359065e-01 -9.315647e-02 -2.713977e-01 -1.984832e-01 -2.851007e-01 -8.276010e-02 8.877888e-02 -5.705578e-02 4.153073e-01 4.704885e-01 2.020050e-01 9.457560e-02 1.001783e-01 1.262414e-01
<VARIANCE> 39
 7.588691e+00 2.056365e+01 3.151577e+01 5.335222e+01 4.157643e+01 4.702740e+01 4.793402e+01 4.380701e+01 4.876234e+01 4.369149e+01 4.841888e+01 3.000767e+01 2.033888e+01 1.186047e+00 1.820223e+00 4.004976e+00 4.933932e+00 3.913248e+00 3.883962e+00 4.155384e+00 3.563643e+00 4.828035e+00 3.998419e+00 3.498958e+00 2.771304e+00 2.352608e+00 1.360336e-01 2.307182e-01 4.298484e-01 5.480372e-01 5.877501e-01 4.857020e-01 5.722839e-01 5.869964e-01 8.900754e-01 5.827643e-01 6.433522e-01 4.627203e-01 1.283346e-01
<GCONST> 1.214251e+02
<MIXTURE> 2 2.508513e-01
<MEAN> 39
 1.326525e+00 -4.786403e+00 2.343671e+00 -4.330903e+00 -4.736915e+00 -8.756847e+00 -9.392681e+00 -5.754363e+00 -5.589983e+00 -5.842538e-02 -2.333473e+00 -6.670845e+00 6.716331e+01 -4.731744e-01 -2.031679e+00 -7.383508e-02 -2.903114e+00 -1.370552e+00 4.884965e-01 1.005534e+00 2.769944e+00 1.026530e+00 -1.217340e+00 -6.902915e-01 1.024573e+00 1.901720e+00 -3.255703e-01 -9.897195e-02 3.959128e-01 -4.049310e-01 -3.205341e-01 4.403889e-01 5.019050e-01 1.152990e-01 -2.619167e-01 -2.105134e-01 -1.551344e-02 3.650961e-01 1.949580e-01
<VARIANCE> 39
 5.184356e+00 2.206143e+01 2.572738e+01 3.943744e+01 4.062517e+01 4.419128e+01 3.528973e+01 6.260497e+01 3.765400e+01 3.936091e+01 3.880898e+01 2.859138e+01 1.250087e+01 7.744828e-01 1.562908e+00 5.789571e+00 2.430757e+00 4.479886e+00 4.522087e+00 5.813960e+00 4.819316e+00 5.469411e+00 4.575501e+00 3.186857e+00 3.812008e+00 6.094239e-01 7.961110e-02 3.308094e-01 3.960577e-01 6.821595e-01 5.455190e-01 4.737560e-01 6.387058e-01 7.688705e-01 6.094759e-01 6.450841e-01 4.393217e-01 4.610878e-01 1.483274e-01
<GCONST> 1.183214e+02
<MIXTURE> 3 2.414751e-01
<MEAN> 39
 7.849816e-01 -5.249378e+00 1.139834e+00 -5.598143e+00 -5.991899e+00 -9.460011e+00 -1.041799e+01 -8.335568e+00 -6.777143e+00 -1.000709e+00 -4.210627e+00 -7.806012e+00 6.753251e+01 -5.885450e-01 -2.078254e+00 -1.548938e-01 -3.290072e+00 -8.971368e-01 8.297686e-01 1.401161e+00 2.819156e+00 6.353176e-01 -1.571140e+00 -7.750093e-01 7.956127e-01 1.905736e+00 -3.452272e-01 -1.066279e-01 3.411157e-01 -5.191475e-01 -2.397373e-01 4.808614e-01 4.779358e-01 1.032901e-01 -1.505795e-01 -2.179110e-01 -8.802120e-02 3.741864e-01 2.252140e-01
<VARIANCE> 39
 5.653935e+00 2.302317e+01 2.493069e+01 3.812719e+01 4.049127e+01 4.837511e+01 3.766152e+01 6.869340e+01 3.386616e+01 4.447362e+01 3.570679e+01 2.818094e+01 1.258382e+01 8.128861e-01 1.548825e+00 6.109695e+00 2.350930e+00 4.286799e+00 4.385142e+00 5.629511e+00 5.092490e+00 4.888361e+00 4.987288e+00 2.830786e+00 3.967075e+00 5.895496e-01 8.047397e-02 3.481380e-01 4.162406e-01 6.792405e-01 5.325280e-01 4.573948e-01 6.576414e-01 8.568838e-01 5.185794e-01 7.395935e-01 3.877532e-01 4.779189e-01 1.427221e-01
<GCONST> 1.184587e+02
<MIXTURE> 4 2.592267e-01
<MEAN> 39
 5.937738e-01 -2.254242e+00 2.052979e+00 -4.364102e+00 -5.316811e+00 -2.585714e+00 -4.286400e+00 -8.354324e+00 -1.027945e+01 -4.651569e+00 -2.154017e+00 -4.791580e+00 6.525083e+01 1.387617e-01 -6.049079e-01 -1.054975e+00 -2.127093e+00 -8.216053e-01 -2.866313e-01 -3.718997e-01 1.604001e+00 1.846035e+00 4.789059e-01 2.539776e-01 -6.803503e-02 8.521454e-01 -6.661291e-02 -2.264919e-01 -1.547606e-01 -3.365361e-01 -1.060947e-01 2.981792e-02 -1.076498e-01 3.996708e-01 3.893990e-01 1.313665e-01 2.387588e-02 9.337513e-03 1.741543e-01
<VARIANCE> 39
