~o
<STREAMINFO> 1 39
<VECSIZE> 39<NULLD><MFCC_D_A_0><DIAGC>
~h "b"
<BEGINHMM>
<NUMSTATES> 5
<STATE> 2
<MEAN> 39
 -7.382722e+00 -4.832812e+00 3.436238e+00 -4.640664e+00 -3.369674e+00 -1.263389e+00 -1.262045e+00 -7.722946e-02 -8.338377e-01 2.018341e-01 1.993968e-01 4.075438e-01 6.157718e+01 8.537115e-03 5.588396e-05 2.409325e-03 -1.054354e-02 -4.868119e-03 -8.651440e-03 -1.022500e-02 -3.220016e-03 -4.368482e-03 -7.312077e-04 -1.210433e-02 -9.138941e-03 1.048674e-02 1.069718e-03 -3.686758e-04 -6.062233e-05 -2.424469e-04 -6.201767e-04 -2.743741e-04 -6.839221e-04 -3.655175e-04 -6.712661e-05 -2.121745e-04 -1.011335e-03 -3.747981e-04 7.938111e-04
<VARIANCE> 39
 5.010133e+01 3.331667e+01 4.824088e+01 7.268293e+01 7.455396e+01 6.394746e+01 5.957662e+01 5.159022e+01 5.183148e+01 4.042860e+01 4.665098e+01 3.762001e+01 8.730343e+01 2.012530e+00 1.883392e+00 2.292568e+00 3.486961e+00 3.491478e+00 2.988120e+00 3.074903e+00 3.131480e+00 2.904019e+00 2.670440e+00 2.508625e+00 2.172477e+00 2.367537e+00 2.880241e-01 3.036095e-01 3.566654e-01 5.576509e-01 5.810140e-01 5.247348e-01 5.420991e-01 5.580872e-01 5.203235e-01 4.951259e-01 4.572798e-01 4.005016e-01 3.367318e-01
<GCONST> 1.253964e+02
<STATE> 3
<MEAN> 39
 -7.349420e+00 -4.833533e+00 3.443365e+00 -4.674444e+00 -3.389174e+00 -1.290715e+00 -1.298825e+00 -9.281032e-02 -8.507321e-01 1.997548e-01 1.558315e-01 3.766195e-01 6.161264e+01 1.176772e-02 -7.774758e-04 2.262073e-03 -1.133626e-02 -7.319542e-03 -9.611994e-03 -1.208944e-02 -4.631440e-03 -5.453463e-03 -1.223793e-03 -1.458752e-02 -9.989689e-03 1.273715e-02 1.001415e-03 -2.407090e-04 -1.630004e-04 -9.553254e-05 -7.472961e-04 -2.207763e-04 -5.390512e-04 -4.558603e-04 -3.364437e-04 -2.555681e-04 -6.656475e-04 -1.351819e-04 6.662746e-04
<VARIANCE> 39
 5.004068e+01 3.337061e+01 4.830360e+01 7.290108e+01 7.490198e+01 6.422585e+01 5.981774e+01 5.185177e+01 5.187294e+01 4.055030e+01 4.671263e+01 3.777934e+01 8.738132e+01 2.008212e+00 1.891087e+00 2.303325e+00 3.495570e+00 3.495146e+00 2.997565e+00 3.089989e+00 3.137155e+00 2.898951e+00 2.674382e+00 2.511810e+00 2.175105e+00 2.380466e+00 2.875232e-01 3.051339e-01 3.579021e-01 5.585679e-01 5.819810e-01 5.261424e-01 5.447906e-01 5.590565e-01 5.194420e-01 4.957535e-01 4.581981e-01 4.010501e-01 3.386464e-01
<GCONST> 1.254851e+02
<STATE> 4
<MEAN> 39
 -7.283235e+00 -4.829642e+00 3.432897e+00 -4.683599e+00 -3.435384e+00 -1.292617e+00 -1.370663e+00 -1.094961e-01 -8.661532e-01 1.849214e-01 8.909063e-02 3.436913e-01 6.164483e+01 1.465433e-02 -1.186245e-03 1.699585e-03 -1.141242e-02 -1.023035e-02 -9.862739e-03 -1.306741e-02 -6.905979e-03 -7.441435e-03 -2.364172e-03 -1.649648e-02 -1.020765e-02 1.502791e-02 6.235091e-04 -8.091005e-05 -1.910864e-04 7.462609e-05 -6.207892e-04 -3.809353e-05 -1.834511e-04 -4.223141e-04 -3.548945e-04 -3.369458e-04 -3.198930e-04 4.623585e-05 5.407428e-04
<VARIANCE> 39
 4.987892e+01 3.343485e+01 4.867434e+01 7.296598e+01 7.574158e+01 6.426339e+01 6.022892e+01 5.233850e+01 5.194987e+01 4.053746e+01 4.677789e+01 3.798179e+01 8.770164e+01 1.982259e+00 1.890452e+00 2.311773e+00 3.483669e+00 3.498355e+00 2.998389e+00 3.091567e+00 3.135491e+00 2.888611e+00 2.667025e+00 2.505988e+00 2.173934e+00 2.395407e+00 2.833823e-01 3.049392e-01 3.578497e-01 5.552765e-01 5.810978e-01 5.253505e-01 5.446972e-01 5.579736e-01 5.172064e-01 4.939813e-01 4.571907e-01 4.006231e-01 3.393035e-01
<GCONST> 1.254813e+02
<TRANSP> 5
 0.000000e+00 1.000000e+00 0.000000e+00 0.000000e+00 0.000000e+00
 0.000000e+00 6.850121e-01 3.149878e-01 0.000000e+00 0.000000e+00
 0.000000e+00 0.000000e+00 6.850141e-01 3.149859e-01 0.000000e+00
 0.000000e+00 0.000000e+00 0.000000e+00 8.023705e-01 1.976295e-01
 0.000000e+00 0.000000e+00 0.000000e+00 0.000000e+00 0.000000e+00
<ENDHMM>
~h "d"
<BEGINHMM>
<NUMSTATES> 5
<STATE> 2
<MEAN> 39
 -6.821255e+00 -4.614427e+00 3.382206e+00 -5.312012e+00 -4.483784e+00 -2.575573e+00 -2.068867e+00 -3.343283e-01 -1.112823e+00 9.312883e-02 -3.606864e-01 4.130890e-02 6.313527e+01 -2.771290e-03 6.433179e-03 1.590605e-03 1.623610e-03 -1.520538e-03 1.782333e-03 1.614642e-03 -6.303983e-04 -2.219551e-03 -7.463968e-05 5.138617e-04 -1.170282e-05 -5.213878e-04 -1.822418e-04 -2.936971e-04 -7.181791e-06 2.959038e-04 2.251793e-04 5.957085e-04 2.885118e-04 1.272331e-04 7.449144e-05 -1.673242e-05 6.358245e-05 1.772527e-04 -5.102421e-04
<VARIANCE> 39
 5.108820e+01 3.495373e+01 5.164918e+01 7.428661e+01 8.298524e+01 7.131538e+01 6.479233e+01 5.469360e+01 5.007856e+01 4.266826e+01 4.901888e+01 3.875848e+01 8.476315e+01 2.387731e+00 2.009424e+00 2.457515e+00 3.923495e+00 4.026232e+00 3.488465e+00 3.406314e+00 3.374666e+00 3.044250e+00 2.802787e+00 2.696833e+00 2.299062e+00 2.701079e+00 3.474877e-01 3.243034e-01 3.839855e-01 6.302281e-01 6.639012e-01 6.067672e-01 5.968552e-01 6.053016e-01 5.429257e-01 5.162058e-01 4.878539e-01 4.182177e-01 3.907008e-01
<GCONST> 1.284824e+02
<STATE> 3
<MEAN> 39
 -6.830623e+00 -4.595436e+00 3.386964e+00 -5.306143e+00 -4.486543e+00 -2.566190e+00 -2.062214e+00 -3.358260e-01 -1.118490e+00 9.316146e-02 -3.579140e-01 4.267256e-02 6.313088e+01 -3.319150e-03 5.518418e-03 1.637035e-03 2.632998e-03 -6.982654e-04 3.510894e-03 2.816471e-03 -2.678134e-04 -1.776683e-03 -4.836101e-04 9.374484e-04 4.976263e-04 -2.327486e-03 -1.553958e-04 -3.087287e-04 2.533070e-05 3.293214e-04 2.398667e-04 4.777002e-04 3.786757e-04 1.262012e-04 1.828228e-04 -7.386410e-05 1.628338e-04 1.408747e-04 -6.009990e-04
<VARIANCE> 39
 5.115918e+01 3.483063e+01 5.162568e+01 7.425877e+01 8.324343e+01 7.141544e+01 6.481429e+01 5.464024e+01 5.011953e+01 4.271088e+01 4.898514e+01 3.864812e+01 8.459666e+01 2.385641e+00 2.003434e+00 2.452841e+00 3.916917e+00 4.024413e+00 3.480687e+00 3.402783e+00 3.368948e+00 3.044867e+00 2.800235e+00 2.691468e+00 2.293212e+00 2.687646e+00 3.469410e-01 3.234818e-01 3.831148e-01 6.292971e-01 6.635151e-01 6.052591e-01 5.966489e-01 6.041956e-01 5.430321e-01 5.159051e-01 4.869165e-01 4.172374e-01 3.891223e-01
<GCONST> 1.284347e+02
<STATE> 4
<MEAN> 39
 -6.841430e+00 -4.561985e+00 3.373707e+00 -5.243886e+00 -4.515701e+00 -2.498125e+00 -2.047303e+00 -3.211100e-01 -1.110123e+00 8.706023e-02 -3.427023e-01 5.542366e-02 6.306386e+01 -4.441904e-03 4.472488e-03 1.534986e-03 4.279112e-03 1.214653e-03 5.407861e-03 4.170507e-03 4.224512e-05 -6.599723e-04 -5.640282e-04 1.685704e-03 1.111446e-03 -5.187755e-03 -2.660804e-04 -2.591382e-04 2.120489e-05 4.465205e-04 3.825441e-04 3.584451e-04 3.361829e-04 1.044605e-04 2.544188e-04 2.214543e-05 1.751176e-04 9.135710e-05 -6.831660e-04
<VARIANCE> 39
 5.104186e+01 3.453136e+01 5.177576e+01 7.380567e+01 8.411588e+01 7.141228e+01 6.487224e+01 5.465282e+01 5.019506e+01 4.255452e+01 4.889266e+01 3.852514e+01 8.452676e+01 2.357999e+00 1.978042e+00 2.436604e+00 3.865199e+00 4.021538e+00 3.449063e+00 3.376777e+00 3.348799e+00 3.033924e+00 2.782949e+00 2.672595e+00 2.280451e+00 2.658988e+00 3.418635e-01 3.192178e-01 3.797087e-01 6.195613e-01 6.614284e-01 5.988269e-01 5.920592e-01 5.997549e-01 5.404219e-01 5.125825e-01 4.830243e-01 4.148322e-01 3.840445e-01
<GCONST> 1.282033e+02
<TRANSP> 5
 0.000000e+00 1.000000e+00 0.000000e+00 0.000000e+00 0.000000e+00
 0.000000e+00 6.850544e-01 3.149456e-01 0.000000e+00 0.000000e+00
 0.000000e+00 0.000000e+00 6.850526e-01 3.149474e-01 0.000000e+00
 0.000000e+00 0.000000e+00 0.000000e+00 8.023772e-01 1.976229e-01
 0.000000e+00 0.000000e+00 0.000000e+00 0.000000e+00 0.000000e+00
<ENDHMM>
~h "f"
<BEGINHMM>
<NUMSTATES> 5
<STATE> 2
<MEAN> 39
 -7.567897e+00 -4.884937e+00 3.158986e+00 -4.738832e+00 -3.620256e+00 -1.601440e+00 -1.345497e+00 1.012825e-01 -7.391467e-01 3.217641e-01 -6.117724e-02 5.352844e-01 6.230108e+01 -3.544218e-04 1.516536e-03 -2.824931e-03 -2.238287e-03 -1.339029e-03 4.914995e-03 -2.464675e-03 1.760389e-03 -3.659535e-03 5.859832e-04 -9.206663e-04 -2.511469e-03 1.399478e-04 1.670095e-04 -7.495381e-05 -3.871740e-04 -1.155034e-04 -5.462697e-04 4.144830e-04 3.658583e-04 1.101884e-04 4.658108e-05 -1.168619e-04 2.486191e-04 -5.263628e-04 2.959530e-04
<VARIANCE> 39
 5.465457e+01 3.259847e+01 4.883623e+01 7.349416e+01 7.476002e+01 6.506630e+01 5.850528e+01 5.133450e+01 4.979348e+01 4.044948e+01 4.590549e+01 3.644779e+01 8.241619e+01 2.889374e+00 1.999865e+00 2.427089e+00 4.023080e+00 3.800055e+00 3.348222e+00 3.297292e+00 3.376066e+00 3.173528e+00 2.782022e+00 2.719350e+00 2.275630e+00 2.378515e+00 4.191733e-01 3.323701e-01 3.833840e-01 6.476318e-01 6.260157e-01 5.774159e-01 5.803194e-01 6.051469e-01 5.745425e-01 5.174291e-01 4.920131e-01 4.150671e-01 3.396834e-01
<GCONST> 1.278312e+02
<STATE> 3
<MEAN> 39
 -7.568908e+00 -4.882030e+00 3.148222e+00 -4.745365e+00 -3.623650e+00 -1.584872e+00 -1.352932e+00 1.081546e-01 -7.501021e-01 3.229032e-01 -6.276562e-02 5.264665e-01 6.230194e+01 3.064485e-04 1.255695e-03 -4.502731e-03 -2.487058e-03 -1.975270e-03 6.010544e-03 -1.663387e-03 1.742753e-03 -3.361910e-03 -1.461811e-04 -2.732462e-04 -3.630779e-03 9.840201e-04 2.328928e-04 -1.417781e-04 -4.659189e-04 -6.061501e-05 -1.691330e-04 3.088222e-04 3.202800e-04 -9.128262e-05 9.766889e-05 -2.641921e-04 2.060783e-04 -4.196743e-04 3.114096e-04
<VARIANCE> 39
 5.473817e+01 3.267055e+01 4.895221e+01 7.367894e+01 7.475232e+01 6.474870e+01 5.856539e+01 5.128981e+01 4.977813e+01 4.050222e+01 4.591364e+01 3.653249e+01 8.237711e+01 2.893359e+00 2.002726e+00 2.427530e+00 4.033795e+00 3.802993e+00 3.350870e+00 3.300947e+00 3.371621e+00 3.188076e+00 2.787398e+00 2.722416e+00 2.278472e+00 2.381237e+00 4.199642e-01 3.327217e-01 3.831854e-01 6.489834e-01 6.265668e-01 5.775522e-01 5.815185e-01 6.039932e-01 5.775450e-01 5.180426e-01 4.925649e-01 4.151443e-01 3.396463e-01
<GCONST> 1.278685e+02
<STATE> 4
<MEAN> 39
 -7.555304e+00 -4.877159e+00 3.101943e+00 -4.709204e+00 -3.641427e+00 -1.526788e+00 -1.350890e+00 1.244232e-01 -7.543807e-01 3.063138e-01 -6.055171e-02 5.253946e-01 6.227451e+01 7.241893e-04 7.641516e-04 -6.280883e-03 -1.824745e-03 -7.379713e-04 6.174706e-03 -6.113034e-04 1.774221e-03 -2.227371e-03 -1.200092e-03 1.051859e-06 -4.459365e-03 1.265523e-03 1.691818e-04 -7.531211e-05 -3.597717e-04 8.481939e-05 9.281647e-05 4.577764e-05 3.600241e-04 -1.323210e-04 1.477156e-04 -2.848710e-04 3.854385e-05 -3.654316e-04 2.125342e-04
<VARIANCE> 39
 5.479912e+01 3.271085e+01 4.936589e+01 7.302347e+01 7.485936e+01 6.413201e+01 5.855390e+01 5.120130e+01 4.981278e+01 4.043123e+01 4.585773e+01 3.664159e+01 8.198827e+01 2.877726e+00 1.992699e+00 2.423758e+00 3.990250e+00 3.796264e+00 3.336393e+00 3.288808e+00 3.358980e+00 3.185151e+00 2.781132e+00 2.711775e+00 2.282043e+00 2.381292e+00 4.170932e-01 3.301615e-01 3.814958e-01 6.408018e-01 6.240187e-01 5.736418e-01 5.791787e-01 6.002936e-01 5.765379e-01 5.164340e-01 4.900783e-01 4.148851e-01 3.376514e-01
<GCONST> 1.277452e+02
<TRANSP> 5
 0.000000e+00 1.000000e+00 0.000000e+00 0.000000e+00 0.000000e+00
 0.000000e+00 6.843059e-01 3.156942e-01 0.000000e+00 0.000000e+00
 0.000000e+00 0.000000e+00 6.843063e-01 3.156937e-01 0.000000e+00
 0.000000e+00 0.000000e+00 0.000000e+00 8.012552e-01 1.987448e-01
 0.000000e+00 0.000000e+00 0.000000e+00 0.000000e+00 0.000000e+00
<ENDHMM>
~h "g"
<BEGINHMM>
<NUMSTATES> 5
<STATE> 2
<MEAN> 39
 -6.732564e+00 -5.188050e+00 3.028754e+00 -4.781220e+00 -3.591521e+00 -1.410911e+00 -1.550407e+00 6.715985e-02 -8.536155e-01 4.698245e-01 6.481276e-02 1.636156e-01 6.181188e+01 8.153000e-03 -2.496307e-03 -4.328793e-03 -3.121949e-03 1.852355e-03 7.913722e-03 -6.824211e-03 -1.813687e-03 -1.186208e-02 -5.954974e-04 2.432156e-03 -1.476632e-03 2.876062e-03 -2.692781e-04 2.605511e-04 -4.612073e-05 4.639747e-04 -1.819732e-04 5.452628e-05 7.178906e-04 -2.151878e-04 3.167487e-04 -3.065682e-04 -3.699005e-05 7.173035e-05 -2.246593e-04
<VARIANCE> 39
 4.995324e+01 3.343962e+01 4.589788e+01 7.003447e+01 7.574769e+01 6.646716e+01 6.310375e+01 5.222005e+01 5.102066e+01 4.056047e+01 5.032542e+01 3.980707e+01 8.815370e+01 1.887241e+00 1.833491e+00 2.156243e+00 3.458731e+00 3.494094e+00 2.986048e+00 3.070762e+00 3.145095e+00 2.920608e+00 2.677722e+00 2.539778e+00 2.162709e+00 2.175966e+00 2.737325e-01 2.964130e-01 3.414229e-01 5.627146e-01 5.859508e-01 5.241260e-01 5.420042e-01 5.616120e-01 5.272343e-01 4.958775e-01 4.639146e-01 4.006246e-01 3.167752e-01
<GCONST> 1.252104e+02
<STATE> 3
<MEAN> 39
 -6.709239e+00 -5.194601e+00 3.016523e+00 -4.789297e+00 -3.583802e+00 -1.384093e+00 -1.568479e+00 6.191060e-02 -8.860500e-01 4.655358e-01 7.116219e-02 1.596691e-01 6.181738e+01 6.493982e-03 -1.596083e-03 -3.655410e-03 -1.949256e-03 1.567588e-03 7.372212e-03 -4.253775e-03 -1.771536e-03 -1.013871e-02 -1.549870e-03 2.118745e-03 -5.360993e-04 2.006896e-03 -5.231946e-04 1.586975e-04 2.029047e-04 2.912027e-04 -1.050061e-04 -3.313831e-04 8.159617e-04 1.332025e-04 6.382092e-04 -4.057955e-04 -1.701590e-04 1.551678e-04 -1.580125e-04
<VARIANCE> 39
 4.985074e+01 3.353370e+01 4.594994e+01 7.018514e+01 7.563068e+01 6.628754e+01 6.313066e+01 5.225844e+01 5.114263e+01 4.047189e+01 5.065670e+01 3.988596e+01 8.838110e+01 1.881960e+00 1.837745e+00 2.150358e+00 3.461615e+00 3.499497e+00 2.987907e+00 3.070145e+00 3.155272e+00 2.936041e+00 2.681048e+00 2.548021e+00 2.171315e+00 2.179982e+00 2.735776e-01 2.971941e-01 3.404136e-01 5.629154e-01 5.866887e-01 5.246838e-01 5.418798e-01 5.635838e-01 5.301073e-01 4.965572e-01 4.650677e-01 4.018333e-01 3.170776e-01
<GCONST> 1.252594e+02
<STATE> 4
<MEAN> 39
 -6.649987e+00 -5.214699e+00 2.953857e+00 -4.790245e+00 -3.593345e+00 -1.313036e+00 -1.606396e+00 7.379242e-02 -8.848572e-01 4.418592e-01 7.392685e-02 1.471160e-01 6.180630e+01 2.976899e-03 -2.382698e-04 -1.621149e-03 -7.795099e-04 1.558756e-03 5.679221e-03 -2.943319e-04 -7.446253e-04 -6.126687e-03 -2.789852e-03 9.477804e-04 8.594311e-04 2.199335e-04 -6.583299e-04 1.356578e-04 2.657083e-04 1.910755e-04 -1.398658e-04 -5.959714e-04 9.323051e-04 2.868739e-04 7.952433e-04 -3.219520e-04 -3.223613e-04 1.481787e-04 -1.229159e-04
<VARIANCE> 39
 4.951093e+01 3.363778e+01 4.636009e+01 7.005439e+01 7.578848e+01 6.610533e+01 6.344321e+01 5.237931e+01 5.127442e+01 4.022385e+01 5.103981e+01 4.004617e+01 8.868312e+01 1.856481e+00 1.833444e+00 2.131286e+00 3.437692e+00 3.508555e+00 2.975393e+00 3.066757e+00 3.151025e+00 2.940504e+00 2.671667e+00 2.548061e+00 2.178353e+00 2.187166e+00 2.702996e-01 2.960943e-01 3.365858e-01 5.575706e-01 5.872487e-01 5.220658e-01 5.398178e-01 5.616809e-01 5.303866e-01 4.949017e-01 4.640522e-01 4.022598e-01 3.164677e-01
<GCONST> 1.251956e+02
<TRANSP> 5
 0.000000e+00 1.000000e+00 0.000000e+00 0.000000e+00 0.000000e+00
 0.000000e+00 6.869300e-01 3.130699e-01 0.000000e+00 0.000000e+00
 0.000000e+00 0.000000e+00 6.869302e-01 3.130697e-01 0.000000e+00
 0.000000e+00 0.000000e+00 0.000000e+00 8.050268e-01 1.949731e-01
 0.000000e+00 0.000000e+00 0.000000e+00 0.000000e+00 0.000000e+00
<ENDHMM>
~h "k"
<BEGINHMM>
<NUMSTATES> 5
<STATE> 2
<MEAN> 39
 -7.339263e+00 -4.883580e+00 3.147577e+00 -4.842441e+00 -3.468934e+00 -1.605374e+00 -1.197152e+00 1.474321e-01 -8.208891e-01 4.653870e-01 1.630299e-01 4.109804e-01 6.193827e+01 -1.403718e-03 8.767112e-04 -6.252062e-04 -1.090056e-04 -5.799396e-04 -3.297745e-03 1.449622e-03 1.128811e-04 -9.799559e-04 -9.105171e-04 -3.988173e-04 -1.679554e-04 2.819016e-03 -3.339520e-05 -1.604256e-04 1.620852e-04 5.825461e-05 3.841226e-05 -1.781794e-04 -3.262885e-04 -5.019096e-05 1.727317e-04 6.252703e-05 -2.651535e-04 5.279784e-05 6.839444e-06
<VARIANCE> 39
 5.049826e+01 3.284105e+01 5.018633e+01 7.371673e+01 7.699073e+01 6.746719e+01 6.085762e+01 5.149228e+01 5.053347e+01 4.079688e+01 4.698451e+01 3.763341e+01 8.831849e+01 2.482239e+00 2.008808e+00 2.507616e+00 3.928602e+00 3.922911e+00 3.451325e+00 3.368737e+00 3.288963e+00 3.212659e+00 2.838928e+00 2.732903e+00 2.311700e+00 2.825097e+00 3.622437e-01 3.376262e-01 4.018004e-01 6.321816e-01 6.503055e-01 6.032295e-01 5.916148e-01 5.974655e-01 5.798585e-01 5.284606e-01 4.964209e-01 4.227288e-01 4.039550e-01
<GCONST> 1.284015e+02
<STATE> 3
<MEAN> 39
 -7.342512e+00 -4.883270e+00 3.146465e+00 -4.842314e+00 -3.471301e+00 -1.618631e+00 -1.194475e+00 1.476072e-01 -8.232614e-01 4.630926e-01 1.597171e-01 4.099924e-01 6.194780e+01 -1.330164e-03 3.691889e-04 7.776310e-06 4.996779e-05 -7.409517e-04 -3.771655e-03 4.612965e-04 -6.661109e-05 -5.060573e-04 -6.121419e-04 -1.140659e-03 1.994027e-05 2.774291e-03 1.323479e-04 -1.636229e-04 1.821974e-04 1.747084e-05 -1.308255e-04 -2.144786e-04 -3.220333e-04 -6.359617e-05 1.432337e-04 1.411266e-04 -2.623315e-04 1.463118e-05 -5.683915e-06
<VARIANCE> 39
 5.054996e+01 3.287158e+01 5.022507e+01 7.366610e+01 7.702743e+01 6.743481e+01 6.078650e+01 5.152999e+01 5.047709e+01 4.077059e+01 4.699625e+01 3.759415e+01 8.817664e+01 2.481843e+00 2.007544e+00 2.507336e+00 3.925380e+00 3.926313e+00 3.451940e+00 3.368238e+00 3.291519e+00 3.216944e+00 2.837258e+00 2.732151e+00 2.312961e+00 2.828522e+00 3.621724e-01 3.373164e-01 4.016324e-01 6.315545e-01 6.508226e-01 6.034319e-01 5.914251e-01 5.978766e-01 5.804989e-01 5.281628e-01 4.963874e-01 4.230210e-01 4.043268e-01
<GCONST> 1.284021e+02
<STATE> 4
<MEAN> 39
 -7.340864e+00 -4.878827e+00 3.124009e+00 -4.816312e+00 -3.498372e+00 -1.586415e+00 -1.191023e+00 1.545089e-01 -8.028818e-01 4.543315e-01 1.569987e-01 4.217069e-01 6.191323e+01 -6.401947e-04 -2.239450e-04 3.370765e-04 -1.418380e-04 -1.058164e-03 -3.919794e-03 -7.464543e-04 -2.826970e-04 1.086223e-04 1.598624e-04 -1.849784e-03 -1.196505e-04 2.633973e-03 2.369007e-04 -9.521710e-05 7.266161e-05 -9.859089e-05 -1.561919e-04 -2.516859e-05 -2.978028e-04 -7.214624e-05 1.125520e-04 1.942845e-04 -1.911601e-04 -4.705907e-05 -2.643895e-05
<VARIANCE> 39
 5.047686e+01 3.284727e+01 5.050052e+01 7.325844e+01 7.743860e+01 6.722376e+01 6.077347e+01 5.157988e+01 5.034363e+01 4.067530e+01 4.706261e+01 3.754577e+01 8.789510e+01 2.453991e+00 1.992181e+00 2.498484e+00 3.884569e+00 3.919752e+00 3.433266e+00 3.355070e+00 3.281123e+00 3.205143e+00 2.822278e+00 2.722409e+00 2.310884e+00 2.823758e+00 3.573206e-01 3.341644e-01 3.989447e-01 6.233900e-01 6.484898e-01 5.992994e-01 5.885638e-01 5.951366e-01 5.774817e-01 5.246579e-01 4.938816e-01 4.221794e-01 4.016138e-01
<GCONST> 1.282444e+02
<TRANSP> 5
 0.000000e+00 1.000000e+00 0.000000e+00 0.000000e+00 0.000000e+00
 0.000000e+00 6.853547e-01 3.146454e-01 0.000000e+00 0.000000e+00
 0.000000e+00 0.000000e+00 6.853601e-01 3.146399e-01 0.000000e+00
 0.000000e+00 0.000000e+00 0.000000e+00 8.028055e-01 1.971945e-01
 0.000000e+00 0.000000e+00 0.000000e+00 0.000000e+00 0.000000e+00
<ENDHMM>
~h "l"
<BEGINHMM>
<NUMSTATES> 5
<STATE> 2
<MEAN> 39
 -7.542611e+00 -5.065789e+00 3.449126e+00 -4.223341e+00 -3.047398e+00 -9.059049e-01 -1.005975e+00 2.021576e-01 -6.319684e-02 4.797320e-01 2.926766e-01 7.438545e-01 6.092061e+01 -8.564481e-03 -8.176454e-04 3.179442e-04 4.063514e-03 9.737561e-03 2.898895e-03 6.083200e-03 5.231672e-03 2.686840e-03 3.541059e-03 6.930710e-03 4.901129e-03 -7.119319e-03 -2.227911e-04 -3.903428e-04 1.116383e-04 -4.050263e-04 -4.382621e-05 -1.856679e-04 -2.747947e-04 4.483277e-04 -3.455745e-05 2.348511e-04 4.110080e-04 1.510662e-04 4.347460e-04
<VARIANCE> 39
 4.524417e+01 3.081365e+01 4.470788e+01 6.777808e+01 7.270325e+01 6.405052e+01 6.282780e+01 4.785593e+01 4.643217e+01 3.881781e+01 4.452343e+01 3.599036e+01 9.330225e+01 2.003670e+00 1.780764e+00 2.168065e+00 3.239421e+00 3.317856e+00 2.971213e+00 3.158644e+00 3.063071e+00 2.781410e+00 2.566918e+00 2.434083e+00 2.094911e+00 2.211671e+00 2.908154e-01 2.928857e-01 3.443491e-01 5.290270e-01 5.545748e-01 5.239618e-01 5.572024e-01 5.545383e-01 5.058460e-01 4.792539e-01 4.489250e-01 3.882814e-01 3.170512e-01
<GCONST> 1.240790e+02
<STATE> 3
<MEAN> 39
 -7.571170e+00 -5.070366e+00 3.450412e+00 -4.212817e+00 -3.016580e+00 -8.971378e-01 -9.892113e-01 2.219333e-01 -5.347553e-02 4.920111e-01 3.156994e-01 7.596005e-01 6.090196e+01 -9.191126e-03 -1.687474e-03 7.266998e-04 3.005349e-03 9.172687e-03 2.439781e-03 5.346827e-03 6.237736e-03 2.551934e-03 3.883831e-03 7.680122e-03 5.274062e-03 -5.753131e-03 -1.267793e-04 -2.613826e-04 1.255634e-04 -3.380269e-04 -2.531761e-04 -1.241309e-04 -3.160105e-04 2.888258e-04 -6.492615e-06 1.000400e-04 1.927929e-04 1.466873e-04 4.286513e-04
<VARIANCE> 39
 4.527704e+01 3.076315e+01 4.467806e+01 6.763441e+01 7.258611e+01 6.389876e+01 6.279310e+01 4.790693e+01 4.631330e+01 3.880919e+01 4.447982e+01 3.592722e+01 9.293067e+01 2.003722e+00 1.778332e+00 2.167751e+00 3.237119e+00 3.312796e+00 2.973121e+00 3.156810e+00 3.063376e+00 2.780815e+00 2.568071e+00 2.432884e+00 2.094923e+00 2.210113e+00 2.907201e-01 2.926409e-01 3.446052e-01 5.286151e-01 5.532566e-01 5.244362e-01 5.569971e-01 5.548041e-01 5.059175e-01 4.794857e-01 4.486628e-01 3.885341e-01 3.168176e-01
<GCONST> 1.240552e+02
<STATE> 4
<MEAN> 39
 -7.608720e+00 -5.080228e+00 3.428385e+00 -4.179770e+00 -3.007978e+00 -8.563344e-01 -9.733278e-01 2.606055e-01 -2.943804e-02 4.932787e-01 3.525974e-01 7.851506e-01 6.085825e+01 -9.138937e-03 -2.310072e-03 1.247964e-03 2.331636e-03 7.493567e-03 1.639733e-03 4.122403e-03 6.825165e-03 2.740599e-03 3.651404e-03 7.481943e-03 5.587531e-03 -4.294286e-03 5.265492e-05 -9.522762e-05 1.383073e-04 -1.375443e-04 -4.435823e-04 -1.664042e-04 -3.154968e-04 8.181546e-05 4.795444e-05 -1.555277e-05 -4.420870e-05 7.982145e-05 2.790559e-04
<VARIANCE> 39
 4.524876e+01 3.070183e+01 4.484467e+01 6.701061e+01 7.283064e+01 6.349812e+01 6.287674e+01 4.810123e+01 4.614878e+01 3.870889e+01 4.453077e+01 3.591795e+01 9.232050e+01 1.983945e+00 1.764518e+00 2.158445e+00 3.208107e+00 3.303727e+00 2.966602e+00 3.147956e+00 3.054325e+00 2.769805e+00 2.560745e+00 2.427342e+00 2.094341e+00 2.207517e+00 2.874976e-01 2.900734e-01 3.427704e-01 5.229344e-01 5.500038e-01 5.228720e-01 5.546517e-01 5.530259e-01 5.037619e-01 4.778098e-01 4.469202e-01 3.882630e-01 3.150456e-01
<GCONST> 1.239150e+02
<TRANSP> 5
 0.000000e+00 1.000000e+00 0.000000e+00 0.000000e+00 0.000000e+00
 0.000000e+00 6.843404e-01 3.156596e-01 0.000000e+00 0.000000e+00
 0.000000e+00 0.000000e+00 6.843438e-01 3.156562e-01 0.000000e+00
 0.000000e+00 0.000000e+00 0.000000e+00 8.015852e-01 1.984148e-01
 0.000000e+00 0.000000e+00 0.000000e+00 0.000000e+00 0.000000e+00
<ENDHMM>
~h "m"
<BEGINHMM>
<NUMSTATES> 5
<STATE> 2
<MEAN> 39
 -7.082152e+00 -4.871279e+00 3.254602e+00 -4.702070e+00 -3.426967e+00 -1.335013e+00 -1.387583e+00 -1.664343e-01 -1.071013e+00 1.440848e-01 1.489736e-01 2.714086e-01 6.179796e+01 5.453889e-03 -3.875269e-03 4.232534e-05 -4.520413e-03 -4.618930e-03 -2.951526e-03 -3.466914e-03 -1.002058e-04 -4.330935e-03 -2.049347e-03 -5.411262e-03 -6.182129e-03 8.235816e-03 -7.495747e-06 1.116629e-04 1.001409e-04 2.126730e-04 -1.291583e-04 1.714201e-04 1.473320e-04 -2.438930e-04 2.906508e-05 1.215795e-04 -2.627128e-04 -3.570449e-05 -1.124184e-04
<VARIANCE> 39
 5.000843e+01 3.223838e+01 4.680369e+01 7.109456e+01 7.544568e+01 6.412621e+01 6.124796e+01 5.336158e+01 5.239033e+01 4.088504e+01 4.612206e+01 3.833069e+01 8.558991e+01 2.149430e+00 1.867648e+00 2.323896e+00 3.738238e+00 3.587182e+00 3.181990e+00 3.234807e+00 3.295922e+00 3.049177e+00 2.739039e+00 2.544687e+00 2.204435e+00 2.391629e+00 3.123118e-01 3.049065e-01 3.723144e-01 6.093523e-01 5.935577e-01 5.583339e-01 5.727180e-01 5.933560e-01 5.490263e-01 5.079674e-01 4.651528e-01 4.055486e-01 3.437535e-01
<GCONST> 1.263863e+02
<STATE> 3
<MEAN> 39
 -7.064517e+00 -4.882185e+00 3.255444e+00 -4.715210e+00 -3.441534e+00 -1.342240e+00 -1.397323e+00 -1.679516e-01 -1.083666e+00 1.374201e-01 1.300036e-01 2.523436e-01 6.182148e+01 5.520904e-03 -3.362911e-03 1.874357e-04 -4.112644e-03 -5.094445e-03 -2.315614e-03 -3.155707e-03 -7.148392e-04 -4.379134e-03 -1.804446e-03 -6.213884e-03 -6.061707e-03 7.851952e-03 1.467842e-05 1.880781e-04 -1.728139e-05 7.822630e-05 -1.164670e-04 1.996271e-04 6.899008e-05 -2.007922e-04 1.578269e-05 7.369091e-05 -1.992761e-04 6.929330e-05 -1.131881e-04
<VARIANCE> 39
 4.994112e+01 3.234672e+01 4.694758e+01 7.113517e+01 7.558317e+01 6.433629e+01 6.132468e+01 5.341830e+01 5.248186e+01 4.097960e+01 4.617089e+01 3.844007e+01 8.577954e+01 2.150858e+00 1.876168e+00 2.329741e+00 3.744964e+00 3.594215e+00 3.193134e+00 3.244071e+00 3.304344e+00 3.053373e+00 2.744165e+00 2.550806e+00 2.208682e+00 2.400534e+00 3.126922e-01 3.063766e-01 3.730837e-01 6.108123e-01 5.947614e-01 5.604404e-01 5.743927e-01 5.951335e-01 5.497323e-01 5.089488e-01 4.662156e-01 4.062945e-01 3.450248e-01
<GCONST> 1.264744e+02
<STATE> 4
<MEAN> 39
 -7.037261e+00 -4.883897e+00 3.227416e+00 -4.699846e+00 -3.487348e+00 -1.300722e+00 -1.423496e+00 -1.595625e-01 -1.084591e+00 1.114716e-01 1.063488e-01 2.456696e-01 6.181697e+01 6.107554e-03 -1.924879e-03 -5.021384e-05 -3.989442e-03 -5.587952e-03 -1.875336e-03 -3.357075e-03 -1.981593e-03 -4.507732e-03 -1.558152e-03 -7.287569e-03 -5.941300e-03 7.169902e-03 6.049800e-05 2.929520e-04 -1.317660e-04 -2.345102e-05 -7.434222e-05 6.404835e-05 -8.491120e-05 -2.954614e-04 4.266643e-06 9.401472e-05 -1.739995e-04 1.740980e-05 -3.877247e-05
<VARIANCE> 39
 4.979639e+01 3.240856e+01 4.733587e+01 7.071719e+01 7.623386e+01 6.434356e+01 6.150911e+01 5.350012e+01 5.268439e+01 4.107900e+01 4.631798e+01 3.850107e+01 8.582243e+01 2.135029e+00 1.874073e+00 2.329611e+00 3.720844e+00 3.597316e+00 3.191704e+00 3.244823e+00 3.300145e+00 3.049870e+00 2.738183e+00 2.552552e+00 2.204453e+00 2.405484e+00 3.097683e-01 3.056280e-01 3.720117e-01 6.057892e-01 5.939513e-01 5.595796e-01 5.737012e-01 5.933993e-01 5.481328e-01 5.074072e-01 4.656473e-01 4.052168e-01 3.443478e-01
<GCONST> 1.264406e+02
<TRANSP> 5
 0.000000e+00 1.000000e+00 0.000000e+00 0.000000e+00 0.000000e+00
 0.000000e+00 6.845713e-01 3.154288e-01 0.000000e+00 0.000000e+00
 0.000000e+00 0.000000e+00 6.845695e-01 3.154305e-01 0.000000e+00
 0.000000e+00 0.000000e+00 0.000000e+00 8.017969e-01 1.982031e-01
 0.000000e+00 0.000000e+00 0.000000e+00 0.000000e+00 0.000000e+00
<ENDHMM>
~h "n"
<BEGINHMM>
<NUMSTATES> 5
<STATE> 2
<MEAN> 39
 -7.089576e+00 -4.632502e+00 3.389086e+00 -4.899884e+00 -3.895735e+00 -1.747327e+00 -1.426650e+00 -9.360837e-02 -1.154375e+00 1.318744e-01 -2.191591e-01 2.177243e-01 6.219059e+01 2.027452e-04 2.024224e-03 -1.592815e-03 -1.713318e-03 1.393266e-03 5.519202e-04 -1.435367e-03 -1.460691e-03 -2.577236e-03 -4.694754e-04 -1.799109e-03 -1.249285e-03 1.000739e-03 5.364820e-05 -5.533350e-06 -3.730265e-05 -7.816065e-06 5.597315e-05 -3.166074e-05 -1.788115e-04 4.505700e-05 1.408218e-04 7.022142e-05 6.781897e-05 2.590904e-05 -1.001941e-04
<VARIANCE> 39
 5.186348e+01 3.406265e+01 4.710647e+01 7.268698e+01 7.865244e+01 6.726508e+01 6.052520e+01 5.260233e+01 5.101639e+01 4.181561e+01 4.785395e+01 3.828205e+01 8.770512e+01 2.368391e+00 1.967035e+00 2.330861e+00 3.662042e+00 3.696173e+00 3.293109e+00 3.249998e+00 3.268247e+00 3.010440e+00 2.756438e+00 2.653583e+00 2.234779e+00 2.453594e+00 3.385275e-01 3.184189e-01 3.698893e-01 5.888837e-01 6.087075e-01 5.741723e-01 5.721694e-01 5.881661e-01 5.409584e-01 5.107251e-01 4.793104e-01 4.092668e-01 3.513134e-01
<GCONST> 1.270702e+02
<STATE> 3
<MEAN> 39
 -7.088567e+00 -4.625943e+00 3.383380e+00 -4.905180e+00 -3.891831e+00 -1.746024e+00 -1.432010e+00 -9.791426e-02 -1.161720e+00 1.307654e-01 -2.235565e-01 2.135385e-01 6.219191e+01 4.544742e-04 1.919279e-03 -1.682834e-03 -1.661074e-03 1.650562e-03 6.950499e-04 -1.917488e-03 -1.424909e-03 -2.049020e-03 -2.230880e-04 -1.689790e-03 -1.349232e-03 6.430877e-04 1.003567e-04 -5.597418e-05 -4.780078e-05 3.163256e-05 6.550294e-05 4.510821e-05 -9.421445e-05 -1.644718e-05 1.854803e-04 9.370612e-05 5.593301e-05 -1.227618e-06 -1.156224e-04
<VARIANCE> 39
 5.192827e+01 3.405240e+01 4.708160e+01 7.273475e+01 7.876656e+01 6.728205e+01 6.058954e+01 5.262231e+01 5.103899e+01 4.184498e+01 4.783824e+01 3.829816e+01 8.766125e+01 2.367778e+00 1.965915e+00 2.329559e+00 3.659764e+00 3.698718e+00 3.291310e+00 3.250108e+00 3.270689e+00 3.014223e+00 2.756829e+00 2.653176e+00 2.236140e+00 2.451328e+00 3.383256e-01 3.182060e-01 3.695287e-01 5.884285e-01 6.090370e-01 5.737610e-01 5.720941e-01 5.885828e-01 5.414612e-01 5.106924e-01 4.792622e-01 4.094297e-01 3.510229e-01
<GCONST> 1.270727e+02
<STATE> 4
<MEAN> 39
 -7.087063e+00 -4.607444e+00 3.357637e+00 -4.872617e+00 -3.905906e+00 -1.689018e+00 -1.436521e+00 -8.623420e-02 -1.145103e+00 1.192714e-01 -2.136684e-01 2.295693e-01 6.213444e+01 8.667018e-04 1.678724e-03 -1.747056e-03 -1.232900e-03 1.739918e-03 8.849113e-04 -2.053289e-03 -1.513693e-03 -1.222951e-03 7.548818e-05 -1.728611e-03 -1.565908e-03 5.296756e-05 1.057315e-04 -8.673756e-05 -3.947309e-06 9.168272e-05 6.943817e-05 3.244609e-05 2.179795e-05 -4.787032e-05 1.592335e-04 1.283047e-04 8.367496e-06 -8.794560e-07 -1.398926e-04
<VARIANCE> 39
 5.182487e+01 3.388731e+01 4.721505e+01 7.235077e+01 7.931014e+01 6.711929e+01 6.072666e+01 5.261681e+01 5.109139e+01 4.175330e+01 4.785934e+01 3.830396e+01 8.754905e+01 2.339079e+00 1.945297e+00 2.317293e+00 3.615128e+00 3.692868e+00 3.268890e+00 3.233814e+00 3.253793e+00 3.005586e+00 2.742580e+00 2.643773e+00 2.230820e+00 2.439154e+00 3.333690e-01 3.142713e-01 3.664843e-01 5.798249e-01 6.066686e-01 5.690859e-01 5.687225e-01 5.849117e-01 5.391700e-01 5.074255e-01 4.770367e-01 4.079716e-01 3.478248e-01
<GCONST> 1.268878e+02
<TRANSP> 5
 0.000000e+00 1.000000e+00 0.000000e+00 0.000000e+00 0.000000e+00
 0.000000e+00 6.847521e-01 3.152479e-01 0.000000e+00 0.000000e+00
 0.000000e+00 0.000000e+00 6.847447e-01 3.152554e-01 0.000000e+00
 0.000000e+00 0.000000e+00 0.000000e+00 8.021042e-01 1.978958e-01
 0.000000e+00 0.000000e+00 0.000000e+00 0.000000e+00 0.000000e+00
<ENDHMM>
~h "p"
<BEGINHMM>
<NUMSTATES> 5
<STATE> 2
<MEAN> 39
 -7.445608e+00 -4.968448e+00 3.059402e+00 -4.570280e+00 -3.142692e+00 -1.189415e+00 -1.158645e+00 2.359915e-01 -3.184683e-01 5.304304e-01 2.609263e-01 5.975015e-01 6.140767e+01 3.638580e-03 -2.576836e-03 -2.383849e-03 -4.642774e-03 4.588268e-05 -3.040200e-03 -2.652327e-03 4.959842e-04 1.741474e-03 -2.985403e-03 1.461091e-04 -2.233774e-03 7.256502e-03 3.581892e-04 -1.948349e-04 3.131832e-04 -1.220675e-04 -2.382904e-04 -4.452620e-04 1.037268e-04 -2.965942e-04 1.288112e-04 -6.312320e-05 -9.223499e-05 1.970957e-04 -4.974919e-05
<VARIANCE> 39
 5.104303e+01 3.296714e+01 4.656659e+01 7.137657e+01 7.265644e+01 6.435664e+01 6.004417e+01 4.865456e+01 4.780738e+01 3.832529e+01 4.569698e+01 3.604771e+01 9.025035e+01 2.561209e+00 1.965651e+00 2.387564e+00 3.905650e+00 3.705212e+00 3.340415e+00 3.344212e+00 3.178200e+00 3.070117e+00 2.733217e+00 2.667404e+00 2.219739e+00 2.858237e+00 3.783373e-01 3.238729e-01 3.807023e-01 6.428304e-01 6.142428e-01 5.833389e-01 5.887024e-01 5.777931e-01 5.595790e-01 5.168088e-01 4.855771e-01 4.094677e-01 4.021503e-01
<GCONST> 1.273727e+02
<STATE> 3
<MEAN> 39
 -7.432323e+00 -4.976287e+00 3.052586e+00 -4.584063e+00 -3.142636e+00 -1.201191e+00 -1.166617e+00 2.354096e-01 -3.131703e-01 5.196573e-01 2.602840e-01 5.909905e-01 6.142752e+01 4.395583e-03 -2.834439e-03 -1.535551e-03 -4.662548e-03 -7.590363e-04 -4.154889e-03 -2.176029e-03 -1.665668e-04 1.725642e-03 -3.623905e-03 -4.624082e-04 -1.672136e-03 7.235931e-03 2.223548e-04 -3.570727e-05 2.713238e-04 9.264516e-06 -3.187497e-04 -3.994320e-04 6.154200e-05 -2.196390e-04 -2.823983e-05 -2.094358e-04 -2.123437e-04 1.320161e-04 5.439031e-05
<VARIANCE> 39
 5.114473e+01 3.309251e+01 4.661848e+01 7.152066e+01 7.261771e+01 6.439235e+01 6.011737e+01 4.874248e+01 4.781345e+01 3.838380e+01 4.576815e+01 3.605078e+01 9.014767e+01 2.564277e+00 1.972195e+00 2.393961e+00 3.922644e+00 3.711308e+00 3.342259e+00 3.354004e+00 3.184958e+00 3.074556e+00 2.734601e+00 2.672742e+00 2.225318e+00 2.871992e+00 3.790248e-01 3.251790e-01 3.816672e-01 6.455666e-01 6.153425e-01 5.834570e-01 5.902572e-01 5.791348e-01 5.604865e-01 5.170857e-01 4.863872e-01 4.104130e-01 4.039015e-01
<GCONST> 1.274469e+02
<STATE> 4
<MEAN> 39
 -7.414060e+00 -4.981353e+00 3.021723e+00 -4.561405e+00 -3.168753e+00 -1.182044e+00 -1.164240e+00 2.375132e-01 -2.892222e-01 4.937437e-01 2.622090e-01 5.944005e-01 6.141752e+01 4.357731e-03 -2.541804e-03 -7.931485e-04 -3.868264e-03 -2.087873e-03 -5.477571e-03 -2.047144e-03 -8.088739e-04 1.174151e-03 -3.814412e-03 -9.387325e-04 -1.183341e-03 7.407605e-03 1.628456e-05 6.376069e-05 2.135949e-04 1.147260e-04 -4.366219e-04 -3.394004e-04 -3.421042e-05 -1.259274e-04 -1.219673e-04 -2.174729e-05 -1.325198e-04 7.885598e-05 1.133134e-04
<VARIANCE> 39
 5.105774e+01 3.317270e+01 4.689379e+01 7.122116e+01 7.294246e+01 6.436388e+01 6.020692e+01 4.880317e+01 4.786541e+01 3.832441e+01 4.582476e+01 3.606529e+01 8.958892e+01 2.541715e+00 1.962950e+00 2.395368e+00 3.904213e+00 3.710879e+00 3.333267e+00 3.354799e+00 3.179517e+00 3.069374e+00 2.725997e+00 2.672810e+00 2.228562e+00 2.881685e+00 3.751300e-01 3.232920e-01 3.809602e-01 6.408991e-01 6.136413e-01 5.808833e-01 5.890539e-01 5.777189e-01 5.592587e-01 5.151021e-01 4.858017e-01 4.104785e-01 4.033015e-01
<GCONST> 1.273836e+02
<TRANSP> 5
 0.000000e+00 1.000000e+00 0.000000e+00 0.000000e+00 0.000000e+00
 0.000000e+00 6.852126e-01 3.147874e-01 0.000000e+00 0.000000e+00
 0.000000e+00 0.000000e+00 6.852150e-01 3.147850e-01 0.000000e+00
 0.000000e+00 0.000000e+00 0.000000e+00 8.026174e-01 1.973825e-01
 0.000000e+00 0.000000e+00 0.000000e+00 0.000000e+00 0.000000e+00
<ENDHMM>
~h "s"
<BEGINHMM>
<NUMSTATES> 5
<STATE> 2
<MEAN> 39
 -8.396017e+00 -4.471384e+00 3.198380e+00 -4.383478e+00 -3.015292e+00 -1.451142e+00 -9.706165e-01 3.504197e-01 -3.762082e-01 3.976393e-01 2.671361e-01 7.537932e-01 6.165539e+01 6.948115e-05 2.297209e-03 6.016850e-04 -5.035121e-04 -1.694938e-03 -1.315842e-03 -6.104867e-04 -1.084446e-03 -3.697104e-03 7.252464e-04 3.619989e-04 2.636357e-04 6.037629e-04 6.534270e-05 -3.280928e-06 1.078514e-05 3.496653e-05 7.538011e-06 1.401025e-04 -4.484052e-05 -9.928963e-06 3.683706e-05 3.051345e-04 7.236696e-05 7.655316e-06 -8.753514e-05
<VARIANCE> 39
 5.471840e+01 3.314915e+01 4.471009e+01 6.858713e+01 7.479285e+01 6.645847e+01 6.026936e+01 4.863496e+01 4.675441e+01 3.884365e+01 4.484032e+01 3.512412e+01 8.903051e+01 2.818197e+00 1.925459e+00 2.210945e+00 3.452832e+00 3.583136e+00 3.247390e+00 3.244401e+00 3.152216e+00 2.852134e+00 2.660719e+00 2.570679e+00 2.140516e+00 2.315511e+00 3.989183e-01 3.125919e-01 3.525309e-01 5.566421e-01 5.870431e-01 5.655920e-01 5.689708e-01 5.685967e-01 5.151814e-01 4.954554e-01 4.635890e-01 3.919934e-01 3.321865e-01
<GCONST> 1.260190e+02
<STATE> 3
<MEAN> 39
 -8.395047e+00 -4.464086e+00 3.200634e+00 -4.385570e+00 -3.020800e+00 -1.454640e+00 -9.724780e-01 3.463221e-01 -3.871544e-01 4.010656e-01 2.684251e-01 7.548515e-01 6.165660e+01 2.315847e-04 2.339232e-03 7.651823e-04 -3.219378e-04 -1.583482e-03 -8.839834e-04 -7.674054e-04 -1.124954e-03 -3.534797e-03 1.308179e-03 5.248034e-04 2.945492e-04 3.082564e-04 1.633119e-05 1.434710e-05 4.122642e-05 1.035305e-04 6.216446e-05 1.806364e-04 -3.139075e-05 -1.069806e-05 1.309583e-04 1.512946e-04 2.819580e-05 -1.273892e-05 -1.102237e-04
<VARIANCE> 39
 5.472337e+01 3.310656e+01 4.471821e+01 6.861263e+01 7.480928e+01 6.645837e+01 6.018058e+01 4.863390e+01 4.674071e+01 3.884341e+01 4.481236e+01 3.508851e+01 8.896825e+01 2.821413e+00 1.926159e+00 2.212648e+00 3.457719e+00 3.587365e+00 3.250626e+00 3.247447e+00 3.153122e+00 2.852858e+00 2.660822e+00 2.572416e+00 2.140477e+00 2.315720e+00 3.995639e-01 3.128121e-01 3.528738e-01 5.572642e-01 5.877698e-01 5.660566e-01 5.696340e-01 5.687896e-01 5.152312e-01 4.954651e-01 4.639914e-01 3.920205e-01 3.321153e-01
<GCONST> 1.260313e+02
<STATE> 4
<MEAN> 39
 -8.396811e+00 -4.449944e+00 3.184443e+00 -4.352809e+00 -3.049654e+00 -1.405557e+00 -9.707477e-01 3.460124e-01 -3.834432e-01 3.957072e-01 2.850286e-01 7.692253e-01 6.161818e+01 4.200495e-04 2.392833e-03 9.662711e-04 1.555475e-04 -1.531648e-03 -3.876256e-04 -6.193880e-04 -1.177677e-03 -2.831306e-03 1.392488e-03 4.711129e-04 2.960775e-04 -6.225820e-05 1.102360e-05 1.493984e-05 3.803653e-05 1.714762e-04 2.668745e-05 1.961675e-04 7.121444e-05 -2.968257e-05 2.041629e-04 -2.362461e-06 -3.229699e-05 -9.365409e-05 -1.157723e-04
<VARIANCE> 39
 5.461408e+01 3.295063e+01 4.492414e+01 6.825301e+01 7.516831e+01 6.620697e+01 6.013129e+01 4.866835e+01 4.675738e+01 3.869573e+01 4.478572e+01 3.497737e+01 8.875699e+01 2.793965e+00 1.908240e+00 2.207075e+00 3.430935e+00 3.585131e+00 3.237108e+00 3.237974e+00 3.140753e+00 2.841462e+00 2.645830e+00 2.566017e+00 2.135023e+00 2.307958e+00 3.952605e-01 3.094643e-01 3.513011e-01 5.513417e-01 5.859268e-01 5.630036e-01 5.673314e-01 5.656813e-01 5.126007e-01 4.926324e-01 4.625615e-01 3.910232e-01 3.295453e-01
<GCONST> 1.258771e+02
<TRANSP> 5
 0.000000e+00 1.000000e+00 0.000000e+00 0.000000e+00 0.000000e+00
 0.000000e+00 6.845920e-01 3.154080e-01 0.000000e+00 0.000000e+00
 0.000000e+00 0.000000e+00 6.845922e-01 3.154078e-01 0.000000e+00
 0.000000e+00 0.000000e+00 0.000000e+00 8.018171e-01 1.981829e-01
 0.000000e+00 0.000000e+00 0.000000e+00 0.000000e+00 0.000000e+00
<ENDHMM>
~h "t"
<BEGINHMM>
<NUMSTATES> 5
<STATE> 2
<MEAN> 39
 -7.543790e+00 -4.710249e+00 3.346129e+00 -4.551029e+00 -3.403604e+00 -1.417425e+00 -1.209210e+00 1.808486e-01 -5.376340e-01 4.060558e-01 1.734523e-01 4.662267e-01 6.162742e+01 8.767103e-04 1.307573e-04 -4.899728e-03 1.237614e-03 5.488446e-04 1.664866e-03 8.001690e-04 1.822447e-03 4.650289e-04 2.265448e-03 6.937984e-04 4.190601e-05 -1.252898e-03 1.007249e-04 -9.082067e-05 -1.280867e-04 -1.503834e-04 2.286881e-04 4.309871e-05 -3.355096e-05 -3.452644e-05 5.268425e-05 2.160677e-04 -7.604581e-05 3.231903e-05 -2.791998e-05
<VARIANCE> 39
 4.819125e+01 3.205628e+01 4.557917e+01 7.092848e+01 7.600218e+01 6.517117e+01 6.049023e+01 4.951086e+01 4.844117e+01 3.948643e+01 4.570512e+01 3.714118e+01 9.013167e+01 2.398915e+00 1.935420e+00 2.311490e+00 3.705125e+00 3.801435e+00 3.409691e+00 3.361095e+00 3.223212e+00 3.006946e+00 2.725821e+00 2.688653e+00 2.252516e+00 2.985762e+00 3.575126e-01 3.188410e-01 3.707274e-01 5.929596e-01 6.283287e-01 5.974542e-01 5.911180e-01 5.834984e-01 5.409226e-01 5.081221e-01 4.879963e-01 4.124825e-01 4.252177e-01
<GCONST> 1.272537e+02
<STATE> 3
<MEAN> 39
 -7.541965e+00 -4.710236e+00 3.332060e+00 -4.547494e+00 -3.401886e+00 -1.411850e+00 -1.207075e+00 1.861338e-01 -5.364144e-01 4.145122e-01 1.758581e-01 4.658098e-01 6.162580e+01 9.893909e-04 -1.481651e-04 -5.044946e-03 9.048485e-04 1.117836e-03 1.684317e-03 8.353151e-04 1.614264e-03 5.134231e-04 2.912851e-03 5.659780e-04 1.248759e-04 -1.347908e-03 -4.889811e-06 -5.118478e-05 -3.151147e-05 -1.362303e-04 1.998237e-04 -5.280778e-05 -5.032976e-06 -1.145625e-04 4.854326e-05 1.565882e-04 -8.038948e-05 3.483037e-05 -8.958872e-07
<VARIANCE> 39
 4.816016e+01 3.203060e+01 4.550562e+01 7.089219e+01 7.595264e+01 6.519541e+01 6.053313e+01 4.945759e+01 4.839934e+01 3.952250e+01 4.568937e+01 3.705891e+01 8.989706e+01 2.394114e+00 1.934596e+00 2.309963e+00 3.704508e+00 3.802757e+00 3.412275e+00 3.362329e+00 3.219329e+00 3.006270e+00 2.728982e+00 2.688428e+00 2.251028e+00 2.989591e+00 3.570154e-01 3.185089e-01 3.706245e-01 5.928820e-01 6.286693e-01 5.979537e-01 5.912356e-01 5.829057e-01 5.408011e-01 5.088817e-01 4.880458e-01 4.121743e-01 4.257555e-01
<GCONST> 1.272425e+02
<STATE> 4
<MEAN> 39
 -7.541713e+00 -4.703712e+00 3.298466e+00 -4.515975e+00 -3.416768e+00 -1.350004e+00 -1.212646e+00 2.055478e-01 -5.219035e-01 4.171843e-01 1.956062e-01 4.749538e-01 6.157737e+01 6.941524e-04 -2.888198e-04 -4.186743e-03 6.636853e-04 1.285723e-03 1.714666e-03 1.064108e-03 1.149680e-03 4.380794e-04 2.952548e-03 4.222291e-04 3.217739e-04 -1.436901e-03 -6.346198e-05 -1.659015e-05 1.158646e-04 -1.125886e-04 1.249260e-04 -3.228244e-05 6.680295e-05 -1.546803e-04 2.307111e-05 -3.231154e-05 -7.472860e-05 7.234811e-05 3.716896e-06
<VARIANCE> 39
 4.799806e+01 3.189734e+01 4.558771e+01 7.045805e+01 7.630511e+01 6.486302e+01 6.069267e+01 4.939809e+01 4.832572e+01 3.942702e+01 4.570333e+01 3.696039e+01 9.039335e+01 2.365158e+00 1.917175e+00 2.298284e+00 3.668661e+00 3.796837e+00 3.394216e+00 3.352305e+00 3.200252e+00 2.990618e+00 2.717662e+00 2.679533e+00 2.245151e+00 2.986032e+00 3.521682e-01 3.148788e-01 3.680399e-01 5.858666e-01 6.260567e-01 5.942084e-01 5.884720e-01 5.786972e-01 5.374246e-01 5.066647e-01 4.858570e-01 4.107001e-01 4.236483e-01
<GCONST> 1.270724e+02
<TRANSP> 5
 0.000000e+00 1.000000e+00 0.000000e+00 0.000000e+00 0.000000e+00
 0.000000e+00 6.842842e-01 3.157158e-01 0.000000e+00 0.000000e+00
 0.000000e+00 0.000000e+00 6.842874e-01 3.157127e-01 0.000000e+00
 0.000000e+00 0.000000e+00 0.000000e+00 8.015323e-01 1.984677e-01
 0.000000e+00 0.000000e+00 0.000000e+00 0.000000e+00 0.000000e+00
<ENDHMM>
~h "w"
<BEGINHMM>
<NUMSTATES> 5
<STATE> 2
<MEAN> 39
 -7.076684e+00 -5.163456e+00 2.674481e+00 -5.235564e+00 -3.258740e+00 -1.385671e+00 -1.388594e+00 -5.032080e-02 -5.945948e-01 5.810677e-01 -3.167084e-02 4.815033e-01 6.207107e+01 8.112547e-03 -3.017999e-03 -8.235760e-03 -2.013940e-03 -4.462723e-03 -3.211685e-03 -9.918542e-04 -1.828193e-03 9.525569e-05 -7.754046e-03 -7.428083e-03 -3.324217e-03 6.302985e-03 -4.184356e-04 4.353563e-04 1.592738e-04 3.913734e-04 2.919341e-04 -4.292426e-04 2.094257e-04 1.722577e-04 3.434378e-04 -1.582661e-04 1.242974e-04 -5.379775e-05 1.053696e-05
<VARIANCE> 39
 5.308303e+01 3.322532e+01 4.643018e+01 7.651232e+01 7.270405e+01 6.615537e+01 6.066918e+01 4.912572e+01 4.891532e+01 4.187957e+01 4.838774e+01 3.721708e+01 9.020881e+01 2.512960e+00 2.040388e+00 2.313518e+00 3.890534e+00 3.552593e+00 3.343484e+00 3.300675e+00 3.302466e+00 3.169999e+00 2.901406e+00 2.744048e+00 2.262794e+00 2.501666e+00 3.662838e-01 3.355273e-01 3.658904e-01 6.251967e-01 5.981256e-01 5.801662e-01 5.837513e-01 6.058393e-01 5.896846e-01 5.459955e-01 4.999299e-01 4.162360e-01 3.468052e-01
<GCONST> 1.276550e+02
<STATE> 3
<MEAN> 39
 -7.056056e+00 -5.170453e+00 2.651856e+00 -5.238118e+00 -3.272792e+00 -1.399069e+00 -1.391349e+00 -5.293253e-02 -5.940254e-01 5.570656e-01 -5.320461e-02 4.716096e-01 6.209258e+01 6.544899e-03 -1.616608e-03 -7.698639e-03 -1.155589e-03 -3.397980e-03 -4.169877e-03 -4.547931e-04 -1.216602e-03 9.427336e-04 -7.773831e-03 -7.048539e-03 -3.511727e-03 6.342691e-03 -6.614001e-04 4.820944e-04 2.910451e-04 3.512418e-04 4.721873e-04 -2.745493e-04 2.263896e-04 2.188499e-04 2.606073e-04 6.424061e-05 2.611992e-04 -7.567763e-05 -5.406734e-05
<VARIANCE> 39
 5.314288e+01 3.326320e+01 4.655348e+01 7.655503e+01 7.263639e+01 6.626030e+01 6.075579e+01 4.913416e+01 4.887170e+01 4.186208e+01 4.857482e+01 3.733618e+01 9.003357e+01 2.518435e+00 2.043375e+00 2.319517e+00 3.895911e+00 3.563220e+00 3.352622e+00 3.307027e+00 3.301880e+00 3.172064e+00 2.901592e+00 2.757988e+00 2.266671e+00 2.506356e+00 3.672545e-01 3.361037e-01 3.669080e-01 6.259711e-01 6.001127e-01 5.817596e-01 5.846044e-01 6.055580e-01 5.902964e-01 5.456678e-01 5.024835e-01 4.168068e-01 3.472894e-01
<GCONST> 1.277147e+02
<STATE> 4
<MEAN> 39
 -7.055320e+00 -5.150446e+00 2.607275e+00 -5.181845e+00 -3.308525e+00 -1.349820e+00 -1.378241e+00 -3.777346e-02 -5.747121e-01 5.235469e-01 -5.293742e-02 4.825293e-01 6.203646e+01 3.501202e-03 4.039571e-04 -6.038566e-03 1.631609e-04 -1.813194e-03 -4.385932e-03 -2.261780e-04 -2.904434e-04 1.237678e-03 -6.780569e-03 -6.040464e-03 -3.728359e-03 5.955243e-03 -7.596188e-04 4.665535e-04 3.487486e-04 3.087415e-04 6.252563e-04 4.048250e-05 2.013737e-04 1.698327e-04 1.216499e-04 2.423219e-04 3.506104e-04 -6.810543e-05 -2.436974e-04
<VARIANCE> 39
 5.305909e+01 3.323708e+01 4.699249e+01 7.580780e+01 7.297310e+01 6.594176e+01 6.102042e+01 4.895655e+01 4.877286e+01 4.183776e+01 4.873694e+01 3.732438e+01 8.984869e+01 2.499281e+00 2.029497e+00 2.316015e+00 3.845925e+00 3.570972e+00 3.349155e+00 3.307556e+00 3.281261e+00 3.152910e+00 2.887293e+00 2.761070e+00 2.264066e+00 2.498094e+00 3.640144e-01 3.331033e-01 3.655465e-01 6.171204e-01 6.000038e-01 5.811758e-01 5.835590e-01 6.007766e-01 5.852212e-01 5.419098e-01 5.020973e-01 4.163799e-01 3.441015e-01
<GCONST> 1.275893e+02
<TRANSP> 5
 0.000000e+00 1.000000e+00 0.000000e+00 0.000000e+00 0.000000e+00
 0.000000e+00 6.830949e-01 3.169051e-01 0.000000e+00 0.000000e+00
 0.000000e+00 0.000000e+00 6.830928e-01 3.169072e-01 0.000000e+00
 0.000000e+00 0.000000e+00 0.000000e+00 8.003957e-01 1.996044e-01
 0.000000e+00 0.000000e+00 0.000000e+00 0.000000e+00 0.000000e+00
<ENDHMM>
~h "y"
<BEGINHMM>
<NUMSTATES> 5
<STATE> 2
<MEAN> 39
 -7.752884e+00 -4.614524e+00 3.960405e+00 -4.716280e+00 -3.977899e+00 -1.783797e+00 -1.301182e+00 7.250789e-02 -9.516006e-01 3.012872e-01 2.279465e-02 4.560644e-01 6.201677e+01 4.308735e-03 1.023383e-03 -4.386815e-04 -2.242296e-03 -3.505451e-03 -1.115156e-03 4.549080e-04 -2.358278e-03 -5.240343e-03 -5.610657e-04 -4.120526e-03 -1.539798e-03 1.312531e-03 1.011495e-04 2.282263e-04 -2.522776e-04 3.808236e-04 6.712577e-05 4.302652e-04 1.991674e-04 -1.066523e-04 -7.566220e-05 -6.325636e-05 1.909954e-04 4.438353e-05 -3.918669e-04
<VARIANCE> 39
 5.211081e+01 3.296880e+01 4.852659e+01 7.052871e+01 8.112801e+01 6.661529e+01 6.187137e+01 5.214492e+01 5.032300e+01 3.999781e+01 4.640263e+01 3.617903e+01 8.803234e+01 2.387145e+00 1.906093e+00 2.440135e+00 3.450885e+00 3.706440e+00 3.205876e+00 3.273498e+00 3.249855e+00 2.949378e+00 2.704782e+00 2.584064e+00 2.147527e+00 2.282566e+00 3.351106e-01 3.067956e-01 3.736352e-01 5.545686e-01 6.040269e-01 5.578504e-01 5.753037e-01 5.837682e-01 5.307822e-01 5.023614e-01 4.670335e-01 3.946325e-01 3.242322e-01
<GCONST> 1.263830e+02
<STATE> 3
<MEAN> 39
 -7.739295e+00 -4.609227e+00 3.959415e+00 -4.722406e+00 -3.989523e+00 -1.785055e+00 -1.298540e+00 6.391191e-02 -9.684454e-01 3.004154e-01 1.054217e-02 4.512359e-01 6.201794e+01 4.555756e-03 1.549446e-03 -1.236940e-03 -1.199958e-03 -3.198097e-03 2.224394e-04 8.946524e-04 -2.849935e-03 -5.339851e-03 -7.010291e-04 -3.551159e-03 -1.566145e-03 3.296073e-04 -4.144922e-05 1.562384e-04 -1.692167e-04 3.776250e-04 1.732854e-04 4.171294e-04 1.648276e-04 -2.006729e-04 2.174977e-05 5.678748e-05 1.850555e-04 -4.747295e-05 -3.461133e-04
<VARIANCE> 39
 5.203646e+01 3.297928e+01 4.854060e+01 7.066042e+01 8.121532e+01 6.665957e+01 6.179829e+01 5.213128e+01 5.034359e+01 4.002813e+01 4.638479e+01 3.624111e+01 8.826054e+01 2.383389e+00 1.904776e+00 2.436879e+00 3.451244e+00 3.701379e+00 3.200459e+00 3.268072e+00 3.250347e+00 2.944445e+00 2.705736e+00 2.580323e+00 2.146997e+00 2.279859e+00 3.346680e-01 3.063458e-01 3.735305e-01 5.542139e-01 6.031885e-01 5.569096e-01 5.743229e-01 5.842550e-01 5.298417e-01 5.026006e-01 4.663098e-01 3.946127e-01 3.233525e-01
<GCONST> 1.263639e+02
<STATE> 4
<MEAN> 39
 -7.722823e+00 -4.598729e+00 3.946915e+00 -4.681170e+00 -4.010637e+00 -1.718500e+00 -1.281282e+00 6.278241e-02 -9.660305e-01 2.978138e-01 8.858699e-03 4.613486e-01 6.194934e+01 4.396897e-03 1.848555e-03 -1.263425e-03 -3.811269e-04 -2.745763e-03 1.580735e-03 1.268534e-03 -3.905236e-03 -5.029140e-03 -4.763007e-04 -2.817117e-03 -1.928234e-03 -7.516358e-04 -1.197039e-04 3.927088e-06 -8.706336e-06 2.667363e-04 2.027219e-04 2.966006e-04 1.113242e-04 -2.749242e-04 1.148069e-04 5.749429e-05 1.744433e-04 -1.134796e-04 -2.350392e-04
<VARIANCE> 39
 5.169603e+01 3.286526e+01 4.877978e+01 7.039355e+01 8.168558e+01 6.639404e+01 6.171077e+01 5.200670e+01 5.041959e+01 3.989205e+01 4.632306e+01 3.624183e+01 8.879874e+01 2.347883e+00 1.886030e+00 2.424087e+00 3.406207e+00 3.679864e+00 3.169217e+00 3.239766e+00 3.233460e+00 2.926709e+00 2.693352e+00 2.566004e+00 2.137289e+00 2.262356e+00 3.291165e-01 3.025262e-01 3.706949e-01 5.450619e-01 5.980406e-01 5.507950e-01 5.684992e-01 5.808374e-01 5.259671e-01 5.001668e-01 4.632661e-01 3.928843e-01 3.189796e-01
<GCONST> 1.261286e+02
<TRANSP> 5
 0.000000e+00 1.000000e+00 0.000000e+00 0.000000e+00 0.000000e+00
 0.000000e+00 6.848906e-01 3.151094e-01 0.000000e+00 0.000000e+00
 0.000000e+00 0.000000e+00 6.848912e-01 3.151088e-01 0.000000e+00
 0.000000e+00 0.000000e+00 0.000000e+00 8.021829e-01 1.978171e-01
 0.000000e+00 0.000000e+00 0.000000e+00 0.000000e+00 0.000000e+00
<ENDHMM>
~h "z"
<BEGINHMM>
<NUMSTATES> 5
<STATE> 2
<MEAN> 39
 -8.028831e+00 -4.278189e+00 4.375299e+00 -4.275238e+00 -3.091902e+00 -1.269157e+00 -4.104036e-01 -1.908720e-02 -7.368047e-01 5.785114e-01 3.752772e-01 1.095430e+00 6.080893e+01 4.170028e-03 -4.995361e-03 6.620417e-03 6.550534e-03 1.234764e-02 -6.623449e-03 -8.250738e-03 1.751436e-03 1.484419e-02 -3.281779e-03 3.219299e-05 1.131132e-02 -1.141912e-02 9.586295e-04 1.013577e-03 4.854101e-04 -9.200566e-05 -1.031352e-03 -3.701856e-04 -1.806063e-03 -1.598998e-03 -1.076614e-03 7.492756e-04 -8.510996e-04 -9.814835e-04 6.312998e-05
<VARIANCE> 39
 4.387645e+01 3.120662e+01 4.289665e+01 6.638918e+01 7.047953e+01 6.671633e+01 6.331789e+01 5.298634e+01 5.171002e+01 4.083838e+01 4.498394e+01 3.298592e+01 8.294263e+01 1.898994e+00 1.651826e+00 1.951169e+00 2.911506e+00 2.976953e+00 2.886457e+00 2.961608e+00 2.928346e+00 2.658908e+00 2.454361e+00 2.388643e+00 1.966193e+00 1.729061e+00 2.766454e-01 2.704901e-01 3.051879e-01 4.499950e-01 4.880595e-01 5.020516e-01 5.252708e-01 5.152625e-01 4.690662e-01 4.502165e-01 4.348215e-01 3.700533e-01 2.443504e-01
<GCONST> 1.218826e+02
<STATE> 3
<MEAN> 39
 -8.011283e+00 -4.290143e+00 4.392036e+00 -4.259295e+00 -3.046334e+00 -1.285966e+00 -4.464801e-01 -2.209418e-02 -6.933399e-01 5.695054e-01 3.694653e-01 1.123697e+00 6.077703e+01 5.858434e-03 -1.015077e-03 8.438103e-03 6.292750e-03 1.055878e-02 -7.044737e-03 -1.345406e-02 -3.192948e-03 1.156373e-02 -7.219780e-04 -2.309524e-03 7.952282e-03 -1.095838e-02 6.008064e-04 1.095925e-03 5.787419e-04 -3.400632e-04 -6.929480e-04 5.051511e-05 -1.428645e-03 -1.562830e-03 -1.294228e-03 8.886792e-04 -9.294429e-04 -1.228807e-03 2.999630e-04
<VARIANCE> 39
 4.367112e+01 3.132575e+01 4.285874e+01 6.662288e+01 7.026296e+01 6.695110e+01 6.316941e+01 5.275569e+01 5.138245e+01 4.058290e+01 4.505065e+01 3.257201e+01 8.295591e+01 1.882358e+00 1.658590e+00 1.938558e+00 2.916915e+00 2.986940e+00 2.873533e+00 2.949851e+00 2.906973e+00 2.649892e+00 2.448589e+00 2.387180e+00 1.967939e+00 1.728294e+00 2.739643e-01 2.715422e-01 3.021289e-01 4.503336e-01 4.899251e-01 5.002939e-01 5.233815e-01 5.104771e-01 4.682074e-01 4.492353e-01 4.340665e-01 3.708558e-01 2.432621e-01
<GCONST> 1.217909e+02
<STATE> 4
<MEAN> 39
 -8.003420e+00 -4.273156e+00 4.364865e+00 -4.238904e+00 -2.969617e+00 -1.209394e+00 -5.221724e-01 -4.777588e-02 -6.515253e-01 5.638401e-01 3.517123e-01 1.157156e+00 6.069540e+01 6.462212e-03 4.125156e-03 8.906339e-03 3.959173e-03 1.159457e-02 -5.139320e-03 -1.742604e-02 -8.224315e-03 7.273067e-03 2.401245e-03 -4.782084e-03 3.298020e-03 -9.502340e-03 1.583150e-04 1.099204e-03 3.842092e-04 -6.001306e-04 -3.333028e-04 4.002602e-04 -6.390707e-04 -1.075932e-03 -1.208399e-03 8.656101e-04 -6.743781e-04 -1.167753e-03 3.160924e-04
<VARIANCE> 39
 4.337448e+01 3.165830e+01 4.285776e+01 6.737524e+01 7.070326e+01 6.692378e+01 6.335738e+01 5.220663e+01 5.095502e+01 4.002456e+01 4.491529e+01 3.205769e+01 8.334459e+01 1.861504e+00 1.656596e+00 1.937955e+00 2.921657e+00 2.971227e+00 2.844835e+00 2.942339e+00 2.879539e+00 2.630270e+00 2.439590e+00 2.368034e+00 1.966016e+00 1.718153e+00 2.691341e-01 2.707607e-01 3.005907e-01 4.488768e-01 4.855158e-01 4.944140e-01 5.221813e-01 5.048320e-01 4.653457e-01 4.475514e-01 4.290992e-01 3.708524e-01 2.401440e-01
<GCONST> 1.216058e+02
<TRANSP> 5
 0.000000e+00 1.000000e+00 0.000000e+00 0.000000e+00 0.000000e+00
 0.000000e+00 6.875109e-01 3.124892e-01 0.000000e+00 0.000000e+00
 0.000000e+00 0.000000e+00 6.875079e-01 3.124921e-01 0.000000e+00
 0.000000e+00 0.000000e+00 0.000000e+00 8.054777e-01 1.945223e-01
 0.000000e+00 0.000000e+00 0.000000e+00 0.000000e+00 0.000000e+00
<ENDHMM>
~h "aa"
<BEGINHMM>
<NUMSTATES> 5
<STATE> 2
<MEAN> 39
 -7.190995e+00 -5.259104e+00 2.780134e+00 -4.712475e+00 -3.500221e+00 -1.496457e+00 -1.226763e+00 3.559134e-01 -5.681488e-01 8.155076e-02 -1.825346e-01 2.509345e-01 6.225021e+01 -7.827986e-04 1.484948e-03 -2.999746e-04 1.092833e-03 2.448061e-03 1.669171e-03 5.026393e-05 1.190795e-03 -8.184044e-04 2.413129e-03 -1.501028e-05 -8.356010e-04 -1.325703e-03 -5.396639e-05 6.842023e-05 1.739261e-04 1.065188e-04 -5.109818e-05 6.653955e-05 7.465376e-05 -2.919872e-05 1.600911e-04 1.650207e-05 1.358597e-04 1.704526e-04 -2.883583e-04
<VARIANCE> 39
 4.949658e+01 3.637545e+01 4.992030e+01 6.977029e+01 7.521523e+01 6.589255e+01 6.043912e+01 4.934304e+01 4.837325e+01 4.214232e+01 4.759787e+01 3.874033e+01 9.370532e+01 2.303408e+00 2.035195e+00 2.330153e+00 3.462867e+00 3.521231e+00 3.179870e+00 3.201944e+00 3.144617e+00 2.914972e+00 2.733305e+00 2.604426e+00 2.225737e+00 2.570019e+00 3.357520e-01 3.251289e-01 3.664709e-01 5.643787e-01 5.846425e-01 5.560211e-01 5.658819e-01 5.675184e-01 5.261679e-01 5.034631e-01 4.704098e-01 4.054556e-01 3.669640e-01
<GCONST> 1.266139e+02
<STATE> 3
<MEAN> 39
 -7.193755e+00 -5.254027e+00 2.779247e+00 -4.708930e+00 -3.493413e+00 -1.490993e+00 -1.225889e+00 3.598172e-01 -5.702175e-01 8.883716e-02 -1.816083e-01 2.492078e-01 6.224458e+01 -8.990905e-04 1.675410e-03 1.175795e-04 1.283287e-03 2.231461e-03 1.902955e-03 3.415599e-04 1.115531e-03 -3.839279e-04 2.437960e-03 4.996012e-04 -3.161172e-04 -2.162147e-03 -6.811591e-05 8.021515e-05 1.329809e-04 5.607635e-05 -1.047466e-04 1.339333e-04 1.556279e-04 -3.548758e-05 9.967291e-05 -4.955200e-05 1.290915e-04 1.966386e-04 -2.643479e-04
<VARIANCE> 39
 4.952832e+01 3.638092e+01 4.992650e+01 6.973106e+01 7.518205e+01 6.586420e+01 6.039911e+01 4.931295e+01 4.829422e+01 4.214523e+01 4.760242e+01 3.873632e+01 9.378096e+01 2.305495e+00 2.034319e+00 2.330269e+00 3.460670e+00 3.518118e+00 3.181377e+00 3.200786e+00 3.144888e+00 2.914421e+00 2.732326e+00 2.603008e+00 2.225864e+00 2.567339e+00 3.361246e-01 3.250041e-01 3.664892e-01 5.639764e-01 5.843179e-01 5.562755e-01 5.656534e-01 5.675580e-01 5.260886e-01 5.033519e-01 4.701845e-01 4.055209e-01 3.665480e-01
<GCONST> 1.266063e+02
<STATE> 4
<MEAN> 39
 -7.193819e+00 -5.244027e+00 2.750460e+00 -4.666357e+00 -3.509868e+00 -1.437884e+00 -1.220620e+00 3.724918e-01 -5.503926e-01 8.390706e-02 -1.720622e-01 2.565780e-01 6.219928e+01 -1.013732e-03 1.987934e-03 3.465734e-04 1.377123e-03 1.919912e-03 2.427300e-03 1.077167e-03 8.029864e-04 -7.787745e-05 2.032496e-03 9.464956e-04 2.861335e-04 -3.024324e-03 -7.209452e-05 9.128036e-05 6.565933e-05 4.390436e-05 -7.626700e-05 2.071091e-04 2.009435e-04 -9.153365e-05 4.730668e-05 -1.063547e-04 4.983847e-05 1.692988e-04 -2.220210e-04
<VARIANCE> 39
 4.942458e+01 3.630678e+01 5.015131e+01 6.924990e+01 7.561047e+01 6.565952e+01 6.045208e+01 4.931373e+01 4.825077e+01 4.202568e+01 4.767096e+01 3.877496e+01 9.338664e+01 2.280394e+00 2.016224e+00 2.321052e+00 3.417160e+00 3.507742e+00 3.167480e+00 3.186169e+00 3.130620e+00 2.901428e+00 2.717605e+00 2.593857e+00 2.219709e+00 2.554374e+00 3.320380e-01 3.215553e-01 3.643504e-01 5.553426e-01 5.815062e-01 5.528110e-01 5.619304e-01 5.638524e-01 5.227541e-01 5.000818e-01 4.676409e-01 4.040473e-01 3.631783e-01
<GCONST> 1.264239e+02
<TRANSP> 5
 0.000000e+00 1.000000e+00 0.000000e+00 0.000000e+00 0.000000e+00
 0.000000e+00 6.857656e-01 3.142344e-01 0.000000e+00 0.000000e+00
 0.000000e+00 0.000000e+00 6.857604e-01 3.142397e-01 0.000000e+00
 0.000000e+00 0.000000e+00 0.000000e+00 8.032413e-01 1.967587e-01
 0.000000e+00 0.000000e+00 0.000000e+00 0.000000e+00 0.000000e+00
<ENDHMM>
~h "bb"
<BEGINHMM>
<NUMSTATES> 5
<STATE> 2
<MEAN> 39
 -6.840828e+00 -5.224379e+00 3.165757e+00 -5.294985e+00 -4.113424e+00 -1.839069e+00 -1.921594e+00 -2.306658e-01 -9.267020e-01 3.003530e-01 -2.036732e-01 1.709146e-01 6.267581e+01 6.758313e-03 2.815843e-03 -5.970779e-03 -7.790971e-03 -3.075050e-03 -2.905203e-03 -9.592306e-03 -4.034255e-03 -7.210823e-03 9.489741e-05 -5.722085e-03 -7.827322e-03 1.022845e-02 -4.738015e-05 3.210982e-04 -1.751906e-05 6.635586e-05 4.401739e-04 -2.458791e-04 8.906311e-06 1.928120e-04 2.091715e-04 1.682859e-04 2.762103e-05 1.659148e-04 -4.798488e-04
<VARIANCE> 39
 5.203817e+01 3.620906e+01 5.469587e+01 7.473583e+01 7.884946e+01 6.828745e+01 6.337900e+01 5.184103e+01 4.986116e+01 4.191383e+01 4.913418e+01 3.869255e+01 8.921891e+01 2.211615e+00 1.960496e+00 2.358161e+00 3.657697e+00 3.718137e+00 3.250263e+00 3.246040e+00 3.244157e+00 2.944912e+00 2.741758e+00 2.616858e+00 2.208866e+00 2.470716e+00 3.160233e-01 3.163106e-01 3.612548e-01 5.938441e-01 6.148749e-01 5.655750e-01 5.700313e-01 5.876681e-01 5.271594e-01 5.056593e-01 4.729438e-01 4.034073e-01 3.571662e-01
<GCONST> 1.271240e+02
<STATE> 3
<MEAN> 39
 -6.818800e+00 -5.213221e+00 3.146418e+00 -5.318817e+00 -4.119320e+00 -1.847638e+00 -1.951785e+00 -2.444410e-01 -9.485514e-01 3.008399e-01 -2.219359e-01 1.477373e-01 6.270308e+01 6.542113e-03 3.739466e-03 -5.968731e-03 -7.422510e-03 -1.783328e-03 -3.554390e-03 -9.211411e-03 -3.355335e-03 -6.441116e-03 4.941795e-04 -5.497024e-03 -7.169909e-03 8.588646e-03 1.452397e-05 2.314887e-04 6.446007e-05 6.137619e-05 3.116175e-04 -2.279584e-04 1.086213e-04 3.179943e-04 2.872641e-04 4.902590e-05 6.607382e-05 2.601995e-04 -5.422721e-04
<VARIANCE> 39
 5.207542e+01 3.629962e+01 5.477469e+01 7.491416e+01 7.891555e+01 6.832919e+01 6.344712e+01 5.187481e+01 4.992572e+01 4.207341e+01 4.926793e+01 3.875894e+01 8.919080e+01 2.216436e+00 1.961104e+00 2.361696e+00 3.660334e+00 3.719936e+00 3.244908e+00 3.244642e+00 3.241782e+00 2.947526e+00 2.747667e+00 2.624411e+00 2.213314e+00 2.466215e+00 3.164097e-01 3.161622e-01 3.612830e-01 5.940775e-01 6.148016e-01 5.648061e-01 5.695328e-01 5.868577e-01 5.273440e-01 5.062629e-01 4.741119e-01 4.039145e-01 3.565338e-01
<GCONST> 1.271529e+02
<STATE> 4
<MEAN> 39
 -6.785020e+00 -5.185386e+00 3.092229e+00 -5.306161e+00 -4.149185e+00 -1.807848e+00 -1.988297e+00 -2.639125e-01 -9.563630e-01 2.809037e-01 -2.449102e-01 1.275818e-01 6.268992e+01 6.091963e-03 4.735242e-03 -5.738677e-03 -6.616343e-03 -4.229819e-04 -3.592894e-03 -7.808780e-03 -2.408720e-03 -5.108034e-03 5.401919e-04 -5.049710e-03 -5.919303e-03 6.048524e-03 -9.335941e-06 1.397975e-04 1.202031e-04 9.431458e-05 1.279189e-04 -1.387394e-04 2.652417e-04 3.968478e-04 3.323441e-04 -1.000968e-05 8.597891e-05 2.930938e-04 -5.056511e-04
<VARIANCE> 39
 5.192152e+01 3.626455e+01 5.524778e+01 7.460120e+01 7.940540e+01 6.807285e+01 6.348335e+01 5.187360e+01 4.995395e+01 4.212407e+01 4.953334e+01 3.892347e+01 8.896928e+01 2.198642e+00 1.942144e+00 2.359303e+00 3.616253e+00 3.715419e+00 3.217948e+00 3.228925e+00 3.221072e+00 2.933883e+00 2.740198e+00 2.625818e+00 2.212683e+00 2.449804e+00 3.128301e-01 3.124605e-01 3.595899e-01 5.849994e-01 6.120545e-01 5.597362e-01 5.658478e-01 5.815086e-01 5.237315e-01 5.036787e-01 4.734323e-01 4.028965e-01 3.527624e-01
<GCONST> 1.270008e+02
<TRANSP> 5
 0.000000e+00 1.000000e+00 0.000000e+00 0.000000e+00 0.000000e+00
 0.000000e+00 6.836373e-01 3.163627e-01 0.000000e+00 0.000000e+00
 0.000000e+00 0.000000e+00 6.836378e-01 3.163622e-01 0.000000e+00
 0.000000e+00 0.000000e+00 0.000000e+00 8.007892e-01 1.992108e-01
 0.000000e+00 0.000000e+00 0.000000e+00 0.000000e+00 0.000000e+00
<ENDHMM>
~h "ch"
<BEGINHMM>
<NUMSTATES> 5
<STATE> 2
<MEAN> 39
 -8.181789e+00 -4.801547e+00 3.990569e+00 -4.669810e+00 -2.877242e+00 -1.102871e+00 -9.673296e-01 1.520295e-01 -5.768836e-01 4.291556e-01 2.662742e-01 6.964685e-01 6.123853e+01 -3.181351e-03 3.366465e-03 -8.555765e-03 5.098594e-03 1.439079e-02 5.682813e-05 4.183225e-03 5.029555e-04 -2.325653e-03 4.126889e-03 2.530546e-04 -2.118452e-03 -3.955691e-04 -7.405973e-04 -4.387446e-04 -4.015850e-04 2.124410e-04 1.345578e-03 7.906467e-04 -1.434156e-04 4.207797e-04 1.323968e-03 7.833199e-04 2.252721e-04 6.889928e-04 -3.594185e-04
<VARIANCE> 39
 5.377778e+01 3.009657e+01 4.643142e+01 6.697568e+01 7.067431e+01 6.274503e+01 5.618885e+01 4.548471e+01 4.816345e+01 3.657651e+01 4.510629e+01 3.336432e+01 8.829591e+01 2.970476e+00 1.858886e+00 2.266407e+00 3.495444e+00 3.627660e+00 3.296017e+00 3.159755e+00 2.941439e+00 2.940352e+00 2.662733e+00 2.564239e+00 2.134876e+00 2.534699e+00 4.508197e-01 3.142329e-01 3.755281e-01 6.000146e-01 6.013572e-01 5.717626e-01 5.789254e-01 5.266863e-01 5.325890e-01 5.048968e-01 4.713346e-01 3.978700e-01 3.798497e-01
<GCONST> 1.261453e+02
<STATE> 3
<MEAN> 39
 -8.193570e+00 -4.792127e+00 3.963578e+00 -4.656694e+00 -2.829384e+00 -1.102185e+00 -9.517630e-01 1.522900e-01 -5.796753e-01 4.445274e-01 2.671032e-01 6.923408e-01 6.123985e+01 -5.011566e-03 1.989455e-03 -9.317121e-03 4.947186e-03 1.682423e-02 2.099153e-03 3.004705e-03 1.971944e-03 2.432723e-03 6.117603e-03 1.270579e-03 -8.792894e-06 -1.353512e-03 -2.930352e-04 -5.558939e-04 -1.914907e-04 -1.546083e-04 3.601265e-04 5.995769e-04 -7.057513e-04 5.357038e-04 1.709382e-03 6.335003e-04 1.565423e-04 4.977523e-04 -1.835847e-04
<VARIANCE> 39
 5.394001e+01 3.012043e+01 4.594543e+01 6.654926e+01 7.074838e+01 6.264783e+01 5.624054e+01 4.542052e+01 4.806895e+01 3.647588e+01 4.472325e+01 3.328478e+01 8.812856e+01 2.982326e+00 1.862824e+00 2.264990e+00 3.486561e+00 3.627486e+00 3.287826e+00 3.161071e+00 2.940016e+00 2.942194e+00 2.672951e+00 2.563802e+00 2.134805e+00 2.533905e+00 4.528021e-01 3.158701e-01 3.769034e-01 5.979111e-01 6.007233e-01 5.707239e-01 5.788718e-01 5.266294e-01 5.327702e-01 5.067624e-01 4.711259e-01 3.982651e-01 3.802481e-01
<GCONST> 1.261302e+02
<STATE> 4
<MEAN> 39
 -8.208619e+00 -4.798678e+00 3.896196e+00 -4.639023e+00 -2.799499e+00 -1.069161e+00 -9.480495e-01 1.524456e-01 -5.497050e-01 4.588367e-01 2.829139e-01 6.987589e-01 6.122190e+01 -4.940741e-03 1.510988e-04 -8.999283e-03 3.866334e-03 1.613224e-02 2.980970e-03 9.594715e-04 3.528302e-03 6.633207e-03 7.706380e-03 2.311414e-03 6.271619e-04 -1.049230e-03 4.531994e-04 -5.812403e-04 -2.693821e-05 -2.192202e-04 -4.187780e-04 3.263026e-04 -8.447342e-04 4.548817e-04 1.121960e-03 2.599365e-04 -3.914553e-05 -8.117472e-06 5.147540e-06
<VARIANCE> 39
 5.424236e+01 3.009519e+01 4.545804e+01 6.540154e+01 7.121442e+01 6.239930e+01 5.615782e+01 4.572759e+01 4.814801e+01 3.622144e+01 4.423510e+01 3.332673e+01 8.799586e+01 2.984138e+00 1.857088e+00 2.253060e+00 3.440131e+00 3.613976e+00 3.272585e+00 3.149397e+00 2.935797e+00 2.941769e+00 2.675161e+00 2.562455e+00 2.130105e+00 2.523724e+00 4.509602e-01 3.151155e-01 3.761537e-01 5.882995e-01 5.955510e-01 5.672897e-01 5.761067e-01 5.251182e-01 5.317377e-01 5.073111e-01 4.699563e-01 3.969619e-01 3.779289e-01
<GCONST> 1.259977e+02
<TRANSP> 5
 0.000000e+00 1.000000e+00 0.000000e+00 0.000000e+00 0.000000e+00
 0.000000e+00 6.864781e-01 3.135218e-01 0.000000e+00 0.000000e+00
 0.000000e+00 0.000000e+00 6.864777e-01 3.135223e-01 0.000000e+00
 0.000000e+00 0.000000e+00 0.000000e+00 8.038152e-01 1.961848e-01
 0.000000e+00 0.000000e+00 0.000000e+00 0.000000e+00 0.000000e+00
<ENDHMM>
~h "dd"
<BEGINHMM>
<NUMSTATES> 5
<STATE> 2
<MEAN> 39
 -7.171363e+00 -4.888114e+00 2.970587e+00 -4.977807e+00 -3.600482e+00 -1.704521e+00 -1.433931e+00 -1.595570e-01 -4.218497e-01 2.000971e-01 -1.473611e-01 3.980088e-01 6.218700e+01 -8.791091e-03 4.949970e-03 5.717620e-03 5.454816e-03 2.586519e-03 5.829412e-03 7.149024e-03 6.924191e-04 2.757411e-03 5.239542e-03 1.888087e-03 5.778565e-03 -9.383355e-03 1.057145e-04 3.203677e-05 -1.395216e-04 1.020765e-04 3.163751e-04 4.153753e-04 -2.316464e-04 4.848705e-05 -8.208693e-05 -2.726681e-04 1.289808e-04 2.381308e-05 -2.930082e-04
<VARIANCE> 39
 4.822519e+01 3.370014e+01 5.045009e+01 7.325370e+01 7.796838e+01 6.781775e+01 6.368640e+01 5.191212e+01 4.717307e+01 4.198213e+01 4.720795e+01 3.768302e+01 9.186584e+01 2.139865e+00 1.815389e+00 2.157212e+00 3.493082e+00 3.441837e+00 3.072114e+00 3.150051e+00 3.107698e+00 2.821057e+00 2.586090e+00 2.502008e+00 2.108305e+00 2.363605e+00 3.085740e-01 2.904660e-01 3.332712e-01 5.690983e-01 5.708358e-01 5.317478e-01 5.484974e-01 5.520406e-01 5.077588e-01 4.762245e-01 4.537364e-01 3.826569e-01 3.408159e-01
<GCONST> 1.253756e+02
<STATE> 3
<MEAN> 39
 -7.199633e+00 -4.872234e+00 2.988312e+00 -4.959934e+00 -3.588853e+00 -1.682752e+00 -1.410869e+00 -1.565924e-01 -4.137416e-01 2.159094e-01 -1.408866e-01 4.163541e-01 6.215475e+01 -8.498763e-03 5.027510e-03 5.134311e-03 5.659779e-03 3.665828e-03 6.785593e-03 6.403477e-03 1.060482e-03 2.567660e-03 4.427187e-03 2.296273e-03 5.742063e-03 -1.014629e-02 5.099202e-05 -1.295344e-05 -2.422515e-04 1.560850e-04 4.439013e-04 2.719540e-04 -3.135138e-04 1.182674e-04 -2.376123e-06 -2.139069e-04 1.394628e-04 -8.818212e-05 -2.424404e-04
<VARIANCE> 39
 4.821340e+01 3.362072e+01 5.029322e+01 7.323591e+01 7.790314e+01 6.783580e+01 6.354121e+01 5.179218e+01 4.699919e+01 4.183608e+01 4.709837e+01 3.761831e+01 9.203407e+01 2.145100e+00 1.812330e+00 2.153737e+00 3.486725e+00 3.437280e+00 3.066669e+00 3.142372e+00 3.100664e+00 2.813477e+00 2.583294e+00 2.498638e+00 2.106427e+00 2.358759e+00 3.092744e-01 2.903441e-01 3.328508e-01 5.683057e-01 5.709063e-01 5.309445e-01 5.473143e-01 5.510170e-01 5.068321e-01 4.758594e-01 4.532055e-01 3.824175e-01 3.404706e-01
<GCONST> 1.253250e+02
<STATE> 4
<MEAN> 39
 -7.232739e+00 -4.841686e+00 2.975820e+00 -4.897248e+00 -3.587006e+00 -1.596384e+00 -1.390617e+00 -1.579204e-01 -3.933247e-01 2.125147e-01 -1.236056e-01 4.457728e-01 6.207214e+01 -7.952116e-03 4.999791e-03 4.130312e-03 5.974790e-03 5.098064e-03 7.376243e-03 5.503654e-03 1.392211e-03 2.515441e-03 3.755542e-03 2.670686e-03 5.260227e-03 -1.113138e-02 8.872905e-05 -6.645015e-05 -2.446371e-04 2.099044e-04 3.343580e-04 5.790030e-05 -3.022655e-04 4.150841e-05 7.874078e-05 -6.256035e-05 1.162324e-04 -1.446453e-04 -1.824248e-04
<VARIANCE> 39
 4.801164e+01 3.345988e+01 5.041102e+01 7.290551e+01 7.826385e+01 6.751037e+01 6.340075e+01 5.156937e+01 4.677282e+01 4.153391e+01 4.690214e+01 3.755345e+01 9.228664e+01 2.128747e+00 1.795749e+00 2.146329e+00 3.443208e+00 3.432547e+00 3.042272e+00 3.120120e+00 3.077456e+00 2.796169e+00 2.570498e+00 2.485059e+00 2.099972e+00 2.347762e+00 3.062808e-01 2.876359e-01 3.314268e-01 5.600886e-01 5.700623e-01 5.264734e-01 5.429291e-01 5.467871e-01 5.036939e-01 4.734712e-01 4.500297e-01 3.810373e-01 3.380020e-01
<GCONST> 1.251179e+02
<TRANSP> 5
 0.000000e+00 1.000000e+00 0.000000e+00 0.000000e+00 0.000000e+00
 0.000000e+00 6.851715e-01 3.148285e-01 0.000000e+00 0.000000e+00
 0.000000e+00 0.000000e+00 6.851724e-01 3.148276e-01 0.000000e+00
 0.000000e+00 0.000000e+00 0.000000e+00 8.024625e-01 1.975375e-01
 0.000000e+00 0.000000e+00 0.000000e+00 0.000000e+00 0.000000e+00
<ENDHMM>
~h "ey"
<BEGINHMM>
<NUMSTATES> 5
<STATE> 2
<MEAN> 39
 -7.564507e+00 -4.814499e+00 3.551917e+00 -4.646874e+00 -4.033744e+00 -1.859526e+00 -1.161881e+00 1.753667e-01 -7.343010e-01 3.479639e-01 7.736970e-02 5.073336e-01 6.206536e+01 4.505340e-04 -9.341555e-05 -2.088731e-03 -1.518342e-03 -1.109153e-03 -2.492796e-03 -2.310017e-03 6.681312e-04 -2.539912e-03 -1.750638e-03 -7.032375e-04 -4.185792e-04 4.396882e-03 -4.200314e-05 -8.654344e-05 -6.728624e-05 1.971275e-04 2.205859e-04 7.298187e-05 7.889943e-05 8.658445e-05 3.309883e-05 3.043488e-05 1.195807e-04 -1.184126e-05 -1.585102e-04
<VARIANCE> 39
 4.947634e+01 3.294960e+01 4.562641e+01 7.101219e+01 8.129088e+01 6.973340e+01 6.042411e+01 5.041398e+01 4.901815e+01 3.986459e+01 4.628951e+01 3.673045e+01 9.107481e+01 2.379831e+00 1.922397e+00 2.209401e+00 3.558055e+00 3.783164e+00 3.336551e+00 3.214624e+00 3.173949e+00 2.926581e+00 2.694120e+00 2.578643e+00 2.169525e+00 2.556634e+00 3.468127e-01 3.145975e-01 3.514258e-01 5.735283e-01 6.188400e-01 5.786074e-01 5.667826e-01 5.756720e-01 5.275588e-01 5.017290e-01 4.685295e-01 3.977331e-01 3.665759e-01
<GCONST> 1.265383e+02
<STATE> 3
<MEAN> 39
 -7.563284e+00 -4.814614e+00 3.544794e+00 -4.651636e+00 -4.036371e+00 -1.866629e+00 -1.168226e+00 1.782231e-01 -7.425680e-01 3.430214e-01 7.536312e-02 5.062780e-01 6.207559e+01 3.224130e-04 -2.891368e-04 -2.349235e-03 -1.081008e-03 -5.816854e-04 -2.169491e-03 -1.882414e-03 1.072411e-03 -2.438370e-03 -1.612529e-03 -3.732750e-04 -4.103141e-04 3.955312e-03 -3.727533e-05 -6.037113e-05 -6.516407e-05 1.339171e-04 1.947804e-04 1.164394e-04 1.462837e-04 1.146302e-04 3.368882e-05 8.863257e-05 1.271530e-04 -3.967373e-06 -1.690618e-04
<VARIANCE> 39
 4.954260e+01 3.300044e+01 4.564858e+01 7.095847e+01 8.137320e+01 6.972032e+01 6.043732e+01 5.041171e+01 4.900936e+01 3.988150e+01 4.630870e+01 3.671188e+01 9.120010e+01 2.382991e+00 1.924507e+00 2.209869e+00 3.557010e+00 3.784584e+00 3.337253e+00 3.215898e+00 3.176022e+00 2.929368e+00 2.695251e+00 2.581215e+00 2.170594e+00 2.555958e+00 3.472140e-01 3.149289e-01 3.515698e-01 5.733544e-01 6.190370e-01 5.786965e-01 5.669993e-01 5.760112e-01 5.279800e-01 5.018777e-01 4.690012e-01 3.979217e-01 3.665655e-01
<GCONST> 1.265563e+02
<STATE> 4
<MEAN> 39
 -7.569346e+00 -4.810902e+00 3.518425e+00 -4.617227e+00 -4.066293e+00 -1.818706e+00 -1.165390e+00 1.949430e-01 -7.374507e-01 3.280198e-01 9.275363e-02 5.191147e-01 6.203683e+01 1.853393e-04 -2.981596e-04 -2.366602e-03 -7.894449e-04 -8.876552e-05 -1.605911e-03 -1.438160e-03 1.415853e-03 -2.218273e-03 -1.136032e-03 -1.786837e-04 -6.175669e-04 3.399174e-03 -3.750156e-05 -1.083529e-05 4.189244e-06 1.136606e-04 1.560649e-04 1.397247e-04 1.116633e-04 7.287172e-05 4.429898e-05 1.414495e-04 9.409452e-05 -4.835870e-05 -1.767614e-04
<VARIANCE> 39
 4.944547e+01 3.288987e+01 4.581082e+01 7.040602e+01 8.200027e+01 6.952419e+01 6.051268e+01 5.039653e+01 4.894009e+01 3.982642e+01 4.637153e+01 3.671906e+01 9.143694e+01 2.363308e+00 1.908512e+00 2.201935e+00 3.517292e+00 3.782291e+00 3.318855e+00 3.201850e+00 3.163747e+00 2.919197e+00 2.685648e+00 2.577266e+00 2.167078e+00 2.547610e+00 3.434913e-01 3.122727e-01 3.497730e-01 5.662047e-01 6.175317e-01 5.749851e-01 5.640739e-01 5.730920e-01 5.255139e-01 4.993607e-01 4.673562e-01 3.968426e-01 3.639421e-01
<GCONST> 1.264154e+02
<TRANSP> 5
 0.000000e+00 1.000000e+00 0.000000e+00 0.000000e+00 0.000000e+00
 0.000000e+00 6.850147e-01 3.149852e-01 0.000000e+00 0.000000e+00
 0.000000e+00 0.000000e+00 6.850107e-01 3.149893e-01 0.000000e+00
 0.000000e+00 0.000000e+00 0.000000e+00 8.023775e-01 1.976225e-01
 0.000000e+00 0.000000e+00 0.000000e+00 0.000000e+00 0.000000e+00
<ENDHMM>
~h "gg"
<BEGINHMM>
<NUMSTATES> 5
<STATE> 2
<MEAN> 39
 -7.436340e+00 -4.860335e+00 3.096348e+00 -4.774199e+00 -3.311589e+00 -1.211886e+00 -6.240670e-01 -1.758987e-01 -7.134952e-01 5.701283e-01 2.810873e-02 7.931572e-01 6.121366e+01 -2.104771e-02 5.028918e-03 -1.368337e-04 1.079744e-02 1.327260e-02 8.778549e-03 2.842763e-03 4.132508e-03 7.380201e-03 1.019068e-03 -7.010113e-03 5.752184e-03 -5.341007e-03 7.507155e-05 4.919780e-04 5.956733e-04 1.454660e-04 -3.520860e-04 -6.736566e-04 1.108941e-05 1.447013e-04 -5.626920e-04 -5.134600e-06 3.910033e-04 -2.627876e-04 -7.067906e-05
<VARIANCE> 39
 4.838020e+01 3.293454e+01 4.870432e+01 7.615491e+01 7.368382e+01 6.583347e+01 5.779989e+01 5.129113e+01 4.921288e+01 3.954214e+01 4.847647e+01 3.641537e+01 9.200110e+01 1.916551e+00 1.773261e+00 2.058257e+00 3.275432e+00 3.325613e+00 2.905618e+00 2.995146e+00 3.025923e+00 2.800527e+00 2.643671e+00 2.514605e+00 2.104001e+00 2.169020e+00 2.722724e-01 2.799356e-01 3.101490e-01 5.211440e-01 5.461686e-01 5.040881e-01 5.308200e-01 5.380238e-01 5.008361e-01 4.917121e-01 4.577068e-01 3.907154e-01 3.071614e-01
<GCONST> 1.241259e+02
<STATE> 3
<MEAN> 39
 -7.504207e+00 -4.843018e+00 3.101749e+00 -4.736690e+00 -3.270013e+00 -1.187450e+00 -6.120591e-01 -1.583907e-01 -6.955938e-01 5.728199e-01 8.833532e-03 8.113577e-01 6.119282e+01 -2.025415e-02 6.283293e-03 1.985882e-03 1.073490e-02 1.130374e-02 6.250706e-03 2.843057e-03 4.296184e-03 5.492711e-03 1.350295e-03 -5.779471e-03 4.561824e-03 -5.176636e-03 4.972379e-04 3.313921e-04 6.119628e-04 -1.041117e-04 -6.655987e-04 -8.973839e-04 -1.152920e-05 -1.216968e-04 -5.794086e-04 3.226409e-05 4.441044e-04 -5.240226e-04 6.775915e-05
<VARIANCE> 39
 4.859723e+01 3.295877e+01 4.861401e+01 7.623035e+01 7.336800e+01 6.581894e+01 5.794152e+01 5.137838e+01 4.889278e+01 3.943688e+01 4.840844e+01 3.648349e+01 9.218150e+01 1.926144e+00 1.777076e+00 2.054507e+00 3.264441e+00 3.325827e+00 2.896790e+00 2.996559e+00 3.030892e+00 2.801071e+00 2.639865e+00 2.509812e+00 2.098581e+00 2.169945e+00 2.731532e-01 2.809354e-01 3.101188e-01 5.200642e-01 5.468824e-01 5.027806e-01 5.306047e-01 5.388670e-01 5.009992e-01 4.906367e-01 4.570455e-01 3.896048e-01 3.072556e-01
<GCONST> 1.241175e+02
<STATE> 4
<MEAN> 39
 -7.572368e+00 -4.816866e+00 3.108498e+00 -4.638302e+00 -3.227954e+00 -1.106910e+00 -6.030447e-01 -1.087045e-01 -6.603575e-01 5.772287e-01 2.491452e-02 8.399698e-01 6.110916e+01 -1.720915e-02 6.448756e-03 5.081647e-03 9.767243e-03 7.560992e-03 2.079190e-03 3.021862e-03 3.932188e-03 2.738143e-03 1.792458e-03 -4.284582e-03 2.211454e-03 -4.569599e-03 9.748733e-04 6.232651e-05 5.256635e-04 -4.196622e-04 -9.395374e-04 -1.039964e-03 -2.569370e-04 -4.253019e-04 -4.421525e-04 7.740842e-05 3.045094e-04 -7.508646e-04 3.185790e-04
<VARIANCE> 39
 4.854575e+01 3.280715e+01 4.869058e+01 7.552716e+01 7.329970e+01 6.541695e+01 5.825135e+01 5.141308e+01 4.866374e+01 3.937477e+01 4.832987e+01 3.669207e+01 9.239342e+01 1.910717e+00 1.760600e+00 2.035652e+00 3.202363e+00 3.316002e+00 2.861610e+00 2.975422e+00 3.019426e+00 2.784177e+00 2.626299e+00 2.490531e+00 2.085013e+00 2.162723e+00 2.703555e-01 2.785171e-01 3.076064e-01 5.102814e-01 5.454281e-01 4.965623e-01 5.256261e-01 5.364698e-01 4.971155e-01 4.867435e-01 4.531462e-01 3.866102e-01 3.051955e-01
<GCONST> 1.238889e+02
<TRANSP> 5
 0.000000e+00 1.000000e+00 0.000000e+00 0.000000e+00 0.000000e+00
 0.000000e+00 6.879359e-01 3.120641e-01 0.000000e+00 0.000000e+00
 0.000000e+00 0.000000e+00 6.879371e-01 3.120629e-01 0.000000e+00
 0.000000e+00 0.000000e+00 0.000000e+00 8.057012e-01 1.942988e-01
 0.000000e+00 0.000000e+00 0.000000e+00 0.000000e+00 0.000000e+00
<ENDHMM>
~h "hh"
<BEGINHMM>
<NUMSTATES> 5
<STATE> 2
<MEAN> 39
 -7.383900e+00 -4.914564e+00 3.567877e+00 -4.764109e+00 -3.310847e+00 -9.592550e-01 -9.144288e-01 8.133718e-02 -8.375038e-01 4.651745e-01 6.861850e-04 5.442563e-01 6.146043e+01 -1.160256e-02 -3.608822e-05 1.605780e-03 2.662505e-03 2.783893e-04 -7.466719e-04 3.685331e-03 5.304349e-03 -1.083330e-03 4.598100e-03 -2.651410e-03 1.355467e-03 6.878271e-04 -1.679168e-04 8.663839e-05 1.416706e-04 -3.147300e-04 -3.970436e-04 3.295641e-04 3.553286e-04 -2.629471e-04 -4.582801e-04 -4.184888e-04 7.009372e-05 -1.388025e-06 2.744593e-04
<VARIANCE> 39
 4.594109e+01 3.257376e+01 4.932607e+01 7.347565e+01 8.043855e+01 6.423512e+01 6.064997e+01 5.070986e+01 4.955759e+01 4.091114e+01 4.608725e+01 3.562935e+01 8.770544e+01 2.078665e+00 1.813290e+00 2.279459e+00 3.465769e+00 3.848783e+00 3.093566e+00 3.194155e+00 3.170988e+00 2.958360e+00 2.732465e+00 2.505550e+00 2.190637e+00 2.189063e+00 3.005577e-01 2.985925e-01 3.473657e-01 5.567895e-01 6.208280e-01 5.320172e-01 5.615059e-01 5.713603e-01 5.291630e-01 5.084772e-01 4.562435e-01 4.013349e-01 3.138079e-01
<GCONST> 1.255513e+02
<STATE> 3
<MEAN> 39
 -7.420379e+00 -4.911284e+00 3.572237e+00 -4.755751e+00 -3.311227e+00 -9.610573e-01 -9.022166e-01 9.453014e-02 -8.427312e-01 4.759716e-01 -6.958782e-03 5.487388e-01 6.146241e+01 -1.165285e-02 4.941929e-04 1.489022e-03 2.404617e-03 -5.342576e-04 4.733496e-04 4.314156e-03 4.117029e-03 -2.170820e-03 3.477691e-03 -2.292688e-03 1.140459e-03 8.391977e-04 1.020184e-04 1.878347e-04 -4.942006e-05 -9.626000e-05 -2.482063e-04 3.598649e-04 6.864761e-05 -4.802348e-04 -2.212908e-04 -4.033756e-04 1.524049e-04 -5.501189e-05 -3.690784e-05
<VARIANCE> 39
 4.604316e+01 3.252084e+01 4.909076e+01 7.324991e+01 8.041322e+01 6.410608e+01 6.057841e+01 5.064908e+01 4.955550e+01 4.095096e+01 4.611779e+01 3.563902e+01 8.801143e+01 2.079256e+00 1.810915e+00 2.274704e+00 3.451232e+00 3.839982e+00 3.081257e+00 3.181944e+00 3.163005e+00 2.957108e+00 2.728370e+00 2.497674e+00 2.189837e+00 2.190391e+00 3.004280e-01 2.978120e-01 3.469151e-01 5.546347e-01 6.194115e-01 5.297615e-01 5.592420e-01 5.703319e-01 5.287426e-01 5.080363e-01 4.544736e-01 4.013025e-01 3.142196e-01
<GCONST> 1.254950e+02
<STATE> 4
<MEAN> 39
 -7.465039e+00 -4.879705e+00 3.561776e+00 -4.714439e+00 -3.331629e+00 -9.123185e-01 -8.770545e-01 9.947695e-02 -8.240098e-01 4.675747e-01 -1.367238e-02 5.702711e-01 6.142440e+01 -1.038870e-02 2.227463e-03 2.044985e-04 3.000459e-03 -2.414493e-04 1.868742e-03 4.058423e-03 1.731759e-03 -2.347492e-03 1.533853e-03 -1.731879e-03 8.355152e-04 -4.294401e-04 3.466328e-04 2.939004e-04 -1.734291e-04 1.061852e-04 -5.947404e-05 3.648510e-04 -5.230186e-05 -5.226963e-04 9.020101e-05 -4.903614e-04 9.583288e-05 -8.000864e-05 -3.514733e-04
<VARIANCE> 39
 4.604287e+01 3.240148e+01 4.908542e+01 7.250962e+01 8.086502e+01 6.377981e+01 6.034610e+01 5.068462e+01 4.963284e+01 4.097331e+01 4.624663e+01 3.558723e+01 8.817133e+01 2.058091e+00 1.796032e+00 2.263863e+00 3.400866e+00 3.819897e+00 3.055197e+00 3.145200e+00 3.141678e+00 2.948503e+00 2.712372e+00 2.483037e+00 2.178742e+00 2.177366e+00 2.964068e-01 2.945569e-01 3.448432e-01 5.447302e-01 6.141323e-01 5.246133e-01 5.523347e-01 5.658715e-01 5.264133e-01 5.051243e-01 4.511767e-01 3.989745e-01 3.112749e-01
<GCONST> 1.252681e+02
<TRANSP> 5
 0.000000e+00 1.000000e+00 0.000000e+00 0.000000e+00 0.000000e+00
 0.000000e+00 6.877924e-01 3.122076e-01 0.000000e+00 0.000000e+00
 0.000000e+00 0.000000e+00 6.877953e-01 3.122047e-01 0.000000e+00
 0.000000e+00 0.000000e+00 0.000000e+00 8.057752e-01 1.942248e-01
 0.000000e+00 0.000000e+00 0.000000e+00 0.000000e+00 0.000000e+00
<ENDHMM>
~h "iy"
<BEGINHMM>
<NUMSTATES> 5
<STATE> 2
<MEAN> 39
 -7.744320e+00 -4.301613e+00 4.136010e+00 -4.579730e+00 -4.030277e+00 -1.639393e+00 -1.384842e+00 -3.336799e-01 -1.008538e+00 2.750630e-01 2.685216e-02 5.489916e-01 6.186055e+01 -3.972507e-03 2.502771e-03 2.524512e-03 1.463658e-03 -6.923755e-04 3.817604e-03 1.747367e-03 8.055967e-06 -9.542453e-04 2.528221e-03 2.220646e-04 4.504746e-04 -2.248123e-03 1.428418e-04 4.726169e-05 -2.389018e-05 1.116961e-04 -6.557200e-05 -1.382290e-05 -2.028636e-05 -1.726441e-04 1.930936e-05 1.175909e-04 -7.791525e-05 -1.968368e-04 -3.177415e-05
<VARIANCE> 39
 4.978226e+01 3.334063e+01 5.141478e+01 7.102346e+01 8.171501e+01 6.593752e+01 6.186866e+01 5.403114e+01 5.055946e+01 3.980661e+01 4.548185e+01 3.596066e+01 8.475451e+01 2.337996e+00 1.861792e+00 2.453182e+00 3.653913e+00 3.881152e+00 3.259558e+00 3.311847e+00 3.297261e+00 3.013979e+00 2.686775e+00 2.585749e+00 2.186561e+00 2.412934e+00 3.358912e-01 3.047317e-01 3.784584e-01 5.960213e-01 6.417600e-01 5.705319e-01 5.810634e-01 5.869809e-01 5.383970e-01 4.988848e-01 4.679796e-01 4.024082e-01 3.479003e-01
<GCONST> 1.268561e+02
<STATE> 3
<MEAN> 39
 -7.756215e+00 -4.292948e+00 4.143885e+00 -4.574751e+00 -4.031577e+00 -1.626450e+00 -1.379341e+00 -3.351175e-01 -1.011133e+00 2.830082e-01 2.736600e-02 5.495334e-01 6.185076e+01 -3.539534e-03 2.563945e-03 2.261323e-03 1.785883e-03 -7.474023e-04 3.819504e-03 1.828333e-03 -5.102236e-04 -9.300206e-04 2.829136e-03 1.400148e-04 -7.275084e-05 -2.336119e-03 1.316002e-04 1.722892e-05 -1.290619e-04 9.115416e-05 1.821690e-05 3.033597e-05 5.545463e-05 -1.549691e-04 1.956343e-05 1.031868e-04 -1.201747e-05 -1.326932e-04 -4.187385e-05
<VARIANCE> 39
 4.979963e+01 3.327588e+01 5.135439e+01 7.098805e+01 8.172453e+01 6.590817e+01 6.190770e+01 5.406271e+01 5.053722e+01 3.983633e+01 4.547757e+01 3.590292e+01 8.482755e+01 2.335074e+00 1.861734e+00 2.451569e+00 3.651217e+00 3.883957e+00 3.256465e+00 3.311733e+00 3.295056e+00 3.014984e+00 2.688949e+00 2.585126e+00 2.183444e+00 2.414584e+00 3.354886e-01 3.047906e-01 3.780048e-01 5.957695e-01 6.424541e-01 5.699630e-01 5.811372e-01 5.863782e-01 5.385821e-01 4.992833e-01 4.679914e-01 4.018547e-01 3.481449e-01
<GCONST> 1.268468e+02
<STATE> 4
<MEAN> 39
 -7.762995e+00 -4.266852e+00 4.130410e+00 -4.531385e+00 -4.062298e+00 -1.551217e+00 -1.376944e+00 -3.384298e-01 -1.002952e+00 2.768553e-01 3.782807e-02 5.543754e-01 6.180461e+01 -2.957202e-03 2.739077e-03 1.629195e-03 2.006095e-03 -2.541592e-04 4.283508e-03 2.094728e-03 -1.482909e-03 -8.781335e-04 2.944630e-03 -2.712745e-05 -6.293448e-04 -2.764251e-03 1.234648e-04 2.968688e-05 -1.881034e-04 3.118091e-05 8.764692e-05 9.657894e-05 7.514587e-05 -1.709667e-04 6.351057e-06 9.625829e-05 -3.009681e-05 -1.084829e-04 -5.003391e-05
<VARIANCE> 39
 4.970592e+01 3.310124e+01 5.150958e+01 7.049341e+01 8.227197e+01 6.555404e+01 6.198775e+01 5.417653e+01 5.051799e+01 3.974548e+01 4.548978e+01 3.586523e+01 8.485975e+01 2.309786e+00 1.846479e+00 2.440985e+00 3.606190e+00 3.882261e+00 3.234543e+00 3.297371e+00 3.282624e+00 3.004301e+00 2.680537e+00 2.575397e+00 2.176954e+00 2.407201e+00 3.311571e-01 3.018136e-01 3.753258e-01 5.869750e-01 6.403569e-01 5.654829e-01 5.778193e-01 5.826867e-01 5.357143e-01 4.975353e-01 4.658966e-01 4.002505e-01 3.456775e-01
<GCONST> 1.266772e+02
<TRANSP> 5
 0.000000e+00 1.000000e+00 0.000000e+00 0.000000e+00 0.000000e+00
 0.000000e+00 6.854400e-01 3.145600e-01 0.000000e+00 0.000000e+00
 0.000000e+00 0.000000e+00 6.854284e-01 3.145716e-01 0.000000e+00
 0.000000e+00 0.000000e+00 0.000000e+00 8.028694e-01 1.971307e-01
 0.000000e+00 0.000000e+00 0.000000e+00 0.000000e+00 0.000000e+00
<ENDHMM>
~h "ny"
<BEGINHMM>
<NUMSTATES> 5
<STATE> 2
<MEAN> 39
 -7.415650e+00 -4.473501e+00 3.940457e+00 -4.670008e+00 -3.442810e+00 -8.739626e-01 -1.046339e+00 3.960896e-01 -4.448953e-01 6.971483e-02 5.927054e-01 2.238974e-01 6.144325e+01 1.363269e-02 -8.749203e-03 -9.143731e-03 1.181164e-02 1.703549e-02 1.042459e-02 1.008131e-02 8.125309e-03 1.122729e-02 -3.508429e-03 5.628887e-03 1.445697e-02 -3.060718e-02 -3.019001e-04 3.427260e-04 -9.807798e-04 -4.744286e-04 8.536743e-04 6.281912e-04 2.106127e-04 2.294532e-04 6.862280e-05 -5.451355e-04 1.854498e-04 1.202201e-04 -3.648076e-04
<VARIANCE> 39
 4.791904e+01 3.078646e+01 4.596745e+01 6.722955e+01 7.983699e+01 6.213538e+01 6.301427e+01 4.885578e+01 4.693539e+01 4.183627e+01 3.886253e+01 3.855944e+01 8.920601e+01 2.073587e+00 1.835432e+00 2.327747e+00 3.045512e+00 3.406501e+00 2.945408e+00 3.037334e+00 3.001693e+00 2.725672e+00 2.572406e+00 2.326389e+00 2.180618e+00 1.911965e+00 3.041954e-01 2.848770e-01 3.764370e-01 5.037031e-01 5.677805e-01 5.340270e-01 5.388318e-01 5.403274e-01 4.813116e-01 4.611258e-01 4.369761e-01 3.920757e-01 2.688217e-01
<GCONST> 1.238489e+02
<STATE> 3
<MEAN> 39
 -7.374518e+00 -4.502288e+00 3.908000e+00 -4.633900e+00 -3.387264e+00 -8.417538e-01 -1.008382e+00 4.212816e-01 -4.064785e-01 5.815256e-02 6.090710e-01 2.684323e-01 6.134755e+01 1.209054e-02 -7.945963e-03 -1.179045e-02 1.068430e-02 1.966972e-02 1.282768e-02 1.066727e-02 8.413458e-03 1.206586e-02 -4.917986e-03 6.073299e-03 1.447682e-02 -3.137466e-02 -1.071397e-03 5.879896e-04 -4.374318e-04 -2.842762e-04 8.643267e-04 8.343041e-04 1.252317e-04 4.895287e-05 1.081043e-04 -1.030838e-04 2.247198e-04 1.307278e-04 -2.817482e-04
<VARIANCE> 39
 4.732833e+01 3.056891e+01 4.605867e+01 6.690297e+01 7.932156e+01 6.195611e+01 6.312790e+01 4.902271e+01 4.666920e+01 4.163660e+01 3.909070e+01 3.851564e+01 8.991341e+01 2.040424e+00 1.821027e+00 2.311751e+00 3.007024e+00 3.384141e+00 2.917354e+00 3.010808e+00 2.995049e+00 2.717408e+00 2.549591e+00 2.315453e+00 2.169095e+00 1.901261e+00 2.996017e-01 2.820420e-01 3.722415e-01 4.974618e-01 5.630061e-01 5.288733e-01 5.342934e-01 5.389730e-01 4.792263e-01 4.574087e-01 4.342685e-01 3.902902e-01 2.673350e-01
<GCONST> 1.236194e+02
<STATE> 4
<MEAN> 39
 -7.340436e+00 -4.516730e+00 3.821839e+00 -4.536813e+00 -3.295447e+00 -7.297410e-01 -9.185052e-01 4.410818e-01 -3.250278e-01 3.236578e-02 6.265565e-01 3.470248e-01 6.114294e+01 7.186345e-03 -6.648908e-03 -1.184847e-02 1.020596e-02 2.193470e-02 1.436249e-02 1.237211e-02 7.652404e-03 1.363156e-02 -4.088380e-03 6.014197e-03 1.417972e-02 -3.083945e-02 -1.690503e-03 7.356745e-04 3.391916e-04 6.318995e-05 7.466835e-04 6.469823e-04 1.398417e-04 -2.395256e-04 1.419929e-04 4.954565e-04 2.111907e-04 2.817888e-04 -1.848659e-04
<VARIANCE> 39
 4.607934e+01 3.026063e+01 4.578542e+01 6.589536e+01 7.889060e+01 6.164687e+01 6.291824e+01 4.900965e+01 4.632533e+01 4.092950e+01 3.935922e+01 3.817191e+01 9.130026e+01 1.973733e+00 1.788562e+00 2.272265e+00 2.908091e+00 3.326674e+00 2.836567e+00 2.951795e+00 2.957985e+00 2.686715e+00 2.489911e+00 2.283863e+00 2.136340e+00 1.859331e+00 2.892965e-01 2.749365e-01 3.640331e-01 4.812596e-01 5.510546e-01 5.133965e-01 5.235083e-01 5.311885e-01 4.721652e-01 4.470688e-01 4.272455e-01 3.850730e-01 2.604241e-01
<GCONST> 1.229747e+02
<TRANSP> 5
 0.000000e+00 1.000000e+00 0.000000e+00 0.000000e+00 0.000000e+00
 0.000000e+00 6.875456e-01 3.124544e-01 0.000000e+00 0.000000e+00
 0.000000e+00 0.000000e+00 6.875464e-01 3.124536e-01 0.000000e+00
 0.000000e+00 0.000000e+00 0.000000e+00 8.048923e-01 1.951077e-01
 0.000000e+00 0.000000e+00 0.000000e+00 0.000000e+00 0.000000e+00
<ENDHMM>
~h "ow"
<BEGINHMM>
<NUMSTATES> 5
<STATE> 2
<MEAN> 39
 -7.428946e+00 -4.768736e+00 3.075593e+00 -4.921951e+00 -2.803856e+00 -9.652447e-01 -1.304114e+00 -2.876095e-03 -4.622779e-01 6.496287e-01 3.284639e-01 5.543233e-01 6.131207e+01 -5.584421e-06 -1.040073e-04 -7.792056e-04 -2.047755e-03 3.243872e-04 -2.876766e-03 -2.339956e-03 -1.386209e-03 -4.032493e-04 6.840950e-04 -2.088185e-03 -8.238119e-04 2.905507e-03 1.874627e-04 1.719167e-05 1.039929e-04 1.519522e-05 -2.110840e-04 -6.980504e-05 -1.773410e-04 -1.996236e-04 1.905947e-05 -1.626085e-04 -2.875216e-04 -1.328845e-05 1.395832e-05
<VARIANCE> 39
 5.218176e+01 3.077629e+01 4.709320e+01 7.587241e+01 7.136874e+01 6.379510e+01 6.270274e+01 4.970633e+01 4.868311e+01 3.899155e+01 4.617666e+01 3.640829e+01 8.811452e+01 2.379160e+00 1.799738e+00 2.290178e+00 3.761603e+00 3.485239e+00 3.134068e+00 3.230306e+00 3.147568e+00 2.964287e+00 2.670205e+00 2.578681e+00 2.164914e+00 2.327986e+00 3.404457e-01 2.970091e-01 3.612573e-01 6.047358e-01 5.784749e-01 5.482031e-01 5.656106e-01 5.676160e-01 5.367141e-01 5.002133e-01 4.704314e-01 3.984563e-01 3.340956e-01
<GCONST> 1.259311e+02
<STATE> 3
<MEAN> 39
 -7.427926e+00 -4.769265e+00 3.073646e+00 -4.927752e+00 -2.803488e+00 -9.744916e-01 -1.312545e+00 -7.585419e-03 -4.630626e-01 6.510997e-01 3.206639e-01 5.517485e-01 6.132063e+01 5.887280e-04 -5.761178e-05 -3.830225e-04 -1.988718e-03 -2.349446e-04 -2.965571e-03 -2.833807e-03 -1.956040e-03 -5.063892e-04 1.308708e-04 -2.927653e-03 -8.515052e-04 2.826635e-03 1.995284e-04 -1.611371e-06 1.064527e-04 1.734798e-05 -1.623253e-04 -2.097053e-06 -1.293128e-04 -1.407366e-04 -5.653214e-05 -2.171318e-04 -2.936206e-04 -3.406077e-05 -1.022660e-05
<VARIANCE> 39
 5.219133e+01 3.080320e+01 4.715347e+01 7.597209e+01 7.139041e+01 6.393335e+01 6.272563e+01 4.976841e+01 4.868140e+01 3.903883e+01 4.614442e+01 3.645446e+01 8.821590e+01 2.380565e+00 1.801113e+00 2.290827e+00 3.765391e+00 3.486609e+00 3.137028e+00 3.231111e+00 3.149550e+00 2.965265e+00 2.672401e+00 2.578360e+00 2.165622e+00 2.329570e+00 3.406327e-01 2.972242e-01 3.612103e-01 6.052644e-01 5.785748e-01 5.486719e-01 5.655451e-01 5.679710e-01 5.368108e-01 5.004806e-01 4.702727e-01 3.984328e-01 3.343594e-01
<GCONST> 1.259533e+02
<STATE> 4
<MEAN> 39
 -7.419469e+00 -4.760636e+00 3.049510e+00 -4.908585e+00 -2.819896e+00 -9.376059e-01 -1.327360e+00 -6.391596e-03 -4.471291e-01 6.430888e-01 3.155060e-01 5.593441e-01 6.129134e+01 1.333765e-03 -1.259045e-04 3.237416e-05 -1.655797e-03 -5.602317e-04 -2.626225e-03 -3.203360e-03 -2.287810e-03 -7.616708e-04 -5.167630e-04 -3.654833e-03 -1.147276e-03 2.430863e-03 1.948381e-04 -5.164589e-05 4.299575e-05 4.100537e-05 -5.817299e-05 1.177555e-04 -7.738159e-05 -6.884355e-05 -2.737904e-05 -1.181969e-04 -1.638389e-04 -1.471059e-04 -6.160696e-05
<VARIANCE> 39
 5.205996e+01 3.077522e+01 4.751631e+01 7.583910e+01 7.167632e+01 6.390540e+01 6.290249e+01 4.984768e+01 4.873593e+01 3.895850e+01 4.609063e+01 3.648912e+01 8.795860e+01 2.355691e+00 1.787953e+00 2.284325e+00 3.737920e+00 3.479011e+00 3.125243e+00 3.221699e+00 3.137439e+00 2.955339e+00 2.662904e+00 2.568489e+00 2.161326e+00 2.324748e+00 3.364117e-01 2.945063e-01 3.591128e-01 5.990036e-01 5.757535e-01 5.457375e-01 5.627686e-01 5.650867e-01 5.340692e-01 4.981729e-01 4.679047e-01 3.973090e-01 3.322908e-01
<GCONST> 1.258221e+02
<TRANSP> 5
 0.000000e+00 1.000000e+00 0.000000e+00 0.000000e+00 0.000000e+00
 0.000000e+00 6.857858e-01 3.142142e-01 0.000000e+00 0.000000e+00
 0.000000e+00 0.000000e+00 6.857731e-01 3.142269e-01 0.000000e+00
 0.000000e+00 0.000000e+00 0.000000e+00 8.033049e-01 1.966951e-01
 0.000000e+00 0.000000e+00 0.000000e+00 0.000000e+00 0.000000e+00
<ENDHMM>
~h "rr"
<BEGINHMM>
<NUMSTATES> 5
<STATE> 2
<MEAN> 39
 -7.077069e+00 -5.503996e+00 2.910485e+00 -4.879307e+00 -3.716840e+00 -2.110847e+00 -1.659512e+00 3.857178e-01 -6.513791e-01 3.985431e-01 8.239495e-02 3.014075e-01 6.267824e+01 -4.632203e-03 -4.396109e-03 5.905061e-03 -3.872823e-05 -8.129061e-03 -5.812042e-03 -6.687742e-04 1.171695e-03 -4.891512e-03 -1.705387e-03 2.817565e-03 7.654063e-04 9.264651e-03 -3.003049e-04 4.459106e-05 5.096609e-05 4.263344e-04 -3.041496e-04 4.922561e-04 7.320443e-04 -1.213202e-04 1.374506e-04 -5.074808e-04 -6.647631e-04 6.526929e-05 -1.364101e-04
<VARIANCE> 39
 5.269188e+01 3.484887e+01 4.926015e+01 6.932124e+01 7.592929e+01 6.951838e+01 6.307093e+01 4.947178e+01 4.888391e+01 3.976743e+01 4.929688e+01 3.914738e+01 9.003145e+01 2.434557e+00 1.984771e+00 2.346074e+00 3.498260e+00 3.657968e+00 3.509279e+00 3.251972e+00 3.218824e+00 2.997982e+00 2.746763e+00 2.678583e+00 2.181768e+00 2.375361e+00 3.546871e-01 3.232177e-01 3.736477e-01 5.632659e-01 6.082162e-01 6.095919e-01 5.710167e-01 5.852514e-01 5.385194e-01 5.130733e-01 4.877482e-01 3.975905e-01 3.407262e-01
<GCONST> 1.270874e+02
<STATE> 3
<MEAN> 39
 -7.090215e+00 -5.520773e+00 2.927455e+00 -4.874685e+00 -3.742098e+00 -2.126345e+00 -1.657147e+00 3.890800e-01 -6.639861e-01 3.935713e-01 8.886400e-02 3.030625e-01 6.270546e+01 -4.993879e-03 -4.557398e-03 5.526088e-03 6.549516e-04 -8.650222e-03 -4.368652e-03 1.156520e-03 1.011796e-03 -4.484861e-03 -2.419845e-03 9.829567e-04 4.596654e-04 9.029812e-03 -4.168256e-05 -8.336250e-05 -2.395252e-04 2.215284e-04 -4.082778e-05 3.551189e-04 5.285518e-04 -5.957313e-05 1.329619e-04 -2.882668e-04 -6.046920e-04 -9.483237e-05 -6.449278e-05
<VARIANCE> 39
 5.294349e+01 3.493975e+01 4.937069e+01 6.904926e+01 7.601466e+01 6.943508e+01 6.313992e+01 4.959126e+01 4.890700e+01 3.972214e+01 4.936402e+01 3.925135e+01 8.976629e+01 2.444812e+00 1.985714e+00 2.347545e+00 3.491733e+00 3.661799e+00 3.504133e+00 3.251777e+00 3.226189e+00 3.001022e+00 2.746844e+00 2.683771e+00 2.182239e+00 2.373837e+00 3.559550e-01 3.228361e-01 3.737151e-01 5.634077e-01 6.090046e-01 6.083993e-01 5.706999e-01 5.861214e-01 5.387591e-01 5.128031e-01 4.881468e-01 3.977379e-01 3.405033e-01
<GCONST> 1.271082e+02
<STATE> 4
<MEAN> 39
 -7.106496e+00 -5.544621e+00 2.925199e+00 -4.805638e+00 -3.780080e+00 -2.080536e+00 -1.628399e+00 4.051191e-01 -6.431103e-01 3.911238e-01 1.140643e-01 3.123607e-01 6.265801e+01 -3.637308e-03 -5.144425e-03 4.238920e-03 1.104674e-03 -7.365732e-03 -2.305500e-03 2.472887e-03 5.594770e-04 -3.000014e-03 -1.968557e-03 -1.424402e-03 -8.994422e-04 7.861237e-03 2.664716e-04 -5.740788e-06 -3.655990e-04 -3.759136e-05 2.257366e-04 3.186283e-04 1.948522e-04 -1.241389e-04 2.077949e-04 -1.530974e-04 -6.258664e-04 -2.716830e-04 -9.019056e-05
<VARIANCE> 39
 5.286906e+01 3.493298e+01 4.967771e+01 6.818018e+01 7.652731e+01 6.936648e+01 6.316470e+01 4.959627e+01 4.878310e+01 3.949754e+01 4.938274e+01 3.938503e+01 9.011900e+01 2.424533e+00 1.966691e+00 2.338767e+00 3.433466e+00 3.653040e+00 3.469144e+00 3.233626e+00 3.220130e+00 2.986255e+00 2.733174e+00 2.677852e+00 2.180398e+00 2.363810e+00 3.525355e-01 3.184990e-01 3.711648e-01 5.540448e-01 6.063067e-01 6.013231e-01 5.664604e-01 5.839039e-01 5.354282e-01 5.095293e-01 4.856909e-01 3.971667e-01 3.374220e-01
<GCONST> 1.269279e+02
<TRANSP> 5
 0.000000e+00 1.000000e+00 0.000000e+00 0.000000e+00 0.000000e+00
 0.000000e+00 6.868188e-01 3.131811e-01 0.000000e+00 0.000000e+00
 0.000000e+00 0.000000e+00 6.868201e-01 3.131799e-01 0.000000e+00
 0.000000e+00 0.000000e+00 0.000000e+00 8.044837e-01 1.955163e-01
 0.000000e+00 0.000000e+00 0.000000e+00 0.000000e+00 0.000000e+00
<ENDHMM>
~h "rx"
<BEGINHMM>
<NUMSTATES> 5
<STATE> 2
<MEAN> 39
 -7.084304e+00 -5.186111e+00 3.105247e+00 -4.763523e+00 -3.732589e+00 -1.693538e+00 -1.466789e+00 2.991153e-01 -6.506392e-01 3.505194e-01 3.135274e-02 2.737495e-01 6.222145e+01 1.344679e-03 -6.480018e-04 -3.156479e-04 2.320821e-04 -8.581267e-04 8.857514e-04 -1.854197e-03 3.404141e-04 -3.311481e-03 -7.993644e-04 -2.698891e-03 -2.801851e-03 3.761680e-03 1.991854e-05 1.024647e-05 4.943402e-05 -4.206648e-05 1.594576e-04 1.166388e-04 8.089336e-05 -1.269447e-04 -2.525524e-05 3.957799e-05 -5.415910e-05 5.325667e-05 -1.238778e-04
<VARIANCE> 39
 5.146407e+01 3.547149e+01 4.796532e+01 7.040983e+01 7.757375e+01 6.703436e+01 6.199061e+01 5.068586e+01 4.923277e+01 4.011317e+01 4.705585e+01 3.812935e+01 8.989626e+01 2.409877e+00 2.025334e+00 2.322265e+00 3.693900e+00 3.739983e+00 3.293901e+00 3.314350e+00 3.227012e+00 3.010756e+00 2.755158e+00 2.641615e+00 2.246177e+00 2.618454e+00 3.518015e-01 3.297201e-01 3.695824e-01 6.086669e-01 6.222208e-01 5.735360e-01 5.829799e-01 5.822945e-01 5.453963e-01 5.152215e-01 4.812559e-01 4.115200e-01 3.795923e-01
<GCONST> 1.273602e+02
<STATE> 3
<MEAN> 39
 -7.079601e+00 -5.187838e+00 3.104713e+00 -4.762429e+00 -3.734552e+00 -1.689124e+00 -1.471953e+00 2.986420e-01 -6.611679e-01 3.484372e-01 2.218270e-02 2.647740e-01 6.223027e+01 1.390382e-03 -4.839968e-04 -1.690349e-04 1.928317e-04 -2.915180e-04 1.329582e-03 -1.524497e-03 -1.046086e-04 -3.180285e-03 -5.002924e-04 -2.743058e-03 -2.652402e-03 3.101361e-03 3.089614e-05 6.117482e-05 7.920101e-05 -2.199213e-05 1.586488e-04 1.002993e-04 1.062371e-04 -1.326005e-04 2.050177e-05 1.004152e-04 4.623794e-06 5.092689e-05 -2.197791e-04
<VARIANCE> 39
 5.148848e+01 3.554095e+01 4.801671e+01 7.037687e+01 7.768705e+01 6.705817e+01 6.197854e+01 5.066505e+01 4.924317e+01 4.016317e+01 4.707392e+01 3.811576e+01 9.022442e+01 2.409739e+00 2.028716e+00 2.324106e+00 3.692259e+00 3.737571e+00 3.293230e+00 3.315271e+00 3.228522e+00 3.012903e+00 2.756804e+00 2.642286e+00 2.246266e+00 2.619689e+00 3.515840e-01 3.301740e-01 3.697362e-01 6.085442e-01 6.214110e-01 5.732497e-01 5.829952e-01 5.825591e-01 5.457696e-01 5.154813e-01 4.813075e-01 4.115010e-01 3.797888e-01
<GCONST> 1.273749e+02
<STATE> 4
<MEAN> 39
 -7.073081e+00 -5.182075e+00 3.083908e+00 -4.712127e+00 -3.753143e+00 -1.627138e+00 -1.468287e+00 3.056084e-01 -6.565167e-01 3.394893e-01 2.006470e-02 2.617010e-01 6.218586e+01 1.434585e-03 1.374065e-04 2.525367e-04 5.820022e-04 4.014966e-04 2.215358e-03 -8.123819e-04 -9.562453e-04 -2.677054e-03 9.555375e-05 -2.520549e-03 -2.398011e-03 1.398614e-03 2.718834e-05 1.134781e-04 1.011758e-04 5.987636e-05 1.873551e-04 1.222922e-04 1.358185e-04 -1.480209e-04 8.517164e-05 1.455717e-04 6.511973e-05 3.582740e-05 -3.630825e-04
<VARIANCE> 39
 5.129706e+01 3.546688e+01 4.827583e+01 6.984402e+01 7.818696e+01 6.696542e+01 6.204010e+01 5.052805e+01 4.922348e+01 4.007318e+01 4.705855e+01 3.807205e+01 9.061279e+01 2.379715e+00 2.011057e+00 2.314920e+00 3.644549e+00 3.724465e+00 3.272793e+00 3.298130e+00 3.209604e+00 3.000971e+00 2.742651e+00 2.630751e+00 2.238702e+00 2.608226e+00 3.463614e-01 3.267587e-01 3.674562e-01 5.995759e-01 6.175595e-01 5.686238e-01 5.789670e-01 5.782702e-01 5.427883e-01 5.121505e-01 4.786204e-01 4.097864e-01 3.766504e-01
<GCONST> 1.271850e+02
<TRANSP> 5
 0.000000e+00 1.000000e+00 0.000000e+00 0.000000e+00 0.000000e+00
 0.000000e+00 6.845122e-01 3.154878e-01 0.000000e+00 0.000000e+00
 0.000000e+00 0.000000e+00 6.845034e-01 3.154966e-01 0.000000e+00
 0.000000e+00 0.000000e+00 0.000000e+00 8.018547e-01 1.981454e-01
 0.000000e+00 0.000000e+00 0.000000e+00 0.000000e+00 0.000000e+00
<ENDHMM>
~h "uw"
<BEGINHMM>
<NUMSTATES> 5
<STATE> 2
<MEAN> 39
 -6.928329e+00 -4.601214e+00 3.166122e+00 -5.227686e+00 -3.362895e+00 -1.511117e+00 -1.876178e+00 -2.098620e-01 -9.522618e-01 1.940010e-01 1.589896e-02 3.554636e-01 6.194928e+01 3.271686e-03 7.259113e-04 -7.346904e-04 -3.029039e-03 -1.179941e-03 1.201867e-04 1.089189e-03 -1.363092e-03 -8.518630e-04 -1.696459e-03 -9.037995e-04 -3.823049e-03 2.454641e-03 -4.957635e-04 5.376135e-04 -2.956238e-05 -1.542700e-05 1.542364e-04 -3.613052e-05 4.389047e-06 -7.195040e-05 1.448920e-04 -1.212611e-04 -2.290280e-04 2.789844e-05 6.477888e-05
<VARIANCE> 39
 5.459874e+01 3.359147e+01 4.756988e+01 7.304719e+01 7.412305e+01 6.421263e+01 6.509783e+01 5.384444e+01 5.159188e+01 4.196882e+01 4.719270e+01 3.762743e+01 8.257314e+01 2.479630e+00 1.877240e+00 2.319317e+00 3.708745e+00 3.576077e+00 3.240909e+00 3.458030e+00 3.401423e+00 3.111619e+00 2.784844e+00 2.694892e+00 2.247585e+00 2.300417e+00 3.517134e-01 3.027496e-01 3.652224e-01 6.062436e-01 5.941185e-01 5.689406e-01 6.048033e-01 6.077393e-01 5.584075e-01 5.197570e-01 4.931841e-01 4.157141e-01 3.308042e-01
<GCONST> 1.271882e+02
<STATE> 3
<MEAN> 39
 -6.920898e+00 -4.595961e+00 3.163635e+00 -5.235710e+00 -3.364830e+00 -1.511648e+00 -1.873213e+00 -2.144226e-01 -9.551131e-01 1.884163e-01 1.227723e-02 3.430151e-01 6.195814e+01 1.754957e-03 2.302206e-03 -9.887157e-04 -2.986119e-03 -8.088967e-04 -6.511263e-05 1.152941e-03 -1.642997e-03 -3.994725e-04 -1.798744e-03 -1.473928e-03 -3.487751e-03 2.676578e-03 -4.346185e-04 5.678184e-04 -1.042976e-04 -1.043227e-05 8.704008e-05 -4.577955e-05 -1.078146e-04 -1.491630e-04 9.684046e-05 -7.062125e-05 -2.502015e-04 1.055763e-04 1.279690e-04
<VARIANCE> 39
 5.468793e+01 3.361724e+01 4.749473e+01 7.314589e+01 7.412334e+01 6.416971e+01 6.504760e+01 5.389850e+01 5.148498e+01 4.193525e+01 4.715085e+01 3.770811e+01 8.236219e+01 2.483463e+00 1.880400e+00 2.320404e+00 3.720246e+00 3.576731e+00 3.238397e+00 3.460027e+00 3.406315e+00 3.113444e+00 2.784680e+00 2.701560e+00 2.248848e+00 2.304020e+00 3.518976e-01 3.031881e-01 3.654706e-01 6.079189e-01 5.941750e-01 5.684468e-01 6.047984e-01 6.080660e-01 5.589713e-01 5.195329e-01 4.944205e-01 4.156690e-01 3.311113e-01
<GCONST> 1.272082e+02
<STATE> 4
<MEAN> 39
 -6.912854e+00 -4.562686e+00 3.124120e+00 -5.215457e+00 -3.383662e+00 -1.475485e+00 -1.878700e+00 -2.204392e-01 -9.432609e-01 1.618061e-01 8.141476e-03 3.445067e-01 6.192993e+01 1.682084e-04 4.151510e-03 -1.470739e-03 -2.279523e-03 -1.459004e-04 -3.863184e-04 6.838599e-04 -2.515485e-03 -2.895782e-04 -1.014767e-03 -2.134736e-03 -2.994701e-03 2.705624e-03 -2.834372e-04 4.280972e-04 -1.457654e-04 3.602785e-05 7.338171e-05 1.133173e-05 -2.031846e-04 -2.543938e-04 3.480758e-05 1.433490e-04 -2.474978e-04 1.258950e-04 6.414009e-05
<VARIANCE> 39
 5.480928e+01 3.364203e+01 4.758834e+01 7.284525e+01 7.446435e+01 6.389358e+01 6.504485e+01 5.396915e+01 5.141221e+01 4.188074e+01 4.704843e+01 3.774792e+01 8.210709e+01 2.470155e+00 1.871491e+00 2.318810e+00 3.703687e+00 3.574170e+00 3.221849e+00 3.456151e+00 3.397947e+00 3.106663e+00 2.777346e+00 2.702500e+00 2.242445e+00 2.300899e+00 3.487930e-01 3.010832e-01 3.647408e-01 6.035706e-01 5.923576e-01 5.648298e-01 6.031041e-01 6.048412e-01 5.575189e-01 5.176221e-01 4.942377e-01 4.138753e-01 3.289860e-01
<GCONST> 1.271102e+02
<TRANSP> 5
 0.000000e+00 1.000000e+00 0.000000e+00 0.000000e+00 0.000000e+00
 0.000000e+00 6.853026e-01 3.146974e-01 0.000000e+00 0.000000e+00
 0.000000e+00 0.000000e+00 6.853027e-01 3.146973e-01 0.000000e+00
 0.000000e+00 0.000000e+00 0.000000e+00 8.025587e-01 1.974413e-01
 0.000000e+00 0.000000e+00 0.000000e+00 0.000000e+00 0.000000e+00
<ENDHMM>
~h "sil"
<BEGINHMM>
<NUMSTATES> 5
<STATE> 2
<MEAN> 39
 -1.096654e+01 -4.493505e+00 4.971726e+00 1.352889e+00 2.134565e+00 4.643212e+00 3.977522e+00 1.691737e+00 3.351232e+00 2.393884e+00 3.272126e+00 3.676891e+00 5.095463e+01 -2.208671e-03 -1.013676e-02 -2.559307e-03 -3.973615e-03 9.056420e-03 1.345607e-02 8.442298e-03 7.924329e-03 1.903040e-02 1.448762e-02 1.454190e-02 1.292127e-04 -1.142754e-02 2.781053e-04 1.309883e-03 1.547143e-03 4.646601e-04 -4.205004e-04 2.043054e-03 4.415453e-04 -3.997939e-03 -4.340946e-03 -2.032020e-03 -1.669891e-03 -2.673605e-03 4.515189e-05
<VARIANCE> 39
 3.555016e+00 4.151441e+00 6.564292e+00 7.758923e+00 1.003855e+01 1.067911e+01 1.325645e+01 1.449909e+01 1.557789e+01 1.598374e+01 1.431507e+01 1.181398e+01 7.974687e+00 2.122148e-01 2.887113e-01 4.093304e-01 5.659848e-01 8.103765e-01 9.402238e-01 1.140572e+00 1.241126e+00 1.337473e+00 1.367842e+00 1.184156e+00 1.049018e+00 1.262822e-01 3.603993e-02 4.969112e-02 7.078955e-02 9.949533e-02 1.428277e-01 1.658757e-01 1.997768e-01 2.170007e-01 2.342677e-01 2.397827e-01 2.090282e-01 1.843716e-01 2.009775e-02
<GCONST> 6.732516e+01
