~o
<STREAMINFO> 1 39
<VECSIZE> 39<NULLD><MFCC_D_A_0><DIAGC>
~s "silst"
<NUMMIXES> 16
<MIXTURE> 1 6.730101e-02
<MEAN> 39
 -1.137599e+01 -4.037713e+00 4.897551e+00 1.884286e+00 2.893197e+00 5.537053e+00 5.361320e+00 3.267264e+00 4.395772e+00 4.167555e+00 4.964497e+00 4.788330e+00 4.989775e+01 -1.177436e-01 -5.178542e-02 -7.229860e-02 -1.690951e-02 4.672970e-02 1.726374e-01 1.936541e-01 2.463263e-01 2.793742e-01 3.118326e-01 2.480536e-01 1.513205e-01 -6.332310e-02 5.956117e-03 8.577848e-03 -3.158092e-03 -3.360817e-02 4.095559e-03 -6.335042e-02 -9.158102e-02 -4.576105e-02 -8.180195e-02 -8.055754e-02 -8.043767e-02 -3.831222e-02 8.908202e-02
<VARIANCE> 39
 2.359014e+00 3.256522e+00 4.493276e+00 5.816674e+00 8.118660e+00 9.302432e+00 1.197926e+01 1.253899e+01 1.185850e+01 1.351371e+01 1.297249e+01 1.095934e+01 4.891115e+00 4.369643e-01 4.917668e-01 5.903212e-01 7.928862e-01 1.068007e+00 1.091012e+00 1.305936e+00 1.431274e+00 1.537333e+00 1.564680e+00 1.355653e+00 1.169838e+00 2.615290e-01 6.039985e-02 6.853718e-02 9.170066e-02 1.264523e-01 1.775343e-01 1.986009e-01 2.424965e-01 2.543687e-01 2.587835e-01 2.814414e-01 2.458257e-01 2.137477e-01 3.744680e-02
<GCONST> 7.149072e+01
<MIXTURE> 2 4.858435e-02
<MEAN> 39
 -1.179392e+01 -4.775836e+00 3.865256e+00 -5.109031e-01 2.904291e+00 2.741379e+00 2.777631e+00 3.784926e+00 5.224499e-01 1.047671e+00 2.472303e+00 3.032577e+00 5.607780e+01 -4.157804e-01 -3.484999e-01 -7.333208e-02 1.002824e-01 2.780151e-01 3.455511e-01 5.832076e-01 6.246719e-01 6.362926e-01 7.171985e-01 7.352642e-01 5.669199e-01 -5.031109e-01 2.067889e-01 -2.229720e-02 2.357624e-02 2.157066e-02 -1.578734e-01 6.559454e-02 -7.771587e-04 -1.799304e-01 1.758320e-01 4.057223e-02 5.383340e-02 3.236860e-02 -1.701742e-01
<VARIANCE> 39
 2.417303e+01 2.003544e+01 2.187258e+01 2.633914e+01 3.372463e+01 3.205044e+01 3.316963e+01 3.400260e+01 3.234798e+01 3.622435e+01 3.056475e+01 2.367386e+01 1.186948e+01 1.065005e+00 1.015352e+00 1.262250e+00 1.540750e+00 1.910107e+00 2.020541e+00 2.177596e+00 2.228024e+00 2.388498e+00 2.422968e+00 2.065175e+00 1.881355e+00 7.969140e-01 2.549234e-01 2.613238e-01 3.134733e-01 4.646156e-01 4.829646e-01 5.180240e-01 5.207165e-01 4.786713e-01 4.851029e-01 4.922211e-01 4.357702e-01 3.745876e-01 1.892366e-01
<GCONST> 1.085936e+02
<MIXTURE> 3 8.052550e-02
<MEAN> 39
 -1.120746e+01 -3.790750e+00 5.211309e+00 1.951662e+00 3.192013e+00 4.695673e+00 3.760858e+00 1.616540e+00 2.280802e+00 1.693239e+00 2.191083e+00 3.217793e+00 5.150231e+01 -5.898045e-02 4.705860e-02 1.548376e-01 2.150288e-01 8.032523e-02 1.866087e-01 1.841850e-01 2.226493e-02 8.681779e-02 6.841111e-02 5.324896e-02 3.535652e-02 -1.739572e-01 -2.198004e-02 -8.283877e-02 -9.536675e-02 -1.395339e-01 -7.865584e-02 -3.329575e-02 2.238437e-02 1.355970e-01 1.657195e-01 1.687425e-01 2.064554e-01 1.079869e-01 7.615567e-02
<VARIANCE> 39
 4.324417e+00 5.441980e+00 6.743105e+00 7.860952e+00 1.142321e+01 1.108171e+01 1.314638e+01 1.483910e+01 1.430354e+01 1.583511e+01 1.378721e+01 1.270327e+01 4.492175e+00 3.996724e-01 5.017009e-01 5.991371e-01 7.685585e-01 1.043343e+00 1.113277e+00 1.310582e+00 1.428726e+00 1.487906e+00 1.544965e+00 1.345484e+00 1.182586e+00 2.274482e-01 8.922639e-02 9.914575e-02 1.227733e-01 1.636149e-01 2.280149e-01 2.339803e-01 2.601368e-01 2.824118e-01 2.843611e-01 3.022930e-01 2.520812e-01 2.412217e-01 5.257970e-02
<GCONST> 7.684517e+01
<MIXTURE> 4 4.354339e-02
<MEAN> 39
 -1.201511e+01 -4.492912e+00 3.669194e+00 -1.848435e-01 1.273714e+00 3.612709e+00 3.649556e+00 3.372484e+00 4.084108e+00 3.821080e+00 4.374912e+00 4.507967e+00 5.350193e+01 -7.377360e-01 5.892111e-03 2.262435e-01 3.623191e-01 4.973540e-01 1.856511e-01 4.220003e-01 4.741862e-01 1.905207e-01 3.425945e-01 4.505510e-01 2.854035e-01 -2.299877e-01 8.773192e-02 -1.499458e-02 3.585866e-02 -5.428376e-02 1.062203e-02 -3.590711e-02 -8.936530e-02 -5.680600e-02 -2.031804e-01 -1.831971e-01 -1.105656e-01 -9.610704e-02 1.125889e-01
<VARIANCE> 39
 1.591492e+01 1.132608e+01 1.726659e+01 2.157630e+01 2.488247e+01 2.440392e+01 2.490718e+01 2.309598e+01 2.246983e+01 2.219925e+01 1.909770e+01 1.640749e+01 1.488197e+01 2.625701e+00 2.055394e+00 2.985376e+00 4.585937e+00 4.142219e+00 4.283561e+00 4.091687e+00 3.292301e+00 3.402038e+00 3.166023e+00 2.719386e+00 2.258055e+00 3.555974e+00 3.373816e-01 2.204767e-01 3.371537e-01 4.485087e-01 4.690646e-01 4.694811e-01 5.195701e-01 4.558996e-01 4.673052e-01 4.266155e-01 3.872765e-01 3.284348e-01 3.721208e-01
<GCONST> 1.133507e+02
<MIXTURE> 5 8.514251e-02
<MEAN> 39
 -1.100174e+01 -4.056247e+00 5.002048e+00 1.296525e+00 2.574515e+00 4.081026e+00 3.147939e+00 1.140765e+00 1.755882e+00 1.374698e+00 2.135247e+00 3.060565e+00 5.231387e+01 3.409554e-02 1.838186e-01 2.820849e-01 2.973382e-01 5.872958e-02 6.247335e-02 -2.170859e-03 -2.139062e-01 -1.563741e-01 -1.637206e-01 -1.743319e-01 -6.629008e-02 -1.602121e-01 -4.530139e-02 -6.116128e-02 -7.098296e-02 -9.470228e-02 -2.694175e-02 -5.412120e-03 4.731137e-02 1.554725e-01 1.649964e-01 1.407336e-01 1.509088e-01 7.640219e-02 7.395031e-02
<VARIANCE> 39
 4.898716e+00 6.126703e+00 7.837574e+00 8.714666e+00 1.198581e+01 1.149843e+01 1.327241e+01 1.509555e+01 1.542203e+01 1.584770e+01 1.399120e+01 1.286895e+01 4.945955e+00 4.478593e-01 5.555954e-01 6.450910e-01 8.051267e-01 1.094579e+00 1.194200e+00 1.344537e+00 1.460785e+00 1.504373e+00 1.534504e+00 1.354428e+00 1.238575e+00 2.643227e-01 9.873216e-02 1.056717e-01 1.313694e-01 1.728976e-01 2.328938e-01 2.388098e-01 2.616422e-01 2.809760e-01 2.881140e-01 2.944344e-01 2.496804e-01 2.411382e-01 6.289381e-02
<GCONST> 7.884908e+01
<MIXTURE> 6 7.662114e-02
<MEAN> 39
 -1.139471e+01 -4.275345e+00 4.592526e+00 1.286987e+00 2.642466e+00 4.950499e+00 4.540546e+00 2.879484e+00 4.138017e+00 3.775655e+00 4.287111e+00 4.260975e+00 5.099036e+01 -1.018568e-01 3.859187e-02 -1.312950e-02 -1.227874e-02 4.593025e-02 5.655177e-02 4.921025e-02 1.343105e-01 1.071392e-01 2.050661e-01 1.003379e-01 8.064942e-02 -7.216337e-03 2.100757e-02 1.262902e-02 3.299294e-02 8.122217e-03 1.165556e-02 -4.280912e-02 -6.207624e-02 -4.861559e-02 -9.187873e-02 -1.109173e-01 -7.866283e-02 -3.033769e-02 6.810275e-02
<VARIANCE> 39
 2.856095e+00 3.649242e+00 5.268779e+00 6.170798e+00 8.907957e+00 9.514403e+00 1.220184e+01 1.338333e+01 1.303506e+01 1.406756e+01 1.267436e+01 1.100343e+01 4.509152e+00 5.402517e-01 5.966213e-01 6.760989e-01 9.145834e-01 1.191421e+00 1.218048e+00 1.401724e+00 1.574565e+00 1.644900e+00 1.658604e+00 1.389737e+00 1.211103e+00 3.336706e-01 7.027104e-02 7.847269e-02 9.975158e-02 1.373071e-01 1.898872e-01 2.066673e-01 2.503450e-01 2.604568e-01 2.681811e-01 2.811286e-01 2.452470e-01 2.202605e-01 4.532550e-02
<GCONST> 7.461488e+01
<MIXTURE> 7 7.242854e-02
<MEAN> 39
 -1.152626e+01 -6.324521e+00 2.807327e+00 -1.387701e+00 2.681311e+00 2.984005e+00 2.079428e+00 4.042183e+00 1.622937e+00 1.725162e+00 2.742143e+00 3.240508e+00 5.664081e+01 -1.541485e-01 -7.778729e-02 7.525573e-02 8.609124e-02 2.063326e-01 1.349851e-01 2.195939e-01 2.107925e-01 1.900443e-01 2.728602e-01 2.375586e-01 2.053081e-01 -2.748390e-01 1.147119e-01 8.059455e-02 1.233320e-01 1.200891e-01 -1.025819e-01 2.241353e-02 7.999643e-02 -1.427797e-01 9.275380e-02 -1.978852e-02 4.119329e-02 1.539621e-02 -1.942753e-01
<VARIANCE> 39
 2.094107e+01 2.351743e+01 2.554582e+01 2.804114e+01 3.430898e+01 3.419191e+01 3.323124e+01 3.397755e+01 3.719212e+01 3.806322e+01 3.366253e+01 2.629762e+01 1.315539e+01 6.948101e-01 8.617959e-01 1.029047e+00 1.274778e+00 1.551232e+00 1.691489e+00 1.787388e+00 1.848704e+00 1.888148e+00 1.874764e+00 1.722412e+00 1.515265e+00 5.975503e-01 1.944026e-01 2.516214e-01 3.066200e-01 4.148516e-01 4.322431e-01 4.694711e-01 4.876875e-01 4.705623e-01 4.936602e-01 4.848659e-01 4.417633e-01 3.750273e-01 1.452214e-01
<GCONST> 1.054889e+02
<MIXTURE> 8 2.615047e-02
<MEAN> 39
 -1.108037e+01 -4.289551e+00 4.309754e+00 1.310639e+00 1.920352e+00 4.923768e+00 4.195301e+00 2.652960e+00 4.189939e+00 3.351307e+00 3.855090e+00 3.971741e+00 5.147055e+01 7.578002e-02 4.076560e-03 6.262763e-02 -5.622533e-02 -4.806329e-02 -7.620562e-02 -2.187961e-01 -1.489048e-01 -2.819148e-01 -1.305390e-01 -1.755762e-01 -1.639454e-01 3.339637e-01 2.774399e-01 -4.351293e-02 -1.762658e-01 -6.111758e-01 -4.594908e-01 -4.497600e-01 -4.624233e-01 -1.489267e-01 -3.041084e-01 -2.054242e-01 -2.643478e-01 -2.010163e-01 7.757195e-01
<VARIANCE> 39
 4.672215e+00 6.738666e+00 1.076655e+01 1.243920e+01 1.579206e+01 1.456253e+01 1.680106e+01 1.807449e+01 1.773665e+01 1.998561e+01 1.620609e+01 1.571338e+01 6.735119e+00 1.961177e+00 2.270010e+00 3.155833e+00 4.544770e+00 4.297525e+00 3.641982e+00 3.631737e+00 3.359736e+00 3.242755e+00 3.037995e+00 2.640448e+00 2.427131e+00 2.733958e+00 2.910516e-01 3.918270e-01 5.229872e-01 6.326171e-01 7.030492e-01 5.521184e-01 5.829017e-01 6.095992e-01 5.644126e-01 5.456620e-01 5.014310e-01 4.377184e-01 3.737117e-01
<GCONST> 1.101187e+02
<MIXTURE> 9 8.728345e-02
<MEAN> 39
 -1.115813e+01 -4.039463e+00 4.948657e+00 1.485064e+00 2.628306e+00 4.202282e+00 3.136617e+00 1.026497e+00 1.602747e+00 1.066761e+00 1.584872e+00 2.628176e+00 5.169647e+01 -1.112126e-02 5.555794e-02 1.218963e-01 1.418322e-01 -1.443057e-02 2.889186e-02 -9.363819e-03 -1.866418e-01 -1.547274e-01 -1.775938e-01 -1.919934e-01 -1.129788e-01 -1.413330e-01 2.524219e-03 -7.116072e-02 -9.450987e-02 -1.494545e-01 -9.517756e-02 -6.467918e-02 -1.683120e-02 8.878244e-02 1.142004e-01 1.108335e-01 1.421817e-01 6.045402e-02 9.057058e-02
<VARIANCE> 39
 4.364460e+00 5.338341e+00 7.041704e+00 7.984828e+00 1.133544e+01 1.107295e+01 1.305729e+01 1.483741e+01 1.486276e+01 1.580898e+01 1.370015e+01 1.266395e+01 4.924039e+00 4.094430e-01 5.104771e-01 5.965784e-01 7.633532e-01 1.043313e+00 1.132227e+00 1.302940e+00 1.437724e+00 1.490440e+00 1.531408e+00 1.329888e+00 1.190716e+00 2.300610e-01 8.832289e-02 9.945166e-02 1.234014e-01 1.664639e-01 2.285323e-01 2.349573e-01 2.589364e-01 2.844183e-01 2.822874e-01 2.998659e-01 2.504787e-01 2.414373e-01 5.443358e-02
<GCONST> 7.708290e+01
<MIXTURE> 10 7.382913e-02
<MEAN> 39
 -1.095963e+01 -4.319135e+00 4.757218e+00 7.803883e-01 1.957739e+00 3.533203e+00 2.533725e+00 5.213642e-01 9.792830e-01 7.199304e-01 1.562396e+00 2.467239e+00 5.258552e+01 8.622127e-02 1.845873e-01 2.380449e-01 2.170846e-01 -4.980860e-02 -9.643411e-02 -2.019619e-01 -4.255913e-01 -3.920819e-01 -4.070040e-01 -4.125451e-01 -2.071479e-01 -1.278124e-01 -2.256330e-02 -4.971597e-02 -7.627797e-02 -1.108434e-01 -4.604162e-02 -4.290510e-02 4.781909e-03 1.099348e-01 1.085459e-01 8.566123e-02 8.395576e-02 3.184370e-02 9.968183e-02
<VARIANCE> 39
 4.886097e+00 6.019578e+00 8.149037e+00 8.833632e+00 1.176231e+01 1.143310e+01 1.312105e+01 1.493776e+01 1.597518e+01 1.557077e+01 1.394906e+01 1.265103e+01 5.382424e+00 4.515940e-01 5.515813e-01 6.355912e-01 7.966998e-01 1.102043e+00 1.209002e+00 1.336855e+00 1.454901e+00 1.486463e+00 1.517112e+00 1.336170e+00 1.235698e+00 2.687557e-01 9.891724e-02 1.054518e-01 1.311662e-01 1.747549e-01 2.331343e-01 2.414209e-01 2.604536e-01 2.815570e-01 2.857858e-01 2.914837e-01 2.482003e-01 2.396561e-01 6.654611e-02
<GCONST> 7.892390e+01
<MIXTURE> 11 7.079894e-02
<MEAN> 39
 -1.140082e+01 -4.555874e+00 4.324941e+00 8.162804e-01 2.117012e+00 4.436203e+00 3.865739e+00 2.257957e+00 3.485696e+00 3.103759e+00 3.652563e+00 3.642283e+00 5.126929e+01 -3.981928e-02 4.063374e-02 -5.045348e-02 -9.709629e-02 -4.657460e-02 -1.161118e-01 -1.489287e-01 -5.996612e-02 -1.152978e-01 -1.872229e-02 -1.248750e-01 -8.523123e-02 3.989401e-02 4.423616e-02 2.034370e-02 2.867590e-02 -4.508590e-03 -5.940210e-03 -7.165210e-02 -9.796697e-02 -8.728185e-02 -1.338160e-01 -1.595498e-01 -1.357451e-01 -7.297535e-02 8.095875e-02
<VARIANCE> 39
 2.902730e+00 3.613445e+00 5.561725e+00 6.280577e+00 8.883024e+00 9.468372e+00 1.217922e+01 1.329780e+01 1.350892e+01 1.413972e+01 1.262401e+01 1.097610e+01 4.895607e+00 5.576918e-01 6.049944e-01 6.861239e-01 9.269661e-01 1.202786e+00 1.243918e+00 1.406504e+00 1.597060e+00 1.652256e+00 1.660900e+00 1.382116e+00 1.209994e+00 3.442982e-01 7.082925e-02 7.937366e-02 9.920933e-02 1.396663e-01 1.902681e-01 2.101098e-01 2.515002e-01 2.617966e-01 2.683394e-01 2.789851e-01 2.456817e-01 2.199224e-01 4.744630e-02
<GCONST> 7.504448e+01
<MIXTURE> 12 7.720708e-02
<MEAN> 39
 -1.139336e+01 -4.344203e+00 4.606891e+00 1.378516e+00 2.418266e+00 5.042990e+00 4.652424e+00 2.694696e+00 3.934118e+00 3.493537e+00 4.222937e+00 4.133444e+00 5.025091e+01 -6.422948e-02 -4.635451e-02 -1.013362e-01 -9.264320e-02 -3.456941e-02 2.486430e-02 1.602875e-02 5.477234e-02 6.632154e-02 9.158885e-02 2.086358e-02 -1.096654e-02 -2.497264e-02 3.089232e-02 1.247488e-02 -5.543416e-03 -4.409043e-02 -1.149409e-02 -8.917483e-02 -1.292999e-01 -8.446360e-02 -1.246547e-01 -1.296308e-01 -1.340234e-01 -7.898907e-02 9.565294e-02
<VARIANCE> 39
 2.438214e+00 3.278107e+00 4.811590e+00 5.851123e+00 8.171067e+00 9.264351e+00 1.211993e+01 1.271859e+01 1.223989e+01 1.364918e+01 1.302172e+01 1.098188e+01 5.180168e+00 4.497561e-01 5.088940e-01 6.072184e-01 8.195938e-01 1.068511e+00 1.110052e+00 1.308932e+00 1.457702e+00 1.550940e+00 1.580922e+00 1.349102e+00 1.175663e+00 2.665873e-01 6.086523e-02 7.017761e-02 9.214205e-02 1.293181e-01 1.790440e-01 2.000983e-01 2.434562e-01 2.522661e-01 2.585097e-01 2.767593e-01 2.454472e-01 2.147779e-01 3.860656e-02
<GCONST> 7.202518e+01
<MIXTURE> 13 6.787521e-02
<MEAN> 39
 -1.092219e+01 -6.567374e+00 2.550591e+00 -1.900319e+00 2.182248e+00 2.580127e+00 1.359113e+00 3.424094e+00 1.066485e+00 1.078499e+00 2.081537e+00 2.469179e+00 5.721214e+01 -1.340926e-01 -1.179899e-01 7.853558e-03 -4.404110e-02 1.072961e-01 -5.520950e-02 9.671664e-04 -2.383829e-02 -6.301732e-02 4.847316e-03 -1.772425e-02 4.347202e-02 -2.123546e-01 1.173656e-01 8.545942e-02 1.009914e-01 9.087089e-02 -1.365670e-01 -3.004169e-02 2.573142e-02 -1.705238e-01 2.252056e-02 -7.074954e-02 -1.818693e-02 -2.095701e-02 -1.390963e-01
<VARIANCE> 39
 2.194874e+01 2.446660e+01 2.666226e+01 2.891713e+01 3.516275e+01 3.576344e+01 3.354900e+01 3.576950e+01 3.949835e+01 3.888668e+01 3.527003e+01 2.725735e+01 1.422182e+01 7.230622e-01 8.960723e-01 1.057141e+00 1.316369e+00 1.609007e+00 1.742212e+00 1.858411e+00 1.900230e+00 1.936605e+00 1.904895e+00 1.813171e+00 1.578319e+00 6.143201e-01 1.849450e-01 2.360027e-01 2.977546e-01 4.048202e-01 4.169749e-01 4.588026e-01 4.784127e-01 4.661742e-01 4.825203e-01 4.737673e-01 4.386688e-01 3.729408e-01 1.402129e-01
<GCONST> 1.061040e+02
<MIXTURE> 14 5.457882e-02
<MEAN> 39
 -1.127826e+01 -4.972955e+00 3.551758e+00 -1.020967e+00 2.614128e+00 2.572119e+00 2.207095e+00 3.388735e+00 9.607003e-02 6.177326e-01 1.830262e+00 2.431548e+00 5.635570e+01 -3.876943e-01 -3.792658e-01 -1.582688e-01 -5.751237e-02 1.445941e-01 1.236496e-01 3.436975e-01 3.660415e-01 3.774106e-01 4.454624e-01 4.585800e-01 3.888908e-01 -4.030179e-01 2.174445e-01 -9.207522e-03 1.208394e-02 -9.536323e-04 -2.141035e-01 -6.296292e-03 -5.843575e-02 -2.300066e-01 9.422238e-02 -3.310439e-02 -9.243135e-03 -1.680927e-02 -1.040976e-01
<VARIANCE> 39
 2.453875e+01 2.051868e+01 2.259455e+01 2.626933e+01 3.412329e+01 3.286822e+01 3.255264e+01 3.413511e+01 3.366975e+01 3.574953e+01 3.080389e+01 2.417019e+01 1.202896e+01 1.054527e+00 1.029031e+00 1.253892e+00 1.524276e+00 1.909643e+00 2.019721e+00 2.153786e+00 2.190782e+00 2.356046e+00 2.369560e+00 2.073146e+00 1.883800e+00 7.643514e-01 2.395009e-01 2.561797e-01 3.100621e-01 4.514585e-01 4.754554e-01 5.010823e-01 5.059990e-01 4.725093e-01 4.794783e-01 4.833046e-01 4.314476e-01 3.745057e-01 1.735011e-01
<GCONST> 1.082988e+02
<MIXTURE> 15 4.393911e-02
<MEAN> 39
 -1.199788e+01 -4.792594e+00 3.387264e+00 -7.837963e-01 6.523392e-01 2.955615e+00 2.780772e+00 2.630890e+00 3.445608e+00 3.184514e+00 3.732224e+00 3.941861e+00 5.416199e+01 -6.121267e-01 -5.928125e-02 1.171598e-01 1.366414e-01 2.892412e-01 -1.038986e-01 2.430625e-02 2.225349e-01 -1.576642e-01 -9.350391e-03 5.170061e-02 -3.758336e-02 1.929283e-01 1.257236e-01 -2.921652e-02 1.969717e-02 -1.046782e-01 -2.720357e-02 -1.065702e-01 -1.247141e-01 -8.224297e-02 -2.556141e-01 -2.437481e-01 -1.771563e-01 -1.501612e-01 2.032885e-01
<VARIANCE> 39
 1.690518e+01 1.170245e+01 1.809267e+01 2.179778e+01 2.555099e+01 2.514643e+01 2.493950e+01 2.307987e+01 2.312765e+01 2.217045e+01 1.894667e+01 1.645003e+01 1.594168e+01 2.507206e+00 2.013095e+00 2.864919e+00 4.377855e+00 3.918358e+00 4.274199e+00 3.941265e+00 3.199545e+00 3.287149e+00 3.143543e+00 2.606090e+00 2.172810e+00 3.412959e+00 3.524964e-01 2.334406e-01 3.477193e-01 4.649872e-01 4.692321e-01 4.771619e-01 5.259615e-01 4.748375e-01 4.672660e-01 4.319580e-01 3.997632e-01 3.352095e-01 3.910874e-01
<GCONST> 1.135585e+02
<MIXTURE> 16 2.408925e-02
<MEAN> 39
 -1.090855e+01 -4.438415e+00 3.848245e+00 5.737008e-01 1.152929e+00 4.242640e+00 3.398566e+00 1.907221e+00 3.507092e+00 2.580987e+00 3.164419e+00 3.334821e+00 5.190347e+01 6.751137e-01 -4.797278e-02 -1.948678e-01 -7.542694e-01 -5.321251e-01 -6.324227e-01 -9.980291e-01 -8.737580e-01 -9.663090e-01 -8.154660e-01 -9.253923e-01 -6.501735e-01 1.376803e+00 5.048181e-01 -9.324743e-02 -2.824885e-01 -8.264461e-01 -6.306136e-01 -6.176907e-01 -6.185352e-01 -3.565721e-01 -4.738895e-01 -3.736631e-01 -5.023677e-01 -3.429742e-01 1.148013e+00
<VARIANCE> 39
 4.582333e+00 6.892642e+00 1.180049e+01 1.311462e+01 1.686550e+01 1.482727e+01 1.693358e+01 1.746669e+01 1.830022e+01 2.059163e+01 1.562403e+01 1.565009e+01 7.284601e+00 2.074033e+00 3.446504e+00 4.463120e+00 5.648047e+00 5.259124e+00 3.956934e+00 4.217912e+00 3.900932e+00 3.646532e+00 3.225484e+00 2.852761e+00 2.759615e+00 3.892607e+00 2.688813e-01 5.744743e-01 6.820381e-01 7.278203e-01 7.857071e-01 6.221466e-01 6.177580e-01 6.547532e-01 5.920544e-01 5.800351e-01 5.118988e-01 4.742576e-01 4.519094e-01
<GCONST> 1.142495e+02
~h "b"
<BEGINHMM>
<NUMSTATES> 5
<STATE> 2
<NUMMIXES> 16
<MIXTURE> 1 4.166054e-02
<MEAN> 39
 -5.770780e-01 1.681833e+00 8.522422e+00 5.800124e+00 -1.219994e-01 -1.380912e+00 -3.812722e+00 -8.310594e+00 -9.958806e+00 6.614072e-01 1.248894e+00 -6.331527e+00 5.815123e+01 -1.711854e-01 7.540639e-01 5.605868e-01 -2.012658e-01 4.460194e-01 1.157676e+00 5.510148e-01 3.192450e-01 1.123513e+00 -4.644662e-01 -4.124318e-01 4.079888e-01 -9.120505e-01 -1.713914e-01 -1.588899e-01 -1.369382e-02 -1.609498e-01 1.398314e-01 5.658968e-02 1.668420e-01 2.444803e-01 3.937919e-01 -7.089599e-02 -1.241223e-01 2.251675e-01 -2.159379e-02
<VARIANCE> 39
 6.258586e+00 8.559900e+00 1.066804e+01 2.748751e+01 1.221928e+01 2.763508e+01 3.747946e+01 2.299360e+01 4.423877e+01 2.526864e+01 2.473258e+01 2.239725e+01 1.052450e+01 2.778095e-01 6.476978e-01 6.148753e-01 1.196343e+00 1.290233e+00 1.723939e+00 1.755811e+00 1.610054e+00 2.263292e+00 1.475881e+00 1.659860e+00 1.818482e+00 4.804604e-01 5.964743e-02 1.305688e-01 1.251312e-01 1.838135e-01 2.353200e-01 3.231105e-01 2.751448e-01 2.838257e-01 4.301445e-01 2.352268e-01 3.201430e-01 2.894500e-01 7.833964e-02
<GCONST> 9.003437e+01
<MIXTURE> 2 6.953151e-02
<MEAN> 39
 5.610233e-01 1.983024e-01 5.799757e+00 -5.984144e-01 -1.455294e+00 -2.041739e+00 -5.702831e+00 -7.000675e+00 -5.198880e+00 -2.104594e+00 -7.788844e-01 -2.436690e+00 5.962116e+01 -8.842770e-01 1.805377e+00 1.067275e+00 1.734967e+00 1.713388e+00 1.830669e+00 1.711048e+00 -2.454322e-02 3.236166e-01 -6.605105e-01 -1.524786e-01 7.206780e-02 -2.372601e+00 -2.886876e-01 -5.491250e-01 2.335264e-02 -6.203122e-01 -5.737559e-01 -3.551650e-01 -1.538795e-03 5.434012e-01 1.003461e-01 1.632205e-01 -6.239977e-02 -2.587677e-02 7.591971e-01
<VARIANCE> 39
 5.979489e+00 1.557538e+01 1.883300e+01 2.998864e+01 2.087996e+01 3.094402e+01 3.291123e+01 3.922843e+01 3.811680e+01 2.911537e+01 3.485781e+01 2.070622e+01 9.553706e+00 1.070699e+00 1.692190e+00 2.848033e+00 4.909251e+00 3.385574e+00 3.573758e+00 3.727290e+00 4.073270e+00 4.186862e+00 2.986531e+00 4.073308e+00 3.679928e+00 1.172986e+00 1.475195e-01 2.390447e-01 4.832219e-01 5.465201e-01 3.824220e-01 4.516133e-01 6.131144e-01 4.997948e-01 6.266900e-01 4.945824e-01 4.244257e-01 4.633162e-01 2.104117e-01
<GCONST> 1.138991e+02
<MIXTURE> 3 6.873596e-02
<MEAN> 39
 1.514075e+00 2.245533e+00 6.473425e+00 -4.262551e-01 -5.093490e+00 -6.596124e+00 -9.733723e+00 -8.865773e+00 -5.978801e+00 -1.116857e+00 -3.242718e+00 -5.722257e+00 5.999880e+01 -5.015792e-01 8.475448e-01 6.549570e-01 5.955757e-01 7.957892e-01 9.926348e-01 6.202022e-01 -2.555949e-01 4.446208e-01 -5.313266e-01 4.280499e-01 6.520734e-01 -1.085041e+00 -2.523200e-01 -3.845708e-01 2.617446e-02 -1.184288e-01 1.407175e-01 1.182819e-01 1.699882e-01 3.060271e-01 8.077060e-02 5.746311e-02 1.414947e-01 1.637183e-01 1.967126e-01
<VARIANCE> 39
 2.712846e+00 9.361852e+00 1.182521e+01 2.277886e+01 2.539967e+01 2.419588e+01 3.942037e+01 5.063000e+01 3.782559e+01 3.459131e+01 2.979123e+01 2.609194e+01 7.200440e+00 3.608127e-01 5.346593e-01 6.558574e-01 8.641880e-01 1.912068e+00 1.833835e+00 1.274543e+00 1.860878e+00 1.943883e+00 2.159674e+00 1.726272e+00 1.978902e+00 2.195151e-01 7.046133e-02 1.554817e-01 1.975683e-01 2.728602e-01 3.595739e-01 3.210929e-01 3.233274e-01 4.787243e-01 3.882087e-01 4.046476e-01 3.943726e-01 3.784512e-01 1.500859e-01
<GCONST> 9.427737e+01
<MIXTURE> 4 4.549952e-02
<MEAN> 39
 -8.931240e+00 -1.695110e+00 6.186304e+00 2.292821e+00 2.359425e+00 3.713083e+00 1.212386e+00 -9.157853e-01 6.062011e-01 6.938223e-01 1.554945e+00 8.070208e-01 5.320187e+01 1.415813e+00 9.696717e-01 7.858112e-01 6.453396e-01 -8.609131e-02 -3.673899e-01 -5.108307e-01 -1.044460e+00 -1.220408e+00 -7.408835e-01 -7.803846e-01 -1.090773e+00 4.672050e-02 2.033183e-01 1.543917e-01 1.857781e-02 -2.918205e-01 -2.271423e-01 -3.726878e-01 -3.177763e-01 -1.832017e-01 -2.697624e-01 -1.203682e-01 -1.365516e-01 -2.013164e-01 4.905231e-01
<VARIANCE> 39
 1.125694e+01 1.517102e+01 1.209334e+01 1.345178e+01 1.553177e+01 1.842533e+01 3.111061e+01 2.427619e+01 2.385554e+01 2.131550e+01 1.972318e+01 1.961936e+01 1.736769e+01 1.313418e+00 1.523030e+00 1.047265e+00 1.246894e+00 1.237440e+00 1.878174e+00 2.563078e+00 2.529629e+00 2.395564e+00 2.482925e+00 1.880546e+00 2.366859e+00 1.727649e+00 4.365118e-01 2.861457e-01 3.219998e-01 3.757402e-01 3.501211e-01 3.977186e-01 5.173603e-01 5.987484e-01 4.714907e-01 4.668707e-01 3.689741e-01 5.027856e-01 2.657268e-01
<GCONST> 1.048740e+02
<MIXTURE> 5 7.316331e-02
<MEAN> 39
 9.520549e-01 1.116889e+00 5.696093e+00 -1.178682e+00 -6.254128e+00 -8.515385e+00 -8.234218e+00 -7.910177e+00 -5.660246e+00 -2.674456e+00 -5.156146e+00 -5.609722e+00 6.206697e+01 -8.486281e-02 6.750482e-01 2.572258e-01 3.776321e-01 4.323253e-01 7.019418e-01 1.765158e-01 -1.847565e-01 6.465227e-02 -1.709301e-01 2.489815e-01 1.618341e-01 -7.810309e-01 -1.591929e-01 -3.384547e-01 6.439503e-02 -2.922026e-01 8.545703e-03 1.833513e-01 7.238606e-02 2.237192e-01 1.733597e-02 1.777830e-01 2.470032e-01 1.672237e-01 2.081306e-01
<VARIANCE> 39
 4.836251e+00 1.177913e+01 1.682342e+01 3.393270e+01 2.782757e+01 6.189303e+01 3.823837e+01 7.528764e+01 2.888692e+01 4.128576e+01 3.880546e+01 3.380689e+01 9.283398e+00 2.346328e-01 4.381723e-01 5.461966e-01 7.204566e-01 1.144631e+00 1.865135e+00 1.093582e+00 1.564214e+00 1.317504e+00 1.465465e+00 1.290456e+00 1.341310e+00 2.691356e-01 7.838700e-02 2.012438e-01 2.537063e-01 3.821245e-01 4.015077e-01 3.996294e-01 3.391222e-01 5.231137e-01 2.866421e-01 3.729929e-01 3.256293e-01 3.312478e-01 1.977587e-01
<GCONST> 9.583120e+01
<MIXTURE> 6 9.600762e-02
<MEAN> 39
 1.838781e+00 -3.866006e+00 2.305628e+00 -5.097747e+00 -3.450581e+00 -4.329403e+00 -7.945858e+00 -7.880958e+00 -6.888121e+00 2.275187e-01 6.736125e-01 -3.702724e+00 6.446590e+01 -1.085740e-01 1.240645e+00 4.836742e-01 9.648104e-01 7.801532e-01 7.322475e-01 3.802921e-01 -4.519130e-01 -1.698110e-01 -2.693305e-01 5.654138e-01 5.835460e-01 -1.548997e+00 -1.723662e-01 -6.172358e-01 -1.422412e-01 -7.199582e-01 -5.077158e-01 -3.306041e-01 1.159929e-01 8.154723e-01 3.870113e-01 -2.290358e-02 -3.014808e-01 -1.626568e-02 7.978015e-01
<VARIANCE> 39
 7.890267e+00 3.021420e+01 2.696116e+01 6.668043e+01 3.121218e+01 5.700377e+01 4.717802e+01 5.683237e+01 5.539092e+01 4.432583e+01 5.278028e+01 3.470789e+01 1.517505e+01 6.224236e-01 1.481530e+00 1.885351e+00 3.052179e+00 2.496886e+00 3.433426e+00 2.824334e+00 3.636003e+00 3.150744e+00 2.841573e+00 2.739511e+00 2.591469e+00 8.954360e-01 9.542653e-02 2.442593e-01 4.085921e-01 7.007371e-01 5.365554e-01 4.268973e-01 7.115226e-01 5.649760e-01 8.152650e-01 6.301528e-01 5.983937e-01 5.623719e-01 1.707543e-01
<GCONST> 1.173330e+02
<MIXTURE> 7 7.147491e-02
<MEAN> 39
 -2.599677e+00 2.400430e+00 9.262632e+00 2.286453e+00 4.789777e-01 4.166811e-02 -2.569187e+00 -5.788476e+00 -4.940585e+00 -3.198434e+00 -2.416311e+00 -2.856148e+00 5.604138e+01 -8.466744e-02 3.135155e-01 3.717742e-01 2.784184e-01 2.460497e-01 4.122072e-01 3.066610e-01 2.434807e-02 2.228780e-01 -2.277766e-01 -1.503302e-01 -3.206211e-02 -3.319262e-01 -2.864421e-02 -1.668390e-01 -1.343838e-01 -1.882069e-01 -1.202782e-01 -1.027116e-01 -4.338181e-02 6.587317e-02 9.743771e-02 1.010299e-01 1.067204e-01 8.724198e-02 1.737087e-01
<VARIANCE> 39
 7.324625e+00 5.865292e+00 9.744987e+00 1.132749e+01 1.549355e+01 2.149400e+01 1.720013e+01 1.454259e+01 2.346687e+01 2.346150e+01 2.541520e+01 1.752984e+01 1.076665e+01 3.749629e-01 4.853952e-01 4.912511e-01 7.895077e-01 1.020218e+00 1.290803e+00 1.195808e+00 1.402678e+00 1.325022e+00 1.384244e+00 1.328301e+00 1.086032e+00 2.596761e-01 8.023565e-02 9.686521e-02 1.123138e-01 1.550982e-01 1.823032e-01 2.283231e-01 2.439644e-01 2.366367e-01 2.652410e-01 2.528004e-01 2.427183e-01 1.992777e-01 7.013804e-02
<GCONST> 8.069777e+01
<MIXTURE> 8 3.568053e-02
<MEAN> 39
 -2.983751e+00 2.376909e+00 8.162497e+00 1.318297e+00 -2.103610e+00 -3.736769e+00 -5.726380e+00 -9.192451e+00 -5.664702e+00 -3.019183e+00 -3.398482e+00 -4.068052e+00 5.737938e+01 2.099106e+00 8.911026e-01 5.530994e-01 -3.618393e-03 -9.348404e-01 -1.261232e+00 -1.734108e+00 -1.936393e+00 -1.520080e+00 -6.531070e-01 -8.951963e-01 -1.435980e+00 9.441886e-01 -5.241742e-01 -5.315750e-01 -3.018613e-01 -1.494856e-01 2.892433e-01 5.209601e-01 5.575199e-01 8.714514e-01 5.909578e-01 3.925308e-01 5.040526e-01 4.173885e-01 -1.070725e-01
<VARIANCE> 39
 1.446424e+01 1.730660e+01 1.757642e+01 3.076759e+01 2.169754e+01 5.182690e+01 4.587259e+01 5.295107e+01 2.917190e+01 3.264012e+01 3.176590e+01 2.549134e+01 1.937076e+01 1.399319e+00 2.185935e+00 1.446579e+00 2.037719e+00 1.970696e+00 3.520239e+00 4.221776e+00 4.853018e+00 2.796650e+00 3.277976e+00 3.173791e+00 3.153417e+00 1.517864e+00 2.805902e-01 3.030244e-01 2.746747e-01 5.652201e-01 4.663556e-01 8.219141e-01 7.009115e-01 9.325627e-01 4.338777e-01 5.515506e-01 4.199243e-01 6.092473e-01 2.640870e-01
<GCONST> 1.170884e+02
<MIXTURE> 9 9.097449e-02
<MEAN> 39
 1.144347e+00 -4.314512e+00 1.458244e+00 -5.855909e+00 -3.828528e+00 -5.411557e+00 -9.027731e+00 -8.682229e+00 -6.580641e+00 1.611946e-01 -1.622803e+00 -4.461371e+00 6.469457e+01 -1.108772e-01 1.160190e+00 6.799138e-01 1.070319e+00 7.726257e-01 5.804962e-01 1.861842e-01 -4.818353e-01 -3.076357e-01 -2.796783e-01 3.278885e-01 2.430617e-01 -1.499900e+00 -2.104940e-01 -6.891212e-01 -1.716976e-01 -8.270333e-01 -5.749309e-01 -3.092851e-01 2.597922e-01 8.409827e-01 3.272882e-01 -1.172146e-01 -3.158558e-01 3.484476e-02 8.854035e-01
<VARIANCE> 39
 8.775542e+00 2.556912e+01 2.942203e+01 6.336293e+01 2.998487e+01 6.090451e+01 4.212840e+01 6.094118e+01 4.673476e+01 4.383752e+01 4.977873e+01 3.426394e+01 1.580212e+01 5.603436e-01 1.451235e+00 1.901316e+00 2.996302e+00 2.300305e+00 3.165000e+00 2.773758e+00 3.503915e+00 2.843952e+00 2.882218e+00 2.505263e+00 2.517737e+00 8.404166e-01 9.566879e-02 2.349902e-01 4.136990e-01 7.637299e-01 5.951791e-01 4.725007e-01 7.703757e-01 6.473636e-01 7.386646e-01 6.482859e-01 5.825166e-01 6.067939e-01 1.769025e-01
<GCONST> 1.169527e+02
<MIXTURE> 10 7.259822e-02
<MEAN> 39
 4.486324e-01 3.957657e-01 4.850169e+00 -2.102536e+00 -7.839474e+00 -9.865363e+00 -8.302644e+00 -8.740772e+00 -5.938036e+00 -3.958581e+00 -6.520086e+00 -5.925065e+00 6.271929e+01 -2.545992e-02 6.394936e-01 1.865888e-01 2.689352e-01 3.571061e-01 6.784468e-01 3.001799e-02 -3.189518e-01 -9.876732e-02 -1.436660e-01 3.826882e-02 -1.246731e-02 -7.131824e-01 -1.457731e-01 -3.462273e-01 8.608382e-02 -3.706447e-01 -2.172246e-02 1.542785e-01 5.954963e-02 1.631945e-01 -2.760336e-02 1.805923e-01 1.545732e-01 1.205478e-01 2.629897e-01
<VARIANCE> 39
 5.755227e+00 1.295384e+01 1.781194e+01 2.891009e+01 2.715323e+01 7.595058e+01 3.977868e+01 7.690956e+01 2.729397e+01 4.311342e+01 3.598075e+01 3.374366e+01 1.034961e+01 2.215066e-01 4.351265e-01 5.185434e-01 7.921802e-01 1.032322e+00 1.766841e+00 1.253975e+00 1.592168e+00 1.221517e+00 1.442028e+00 1.182987e+00 1.281104e+00 2.787212e-01 7.564040e-02 1.881028e-01 2.665917e-01 3.990218e-01 4.273189e-01 3.609689e-01 3.611816e-01 5.313350e-01 2.498433e-01 3.441998e-01 3.307135e-01 3.000795e-01 1.912487e-01
<GCONST> 9.573612e+01
<MIXTURE> 11 6.753218e-02
<MEAN> 39
 1.324190e+00 2.030011e+00 5.931050e+00 -7.521769e-01 -6.408886e+00 -7.291045e+00 -1.048975e+01 -1.003505e+01 -6.831155e+00 -1.883287e+00 -4.033463e+00 -5.680468e+00 6.014684e+01 -4.754823e-01 7.234016e-01 6.362557e-01 5.215851e-01 8.763116e-01 8.589338e-01 4.839239e-01 -1.601159e-01 3.036831e-01 -5.714969e-01 2.906155e-01 4.471938e-01 -1.044717e+00 -2.374560e-01 -4.096246e-01 1.181313e-02 -2.033004e-01 5.686030e-02 6.292629e-02 1.305718e-01 3.519878e-01 5.383448e-02 4.309043e-02 6.656073e-02 1.115849e-01 2.887870e-01
<VARIANCE> 39
 3.045696e+00 8.828826e+00 1.239882e+01 1.647556e+01 2.581074e+01 2.554702e+01 3.528387e+01 5.088700e+01 3.089051e+01 3.499595e+01 2.840387e+01 2.876105e+01 6.220048e+00 3.368221e-01 4.660866e-01 6.622033e-01 8.740401e-01 1.923744e+00 1.747616e+00 1.258089e+00 1.971614e+00 1.824233e+00 1.820888e+00 1.606380e+00 1.863296e+00 2.124100e-01 6.968514e-02 1.536490e-01 2.116383e-01 3.165216e-01 3.975845e-01 2.997433e-01 3.022240e-01 4.643238e-01 3.578818e-01 3.652449e-01 3.779853e-01 3.520676e-01 1.763686e-01
<GCONST> 9.314417e+01
<MIXTURE> 12 8.012269e-02
<MEAN> 39
 -2.527066e-02 -4.213246e-01 5.403347e+00 -1.778006e+00 -2.692299e+00 -3.100515e+00 -6.645121e+00 -7.555675e+00 -6.030823e+00 -3.075106e+00 -2.864624e+00 -3.301666e+00 5.995734e+01 -8.546129e-01 1.647911e+00 1.035402e+00 1.800957e+00 1.594930e+00 1.531837e+00 1.291948e+00 -2.543505e-01 -7.370647e-02 -9.523039e-01 -1.471213e-01 -1.067613e-01 -2.151611e+00 -2.425307e-01 -6.231273e-01 -4.024883e-02 -7.985327e-01 -6.851134e-01 -4.112598e-01 -3.163381e-03 4.895220e-01 1.008032e-01 1.278943e-01 -1.261535e-01 2.949712e-02 8.731876e-01
<VARIANCE> 39
 6.696939e+00 1.470411e+01 2.045382e+01 2.771695e+01 2.009145e+01 2.697740e+01 3.251047e+01 3.549462e+01 3.663037e+01 2.925318e+01 3.275776e+01 2.095591e+01 9.947871e+00 1.039664e+00 1.781925e+00 2.878115e+00 4.366190e+00 3.032091e+00 3.161854e+00 3.716310e+00 4.019989e+00 4.087013e+00 3.024640e+00 3.453957e+00 3.659112e+00 1.212756e+00 1.448481e-01 2.374250e-01 5.277889e-01 5.687540e-01 4.894980e-01 4.475439e-01 6.256086e-01 5.074070e-01 6.529571e-01 5.144860e-01 4.369041e-01 4.460375e-01 2.031381e-01
<GCONST> 1.135562e+02
<MIXTURE> 13 6.787551e-02
<MEAN> 39
 -2.591305e+00 2.128125e+00 8.632998e+00 1.649808e+00 -2.905224e-01 -6.456780e-01 -3.352481e+00 -6.470680e+00 -5.932160e+00 -4.057568e+00 -3.272910e+00 -3.160145e+00 5.656621e+01 -1.100249e-01 2.651093e-01 3.039542e-01 2.715256e-01 1.895309e-01 2.711269e-01 2.485023e-01 -5.484010e-02 1.255733e-01 -3.977157e-01 -3.861158e-01 -2.874442e-01 -2.940619e-01 3.780762e-02 -1.622660e-01 -1.712458e-01 -2.701398e-01 -1.890032e-01 -1.647291e-01 -8.667793e-02 6.632400e-02 7.065509e-02 6.731193e-02 7.226930e-03 5.877537e-02 2.349301e-01
<VARIANCE> 39
 7.295785e+00 7.328149e+00 1.063629e+01 1.213363e+01 1.591732e+01 2.001329e+01 1.823114e+01 1.837492e+01 2.320867e+01 2.525618e+01 2.970196e+01 1.884876e+01 1.065231e+01 3.701514e-01 4.404227e-01 5.226328e-01 7.820538e-01 1.036253e+00 1.291152e+00 1.234977e+00 1.490102e+00 1.261324e+00 1.434928e+00 1.525977e+00 1.074273e+00 2.653352e-01 7.634638e-02 9.643357e-02 1.155054e-01 1.752367e-01 2.076275e-01 2.337492e-01 2.482277e-01 2.364286e-01 2.525958e-01 3.023738e-01 2.636438e-01 2.078239e-01 7.314049e-02
<GCONST> 8.235061e+01
<MIXTURE> 14 4.558330e-02
<MEAN> 39
 -1.949047e-01 1.057136e+00 7.799703e+00 4.077236e+00 -4.062958e-01 -2.634804e+00 -5.119806e+00 -8.684155e+00 -1.019201e+01 -1.246432e-01 5.916922e-01 -5.884761e+00 5.851057e+01 -1.725056e-01 6.961758e-01 4.597881e-01 -1.456168e-01 1.753376e-01 1.009762e+00 4.939333e-01 1.618745e-01 8.143492e-01 -5.446713e-01 -5.614926e-01 -2.791662e-02 -7.706022e-01 -1.471111e-01 -1.236846e-01 -8.565475e-02 -1.879358e-01 3.739568e-02 1.403203e-02 1.152486e-01 2.083428e-01 3.353299e-01 -9.383521e-02 -1.524104e-01 1.862972e-01 5.776070e-02
<VARIANCE> 39
 5.906229e+00 8.140735e+00 1.086153e+01 2.486978e+01 1.288196e+01 2.204445e+01 3.251386e+01 2.375567e+01 4.794825e+01 2.834318e+01 2.831960e+01 2.195414e+01 1.154318e+01 2.943785e-01 6.142994e-01 5.711975e-01 1.139044e+00 1.146043e+00 1.624478e+00 1.613228e+00 1.674137e+00 2.349264e+00 1.489216e+00 1.759353e+00 1.724330e+00 4.167514e-01 6.228481e-02 1.224531e-01 1.151406e-01 1.916716e-01 2.231198e-01 3.129451e-01 2.763568e-01 2.587293e-01 4.084292e-01 2.409016e-01 2.968628e-01 2.737960e-01 8.292332e-02
<GCONST> 8.919443e+01
<MIXTURE> 15 4.728274e-02
<MEAN> 39
 -9.156588e+00 -2.306789e+00 5.685711e+00 1.488094e+00 1.726252e+00 3.029369e+00 6.439852e-01 -1.217932e+00 4.498765e-01 1.204536e-01 1.115275e+00 8.932226e-01 5.331098e+01 1.642470e+00 1.084021e+00 6.660329e-01 2.856890e-01 -6.984646e-01 -1.008158e+00 -1.354041e+00 -1.734989e+00 -1.732552e+00 -1.284209e+00 -1.405251e+00 -1.510624e+00 4.655274e-01 3.757265e-01 2.000268e-01 2.763120e-02 -2.918724e-01 -4.052635e-01 -5.417961e-01 -4.922651e-01 -3.570682e-01 -3.685891e-01 -2.036825e-01 -2.962343e-01 -3.030130e-01 6.006320e-01
<VARIANCE> 39
 8.646784e+00 1.183401e+01 9.466621e+00 1.223026e+01 1.293001e+01 1.914868e+01 3.039345e+01 2.364988e+01 2.108399e+01 2.130366e+01 1.882119e+01 2.002213e+01 1.603373e+01 1.163812e+00 1.444041e+00 1.148142e+00 1.159523e+00 1.472725e+00 2.482427e+00 3.292638e+00 2.769166e+00 2.311643e+00 2.693699e+00 2.412604e+00 2.560743e+00 1.749775e+00 3.280410e-01 2.491895e-01 2.902920e-01 4.653931e-01 3.912524e-01 3.923316e-01 5.615130e-01 6.120341e-01 4.761489e-01 4.987696e-01 4.555990e-01 5.337797e-01 2.579139e-01
<GCONST> 1.048269e+02
<MIXTURE> 16 2.627537e-02
<MEAN> 39
 -3.735591e+00 1.826717e+00 7.406970e+00 8.211313e-01 -2.522873e+00 -3.988319e+00 -6.628213e+00 -8.551438e+00 -6.119260e+00 -4.255965e+00 -4.496655e+00 -3.488692e+00 5.708183e+01 2.316020e+00 1.064457e+00 5.209510e-01 -4.652475e-02 -1.610996e+00 -1.982875e+00 -2.401674e+00 -2.505232e+00 -2.016495e+00 -1.038264e+00 -1.878439e+00 -2.018510e+00 1.378303e+00 -2.842719e-01 -4.856039e-01 -3.378161e-01 -2.488102e-01 1.195363e-01 4.364493e-01 4.433400e-01 6.042517e-01 4.638194e-01 3.560930e-01 3.803154e-01 2.725016e-01 5.675111e-02
<VARIANCE> 39
 1.514477e+01 1.453003e+01 1.691598e+01 2.190558e+01 2.128963e+01 6.396603e+01 4.274797e+01 4.952146e+01 2.553780e+01 2.882596e+01 3.196733e+01 2.569639e+01 1.764896e+01 1.610777e+00 2.615650e+00 1.771959e+00 3.105404e+00 2.392879e+00 4.564288e+00 4.691410e+00 7.467247e+00 3.581316e+00 3.409045e+00 4.119040e+00 3.922708e+00 1.185864e+00 2.803170e-01 2.957164e-01 2.751393e-01 5.169990e-01 4.962618e-01 9.056558e-01 6.699240e-01 9.068737e-01 4.108692e-01 5.812894e-01 5.203444e-01 6.220971e-01 2.833153e-01
<GCONST> 1.190295e+02
<STATE> 3
<NUMMIXES> 16
<MIXTURE> 1 4.602721e-02
<MEAN> 39
 -2.509312e+00 3.430743e+00 1.051138e+01 4.634795e+00 2.703162e+00 2.915389e+00 -8.111053e-01 -4.457036e+00 -3.205446e+00 -1.687231e+00 -5.437038e-01 -2.771840e+00 5.469297e+01 -9.594733e-01 1.907404e-01 7.409548e-01 8.210979e-01 1.149281e+00 9.856157e-01 1.079513e+00 8.433363e-01 8.718448e-01 -1.624725e-01 -3.397423e-01 3.296605e-01 -9.945366e-01 6.370040e-02 -6.464154e-01 -5.472810e-01 -7.970746e-01 -6.875912e-01 -7.287805e-01 -3.899305e-01 2.079936e-01 -1.288456e-01 1.639016e-01 2.720536e-01 3.071244e-02 9.806429e-01
<VARIANCE> 39
 7.606095e+00 4.851069e+00 8.518917e+00 1.579126e+01 1.237039e+01 1.690862e+01 1.398061e+01 1.954188e+01 2.407828e+01 1.499736e+01 1.606865e+01 2.143824e+01 4.785429e+00 8.065034e-01 1.062423e+00 1.020582e+00 2.306965e+00 1.720812e+00 1.949026e+00 2.170523e+00 2.464360e+00 2.537552e+00 1.761769e+00 2.053242e+00 1.602559e+00 7.030069e-01 2.188115e-01 1.628672e-01 3.838583e-01 5.253159e-01 3.891994e-01 5.793149e-01 2.618937e-01 3.229666e-01 4.495040e-01 3.726537e-01 3.640836e-01 4.029081e-01 1.681612e-01
<GCONST> 9.597809e+01
<MIXTURE> 2 6.380711e-02
<MEAN> 39
 2.095249e+00 1.881152e-01 2.883436e+00 -5.890211e+00 -4.794628e+00 7.897110e-01 -1.952091e+00 -7.576844e+00 -1.036224e+01 -3.749263e+00 1.847314e+00 -1.368159e+00 6.166262e+01 6.312640e-02 -4.333029e-01 -7.038525e-01 -1.486159e+00 -8.773523e-02 -4.193037e-01 -5.152863e-01 7.183203e-01 1.571974e+00 9.400834e-01 3.366261e-01 4.159814e-01 6.212071e-01 3.194494e-02 -8.863624e-01 -4.752357e-01 -8.241694e-01 -2.816713e-01 -3.561360e-01 -5.763675e-01 4.423319e-01 7.387183e-01 6.053612e-01 3.707005e-03 -3.876108e-01 9.895459e-01
<VARIANCE> 39
 5.349226e+00 1.768674e+01 1.807488e+01 7.001694e+01 2.694702e+01 3.086575e+01 2.758706e+01 2.835331e+01 4.147665e+01 3.029741e+01 3.653919e+01 3.190836e+01 1.093862e+01 5.486601e-01 1.572938e+00 1.440309e+00 4.384854e+00 2.719218e+00 2.502177e+00 3.317595e+00 2.639179e+00 4.161167e+00 3.195356e+00 3.263738e+00 2.816342e+00 1.125575e+00 1.207296e-01 1.986417e-01 3.526614e-01 7.962056e-01 5.792684e-01 4.709168e-01 3.926732e-01 6.292082e-01 8.032959e-01 5.111064e-01 8.406327e-01 5.656816e-01 2.158442e-01
<GCONST> 1.131881e+02
<MIXTURE> 3 6.232965e-02
<MEAN> 39
 1.885968e+00 -4.419447e+00 3.556746e+00 -5.004376e+00 -4.317924e+00 -9.171289e+00 -9.894352e+00 -4.235320e+00 -3.125404e+00 1.527412e+00 -3.404158e-01 -3.634801e+00 6.488474e+01 -2.128876e-01 -2.438199e-01 7.191123e-01 -9.503710e-02 -6.647215e-01 -5.670913e-01 2.232806e-01 7.495403e-01 -1.553205e-01 -3.354431e-01 6.757668e-02 3.694701e-01 2.567567e-01 -2.621694e-01 -5.205528e-01 1.832771e-01 -6.825185e-01 -7.141720e-01 -2.352078e-01 4.737638e-01 5.862737e-01 -1.721287e-01 -9.029201e-02 -7.780914e-02 8.578777e-02 7.681978e-01
<VARIANCE> 39
 7.266075e+00 3.051579e+01 3.619710e+01 4.217603e+01 2.464735e+01 4.493968e+01 3.409098e+01 4.511367e+01 2.807286e+01 3.086255e+01 4.405848e+01 2.119723e+01 2.053360e+01 6.869376e-01 8.234752e-01 2.286975e+00 1.771443e+00 1.505712e+00 2.551393e+00 1.805218e+00 2.215003e+00 2.296804e+00 1.956548e+00 1.541503e+00 1.476716e+00 5.637846e-01 1.508902e-01 2.883780e-01 4.185713e-01 5.762398e-01 4.799607e-01 6.299276e-01 4.523649e-01 6.966320e-01 5.578656e-01 3.707668e-01 5.306903e-01 3.845027e-01 1.710042e-01
<GCONST> 1.088578e+02
<MIXTURE> 4 7.247749e-02
<MEAN> 39
 -2.131171e+00 3.595126e+00 1.038124e+01 3.002056e+00 8.976697e-01 2.439474e-01 -2.861204e+00 -6.391223e+00 -4.470660e+00 -4.258275e+00 -3.876407e+00 -5.016921e+00 5.605682e+01 -5.889035e-01 -6.645617e-01 -1.515576e-01 -3.969944e-01 -2.065937e-01 -5.209613e-01 -3.499472e-02 6.828964e-01 5.678449e-01 3.419380e-01 5.762107e-01 4.391865e-01 7.795300e-01 1.691215e-01 -9.710573e-01 -5.216193e-01 -1.147568e+00 -1.040978e+00 -9.744819e-01 -4.028426e-01 5.848895e-01 -2.953365e-01 4.967532e-01 3.961667e-01 3.437471e-01 1.342958e+00
<VARIANCE> 39
 6.984977e+00 5.558589e+00 9.402866e+00 1.208404e+01 1.519545e+01 1.940010e+01 2.128178e+01 2.198134e+01 2.091958e+01 2.082416e+01 2.013086e+01 1.422527e+01 6.121233e+00 1.658124e+00 1.195119e+00 1.742708e+00 2.118060e+00 2.216455e+00 3.206692e+00 2.970764e+00 2.940586e+00 2.528677e+00 2.074693e+00 2.033521e+00 2.083948e+00 1.574449e+00 2.182847e-01 2.596279e-01 9.015550e-01 9.836481e-01 6.651524e-01 1.031735e+00 5.625763e-01 7.953127e-01 8.479996e-01 7.123669e-01 4.694103e-01 4.151890e-01 2.251248e-01
<GCONST> 1.073215e+02
<MIXTURE> 5 8.746540e-02
<MEAN> 39
 -1.764154e+00 2.439151e+00 8.272149e+00 1.551266e+00 -1.384344e+00 -3.291660e+00 -5.979854e+00 -5.793537e+00 -3.632422e+00 -3.679594e+00 -3.466696e+00 -4.136543e+00 5.722376e+01 -8.107392e-01 -7.100752e-01 9.245614e-01 -3.861925e-01 -6.255419e-01 -2.288683e-01 5.576988e-01 6.125520e-01 -2.231106e-01 5.697088e-02 6.307717e-01 5.484191e-01 7.127393e-01 1.353025e-02 -8.249449e-01 1.882755e-01 -1.343383e+00 -1.179618e+00 -5.402415e-01 -1.651225e-01 1.299548e-01 -2.898076e-01 4.560349e-01 -6.968400e-02 2.550679e-01 1.222335e+00
<VARIANCE> 39
 7.358585e+00 8.461277e+00 7.901114e+00 9.260089e+00 1.486800e+01 1.726609e+01 2.048635e+01 2.322375e+01 1.861054e+01 1.894505e+01 1.821457e+01 1.572559e+01 7.243545e+00 1.437606e+00 1.398937e+00 2.472095e+00 2.366499e+00 2.956347e+00 2.829175e+00 2.672126e+00 2.819811e+00 2.254672e+00 2.099412e+00 1.554606e+00 1.842394e+00 1.387938e+00 2.552974e-01 3.239497e-01 1.027215e+00 7.336183e-01 5.888835e-01 5.370855e-01 6.388931e-01 6.477767e-01 5.965150e-01 5.423441e-01 5.164883e-01 4.767316e-01 2.384990e-01
<GCONST> 1.060883e+02
<MIXTURE> 6 6.119270e-02
<MEAN> 39
 -3.218452e+00 2.540745e+00 8.846105e+00 2.642094e+00 1.642818e+00 1.948797e+00 -1.094029e+00 -4.673470e+00 -3.450850e+00 -2.554027e+00 -1.125092e+00 -1.841277e+00 5.499781e+01 -2.670761e-01 1.300862e-01 1.956616e-01 -2.781380e-03 9.949867e-02 1.706727e-01 2.177325e-01 1.744289e-01 2.524144e-01 -1.779235e-01 -1.924299e-01 -3.711048e-02 -5.445359e-02 1.714776e-01 -6.594048e-01 -4.795098e-01 -7.995955e-01 -6.824003e-01 -7.721054e-01 -5.359774e-01 1.963926e-01 -1.801771e-03 2.987622e-01 1.718813e-01 8.338591e-04 1.055146e+00
<VARIANCE> 39
 1.470803e+01 7.883368e+00 1.271460e+01 1.647811e+01 1.153070e+01 1.507799e+01 1.698860e+01 2.489070e+01 2.488986e+01 2.074580e+01 1.922752e+01 1.971107e+01 8.430167e+00 6.855184e-01 6.380546e-01 6.945667e-01 9.376046e-01 1.004777e+00 1.445761e+00 1.537930e+00 1.459298e+00 1.617409e+00 1.409354e+00 1.274766e+00 1.284129e+00 6.699944e-01 2.240985e-01 2.032486e-01 4.905570e-01 5.197365e-01 3.017041e-01 5.479088e-01 3.925457e-01 5.438319e-01 5.220851e-01 5.097956e-01 3.943240e-01 3.695686e-01 2.084060e-01
<GCONST> 9.552112e+01
<MIXTURE> 7 5.077431e-02
<MEAN> 39
 5.964134e-01 -2.698039e+00 4.008321e+00 -2.156072e+00 -1.491519e+00 -8.011936e+00 -1.154470e+01 -1.167768e+01 -3.915687e+00 3.158982e+00 -3.528338e+00 -5.942771e+00 6.266065e+01 -1.338014e-01 -7.240881e-01 -2.077302e-01 -1.296191e+00 -5.871636e-01 -1.716858e-01 8.219618e-01 1.947065e+00 6.738524e-01 -1.549844e-01 -1.589328e-01 2.755945e-04 7.099249e-01 -2.257616e-01 -1.055723e+00 -2.228696e-01 -1.304403e+00 -7.827058e-01 -3.881575e-01 8.687299e-01 1.203031e+00 1.791123e-01 -3.696879e-01 -3.148379e-01 5.137535e-01 1.161464e+00
<VARIANCE> 39
 5.647675e+00 1.993629e+01 2.474778e+01 3.608846e+01 2.421606e+01 4.224696e+01 2.146623e+01 5.874368e+01 2.432145e+01 3.143826e+01 3.542173e+01 2.157420e+01 1.198599e+01 6.117865e-01 1.357605e+00 2.162402e+00 3.327460e+00 2.083853e+00 3.948786e+00 2.324518e+00 4.656199e+00 2.537999e+00 3.219940e+00 2.318100e+00 2.315828e+00 1.139602e+00 1.370338e-01 3.531341e-01 6.690864e-01 7.234771e-01 7.281543e-01 6.578155e-01 4.862888e-01 8.142827e-01 7.479497e-01 6.421355e-01 7.467329e-01 4.693376e-01 2.073807e-01
<GCONST> 1.144454e+02
<MIXTURE> 8 5.445268e-02
<MEAN> 39
 9.031528e-01 4.851554e-01 3.701668e+00 -2.019732e+00 -3.127053e+00 -1.229574e+00 -4.817564e+00 -1.009266e+01 -1.084656e+01 -3.304213e+00 7.937659e-01 -3.088948e+00 6.164637e+01 -1.827111e-01 -7.943739e-01 -5.699675e-01 -1.543850e+00 -1.282877e-01 -2.256029e-01 -4.676184e-01 1.499324e+00 2.033385e+00 7.311140e-01 -2.001679e-02 3.219262e-01 7.492191e-01 -2.302732e-02 -9.344509e-01 -3.264334e-01 -8.302370e-01 -6.522696e-01 -4.579233e-01 -3.285891e-01 4.890273e-01 7.701523e-01 4.320245e-01 -1.883160e-01 -1.114490e-01 1.065486e+00
<VARIANCE> 39
 8.126291e+00 2.090298e+01 2.132521e+01 5.692558e+01 3.073572e+01 2.958751e+01 3.978364e+01 5.751937e+01 2.968271e+01 4.492553e+01 4.230800e+01 3.924498e+01 9.203586e+00 1.412632e+00 1.943220e+00 2.561645e+00 5.870671e+00 3.024509e+00 2.589580e+00 5.446632e+00 5.908577e+00 4.381303e+00 3.604098e+00 3.074434e+00 3.720461e+00 1.366180e+00 1.939009e-01 2.721718e-01 7.226865e-01 1.001255e+00 8.820757e-01 6.410882e-01 5.095276e-01 9.763736e-01 6.357856e-01 6.392553e-01 7.800678e-01 8.111336e-01 2.613367e-01
<GCONST> 1.228171e+02
<MIXTURE> 9 8.202014e-02
<MEAN> 39
 -2.162127e+00 1.634618e+00 7.655066e+00 6.794922e-01 -2.143414e+00 -3.691332e+00 -6.693357e+00 -6.454461e+00 -4.402780e+00 -4.667347e+00 -4.288656e+00 -4.755604e+00 5.741617e+01 -7.473020e-01 -7.986849e-01 1.132996e+00 -5.570505e-01 -9.524027e-01 -3.727426e-01 3.101257e-01 4.075505e-01 -5.567001e-01 3.177101e-02 3.533458e-01 4.360680e-01 9.196725e-01 -5.653644e-03 -7.866251e-01 3.044558e-01 -1.484508e+00 -1.311332e+00 -5.822349e-01 -1.864535e-01 5.493893e-02 -2.864456e-01 5.407130e-01 -2.058007e-01 2.290062e-01 1.262100e+00
<VARIANCE> 39
 7.915294e+00 9.345730e+00 8.258859e+00 1.042562e+01 1.455474e+01 1.693820e+01 1.966574e+01 1.958328e+01 1.905906e+01 1.929082e+01 1.934050e+01 1.584653e+01 8.027579e+00 1.385848e+00 1.301217e+00 2.507944e+00 2.269741e+00 3.046448e+00 2.827079e+00 2.422504e+00 2.662339e+00 2.075992e+00 1.866403e+00 1.685771e+00 1.962294e+00 1.373039e+00 2.497154e-01 3.239465e-01 1.044446e+00 6.406575e-01 6.832671e-01 5.342607e-01 6.799450e-01 6.333488e-01 6.447350e-01 5.219373e-01 5.318035e-01 5.033642e-01 2.214804e-01
<GCONST> 1.061455e+02
<MIXTURE> 10 7.537743e-02
<MEAN> 39
 -2.428213e+00 2.868735e+00 9.607818e+00 2.285663e+00 -1.015752e-01 -8.243247e-01 -4.211041e+00 -7.208362e+00 -5.193761e+00 -4.968388e+00 -4.777131e+00 -5.502244e+00 5.603531e+01 -4.838119e-01 -7.076192e-01 -1.391906e-01 -5.017991e-01 -4.028587e-01 -6.505092e-01 -1.607499e-01 6.417270e-01 2.759487e-01 7.320219e-02 3.279482e-01 3.037163e-01 9.483328e-01 1.554170e-01 -9.835845e-01 -4.420250e-01 -1.298249e+00 -1.153640e+00 -8.846846e-01 -3.929381e-01 4.872250e-01 -1.597473e-01 4.842067e-01 2.219837e-01 3.538017e-01 1.384038e+00
<VARIANCE> 39
 6.684184e+00 6.009467e+00 9.551237e+00 1.065717e+01 1.413636e+01 1.748982e+01 2.260281e+01 2.050804e+01 2.173375e+01 2.365787e+01 2.185346e+01 1.479909e+01 5.668922e+00 1.598648e+00 1.157617e+00 1.777002e+00 2.099145e+00 2.298284e+00 3.080146e+00 2.996202e+00 3.137337e+00 2.341189e+00 1.877146e+00 1.770141e+00 2.137483e+00 1.482300e+00 2.247615e-01 3.479501e-01 1.032578e+00 8.951610e-01 6.440274e-01 9.107606e-01 5.851765e-01 7.633387e-01 8.705170e-01 6.382257e-01 4.916728e-01 4.346655e-01 2.255407e-01
<GCONST> 1.071469e+02
<MIXTURE> 11 6.460195e-02
<MEAN> 39
 1.642871e+00 -1.859578e-01 1.862421e+00 -6.127244e+00 -4.726384e+00 3.443703e-01 -3.147892e+00 -8.164936e+00 -1.100399e+01 -3.973185e+00 5.910754e-01 -1.840608e+00 6.144302e+01 5.505702e-03 -4.479064e-01 -7.446448e-01 -1.470851e+00 -1.086035e-01 -4.158217e-01 -4.564144e-01 7.229997e-01 1.567391e+00 8.616332e-01 7.620948e-02 1.276143e-01 6.064020e-01 4.180100e-02 -9.071877e-01 -5.006911e-01 -8.806766e-01 -3.645665e-01 -4.306521e-01 -6.156971e-01 4.529150e-01 7.561476e-01 5.346163e-01 -1.510296e-01 -4.058299e-01 1.045486e+00
<VARIANCE> 39
 5.607723e+00 1.590169e+01 2.005739e+01 7.005856e+01 2.804911e+01 2.703800e+01 3.078373e+01 2.998223e+01 3.614597e+01 3.232010e+01 3.922633e+01 2.847935e+01 1.024888e+01 5.209095e-01 1.706248e+00 1.419632e+00 4.438782e+00 2.865067e+00 2.527489e+00 3.479136e+00 2.826386e+00 4.353074e+00 3.203172e+00 3.019622e+00 2.502670e+00 1.131188e+00 1.100206e-01 2.253496e-01 4.090786e-01 7.989815e-01 6.091752e-01 5.311977e-01 4.138431e-01 7.081342e-01 7.953238e-01 4.982839e-01 7.266519e-01 5.837805e-01 2.203391e-01
<GCONST> 1.135859e+02
<MIXTURE> 12 6.591240e-02
<MEAN> 39
 1.126407e+00 -4.950804e+00 3.312977e+00 -5.659081e+00 -5.316077e+00 -9.544516e+00 -1.060768e+01 -4.546806e+00 -4.202083e+00 1.191936e+00 -1.664804e+00 -4.433149e+00 6.541790e+01 -3.266040e-01 -2.064258e-01 8.745074e-01 -1.331720e-01 -7.675118e-01 -5.372455e-01 1.945363e-01 6.193637e-01 -4.040492e-01 -3.574631e-01 -7.912440e-02 2.124394e-01 2.982799e-01 -2.958915e-01 -4.876470e-01 1.820318e-01 -7.469201e-01 -7.675421e-01 -1.974142e-01 4.749864e-01 5.170279e-01 -1.778603e-01 -1.196734e-01 -1.300587e-01 8.402891e-02 7.904317e-01
<VARIANCE> 39
 8.205996e+00 2.798080e+01 3.817733e+01 4.566571e+01 2.562687e+01 4.458947e+01 3.646856e+01 4.331321e+01 2.728507e+01 3.258553e+01 4.486897e+01 2.290902e+01 1.877255e+01 5.314134e-01 7.713948e-01 2.374518e+00 1.936631e+00 1.520094e+00 2.588730e+00 1.752158e+00 2.288695e+00 2.256324e+00 1.876529e+00 1.586360e+00 1.572136e+00 5.481665e-01 1.307623e-01 2.581995e-01 4.091563e-01 6.261165e-01 5.108362e-01 6.122648e-01 4.182910e-01 6.789969e-01 5.135550e-01 4.186074e-01 5.326332e-01 3.790357e-01 1.677613e-01
<GCONST> 1.086960e+02
<MIXTURE> 13 6.001269e-02
<MEAN> 39
 -3.433652e+00 1.821571e+00 7.988832e+00 1.317551e+00 4.112164e-01 8.651810e-01 -1.827618e+00 -5.301614e+00 -4.149723e+00 -2.893700e+00 -2.306092e+00 -2.870291e+00 5.520997e+01 -2.326533e-01 1.293924e-02 6.438634e-02 -1.562482e-01 -5.919845e-02 6.131433e-02 1.397644e-02 8.304665e-02 1.528852e-01 -4.009406e-01 -3.465575e-01 -1.917329e-01 1.108018e-01 2.317735e-01 -6.898060e-01 -4.459356e-01 -9.527436e-01 -7.526603e-01 -8.230476e-01 -6.260079e-01 1.629100e-01 3.003856e-02 2.482430e-01 6.061406e-02 8.181357e-02 1.174432e+00
<VARIANCE> 39
 1.492297e+01 7.718943e+00 1.439225e+01 1.623035e+01 1.207504e+01 1.326284e+01 1.855491e+01 2.437823e+01 2.491176e+01 2.241649e+01 1.993308e+01 1.932019e+01 8.481701e+00 7.403620e-01 6.045525e-01 7.732433e-01 1.062113e+00 1.089320e+00 1.554483e+00 1.537326e+00 1.551373e+00 1.615113e+00 1.579556e+00 1.459989e+00 1.213064e+00 7.507131e-01 2.233954e-01 2.062476e-01 5.388196e-01 5.702070e-01 3.563160e-01 5.490207e-01 4.723128e-01 5.440545e-01 5.750273e-01 5.108408e-01 5.117120e-01 3.368354e-01 2.066162e-01
<GCONST> 9.729289e+01
<MIXTURE> 14 5.450507e-02
<MEAN> 39
 5.754222e-01 -2.886308e-01 3.057291e+00 -2.261511e+00 -3.189351e+00 -1.931578e+00 -6.248684e+00 -1.108216e+01 -1.140445e+01 -3.260024e+00 -7.831936e-01 -4.186813e+00 6.153208e+01 -2.977031e-01 -9.655601e-01 -5.179043e-01 -1.569806e+00 -2.804241e-01 -2.955073e-01 -3.199151e-01 1.618676e+00 2.123255e+00 5.616636e-01 -4.613852e-01 1.350876e-02 9.150457e-01 -6.721351e-02 -9.895392e-01 -3.286405e-01 -8.454304e-01 -7.749234e-01 -4.765755e-01 -3.626229e-01 5.707116e-01 7.358499e-01 3.176451e-01 -3.510122e-01 -2.328210e-02 1.140147e+00
<VARIANCE> 39
 7.023588e+00 1.857297e+01 2.210263e+01 5.095914e+01 2.996746e+01 3.092461e+01 4.094835e+01 6.258927e+01 2.901939e+01 5.264818e+01 4.244708e+01 4.616150e+01 8.042295e+00 1.205049e+00 1.887494e+00 2.937557e+00 5.873181e+00 2.919642e+00 2.628578e+00 5.831999e+00 6.871244e+00 4.093528e+00 3.699167e+00 2.652112e+00 3.511870e+00 1.332215e+00 1.876782e-01 2.950823e-01 8.322617e-01 9.936210e-01 9.219018e-01 6.762725e-01 5.161740e-01 1.010788e+00 6.395751e-01 5.926341e-01 7.073298e-01 9.292557e-01 2.627511e-01
<GCONST> 1.229535e+02
<MIXTURE> 15 4.734147e-02
<MEAN> 39
 2.971565e-01 -3.957436e+00 2.513432e+00 -3.766539e+00 -2.692319e+00 -7.648958e+00 -1.175983e+01 -1.138083e+01 -4.166488e+00 2.545197e+00 -4.291851e+00 -6.841145e+00 6.352475e+01 -1.409021e-01 -9.836493e-01 -1.905079e-01 -1.534267e+00 -8.312386e-01 -3.852802e-01 5.147129e-01 1.905602e+00 4.533686e-01 -4.314379e-02 -4.901418e-01 -2.302844e-01 1.022841e+00 -2.632732e-01 -1.014873e+00 -1.729455e-01 -1.360620e+00 -7.921452e-01 -3.190120e-01 8.160718e-01 1.098211e+00 1.278999e-01 -4.755711e-01 -3.996490e-01 4.526178e-01 1.212832e+00
<VARIANCE> 39
 6.708421e+00 1.825270e+01 2.348077e+01 3.964098e+01 2.771360e+01 4.775089e+01 2.263800e+01 6.187875e+01 2.564569e+01 2.971230e+01 2.937780e+01 2.036500e+01 1.188629e+01 5.442544e-01 1.273076e+00 2.653554e+00 3.523255e+00 2.148819e+00 3.998613e+00 2.087344e+00 5.146854e+00 2.306353e+00 2.742928e+00 2.312397e+00 2.136708e+00 1.170258e+00 1.145779e-01 3.423707e-01 6.848126e-01 6.441851e-01 7.683231e-01 5.829313e-01 5.051091e-01 7.279700e-01 6.334531e-01 6.232232e-01 6.781538e-01 5.111431e-01 1.894329e-01
<GCONST> 1.137390e+02
<MIXTURE> 16 5.170067e-02
<MEAN> 39
 -2.675726e+00 2.813386e+00 9.777114e+00 3.269551e+00 1.530747e+00 1.181481e+00 -2.435464e+00 -5.674582e+00 -3.833349e+00 -2.569418e+00 -1.876672e+00 -3.393722e+00 5.460690e+01 -9.639426e-01 1.148409e-01 5.398075e-01 6.049315e-01 8.215464e-01 7.828906e-01 9.623039e-01 7.058874e-01 4.001552e-01 -5.381877e-01 -4.451225e-01 7.953878e-02 -7.078127e-01 8.981715e-02 -6.896208e-01 -4.177588e-01 -7.713104e-01 -8.098381e-01 -8.454454e-01 -4.893558e-01 1.251460e-01 -1.565278e-01 2.147544e-01 1.906026e-01 3.525902e-02 1.093930e+00
<VARIANCE> 39
 6.603097e+00 4.831393e+00 8.335887e+00 1.314627e+01 1.201129e+01 1.682724e+01 1.487754e+01 1.768404e+01 2.036192e+01 1.686503e+01 1.532175e+01 1.889411e+01 5.549949e+00 7.572768e-01 9.773399e-01 9.213583e-01 1.601218e+00 1.500770e+00 1.759449e+00 2.014437e+00 2.210160e+00 2.493952e+00 2.111552e+00 2.206837e+00 1.778079e+00 7.146751e-01 1.881741e-01 1.826521e-01 4.798930e-01 5.482053e-01 4.133945e-01 5.122670e-01 3.084069e-01 3.201796e-01 4.756691e-01 3.619145e-01 3.625932e-01 3.813976e-01 1.801929e-01
<GCONST> 9.515869e+01
<STATE> 4
<NUMMIXES> 16
<MIXTURE> 1 3.686069e-02
<MEAN> 39
 -5.999764e+00 1.536762e+00 7.782882e+00 2.795483e+00 2.777295e+00 4.827657e+00 2.496704e+00 -1.208442e+00 -1.409028e+00 -1.853627e+00 -4.996099e-01 -5.258095e-01 5.437507e+01 3.223739e-01 -1.453520e+00 -1.889800e+00 -2.857839e+00 -1.145974e+00 -1.086946e+00 -4.553810e-01 9.552124e-01 5.834281e-01 8.435032e-01 5.383992e-01 8.296727e-02 2.528428e+00 7.704687e-01 -6.403561e-01 -7.755340e-01 -1.462385e+00 -9.332305e-01 -4.748861e-01 -6.843135e-01 -2.104442e-01 -2.809193e-01 1.793497e-01 2.701278e-01 -3.494494e-01 1.350562e+00
<VARIANCE> 39
 2.270132e+01 1.235337e+01 1.490226e+01 2.092169e+01 1.849158e+01 1.376061e+01 1.489758e+01 2.740402e+01 2.863929e+01 2.114771e+01 1.919850e+01 1.778594e+01 1.209549e+01 2.243124e+00 1.198266e+00 2.214088e+00 4.433268e+00 2.651967e+00 2.592002e+00 3.024677e+00 3.223896e+00 3.783772e+00 2.649977e+00 2.830380e+00 2.614580e+00 2.226020e+00 4.060619e-01 4.883553e-01 7.107934e-01 1.102782e+00 5.933789e-01 7.135876e-01 4.300551e-01 7.372043e-01 7.268488e-01 6.446135e-01 1.053312e+00 6.821233e-01 3.185581e-01
<GCONST> 1.158218e+02
<MIXTURE> 2 8.208695e-02
<MEAN> 39
 1.054550e+00 -5.094522e+00 -4.756421e-01 -9.573586e+00 -4.563672e+00 -6.449944e+00 -6.652039e+00 -3.100071e+00 -2.851968e+00 2.522594e+00 3.710515e+00 -1.717702e+00 6.804720e+01 9.497752e-01 -2.789851e+00 -1.949100e+00 -2.841976e+00 -1.820011e+00 -1.708813e+00 -1.045157e+00 1.781705e+00 1.241958e+00 1.506667e+00 7.146860e-01 -8.113430e-01 3.197221e+00 -1.916779e-01 4.685207e-02 4.878950e-01 6.625059e-01 1.104798e-01 4.667709e-01 3.402461e-01 1.165377e-01 -1.729747e-01 -4.184123e-01 -5.214396e-01 -3.498588e-01 -3.304951e-01
<VARIANCE> 39
 1.503404e+01 1.615281e+01 2.963953e+01 5.089981e+01 2.816232e+01 6.688282e+01 3.371984e+01 3.429452e+01 3.266117e+01 3.810424e+01 3.657215e+01 2.148476e+01 1.552672e+01 1.594700e+00 2.432009e+00 4.911849e+00 8.816096e+00 5.164090e+00 7.711001e+00 4.996021e+00 5.259577e+00 6.576534e+00 5.427779e+00 4.304041e+00 4.842087e+00 2.233756e+00 2.310871e-01 3.074481e-01 3.420954e-01 6.734403e-01 5.666897e-01 6.115956e-01 6.360968e-01 6.148073e-01 6.165781e-01 6.588738e-01 6.536721e-01 5.638080e-01 2.781557e-01
<GCONST> 1.258212e+02
<MIXTURE> 3 7.589731e-02
<MEAN> 39
 -5.101141e-02 -1.865555e+00 5.110340e+00 -7.293202e+00 -7.767034e+00 -7.391133e+00 -4.536201e+00 -2.297208e+00 -5.065873e+00 -2.421637e+00 -1.963155e+00 -1.710006e+00 6.394863e+01 -1.610071e-01 -1.170664e+00 9.634039e-01 -3.111905e+00 -2.455518e+00 -6.376402e-01 5.545087e-01 4.557042e-01 -7.072854e-01 7.453394e-01 3.353105e-01 8.696723e-01 1.972496e+00 -8.427052e-02 -1.674796e-01 1.687738e-01 -5.450944e-01 -1.210471e-01 2.695238e-01 -2.899038e-02 -3.847108e-01 -1.013597e-01 3.446587e-01 -4.070960e-02 -9.856072e-03 3.547566e-01
<VARIANCE> 39
 1.455154e+01 1.835629e+01 5.049665e+01 7.046941e+01 2.697121e+01 5.041026e+01 2.785841e+01 2.906174e+01 3.008306e+01 2.002979e+01 1.937167e+01 1.763815e+01 1.159941e+01 1.512265e+00 2.578693e+00 7.105164e+00 6.194962e+00 3.817927e+00 3.754631e+00 3.317105e+00 4.652323e+00 4.448258e+00 3.731133e+00 2.464398e+00 2.148993e+00 1.863094e+00 1.147467e-01 2.664661e-01 3.041248e-01 4.964533e-01 5.234599e-01 3.984722e-01 4.596040e-01 4.986455e-01 4.782565e-01 3.541209e-01 4.374245e-01 3.177532e-01 1.052045e-01
<GCONST> 1.152628e+02
<MIXTURE> 4 6.019767e-02
<MEAN> 39
 -2.428957e+00 2.859970e+00 1.016587e+01 3.205670e+00 1.884643e+00 2.706161e-01 -3.688528e+00 -7.323288e+00 -5.530042e+00 -3.141948e+00 -2.123832e+00 -4.451416e+00 5.717842e+01 3.920756e-02 -2.423544e+00 -1.101042e+00 -2.279683e+00 -2.148197e+00 -3.018452e+00 -1.170798e+00 2.153452e+00 6.521450e-01 1.119507e+00 8.402101e-01 6.203943e-01 3.289042e+00 1.777648e-01 -9.277300e-01 -2.811795e-01 -7.679622e-01 -1.226986e+00 -8.140287e-01 -1.398974e-01 6.130193e-01 -2.758788e-01 3.512165e-01 1.774794e-01 7.351072e-02 1.190351e+00
<VARIANCE> 39
 8.182987e+00 5.061915e+00 1.141969e+01 1.230089e+01 1.218844e+01 1.575157e+01 1.798947e+01 2.000282e+01 2.233764e+01 1.929217e+01 2.276845e+01 1.512007e+01 9.320626e+00 1.208230e+00 1.222432e+00 5.170424e+00 4.636127e+00 3.805485e+00 6.029639e+00 5.117532e+00 4.842813e+00 6.829383e+00 4.277299e+00 3.257908e+00 2.422678e+00 1.441694e+00 1.967630e-01 3.511550e-01 8.382497e-01 6.926884e-01 9.242851e-01 9.794939e-01 7.200634e-01 9.410610e-01 1.072558e+00 7.013779e-01 5.576168e-01 6.734918e-01 2.481091e-01
<GCONST> 1.149828e+02
<MIXTURE> 5 9.140681e-02
<MEAN> 39
 -4.515381e-01 -7.930298e+00 4.133480e+00 -4.819455e+00 -6.442990e+00 -1.233090e+01 -1.047008e+01 -6.353635e-01 -1.362633e+00 6.609238e-01 -2.006568e+00 -2.229882e+00 6.937360e+01 -1.904005e-01 -2.584254e+00 5.477429e-01 -1.504633e+00 -3.603707e+00 -2.388036e+00 -2.900696e-02 2.608658e+00 2.852810e-01 -1.581893e-01 -2.942513e-01 1.111087e+00 3.031578e+00 -1.419149e-01 4.129625e-01 4.890554e-01 1.452304e-01 -3.621723e-01 6.812641e-01 6.151820e-01 -3.768893e-01 -6.518032e-01 -2.567903e-01 2.071015e-01 -2.085842e-02 -2.921419e-01
<VARIANCE> 39
 1.253117e+01 1.858720e+01 4.140562e+01 7.670848e+01 3.600012e+01 5.613114e+01 4.212534e+01 4.432845e+01 4.176207e+01 5.231821e+01 4.317455e+01 2.406704e+01 1.454114e+01 1.050817e+00 2.848415e+00 4.708821e+00 7.050380e+00 7.783232e+00 5.204837e+00 6.808250e+00 6.244768e+00 8.995375e+00 4.774047e+00 4.605230e+00 4.097349e+00 2.373330e+00 1.593899e-01 3.010497e-01 3.176700e-01 9.036326e-01 7.127790e-01 7.435536e-01 8.092070e-01 9.189877e-01 6.034519e-01 8.146445e-01 5.375689e-01 5.260220e-01 2.955988e-01
<GCONST> 1.288512e+02
<MIXTURE> 6 4.368974e-02
<MEAN> 39
 -8.846163e-02 -4.589750e+00 2.484416e+00 -8.728616e+00 -5.014717e+00 -6.353854e+00 -6.726614e+00 -5.763470e+00 -3.101816e+00 1.484390e+00 -3.836666e+00 -6.333169e+00 6.570307e+01 -3.577348e-01 -3.242578e+00 -1.077941e+00 -4.871274e+00 -1.389110e+00 -2.004912e-01 1.182305e+00 2.046721e+00 1.028822e+00 7.336821e-01 -1.518245e+00 6.060728e-01 3.650381e+00 -2.471147e-01 -3.460952e-01 2.543685e-02 -1.540856e-01 5.618128e-02 5.832924e-02 1.446071e-01 -1.230108e-01 -1.660839e-01 -3.514729e-01 -4.297280e-01 4.225563e-01 4.909972e-01
<VARIANCE> 39
 1.202133e+01 1.903675e+01 5.780202e+01 4.149556e+01 2.684514e+01 4.182036e+01 2.064851e+01 2.733882e+01 3.027286e+01 2.651613e+01 2.029065e+01 2.331337e+01 1.078639e+01 1.510463e+00 4.000019e+00 1.296801e+01 5.147963e+00 5.027850e+00 5.063697e+00 4.785940e+00 8.292930e+00 5.559770e+00 5.166139e+00 3.929186e+00 3.337946e+00 2.429578e+00 1.529006e-01 4.435872e-01 3.227565e-01 8.655638e-01 4.308715e-01 4.475828e-01 4.471016e-01 6.665259e-01 5.605386e-01 5.505248e-01 3.581936e-01 4.747879e-01 1.655532e-01
<GCONST> 1.216466e+02
<MIXTURE> 7 6.475968e-02
<MEAN> 39
 -2.633962e+00 1.622842e+00 8.396375e+00 1.918926e+00 -1.018978e+00 -4.174890e+00 -7.064144e+00 -7.113914e+00 -4.425525e+00 -2.800038e+00 -2.206468e+00 -4.059461e+00 5.850621e+01 -4.640456e-01 -2.631328e+00 4.636979e-01 -3.219743e+00 -2.736804e+00 -1.118767e+00 4.620584e-01 1.864513e+00 1.975474e-01 7.487199e-01 -1.410184e-01 8.298780e-01 3.156464e+00 9.635928e-02 -6.446968e-01 9.196828e-02 -1.211834e+00 -9.213523e-01 -1.825937e-01 -1.953450e-02 2.617917e-05 -2.020175e-01 3.639794e-01 -3.561374e-01 2.226339e-01 9.982371e-01
<VARIANCE> 39
 1.035905e+01 8.150134e+00 1.158665e+01 1.025621e+01 1.359018e+01 1.688417e+01 1.891501e+01 3.081850e+01 1.645439e+01 1.939821e+01 2.405145e+01 1.602912e+01 8.573701e+00 1.506841e+00 1.777418e+00 8.756525e+00 4.936157e+00 4.405210e+00 4.378565e+00 5.898686e+00 6.771299e+00 5.271551e+00 4.006734e+00 3.022281e+00 2.734294e+00 1.336510e+00 2.536937e-01 6.480049e-01 8.322145e-01 6.316812e-01 7.588230e-01 5.407497e-01 6.816403e-01 9.138624e-01 5.271299e-01 5.126050e-01 4.779022e-01 6.461549e-01 3.174765e-01
<GCONST> 1.159708e+02
<MIXTURE> 8 4.856316e-02
<MEAN> 39
 -4.152201e+00 -1.565837e-01 3.899546e+00 -3.271189e+00 -1.017939e+00 1.271274e-01 -9.928412e-01 -2.216492e+00 -3.030909e+00 -2.702290e+00 -1.285503e+00 -1.389391e+00 6.071648e+01 1.357757e+00 -1.512504e+00 -2.481613e+00 -4.616700e+00 -2.025420e+00 -9.437683e-01 -1.081249e+00 5.983360e-01 4.835879e-01 9.053621e-01 9.821892e-01 5.896329e-01 3.001655e+00 5.811710e-01 -3.647136e-01 -2.681909e-01 -9.107357e-01 -4.889460e-01 1.546728e-01 -2.758489e-01 -2.145599e-01 -1.057487e-01 1.770985e-01 8.382546e-02 -1.332678e-01 4.614632e-01
<VARIANCE> 39
 2.002357e+01 1.312785e+01 1.821432e+01 2.371321e+01 2.033013e+01 1.497635e+01 1.695857e+01 2.240350e+01 2.005223e+01 1.794537e+01 1.811342e+01 1.780081e+01 1.848381e+01 1.556632e+00 2.292455e+00 3.079558e+00 6.881003e+00 3.201248e+00 3.649015e+00 3.155057e+00 4.266691e+00 3.751366e+00 4.348306e+00 3.595107e+00 4.228526e+00 1.784934e+00 3.004653e-01 5.650572e-01 5.208474e-01 7.499174e-01 6.077873e-01 7.026861e-01 5.118384e-01 7.648898e-01 6.150689e-01 5.346389e-01 6.738974e-01 6.947024e-01 3.145992e-01
<GCONST> 1.175009e+02
<MIXTURE> 9 8.536009e-02
<MEAN> 39
 9.578344e-01 -5.486419e+00 -1.593206e+00 -1.067446e+01 -5.490026e+00 -5.216714e+00 -7.462298e+00 -4.374780e+00 -2.827121e+00 2.301960e+00 2.634268e+00 -2.746148e+00 6.835933e+01 7.087296e-01 -3.084061e+00 -2.185365e+00 -3.086046e+00 -1.959605e+00 -1.490773e+00 -9.085020e-01 1.519167e+00 1.560978e+00 1.346109e+00 8.094000e-02 -1.080774e+00 3.458110e+00 -1.949335e-01 -8.975723e-03 3.934534e-01 6.437979e-01 7.216102e-02 3.084062e-01 3.440060e-01 5.823971e-02 -2.574320e-01 -5.746832e-01 -5.739648e-01 -3.415497e-01 -2.049410e-01
<VARIANCE> 39
 1.372140e+01 1.666439e+01 3.399100e+01 5.679737e+01 2.545116e+01 6.195886e+01 3.330491e+01 3.323468e+01 3.050640e+01 3.857134e+01 4.135395e+01 2.192498e+01 1.563915e+01 1.633087e+00 2.744990e+00 5.675159e+00 8.731316e+00 5.238871e+00 7.303500e+00 5.320441e+00 5.012415e+00 6.565505e+00 5.231933e+00 4.930682e+00 5.273885e+00 2.604117e+00 2.121633e-01 3.192995e-01 3.669348e-01 7.316306e-01 5.863871e-01 6.381152e-01 6.292645e-01 7.025990e-01 6.033362e-01 6.339491e-01 6.073845e-01 5.999902e-01 2.884743e-01
<GCONST> 1.267408e+02
<MIXTURE> 10 8.519480e-02
<MEAN> 39
 -8.264804e-01 -8.363389e+00 3.077272e+00 -6.026643e+00 -7.231509e+00 -1.080165e+01 -1.092728e+01 -1.802975e+00 -1.767190e+00 7.061639e-02 -3.127323e+00 -3.246882e+00 6.949142e+01 -3.989039e-01 -2.774458e+00 2.295149e-01 -1.941764e+00 -3.815579e+00 -2.226755e+00 -5.855659e-02 2.424405e+00 3.685801e-01 -3.121178e-01 -5.529857e-01 9.850920e-01 3.414196e+00 -1.662174e-01 3.699455e-01 4.234544e-01 1.824384e-01 -3.933832e-01 5.491227e-01 5.697169e-01 -4.260624e-01 -7.061266e-01 -2.996225e-01 1.536644e-01 -3.491892e-02 -1.987884e-01
<VARIANCE> 39
 1.214572e+01 2.033297e+01 4.706929e+01 8.624368e+01 3.701026e+01 5.798634e+01 4.358646e+01 4.025621e+01 3.826933e+01 4.842390e+01 4.149258e+01 2.657563e+01 1.680500e+01 1.082425e+00 3.066788e+00 5.975497e+00 7.726205e+00 8.190553e+00 5.539762e+00 6.884326e+00 6.641040e+00 8.399306e+00 4.448351e+00 5.009230e+00 4.461889e+00 2.699051e+00 1.638068e-01 3.078438e-01 3.072301e-01 9.781967e-01 7.655410e-01 7.716821e-01 7.782038e-01 9.471470e-01 5.783979e-01 7.645583e-01 5.576812e-01 5.916724e-01 3.120281e-01
<GCONST> 1.302682e+02
<MIXTURE> 11 6.330441e-02
<MEAN> 39
 -2.886829e+00 5.935385e-01 7.598824e+00 1.238617e+00 -1.635969e+00 -4.329899e+00 -7.650309e+00 -7.697210e+00 -5.138155e+00 -3.113482e+00 -3.046543e+00 -4.788496e+00 5.888878e+01 -6.736155e-01 -2.654004e+00 1.046567e+00 -3.570685e+00 -2.877536e+00 -1.108152e+00 2.608303e-01 1.721181e+00 -8.356158e-02 9.994231e-01 -4.587169e-01 5.901396e-01 3.205581e+00 2.894711e-02 -5.141523e-01 1.614417e-01 -1.333546e+00 -9.701188e-01 -2.358673e-01 -9.432992e-02 -9.386859e-02 -2.590531e-01 3.741985e-01 -4.680577e-01 1.774394e-01 1.017941e+00
<VARIANCE> 39
 1.170414e+01 8.429173e+00 1.231638e+01 1.065469e+01 1.348191e+01 1.781147e+01 1.768653e+01 2.849533e+01 1.578691e+01 1.917035e+01 2.403458e+01 1.755762e+01 9.169094e+00 1.527282e+00 1.763594e+00 9.942689e+00 4.406037e+00 4.473142e+00 4.323179e+00 4.760850e+00 6.584539e+00 5.335744e+00 3.186763e+00 3.180957e+00 2.681073e+00 1.218413e+00 2.521450e-01 6.801349e-01 8.115630e-01 5.562608e-01 7.653205e-01 5.605015e-01 6.804012e-01 8.212048e-01 5.511386e-01 4.914171e-01 5.250243e-01 6.449426e-01 3.036642e-01
<GCONST> 1.156072e+02
<MIXTURE> 12 5.846058e-02
<MEAN> 39
 -2.328522e+00 2.184186e+00 8.482618e+00 2.328343e+00 8.915633e-01 -8.199717e-01 -5.509738e+00 -8.372563e+00 -5.891505e+00 -3.565986e+00 -2.959590e+00 -5.143379e+00 5.718676e+01 -2.991076e-02 -2.766172e+00 -1.105998e+00 -2.709456e+00 -2.483057e+00 -2.283912e+00 -7.199095e-01 2.306367e+00 9.253036e-01 7.997230e-01 2.042810e-01 5.937769e-01 3.402327e+00 1.425415e-01 -1.020125e+00 -3.320960e-01 -9.116229e-01 -1.286149e+00 -5.772232e-01 -9.253152e-02 4.262147e-01 -2.935927e-01 2.586328e-01 -1.001724e-01 1.190020e-01 1.310068e+00
<VARIANCE> 39
 7.850539e+00 5.373800e+00 1.244121e+01 1.193875e+01 1.172907e+01 1.476664e+01 1.989915e+01 2.390957e+01 2.345050e+01 2.450710e+01 2.688280e+01 1.596065e+01 9.043586e+00 1.005257e+00 1.335027e+00 6.179245e+00 4.940489e+00 3.838468e+00 5.691380e+00 5.381397e+00 5.631767e+00 6.916703e+00 3.613052e+00 3.216771e+00 3.059506e+00 1.471959e+00 1.958749e-01 4.689451e-01 9.219888e-01 7.491735e-01 9.153953e-01 8.498291e-01 6.859481e-01 8.809090e-01 8.282892e-01 6.214976e-01 6.527465e-01 7.087643e-01 2.727401e-01
<GCONST> 1.162105e+02
<MIXTURE> 13 7.372427e-02
<MEAN> 39
 -1.512356e+00 -2.702936e+00 7.473669e+00 -4.988449e+00 -8.379872e+00 -8.499767e+00 -6.277742e+00 -3.208032e+00 -6.250398e+00 -2.976904e+00 -2.780158e+00 -2.433000e+00 6.384996e+01 -5.360538e-01 -1.332841e+00 1.865592e+00 -3.295558e+00 -2.771803e+00 -8.891976e-01 4.202853e-01 1.303768e-01 -1.147150e+00 9.225416e-01 3.691548e-02 6.356428e-01 2.254845e+00 -9.137818e-02 -1.360136e-02 1.361768e-01 -7.369321e-01 -2.083408e-01 2.590744e-01 -7.677905e-02 -4.518684e-01 -9.427538e-02 3.454448e-01 -2.245143e-01 -6.643433e-02 3.555171e-01
<VARIANCE> 39
 1.441097e+01 1.705250e+01 4.823251e+01 5.808872e+01 2.596311e+01 4.074658e+01 2.652312e+01 2.791904e+01 2.790635e+01 2.239775e+01 1.980737e+01 1.570145e+01 9.955502e+00 1.276613e+00 2.357839e+00 6.552737e+00 5.984161e+00 4.266753e+00 4.291098e+00 3.883649e+00 5.244277e+00 4.494651e+00 3.670060e+00 2.696361e+00 2.178953e+00 1.965220e+00 1.244617e-01 2.713568e-01 3.091617e-01 4.727777e-01 5.045299e-01 4.539397e-01 4.946306e-01 5.412977e-01 4.728433e-01 3.723721e-01 4.082821e-01 3.288665e-01 1.165400e-01
<GCONST> 1.151113e+02
<MIXTURE> 14 4.270670e-02
<MEAN> 39
 -7.282161e-01 -5.574552e+00 3.504411e+00 -8.401999e+00 -5.950099e+00 -6.810609e+00 -7.665966e+00 -6.345427e+00 -4.245834e+00 1.207299e+00 -4.565146e+00 -7.264756e+00 6.591888e+01 -6.918119e-01 -3.157142e+00 -5.088329e-01 -5.075640e+00 -1.729334e+00 -2.693737e-01 1.040990e+00 2.138660e+00 8.066473e-01 7.325279e-01 -1.721055e+00 5.023678e-01 3.736490e+00 -2.671727e-01 -2.007276e-01 -6.011267e-02 -2.052986e-01 9.352407e-03 6.897367e-02 1.147347e-01 -1.879445e-01 -1.396628e-01 -4.086729e-01 -4.854005e-01 4.596811e-01 4.654692e-01
<VARIANCE> 39
 1.281721e+01 1.590586e+01 7.132370e+01 3.999550e+01 3.252692e+01 3.722512e+01 1.912673e+01 2.563967e+01 3.197926e+01 2.660855e+01 1.933418e+01 2.302491e+01 9.819077e+00 1.558748e+00 3.662800e+00 1.475677e+01 5.228820e+00 5.518674e+00 4.293236e+00 4.672446e+00 8.744324e+00 5.261111e+00 4.925435e+00 3.658321e+00 3.545189e+00 2.125183e+00 1.436777e-01 5.483326e-01 3.362097e-01 8.529752e-01 4.393197e-01 4.512168e-01 4.395468e-01 6.930017e-01 5.769852e-01 5.614764e-01 3.312358e-01 4.962044e-01 1.915985e-01
<GCONST> 1.217262e+02
<MIXTURE> 15 4.952613e-02
<MEAN> 39
 -4.473645e+00 -7.101502e-01 3.240644e+00 -3.862751e+00 -1.338788e+00 -7.087679e-01 -2.532127e+00 -3.178977e+00 -3.922744e+00 -3.421463e+00 -2.096097e+00 -2.757871e+00 6.128864e+01 1.312915e+00 -1.578811e+00 -2.543797e+00 -4.667365e+00 -2.085414e+00 -1.242593e+00 -1.156711e+00 7.129046e-01 4.017186e-01 8.556166e-01 4.977216e-01 3.714662e-01 3.021565e+00 6.105289e-01 -3.216296e-01 -2.844275e-01 -1.045276e+00 -5.375717e-01 -2.035592e-03 -2.490394e-01 -2.434097e-01 -1.489528e-01 1.132990e-01 -1.736985e-01 -7.810593e-02 4.867640e-01
<VARIANCE> 39
 2.061603e+01 1.279123e+01 1.929778e+01 2.282584e+01 2.007953e+01 1.583478e+01 1.665866e+01 2.230598e+01 2.130676e+01 1.692912e+01 1.784338e+01 1.582672e+01 1.851333e+01 1.474116e+00 2.368073e+00 3.654219e+00 7.280521e+00 2.984690e+00 4.216146e+00 3.608859e+00 4.180466e+00 3.835617e+00 4.080862e+00 3.637848e+00 3.992558e+00 1.860531e+00 2.741583e-01 6.152608e-01 6.247566e-01 7.616459e-01 6.706988e-01 8.377202e-01 5.150982e-01 8.005001e-01 5.958297e-01 6.027095e-01 6.677635e-01 6.476847e-01 3.543569e-01
<GCONST> 1.184097e+02
<MIXTURE> 16 3.825935e-02
<MEAN> 39
 -5.609282e+00 1.049877e+00 6.813712e+00 1.460832e+00 1.618601e+00 3.539799e+00 1.582768e+00 -2.321110e+00 -2.304697e+00 -2.471016e+00 -1.477880e+00 -1.467562e+00 5.498931e+01 5.870898e-01 -1.547186e+00 -2.041506e+00 -3.049593e+00 -1.418543e+00 -1.345494e+00 -1.079039e+00 4.849055e-01 3.785213e-01 6.584705e-01 2.685517e-01 -1.461769e-01 2.934886e+00 7.178391e-01 -7.355773e-01 -7.337706e-01 -1.475853e+00 -9.001275e-01 -5.465933e-01 -7.372162e-01 -1.412197e-01 -2.428175e-01 1.841907e-01 -6.905808e-03 -3.494709e-01 1.394512e+00
<VARIANCE> 39
 2.181341e+01 1.261332e+01 1.436586e+01 1.969003e+01 1.755396e+01 1.239797e+01 1.631900e+01 2.466856e+01 2.595061e+01 2.067064e+01 2.163252e+01 2.038450e+01 1.343652e+01 1.932485e+00 1.333018e+00 2.872007e+00 4.219449e+00 2.753548e+00 2.779532e+00 2.880267e+00 3.061203e+00 3.535460e+00 3.314689e+00 3.544332e+00 2.672815e+00 1.769572e+00 2.959698e-01 5.410911e-01 7.539802e-01 9.713288e-01 6.033687e-01 6.915774e-01 4.705072e-01 7.208114e-01 6.855770e-01 7.586980e-01 1.119121e+00 6.911525e-01 3.541209e-01
<GCONST> 1.161782e+02
<TRANSP> 5
 0.000000e+00 1.000000e+00 0.000000e+00 0.000000e+00 0.000000e+00
 0.000000e+00 5.602688e-01 4.397312e-01 0.000000e+00 0.000000e+00
 0.000000e+00 0.000000e+00 3.827696e-01 6.172304e-01 0.000000e+00
 0.000000e+00 0.000000e+00 0.000000e+00 4.789658e-01 5.210342e-01
 0.000000e+00 0.000000e+00 0.000000e+00 0.000000e+00 0.000000e+00
<ENDHMM>
~h "d"
<BEGINHMM>
<NUMSTATES> 5
<STATE> 2
<NUMMIXES> 16
<MIXTURE> 1 5.147905e-02
<MEAN> 39
 -1.892285e+00 4.201892e+00 1.064548e+01 3.473669e+00 -2.734569e+00 -2.619169e+00 -3.356959e+00 -4.354170e+00 -2.875349e+00 -3.497616e+00 -4.959178e+00 -4.398591e+00 5.518872e+01 -1.795508e-01 6.608440e-02 2.786718e-01 3.504513e-01 8.081586e-01 6.804101e-01 4.433731e-01 5.511449e-01 6.598828e-01 2.075628e-01 1.724336e-01 -9.202370e-03 -2.816482e-01 -4.889337e-01 -4.074349e-01 -2.237398e-01 -1.306878e-01 2.695105e-01 2.234955e-01 2.367269e-01 2.611037e-01 8.663472e-02 1.996439e-01 3.686925e-01 3.421664e-01 1.800516e-01
<VARIANCE> 39
 6.395847e+00 4.689377e+00 7.925833e+00 1.764117e+01 2.662882e+01 1.922105e+01 1.946314e+01 1.904461e+01 2.034767e+01 2.066266e+01 2.048165e+01 1.624102e+01 7.244187e+00 5.266890e-01 4.537472e-01 5.663483e-01 8.145204e-01 1.569822e+00 1.560541e+00 1.353635e+00 1.336604e+00 1.423611e+00 1.370417e+00 1.173065e+00 1.645573e+00 3.713172e-01 1.668747e-01 1.298674e-01 1.651282e-01 2.754634e-01 4.855680e-01 4.528816e-01 3.731826e-01 3.535342e-01 4.790110e-01 3.693930e-01 3.178786e-01 3.227195e-01 2.485876e-01
<GCONST> 8.975653e+01
<MIXTURE> 2 5.572388e-02
<MEAN> 39
 -4.438435e+00 2.597769e+00 9.089650e+00 3.122961e+00 9.089961e-02 -4.331299e-01 -2.267226e+00 -2.730459e+00 -1.658700e+00 -2.648575e-01 -2.042285e+00 -4.557660e+00 5.636452e+01 -1.414749e+00 -1.116453e+00 -6.125441e-01 -1.152224e+00 6.629314e-01 -1.362924e-02 2.513059e-01 1.236527e+00 4.139979e-01 5.026447e-02 1.030384e+00 1.384669e+00 1.384963e+00 1.861480e-01 -5.810171e-01 -1.968205e-01 -9.226250e-01 -1.212991e+00 -9.939408e-01 -7.240322e-01 1.717624e-02 -2.748119e-01 -1.922080e-02 2.871242e-01 1.627949e-01 1.355853e+00
<VARIANCE> 39
 1.340531e+01 1.222298e+01 1.576809e+01 2.643287e+01 3.183001e+01 3.028335e+01 3.614219e+01 2.308812e+01 2.639383e+01 2.048218e+01 2.407029e+01 3.144552e+01 1.957215e+01 1.204517e+00 1.896360e+00 2.198014e+00 4.025978e+00 4.011409e+00 4.093938e+00 5.237797e+00 3.163801e+00 3.376631e+00 3.295959e+00 2.783971e+00 3.635053e+00 2.821150e+00 1.929769e-01 4.208474e-01 4.570194e-01 4.753785e-01 6.757451e-01 7.141865e-01 5.640154e-01 8.728594e-01 7.194129e-01 5.271153e-01 5.433010e-01 6.071077e-01 2.551046e-01
<GCONST> 1.177571e+02
<MIXTURE> 3 7.183467e-02
<MEAN> 39
 -2.463972e+00 3.226972e+00 9.723666e+00 3.323031e+00 -1.239595e+00 -3.247989e+00 -4.356263e+00 -4.106947e+00 -2.667405e+00 -2.893338e+00 -4.420348e+00 -4.196430e+00 5.669196e+01 -1.057757e+00 1.494599e-01 7.372614e-01 1.114993e+00 1.744998e+00 1.679995e+00 1.252187e+00 5.188531e-01 3.006098e-01 -1.450898e-01 3.686221e-01 -5.441340e-02 -1.150454e+00 -2.861986e-01 -7.310203e-01 -5.872490e-01 -1.100266e+00 -8.351608e-01 -5.191645e-01 -1.737068e-01 2.209888e-01 -5.540213e-02 2.487361e-01 3.815689e-01 4.034042e-01 1.346971e+00
<VARIANCE> 39
 5.589789e+00 8.055354e+00 1.389593e+01 2.136567e+01 2.699985e+01 2.511493e+01 2.342894e+01 2.305853e+01 2.322498e+01 2.419551e+01 2.230929e+01 2.414450e+01 9.149859e+00 1.293892e+00 2.074986e+00 2.869860e+00 4.111110e+00 4.029772e+00 3.566107e+00 3.083596e+00 2.876774e+00 2.828038e+00 2.592724e+00 2.841435e+00 3.102123e+00 3.847413e+00 1.646759e-01 1.805941e-01 3.461058e-01 4.446536e-01 6.902783e-01 6.930643e-01 5.061599e-01 5.501384e-01 5.391793e-01 4.788716e-01 4.343628e-01 4.672888e-01 2.859470e-01
<GCONST> 1.110398e+02
<MIXTURE> 4 8.349310e-02
<MEAN> 39
 -1.330294e+00 -3.332567e+00 2.134112e+00 -5.513553e+00 -6.649883e+00 -1.132280e+01 -9.838456e+00 -3.767078e+00 4.879889e-01 -3.612401e-01 -2.592793e+00 -2.684703e+00 6.748011e+01 -9.082724e-02 6.187698e-01 8.404283e-01 1.237455e+00 2.219904e-02 -3.948458e-01 -2.123764e-02 -6.494619e-02 -1.510385e-01 -1.171695e-01 3.983532e-02 5.443389e-01 -7.412361e-01 -1.572468e-01 -3.761556e-01 8.995947e-02 -4.089238e-01 -3.941259e-01 1.004312e-01 3.765347e-01 4.743810e-01 -1.316107e-01 -6.703191e-02 1.336250e-01 5.512908e-02 4.027162e-01
<VARIANCE> 39
 9.712098e+00 2.467148e+01 2.832123e+01 5.785496e+01 5.062854e+01 4.836212e+01 5.930668e+01 6.324261e+01 4.583107e+01 5.089230e+01 5.763773e+01 5.049860e+01 3.083908e+01 4.518727e-01 8.653761e-01 1.077982e+00 2.034525e+00 2.069496e+00 2.300627e+00 1.858778e+00 2.244846e+00 1.901244e+00 1.574209e+00 1.887453e+00 1.606120e+00 1.007183e+00 1.393302e-01 2.071321e-01 1.861513e-01 4.442665e-01 6.609340e-01 5.287232e-01 4.705126e-01 5.474195e-01 4.522401e-01 3.539324e-01 3.641955e-01 3.709307e-01 3.212315e-01
<GCONST> 1.113829e+02
<MIXTURE> 5 6.114774e-02
<MEAN> 39
 -2.032958e+00 3.682755e+00 9.341606e+00 1.807453e+00 -3.729437e+00 -4.993581e+00 -5.332443e+00 -6.456378e+00 -5.770832e+00 -6.811194e+00 -5.687922e+00 -2.475203e+00 5.750533e+01 -1.182861e+00 -5.452611e-01 -3.139997e-01 -7.512008e-01 1.902879e-01 6.220454e-02 4.175708e-01 8.284402e-01 9.088046e-02 6.580635e-01 9.571033e-01 -1.712683e-01 1.446330e+00 -2.713952e-01 -9.255339e-01 -4.963434e-01 -1.293307e+00 -9.882778e-01 -4.796181e-01 1.212305e-01 4.132711e-01 4.472723e-01 7.591388e-01 3.087769e-01 4.605035e-01 1.304521e+00
<VARIANCE> 39
 6.507147e+00 7.924890e+00 1.040054e+01 1.392082e+01 2.478514e+01 2.836801e+01 2.054744e+01 2.888970e+01 2.179388e+01 2.240265e+01 1.974810e+01 2.262514e+01 8.049043e+00 2.109670e+00 2.086519e+00 2.120399e+00 3.212209e+00 5.263973e+00 4.730976e+00 3.951016e+00 4.377381e+00 2.906564e+00 2.885951e+00 3.189159e+00 2.851573e+00 2.819744e+00 2.735070e-01 2.359104e-01 4.391664e-01 7.577325e-01 1.182589e+00 9.554777e-01 7.778416e-01 7.676735e-01 6.763868e-01 5.308626e-01 6.948630e-01 5.502426e-01 4.355134e-01
<GCONST> 1.157013e+02
<MIXTURE> 6 6.231585e-02
<MEAN> 39
 -4.080173e+00 2.726204e+00 1.036752e+01 3.978567e+00 -1.887982e-02 -5.335736e-01 -2.002320e+00 -4.605597e+00 -2.639202e+00 -3.222745e+00 -3.789634e+00 -3.268857e+00 5.430991e+01 3.278630e-01 5.389612e-01 5.577161e-01 3.625203e-01 1.175227e-01 9.608240e-02 -6.596271e-02 -1.596296e-01 -2.453891e-01 -4.010484e-01 -2.791792e-01 -4.595514e-01 -7.355745e-03 -2.551715e-01 -2.961799e-01 -2.950615e-01 -3.235465e-01 -9.131248e-02 -9.741964e-02 7.995324e-02 3.407505e-01 2.048401e-01 2.346977e-01 2.500623e-01 2.385186e-01 3.265437e-01
<VARIANCE> 39
 6.913059e+00 5.140487e+00 8.481687e+00 1.150060e+01 2.155538e+01 2.097256e+01 2.256396e+01 1.645051e+01 1.657486e+01 1.688280e+01 1.635200e+01 1.776130e+01 7.923866e+00 9.359676e-01 6.720126e-01 6.855910e-01 8.588603e-01 1.520904e+00 1.959020e+00 1.788715e+00 1.569961e+00 1.423885e+00 1.537004e+00 1.557312e+00 1.638361e+00 5.895001e-01 1.467131e-01 1.378080e-01 1.874463e-01 2.543230e-01 4.104885e-01 4.444173e-01 3.853883e-01 3.484386e-01 3.373352e-01 3.184657e-01 2.911884e-01 3.360055e-01 2.646759e-01
<GCONST> 9.101812e+01
<MIXTURE> 7 6.419409e-02
<MEAN> 39
 -5.650702e+00 2.748026e+00 7.941563e+00 3.287348e+00 4.626102e-01 -1.875806e+00 -3.639906e+00 -3.907009e+00 -2.464659e+00 -2.397644e+00 -3.388126e+00 -3.224028e+00 5.735461e+01 -8.820783e-01 -1.306956e+00 -9.682490e-01 -1.739101e+00 -1.044219e+00 -1.059533e+00 8.415139e-02 1.087229e+00 3.082980e-01 3.088535e-01 1.165207e+00 9.784948e-01 2.475175e+00 3.688524e-01 -6.952014e-01 -2.705975e-01 -1.222340e+00 -1.448826e+00 -1.079009e+00 -3.991724e-01 1.126470e-01 -8.059581e-02 2.815090e-01 7.268766e-02 2.552104e-01 1.402199e+00
<VARIANCE> 39
 1.490287e+01 1.527956e+01 2.011801e+01 2.105048e+01 2.473381e+01 3.818658e+01 3.442210e+01 2.653245e+01 2.789335e+01 2.436163e+01 2.733834e+01 2.467002e+01 1.989630e+01 1.503306e+00 1.299179e+00 2.237558e+00 2.527128e+00 4.070866e+00 3.473400e+00 3.584637e+00 3.092829e+00 3.469308e+00 2.775045e+00 2.483256e+00 2.428946e+00 2.017033e+00 2.461642e-01 4.411155e-01 5.501588e-01 6.286912e-01 7.164235e-01 8.294122e-01 8.381963e-01 8.057525e-01 7.433288e-01 6.616588e-01 6.472306e-01 6.121837e-01 2.233287e-01
<GCONST> 1.177379e+02
<MIXTURE> 8 5.804704e-02
<MEAN> 39
 -7.071544e+00 7.444720e-01 6.967014e+00 2.072749e+00 -9.764782e-01 -9.180334e-01 -1.524003e+00 -3.140905e+00 -1.063420e+00 -1.495002e+00 -1.300657e+00 -5.620386e-01 5.497022e+01 2.080952e+00 1.521054e+00 1.174307e+00 7.348298e-02 -1.539845e+00 -2.135640e+00 -1.902945e+00 -1.739676e+00 -1.745136e+00 -1.424124e+00 -1.502862e+00 -1.344410e+00 1.194061e+00 2.510122e-02 -1.450911e-01 -3.708196e-02 -1.710620e-01 -9.365816e-02 6.558183e-03 5.837995e-02 2.090018e-01 9.079528e-02 1.013408e-01 9.616235e-02 5.448163e-02 2.055821e-01
<VARIANCE> 39
 2.101244e+01 1.779352e+01 1.495946e+01 1.967278e+01 3.244572e+01 4.797359e+01 4.077122e+01 3.623808e+01 2.748149e+01 2.888257e+01 2.266101e+01 2.023807e+01 2.609227e+01 1.458320e+00 2.046000e+00 1.124816e+00 1.883943e+00 2.586069e+00 2.915790e+00 2.754951e+00 2.912451e+00 2.668155e+00 2.388405e+00 2.336773e+00 2.389304e+00 1.044821e+00 4.146864e-01 4.087653e-01 2.637397e-01 3.382267e-01 6.738200e-01 8.686070e-01 7.838055e-01 7.813029e-01 6.267222e-01 5.244032e-01 4.623204e-01 4.667376e-01 2.846432e-01
<GCONST> 1.144426e+02
<MIXTURE> 9 8.433182e-02
<MEAN> 39
 -1.995692e+00 -4.620741e+00 1.992208e-01 -7.586527e+00 -7.603323e+00 -1.195891e+01 -9.576244e+00 -4.075341e+00 6.662908e-01 -1.284612e+00 -4.064907e+00 -2.490988e+00 6.928378e+01 -5.368401e-02 4.614433e-01 7.795528e-01 1.137380e+00 -2.034716e-01 -6.356599e-01 -2.339278e-01 -8.846781e-02 -1.506815e-01 -1.940742e-01 -1.116246e-01 4.482937e-01 -5.710371e-01 -1.229319e-01 -3.659902e-01 2.144429e-02 -4.752984e-01 -4.719090e-01 6.820288e-02 3.976464e-01 4.252517e-01 -1.507466e-01 -1.149163e-01 6.993361e-02 8.366001e-03 4.619503e-01
<VARIANCE> 39
 1.058180e+01 2.239582e+01 3.332578e+01 5.721278e+01 6.003876e+01 4.441932e+01 6.205024e+01 5.962708e+01 4.819052e+01 6.143855e+01 5.516716e+01 4.490773e+01 2.548423e+01 3.568622e-01 8.434991e-01 1.001214e+00 1.865564e+00 1.789560e+00 1.918241e+00 1.774428e+00 2.083755e+00 1.780821e+00 1.497446e+00 1.786864e+00 1.501771e+00 8.368682e-01 9.391568e-02 2.015075e-01 1.977879e-01 4.509711e-01 4.659951e-01 4.124565e-01 4.651590e-01 5.010024e-01 3.967671e-01 3.305176e-01 3.087359e-01 3.144268e-01 2.774719e-01
<GCONST> 1.084686e+02
<MIXTURE> 10 7.125615e-02
<MEAN> 39
 -2.511341e+00 2.775849e+00 8.872870e+00 2.073451e+00 -2.602206e+00 -4.512310e+00 -5.304058e+00 -4.883075e+00 -3.465253e+00 -4.276179e+00 -5.778036e+00 -3.895271e+00 5.695319e+01 -1.137166e+00 1.543000e-02 5.163327e-01 8.370227e-01 1.347615e+00 1.194967e+00 9.709352e-01 2.945516e-01 -1.439073e-01 -2.227959e-01 4.610060e-01 -3.229623e-01 -5.035316e-01 -2.557409e-01 -7.682343e-01 -6.604931e-01 -1.294777e+00 -9.912911e-01 -6.003616e-01 -1.781216e-01 1.893296e-01 -1.847429e-02 3.025900e-01 2.984811e-01 4.426929e-01 1.536029e+00
<VARIANCE> 39
 5.551795e+00 8.622030e+00 1.411602e+01 1.800638e+01 2.814263e+01 2.547628e+01 2.316457e+01 2.503250e+01 2.358813e+01 2.587320e+01 2.174806e+01 2.483133e+01 9.573326e+00 1.287778e+00 2.125983e+00 2.794694e+00 4.220550e+00 4.194593e+00 3.635636e+00 2.979166e+00 2.862227e+00 2.721474e+00 2.460479e+00 2.880226e+00 2.828996e+00 3.959701e+00 1.550591e-01 1.814204e-01 3.796718e-01 4.945445e-01 7.944594e-01 7.122946e-01 5.846263e-01 5.820265e-01 5.661825e-01 4.909911e-01 4.627117e-01 4.867084e-01 2.834526e-01
<GCONST> 1.117818e+02
<MIXTURE> 11 5.912893e-02
<MEAN> 39
 -2.384309e+00 2.774449e+00 8.477163e+00 1.149776e+00 -4.377903e+00 -5.945732e+00 -5.887115e+00 -6.571241e+00 -6.143008e+00 -7.795091e+00 -6.584766e+00 -2.218070e+00 5.794633e+01 -1.119186e+00 -5.901330e-01 -3.897051e-01 -1.006088e+00 -4.530216e-02 -1.020237e-02 3.735151e-01 6.253720e-01 -1.943293e-01 6.354526e-01 9.451835e-01 -3.667687e-01 1.610254e+00 -1.992458e-01 -9.504647e-01 -5.989641e-01 -1.526841e+00 -1.191103e+00 -5.301044e-01 9.513025e-02 3.657202e-01 4.156360e-01 6.663304e-01 1.909076e-01 3.623936e-01 1.523874e+00
<VARIANCE> 39
 6.525771e+00 8.447347e+00 1.062711e+01 1.320793e+01 2.634358e+01 2.883102e+01 2.094533e+01 3.064298e+01 2.147038e+01 2.195537e+01 2.099463e+01 2.291442e+01 9.035678e+00 2.015847e+00 2.217858e+00 2.316015e+00 3.477873e+00 5.956671e+00 4.545614e+00 3.880387e+00 4.676441e+00 3.237938e+00 3.208335e+00 3.401158e+00 2.792215e+00 2.821161e+00 2.277202e-01 2.332661e-01 4.439086e-01 7.310889e-01 1.187003e+00 8.776356e-01 7.555876e-01 7.543898e-01 6.645938e-01 5.501723e-01 6.611124e-01 5.451710e-01 3.846931e-01
<GCONST> 1.161070e+02
<MIXTURE> 12 5.508200e-02
<MEAN> 39
 -4.139857e+00 2.433830e+00 9.633904e+00 2.922789e+00 -1.245118e+00 -1.756914e+00 -3.304678e+00 -5.264361e+00 -3.122691e+00 -4.011282e+00 -4.296784e+00 -3.236451e+00 5.471576e+01 4.099440e-01 4.919946e-01 4.701264e-01 2.090175e-01 -1.299428e-01 -1.244224e-01 -2.394456e-01 -3.715396e-01 -4.890447e-01 -6.409748e-01 -5.486000e-01 -6.480671e-01 9.451155e-02 -2.049368e-01 -2.939453e-01 -3.351417e-01 -3.909027e-01 -2.033772e-01 -1.765885e-01 -3.540589e-03 2.599342e-01 1.363267e-01 1.776668e-01 1.988673e-01 2.044416e-01 4.861014e-01
<VARIANCE> 39
 6.914698e+00 5.295132e+00 9.150121e+00 1.144587e+01 2.253531e+01 2.288937e+01 2.309160e+01 1.834151e+01 1.753149e+01 1.843164e+01 1.595155e+01 1.793684e+01 8.083126e+00 9.601697e-01 6.907763e-01 6.814166e-01 8.331733e-01 1.616201e+00 2.024156e+00 1.806789e+00 1.564823e+00 1.491139e+00 1.579788e+00 1.687926e+00 1.698318e+00 6.497366e-01 1.555327e-01 1.551277e-01 2.087222e-01 2.750084e-01 4.845455e-01 4.840140e-01 4.142832e-01 3.735145e-01 3.414973e-01 3.196947e-01 3.116368e-01 3.471741e-01 3.156108e-01
<GCONST> 9.298415e+01
<MIXTURE> 13 6.308309e-02
<MEAN> 39
 -5.921024e+00 2.152707e+00 6.721470e+00 2.061988e+00 -4.547793e-01 -3.131397e+00 -4.465527e+00 -4.565482e+00 -3.036046e+00 -3.012394e+00 -4.365904e+00 -3.053385e+00 5.835825e+01 -7.143368e-01 -1.347172e+00 -1.001485e+00 -1.882563e+00 -1.419469e+00 -1.256072e+00 -1.111206e-02 9.311076e-01 1.809510e-01 2.204540e-01 9.530531e-01 7.057894e-01 2.649104e+00 3.785475e-01 -7.570617e-01 -3.109462e-01 -1.400800e+00 -1.460282e+00 -1.060063e+00 -2.788529e-01 6.276930e-02 -3.131022e-02 2.371026e-01 -9.033152e-02 2.617206e-01 1.435561e+00
<VARIANCE> 39
 1.637992e+01 1.624025e+01 2.260970e+01 2.314416e+01 2.607645e+01 4.299187e+01 3.375840e+01 2.872912e+01 2.941758e+01 2.756298e+01 3.058617e+01 2.498286e+01 2.126208e+01 1.570495e+00 1.335648e+00 2.340936e+00 2.490512e+00 4.389729e+00 3.507452e+00 3.512841e+00 3.451519e+00 3.735038e+00 2.894011e+00 2.881300e+00 2.429521e+00 1.943171e+00 2.600425e-01 4.364802e-01 5.854710e-01 6.548892e-01 7.920169e-01 8.192646e-01 8.780252e-01 7.825200e-01 7.700391e-01 6.426374e-01 6.593994e-01 6.133077e-01 2.141855e-01
<GCONST> 1.194456e+02
<MIXTURE> 14 6.060860e-02
<MEAN> 39
 -2.203479e+00 3.785784e+00 1.024809e+01 2.485351e+00 -3.327413e+00 -3.302387e+00 -3.992707e+00 -4.986706e+00 -3.441509e+00 -4.590533e+00 -5.566633e+00 -4.293065e+00 5.529121e+01 -2.065310e-01 -5.524803e-03 1.804611e-01 2.665895e-01 6.170858e-01 5.784529e-01 4.030588e-01 3.423789e-01 3.066918e-01 -1.943525e-02 2.278879e-02 -2.349368e-01 -2.479003e-01 -4.172210e-01 -3.871555e-01 -2.555520e-01 -2.243274e-01 1.346729e-01 9.069232e-02 1.168201e-01 1.850504e-01 5.098931e-02 1.798708e-01 2.919733e-01 2.548380e-01 3.454086e-01
<VARIANCE> 39
 6.352184e+00 4.505647e+00 7.902587e+00 1.380272e+01 2.536234e+01 1.959723e+01 2.005986e+01 2.029387e+01 2.132035e+01 2.300563e+01 2.008520e+01 1.790716e+01 8.407773e+00 5.490223e-01 4.328181e-01 5.545022e-01 7.990214e-01 1.532296e+00 1.572386e+00 1.325021e+00 1.328902e+00 1.377915e+00 1.371661e+00 1.246128e+00 1.458631e+00 3.942555e-01 1.722019e-01 1.369135e-01 1.878448e-01 2.871678e-01 4.942449e-01 4.620472e-01 3.714044e-01 3.621270e-01 4.294185e-01 3.619021e-01 3.268116e-01 3.158269e-01 2.863326e-01
<GCONST> 9.011465e+01
<MIXTURE> 15 5.591249e-02
<MEAN> 39
 -4.537032e+00 2.139832e+00 8.496608e+00 2.256321e+00 -3.724986e-01 -1.249497e+00 -2.813083e+00 -3.357162e+00 -2.137459e+00 -1.043454e+00 -2.959497e+00 -4.572625e+00 5.655445e+01 -1.377159e+00 -1.155490e+00 -7.551794e-01 -1.286524e+00 1.305777e-01 -3.994351e-01 -6.169438e-02 9.001613e-01 1.087132e-01 -1.092828e-02 9.266177e-01 1.060132e+00 1.940672e+00 2.188544e-01 -5.202369e-01 -2.214413e-01 -9.984875e-01 -1.344800e+00 -1.021241e+00 -7.328188e-01 -1.006224e-01 -2.498182e-01 1.307647e-03 1.211190e-01 2.164911e-01 1.402485e+00
<VARIANCE> 39
 1.301173e+01 1.227617e+01 1.677675e+01 2.552489e+01 2.879489e+01 3.140844e+01 3.654028e+01 2.435860e+01 2.652607e+01 2.214489e+01 2.616667e+01 2.960110e+01 2.114024e+01 1.223277e+00 1.879421e+00 2.307667e+00 3.771265e+00 4.193929e+00 4.117468e+00 4.840067e+00 3.199758e+00 3.689700e+00 3.139846e+00 2.881787e+00 3.270031e+00 2.612548e+00 1.884101e-01 4.369990e-01 5.077116e-01 5.090575e-01 6.962500e-01 7.448884e-01 6.164301e-01 8.936599e-01 7.530011e-01 5.586287e-01 5.940818e-01 5.752369e-01 2.403956e-01
<GCONST> 1.182585e+02
<MIXTURE> 16 4.232945e-02
<MEAN> 39
 -7.697998e+00 5.523231e-01 6.203607e+00 8.290148e-01 -1.766365e+00 -1.643463e+00 -2.065599e+00 -4.031404e+00 -1.893370e+00 -2.863246e+00 -1.437869e+00 -2.310643e-01 5.606370e+01 2.248024e+00 1.517563e+00 9.515634e-01 -4.834597e-01 -2.220361e+00 -2.823995e+00 -2.343975e+00 -2.306619e+00 -2.087985e+00 -1.957580e+00 -1.905580e+00 -1.330180e+00 1.562177e+00 1.617557e-01 -1.556738e-01 -5.774000e-02 -2.680069e-01 -2.888947e-01 -1.440447e-01 -7.785118e-03 1.437778e-01 2.528080e-02 1.740619e-02 -6.947239e-02 -4.147653e-03 3.181123e-01
<VARIANCE> 39
 2.125289e+01 1.693298e+01 1.872254e+01 1.892755e+01 3.306776e+01 4.860722e+01 3.612592e+01 3.739666e+01 2.922440e+01 3.498767e+01 2.381164e+01 2.052423e+01 2.932076e+01 1.514448e+00 2.881642e+00 1.206946e+00 2.139907e+00 2.881372e+00 3.396676e+00 2.921280e+00 3.324090e+00 3.314303e+00 2.678230e+00 2.678877e+00 2.391434e+00 1.324036e+00 3.857629e-01 4.004336e-01 2.533673e-01 3.495213e-01 7.611832e-01 9.324015e-01 7.233818e-01 7.804886e-01 6.472633e-01 5.944473e-01 5.046218e-01 4.453633e-01 2.895325e-01
<GCONST> 1.169284e+02
<STATE> 3
<NUMMIXES> 16
<MIXTURE> 1 5.866136e-02
<MEAN> 39
 3.715159e-01 -6.274150e+00 2.449740e+00 -6.521369e+00 -7.583287e+00 -1.190802e+01 -1.427724e+01 -4.951793e-01 1.322437e+00 3.808201e+00 1.569668e+00 -8.061503e+00 7.091408e+01 -2.633276e-01 -4.807428e-01 6.442966e-01 5.146887e-01 -1.091931e+00 -1.142283e+00 2.607500e-01 1.384021e+00 1.815043e-01 -6.157780e-01 -4.608081e-01 9.424127e-01 4.707931e-01 -8.587923e-02 -1.783322e-01 6.265990e-02 -2.313568e-01 -2.968432e-01 9.888022e-02 3.600855e-01 3.020439e-01 -1.997597e-01 -1.749346e-01 6.382835e-02 2.948098e-01 2.106263e-01
<VARIANCE> 39
 4.887283e+00 1.538788e+01 2.267033e+01 4.165404e+01 2.949520e+01 4.498896e+01 4.363203e+01 7.742467e+01 5.633792e+01 3.820243e+01 5.527328e+01 3.501447e+01 1.377225e+01 2.445057e-01 7.649732e-01 8.213239e-01 1.438633e+00 1.406699e+00 1.712304e+00 1.433598e+00 2.319156e+00 1.926519e+00 1.476666e+00 1.678667e+00 1.349483e+00 5.471990e-01 3.577993e-02 1.087498e-01 9.724297e-02 1.585313e-01 2.484623e-01 1.905666e-01 2.317280e-01 3.005597e-01 2.959342e-01 2.134958e-01 2.732117e-01 2.106605e-01 8.590301e-02
<GCONST> 9.435253e+01
<MIXTURE> 2 6.695441e-02
<MEAN> 39
 -8.598947e+00 -3.670428e-01 7.637642e+00 3.463795e-02 2.423059e+00 -1.086389e+00 -2.884690e-01 4.265709e-01 -2.092448e+00 -2.136847e+00 -1.497252e+00 -7.530041e-01 6.070951e+01 -4.142266e-01 -1.589907e+00 -6.995848e-01 -2.020796e+00 -2.670736e+00 -3.004855e+00 -1.382884e+00 1.019722e+00 -4.727611e-01 9.572470e-03 1.518444e+00 1.267846e+00 3.815268e+00 7.816673e-01 -1.546078e-01 2.838533e-01 -1.164075e-01 -1.646063e+00 -7.406772e-01 -7.318997e-01 -2.811071e-01 -3.078582e-01 1.520115e-01 2.473207e-01 -4.070930e-01 5.135972e-01
<VARIANCE> 39
 1.150787e+01 1.367365e+01 1.810402e+01 2.230353e+01 2.430024e+01 3.393718e+01 2.761142e+01 1.910407e+01 1.951723e+01 1.985272e+01 2.084344e+01 2.025534e+01 2.965825e+01 1.697422e+00 1.351240e+00 3.104709e+00 2.894922e+00 5.345955e+00 4.493272e+00 4.060476e+00 3.875072e+00 4.289420e+00 3.297506e+00 2.351978e+00 2.658726e+00 1.241431e+00 2.456245e-01 4.461524e-01 5.855671e-01 6.433331e-01 6.852922e-01 9.831381e-01 7.330438e-01 7.634130e-01 7.240162e-01 6.790372e-01 6.258362e-01 7.349471e-01 3.778385e-01
<GCONST> 1.181514e+02
<MIXTURE> 3 8.069734e-02
<MEAN> 39
 -5.559626e+00 7.908506e-01 5.233931e+00 -1.939818e+00 -4.199655e+00 -7.644158e+00 -6.722038e+00 -3.325128e+00 -2.967214e+00 -1.802237e+00 -1.552274e+00 -1.995452e+00 6.517802e+01 3.619722e-01 -2.168681e+00 -4.341231e-01 -2.621817e+00 -2.832537e+00 -2.374738e+00 -1.244759e+00 9.109921e-01 3.014227e-01 8.326808e-01 1.010534e+00 9.091471e-01 3.527343e+00 2.674016e-01 -4.840350e-01 2.163495e-01 -5.680046e-01 -6.995414e-01 -3.061334e-02 1.214135e-01 1.505539e-01 -6.804361e-03 3.474959e-01 -1.031108e-01 -2.925607e-02 2.850203e-01
<VARIANCE> 39
 1.105193e+01 1.141606e+01 1.656121e+01 2.600381e+01 2.215773e+01 3.325088e+01 3.112288e+01 2.556338e+01 2.554437e+01 2.490240e+01 2.155283e+01 2.370264e+01 1.774754e+01 3.240846e+00 1.887158e+00 3.653710e+00 4.053879e+00 6.731552e+00 6.633266e+00 5.915919e+00 5.458263e+00 5.830738e+00 4.039435e+00 3.932643e+00 3.903253e+00 1.856582e+00 2.997529e-01 2.893638e-01 4.636626e-01 6.255559e-01 4.703130e-01 6.336887e-01 7.741422e-01 6.883202e-01 6.014355e-01 5.175521e-01 5.223417e-01 6.688683e-01 2.444825e-01
<GCONST> 1.205684e+02
<MIXTURE> 4 7.260831e-02
<MEAN> 39
 -2.562407e+00 -4.833147e+00 8.967026e-01 -6.081690e+00 -1.270227e+01 -1.680351e+01 -3.575457e+00 -6.588750e-01 1.523527e+00 -5.510657e+00 -5.308382e+00 3.341884e+00 7.079508e+01 -3.400214e-01 2.029685e-02 1.107875e+00 -1.243353e-01 -1.379560e+00 -1.796633e-01 1.005157e+00 1.316997e-01 -9.753404e-01 1.434714e-02 1.097162e+00 3.544070e-01 2.479740e-01 -1.194974e-01 -1.310042e-01 1.328485e-01 -4.286259e-01 -1.296437e-01 4.002199e-01 2.138075e-01 -9.887046e-02 -2.695797e-01 3.971422e-01 1.007461e-01 -3.887757e-01 2.093512e-01
<VARIANCE> 39
 8.988232e+00 1.689180e+01 3.522842e+01 5.036177e+01 4.072882e+01 3.090737e+01 4.521302e+01 3.495780e+01 4.444429e+01 3.863146e+01 3.424508e+01 3.107356e+01 1.421435e+01 2.457429e-01 6.224799e-01 8.036844e-01 1.015803e+00 1.651483e+00 1.064008e+00 1.912652e+00 1.403664e+00 1.650627e+00 1.490263e+00 1.041021e+00 1.196329e+00 5.525104e-01 4.066909e-02 6.501511e-02 9.584998e-02 1.536355e-01 1.899342e-01 1.681974e-01 3.039650e-01 2.006487e-01 2.103387e-01 1.868508e-01 1.737160e-01 1.673482e-01 6.662667e-02
<GCONST> 8.987669e+01
<MIXTURE> 5 6.992343e-02
<MEAN> 39
 -1.078343e+01 -3.196388e+00 5.618546e+00 -3.174843e+00 1.302306e+00 -3.265248e-01 -6.671447e-01 1.527638e+00 -1.754359e+00 -9.629084e-01 1.060826e+00 6.269341e-02 6.264507e+01 -7.922075e-02 -1.135120e+00 -6.226978e-01 -2.824813e+00 -2.852202e+00 -2.528512e+00 -1.390682e+00 -8.952765e-02 -3.791054e-01 4.943655e-01 7.759703e-01 6.668969e-01 3.962863e+00 9.753782e-01 3.081999e-01 3.322061e-01 -2.536793e-01 -1.345446e+00 -6.374262e-01 -6.156874e-01 -8.036106e-01 -1.659224e-01 5.640937e-02 -4.347338e-01 -1.833378e-01 2.367307e-01
<VARIANCE> 39
 1.457739e+01 1.995405e+01 3.108186e+01 3.551590e+01 2.641131e+01 3.225933e+01 3.710257e+01 2.397717e+01 2.808579e+01 2.747630e+01 2.504383e+01 2.580840e+01 2.523329e+01 2.048921e+00 2.071071e+00 3.396084e+00 3.716237e+00 6.734560e+00 4.386288e+00 4.540549e+00 4.275689e+00 4.402198e+00 3.689019e+00 3.238357e+00 2.679565e+00 1.832475e+00 3.075263e-01 5.340966e-01 1.165462e+00 9.255244e-01 6.942253e-01 9.743366e-01 9.626126e-01 8.829031e-01 8.629513e-01 9.170426e-01 8.120484e-01 8.156562e-01 4.619760e-01
<GCONST> 1.264270e+02
<MIXTURE> 6 6.024620e-02
<MEAN> 39
 -7.521835e+00 -4.668536e-01 4.026465e+00 -4.428692e+00 -5.039045e+00 -6.726567e+00 -3.917887e+00 -3.298240e+00 -3.864389e+00 -2.922504e+00 -1.219136e+00 -1.264523e+00 6.666712e+01 -2.911132e-01 -2.441928e+00 -9.417581e-01 -3.998195e+00 -2.893753e+00 -1.909551e+00 1.504207e-01 1.222607e+00 7.679629e-01 1.199193e+00 4.334117e-01 8.459008e-01 4.170832e+00 5.807699e-01 -3.947903e-01 3.494276e-01 -7.016470e-01 -6.488629e-01 -2.385021e-01 -1.071505e-01 -8.643771e-02 5.863120e-02 3.148134e-01 -5.424032e-01 8.666105e-02 1.594500e-01
<VARIANCE> 39
 1.043599e+01 1.243092e+01 1.890540e+01 2.231298e+01 3.042876e+01 3.563583e+01 2.600403e+01 2.502767e+01 2.521925e+01 2.149089e+01 2.276932e+01 2.001518e+01 1.466375e+01 2.026004e+00 1.751244e+00 4.366086e+00 2.871524e+00 7.457618e+00 5.664127e+00 5.175617e+00 5.944400e+00 4.495033e+00 4.331180e+00 3.814224e+00 2.932655e+00 1.707088e+00 2.535391e-01 3.390100e-01 5.835715e-01 5.914764e-01 6.134265e-01 7.749032e-01 7.309895e-01 6.543620e-01 6.863423e-01 5.838996e-01 5.068967e-01 7.011703e-01 2.512226e-01
<GCONST> 1.197108e+02
<MIXTURE> 7 5.053137e-02
<MEAN> 39
 -2.194956e+00 -2.969832e+00 3.597505e+00 -3.139627e+00 -1.031429e+01 -1.385823e+01 -8.367153e+00 -1.453356e+00 -7.607163e-01 -5.753419e+00 -3.863326e+00 2.803143e+00 6.649254e+01 -3.704771e-01 -7.508078e-01 6.458983e-01 -1.287020e+00 -2.435216e+00 -5.059572e-01 1.451069e+00 4.550503e-01 -8.043907e-01 3.345748e-01 1.299145e+00 2.360833e-01 1.461057e+00 -1.698663e-01 -4.285438e-01 -1.030137e-01 -1.039794e+00 -6.146500e-01 3.316891e-01 5.323837e-01 -3.324099e-03 -1.031857e-01 4.324933e-01 1.013484e-01 -4.846365e-01 7.405465e-01
<VARIANCE> 39
 5.902832e+00 1.295164e+01 1.808128e+01 3.064542e+01 3.362393e+01 2.110622e+01 2.881174e+01 2.454207e+01 3.333473e+01 3.018252e+01 2.751942e+01 2.789589e+01 1.075977e+01 5.233612e-01 1.332776e+00 1.579909e+00 2.660483e+00 3.033609e+00 2.002087e+00 2.252458e+00 2.645975e+00 2.066322e+00 2.356349e+00 1.756492e+00 2.124106e+00 1.711389e+00 8.040273e-02 1.300634e-01 2.460245e-01 3.561420e-01 3.959599e-01 3.276934e-01 4.459468e-01 4.254380e-01 3.297662e-01 3.001575e-01 3.576773e-01 2.606287e-01 1.822545e-01
<GCONST> 1.024043e+02
<MIXTURE> 8 4.946756e-02
<MEAN> 39
 -1.787169e+00 -5.059904e+00 -3.004258e-01 -1.030665e+01 -5.573344e+00 -1.349148e+01 -1.215659e+01 -4.220812e+00 5.075996e+00 1.963122e+00 -5.615380e+00 -3.273405e+00 7.132059e+01 -1.656085e-01 -6.490443e-01 7.321569e-01 5.098839e-01 -1.469766e+00 -1.225393e+00 5.964091e-01 1.552248e+00 1.796717e-02 -8.654545e-01 -1.974201e-01 1.127154e+00 5.903161e-01 -7.870712e-02 -1.749839e-01 9.305371e-02 -2.390407e-01 -3.737673e-01 1.766034e-01 3.962200e-01 3.663286e-01 -4.238388e-01 -1.272149e-01 3.638427e-01 1.545997e-01 2.157289e-01
<VARIANCE> 39
 9.690929e+00 1.627314e+01 3.308286e+01 4.928987e+01 4.717783e+01 3.765322e+01 5.124240e+01 6.294744e+01 4.771224e+01 5.196614e+01 5.983764e+01 3.187720e+01 1.530678e+01 3.104535e-01 8.819730e-01 8.447717e-01 1.620050e+00 1.750782e+00 1.812236e+00 1.955366e+00 2.568977e+00 2.236742e+00 1.375193e+00 1.675468e+00 1.416311e+00 7.193563e-01 4.488153e-02 9.617167e-02 1.162785e-01 2.064062e-01 2.407100e-01 2.192674e-01 2.935969e-01 2.926383e-01 2.935806e-01 2.115937e-01 2.578644e-01 1.838298e-01 8.040216e-02
<GCONST> 9.831949e+01
<MIXTURE> 9 6.820983e-02
<MEAN> 39
 -8.673323e+00 -6.155245e-01 6.801060e+00 -6.796660e-01 1.284320e+00 -1.769153e+00 -1.081613e+00 -3.249464e-01 -2.743121e+00 -2.741782e+00 -1.864264e+00 -1.063174e+00 6.142268e+01 -3.516775e-01 -1.600944e+00 -6.980889e-01 -2.116603e+00 -3.140174e+00 -2.919240e+00 -1.347787e+00 5.565496e-01 -6.824938e-01 -1.058491e-02 1.270566e+00 9.918336e-01 3.962873e+00 7.380311e-01 -1.473661e-01 2.305257e-01 -2.573265e-01 -1.695082e+00 -6.860664e-01 -6.973183e-01 -3.207043e-01 -2.864224e-01 1.579839e-01 7.991015e-02 -3.412868e-01 5.333425e-01
<VARIANCE> 39
 1.167329e+01 1.372316e+01 1.892503e+01 2.261179e+01 2.314530e+01 3.301670e+01 2.664918e+01 1.876771e+01 1.955822e+01 1.971982e+01 1.967484e+01 2.057228e+01 2.629050e+01 1.714567e+00 1.376812e+00 3.323769e+00 3.024461e+00 5.594742e+00 4.354249e+00 4.142826e+00 3.959510e+00 4.309006e+00 3.446699e+00 2.573184e+00 2.598929e+00 1.247182e+00 2.366987e-01 4.148478e-01 6.220576e-01 7.186691e-01 6.932089e-01 9.466330e-01 7.493528e-01 7.557421e-01 7.167395e-01 6.747391e-01 6.800913e-01 7.147014e-01 3.822391e-01
<GCONST> 1.183449e+02
<MIXTURE> 10 6.901570e-02
<MEAN> 39
 -1.103679e+01 -3.376220e+00 4.703823e+00 -3.990751e+00 2.862412e-01 -8.896552e-01 -8.213028e-01 5.203316e-01 -2.594302e+00 -1.345729e+00 6.468709e-01 -1.822765e-01 6.299677e+01 -6.203456e-02 -1.101585e+00 -6.976112e-01 -3.112323e+00 -3.257898e+00 -2.644157e+00 -1.373836e+00 -4.941169e-01 -6.641601e-01 3.839959e-01 2.793059e-01 4.807269e-01 4.271123e+00 9.136364e-01 2.621963e-01 3.309743e-01 -3.970950e-01 -1.368690e+00 -6.702256e-01 -6.686973e-01 -7.787837e-01 -1.375061e-01 5.305950e-03 -6.605285e-01 -1.656724e-01 2.977324e-01
<VARIANCE> 39
