~o
<STREAMINFO> 1 39
<VECSIZE> 39<NULLD><MFCC_D_A_0><DIAGC>
~s "silst"
<NUMMIXES> 32
<MIXTURE> 1 3.344122e-02
<MEAN> 39
 -1.127221e+01 -3.923085e+00 5.220898e+00 2.383739e+00 2.850258e+00 6.084403e+00 6.142874e+00 3.335184e+00 4.345984e+00 4.236608e+00 5.595684e+00 5.265689e+00 4.866959e+01 -4.640539e-02 -2.704783e-02 -8.434638e-04 5.612921e-02 7.185525e-03 1.290306e-01 1.716687e-01 1.012259e-01 1.487581e-01 8.701200e-02 1.032648e-01 6.056760e-02 -9.647483e-02 -2.727977e-02 2.809294e-02 -5.501547e-02 -8.750877e-02 1.251180e-02 -1.083722e-01 -1.568305e-01 -3.228194e-02 -7.348891e-02 -3.130826e-02 -1.135953e-01 -7.450283e-02 1.308750e-01
<VARIANCE> 39
 1.513241e+00 2.535327e+00 3.457395e+00 5.086143e+00 6.842911e+00 8.897635e+00 1.054231e+01 1.089957e+01 1.010606e+01 1.137756e+01 1.160336e+01 1.033372e+01 4.441494e+00 2.582776e-01 3.198206e-01 4.410975e-01 5.921205e-01 8.356889e-01 8.782883e-01 1.084734e+00 1.200817e+00 1.284670e+00 1.362748e+00 1.222137e+00 1.062780e+00 1.432730e-01 4.782993e-02 5.669706e-02 7.772537e-02 1.080297e-01 1.548529e-01 1.897172e-01 2.233944e-01 2.382185e-01 2.278042e-01 2.478225e-01 2.216761e-01 2.006492e-01 2.625611e-02
<GCONST> 6.398386e+01
<MIXTURE> 2 1.385363e-02
<MEAN> 39
 -1.385703e+01 -3.176325e+00 5.647293e+00 1.337413e-01 3.051415e+00 1.903218e+00 3.050705e+00 2.798147e+00 -1.468464e+00 -1.271336e-01 1.691038e+00 2.256935e+00 5.691346e+01 -3.302712e-01 -4.922269e-01 -1.369863e-01 8.863880e-02 2.875853e-01 3.402625e-01 5.723370e-01 7.182224e-01 4.742132e-01 5.183666e-01 7.687086e-01 4.876110e-01 -4.203280e-01 4.258213e-01 -2.094456e-01 -1.737557e-01 -4.043789e-02 -2.437410e-01 1.694217e-01 -4.248702e-02 -9.275176e-02 4.348714e-01 2.361412e-01 1.521766e-01 1.403090e-01 -3.213757e-01
<VARIANCE> 39
 3.677334e+01 2.373021e+01 2.718086e+01 3.054765e+01 3.958462e+01 3.652592e+01 4.494880e+01 4.022405e+01 2.856628e+01 3.133831e+01 2.939391e+01 2.150551e+01 1.457244e+01 1.431359e+00 1.076378e+00 1.386973e+00 1.589375e+00 2.127076e+00 2.100118e+00 2.323691e+00 2.381091e+00 2.753399e+00 2.533633e+00 2.158791e+00 1.903400e+00 1.022823e+00 5.194331e-01 3.782183e-01 4.898215e-01 6.060800e-01 6.865785e-01 6.558973e-01 7.468120e-01 6.488887e-01 5.182564e-01 5.439245e-01 4.939376e-01 4.080867e-01 2.715753e-01
<GCONST> 1.151453e+02
<MIXTURE> 3 4.445455e-02
<MEAN> 39
 -1.128576e+01 -3.529267e+00 5.862054e+00 2.979137e+00 3.969627e+00 5.503755e+00 4.210030e+00 1.272567e+00 1.637656e+00 7.053730e-01 1.001327e+00 2.436063e+00 5.075113e+01 -9.566271e-02 -1.575969e-01 -9.760806e-02 -4.335054e-02 -1.995997e-03 2.043597e-01 2.778348e-01 2.927611e-01 3.840508e-01 3.085135e-01 2.754937e-01 9.723561e-02 -1.041131e-01 2.527924e-02 -8.508915e-02 -1.608409e-01 -2.655345e-01 -2.277876e-01 -1.538126e-01 -5.941597e-02 1.216464e-01 2.493145e-01 3.071505e-01 3.582163e-01 1.932577e-01 8.737598e-02
<VARIANCE> 39
 3.603038e+00 4.333313e+00 5.301926e+00 6.197744e+00 9.525950e+00 1.000073e+01 1.240553e+01 1.339475e+01 1.203882e+01 1.423733e+01 1.208973e+01 1.188269e+01 4.234165e+00 3.122898e-01 3.856454e-01 4.858219e-01 6.516475e-01 9.129362e-01 9.744491e-01 1.182228e+00 1.298724e+00 1.402372e+00 1.491058e+00 1.298257e+00 1.130819e+00 1.495062e-01 7.087687e-02 8.233209e-02 9.965842e-02 1.341467e-01 1.938965e-01 2.128042e-01 2.493064e-01 2.660677e-01 2.528238e-01 2.795247e-01 2.249188e-01 2.310004e-01 3.843874e-02
<GCONST> 7.118276e+01
<MIXTURE> 4 1.917773e-02
<MEAN> 39
 -1.057055e+01 -4.787961e+00 3.524742e+00 -7.464833e-01 3.621921e-01 2.796183e+00 3.238364e+00 3.652086e+00 4.442188e+00 3.956327e+00 4.508083e+00 4.354402e+00 5.281517e+01 -6.599560e-01 -9.255260e-02 2.666181e-01 8.121895e-01 6.684531e-01 6.524537e-01 7.299336e-01 2.659583e-01 3.964425e-01 4.636891e-01 5.757190e-01 4.500868e-01 -8.717376e-01 4.020851e-02 1.933825e-02 2.362169e-02 -3.708465e-02 2.808616e-02 2.481103e-02 -1.191613e-01 -1.847556e-01 -3.120847e-01 -2.884517e-01 -2.249195e-01 -1.519145e-01 2.339944e-01
<VARIANCE> 39
 7.384101e+00 8.212144e+00 1.313274e+01 1.795090e+01 2.331775e+01 2.195157e+01 2.341947e+01 2.538624e+01 2.384233e+01 2.252299e+01 2.048832e+01 1.796428e+01 6.413756e+00 2.567230e+00 2.181112e+00 3.258450e+00 4.855249e+00 4.979258e+00 4.633120e+00 4.504514e+00 3.967908e+00 3.899848e+00 3.668756e+00 3.234290e+00 2.741434e+00 2.953432e+00 1.609401e-01 1.397702e-01 1.969151e-01 2.888179e-01 3.382866e-01 3.408630e-01 4.110082e-01 4.064808e-01 4.297051e-01 3.874852e-01 3.703810e-01 3.208220e-01 1.583164e-01
<GCONST> 1.079784e+02
<MIXTURE> 5 3.481260e-02
<MEAN> 39
 -1.145183e+01 -3.511694e+00 4.912391e+00 1.290197e+00 2.542385e+00 3.259233e+00 2.348807e+00 9.030705e-01 1.254987e+00 1.989184e+00 2.906611e+00 3.970472e+00 5.230312e+01 3.659673e-02 3.474473e-02 2.311836e-01 3.173421e-01 5.005836e-02 1.926532e-01 1.514411e-01 -1.546142e-01 5.957779e-02 -3.523530e-02 -7.903157e-02 -9.800493e-02 -2.725878e-01 -7.609294e-03 -1.649818e-01 -9.110364e-02 -8.374570e-02 -4.037778e-03 1.338134e-01 1.814245e-01 2.140284e-01 2.509994e-01 6.641353e-02 5.624972e-02 -4.498457e-02 2.702526e-02
<VARIANCE> 39
 5.969989e+00 6.648161e+00 7.230473e+00 8.180577e+00 1.232007e+01 1.118074e+01 1.411001e+01 1.511461e+01 1.371235e+01 1.509330e+01 1.326000e+01 1.248629e+01 4.556503e+00 4.880258e-01 5.900989e-01 6.778352e-01 8.603173e-01 1.187535e+00 1.255816e+00 1.444229e+00 1.501263e+00 1.560908e+00 1.566022e+00 1.409885e+00 1.252149e+00 2.841030e-01 1.038422e-01 1.077407e-01 1.267907e-01 1.519885e-01 2.211051e-01 2.187431e-01 2.516281e-01 2.776549e-01 2.575664e-01 2.721277e-01 2.283195e-01 2.324658e-01 5.348776e-02
<GCONST> 7.862343e+01
<MIXTURE> 6 3.596035e-02
<MEAN> 39
 -1.191143e+01 -4.185863e+00 3.951263e+00 8.439136e-01 2.728891e+00 4.591081e+00 4.446669e+00 3.901484e+00 4.850976e+00 4.911526e+00 4.755541e+00 4.301196e+00 5.121455e+01 -1.693810e-01 -1.774618e-02 -8.473415e-02 -4.228208e-02 4.777958e-02 1.113102e-01 8.697516e-02 1.979669e-01 1.751225e-01 3.272130e-01 1.780391e-01 1.288543e-01 -3.214149e-02 6.397601e-02 -2.434217e-02 9.586987e-02 7.483811e-02 1.526517e-02 1.400645e-02 -3.126945e-02 -1.639521e-01 -1.986364e-01 -2.598135e-01 -1.218600e-01 -2.047094e-02 1.633073e-02
<VARIANCE> 39
 3.857302e+00 4.553741e+00 5.284542e+00 6.172729e+00 9.628498e+00 9.536873e+00 1.276884e+01 1.416426e+01 1.268396e+01 1.382246e+01 1.220749e+01 1.117288e+01 4.014516e+00 6.995290e-01 7.565172e-01 7.921847e-01 1.057482e+00 1.389315e+00 1.388392e+00 1.598759e+00 1.787287e+00 1.867767e+00 1.797356e+00 1.519087e+00 1.317539e+00 4.356712e-01 7.484706e-02 8.126459e-02 9.396650e-02 1.198526e-01 1.838723e-01 1.948801e-01 2.432614e-01 2.669408e-01 2.547423e-01 2.654696e-01 2.241604e-01 2.143617e-01 4.012575e-02
<GCONST> 7.658839e+01
<MIXTURE> 7 4.178236e-02
<MEAN> 39
 -1.357169e+01 -5.260148e+00 2.576293e+00 -1.278628e+00 3.150434e+00 2.956474e+00 2.896681e+00 5.435634e+00 2.482505e+00 4.152841e+00 4.431043e+00 4.921566e+00 5.501083e+01 -4.567937e-02 -8.972084e-03 7.894904e-02 6.083266e-02 2.122032e-02 2.678461e-02 8.643389e-02 1.413688e-01 1.265857e-01 2.310554e-01 1.249369e-01 6.720205e-02 -1.595947e-01 2.966574e-01 -1.915145e-03 2.345172e-01 2.259852e-01 -1.034203e-01 1.163115e-01 7.369397e-02 -3.571896e-01 4.378504e-02 -2.607211e-01 -1.183780e-01 -1.413786e-01 -2.618520e-01
<VARIANCE> 39
 1.133796e+01 1.995332e+01 1.585867e+01 2.390625e+01 2.752262e+01 2.886670e+01 2.944995e+01 2.429776e+01 2.819977e+01 2.732824e+01 2.312608e+01 1.808570e+01 9.425296e+00 4.251339e-01 5.270777e-01 6.515765e-01 8.780242e-01 1.037427e+00 1.197728e+00 1.300838e+00 1.418818e+00 1.472803e+00 1.459695e+00 1.265178e+00 1.106816e+00 3.739550e-01 1.620757e-01 2.724620e-01 2.361280e-01 3.974757e-01 4.393957e-01 4.644559e-01 4.877538e-01 4.167028e-01 4.866660e-01 4.569058e-01 3.938716e-01 3.315721e-01 1.175839e-01
<GCONST> 9.576015e+01
<MIXTURE> 8 3.221106e-02
<MEAN> 39
 -1.082528e+01 -4.341856e+00 5.036292e+00 2.185258e+00 2.689894e+00 5.492589e+00 4.749253e+00 2.271168e+00 3.822502e+00 2.841876e+00 3.568184e+00 3.910998e+00 5.031235e+01 -4.583080e-01 -6.130354e-02 -1.738926e-01 -8.675209e-02 7.630618e-02 -2.934467e-03 1.488189e-01 2.720934e-01 1.228445e-01 2.419368e-01 2.687917e-01 1.415900e-01 1.843387e-01 -1.173436e-01 5.260561e-03 -1.620100e-01 -4.239644e-01 -1.785326e-01 -3.430030e-01 -3.158245e-01 8.309239e-02 -1.613944e-01 -3.447452e-02 -2.485159e-02 -4.491905e-02 5.676966e-01
<VARIANCE> 39
 1.915073e+00 3.791147e+00 5.626638e+00 6.536189e+00 8.730654e+00 1.023432e+01 1.279419e+01 1.414192e+01 1.304882e+01 1.478247e+01 1.364889e+01 1.202871e+01 4.856504e+00 1.483539e+00 1.395205e+00 1.814332e+00 2.692770e+00 2.549441e+00 2.656558e+00 2.750861e+00 2.425288e+00 2.275038e+00 2.272107e+00 2.029317e+00 1.770225e+00 1.639865e+00 2.844660e-01 2.111138e-01 2.813841e-01 3.096381e-01 4.231154e-01 3.677025e-01 4.404849e-01 4.326505e-01 3.926962e-01 4.048764e-01 3.674174e-01 3.186046e-01 1.132772e-01
<GCONST> 9.350625e+01
<MIXTURE> 9 4.544449e-02
<MEAN> 39
 -1.116299e+01 -3.799191e+00 5.595113e+00 2.392773e+00 3.404262e+00 5.155884e+00 3.906506e+00 1.015648e+00 1.653267e+00 5.867169e-01 9.677299e-01 2.392863e+00 5.117999e+01 -3.345383e-02 2.845188e-02 1.000748e-01 1.059321e-01 4.163074e-02 8.904915e-02 6.876828e-02 -1.286098e-02 -2.618119e-02 -7.277609e-02 -5.986619e-02 -4.193826e-02 -7.637822e-02 -6.972378e-03 -6.366350e-02 -1.295334e-01 -2.050480e-01 -1.596308e-01 -1.310770e-01 -4.683138e-02 1.310931e-01 2.061455e-01 2.772722e-01 3.159887e-01 1.691857e-01 8.750638e-02
<VARIANCE> 39
 3.228614e+00 4.061425e+00 5.601208e+00 6.277696e+00 9.660691e+00 9.641268e+00 1.167760e+01 1.314373e+01 1.246430e+01 1.365993e+01 1.110376e+01 1.125681e+01 4.102280e+00 2.970444e-01 3.750555e-01 4.591704e-01 6.188350e-01 9.027086e-01 9.936717e-01 1.171773e+00 1.299123e+00 1.378888e+00 1.446315e+00 1.239056e+00 1.102715e+00 1.484911e-01 7.082086e-02 8.208635e-02 1.032793e-01 1.368314e-01 1.961907e-01 2.132770e-01 2.392135e-01 2.656032e-01 2.545799e-01 2.717458e-01 2.107274e-01 2.229822e-01 4.146444e-02
<GCONST> 7.046082e+01
<MIXTURE> 10 3.425774e-02
<MEAN> 39
 -1.066198e+01 -4.145737e+00 4.915568e+00 5.895901e-01 1.515984e+00 3.069211e+00 2.299737e+00 4.175662e-01 1.030281e+00 1.092196e+00 2.700994e+00 3.564472e+00 5.274067e+01 5.568698e-02 2.477171e-01 3.616490e-01 4.305652e-01 6.962702e-02 6.641462e-02 -5.407681e-02 -3.973354e-01 -2.493345e-01 -2.875326e-01 -3.231121e-01 -1.777379e-01 -2.523333e-01 -1.167361e-01 -9.552018e-02 -1.024902e-01 -4.721319e-02 9.931569e-02 1.053298e-01 1.365392e-01 2.479751e-01 2.056700e-01 1.262923e-01 3.485306e-02 -3.072519e-02 6.792326e-02
<VARIANCE> 39
 5.257415e+00 6.433320e+00 8.243848e+00 8.789249e+00 1.205511e+01 1.163499e+01 1.362234e+01 1.455966e+01 1.423293e+01 1.437533e+01 1.367530e+01 1.271977e+01 5.052004e+00 4.856407e-01 6.076669e-01 7.462891e-01 8.957522e-01 1.199872e+00 1.321728e+00 1.441399e+00 1.498661e+00 1.538251e+00 1.558452e+00 1.417548e+00 1.325991e+00 3.073764e-01 9.668905e-02 1.040846e-01 1.302740e-01 1.602634e-01 2.176777e-01 2.240253e-01 2.513215e-01 2.569978e-01 2.567999e-01 2.566238e-01 2.304188e-01 2.286140e-01 5.653075e-02
<GCONST> 7.898388e+01
<MIXTURE> 11 4.357194e-02
<MEAN> 39
 -1.123575e+01 -4.729678e+00 3.918436e+00 3.425787e-01 1.989549e+00 4.213998e+00 3.751262e+00 2.777315e+00 4.308902e+00 3.898613e+00 4.410380e+00 4.215384e+00 5.178247e+01 -3.037300e-01 1.821155e-01 -7.260066e-02 -6.859948e-02 1.002772e-01 -1.194327e-01 -1.210894e-01 1.706647e-01 -6.207177e-02 3.136665e-01 3.043335e-02 5.569055e-02 1.227381e-01 -2.619064e-02 2.147486e-02 9.408332e-02 1.059914e-01 9.189408e-02 1.983361e-02 -2.785986e-03 -5.365213e-02 -1.752448e-01 -1.912472e-01 -1.503790e-01 -5.717706e-02 3.637875e-02
<VARIANCE> 39
 3.136652e+00 4.064640e+00 5.858811e+00 6.312753e+00 9.327522e+00 9.370599e+00 1.155977e+01 1.317505e+01 1.261194e+01 1.346721e+01 1.141487e+01 1.116831e+01 3.944301e+00 8.494676e-01 9.289391e-01 1.015765e+00 1.339228e+00 1.646500e+00 1.603185e+00 1.763063e+00 2.032894e+00 2.039869e+00 1.944860e+00 1.609323e+00 1.395957e+00 6.069469e-01 7.301302e-02 8.027200e-02 9.784176e-02 1.255533e-01 1.812855e-01 1.917879e-01 2.287746e-01 2.442092e-01 2.433989e-01 2.533474e-01 2.163699e-01 2.141704e-01 4.200490e-02
<GCONST> 7.788052e+01
<MIXTURE> 12 4.338002e-02
<MEAN> 39
 -1.103321e+01 -4.438696e+00 4.811691e+00 1.306949e+00 2.168487e+00 5.260347e+00 5.407089e+00 3.284526e+00 4.923625e+00 3.674661e+00 4.389846e+00 4.330385e+00 5.014891e+01 -2.551048e-02 3.805914e-02 1.005075e-01 1.152567e-01 2.887502e-02 1.024965e-01 1.004345e-01 -2.721138e-02 1.157955e-02 -6.097103e-02 -4.958200e-02 -5.072992e-03 -1.042590e-01 -3.437367e-02 4.489788e-02 -8.475501e-03 1.119829e-02 8.033279e-02 -6.616478e-02 -1.608435e-01 -1.001286e-01 -1.907449e-01 -8.210916e-02 -9.102714e-02 -4.220812e-02 9.957746e-02
<VARIANCE> 39
 1.581185e+00 2.683090e+00 4.206517e+00 4.769285e+00 7.269049e+00 8.424933e+00 1.048865e+01 1.125283e+01 1.043265e+01 1.140519e+01 1.083408e+01 1.005975e+01 3.439923e+00 2.457285e-01 3.229422e-01 4.466227e-01 5.901153e-01 8.155529e-01 8.946937e-01 1.097412e+00 1.187117e+00 1.260339e+00 1.341887e+00 1.174605e+00 1.042497e+00 1.309216e-01 4.592011e-02 5.888331e-02 7.846476e-02 1.028003e-01 1.525233e-01 1.787907e-01 2.181849e-01 2.151044e-01 2.198939e-01 2.310369e-01 2.092885e-01 1.994688e-01 2.440680e-02
<GCONST> 6.322655e+01
<MIXTURE> 13 3.048350e-02
<MEAN> 39
 -1.062136e+01 -8.748070e+00 1.574619e+00 -2.256659e+00 2.115859e+00 3.047583e+00 1.659398e+00 4.306753e+00 3.154326e+00 1.606562e+00 3.893397e+00 4.157805e+00 5.657842e+01 1.262687e-02 1.197156e-01 1.482924e-01 1.924826e-01 3.846381e-02 9.897009e-02 1.593999e-01 -1.150599e-01 7.971866e-02 1.494263e-01 7.659691e-02 4.836836e-02 -4.131366e-01 -3.398269e-02 2.795820e-01 2.173648e-01 1.989800e-01 -4.135215e-03 -3.409876e-03 9.071717e-02 -1.405657e-01 -9.400032e-02 -2.963890e-02 -9.175753e-02 -8.945134e-02 -1.689036e-01
<VARIANCE> 39
 1.247670e+01 1.630089e+01 2.448029e+01 2.680898e+01 3.366813e+01 3.687066e+01 3.610775e+01 3.441457e+01 3.785978e+01 3.566890e+01 3.124780e+01 2.694352e+01 1.254386e+01 5.299177e-01 9.344426e-01 1.084503e+00 1.296373e+00 1.433864e+00 1.725513e+00 1.826975e+00 1.910588e+00 1.855274e+00 1.876591e+00 1.726547e+00 1.514929e+00 5.333493e-01 1.294298e-01 1.840826e-01 2.830944e-01 3.578595e-01 4.018207e-01 4.724981e-01 5.057886e-01 4.776276e-01 4.914164e-01 4.625310e-01 4.439505e-01 4.011051e-01 1.284507e-01
<GCONST> 1.032073e+02
<MIXTURE> 14 2.405276e-02
<MEAN> 39
 -1.034614e+01 -4.327620e+00 3.929929e+00 5.441049e-01 3.909222e+00 4.405033e+00 3.264232e+00 2.581013e+00 -9.559230e-01 -7.111669e-01 -1.023579e-01 1.214081e+00 5.557795e+01 -6.118966e-01 -4.686209e-01 -3.755377e-01 -2.175932e-01 1.914004e-01 2.030962e-01 5.474292e-01 6.956162e-01 7.589390e-01 9.082845e-01 8.527163e-01 7.493209e-01 -4.462290e-01 1.450142e-01 -2.736294e-02 -1.817589e-03 -1.500534e-01 -3.325403e-01 -2.028924e-01 -1.604926e-01 -1.234668e-01 2.357846e-01 1.394728e-01 2.332111e-01 1.457110e-01 -5.845957e-03
<VARIANCE> 39
 1.801970e+01 1.558826e+01 2.063289e+01 2.060961e+01 2.772102e+01 2.502975e+01 2.567465e+01 3.048787e+01 2.787399e+01 2.962469e+01 2.546887e+01 2.116302e+01 8.658063e+00 8.941990e-01 9.739940e-01 1.227080e+00 1.388163e+00 1.956031e+00 1.870715e+00 2.031597e+00 2.046346e+00 2.295622e+00 2.323204e+00 2.103965e+00 1.945187e+00 6.262085e-01 1.431770e-01 1.723894e-01 2.092860e-01 2.732983e-01 3.151042e-01 3.330756e-01 3.628127e-01 3.871190e-01 3.934204e-01 4.015463e-01 3.674368e-01 3.270235e-01 6.678419e-02
<GCONST> 1.000185e+02
<MIXTURE> 15 2.181993e-02
<MEAN> 39
 -1.497139e+01 -4.845166e+00 3.571636e+00 -2.278750e+00 6.062796e-01 1.213646e+00 2.053174e+00 3.682757e+00 2.866985e+00 3.623860e+00 4.439064e+00 4.397706e+00 5.793764e+01 -3.774902e-01 -1.605976e-01 9.123509e-02 -3.762158e-01 -4.796688e-02 -5.547137e-01 -9.514251e-02 5.472940e-01 -2.189921e-01 -3.661866e-02 2.433262e-01 3.035580e-02 6.344948e-01 2.872269e-01 -4.439911e-02 1.645897e-01 3.034083e-01 1.658404e-01 2.534104e-01 1.693560e-01 -5.022610e-02 -4.238582e-02 -1.234651e-01 -5.192785e-02 -4.591427e-02 -5.031291e-01
<VARIANCE> 39
 2.493708e+01 2.083980e+01 2.747838e+01 3.451408e+01 3.680603e+01 3.788129e+01 3.636117e+01 2.650348e+01 2.472765e+01 2.263568e+01 1.930025e+01 1.597203e+01 2.296823e+01 2.856519e+00 2.125934e+00 2.688046e+00 3.504802e+00 3.451711e+00 3.735965e+00 3.693734e+00 3.030946e+00 3.086403e+00 2.710524e+00 2.292646e+00 1.965828e+00 3.045310e+00 5.010757e-01 3.787753e-01 5.237356e-01 6.494307e-01 6.887584e-01 7.305322e-01 6.557671e-01 5.222050e-01 5.110624e-01 4.560968e-01 4.145999e-01 3.557471e-01 4.008189e-01
<GCONST> 1.190679e+02
<MIXTURE> 16 6.214054e-03
<MEAN> 39
 -1.095201e+01 -4.176044e+00 3.766167e+00 6.877925e-01 1.261006e+00 4.783259e+00 4.346999e+00 3.005494e+00 4.488654e+00 3.497866e+00 3.856403e+00 3.914453e+00 5.106518e+01 4.872220e-01 -2.367747e-01 -4.599989e-01 -5.335062e-01 -1.685501e-01 -7.723014e-02 -5.229266e-01 -5.157389e-01 -5.325308e-01 -5.402269e-01 -4.284922e-01 -4.110202e-01 9.825115e-01 6.776209e-01 -3.312040e-01 -6.994770e-01 -1.151714e+00 -6.621541e-01 -5.770438e-01 -8.052780e-01 -4.476199e-01 -4.817281e-01 -4.912035e-01 -6.171759e-01 -4.027127e-01 1.516188e+00
<VARIANCE> 39
 4.085851e+00 6.337051e+00 1.134064e+01 1.289979e+01 1.698492e+01 1.497097e+01 1.829663e+01 1.805707e+01 1.690440e+01 2.087823e+01 1.613622e+01 1.789206e+01 6.492266e+00 2.172658e+00 3.203242e+00 4.858297e+00 7.335685e+00 5.492318e+00 4.105495e+00 4.223406e+00 3.978593e+00 3.882238e+00 3.519041e+00 3.082403e+00 2.904104e+00 3.879489e+00 2.276802e-01 7.506742e-01 8.632911e-01 9.313048e-01 8.634804e-01 7.843675e-01 7.420506e-01 7.515969e-01 7.888664e-01 6.726387e-01 5.793936e-01 6.144572e-01 4.090732e-01
<GCONST> 1.167520e+02
<MIXTURE> 17 4.043127e-02
<MEAN> 39
 -1.098886e+01 -3.951821e+00 5.463973e+00 2.022961e+00 2.922778e+00 4.857665e+00 3.514181e+00 5.023755e-01 9.894388e-01 -1.273057e-01 3.717972e-01 1.855544e+00 5.154628e+01 4.244087e-02 8.191037e-02 1.237552e-01 8.554806e-02 -9.415930e-03 -3.080599e-02 -9.121984e-02 -1.956477e-01 -2.247622e-01 -2.721827e-01 -2.413016e-01 -1.181149e-01 -3.847952e-02 -1.928852e-03 -4.137404e-02 -1.149880e-01 -1.977407e-01 -1.545605e-01 -1.552854e-01 -7.025134e-02 1.137047e-01 1.829243e-01 2.661687e-01 2.931481e-01 1.583211e-01 1.052562e-01
<VARIANCE> 39
 3.247069e+00 3.926427e+00 6.075150e+00 6.530431e+00 9.585816e+00 9.278149e+00 1.136556e+01 1.293448e+01 1.301407e+01 1.351692e+01 1.094691e+01 1.117676e+01 4.524938e+00 2.896475e-01 3.732611e-01 4.473330e-01 6.036703e-01 8.993568e-01 9.917839e-01 1.156082e+00 1.270395e+00 1.348467e+00 1.389776e+00 1.202996e+00 1.100502e+00 1.467759e-01 7.064271e-02 8.251880e-02 1.070138e-01 1.412501e-01 1.981408e-01 2.144395e-01 2.386901e-01 2.700864e-01 2.553210e-01 2.695014e-01 2.112488e-01 2.239796e-01 4.569700e-02
<GCONST> 7.054437e+01
<MIXTURE> 18 4.972900e-02
<MEAN> 39
 -1.111794e+01 -3.698796e+00 5.697330e+00 2.676188e+00 3.564044e+00 5.207555e+00 3.782122e+00 8.056741e-01 1.131442e+00 6.589373e-02 3.291296e-01 1.880122e+00 5.111728e+01 -2.881683e-02 -9.352429e-02 -5.780777e-02 -5.240780e-02 -4.081607e-02 8.403306e-02 1.141945e-01 9.635307e-02 1.630614e-01 9.261876e-02 6.810849e-02 2.894382e-03 -6.576737e-02 3.346772e-02 -6.396568e-02 -1.467973e-01 -2.620701e-01 -2.255060e-01 -1.744431e-01 -7.813700e-02 1.047869e-01 2.219535e-01 2.880703e-01 3.417194e-01 1.866017e-01 1.017114e-01
<VARIANCE> 39
 3.700416e+00 4.256062e+00 5.749135e+00 6.335287e+00 9.664589e+00 9.905942e+00 1.220965e+01 1.359295e+01 1.278874e+01 1.447610e+01 1.182860e+01 1.197060e+01 4.557716e+00 3.205824e-01 4.026753e-01 4.837501e-01 6.483573e-01 9.100062e-01 1.004779e+00 1.189615e+00 1.320669e+00 1.407329e+00 1.488235e+00 1.282128e+00 1.152036e+00 1.535491e-01 7.034209e-02 8.431022e-02 1.049699e-01 1.399759e-01 1.978481e-01 2.181062e-01 2.482918e-01 2.763445e-01 2.547828e-01 2.798434e-01 2.235985e-01 2.338170e-01 4.221584e-02
<GCONST> 7.187727e+01
<MIXTURE> 19 3.585684e-02
<MEAN> 39
 -1.123184e+01 -3.711926e+00 4.857328e+00 9.569875e-01 2.142401e+00 3.036519e+00 1.992698e+00 4.124684e-01 6.696883e-01 1.337264e+00 2.265673e+00 3.371048e+00 5.265665e+01 8.860045e-02 1.119783e-01 2.547878e-01 2.899849e-01 2.456544e-03 5.694346e-02 -2.192085e-02 -3.265598e-01 -1.871756e-01 -2.584663e-01 -2.881072e-01 -1.813808e-01 -2.004295e-01 4.246309e-04 -1.324666e-01 -7.796263e-02 -8.156068e-02 -8.987769e-03 9.878054e-02 1.481847e-01 1.865731e-01 2.207200e-01 5.156747e-02 4.116946e-02 -4.728349e-02 4.450808e-02
<VARIANCE> 39
 5.983518e+00 6.526451e+00 7.674062e+00 8.399971e+00 1.214678e+01 1.117154e+01 1.362683e+01 1.490887e+01 1.439733e+01 1.514701e+01 1.317242e+01 1.270190e+01 5.009103e+00 4.787989e-01 5.785559e-01 6.622378e-01 8.322155e-01 1.162224e+00 1.250922e+00 1.408237e+00 1.484099e+00 1.520145e+00 1.545067e+00 1.374141e+00 1.266808e+00 2.714673e-01 9.948688e-02 1.052748e-01 1.260939e-01 1.558045e-01 2.186495e-01 2.176803e-01 2.491017e-01 2.746167e-01 2.611471e-01 2.718710e-01 2.252843e-01 2.337097e-01 5.518069e-02
<GCONST> 7.848234e+01
<MIXTURE> 20 4.474978e-02
<MEAN> 39
 -1.097610e+01 -4.684938e+00 4.717542e+00 9.486821e-01 1.699657e+00 4.824871e+00 4.842753e+00 2.693201e+00 4.435834e+00 2.989613e+00 3.815595e+00 3.841569e+00 5.065903e+01 5.174850e-02 8.636899e-02 1.446534e-01 1.201037e-01 2.746413e-04 8.505650e-03 -4.054966e-02 -2.160473e-01 -1.766351e-01 -2.666973e-01 -2.416056e-01 -1.085084e-01 -8.127473e-02 -1.611599e-02 5.882049e-02 -6.795847e-03 1.629421e-02 9.115062e-02 -6.539404e-02 -1.637446e-01 -1.040248e-01 -1.981694e-01 -9.434456e-02 -1.139888e-01 -5.853752e-02 1.025928e-01
<VARIANCE> 39
 1.553240e+00 2.540914e+00 4.672321e+00 4.806769e+00 7.150385e+00 8.097562e+00 1.020473e+01 1.099586e+01 1.074057e+01 1.117894e+01 1.035715e+01 9.984667e+00 3.558151e+00 2.268596e-01 3.055401e-01 4.224692e-01 5.716603e-01 7.872339e-01 8.700188e-01 1.063117e+00 1.154818e+00 1.222239e+00 1.288210e+00 1.145050e+00 1.020118e+00 1.184264e-01 4.632273e-02 5.729381e-02 7.650566e-02 1.020586e-01 1.493458e-01 1.759253e-01 2.120013e-01 2.068998e-01 2.159690e-01 2.223147e-01 2.038807e-01 1.979682e-01 2.430451e-02
<GCONST> 6.233604e+01
<MIXTURE> 21 3.902555e-02
<MEAN> 39
 -1.170527e+01 -4.456394e+00 3.858850e+00 4.920983e-01 2.337851e+00 4.275499e+00 3.907447e+00 3.339485e+00 4.412685e+00 4.268081e+00 4.134718e+00 3.765422e+00 5.159461e+01 -1.027911e-01 5.857346e-02 -3.696095e-02 -4.037910e-02 2.708475e-02 -4.033947e-02 -7.929453e-02 3.776756e-02 -3.306077e-02 1.397004e-01 -2.737232e-02 -1.424806e-02 1.760648e-02 6.759319e-02 -4.648841e-04 9.643603e-02 7.897644e-02 2.403524e-02 1.092687e-03 -3.980536e-02 -1.638556e-01 -2.104385e-01 -2.656415e-01 -1.398776e-01 -2.762121e-02 2.844077e-02
<VARIANCE> 39
 3.838264e+00 4.459978e+00 5.756193e+00 6.342609e+00 9.759795e+00 9.670765e+00 1.264556e+01 1.413474e+01 1.326692e+01 1.390066e+01 1.199177e+01 1.126031e+01 4.299693e+00 6.932586e-01 7.533138e-01 7.997791e-01 1.059819e+00 1.375755e+00 1.364653e+00 1.549340e+00 1.816803e+00 1.841551e+00 1.805808e+00 1.486070e+00 1.311042e+00 4.192621e-01 7.324161e-02 8.193094e-02 9.410334e-02 1.217866e-01 1.829982e-01 1.961469e-01 2.387865e-01 2.602357e-01 2.525496e-01 2.597097e-01 2.219066e-01 2.154352e-01 4.102603e-02
<GCONST> 7.662996e+01
<MIXTURE> 22 4.168944e-02
<MEAN> 39
 -1.337834e+01 -5.262338e+00 2.434862e+00 -1.647329e+00 3.024539e+00 2.779108e+00 2.497419e+00 5.067143e+00 2.207809e+00 4.005575e+00 3.977922e+00 4.446392e+00 5.534930e+01 -4.361988e-02 4.526203e-02 8.891494e-02 2.326115e-02 -1.227591e-02 -8.932807e-02 -6.640637e-02 2.018532e-03 -1.024827e-01 2.425007e-02 -8.012243e-02 -1.773122e-02 -7.061337e-02 2.978486e-01 -1.267601e-02 2.300549e-01 2.318720e-01 -1.077834e-01 9.672254e-02 6.112913e-02 -3.492904e-01 1.995837e-02 -2.983755e-01 -1.277318e-01 -1.373831e-01 -2.252032e-01
<VARIANCE> 39
 1.255056e+01 2.047826e+01 1.628580e+01 2.249383e+01 2.696727e+01 2.825578e+01 2.880219e+01 2.526987e+01 3.064594e+01 2.771139e+01 2.379070e+01 1.846258e+01 9.864681e+00 4.487253e-01 5.507441e-01 6.513540e-01 8.787913e-01 1.045196e+00 1.209119e+00 1.319459e+00 1.473810e+00 1.536379e+00 1.499235e+00 1.320896e+00 1.147708e+00 3.709288e-01 1.616527e-01 2.645318e-01 2.293825e-01 3.599451e-01 4.067017e-01 4.328734e-01 4.672487e-01 4.164382e-01 5.007879e-01 4.499210e-01 3.959284e-01 3.292632e-01 1.155090e-01
<GCONST> 9.597010e+01
<MIXTURE> 23 3.806002e-02
<MEAN> 39
 -1.111036e+01 -4.933516e+00 3.903556e+00 -2.058342e-02 1.531259e+00 3.778971e+00 3.221915e+00 2.160223e+00 3.576003e+00 3.204974e+00 3.824467e+00 3.670302e+00 5.224549e+01 -2.096586e-01 2.402831e-01 -4.015578e-02 -1.060745e-01 4.204291e-02 -3.279513e-01 -3.391911e-01 9.733333e-03 -2.721406e-01 1.186773e-01 -1.716962e-01 -8.309334e-02 2.221009e-01 -1.638581e-02 4.449128e-02 9.212020e-02 1.072903e-01 9.610260e-02 9.898277e-03 -1.380273e-02 -5.747432e-02 -1.769300e-01 -1.985942e-01 -1.710729e-01 -6.723374e-02 5.193758e-02
<VARIANCE> 39
 3.129139e+00 4.018255e+00 6.407232e+00 6.517715e+00 9.252082e+00 9.466842e+00 1.133188e+01 1.300562e+01 1.315152e+01 1.322175e+01 1.116238e+01 1.093771e+01 4.528507e+00 9.101743e-01 9.305412e-01 1.016148e+00 1.326396e+00 1.670170e+00 1.640871e+00 1.733100e+00 2.071030e+00 2.021604e+00 1.973759e+00 1.588391e+00 1.374269e+00 6.205950e-01 7.384693e-02 7.955527e-02 9.645310e-02 1.270873e-01 1.772476e-01 1.957973e-01 2.224925e-01 2.414494e-01 2.417130e-01 2.494821e-01 2.165788e-01 2.094660e-01 4.314914e-02
<GCONST> 7.811791e+01
<MIXTURE> 24 2.796554e-02
<MEAN> 39
 -1.049625e+01 -4.269235e+00 4.921490e+00 2.473079e-01 1.072632e+00 2.765523e+00 1.978766e+00 -1.207989e-01 3.407075e-01 4.670222e-01 2.125021e+00 2.917667e+00 5.320099e+01 1.327723e-01 3.104109e-01 3.747804e-01 3.868566e-01 5.931981e-03 -6.778499e-02 -2.461496e-01 -5.783882e-01 -4.784638e-01 -5.054718e-01 -5.100411e-01 -2.500273e-01 -1.744436e-01 -1.010740e-01 -6.609447e-02 -9.422786e-02 -4.921536e-02 9.043160e-02 6.843310e-02 9.890599e-02 2.179716e-01 1.671944e-01 1.061229e-01 9.845937e-03 -2.894115e-02 9.279320e-02
<VARIANCE> 39
 5.378455e+00 6.352536e+00 8.738853e+00 9.003336e+00 1.172892e+01 1.165485e+01 1.350097e+01 1.435795e+01 1.481966e+01 1.397420e+01 1.379208e+01 1.258899e+01 5.449198e+00 4.858907e-01 5.892016e-01 7.247586e-01 8.736812e-01 1.183958e+00 1.331553e+00 1.412091e+00 1.455031e+00 1.496165e+00 1.555184e+00 1.399088e+00 1.346307e+00 3.047275e-01 9.742181e-02 1.013223e-01 1.282414e-01 1.631251e-01 2.160854e-01 2.275232e-01 2.503210e-01 2.546254e-01 2.593118e-01 2.562977e-01 2.283864e-01 2.274157e-01 5.970238e-02
<GCONST> 7.896317e+01
<MIXTURE> 25 3.971257e-02
<MEAN> 39
 -1.119702e+01 -4.282776e+00 5.066347e+00 1.853462e+00 2.450200e+00 5.636863e+00 5.484414e+00 2.871612e+00 4.195992e+00 3.463201e+00 4.686543e+00 4.648695e+00 4.947860e+01 2.367656e-02 2.774891e-02 6.284289e-02 6.389093e-02 -2.402077e-02 5.122992e-02 5.971248e-02 -7.669134e-02 -4.541031e-02 -1.439964e-01 -1.121055e-01 -4.125474e-02 -7.863667e-02 -4.787264e-03 3.681962e-02 -5.522139e-02 -7.733740e-02 2.290457e-02 -1.102106e-01 -1.768664e-01 -4.975344e-02 -9.397189e-02 -3.986347e-02 -1.251153e-01 -9.191880e-02 1.306863e-01
<VARIANCE> 39
 1.501814e+00 2.554250e+00 3.888208e+00 4.905385e+00 6.919307e+00 8.739357e+00 1.063038e+01 1.093624e+01 1.016138e+01 1.118114e+01 1.145224e+01 1.024408e+01 4.623291e+00 2.375104e-01 3.117774e-01 4.385051e-01 5.933741e-01 7.990540e-01 8.750622e-01 1.071118e+00 1.171714e+00 1.277222e+00 1.346159e+00 1.201832e+00 1.038430e+00 1.309684e-01 4.611589e-02 5.676818e-02 7.680514e-02 1.068031e-01 1.539286e-01 1.843812e-01 2.195314e-01 2.225898e-01 2.242067e-01 2.346594e-01 2.164554e-01 2.003618e-01 2.510709e-02
<GCONST> 6.341071e+01
<MIXTURE> 26 2.577390e-02
<MEAN> 39
 -1.011759e+01 -8.873816e+00 1.360538e+00 -2.713468e+00 1.771363e+00 2.676652e+00 7.941044e-01 3.528394e+00 2.484530e+00 1.166956e+00 3.389800e+00 3.287826e+00 5.758008e+01 6.293129e-02 1.200997e-01 1.539526e-01 9.183235e-02 -9.170655e-03 -5.155889e-02 -5.104175e-02 -2.410105e-01 -1.705360e-01 -1.258874e-01 -1.566619e-01 -7.796370e-02 -2.698516e-01 -2.809322e-02 2.549436e-01 1.924914e-01 1.832804e-01 -1.626887e-02 -1.921762e-02 9.094931e-02 -9.412029e-02 -9.037664e-02 -4.519366e-02 -1.064188e-01 -6.402354e-02 -1.364390e-01
<VARIANCE> 39
 1.520633e+01 1.953612e+01 2.630898e+01 2.907725e+01 3.653242e+01 3.935839e+01 3.695084e+01 3.835760e+01 4.422860e+01 3.874789e+01 3.587758e+01 2.874389e+01 1.527028e+01 5.648285e-01 9.363905e-01 1.101896e+00 1.358710e+00 1.520012e+00 1.804588e+00 1.970161e+00 2.004222e+00 1.978562e+00 1.923143e+00 1.932733e+00 1.638868e+00 5.732776e-01 1.305080e-01 1.698898e-01 2.684977e-01 3.381398e-01 3.753932e-01 4.498610e-01 4.820949e-01 4.786280e-01 4.946102e-01 4.497611e-01 4.469626e-01 4.002166e-01 1.186086e-01
<GCONST> 1.049221e+02
<MIXTURE> 27 2.490189e-02
<MEAN> 39
 -9.187042e+00 -4.861742e+00 3.837694e+00 1.681039e-01 3.552221e+00 4.751952e+00 3.252513e+00 2.508699e+00 -1.023005e+00 -1.377269e+00 -1.075969e+00 2.314931e-01 5.624207e+01 -5.877094e-01 -4.932960e-01 -3.968525e-01 -2.788326e-01 2.403590e-01 7.886547e-02 4.149532e-01 4.834272e-01 5.772924e-01 6.736796e-01 7.106606e-01 7.264844e-01 -4.590487e-01 1.135522e-01 5.056225e-02 -1.519022e-02 -1.760013e-01 -3.812233e-01 -2.941306e-01 -2.313056e-01 -1.463127e-01 1.521041e-01 1.380600e-01 2.347563e-01 1.694600e-01 4.093577e-02
<VARIANCE> 39
 1.641822e+01 1.614936e+01 2.437641e+01 2.300968e+01 3.204986e+01 2.792192e+01 2.737373e+01 3.317262e+01 3.202594e+01 2.969597e+01 2.633512e+01 2.227262e+01 9.176177e+00 8.636325e-01 9.484222e-01 1.285572e+00 1.463005e+00 2.144510e+00 1.985438e+00 2.130130e+00 2.032335e+00 2.259764e+00 2.342279e+00 2.143332e+00 1.963684e+00 5.538297e-01 1.226869e-01 1.569465e-01 2.108845e-01 2.682268e-01 3.074847e-01 3.352360e-01 3.647049e-01 3.806941e-01 3.841800e-01 3.891416e-01 3.663657e-01 3.305036e-01 5.783516e-02
<GCONST> 1.005715e+02
<MIXTURE> 28 1.488466e-02
<MEAN> 39
 -1.290315e+01 -3.346236e+00 5.469142e+00 -6.521511e-02 3.390663e+00 2.394150e+00 2.538736e+00 2.627008e+00 -1.629491e+00 -4.348818e-01 7.787612e-01 1.664345e+00 5.689586e+01 -3.200635e-01 -4.678211e-01 -2.254510e-01 -8.765417e-02 2.244817e-01 1.713137e-01 3.939322e-01 5.221816e-01 3.649464e-01 4.158120e-01 5.524322e-01 4.480641e-01 -2.858846e-01 3.779927e-01 -1.730212e-01 -1.744328e-01 -7.932915e-02 -3.521969e-01 2.464661e-02 -6.899981e-02 -1.201805e-01 3.469904e-01 1.725072e-01 1.554108e-01 1.234257e-01 -1.691400e-01
<VARIANCE> 39
 3.350065e+01 2.343847e+01 2.880844e+01 3.040247e+01 4.018031e+01 3.620586e+01 3.698960e+01 3.966179e+01 3.088046e+01 3.181682e+01 2.800411e+01 2.255274e+01 1.331838e+01 1.358176e+00 1.098348e+00 1.395253e+00 1.580278e+00 2.186053e+00 2.065670e+00 2.260205e+00 2.296200e+00 2.523785e+00 2.421218e+00 2.150599e+00 1.937840e+00 8.868683e-01 4.149559e-01 3.538332e-01 4.773574e-01 5.550171e-01 6.317447e-01 6.070200e-01 6.187071e-01 5.990542e-01 5.103678e-01 5.170641e-01 4.699205e-01 4.094052e-01 2.134169e-01
<GCONST> 1.133589e+02
<MIXTURE> 29 1.799941e-02
<MEAN> 39
 -1.385639e+01 -4.954044e+00 3.848472e+00 -1.836480e+00 5.033772e-02 1.717128e+00 1.055450e+00 2.439024e+00 2.467889e+00 3.178158e+00 3.572753e+00 3.851591e+00 5.760194e+01 -1.531514e-01 -1.522108e-01 -2.250326e-02 -5.675819e-01 -2.422927e-01 -7.776406e-01 -5.163850e-01 2.472650e-01 -3.999178e-01 -2.071438e-01 -1.764010e-01 -1.958881e-01 1.005892e+00 1.981138e-01 -3.081569e-02 1.186271e-01 1.302060e-01 1.051605e-01 6.478044e-02 1.662785e-01 4.337302e-02 -7.400970e-02 -1.592683e-01 -5.617884e-02 -5.307744e-02 -2.585025e-01
<VARIANCE> 39
 2.662534e+01 2.178918e+01 2.885438e+01 3.445556e+01 3.935835e+01 3.741609e+01 3.264156e+01 2.783643e+01 2.693251e+01 2.490319e+01 2.040268e+01 1.735506e+01 2.104763e+01 2.687176e+00 2.322395e+00 2.878758e+00 3.565378e+00 3.603674e+00 4.008288e+00 3.691521e+00 3.310470e+00 3.281068e+00 2.959916e+00 2.446671e+00 2.129391e+00 2.645695e+00 4.933939e-01 3.854655e-01 5.221115e-01 6.609951e-01 6.518045e-01 6.867446e-01 6.408423e-01 5.704650e-01 5.255610e-01 4.803500e-01 4.412133e-01 3.809023e-01 3.957978e-01
<GCONST> 1.200833e+02
<MIXTURE> 30 2.394515e-02
<MEAN> 39
 -1.033072e+01 -5.052642e+00 3.096944e+00 -1.266313e+00 -2.945948e-01 2.516415e+00 2.868400e+00 3.229770e+00 4.489398e+00 3.890364e+00 4.380478e+00 4.198331e+00 5.324895e+01 -7.481623e-01 -1.149896e-04 4.559796e-01 8.955402e-01 7.961827e-01 5.990530e-01 4.867913e-01 1.479817e-01 1.008570e-01 1.314709e-01 1.809555e-01 1.494996e-01 -6.913162e-01 1.257561e-01 8.327723e-03 -2.090258e-02 -1.544388e-01 -3.992358e-02 -8.794986e-02 -1.932612e-01 -2.187153e-01 -4.011914e-01 -3.617296e-01 -3.144782e-01 -2.272867e-01 4.003654e-01
<VARIANCE> 39
 7.248528e+00 8.092811e+00 1.406560e+01 1.757134e+01 2.435328e+01 2.294762e+01 2.243181e+01 2.534196e+01 2.586414e+01 2.449127e+01 2.132674e+01 1.884933e+01 5.987558e+00 2.192051e+00 2.022610e+00 3.121755e+00 4.753846e+00 4.681956e+00 4.685127e+00 4.284626e+00 3.819985e+00 3.963265e+00 3.938563e+00 3.285631e+00 2.722389e+00 3.004380e+00 1.803357e-01 1.507188e-01 2.203481e-01 3.339707e-01 3.483139e-01 3.576818e-01 4.248028e-01 4.288771e-01 4.528649e-01 4.213519e-01 4.053576e-01 3.472489e-01 2.110405e-01
<GCONST> 1.091012e+02
<MIXTURE> 31 2.458906e-02
<MEAN> 39
 -1.079382e+01 -4.583563e+00 4.545710e+00 1.314090e+00 1.847665e+00 4.611494e+00 3.879670e+00 1.601909e+00 3.287786e+00 2.266223e+00 3.083298e+00 3.359919e+00 5.126792e+01 -1.655051e-01 2.191693e-02 1.009227e-01 1.063451e-01 1.374357e-01 4.997711e-02 -8.369081e-02 -7.276114e-02 -2.316161e-01 -1.574868e-01 -1.845677e-01 -1.786424e-01 1.482174e-01 1.702799e-01 2.105847e-02 -1.927717e-01 -5.775846e-01 -3.849816e-01 -4.905072e-01 -4.707120e-01 -8.879130e-02 -2.700375e-01 -1.628601e-01 -1.909793e-01 -1.565780e-01 7.658904e-01
<VARIANCE> 39
 1.951845e+00 3.698925e+00 6.489435e+00 7.256195e+00 9.456626e+00 1.033893e+01 1.283473e+01 1.422418e+01 1.500248e+01 1.619502e+01 1.325356e+01 1.215837e+01 4.654770e+00 8.853818e-01 9.225088e-01 1.324952e+00 1.953128e+00 2.074414e+00 2.184042e+00 2.197420e+00 2.049979e+00 1.960351e+00 2.008904e+00 1.742545e+00 1.523259e+00 9.704286e-01 3.240207e-01 3.249742e-01 4.220478e-01 4.364876e-01 5.765873e-01 4.685996e-01 4.787652e-01 5.651433e-01 4.902789e-01 4.963000e-01 4.287121e-01 3.775606e-01 1.524127e-01
<GCONST> 9.381621e+01
<MIXTURE> 32 5.700311e-03
<MEAN> 39
 -1.085084e+01 -4.215023e+00 4.421803e+00 5.411389e-01 9.752855e-01 4.335768e+00 3.728165e+00 2.061655e+00 3.660052e+00 2.975504e+00 3.518505e+00 3.511819e+00 5.138199e+01 1.180642e+00 5.178446e-01 1.504861e-01 -2.053242e+00 -1.751050e+00 -1.355804e+00 -1.955750e+00 -1.715137e+00 -1.528650e+00 -1.050233e+00 -1.535321e+00 -8.321453e-01 2.514387e+00 6.236278e-01 3.875239e-02 -1.589666e-01 -1.091035e+00 -8.530088e-01 -6.975459e-01 -8.223069e-01 -6.058505e-01 -6.702307e-01 -4.221734e-01 -6.805256e-01 -3.677212e-01 1.364589e+00
<VARIANCE> 39
 2.588408e+00 4.373322e+00 8.774282e+00 9.801497e+00 1.477753e+01 1.224278e+01 1.528395e+01 1.478315e+01 1.650935e+01 1.793673e+01 1.388136e+01 1.367440e+01 6.056990e+00 1.804369e+00 4.613694e+00 6.683351e+00 7.351965e+00 7.436864e+00 4.072120e+00 4.999070e+00 4.770320e+00 4.447755e+00 3.435751e+00 2.756412e+00 3.349102e+00 2.857523e+00 2.032121e-01 6.837377e-01 9.589045e-01 8.164054e-01 8.307036e-01 6.600710e-01 6.006447e-01 6.602902e-01 5.761351e-01 5.690222e-01 5.145796e-01 4.792992e-01 3.755265e-01
<GCONST> 1.132711e+02
~h "b"
<BEGINHMM>
<NUMSTATES> 5
<STATE> 2
<NUMMIXES> 32
<MIXTURE> 1 1.553261e-02
<MEAN> 39
 -8.369384e-01 2.135310e+00 8.551550e+00 9.346673e+00 -1.315019e+00 -5.531874e-01 -4.807283e+00 -8.950897e+00 -1.065065e+01 1.904009e+00 2.178540e+00 -8.074850e+00 5.881844e+01 -1.859671e-01 8.865620e-01 6.020941e-01 -5.097849e-01 1.116014e+00 1.565160e+00 8.119745e-01 3.194520e-01 1.145073e+00 -6.829996e-01 -5.117249e-01 1.011800e+00 -1.240946e+00 -1.408163e-01 -2.295433e-01 1.078027e-01 -3.410569e-01 3.315296e-01 -6.770459e-02 2.263096e-01 3.261457e-01 5.084867e-01 -8.354370e-02 -1.485270e-01 2.190054e-01 -6.225597e-02
<VARIANCE> 39
 5.205939e+00 9.650245e+00 1.287138e+01 2.131893e+01 1.030851e+01 3.892947e+01 5.011154e+01 1.970521e+01 1.926357e+01 1.988154e+01 1.926924e+01 1.719713e+01 7.193869e+00 1.726156e-01 5.707614e-01 7.541537e-01 1.233514e+00 1.074244e+00 1.811539e+00 2.269739e+00 1.827279e+00 2.855721e+00 1.312183e+00 1.254497e+00 1.344058e+00 3.829224e-01 3.701365e-02 1.183682e-01 1.523043e-01 1.809203e-01 2.194932e-01 3.614671e-01 3.200355e-01 3.273649e-01 3.503924e-01 2.275301e-01 3.748456e-01 3.180627e-01 5.579861e-02
<GCONST> 8.705103e+01
<MIXTURE> 2 2.960354e-02
<MEAN> 39
 8.495935e-01 1.201816e+00 5.843290e+00 4.370791e-01 2.304586e-01 5.318844e-01 -4.242120e+00 -7.849633e+00 -5.606625e+00 -2.268550e+00 5.596185e-01 -1.519199e+00 5.822681e+01 -1.017657e+00 1.880064e+00 1.591341e+00 1.612580e+00 1.497658e+00 1.947685e+00 2.173979e+00 4.686306e-01 4.410799e-01 -5.964878e-01 -7.040925e-01 -1.880521e-01 -2.445574e+00 -3.249813e-01 -5.216525e-01 3.317243e-02 -3.373087e-01 -5.012826e-01 -5.411403e-01 -2.220418e-01 6.123819e-01 2.572215e-01 1.654631e-01 -3.827984e-02 -2.074765e-01 6.938742e-01
<VARIANCE> 39
 4.964556e+00 9.248857e+00 1.419697e+01 2.723061e+01 1.736364e+01 2.964331e+01 2.394000e+01 4.135814e+01 3.293717e+01 2.780040e+01 2.123542e+01 1.834796e+01 6.024014e+00 8.730696e-01 1.367306e+00 2.286421e+00 4.568444e+00 3.549947e+00 4.002841e+00 3.706275e+00 4.511906e+00 4.256800e+00 2.998320e+00 4.948176e+00 3.183408e+00 8.055968e-01 1.138214e-01 2.054210e-01 3.576718e-01 3.523546e-01 2.995324e-01 4.668425e-01 6.078571e-01 4.603730e-01 4.803405e-01 4.705275e-01 3.126096e-01 4.890117e-01 1.334660e-01
<GCONST> 1.078176e+02
<MIXTURE> 3 2.470834e-02
<MEAN> 39
 1.543592e+00 2.614476e+00 6.341695e+00 -8.120555e-01 -5.862499e+00 -7.023803e+00 -8.632819e+00 -6.939177e+00 -2.581480e+00 -1.072154e+00 -3.604879e+00 -7.001669e+00 5.922682e+01 -6.049445e-01 1.038282e+00 6.869588e-01 5.648722e-01 9.214163e-01 1.139168e+00 6.951445e-01 -3.653469e-01 6.175137e-01 -3.555305e-01 4.834214e-01 8.258110e-01 -1.193308e+00 -3.031522e-01 -3.699719e-01 1.061113e-01 9.015556e-02 3.408451e-01 2.708105e-01 1.137962e-01 5.324509e-02 -2.617839e-01 -2.867170e-02 2.940094e-01 3.069891e-01 9.616094e-02
<VARIANCE> 39
 2.467627e+00 8.057855e+00 9.617561e+00 1.710791e+01 2.553379e+01 1.612175e+01 4.204408e+01 3.162361e+01 4.116043e+01 4.028231e+01 2.493463e+01 1.985493e+01 1.105798e+01 3.822430e-01 6.485113e-01 7.523997e-01 8.655120e-01 2.332281e+00 2.052840e+00 1.345784e+00 1.648519e+00 2.980424e+00 2.936351e+00 2.144611e+00 2.091767e+00 2.472735e-01 5.629013e-02 1.136903e-01 1.189395e-01 1.150178e-01 2.765858e-01 2.056800e-01 3.087926e-01 3.318584e-01 5.021679e-01 4.309684e-01 3.778846e-01 3.145441e-01 6.480534e-02
<GCONST> 9.093161e+01
<MIXTURE> 4 1.437479e-02
<MEAN> 39
 -8.923749e+00 -1.454854e+00 7.308118e+00 3.919714e+00 4.126892e+00 6.095309e+00 3.432416e+00 1.184614e-01 2.035741e+00 2.093025e+00 2.165783e+00 1.817313e+00 5.201981e+01 3.538905e-01 4.227002e-01 5.775445e-01 8.074650e-01 3.227850e-01 2.656184e-01 2.092257e-01 -2.938919e-01 -4.756091e-01 -6.555903e-01 -5.477280e-01 7.897845e-02 -4.452025e-01 3.190721e-01 1.641813e-01 -2.115980e-01 -5.237297e-01 -3.925748e-01 -5.515477e-01 -5.246533e-01 -2.486543e-01 -3.498056e-01 -2.600072e-01 -1.669516e-01 -2.655069e-01 6.036609e-01
<VARIANCE> 39
 1.110999e+01 7.649356e+00 1.078866e+01 8.973581e+00 1.157361e+01 1.100395e+01 1.756852e+01 1.693104e+01 1.568165e+01 1.472325e+01 1.311442e+01 1.451453e+01 7.685061e+00 9.425408e-01 8.297557e-01 7.760069e-01 1.218897e+00 6.790929e-01 8.229019e-01 1.232101e+00 1.489208e+00 1.051111e+00 1.757993e+00 1.172042e+00 2.047624e+00 1.044199e+00 2.190332e-01 1.336629e-01 2.456699e-01 2.159289e-01 2.069481e-01 2.144153e-01 3.073788e-01 3.213335e-01 2.611933e-01 3.774571e-01 2.524078e-01 3.817194e-01 2.070286e-01
<GCONST> 8.709198e+01
<MIXTURE> 5 2.958281e-02
<MEAN> 39
 1.422753e+00 1.598784e+00 5.243234e+00 -3.093940e+00 -6.703056e+00 -7.637110e+00 -6.635787e+00 -2.757265e+00 -6.021297e+00 -2.829181e+00 -6.513945e+00 -7.203651e+00 6.170276e+01 -3.478291e-02 7.915863e-01 2.728664e-01 4.241374e-01 6.548012e-02 3.616476e-01 7.005353e-02 -1.240418e-01 7.173933e-01 -6.377513e-02 4.636982e-02 1.061306e-02 -7.954959e-01 -1.399693e-01 -2.092431e-01 -2.182865e-02 5.574920e-02 2.469735e-01 2.364923e-01 -4.194013e-02 -2.769330e-01 -3.277460e-02 1.634328e-01 5.506136e-01 2.766442e-01 4.192077e-02
<VARIANCE> 39
 3.752842e+00 7.493578e+00 1.670220e+01 6.169843e+01 2.648543e+01 3.598288e+01 4.921732e+01 4.685466e+01 3.961481e+01 4.184602e+01 3.398068e+01 3.386647e+01 9.244076e+00 1.630162e-01 4.831322e-01 5.480236e-01 7.724788e-01 9.941505e-01 1.765012e+00 8.028420e-01 1.850236e+00 1.958611e+00 1.520886e+00 1.548766e+00 1.247828e+00 1.774148e-01 5.050651e-02 1.226825e-01 1.586718e-01 2.091335e-01 2.236587e-01 3.615207e-01 2.464713e-01 3.205070e-01 2.551665e-01 3.868965e-01 3.514740e-01 2.987787e-01 1.122154e-01
<GCONST> 9.051872e+01
<MIXTURE> 6 5.226741e-02
<MEAN> 39
 2.809588e+00 -4.355585e+00 1.316408e+00 -6.113235e+00 -4.891753e+00 -1.928261e+00 -6.268118e+00 -8.182405e+00 -9.772257e+00 -4.453225e-01 4.968825e+00 -2.846710e+00 6.526968e+01 7.225138e-02 1.411503e+00 2.885172e-01 3.671279e-01 5.484335e-01 7.549762e-01 8.999498e-01 -3.837432e-01 -4.521386e-01 -7.128705e-01 1.900833e-01 1.248046e+00 -1.613195e+00 -2.184930e-01 -3.914807e-01 -2.426272e-02 -3.721919e-01 -2.817599e-01 -4.243332e-01 -2.335051e-01 8.009763e-01 7.845789e-01 2.985086e-02 -4.838824e-01 -2.285743e-01 5.469711e-01
<VARIANCE> 39
 8.861994e+00 2.984845e+01 2.587627e+01 8.797948e+01 3.430116e+01 4.504041e+01 4.563143e+01 4.952571e+01 5.437868e+01 4.172480e+01 4.681142e+01 4.003226e+01 1.164466e+01 7.178398e-01 1.900282e+00 1.660682e+00 3.193749e+00 2.545907e+00 3.980392e+00 3.420276e+00 3.362845e+00 4.950560e+00 3.245761e+00 3.446426e+00 2.466982e+00 1.201557e+00 8.046269e-02 2.583439e-01 3.654669e-01 6.537859e-01 4.420415e-01 3.473447e-01 5.062344e-01 4.260067e-01 6.207622e-01 6.080461e-01 5.571193e-01 6.733661e-01 2.000245e-01
<GCONST> 1.173303e+02
<MIXTURE> 7 3.437512e-02
<MEAN> 39
 -3.096262e+00 2.527317e+00 9.534285e+00 2.899777e+00 7.433338e-02 -1.441067e-02 -1.977192e+00 -4.970948e+00 -2.838518e+00 -2.244143e+00 -1.371152e+00 -2.977332e+00 5.455375e+01 -1.205417e-01 2.510584e-01 2.873071e-01 1.862447e-01 3.211384e-01 4.148519e-01 3.791789e-01 1.472884e-01 1.420382e-01 -1.462806e-01 -8.581525e-02 3.776909e-02 -2.506893e-01 -1.194708e-01 -1.814363e-01 -8.277041e-02 -7.369965e-02 1.127100e-02 4.995571e-02 2.032328e-02 -2.307219e-02 -2.677434e-02 2.819306e-02 1.089937e-01 1.620328e-01 1.084318e-01
<VARIANCE> 39
 5.486474e+00 3.992032e+00 6.979363e+00 8.442882e+00 1.215179e+01 2.127555e+01 1.763488e+01 1.093454e+01 1.727905e+01 1.967976e+01 1.671950e+01 1.678585e+01 6.557333e+00 3.263162e-01 5.169724e-01 3.587094e-01 6.810296e-01 9.088149e-01 1.157045e+00 1.348631e+00 1.141655e+00 1.382700e+00 1.108742e+00 9.773160e-01 1.051150e+00 1.844241e-01 7.680724e-02 8.841929e-02 9.390863e-02 1.495567e-01 1.637457e-01 2.174586e-01 2.367739e-01 2.462296e-01 2.393007e-01 1.881038e-01 1.936880e-01 1.935997e-01 6.321107e-02
<GCONST> 7.447965e+01
<MIXTURE> 8 2.393241e-02
<MEAN> 39
 -2.575848e+00 3.344763e+00 8.155947e+00 1.888009e+00 -1.872037e+00 -2.443839e+00 -5.402612e+00 -8.631012e+00 -7.078093e+00 -3.722997e+00 -1.712714e+00 -5.048729e+00 5.693073e+01 1.215917e+00 1.952827e-01 1.737297e-01 2.600177e-01 -1.333975e-01 6.895477e-02 -4.175047e-01 -5.862848e-01 -6.669500e-01 -2.891103e-01 -2.684844e-01 -6.651739e-01 6.863191e-02 -7.243922e-01 -4.941233e-01 -2.043183e-01 -9.033588e-02 4.369754e-01 5.039629e-01 6.053442e-01 8.472604e-01 7.173707e-01 3.826706e-01 2.418618e-01 5.163580e-01 -1.393540e-01
<VARIANCE> 39
 1.049582e+01 1.151651e+01 1.526243e+01 2.982353e+01 2.333529e+01 2.262893e+01 3.919394e+01 4.259932e+01 2.723802e+01 2.745469e+01 3.061290e+01 2.215471e+01 7.524989e+00 8.674905e-01 1.251416e+00 8.733873e-01 1.275361e+00 1.551464e+00 1.966535e+00 1.723935e+00 2.569029e+00 1.687200e+00 2.385683e+00 1.855076e+00 1.362917e+00 1.502853e+00 1.226977e-01 1.926038e-01 2.040821e-01 5.010761e-01 3.991870e-01 4.452763e-01 6.624525e-01 7.081508e-01 4.754155e-01 4.411910e-01 3.858668e-01 4.657245e-01 2.047446e-01
<GCONST> 1.035842e+02
<MIXTURE> 9 4.467062e-02
<MEAN> 39
 1.475116e+00 -6.002103e+00 2.352200e+00 -6.020745e+00 -3.305704e+00 -8.750438e+00 -1.113829e+01 -6.512397e+00 -3.197071e+00 3.486477e+00 -1.755556e+00 -4.919343e+00 6.604643e+01 1.052700e-01 1.315741e+00 3.901483e-01 1.170811e+00 1.043803e+00 9.874424e-01 -2.795731e-01 -1.226525e+00 -2.797178e-01 -7.490109e-02 8.659946e-01 1.591089e-01 -1.648749e+00 -2.673427e-01 -5.104232e-01 2.329075e-02 -6.374820e-01 -6.918702e-01 -2.006615e-01 6.816830e-01 8.472567e-01 -1.489319e-01 -4.066178e-01 -3.726249e-01 1.853273e-01 7.418138e-01
<VARIANCE> 39
 6.091579e+00 2.647821e+01 3.112575e+01 3.993637e+01 2.564169e+01 5.127368e+01 3.304852e+01 6.119531e+01 3.305585e+01 3.420406e+01 3.968796e+01 2.580977e+01 1.355222e+01 5.815589e-01 1.224501e+00 2.582492e+00 2.403407e+00 2.531324e+00 4.060237e+00 2.133509e+00 3.322665e+00 2.213566e+00 2.490180e+00 2.296223e+00 2.019006e+00 7.457577e-01 7.923598e-02 2.811941e-01 3.006503e-01 4.799926e-01 4.947120e-01 4.223893e-01 4.362246e-01 5.862934e-01 4.715038e-01 4.220540e-01 4.843889e-01 3.736171e-01 1.420783e-01
<GCONST> 1.100260e+02
<MIXTURE> 10 2.702701e-02
<MEAN> 39
 -8.210672e-01 -4.012327e-01 7.178915e+00 -1.400996e+00 -6.086314e+00 -1.557142e+01 -6.625723e+00 -1.044446e+01 -4.207698e+00 -2.812933e+00 -6.982975e+00 -4.496911e+00 6.487562e+01 2.014737e-01 7.243712e-01 4.593191e-02 3.572854e-01 3.662226e-01 8.548579e-01 -1.911737e-01 -7.425328e-02 -5.228252e-01 -3.933336e-01 2.563060e-01 1.050645e-01 -8.213417e-01 -1.043362e-01 -1.809599e-01 7.657687e-02 -1.364182e-01 4.597702e-02 5.481711e-01 -8.850821e-02 1.272985e-01 -1.402309e-01 1.406555e-01 2.751369e-01 -7.206517e-02 3.248818e-02
<VARIANCE> 39
 7.349847e+00 1.405507e+01 2.149590e+01 2.951550e+01 3.341808e+01 6.016325e+01 2.486983e+01 1.099027e+02 2.518332e+01 4.787913e+01 3.229328e+01 4.494978e+01 1.008571e+01 1.235900e-01 4.060037e-01 2.889441e-01 7.769291e-01 9.906779e-01 2.345326e+00 9.167774e-01 1.457367e+00 1.344989e+00 1.247638e+00 1.259713e+00 1.127497e+00 3.051514e-01 7.744373e-02 1.452462e-01 2.061948e-01 3.012428e-01 3.734039e-01 3.549775e-01 2.418305e-01 5.782471e-01 1.908938e-01 3.948320e-01 2.212434e-01 2.971033e-01 1.222839e-01
<GCONST> 9.263845e+01
<MIXTURE> 11 3.149187e-02
<MEAN> 39
 1.258366e+00 2.931170e+00 7.314860e+00 5.346113e-01 -4.582242e+00 -7.383277e+00 -1.270867e+01 -1.304381e+01 -7.053817e+00 -1.230637e+00 -2.288045e+00 -4.260442e+00 5.964494e+01 -7.904063e-01 6.420454e-01 7.313425e-01 6.508567e-01 1.079807e+00 9.805080e-01 8.641723e-01 2.413123e-02 2.006866e-01 -7.925217e-01 4.418403e-01 8.174281e-01 -1.093869e+00 -2.214583e-01 -6.980267e-01 -9.732022e-02 -5.196061e-01 -2.246700e-01 -9.134305e-02 3.911300e-01 8.805423e-01 2.666819e-01 7.466466e-02 -1.611024e-01 -5.291510e-02 5.600127e-01
<VARIANCE> 39
 2.066268e+00 9.025726e+00 8.663373e+00 9.223669e+00 1.876105e+01 1.976344e+01 2.348480e+01 4.350404e+01 1.956279e+01 2.362798e+01 2.317803e+01 2.298573e+01 3.544004e+00 3.202702e-01 4.560269e-01 6.857163e-01 9.084423e-01 1.548737e+00 1.461347e+00 1.424054e+00 1.727345e+00 1.421756e+00 1.544698e+00 1.360314e+00 1.605203e+00 2.511339e-01 7.632183e-02 1.424962e-01 3.283231e-01 4.116688e-01 3.330535e-01 2.776116e-01 3.136854e-01 3.821898e-01 2.832083e-01 3.233306e-01 3.164580e-01 3.804147e-01 1.377435e-01
<GCONST> 8.749905e+01
<MIXTURE> 12 4.637706e-02
<MEAN> 39
 -9.858797e-01 6.464297e-01 7.457655e+00 -4.322097e-01 -1.860950e+00 -3.823873e+00 -5.715190e+00 -4.605807e+00 -3.164171e+00 -3.469011e+00 -4.774151e+00 -3.759573e+00 5.875146e+01 -9.832288e-01 1.434012e+00 8.514171e-01 2.209213e+00 1.658703e+00 1.574276e+00 1.143164e+00 -5.565978e-01 2.260694e-01 -2.877126e-01 3.581481e-01 -3.272258e-01 -2.067474e+00 -9.917092e-02 -7.382729e-01 -2.444545e-01 -1.243679e+00 -7.266174e-01 -2.711581e-01 2.305466e-02 2.557461e-01 -2.807909e-01 2.953714e-01 1.292878e-01 2.325561e-01 1.057556e+00
<VARIANCE> 39
 4.350173e+00 1.363397e+01 1.676114e+01 1.867334e+01 1.733300e+01 2.573542e+01 2.474747e+01 2.337696e+01 2.082530e+01 2.254641e+01 1.722998e+01 1.743468e+01 7.163671e+00 9.769576e-01 1.963350e+00 2.392533e+00 3.369683e+00 3.173887e+00 3.029922e+00 2.347500e+00 2.500532e+00 2.618796e+00 2.618665e+00 2.374621e+00 3.353142e+00 1.367128e+00 1.617491e-01 2.188604e-01 5.916671e-01 5.352358e-01 4.045609e-01 4.618942e-01 4.417525e-01 4.581242e-01 4.749929e-01 3.748188e-01 3.310585e-01 3.278861e-01 1.886637e-01
<GCONST> 1.054977e+02
<MIXTURE> 13 3.123795e-02
<MEAN> 39
 -2.192192e+00 3.171831e+00 9.642410e+00 1.010541e+00 -2.600812e-01 -1.905700e-01 -2.114385e+00 -5.956882e+00 -7.305461e+00 -5.296613e+00 -5.310114e+00 -3.586428e+00 5.699358e+01 -2.070372e-01 1.859736e-01 4.534826e-01 4.734792e-01 2.639511e-01 4.561039e-01 4.425589e-01 -4.376667e-02 3.586545e-01 -3.726080e-01 -4.380818e-02 -1.677120e-01 -4.383195e-01 4.701141e-02 -2.574374e-01 -2.382413e-01 -2.956706e-01 -2.023474e-01 -3.172106e-01 -2.654546e-01 1.123385e-01 2.248367e-01 3.096744e-01 2.337694e-01 4.110881e-02 3.027261e-01
<VARIANCE> 39
 6.192548e+00 5.921587e+00 1.136033e+01 1.425879e+01 1.857227e+01 2.004916e+01 1.461175e+01 1.627240e+01 2.188165e+01 2.964721e+01 3.501224e+01 1.977663e+01 9.255209e+00 3.704251e-01 4.279293e-01 5.598241e-01 8.015041e-01 1.066635e+00 1.310333e+00 1.153708e+00 1.534408e+00 1.017367e+00 1.738894e+00 1.851061e+00 9.267222e-01 2.302868e-01 7.774533e-02 7.997452e-02 1.390841e-01 1.844886e-01 2.011475e-01 2.491044e-01 2.132016e-01 2.573796e-01 3.009960e-01 3.315003e-01 2.811103e-01 2.388373e-01 7.478176e-02
<GCONST> 8.266404e+01
<MIXTURE> 14 3.596406e-02
<MEAN> 39
 1.360716e+00 -1.134594e+00 6.308626e+00 2.579428e+00 1.731874e-01 -3.287275e+00 -6.440084e+00 -8.613072e+00 -1.424995e+01 2.992072e-01 2.619204e+00 -6.187650e+00 6.140619e+01 -3.090033e-02 9.822486e-01 4.010724e-01 9.298803e-02 -5.918396e-02 9.126546e-01 2.769248e-01 -9.176223e-02 7.883925e-01 -4.689994e-01 -2.143738e-01 -1.074437e-01 -9.241216e-01 -1.109113e-01 8.892404e-02 -5.724638e-04 -2.415637e-01 -8.286954e-02 7.724516e-02 2.196409e-01 1.761171e-01 5.648643e-01 -6.522097e-02 -3.158686e-01 1.894529e-01 -8.099945e-02
<VARIANCE> 39
 2.959921e+00 8.976789e+00 9.862195e+00 3.314986e+01 1.157206e+01 2.362294e+01 4.080277e+01 3.059481e+01 4.725960e+01 3.643547e+01 3.604390e+01 1.563213e+01 8.137867e+00 1.607787e-01 3.820480e-01 4.368089e-01 8.320780e-01 8.284374e-01 1.490814e+00 1.168647e+00 1.462494e+00 2.030938e+00 1.539648e+00 2.009150e+00 1.449528e+00 1.985305e-01 4.718186e-02 6.080988e-02 1.003153e-01 2.218612e-01 1.411239e-01 2.280914e-01 1.872731e-01 1.715066e-01 3.767853e-01 2.549913e-01 2.454516e-01 2.127849e-01 5.140036e-02
<GCONST> 8.211001e+01
<MIXTURE> 15 3.313818e-02
<MEAN> 39
 -1.038113e+01 -3.946608e+00 5.767074e+00 2.775231e+00 2.344485e+00 4.764107e+00 3.756444e+00 5.707938e-01 2.567044e+00 2.165110e+00 2.958728e+00 2.406779e+00 5.074939e+01 1.520302e+00 1.594087e+00 1.138253e+00 4.877546e-01 -1.395469e-01 -9.398525e-01 -1.148334e+00 -1.517417e+00 -1.771881e+00 -1.512040e+00 -1.329271e+00 -1.901210e+00 7.702200e-01 6.125123e-01 4.365929e-01 1.765405e-01 -1.772220e-01 -2.665316e-01 -4.920867e-01 -6.321136e-01 -5.794352e-01 -5.775281e-01 -3.260163e-01 -3.141934e-01 -5.064169e-01 4.680672e-01
<VARIANCE> 39
 1.642972e+00 5.012759e+00 5.536781e+00 5.894305e+00 9.616665e+00 9.881276e+00 1.475432e+01 1.115333e+01 1.229668e+01 1.640355e+01 1.281132e+01 1.418019e+01 4.430499e+00 6.241317e-01 5.075583e-01 6.316542e-01 8.355636e-01 1.003615e+00 1.089070e+00 1.795747e+00 1.681770e+00 1.852007e+00 1.807104e+00 1.456248e+00 1.561367e+00 2.708034e-01 8.179183e-02 1.597412e-01 1.829545e-01 2.760441e-01 2.507525e-01 2.099557e-01 3.370103e-01 2.879690e-01 3.087049e-01 4.274308e-01 2.430794e-01 3.089977e-01 8.895089e-02
<GCONST> 7.942072e+01
<MIXTURE> 16 2.370075e-02
<MEAN> 39
 -4.657932e+00 2.202501e+00 9.506036e+00 3.303116e+00 6.867750e-01 3.383681e-01 -2.272801e+00 -6.034545e+00 -3.963852e+00 -3.315814e+00 -2.507623e+00 -3.793021e+00 5.399300e+01 2.418692e+00 1.901503e+00 1.118470e+00 -2.410351e-01 -1.024082e+00 -1.674062e+00 -2.197074e+00 -2.324670e+00 -2.234685e+00 -1.432892e+00 -1.231005e+00 -2.012636e+00 1.303671e+00 -2.765514e-01 -5.021387e-01 -4.703627e-01 -3.608541e-01 -8.999663e-02 9.066489e-02 1.634974e-01 4.761083e-01 4.305432e-01 4.603490e-01 4.576512e-01 4.322377e-01 1.813398e-01
<VARIANCE> 39
 6.058309e+00 3.975733e+00 9.008444e+00 1.291136e+01 1.625846e+01 1.538577e+01 2.125262e+01 1.531175e+01 1.774354e+01 2.227020e+01 2.147898e+01 1.146881e+01 5.142299e+00 6.361201e-01 6.092166e-01 6.762739e-01 1.835328e+00 1.973860e+00 1.644508e+00 3.059023e+00 2.211856e+00 1.896115e+00 1.997057e+00 2.145879e+00 1.905473e+00 4.817596e-01 1.092838e-01 1.322326e-01 2.120039e-01 2.153521e-01 2.664886e-01 2.863371e-01 3.300577e-01 2.299074e-01 2.628230e-01 3.556265e-01 2.906881e-01 2.775532e-01 1.644989e-01
<GCONST> 8.924522e+01
<MIXTURE> 17 5.490018e-02
<MEAN> 39
 2.561765e+00 -2.689139e+00 2.461748e-02 -7.375084e+00 -5.245016e+00 -1.731191e+00 -4.828818e+00 -8.658161e+00 -1.120779e+01 -2.200701e+00 2.639584e+00 -2.135432e+00 6.491393e+01 -5.176694e-02 1.286280e+00 5.386004e-01 3.080624e-01 2.856852e-01 5.119596e-01 7.883629e-01 3.201326e-01 -1.704546e-01 -9.480108e-01 -1.635238e-01 7.211187e-01 -1.440872e+00 -2.235752e-01 -5.196244e-01 -7.089137e-02 -3.466427e-01 -2.448732e-01 -4.511949e-01 -3.666381e-01 6.287183e-01 9.436927e-01 3.154349e-01 -4.400356e-01 -2.963242e-01 6.191834e-01
<VARIANCE> 39
 9.138513e+00 2.425323e+01 2.809267e+01 1.104069e+02 4.047437e+01 4.577350e+01 4.917512e+01 4.767123e+01 4.836151e+01 5.170011e+01 3.846900e+01 3.993981e+01 1.135406e+01 6.218308e-01 2.120935e+00 1.405060e+00 3.823093e+00 2.507438e+00 3.348493e+00 3.428301e+00 3.483202e+00 4.156446e+00 3.607650e+00 3.370112e+00 2.893519e+00 1.028252e+00 8.534705e-02 2.152466e-01 3.766825e-01 8.626974e-01 4.898434e-01 4.502919e-01 5.223448e-01 5.462714e-01 5.679291e-01 6.164314e-01 5.461004e-01 7.034101e-01 1.567001e-01
<GCONST> 1.178253e+02
<MIXTURE> 18 4.842380e-02
<MEAN> 39
 -1.332499e+00 -1.856566e-01 6.090718e+00 -1.085036e+00 -2.268842e+00 -3.623288e+00 -6.662683e+00 -6.323965e+00 -4.734410e+00 -4.323929e+00 -6.133111e+00 -5.003539e+00 5.946522e+01 -7.813938e-01 1.306210e+00 1.153409e+00 1.922979e+00 1.228802e+00 1.102184e+00 7.745464e-01 -6.073620e-01 -3.743618e-01 -4.366951e-01 3.026450e-01 -1.639579e-01 -1.760356e+00 -7.090225e-02 -8.586545e-01 -3.129346e-01 -1.403208e+00 -9.399093e-01 -4.155735e-01 -3.650216e-02 4.843968e-01 -3.128570e-02 1.727958e-01 1.244833e-01 3.264796e-01 1.209992e+00
<VARIANCE> 39
 5.930608e+00 1.381231e+01 1.723088e+01 1.553292e+01 1.765086e+01 2.036297e+01 2.300309e+01 2.556766e+01 2.112245e+01 2.351586e+01 1.830837e+01 1.882868e+01 7.443148e+00 1.133336e+00 2.008862e+00 2.245135e+00 2.446541e+00 2.548534e+00 2.792157e+00 2.258311e+00 2.417661e+00 2.019653e+00 2.404045e+00 2.186680e+00 2.486639e+00 1.098686e+00 1.819887e-01 2.412200e-01 7.218771e-01 4.214071e-01 6.832020e-01 4.694484e-01 5.958463e-01 5.519541e-01 4.988317e-01 4.726342e-01 4.263009e-01 3.835172e-01 1.886204e-01
<GCONST> 1.060564e+02
<MIXTURE> 19 4.014814e-02
<MEAN> 39
 3.718530e-01 -5.571639e+00 1.951673e+00 -5.001673e+00 -3.230486e+00 -9.503036e+00 -1.039547e+01 -9.524322e+00 -3.462577e+00 2.247505e+00 -4.581193e+00 -5.442335e+00 6.551873e+01 -2.529389e-03 1.150959e+00 7.053734e-01 1.141325e+00 7.786686e-01 5.017224e-01 -4.398454e-01 -5.275450e-01 -2.085277e-01 3.121834e-01 4.105166e-01 -3.112853e-01 -1.435320e+00 -2.493505e-01 -7.581912e-01 -1.859664e-01 -1.081429e+00 -6.393293e-01 -1.531381e-01 8.136680e-01 9.846087e-01 7.576499e-03 -4.629996e-01 -3.000562e-01 2.971891e-01 9.644002e-01
<VARIANCE> 39
 8.808167e+00 2.001616e+01 2.711260e+01 3.954226e+01 2.777997e+01 6.684978e+01 3.116356e+01 8.188737e+01 2.966929e+01 3.593908e+01 4.035378e+01 2.908606e+01 1.109084e+01 3.968769e-01 9.987507e-01 2.035264e+00 2.227285e+00 1.922630e+00 3.091394e+00 2.281749e+00 3.659483e+00 2.121268e+00 2.466664e+00 2.050678e+00 2.069922e+00 7.183701e-01 8.445960e-02 2.649837e-01 3.668954e-01 5.857710e-01 5.453017e-01 5.384803e-01 5.879099e-01 7.892411e-01 5.390762e-01 5.696284e-01 6.529287e-01 4.171430e-01 1.567150e-01
<GCONST> 1.112396e+02
<MIXTURE> 20 3.728145e-02
<MEAN> 39
 -3.542254e+00 2.154149e+00 9.169663e+00 2.380283e+00 2.608302e-01 4.031236e-01 -3.286851e+00 -6.533367e+00 -3.903741e+00 -2.989193e+00 -1.651064e+00 -1.865957e+00 5.517427e+01 7.095822e-02 3.374967e-01 2.785342e-01 2.104779e-01 1.269326e-01 1.378962e-01 4.761345e-02 -1.926911e-01 -1.543429e-01 -2.856506e-01 -2.838062e-01 -1.187028e-01 -1.804808e-01 -7.613530e-03 -1.535915e-01 -9.736387e-02 -1.741239e-01 -1.297680e-01 -1.189831e-01 -3.882006e-02 6.338070e-02 -3.906132e-02 -1.037310e-02 -1.869361e-02 5.365416e-03 2.164226e-01
<VARIANCE> 39
 4.653359e+00 5.170386e+00 7.980828e+00 6.708547e+00 1.168735e+01 1.857983e+01 1.519727e+01 1.316128e+01 1.211082e+01 1.695353e+01 1.406121e+01 1.757068e+01 7.767904e+00 4.189387e-01 4.326665e-01 4.195998e-01 5.984718e-01 1.101528e+00 1.244517e+00 1.565050e+00 1.400666e+00 1.200885e+00 1.453945e+00 1.196405e+00 1.074918e+00 1.969368e-01 7.206092e-02 9.221908e-02 1.041339e-01 1.268648e-01 1.799980e-01 1.897032e-01 2.329360e-01 2.088249e-01 1.712487e-01 2.583833e-01 2.097367e-01 1.763538e-01 5.997632e-02
<GCONST> 7.462623e+01
<MIXTURE> 21 2.637955e-02
<MEAN> 39
 -9.032283e-01 -2.777736e+00 5.276613e+00 -3.966227e+00 -8.041931e+00 -1.645961e+01 -6.481969e+00 -1.061312e+01 -4.368075e+00 -2.965085e+00 -7.734910e+00 -5.493948e+00 6.610867e+01 2.831944e-01 7.576532e-01 1.577988e-02 3.387489e-01 2.833017e-01 9.153673e-01 -5.666170e-01 -4.255690e-01 -3.971365e-01 1.050249e-01 8.025020e-02 -1.197480e-01 -8.167239e-01 -1.348878e-01 -2.013410e-01 1.094723e-01 -2.906508e-01 -9.489123e-03 4.069649e-01 2.674048e-02 1.042240e-01 -1.402958e-01 1.680332e-01 1.242712e-01 4.319899e-02 1.448381e-01
<VARIANCE> 39
 7.013459e+00 1.731962e+01 1.972404e+01 2.939036e+01 2.460985e+01 5.257404e+01 3.357656e+01 1.198167e+02 2.670860e+01 4.142866e+01 2.812593e+01 3.216769e+01 9.482320e+00 1.328660e-01 3.623198e-01 3.850262e-01 7.542768e-01 1.099128e+00 1.334918e+00 9.152006e-01 1.490025e+00 1.283281e+00 1.453099e+00 1.023007e+00 1.293673e+00 1.977523e-01 7.844229e-02 1.279067e-01 2.164384e-01 3.418037e-01 3.800609e-01 2.422022e-01 3.020435e-01 5.324702e-01 1.829421e-01 3.270789e-01 2.551134e-01 2.812568e-01 1.342816e-01
<GCONST> 9.119955e+01
<MIXTURE> 22 3.351639e-02
<MEAN> 39
 8.887565e-01 2.955372e+00 6.539483e+00 1.322390e-01 -6.367705e+00 -7.514850e+00 -1.249174e+01 -1.304231e+01 -7.737440e+00 -2.873893e+00 -3.188029e+00 -4.095677e+00 5.973967e+01 -7.208782e-01 5.280800e-01 7.506137e-01 5.874178e-01 1.441913e+00 1.060659e+00 7.355778e-01 1.656019e-01 1.375937e-01 -6.298169e-01 2.660949e-01 5.341070e-01 -1.123384e+00 -2.473433e-01 -7.192107e-01 4.660796e-02 -5.567865e-01 -2.911461e-01 -1.159802e-01 3.395530e-01 8.347412e-01 2.586547e-01 1.707643e-01 -1.450896e-01 -8.423850e-02 6.205617e-01
<VARIANCE> 39
 2.471669e+00 8.600362e+00 1.142304e+01 7.426536e+00 2.130748e+01 2.073031e+01 1.900861e+01 4.091447e+01 1.541691e+01 2.842630e+01 2.341514e+01 3.133921e+01 3.505568e+00 3.526640e-01 4.560894e-01 6.379850e-01 9.119782e-01 1.666390e+00 1.671374e+00 1.373451e+00 2.209625e+00 1.396207e+00 1.581386e+00 1.280779e+00 1.703054e+00 2.414209e-01 8.256474e-02 1.353796e-01 4.180207e-01 3.932624e-01 4.036437e-01 2.444396e-01 3.153196e-01 3.330513e-01 2.919375e-01 3.270098e-01 3.515979e-01 4.065023e-01 1.252725e-01
<GCONST> 8.853266e+01
<MIXTURE> 23 3.420486e-02
<MEAN> 39
 7.409037e-01 2.140478e-01 4.868361e+00 -2.297518e+00 -1.953203e+00 -7.429107e-01 -6.337048e+00 -9.461761e+00 -6.529604e+00 -2.604844e+00 -1.468932e+00 -2.180173e+00 5.923031e+01 -8.735608e-01 1.560806e+00 1.031616e+00 1.760262e+00 1.470008e+00 1.106189e+00 1.560274e+00 1.245285e-01 2.926969e-01 -9.885200e-01 -2.496512e-01 -1.973813e-01 -2.033077e+00 -2.788754e-01 -5.614530e-01 1.126584e-01 -5.066128e-01 -5.611030e-01 -5.211304e-01 -1.759439e-01 6.322621e-01 1.888329e-01 1.944136e-01 -1.625820e-01 -1.039910e-01 7.402524e-01
<VARIANCE> 39
 4.510322e+00 8.991898e+00 1.568625e+01 2.668204e+01 1.848689e+01 2.374206e+01 2.474055e+01 2.620332e+01 3.021040e+01 2.619779e+01 2.120171e+01 1.739268e+01 5.820398e+00 8.868983e-01 1.468123e+00 2.715208e+00 4.647213e+00 3.140694e+00 3.570851e+00 3.722322e+00 4.680748e+00 5.062356e+00 2.876015e+00 2.969810e+00 3.542815e+00 1.115398e+00 1.227238e-01 1.414122e-01 3.633251e-01 3.623522e-01 3.270886e-01 3.645379e-01 5.228558e-01 3.883685e-01 4.233133e-01 4.995818e-01 3.844398e-01 3.689441e-01 8.273305e-02
<GCONST> 1.057345e+02
<MIXTURE> 24 3.294038e-02
<MEAN> 39
 -2.158044e+00 3.103115e+00 8.326752e+00 3.229110e-02 -1.637087e+00 9.771505e-02 -2.136620e+00 -5.551748e+00 -7.499524e+00 -6.995678e+00 -7.911131e+00 -4.934494e+00 5.752261e+01 -2.677604e-01 8.356854e-02 3.463432e-01 4.554421e-01 3.250493e-01 1.380609e-01 4.660818e-01 1.083196e-01 1.652290e-01 -3.677190e-01 -3.045151e-01 -3.426771e-01 -2.608708e-01 8.556480e-02 -2.121294e-01 -2.576451e-01 -3.810339e-01 -2.198962e-01 -2.266376e-01 -2.187385e-01 2.415015e-02 1.100824e-01 2.688973e-01 2.802257e-01 2.151593e-01 2.914771e-01
<VARIANCE> 39
 7.006476e+00 7.344706e+00 1.301563e+01 1.846465e+01 1.967138e+01 2.246704e+01 2.128039e+01 2.630544e+01 2.312239e+01 3.976077e+01 4.656063e+01 1.737137e+01 7.729832e+00 4.029264e-01 3.353422e-01 7.339359e-01 8.375713e-01 1.086870e+00 1.132408e+00 1.035644e+00 1.430603e+00 1.022538e+00 1.620590e+00 1.971250e+00 1.001865e+00 2.836614e-01 7.601676e-02 9.253820e-02 1.629923e-01 2.526004e-01 2.337448e-01 2.513392e-01 2.370686e-01 2.676250e-01 2.778739e-01 4.130297e-01 3.799302e-01 1.936962e-01 9.445987e-02
<GCONST> 8.624876e+01
<MIXTURE> 25 3.101013e-02
<MEAN> 39
 1.730218e+00 1.036035e+00 3.677888e+00 -1.229538e+00 -9.499228e+00 -8.687957e+00 -8.739851e+00 -4.749319e+00 -5.779570e+00 -3.600560e+00 -7.186000e+00 -8.898339e+00 6.182528e+01 3.188907e-02 6.986281e-01 2.915165e-01 4.827398e-02 1.495263e-01 3.982846e-01 1.097492e-01 -3.350698e-02 5.333676e-01 -1.444464e-01 -1.886038e-01 -2.089873e-01 -6.918598e-01 -1.504910e-01 -2.283407e-01 7.003390e-02 -7.074464e-02 3.058735e-01 2.463103e-01 -1.883214e-02 -1.749493e-01 -9.356172e-02 1.487733e-01 3.436401e-01 3.573401e-01 6.908736e-02
<VARIANCE> 39
 3.401168e+00 6.648067e+00 1.387002e+01 2.877479e+01 2.951196e+01 3.037004e+01 3.643793e+01 5.460682e+01 2.970552e+01 4.085222e+01 2.534331e+01 3.390197e+01 4.818151e+00 1.397246e-01 4.023729e-01 4.832145e-01 7.480722e-01 9.159434e-01 1.725169e+00 1.061568e+00 1.856310e+00 1.265364e+00 1.425233e+00 1.203133e+00 1.278971e+00 1.516613e-01 4.965940e-02 1.301678e-01 1.594605e-01 1.703251e-01 2.497028e-01 3.279444e-01 3.043432e-01 2.970939e-01 2.234947e-01 3.295227e-01 2.795909e-01 2.421131e-01 1.140322e-01
<GCONST> 8.595727e+01
<MIXTURE> 26 3.049131e-02
<MEAN> 39
 1.997652e+00 1.693547e+00 5.313469e+00 -7.859907e-01 -8.366624e+00 -9.133587e+00 -1.176508e+01 -8.795053e+00 -5.165712e+00 -1.253843e+00 -5.140322e+00 -7.822933e+00 6.032312e+01 -3.980671e-01 9.733758e-01 7.411769e-01 5.306280e-01 1.192875e+00 1.234403e+00 3.689447e-01 -7.662174e-01 -1.910220e-02 -5.736965e-01 8.660285e-01 1.063132e+00 -1.238042e+00 -3.148758e-01 -2.998469e-01 1.663254e-01 7.375867e-02 3.981285e-01 2.176767e-01 2.184008e-01 1.128173e-01 -5.563641e-02 -9.456413e-02 1.899858e-01 2.893475e-01 4.736395e-02
<VARIANCE> 39
 2.741794e+00 8.948186e+00 1.046322e+01 9.375909e+00 2.854275e+01 1.551228e+01 2.515057e+01 3.539288e+01 2.771387e+01 3.042298e+01 2.060753e+01 2.668116e+01 6.857415e+00 1.681440e-01 4.804537e-01 6.621553e-01 8.063616e-01 2.076048e+00 1.722349e+00 1.082309e+00 1.584986e+00 2.009431e+00 2.079906e+00 1.654083e+00 1.756753e+00 1.828503e-01 3.915608e-02 8.817016e-02 1.119803e-01 1.400994e-01 2.702275e-01 2.003093e-01 1.929197e-01 2.757981e-01 3.433668e-01 2.720229e-01 3.259864e-01 2.832900e-01 7.905210e-02
<GCONST> 8.382385e+01
<MIXTURE> 27 1.968491e-02
<MEAN> 39
 -1.005022e+01 -4.250603e+00 4.670531e+00 1.146631e+00 1.976430e+00 3.983644e+00 2.356666e+00 5.831084e-01 1.720950e+00 5.756001e-01 2.483807e+00 2.339828e+00 5.218415e+01 1.917441e+00 1.767851e+00 1.068867e+00 1.605771e-01 -1.063867e+00 -2.008272e+00 -2.607404e+00 -2.784285e+00 -2.289937e+00 -1.830021e+00 -2.100778e+00 -2.017711e+00 1.144562e+00 6.275601e-01 4.470008e-01 1.818398e-01 -4.043245e-02 -4.343539e-01 -6.752691e-01 -7.704624e-01 -8.413544e-01 -5.907939e-01 -2.482083e-01 -5.148373e-01 -5.271358e-01 4.766508e-01
<VARIANCE> 39
 2.387393e+00 4.257126e+00 7.772244e+00 9.730003e+00 1.023023e+01 1.249106e+01 1.677603e+01 1.816787e+01 1.176649e+01 1.962538e+01 1.978888e+01 1.734895e+01 3.312156e+00 1.023367e+00 1.030604e+00 7.483817e-01 1.593023e+00 1.052068e+00 3.339781e+00 3.240349e+00 3.567046e+00 2.120373e+00 2.562041e+00 2.186964e+00 2.453331e+00 5.251418e-01 1.212424e-01 1.912524e-01 1.530349e-01 2.937236e-01 2.762282e-01 3.643644e-01 5.570900e-01 5.688899e-01 3.103456e-01 5.670452e-01 5.316719e-01 4.514264e-01 9.181597e-02
<GCONST> 9.216750e+01
<MIXTURE> 28 4.516722e-02
<MEAN> 39
 1.347754e+00 -1.026171e+00 4.778509e+00 1.254775e+00 -1.032184e+00 -3.250492e+00 -7.809163e+00 -1.087804e+01 -1.384570e+01 8.668087e-01 2.289583e+00 -5.918215e+00 6.174123e+01 -2.306228e-02 7.735099e-01 3.539158e-01 2.216006e-01 -1.663487e-01 4.663275e-01 2.293171e-01 6.409122e-02 6.256035e-01 -1.967029e-01 -2.917649e-01 -4.482670e-01 -7.516425e-01 -2.173011e-02 4.424015e-02 -7.983592e-02 -2.891413e-01 -8.228829e-02 1.697177e-02 1.780350e-01 3.303890e-01 5.069314e-01 -1.215949e-01 -2.798987e-01 1.230632e-01 -3.810323e-02
<VARIANCE> 39
 2.690076e+00 7.637671e+00 1.381912e+01 3.221689e+01 1.239719e+01 2.575827e+01 3.919353e+01 3.349253e+01 4.166263e+01 3.621989e+01 2.912391e+01 1.610890e+01 7.054574e+00 1.148710e-01 3.021425e-01 4.061826e-01 7.519340e-01 7.634075e-01 1.882489e+00 1.183130e+00 1.512529e+00 1.856555e+00 1.483538e+00 2.107941e+00 1.567786e+00 1.902637e-01 3.630453e-02 6.863943e-02 1.163572e-01 2.749834e-01 1.407772e-01 2.537507e-01 1.739627e-01 2.409247e-01 2.979074e-01 2.308726e-01 2.236357e-01 2.250358e-01 7.647877e-02
<GCONST> 8.193734e+01
<MIXTURE> 29 2.007197e-02
<MEAN> 39
 -1.440291e+00 2.619155e+00 7.475914e+00 3.097536e-01 -5.100912e+00 -7.640697e+00 -8.852124e+00 -1.239241e+01 -7.191111e+00 -3.143195e+00 -5.467699e+00 -4.032960e+00 5.889944e+01 1.545497e+00 4.400573e-01 2.395983e-01 -3.323194e-02 -1.003458e+00 -1.203681e+00 -1.361115e+00 -1.636628e+00 -1.139128e+00 -3.523926e-01 -1.282732e+00 -1.489762e+00 1.106631e+00 -6.980777e-01 -6.460690e-01 -2.735379e-01 -1.008613e-01 6.125860e-01 1.009595e+00 8.218499e-01 1.230884e+00 7.272836e-01 3.134916e-01 5.716598e-01 3.365029e-01 -2.885301e-01
<VARIANCE> 39
 1.292485e+01 1.561357e+01 1.663813e+01 2.454965e+01 1.684056e+01 7.506120e+01 4.124303e+01 5.728997e+01 3.084104e+01 4.066399e+01 4.626595e+01 3.612613e+01 9.689276e+00 1.333689e+00 1.499519e+00 1.232893e+00 1.810068e+00 2.261073e+00 3.949399e+00 3.599082e+00 4.718026e+00 2.236010e+00 3.477762e+00 3.958831e+00 3.839764e+00 7.940497e-01 2.036916e-01 4.163533e-01 3.541791e-01 6.335284e-01 3.188142e-01 9.815469e-01 6.882859e-01 9.239886e-01 5.252545e-01 5.963087e-01 5.321612e-01 1.001965e+00 2.596644e-01
<GCONST> 1.170781e+02
<MIXTURE> 30 1.849918e-02
<MEAN> 39
 -1.009022e+01 -1.992630e+00 5.763127e+00 1.909889e+00 2.146630e+00 3.299329e+00 7.467642e-01 -7.562776e-01 9.204510e-01 6.925671e-01 1.062391e+00 1.481238e+00 5.426738e+01 6.324669e-01 -5.480593e-02 4.746567e-02 3.132569e-01 -3.956934e-01 3.504331e-02 -6.554680e-02 -3.807671e-01 -2.059553e-01 -2.149840e-01 -5.061014e-01 -3.579213e-01 -2.591536e-01 4.077143e-01 1.898487e-01 -1.493855e-01 -6.042439e-01 -5.453129e-01 -7.351167e-01 -4.803685e-01 -2.901300e-01 -3.475200e-01 -3.823025e-01 -3.804296e-01 -4.621697e-01 1.001777e+00
<VARIANCE> 39
 8.012297e+00 7.332809e+00 1.298807e+01 9.208158e+00 1.279245e+01 1.605091e+01 2.572313e+01 1.609256e+01 1.283043e+01 1.666638e+01 1.321861e+01 1.607553e+01 2.074485e+01 1.217640e+00 1.008388e+00 8.097541e-01 1.290418e+00 1.395612e+00 1.910734e+00 1.824340e+00 2.323713e+00 1.747822e+00 2.817025e+00 1.766751e+00 1.757372e+00 1.307434e+00 3.617997e-01 1.834623e-01 3.979815e-01 5.216908e-01 4.204341e-01 4.353210e-01 4.953602e-01 3.881097e-01 3.461314e-01 3.658341e-01 3.076127e-01 4.895258e-01 3.896880e-01
<GCONST> 9.877731e+01
<MIXTURE> 31 1.927860e-02
<MEAN> 39
 1.060869e+00 2.890994e-01 7.372113e+00 7.538267e+00 -8.244297e-01 -4.219582e+00 -5.872613e+00 -1.108156e+01 -1.151489e+01 1.228961e+00 1.400876e+00 -8.292025e+00 5.940955e+01 -3.056915e-01 9.994746e-01 8.118410e-01 -6.364451e-01 6.889216e-01 1.689632e+00 7.910309e-01 5.959560e-01 1.155908e+00 -8.129129e-01 -7.861437e-01 4.255858e-01 -1.280057e+00 -1.971616e-01 -9.742749e-02 -6.414337e-02 -3.531111e-01 1.728400e-01 8.011600e-02 1.031341e-01 2.909066e-01 4.308394e-01 -1.667119e-01 -1.351712e-01 3.208354e-01 5.139505e-02
<VARIANCE> 39
 3.996803e+00 6.538627e+00 1.390892e+01 2.009304e+01 1.149332e+01 2.316002e+01 5.761339e+01 2.923116e+01 3.303402e+01 2.832137e+01 1.982799e+01 2.124504e+01 6.891448e+00 1.832737e-01 4.792173e-01 5.534320e-01 9.902937e-01 1.155775e+00 9.639624e-01 1.982662e+00 1.942313e+00 2.575271e+00 1.145287e+00 1.312565e+00 1.435464e+00 2.561121e-01 2.921720e-02 9.358428e-02 1.059018e-01 1.746263e-01 2.476530e-01 2.788500e-01 3.592792e-01 2.653685e-01 4.001857e-01 2.920842e-01 2.934191e-01 2.995127e-01 7.313582e-02
<GCONST> 8.506767e+01
<MIXTURE> 32 1.001467e-02
<MEAN> 39
 -4.888371e+00 1.665645e+00 6.610146e+00 1.633664e+00 -1.384101e+00 -1.416928e+00 -6.039957e+00 -8.042295e+00 -6.664071e+00 -5.008338e+00 -3.330333e+00 -2.499654e+00 5.531430e+01 2.973858e+00 1.794788e+00 5.650636e-01 3.258066e-01 -2.238336e+00 -2.640645e+00 -3.481364e+00 -4.231051e+00 -3.032094e+00 -1.322708e+00 -2.771327e+00 -2.572881e+00 1.916367e+00 -1.077496e-01 -2.997020e-01 -2.613347e-01 -1.312452e-01 -4.936894e-02 1.919036e-01 3.925967e-01 3.367026e-01 4.226589e-01 4.188919e-01 1.639828e-01 1.935393e-01 1.288975e-01
<VARIANCE> 39
 1.413461e+01 9.609393e+00 1.903526e+01 9.605998e+00 1.389943e+01 3.710964e+01 4.077100e+01 3.885512e+01 2.188513e+01 1.853574e+01 1.987309e+01 1.414571e+01 8.967400e+00 1.060299e+00 2.079952e+00 1.811332e+00 3.632754e+00 2.239613e+00 4.973844e+00 3.467325e+00 6.311361e+00 3.727902e+00 3.729753e+00 3.509728e+00 3.590950e+00 5.130309e-01 1.921448e-01 1.885354e-01 2.443642e-01 1.717594e-01 2.532355e-01 4.632174e-01 5.703307e-01 6.136625e-01 3.288761e-01 5.995828e-01 5.067379e-01 5.077054e-01 1.021231e-01
<GCONST> 1.069742e+02
<STATE> 3
<NUMMIXES> 32
<MIXTURE> 1 1.386035e-02
<MEAN> 39
 -2.006177e+00 4.767213e+00 1.133088e+01 5.070277e+00 2.254900e+00 4.289772e+00 5.023153e-01 -4.518837e+00 -4.623574e+00 -1.555677e+00 -6.216398e-01 -3.553393e+00 5.523695e+01 -8.814726e-01 2.142615e-01 1.197036e+00 1.134755e+00 1.908862e+00 8.524857e-01 9.452599e-01 8.757241e-01 1.789037e+00 -2.892985e-01 -7.269264e-01 5.432811e-01 -1.321235e+00 3.509308e-02 -6.948806e-01 -7.304065e-01 -8.956280e-01 -6.560563e-01 -4.989073e-01 -2.880140e-01 4.062770e-01 -1.587436e-01 1.538372e-01 3.995003e-01 4.805902e-02 9.168456e-01
<VARIANCE> 39
 6.058748e+00 4.042743e+00 5.246595e+00 2.157613e+01 1.274956e+01 1.592455e+01 9.426669e+00 1.552492e+01 2.339931e+01 1.014690e+01 1.398828e+01 2.080909e+01 2.639527e+00 5.816315e-01 9.602851e-01 8.595917e-01 3.513128e+00 1.337147e+00 3.052058e+00 1.696558e+00 1.514409e+00 2.205373e+00 1.357450e+00 2.360433e+00 1.531190e+00 3.375299e-01 1.448933e-01 1.262049e-01 2.053710e-01 4.974131e-01 4.111926e-01 4.999553e-01 2.257068e-01 1.599833e-01 4.540754e-01 3.458374e-01 4.330288e-01 4.588230e-01 1.266000e-01
<GCONST> 8.946623e+01
<MIXTURE> 2 3.280006e-02
<MEAN> 39
 2.911261e+00 -3.452650e-01 1.022927e+00 -1.196567e+01 -6.144574e+00 6.916279e-01 -1.078038e+00 -5.523283e+00 -8.734060e+00 -3.610805e+00 1.813326e+00 1.174628e+00 6.210295e+01 2.345258e-01 -4.446508e-01 -7.062264e-01 -1.282081e+00 -3.820515e-01 -1.924175e-01 -1.903292e-01 3.294534e-01 9.294153e-01 9.436795e-01 2.660048e-01 -1.264578e-01 7.101182e-01 -2.702220e-02 -7.584969e-01 -3.867989e-01 -4.616582e-01 1.032516e-01 -2.270942e-01 -5.405473e-01 2.853912e-01 4.821510e-01 6.113631e-01 2.871894e-02 -5.758758e-01 7.885324e-01
<VARIANCE> 39
 5.251000e+00 1.365016e+01 1.519719e+01 5.022122e+01 2.437902e+01 3.455768e+01 1.739839e+01 1.646856e+01 2.815070e+01 3.038614e+01 4.714684e+01 1.556307e+01 1.537898e+01 3.247249e-01 1.755403e+00 1.274105e+00 4.187117e+00 1.850922e+00 1.623943e+00 1.861233e+00 1.516288e+00 2.041537e+00 2.774646e+00 4.414447e+00 1.741712e+00 1.623129e+00 1.144407e-01 1.553257e-01 1.683347e-01 5.319936e-01 3.598558e-01 2.942803e-01 2.953894e-01 3.033420e-01 5.808267e-01 3.390325e-01 7.283075e-01 5.097958e-01 1.434621e-01
<GCONST> 1.029145e+02
<MIXTURE> 3 2.951975e-02
<MEAN> 39
 3.327391e+00 -6.532676e+00 1.628991e+00 -5.058652e+00 -4.082647e+00 -8.179234e+00 -1.011873e+01 -4.438900e+00 -2.774597e+00 1.690947e+00 3.349790e+00 -2.003675e+00 6.575639e+01 -4.476207e-02 -6.904445e-01 5.992531e-01 1.774086e-01 -5.726725e-01 -1.251467e+00 -6.142013e-01 1.183926e+00 4.953184e-01 -2.638642e-01 -5.968741e-01 7.456814e-02 6.208797e-01 -2.403033e-01 -4.265779e-01 1.900445e-01 -3.719945e-01 -5.987027e-01 -3.905405e-01 2.102300e-01 7.160823e-01 -3.565617e-02 -1.686707e-01 -1.374939e-01 -1.002988e-01 6.621238e-01
<VARIANCE> 39
 6.173662e+00 2.315050e+01 2.212117e+01 2.483205e+01 1.897766e+01 4.010949e+01 2.786026e+01 2.092307e+01 2.637982e+01 2.300485e+01 4.119023e+01 2.218226e+01 1.521213e+01 7.612065e-01 5.836711e-01 2.214392e+00 1.796547e+00 1.274419e+00 2.240737e+00 2.522212e+00 1.483362e+00 2.312814e+00 2.008824e+00 1.354042e+00 1.529569e+00 6.487392e-01 1.306808e-01 2.286026e-01 3.377099e-01 4.616857e-01 3.408528e-01 4.894239e-01 4.308454e-01 4.924498e-01 5.734730e-01 2.790474e-01 3.398899e-01 3.453355e-01 1.232311e-01
<GCONST> 1.018898e+02
<MIXTURE> 4 2.707310e-02
<MEAN> 39
 -1.967321e+00 3.891890e+00 1.192829e+01 4.162407e+00 2.255991e+00 2.678489e+00 -8.242724e-01 -6.989802e+00 -5.278298e+00 -4.310615e+00 -3.965415e+00 -5.460652e+00 5.588128e+01 -5.783654e-01 -8.284473e-01 -5.899450e-01 -8.554976e-01 -2.179424e-01 -6.306155e-01 -3.268778e-01 6.288086e-01 9.792381e-01 1.764856e-01 3.518769e-01 3.601611e-01 1.008524e+00 1.967006e-01 -9.182633e-01 -7.487913e-01 -1.076473e+00 -8.559946e-01 -1.461174e+00 -6.213771e-01 7.124718e-01 -4.012403e-01 6.788036e-01 6.199935e-01 2.238061e-01 1.416043e+00
<VARIANCE> 39
 6.386419e+00 3.748521e+00 7.663803e+00 1.319169e+01 1.282105e+01 1.310195e+01 1.233737e+01 1.867051e+01 1.677569e+01 1.345209e+01 1.927959e+01 1.393631e+01 8.257705e+00 1.308881e+00 8.231643e-01 1.305243e+00 1.952556e+00 1.956096e+00 2.543445e+00 2.233304e+00 3.608151e+00 2.845701e+00 1.930541e+00 2.876762e+00 1.880685e+00 1.196851e+00 1.622187e-01 1.611835e-01 6.658031e-01 8.155405e-01 7.091140e-01 1.096703e+00 4.461963e-01 8.461632e-01 7.481588e-01 7.090229e-01 3.941515e-01 4.192364e-01 1.532099e-01
<GCONST> 1.016384e+02
<MIXTURE> 5 3.946774e-02
<MEAN> 39
 -1.166723e+00 3.428077e+00 8.330291e+00 8.780074e-01 -2.292843e+00 -4.553966e+00 -5.761838e+00 -5.813734e+00 -2.342386e+00 -1.638933e+00 -1.675202e+00 -3.786359e+00 5.691615e+01 -1.263648e+00 -1.032285e+00 8.177885e-01 3.024197e-01 -5.022888e-02 -3.592384e-01 2.724803e-01 1.017798e+00 3.241915e-01 -1.717429e-02 6.907063e-01 8.667027e-01 5.981476e-01 -7.339018e-03 -9.124105e-01 3.930382e-01 -6.697276e-01 -1.124459e+00 -4.894505e-01 -2.607357e-01 3.159874e-01 -6.093264e-01 -1.423376e-02 1.208607e-02 5.607140e-02 1.072087e+00
<VARIANCE> 39
 4.499058e+00 8.352763e+00 6.544854e+00 1.067596e+01 1.309363e+01 1.738603e+01 2.029176e+01 2.163176e+01 2.582193e+01 1.883028e+01 1.427895e+01 1.390236e+01 7.167105e+00 1.104028e+00 1.316365e+00 2.086494e+00 1.812638e+00 3.406199e+00 2.462560e+00 3.668823e+00 2.366796e+00 2.941662e+00 2.794158e+00 1.763255e+00 1.783646e+00 8.524356e-01 1.477747e-01 2.349629e-01 5.998985e-01 7.002558e-01 5.467135e-01 4.883507e-01 5.824050e-01 4.778015e-01 6.076806e-01 5.251801e-01 3.905861e-01 3.691764e-01 1.543842e-01
<GCONST> 1.018201e+02
<MIXTURE> 6 2.610863e-02
<MEAN> 39
 -2.989482e+00 3.266487e+00 1.019795e+01 4.349670e+00 3.017893e+00 3.090430e+00 -4.084744e-01 -3.914301e+00 -3.527671e+00 -2.275608e+00 4.213090e-01 -7.759469e-01 5.390941e+01 -1.307609e-01 1.764690e-01 9.545867e-02 7.307781e-02 2.341453e-02 1.546909e-01 3.120385e-01 1.128020e-01 1.446123e-01 -2.241855e-01 -2.040177e-01 4.955418e-02 -1.777679e-01 1.753067e-03 -6.046171e-01 -5.044371e-01 -7.222540e-01 -5.527971e-01 -6.182190e-01 -4.672785e-01 2.088958e-01 1.101427e-01 2.284658e-01 8.705486e-02 -1.574535e-01 8.537762e-01
<VARIANCE> 39
 7.789118e+00 3.963876e+00 7.351923e+00 1.205045e+01 1.212588e+01 1.560122e+01 1.817123e+01 2.507821e+01 1.952045e+01 1.403528e+01 1.553401e+01 1.280849e+01 5.860950e+00 3.834697e-01 4.086731e-01 4.930279e-01 5.225505e-01 5.574012e-01 5.904325e-01 1.160387e+00 1.081334e+00 1.174826e+00 1.184475e+00 8.768364e-01 1.415378e+00 2.763166e-01 1.530947e-01 1.415575e-01 3.119173e-01 3.433722e-01 2.704754e-01 3.529228e-01 3.846577e-01 4.022851e-01 3.584959e-01 3.820365e-01 3.281004e-01 2.934089e-01 1.668389e-01
<GCONST> 8.239623e+01
<MIXTURE> 7 3.988160e-02
<MEAN> 39
 1.939435e-01 1.219001e+00 6.926543e+00 1.878172e+00 -1.303755e-01 -5.343934e+00 -1.261577e+01 -1.461198e+01 -6.239412e+00 1.274772e+00 -1.936709e+00 -5.808318e+00 5.911267e+01 -4.342599e-01 -3.995884e-01 -4.562920e-01 -1.094752e+00 -1.405080e-01 4.721197e-01 1.336826e+00 2.642295e+00 1.297390e+00 -9.861426e-01 3.185196e-03 3.160002e-01 1.467549e-01 -3.120644e-02 -1.331889e+00 -5.642734e-01 -1.368053e+00 -9.695887e-01 -6.230911e-01 7.020191e-01 1.351241e+00 3.046114e-01 6.824377e-02 -3.981550e-01 3.513162e-01 1.360851e+00
<VARIANCE> 39
 2.888411e+00 9.493856e+00 1.285802e+01 1.052178e+01 1.410446e+01 2.683122e+01 1.196288e+01 2.732425e+01 1.871200e+01 3.079895e+01 4.140665e+01 2.183604e+01 6.082032e+00 6.498433e-01 1.351877e+00 1.362971e+00 1.949461e+00 1.843985e+00 2.964138e+00 2.739499e+00 3.464118e+00 2.773944e+00 2.723114e+00 1.913733e+00 2.383889e+00 1.147924e+00 1.649631e-01 1.989886e-01 5.944519e-01 5.593464e-01 6.808904e-01 6.794058e-01 3.944796e-01 6.565570e-01 6.122741e-01 5.924437e-01 6.471617e-01 6.380982e-01 1.850634e-01
<GCONST> 1.048398e+02
<MIXTURE> 8 3.063148e-02
<MEAN> 39
 2.411342e-02 3.797198e+00 5.625560e+00 1.109886e+00 -5.786972e+00 -7.864231e-01 1.563820e+00 -8.216962e+00 -1.164160e+01 -6.951379e+00 -1.949901e+00 -7.176047e+00 6.177528e+01 -1.487707e-01 -1.166327e+00 -8.767083e-01 -2.604668e+00 6.086944e-01 -3.052027e-01 -1.638829e+00 1.833938e+00 2.322295e+00 1.324277e+00 7.988265e-01 1.648087e+00 8.217555e-01 5.441574e-02 -9.750717e-01 -7.173305e-01 -1.271971e+00 -5.638892e-01 -4.114178e-01 -5.893690e-01 -1.017997e-01 5.675126e-01 7.174313e-01 4.604065e-01 1.170917e-01 1.184814e+00
<VARIANCE> 39
 7.372699e+00 2.301393e+01 1.423081e+01 3.676936e+01 2.896857e+01 2.445570e+01 4.104492e+01 4.239146e+01 3.903600e+01 3.936752e+01 2.955668e+01 3.710765e+01 7.744794e+00 1.001313e+00 2.276969e+00 3.379508e+00 7.890267e+00 3.308212e+00 4.133747e+00 4.968498e+00 4.854978e+00 4.117191e+00 5.098787e+00 3.461914e+00 3.839034e+00 1.840448e+00 1.794354e-01 1.997378e-01 5.534493e-01 1.085958e+00 7.172992e-01 6.057390e-01 5.113872e-01 8.063286e-01 6.391726e-01 7.031668e-01 6.638482e-01 7.299350e-01 1.791843e-01
<GCONST> 1.208271e+02
<MIXTURE> 9 3.707718e-02
<MEAN> 39
 -1.026796e+00 1.921409e+00 7.796385e+00 4.953557e-01 -3.688846e+00 -3.977312e+00 -6.062160e+00 -4.728120e+00 -3.999355e+00 -3.847412e+00 -4.056577e+00 -4.588804e+00 5.828240e+01 -9.410163e-01 -9.641533e-01 1.957454e+00 -9.215195e-01 -1.342284e+00 -4.181151e-01 3.952851e-01 1.158056e-01 -8.853507e-01 4.715593e-01 7.381221e-01 6.454763e-01 1.088430e+00 -2.595477e-01 -6.094096e-01 8.742088e-01 -1.361328e+00 -1.065297e+00 -4.507771e-01 -2.216590e-01 -1.425409e-01 -4.263889e-01 6.207863e-01 -2.020898e-01 2.743002e-01 1.052316e+00
<VARIANCE> 39
 8.623914e+00 9.545736e+00 9.750996e+00 1.063365e+01 2.091908e+01 1.660861e+01 1.989073e+01 2.286487e+01 1.755821e+01 1.536218e+01 1.658190e+01 1.758278e+01 8.298320e+00 8.116456e-01 1.203206e+00 2.076893e+00 1.865668e+00 2.064934e+00 2.235308e+00 1.826253e+00 2.439592e+00 2.013595e+00 1.849587e+00 1.604424e+00 1.543851e+00 8.323002e-01 1.758020e-01 2.236475e-01 3.357868e-01 5.492601e-01 5.603604e-01 4.622336e-01 5.138903e-01 5.698565e-01 4.863734e-01 3.719283e-01 4.170813e-01 4.040226e-01 1.637625e-01
<GCONST> 9.967567e+01
<MIXTURE> 10 3.794814e-02
<MEAN> 39
 -3.266823e+00 3.233305e+00 9.625044e+00 2.871953e+00 6.221899e-01 5.315849e-01 -3.213002e+00 -7.250878e+00 -6.269248e+00 -6.098387e+00 -4.691442e+00 -4.613818e+00 5.556906e+01 -3.228895e-01 -5.191081e-01 -7.048918e-01 -1.086180e+00 -2.201025e-01 -4.193850e-01 1.274549e-01 8.058641e-01 6.783888e-01 6.631978e-01 5.770947e-01 8.672598e-02 1.100421e+00 3.634931e-01 -1.023364e+00 -1.153033e+00 -1.799567e+00 -9.558145e-01 -4.411974e-01 -3.326974e-01 5.491764e-01 3.378226e-01 6.794997e-01 2.039535e-01 4.380471e-01 1.445976e+00
<VARIANCE> 39
 8.311330e+00 6.187719e+00 7.922337e+00 1.222202e+01 1.328497e+01 1.510655e+01 2.283217e+01 2.328324e+01 1.738110e+01 1.840947e+01 1.829837e+01 1.599280e+01 4.168283e+00 2.067141e+00 9.221507e-01 1.784159e+00 2.211261e+00 2.006214e+00 2.309786e+00 3.244665e+00 3.418044e+00 2.449302e+00 1.705941e+00 1.768924e+00 2.758741e+00 1.844217e+00 3.333571e-01 4.563671e-01 6.175165e-01 6.343836e-01 5.292662e-01 6.961379e-01 5.578625e-01 5.692080e-01 5.987821e-01 5.487680e-01 6.254689e-01 4.403320e-01 3.915857e-01
<GCONST> 1.059212e+02
<MIXTURE> 11 3.131892e-02
<MEAN> 39
 2.220966e+00 -8.685715e-01 1.673760e+00 -5.915439e+00 -2.795864e+00 5.219003e-01 -3.546729e+00 -8.092859e+00 -1.044762e+01 -3.132349e+00 1.885445e+00 -1.835150e-02 6.112942e+01 3.602997e-02 1.801883e-01 -3.989087e-01 -9.839134e-01 -2.886211e-01 -2.180429e-01 1.260395e-01 3.622669e-01 8.322215e-01 4.785577e-01 -1.783177e-02 2.149610e-01 1.473412e-01 1.240247e-01 -8.217923e-01 -3.962876e-01 -8.827956e-01 -5.162550e-01 -4.613083e-01 -6.325150e-01 4.912044e-01 7.711267e-01 6.263948e-01 8.012226e-03 -4.267746e-01 1.000101e+00
<VARIANCE> 39
 3.924135e+00 1.044841e+01 1.773587e+01 3.536560e+01 1.497449e+01 2.349277e+01 1.988983e+01 1.585779e+01 3.757735e+01 2.020393e+01 2.738644e+01 1.839384e+01 6.417144e+00 4.342499e-01 1.039873e+00 1.212004e+00 3.650681e+00 1.843669e+00 2.158601e+00 2.368656e+00 1.422310e+00 3.470668e+00 2.381465e+00 1.916800e+00 1.611017e+00 9.458555e-01 6.957545e-02 1.902279e-01 3.673040e-01 5.473310e-01 5.511132e-01 5.151036e-01 3.861919e-01 6.524310e-01 6.893728e-01 4.266850e-01 8.279257e-01 4.026800e-01 1.268747e-01
<GCONST> 1.016808e+02
<MIXTURE> 12 3.742749e-02
<MEAN> 39
 1.373600e+00 -7.013681e+00 3.439873e+00 -8.871389e+00 -5.889915e+00 -1.197560e+01 -1.055418e+01 1.159554e-01 -3.369216e+00 2.155339e+00 -2.926676e+00 -3.758577e+00 6.804389e+01 -3.532731e-01 3.620619e-02 9.700422e-01 7.986189e-02 -9.654914e-01 -6.468589e-01 3.715181e-01 6.338806e-01 -7.053559e-01 -3.718216e-01 7.081836e-02 5.114107e-01 1.874887e-01 -3.127257e-01 -2.966960e-01 2.690957e-01 -4.381665e-01 -5.782019e-01 3.683281e-02 5.597945e-01 2.763452e-01 -3.431738e-01 -8.593408e-02 2.100332e-02 3.629678e-02 5.322930e-01
<VARIANCE> 39
 8.463509e+00 2.896491e+01 6.103244e+01 5.207962e+01 2.455588e+01 5.270766e+01 5.358722e+01 3.187455e+01 3.846891e+01 4.523730e+01 3.369476e+01 2.222258e+01 1.174260e+01 2.688006e-01 7.221186e-01 1.680775e+00 1.402760e+00 1.162227e+00 2.147103e+00 1.270126e+00 2.171583e+00 1.915286e+00 1.659936e+00 1.381313e+00 1.282925e+00 4.674406e-01 6.651993e-02 1.121498e-01 2.023681e-01 3.775864e-01 3.197143e-01 3.214627e-01 4.074435e-01 4.293976e-01 2.920744e-01 3.262007e-01 3.642730e-01 3.510619e-01 9.764227e-02
<GCONST> 1.002890e+02
<MIXTURE> 13 2.845008e-02
<MEAN> 39
 -6.381454e+00 -2.767188e-01 5.717981e+00 3.124648e-01 1.607014e+00 2.731413e+00 7.364962e-01 -1.390086e+00 -4.474507e-01 -1.680828e-01 2.123875e-01 2.109355e-01 5.535791e+01 1.810016e-01 1.890367e-01 -2.023978e-01 -4.280112e-01 -3.901988e-01 -2.749633e-01 4.569080e-02 1.067144e-02 -4.194947e-02 -1.088729e-01 -1.863781e-01 -2.132765e-01 3.380132e-01 6.286495e-01 -5.497928e-01 -5.247034e-01 -1.127970e+00 -8.665828e-01 -8.679461e-01 -7.798721e-01 -8.673825e-02 -1.538606e-01 -2.270680e-02 2.116719e-02 -1.713316e-01 1.344261e+00
<VARIANCE> 39
 2.506479e+01 1.290821e+01 1.193588e+01 2.329170e+01 1.705492e+01 1.740517e+01 1.934340e+01 2.702670e+01 3.003080e+01 1.938623e+01 1.815799e+01 1.626306e+01 1.676399e+01 1.756646e+00 1.221565e+00 1.113493e+00 1.595219e+00 1.162620e+00 2.177441e+00 2.246105e+00 2.057765e+00 1.752592e+00 1.890465e+00 1.850980e+00 1.347820e+00 1.173345e+00 3.243139e-01 2.942784e-01 5.504267e-01 7.347161e-01 4.490452e-01 6.776041e-01 5.989333e-01 5.780125e-01 6.252246e-01 5.607701e-01 5.622579e-01 3.377560e-01 2.912580e-01
<GCONST> 1.065322e+02
<MIXTURE> 14 2.934826e-02
<MEAN> 39
 1.067134e+00 -2.592027e-01 5.647457e+00 3.092032e+00 -1.391125e-01 -4.032429e-01 -4.133570e+00 -1.128208e+01 -1.437868e+01 -3.175490e+00 3.852225e+00 -4.143033e+00 6.040644e+01 -4.267979e-01 -6.757557e-01 -7.147493e-01 -2.358800e+00 -4.437567e-01 -7.955471e-01 -7.901002e-01 1.686468e+00 3.868662e+00 1.185770e+00 -9.338387e-01 6.773510e-01 8.960847e-01 -3.516193e-02 -1.166347e+00 -4.916143e-01 -8.771124e-01 -1.065199e+00 -7.917292e-01 -4.222869e-01 6.860138e-01 9.454356e-01 4.469044e-01 -5.518767e-01 -1.620923e-01 1.410912e+00
<VARIANCE> 39
 2.037077e+00 1.023852e+01 1.251789e+01 2.944662e+01 1.557430e+01 2.601750e+01 3.052646e+01 4.725095e+01 2.547183e+01 3.700558e+01 3.375799e+01 2.550352e+01 5.559263e+00 9.242077e-01 1.802782e+00 2.163314e+00 5.104182e+00 2.261776e+00 2.997180e+00 5.537875e+00 5.051277e+00 3.865606e+00 3.433005e+00 2.557342e+00 2.387097e+00 1.637629e+00 1.002894e-01 2.183213e-01 6.908779e-01 8.499765e-01 8.841434e-01 6.484434e-01 5.120525e-01 1.108902e+00 7.850928e-01 5.555227e-01 6.438983e-01 8.936147e-01 2.594070e-01
<GCONST> 1.140624e+02
<MIXTURE> 15 2.234583e-02
<MEAN> 39
 1.158968e+00 -5.374545e+00 -2.760543e-02 -5.538894e+00 -5.428563e-01 -7.584333e+00 -1.070825e+01 -8.417766e+00 -1.722341e+00 4.511003e+00 -3.184843e+00 -5.148201e+00 6.377244e+01 1.804035e-03 -1.169020e+00 -3.826410e-01 -1.457065e+00 -1.052031e+00 -1.044633e+00 5.854867e-01 1.271484e+00 8.049489e-01 3.441159e-01 -6.748835e-01 -1.487235e-01 1.324275e+00 -1.891522e-01 -1.037911e+00 -4.739456e-02 -1.079625e+00 -1.108917e+00 -4.849392e-01 8.850134e-01 1.112877e+00 2.806198e-02 -5.554736e-01 -6.063628e-01 3.785257e-01 1.248112e+00
<VARIANCE> 39
 5.024246e+00 7.815406e+00 1.698216e+01 2.280102e+01 1.530121e+01 3.982595e+01 1.312036e+01 2.511191e+01 2.006349e+01 1.915094e+01 2.278896e+01 1.306176e+01 5.470178e+00 3.066912e-01 1.373231e+00 1.017325e+00 3.009742e+00 2.188347e+00 3.068859e+00 1.420360e+00 2.586531e+00 2.271135e+00 2.330553e+00 2.051229e+00 1.590796e+00 1.143151e+00 6.442254e-02 2.811487e-01 3.599274e-01 5.425758e-01 7.959469e-01 5.727321e-01 5.935347e-01 3.533996e-01 6.714681e-01 3.666368e-01 6.728694e-01 2.531009e-01 1.254814e-01
<GCONST> 1.000666e+02
<MIXTURE> 16 3.514099e-02
<MEAN> 39
 -9.381152e-01 3.564591e+00 1.009684e+01 3.862770e+00 1.287827e+00 4.381208e-01 -3.679557e+00 -6.165493e+00 -3.460291e+00 -1.394356e+00 -2.688591e+00 -6.097367e+00 5.566684e+01 -7.067026e-01 3.588125e-01 6.557567e-01 1.890820e-01 6.437736e-01 1.255199e+00 8.717198e-01 1.583547e-01 4.845918e-01 -3.850976e-01 -6.383516e-02 3.701006e-01 -8.331854e-01 -9.462222e-02 -7.484042e-01 -7.630064e-02 -3.768816e-01 -8.185224e-01 -1.153941e+00 -3.692899e-01 2.160720e-01 -4.424258e-01 1.219241e-01 2.001288e-01 2.854677e-01 1.029127e+00
<VARIANCE> 39
 3.586483e+00 3.887499e+00 8.831005e+00 1.012236e+01 8.438800e+00 1.280884e+01 1.304998e+01 1.364672e+01 1.637890e+01 1.474543e+01 1.477972e+01 1.606633e+01 5.439648e+00 3.171333e-01 7.036253e-01 4.718024e-01 9.805968e-01 1.227002e+00 1.165129e+00 1.690495e+00 1.787562e+00 2.024325e+00 1.749300e+00 1.371383e+00 1.194816e+00 3.242286e-01 8.583609e-02 1.516621e-01 4.125706e-01 4.115265e-01 3.387693e-01 4.627215e-01 3.043139e-01 5.002009e-01 5.199779e-01 3.641773e-01 3.327685e-01 2.867588e-01 1.310353e-01
<GCONST> 8.524963e+01
<MIXTURE> 17 3.928709e-02
<MEAN> 39
 -1.206490e+00 2.425099e+00 7.930768e+00 1.343418e+00 -2.538689e+00 -4.700111e+00 -7.627312e+00 -7.109289e+00 -3.667306e+00 -2.198474e+00 -1.775345e+00 -3.540891e+00 5.701963e+01 -1.215881e+00 -1.020701e+00 1.078152e+00 2.216225e-01 -1.982159e-01 -5.813302e-01 5.648801e-01 1.064327e+00 -9.032231e-02 -4.576694e-01 4.213257e-01 6.783832e-01 7.417114e-01 -4.197505e-02 -8.368525e-01 5.407803e-01 -9.236622e-01 -1.537345e+00 -6.013405e-01 -4.654048e-02 1.902822e-01 -6.502674e-01 2.075110e-01 -1.589291e-01 -1.028403e-01 1.256423e+00
<VARIANCE> 39
 3.936512e+00 8.983787e+00 5.882257e+00 9.081912e+00 1.410933e+01 1.609663e+01 2.194157e+01 2.356890e+01 2.089158e+01 1.721807e+01 1.931844e+01 1.669891e+01 6.593251e+00 1.152900e+00 1.105347e+00 1.470947e+00 1.450200e+00 3.339844e+00 2.403019e+00 2.617575e+00 2.401124e+00 2.797552e+00 1.689165e+00 1.790007e+00 2.210033e+00 9.734411e-01 1.276291e-01 2.135985e-01 4.707676e-01 6.611915e-01 5.457137e-01 4.809907e-01 6.423696e-01 5.454007e-01 6.437566e-01 6.628094e-01 5.028484e-01 3.250089e-01 1.903349e-01
<GCONST> 1.007870e+02
<MIXTURE> 18 4.228416e-02
<MEAN> 39
 -1.304151e+00 1.089309e+00 6.486094e+00 -1.044831e+00 -4.668831e+00 -4.991034e+00 -7.412475e+00 -5.869649e+00 -5.343150e+00 -4.941745e+00 -4.858889e+00 -4.854974e+00 5.948112e+01 -9.193781e-01 -1.056897e+00 2.441679e+00 -1.342655e+00 -1.805440e+00 -3.171836e-01 4.292656e-01 -7.142627e-02 -1.015440e+00 6.768683e-01 5.477211e-01 8.614754e-01 1.224710e+00 -2.744929e-01 -6.568862e-01 8.827832e-01 -1.543059e+00 -1.067436e+00 -4.111566e-01 -1.688525e-01 -1.125666e-01 -2.575137e-01 7.475888e-01 -3.570834e-01 2.710394e-01 1.075821e+00
<VARIANCE> 39
 8.631563e+00 1.316863e+01 1.122567e+01 1.174336e+01 2.213166e+01 1.953471e+01 2.084425e+01 1.886241e+01 1.798376e+01 2.206084e+01 1.824108e+01 1.506579e+01 1.050118e+01 8.255553e-01 1.440561e+00 1.805112e+00 1.886185e+00 2.634739e+00 2.343603e+00 2.179948e+00 2.526769e+00 2.131530e+00 1.946944e+00 1.871267e+00 1.710031e+00 8.024123e-01 1.593979e-01 2.635714e-01 3.071131e-01 3.916529e-01 6.761187e-01 4.505216e-01 7.124593e-01 4.951409e-01 5.091287e-01 3.695964e-01 4.537763e-01 5.371500e-01 1.634050e-01
<GCONST> 1.021657e+02
<MIXTURE> 19 3.308517e-02
<MEAN> 39
 -9.290533e-03 -5.715504e+00 3.647192e+00 -7.743459e+00 -7.076336e+00 -1.158059e+01 -9.077116e+00 -3.827571e+00 -4.771955e+00 1.288372e+00 -3.851357e+00 -4.942461e+00 6.689101e+01 -5.140218e-01 -4.148559e-02 1.321226e+00 -4.301711e-01 -9.629899e-01 -3.337405e-02 5.145661e-01 1.226362e-01 -9.232187e-01 -2.415013e-01 1.239551e-01 3.749578e-01 2.832254e-01 -4.472907e-01 -3.297849e-01 3.774603e-01 -8.652676e-01 -5.298427e-01 1.848254e-02 5.642931e-01 1.773700e-01 -1.207519e-01 -7.198836e-03 -7.971263e-02 1.850596e-01 6.948069e-01
<VARIANCE> 39
 1.049490e+01 2.401780e+01 4.611334e+01 5.378022e+01 2.790457e+01 5.827243e+01 3.880178e+01 4.526462e+01 2.647180e+01 3.893531e+01 2.892981e+01 3.012451e+01 1.404412e+01 3.484525e-01 9.568656e-01 2.863381e+00 2.687665e+00 1.420527e+00 2.262339e+00 1.242257e+00 2.829651e+00 2.569149e+00 2.289890e+00 1.964340e+00 1.803583e+00 6.326529e-01 1.196299e-01 1.209012e-01 3.204542e-01 6.900374e-01 3.766658e-01 5.052097e-01 3.994482e-01 4.499032e-01 4.350708e-01 4.753999e-01 4.846681e-01 4.197882e-01 9.507085e-02
<GCONST> 1.075422e+02
<MIXTURE> 20 4.020064e-02
<MEAN> 39
 -2.951600e+00 2.532970e+00 9.130857e+00 2.028913e+00 -5.770571e-01 -1.592643e+00 -5.985615e+00 -8.002641e+00 -6.033152e+00 -6.640378e+00 -6.714959e+00 -6.266872e+00 5.631107e+01 -1.825832e-01 -7.029061e-01 -7.026696e-01 -1.369158e+00 -6.491041e-01 -4.155563e-01 3.247516e-02 8.682808e-01 2.948232e-01 3.101864e-01 3.362058e-01 3.153561e-01 1.225753e+00 2.882556e-01 -1.008429e+00 -9.614018e-01 -1.952973e+00 -1.174725e+00 -5.541077e-01 -9.740888e-02 5.797455e-01 2.879134e-01 5.837813e-01 2.231013e-01 5.641083e-01 1.474199e+00
<VARIANCE> 39
 5.078557e+00 6.103812e+00 8.609293e+00 9.593046e+00 1.019566e+01 1.028762e+01 1.821141e+01 1.445569e+01 2.016373e+01 1.914382e+01 1.653773e+01 1.560663e+01 3.727469e+00 1.703357e+00 1.098626e+00 1.819999e+00 2.271202e+00 1.815712e+00 2.335372e+00 3.181560e+00 3.659467e+00 1.502029e+00 2.120578e+00 1.923306e+00 2.184322e+00 1.515787e+00 2.953178e-01 5.089444e-01 8.316251e-01 3.691109e-01 7.575378e-01 7.630640e-01 5.531111e-01 6.516309e-01 4.946667e-01 5.273453e-01 4.647962e-01 5.468579e-01 3.286175e-01
<GCONST> 1.030599e+02
<MIXTURE> 21 3.049092e-02
<MEAN> 39
 -2.037246e+00 3.486012e+00 1.098273e+01 2.825934e+00 7.165890e-01 1.529876e+00 -1.579711e+00 -6.282347e+00 -4.843528e+00 -4.877002e+00 -4.575020e+00 -5.863768e+00 5.556432e+01 -4.704803e-01 -9.385386e-01 -5.017037e-01 -8.419272e-01 -6.365206e-01 -1.222933e+00 -5.952839e-01 6.162617e-01 5.154726e-01 1.722164e-01 3.822919e-01 4.917137e-01 1.431842e+00 1.750921e-01 -8.390335e-01 -4.318391e-01 -1.135752e+00 -9.665892e-01 -1.151310e+00 -6.175630e-01 3.841526e-01 -3.717483e-01 5.977477e-01 4.803688e-01 4.105990e-01 1.291796e+00
<VARIANCE> 39
 5.833194e+00 5.024645e+00 8.566282e+00 1.109877e+01 1.297336e+01 9.465441e+00 1.296529e+01 1.723462e+01 2.119153e+01 1.677434e+01 1.994410e+01 1.194129e+01 6.340577e+00 8.856099e-01 8.905756e-01 1.171880e+00 1.993064e+00 1.609404e+00 2.173730e+00 1.978323e+00 2.192538e+00 2.194180e+00 1.679909e+00 2.117573e+00 2.185337e+00 1.039548e+00 1.518645e-01 2.162122e-01 7.510671e-01 9.526441e-01 5.923957e-01 1.026285e+00 3.769441e-01 8.898499e-01 7.800639e-01 5.464312e-01 4.151092e-01 3.709073e-01 1.486602e-01
<GCONST> 9.925794e+01
<MIXTURE> 22 3.082280e-02
<MEAN> 39
 2.602256e+00 -4.814479e-01 5.236514e-01 -1.163980e+01 -6.000370e+00 1.613999e+00 -1.826823e+00 -6.345063e+00 -9.455203e+00 -4.317779e+00 3.591591e-01 1.116550e-01 6.211384e+01 1.817603e-01 -7.378079e-01 -9.940552e-01 -1.802771e+00 -4.552350e-01 -3.727889e-01 -4.383909e-01 2.194653e-01 1.124048e+00 1.314891e+00 8.992326e-01 -1.970723e-01 1.153401e+00 -5.550161e-02 -7.268978e-01 -4.002030e-01 -5.602998e-01 1.108467e-02 -2.446745e-01 -5.567223e-01 2.919319e-01 5.933867e-01 5.606303e-01 -4.696706e-02 -5.082138e-01 8.188967e-01
<VARIANCE> 39
 5.701920e+00 1.350379e+01 1.739528e+01 4.547538e+01 2.320253e+01 2.902377e+01 2.128969e+01 1.942392e+01 2.423460e+01 2.871281e+01 6.112848e+01 1.584851e+01 1.420994e+01 3.070605e-01 1.882862e+00 1.211682e+00 6.390260e+00 2.327470e+00 1.905009e+00 2.184680e+00 2.073417e+00 2.344966e+00 3.169849e+00 4.599943e+00 2.223501e+00 1.950917e+00 9.814394e-02 1.696893e-01 1.525626e-01 6.189386e-01 4.457317e-01 4.140452e-01 3.528388e-01 4.992754e-01 6.571780e-01 4.200545e-01 7.374582e-01 6.050076e-01 1.310499e-01
<GCONST> 1.067972e+02
<MIXTURE> 23 2.706206e-02
<MEAN> 39
 1.857507e+00 -2.141973e+00 -2.922059e-01 -7.527310e+00 -2.722555e+00 1.069397e+00 -6.257903e+00 -8.582074e+00 -1.012166e+01 -3.406865e+00 1.443285e+00 -4.550205e-01 6.201792e+01 8.719824e-02 -1.162924e-01 -5.203776e-01 -6.733089e-01 -3.972944e-01 -2.012681e-01 5.356719e-02 2.298270e-01 9.160545e-01 7.527032e-01 -1.118706e-01 -2.434995e-01 2.678722e-01 1.065624e-01 -8.905364e-01 -4.710987e-01 -8.973147e-01 -7.020556e-01 -3.903528e-01 -6.061319e-01 6.172452e-01 9.268352e-01 4.698967e-01 -2.061560e-01 -5.996204e-01 1.101745e+00
<VARIANCE> 39
 5.345390e+00 1.285058e+01 1.839092e+01 3.858985e+01 1.848834e+01 1.849440e+01 2.253544e+01 1.719982e+01 2.796380e+01 3.049586e+01 2.937907e+01 1.714799e+01 6.099620e+00 3.531232e-01 1.367689e+00 1.021541e+00 3.930330e+00 1.711214e+00 2.139316e+00 2.897712e+00 1.900430e+00 3.000581e+00 2.916232e+00 1.351226e+00 2.141361e+00 1.027279e+00 8.000312e-02 1.813009e-01 4.537030e-01 6.033036e-01 5.173904e-01 6.470984e-01 4.438528e-01 8.653050e-01 6.296134e-01 5.748055e-01 6.118987e-01 4.959228e-01 1.467590e-01
<GCONST> 1.042616e+02
<MIXTURE> 24 3.142964e-02
<MEAN> 39
 2.597739e+00 -6.482214e+00 1.824521e+00 -4.559096e+00 -5.122694e+00 -9.293945e+00 -1.190761e+01 -4.391974e+00 -3.019674e+00 1.774479e+00 2.442388e+00 -4.427873e+00 6.659838e+01 -2.614463e-01 -6.403594e-01 7.204484e-01 1.896437e-01 -8.601467e-01 -1.519840e+00 -4.995912e-01 1.454100e+00 2.721602e-01 -5.070732e-01 -7.084267e-01 1.585130e-01 6.962501e-01 -2.755624e-01 -3.762967e-01 1.118074e-01 -3.533114e-01 -8.195387e-01 -4.016469e-01 3.554305e-01 7.914271e-01 -4.258545e-02 -3.373211e-01 -4.950351e-02 6.399357e-02 6.837687e-01
<VARIANCE> 39
 6.796052e+00 2.164948e+01 2.287957e+01 2.683881e+01 1.756229e+01 3.194025e+01 2.887154e+01 2.367292e+01 2.396617e+01 3.284518e+01 5.733987e+01 2.375757e+01 1.368846e+01 4.065221e-01 5.095611e-01 1.700761e+00 1.895034e+00 1.525124e+00 2.141505e+00 2.215533e+00 1.694132e+00 1.963721e+00 1.545979e+00 1.397846e+00 2.015943e+00 6.172360e-01 1.042241e-01 1.424921e-01 2.406289e-01 3.474097e-01 4.249124e-01 5.245861e-01 4.220659e-01 4.945695e-01 5.595490e-01 3.001312e-01 4.269786e-01 3.078552e-01 9.674589e-02
<GCONST> 1.003055e+02
<MIXTURE> 25 3.000923e-02
<MEAN> 39
 -4.875015e+00 -1.719267e-02 5.142570e+00 -1.296178e+00 8.884814e-02 9.179069e-01 -1.865673e+00 -4.030320e+00 -3.279734e+00 -9.457672e-01 -1.258293e+00 -1.802307e+00 5.731680e+01 1.794300e-01 -9.314241e-02 -1.757478e-01 -4.408739e-01 -5.682253e-01 -4.423108e-01 -2.536195e-01 -1.368056e-01 1.289382e-01 -5.113793e-02 -2.683864e-01 -3.551629e-01 4.953757e-01 6.161498e-01 -7.309122e-01 -6.076138e-01 -1.362217e+00 -8.750796e-01 -6.942985e-01 -7.456423e-01 7.990061e-02 1.960592e-01 -5.502963e-02 -1.379931e-01 -3.589388e-02 1.328336e+00
<VARIANCE> 39
 2.341126e+01 1.063517e+01 1.326809e+01 2.022236e+01 1.769214e+01 1.589597e+01 2.739293e+01 2.755917e+01 3.321352e+01 2.151183e+01 1.704157e+01 1.960612e+01 1.633086e+01 1.279448e+00 6.787238e-01 1.313183e+00 1.899338e+00 1.284806e+00 2.002198e+00 1.860732e+00 1.310354e+00 1.615778e+00 2.021528e+00 1.882305e+00 9.910640e-01 9.512936e-01 3.983709e-01 4.303693e-01 6.983613e-01 8.305078e-01 5.235392e-01 7.755203e-01 6.954592e-01 5.022112e-01 7.308214e-01 6.396393e-01 6.845010e-01 4.437217e-01 2.653601e-01
<GCONST> 1.070547e+02
<MIXTURE> 26 3.066351e-02
<MEAN> 39
 -2.632623e+00 3.167754e+00 9.334616e+00 2.518308e+00 1.356271e+00 1.577561e+00 -1.382145e+00 -6.235033e+00 -5.034850e+00 -3.493362e+00 -1.738199e+00 -1.725490e+00 5.452650e+01 -1.571256e-01 -1.417514e-02 -1.771954e-02 -1.769320e-01 9.898868e-03 -2.711777e-01 -1.677042e-01 1.591212e-01 4.828319e-02 -2.670785e-01 -1.318509e-01 -2.181786e-01 2.623180e-01 1.471049e-01 -7.203821e-01 -5.641249e-01 -7.469047e-01 -6.384131e-01 -6.667886e-01 -5.949096e-01 2.270201e-01 2.003941e-01 4.400236e-01 1.841510e-01 -6.621590e-02 1.000148e+00
<VARIANCE> 39
 8.548694e+00 4.585382e+00 9.186849e+00 1.299579e+01 6.511137e+00 1.312350e+01 1.498610e+01 2.032410e+01 2.349406e+01 1.257684e+01 1.776290e+01 1.287777e+01 6.397235e+00 3.895459e-01 3.750247e-01 5.549524e-01 5.704995e-01 6.237208e-01 6.730846e-01 1.171702e+00 1.304306e+00 1.339138e+00 1.195240e+00 7.014942e-01 1.057801e+00 3.666286e-01 1.198179e-01 1.686934e-01 3.636858e-01 4.518332e-01 2.446931e-01 5.528064e-01 3.772533e-01 6.517574e-01 4.965690e-01 3.663905e-01 3.970025e-01 2.875829e-01 1.350456e-01
<GCONST> 8.393626e+01
<MIXTURE> 27 3.696769e-02
<MEAN> 39
